~o
<STREAMINFO> 1 39
<VECSIZE> 39<NULLD><MFCC_D_A_Z_0><DIAGC>
~h "a"
<BEGINHMM>
<NUMSTATES> 5
<STATE> 2
<MEAN> 39
 2.925146e+00 -2.356229e+00 6.545295e-01 -2.188145e+00 -1.335849e+00 -1.746588e+00 -3.822045e+00 -6.518834e-03 -6.956999e-01 -4.169583e-01 -1.161603e+00 -2.609004e+00 5.790129e+00 1.606344e-01 -1.969533e-01 1.384298e-01 -7.476055e-02 -1.570630e-01 -1.708580e-01 -1.108632e-01 1.197305e-01 -1.582783e-02 -5.417986e-02 -5.443447e-02 -3.443198e-02 2.296948e-01 -5.171051e-02 -9.173997e-03 -1.775479e-02 3.112065e-03 -8.240517e-03 1.544084e-03 8.202868e-02 1.054141e-02 2.364929e-02 3.251168e-03 1.022851e-03 5.033416e-02 -8.735227e-03
<VARIANCE> 39
 2.375427e+01 4.815733e+01 6.989417e+01 4.227237e+01 5.616442e+01 5.160338e+01 5.127141e+01 5.746396e+01 5.074860e+01 3.502046e+01 3.899035e+01 3.700946e+01 7.718010e+01 7.160029e-01 1.461980e+00 1.533610e+00 1.531551e+00 1.683423e+00 1.294010e+00 1.531458e+00 1.841035e+00 1.376516e+00 1.009696e+00 1.116688e+00 1.070477e+00 3.134680e+00 8.262109e-02 1.606594e-01 1.751498e-01 1.545002e-01 1.918448e-01 1.492136e-01 1.800956e-01 2.260757e-01 1.587073e-01 1.278556e-01 1.391341e-01 1.295884e-01 2.365639e-01
<GCONST> 1.020981e+02
<STATE> 3
<MEAN> 39
 3.419006e+00 -4.476518e+00 2.707788e-01 -2.925216e+00 -2.769520e+00 -2.680238e+00 -3.600438e+00 1.722554e+00 -1.796522e-01 -7.858403e-01 -1.687214e+00 -2.680907e+00 8.211369e+00 4.746692e-02 -6.662099e-02 -9.849965e-02 1.389229e-01 2.371741e-02 -5.625104e-02 2.317890e-01 1.018004e-01 1.152771e-01 -9.263974e-02 -1.773500e-01 1.147809e-01 -1.056171e-01 -5.818889e-02 1.049291e-01 1.894549e-02 4.110183e-02 7.196853e-02 5.077749e-02 6.510118e-02 -1.164453e-01 -2.479391e-02 2.467800e-03 7.477914e-03 3.332754e-02 -1.038493e-01
<VARIANCE> 39
 1.762123e+01 3.550094e+01 5.626892e+01 3.761424e+01 5.931493e+01 4.887730e+01 5.126355e+01 5.714965e+01 4.551918e+01 3.869122e+01 4.083922e+01 3.554105e+01 6.813818e+01 6.259931e-01 1.405477e+00 1.715684e+00 1.323537e+00 1.928543e+00 1.339300e+00 1.478219e+00 1.984679e+00 1.238851e+00 1.138236e+00 1.292556e+00 9.831522e-01 2.411693e+00 6.985074e-02 1.458777e-01 1.582002e-01 1.552394e-01 2.217423e-01 1.464109e-01 1.758485e-01 2.443937e-01 1.517996e-01 1.424066e-01 1.535261e-01 1.248091e-01 2.451499e-01
<GCONST> 1.008220e+02
<STATE> 4
<MEAN> 39
 3.544749e+00 -3.049150e+00 -1.281794e+00 -1.387622e+00 -1.833516e+00 -3.510415e+00 -2.955695e+00 1.185413e+00 1.210874e+00 -4.317759e-01 -2.400495e+00 -2.079458e+00 4.544291e+00 -1.031635e-01 2.052727e-01 3.724089e-02 1.599850e-01 1.117867e-01 5.137707e-02 2.325547e-01 -1.623839e-01 7.993326e-03 -5.246104e-03 1.305228e-03 1.550862e-01 -4.023004e-01 -5.589165e-02 -1.141027e-03 3.320676e-02 -5.456790e-02 1.666087e-02 2.751276e-02 5.952849e-03 -3.441479e-02 -3.021405e-02 1.773213e-02 3.691497e-02 -7.787438e-03 7.264397e-02
<VARIANCE> 39
 1.574350e+01 3.281342e+01 4.308832e+01 3.172582e+01 4.481280e+01 4.660458e+01 4.302815e+01 4.885913e+01 4.168253e+01 3.375922e+01 3.679409e+01 3.317384e+01 7.114736e+01 5.464277e-01 9.325345e-01 1.076703e+00 9.480148e-01 1.306707e+00 1.011554e+00 1.172583e+00 1.329739e+00 9.272768e-01 8.180381e-01 8.932141e-01 7.952558e-01 1.657884e+00 5.902683e-02 1.055887e-01 1.129721e-01 1.090472e-01 1.419968e-01 1.182333e-01 1.287546e-01 1.620372e-01 1.185725e-01 1.035109e-01 1.132108e-01 1.019347e-01 1.810372e-01
<GCONST> 9.101504e+01
<TRANSP> 5
 0.000000e+00 1.000000e+00 0.000000e+00 0.000000e+00 0.000000e+00
 0.000000e+00 4.317674e-01 5.682325e-01 0.000000e+00 0.000000e+00
 0.000000e+00 0.000000e+00 4.386919e-01 5.613081e-01 0.000000e+00
 0.000000e+00 0.000000e+00 0.000000e+00 5.450466e-01 4.549534e-01
 0.000000e+00 0.000000e+00 0.000000e+00 0.000000e+00 0.000000e+00
<ENDHMM>
~h "b"
<BEGINHMM>
<NUMSTATES> 5
<STATE> 2
<MEAN> 39
 4.210908e+00 4.218475e+00 1.364043e+00 2.960085e+00 1.912161e+00 8.358729e-01 -1.738875e+00 -4.072759e+00 -2.395835e+00 -1.455363e+00 -1.095650e+00 -2.568424e+00 -2.125896e+00 -1.536112e-01 -2.585326e-01 -2.295282e-01 -3.870513e-01 2.665478e-01 -2.833794e-02 1.622576e-01 2.486227e-02 1.335633e-01 6.660508e-02 1.059329e-01 -6.146788e-03 7.760312e-01 -6.974635e-02 -3.606077e-01 -1.384321e-01 -3.416399e-01 -2.160238e-01 -3.072939e-02 -1.034133e-01 1.343239e-01 1.093837e-01 8.896513e-02 6.062399e-02 -1.876836e-03 5.475447e-01
<VARIANCE> 39
 2.424775e+01 3.634454e+01 3.780454e+01 3.321193e+01 4.364655e+01 3.912885e+01 3.239899e+01 4.293296e+01 4.556757e+01 2.471328e+01 3.256606e+01 3.009612e+01 4.374360e+01 8.120781e-01 1.331573e+00 1.378489e+00 1.622689e+00 1.176801e+00 1.257800e+00 1.050664e+00 1.215400e+00 1.006582e+00 8.808737e-01 1.000385e+00 9.833071e-01 2.863791e+00 1.196238e-01 1.348614e-01 1.523483e-01 1.430587e-01 1.859502e-01 1.682728e-01 1.474436e-01 1.885716e-01 1.739535e-01 1.236114e-01 1.516168e-01 1.275649e-01 2.207164e-01
<GCONST> 9.610656e+01
<STATE> 3
<MEAN> 39
 3.077698e+00 -3.275805e-02 -9.837126e-01 -1.763860e+00 1.409531e+00 1.262077e-01 -1.978348e+00 -3.421089e+00 -8.073007e-01 -1.155242e-01 -3.221807e-01 -1.962333e+00 6.115303e+00 -1.861746e-01 -9.018936e-01 -4.053960e-01 -8.754989e-01 -4.968866e-01 -9.891488e-02 -1.337897e-01 4.123561e-01 3.426280e-01 2.012276e-01 1.023969e-01 -1.164623e-01 1.662373e+00 -6.642951e-03 -3.130750e-02 9.608773e-02 1.467855e-02 -1.937988e-01 5.508851e-03 -6.415629e-02 7.890710e-02 -2.803209e-02 -7.120224e-02 -3.972728e-02 -3.217589e-02 -1.280730e-02
<VARIANCE> 39
 2.718635e+01 3.924540e+01 4.360491e+01 4.670858e+01 4.346108e+01 5.238655e+01 4.091120e+01 4.575377e+01 4.420312e+01 2.972235e+01 3.746627e+01 3.975379e+01 6.756555e+01 1.172205e+00 2.040906e+00 2.361380e+00 1.950431e+00 2.114968e+00 2.202709e+00 1.518094e+00 2.294893e+00 1.766782e+00 1.105011e+00 1.538347e+00 1.562063e+00 2.994131e+00 1.331964e-01 1.842854e-01 1.542743e-01 1.942340e-01 2.205193e-01 1.944802e-01 1.497715e-01 2.577174e-01 1.817631e-01 1.187522e-01 1.726359e-01 1.525216e-01 3.536542e-01
<GCONST> 1.059320e+02
<STATE> 4
<MEAN> 39
 3.653739e+00 -3.769241e+00 -1.624685e+00 -4.238365e+00 -2.291718e+00 3.627295e-01 -4.305700e+00 -1.202731e+00 -7.545700e-02 -4.390020e-01 -3.899512e-01 -3.159098e+00 1.032323e+01 -1.676435e-01 -3.261083e-01 1.626255e-01 -1.016395e-01 -4.406507e-01 -2.524191e-01 -2.866599e-02 3.426936e-01 5.941048e-02 -1.182928e-01 -1.065775e-01 -1.210918e-02 4.330423e-01 -2.285414e-02 1.798965e-01 1.007849e-01 1.615693e-01 7.728790e-02 -1.631916e-02 7.540733e-02 -8.533633e-02 -8.055922e-02 -6.838118e-02 -4.478469e-02 4.997625e-02 -2.800993e-01
<VARIANCE> 39
 2.149069e+01 4.063066e+01 5.971945e+01 5.168642e+01 5.166578e+01 6.874747e+01 5.215082e+01 6.210206e+01 5.077251e+01 4.045594e+01 4.226683e+01 4.091167e+01 5.890728e+01 9.141411e-01 1.673680e+00 1.726195e+00 1.861295e+00 2.347999e+00 2.044731e+00 1.673526e+00 2.352751e+00 1.706293e+00 1.193643e+00 1.498076e+00 1.184336e+00 2.587287e+00 1.026531e-01 1.772130e-01 1.807156e-01 2.560267e-01 2.410593e-01 2.246351e-01 2.009681e-01 2.978715e-01 1.834114e-01 1.682344e-01 1.724805e-01 1.502108e-01 3.493977e-01
<GCONST> 1.076735e+02
<TRANSP> 5
 0.000000e+00 1.000000e+00 0.000000e+00 0.000000e+00 0.000000e+00
 0.000000e+00 6.555937e-01 3.444063e-01 0.000000e+00 0.000000e+00
 0.000000e+00 0.000000e+00 5.622322e-01 4.377678e-01 0.000000e+00
 0.000000e+00 0.000000e+00 0.000000e+00 7.388619e-01 2.611381e-01
 0.000000e+00 0.000000e+00 0.000000e+00 0.000000e+00 0.000000e+00
<ENDHMM>
~h "c"
<BEGINHMM>
<NUMSTATES> 5
<STATE> 2
<MEAN> 39
 -5.389029e+00 1.485001e+00 1.525114e-02 -3.127385e+00 2.064174e+00 -3.506608e+00 3.588431e-01 -3.628274e-01 8.414047e-01 -2.145934e-01 1.933132e-01 9.662632e-01 2.176314e+00 -7.190562e-01 -1.463281e-01 2.468590e-01 -4.018603e-01 1.551043e-01 -1.525871e-01 2.300152e-01 2.645198e-01 5.668868e-02 -1.114665e-01 9.658385e-02 2.089828e-01 7.979133e-01 1.977372e-01 -1.408369e-01 6.090760e-02 7.278837e-03 -1.559265e-01 4.092332e-02 -1.084902e-01 5.921414e-02 -1.866882e-02 -5.397495e-02 -5.560751e-02 -8.668530e-02 2.366672e-01
<VARIANCE> 39
 7.897059e+01 3.624936e+01 5.577480e+01 3.948731e+01 4.486131e+01 5.368872e+01 4.014641e+01 3.932736e+01 3.375522e+01 2.669941e+01 3.242317e+01 3.295545e+01 5.610254e+01 3.108491e+00 1.401492e+00 1.672175e+00 1.208624e+00 1.501966e+00 1.449644e+00 1.225908e+00 1.238137e+00 9.500809e-01 7.680258e-01 1.015185e+00 9.167445e-01 2.401203e+00 4.378850e-01 1.492074e-01 1.995891e-01 1.740843e-01 1.997372e-01 1.700153e-01 1.654685e-01 1.296672e-01 1.148793e-01 1.031635e-01 1.220390e-01 1.185824e-01 2.503049e-01
<GCONST> 1.007816e+02
<STATE> 3
<MEAN> 39
 -3.181346e+00 -2.800571e+00 3.521147e+00 -4.241892e+00 -1.047164e+00 -3.750933e+00 -6.582505e-01 2.107944e+00 5.817423e-01 -1.567073e+00 -4.504663e-01 8.484411e-01 8.305704e+00 1.121838e+00 -7.041352e-01 -2.024309e-01 1.771638e-01 -6.394520e-01 -3.233964e-03 -4.427599e-01 2.075514e-01 6.553564e-02 -1.680061e-01 -3.756712e-01 -4.060436e-01 6.125072e-01 5.090064e-02 5.519925e-02 -1.744134e-01 3.879529e-02 2.099952e-02 4.398771e-02 -3.110609e-02 -9.297215e-02 -3.423875e-03 4.685916e-02 -1.036529e-02 -1.081937e-01 -1.259205e-01
<VARIANCE> 39
 6.506873e+01 3.749859e+01 6.124107e+01 3.125737e+01 6.107072e+01 4.583326e+01 4.243015e+01 3.626535e+01 3.852779e+01 2.573267e+01 3.461683e+01 2.969236e+01 6.201804e+01 2.735320e+00 1.431731e+00 2.128948e+00 1.170949e+00 1.893800e+00 1.541237e+00 1.333999e+00 1.232269e+00 1.217679e+00 8.247541e-01 1.270074e+00 1.035257e+00 2.004752e+00 3.688914e-01 1.494800e-01 2.323043e-01 1.214489e-01 2.969995e-01 1.602718e-01 1.891773e-01 1.348133e-01 1.208436e-01 1.083610e-01 1.211785e-01 1.065089e-01 2.198500e-01
<GCONST> 1.017119e+02
<STATE> 4
<MEAN> 39
 -1.114061e+00 -1.616030e+00 -2.491579e-01 -2.680866e+00 2.004500e-01 -3.020635e+00 -3.550670e-02 1.481396e+00 1.383592e+00 -3.698293e-01 -1.021309e-01 -1.213066e-01 3.660341e+00 2.914106e-01 -2.069881e-01 -1.654384e-01 5.674654e-02 -2.095067e-01 -9.298628e-04 -1.613655e-01 4.871457e-02 1.012944e-01 -4.200540e-02 -1.276564e-01 -1.556045e-01 1.903661e-01 -3.337388e-02 1.618540e-02 1.652088e-02 -2.445036e-02 1.791655e-02 2.287022e-02 -2.938333e-02 -5.147167e-02 -4.178685e-02 2.341303e-02 5.260448e-04 -4.799780e-02 3.174599e-02
<VARIANCE> 39
 3.998840e+01 3.390480e+01 5.515166e+01 2.952586e+01 4.314762e+01 4.757018e+01 3.481697e+01 3.598648e+01 3.783984e+01 2.576459e+01 3.084206e+01 3.329803e+01 6.827320e+01 1.800551e+00 1.030390e+00 1.521526e+00 8.146041e-01 1.480161e+00 1.006412e+00 1.052402e+00 1.042808e+00 9.042271e-01 7.169473e-01 8.374686e-01 9.063252e-01 1.791343e+00 1.884489e-01 1.089362e-01 1.306442e-01 8.356396e-02 1.694834e-01 1.188821e-01 1.316185e-01 1.094157e-01 1.066656e-01 9.822507e-02 9.491144e-02 9.738135e-02 1.750789e-01
<GCONST> 9.274966e+01
<TRANSP> 5
 0.000000e+00 1.000000e+00 0.000000e+00 0.000000e+00 0.000000e+00
 0.000000e+00 7.998087e-01 2.001913e-01 0.000000e+00 0.000000e+00
 0.000000e+00 0.000000e+00 5.153796e-01 4.846204e-01 0.000000e+00
 0.000000e+00 0.000000e+00 0.000000e+00 4.604328e-01 5.395672e-01
 0.000000e+00 0.000000e+00 0.000000e+00 0.000000e+00 0.000000e+00
<ENDHMM>
~h "d"
<BEGINHMM>
<NUMSTATES> 5
<STATE> 2
<MEAN> 39
 1.022229e+00 5.979306e-01 3.240665e+00 7.377203e-01 -1.664562e+00 -2.881728e+00 -1.660801e+00 -2.672290e+00 -1.261532e+00 -1.929729e+00 -6.441740e-01 -2.835611e+00 4.983608e+00 -3.477582e-01 -3.915857e-01 6.630045e-01 -3.316642e-01 -7.459094e-01 -3.828953e-01 -6.468219e-03 -3.076748e-03 -4.380508e-01 -1.682967e-01 4.692731e-01 1.637092e-01 1.132617e+00 2.244338e-02 -1.128700e-01 6.859320e-02 -1.210532e-01 -2.099143e-01 1.189565e-02 -1.427851e-01 2.941311e-02 -7.264957e-02 4.122348e-02 5.185736e-02 -4.148583e-02 1.757270e-01
<VARIANCE> 39
 3.914708e+01 3.683123e+01 5.232348e+01 3.876746e+01 6.267304e+01 4.535356e+01 5.875351e+01 4.924014e+01 4.309785e+01 3.161138e+01 4.108234e+01 3.966639e+01 8.357324e+01 1.294617e+00 1.206838e+00 1.951366e+00 1.400469e+00 2.621971e+00 1.511666e+00 2.024281e+00 2.021387e+00 1.723770e+00 9.831998e-01 1.583953e+00 1.286912e+00 3.120687e+00 1.541399e-01 1.364389e-01 1.802596e-01 1.638865e-01 2.708029e-01 1.818523e-01 2.221140e-01 2.112405e-01 1.686836e-01 1.231894e-01 1.959586e-01 1.500985e-01 4.081987e-01
<GCONST> 1.063926e+02
<STATE> 3
<MEAN> 39
 8.296342e-01 -2.509090e+00 6.896427e+00 -1.721594e+00 -8.300365e+00 -4.294273e+00 -4.246809e+00 -2.267131e+00 -4.513939e+00 -1.909054e+00 2.676404e+00 -2.983944e+00 1.093968e+01 7.929363e-02 -5.438791e-01 1.535609e-01 -5.066219e-01 -6.434556e-01 -7.949212e-02 -3.617361e-01 3.740010e-01 -5.138332e-02 1.691625e-01 1.163245e-01 -1.653199e-01 7.256454e-01 7.138962e-02 9.174503e-02 -1.740705e-01 6.235576e-02 2.284768e-01 1.023341e-01 6.169527e-02 -3.546356e-03 1.197448e-01 4.887605e-02 -1.840596e-01 -1.697319e-02 -2.732068e-01
<VARIANCE> 39
 1.892312e+01 2.508957e+01 7.539880e+01 3.143026e+01 7.845413e+01 5.316329e+01 4.928817e+01 6.222366e+01 6.153973e+01 3.152344e+01 5.112931e+01 3.579376e+01 5.872110e+01 7.428428e-01 1.082637e+00 2.423780e+00 1.312677e+00 2.654767e+00 1.529077e+00 1.613720e+00 2.390368e+00 2.149092e+00 1.103933e+00 1.671142e+00 1.136297e+00 2.549638e+00 9.263047e-02 1.262974e-01 2.286783e-01 1.564906e-01 3.161841e-01 1.933967e-01 2.135438e-01 2.594912e-01 2.287562e-01 1.352916e-01 2.203860e-01 1.545164e-01 3.317107e-01
<GCONST> 1.058374e+02
<STATE> 4
<MEAN> 39
 2.449000e+00 -5.445518e+00 4.399546e+00 -4.711977e+00 -7.587285e+00 -4.145393e+00 -5.239825e+00 2.022898e-02 -2.689988e+00 -1.636075e+00 -1.025536e+00 -4.864169e+00 1.335281e+01 1.220023e-01 5.697513e-02 -1.592636e-01 1.803296e-02 2.317197e-01 2.558928e-02 5.819632e-02 -1.755766e-02 4.686892e-02 1.626416e-01 -2.113267e-01 2.249146e-02 -3.309819e-01 -4.286153e-03 1.085889e-01 -4.700514e-02 8.451668e-02 1.243896e-01 4.385646e-02 6.639929e-02 -7.257698e-02 1.525768e-02 -1.337369e-03 -5.421047e-03 5.509342e-02 -1.800625e-01
<VARIANCE> 39
 1.739395e+01 2.760998e+01 7.735018e+01 3.650965e+01 6.701658e+01 5.212728e+01 5.464281e+01 6.804939e+01 6.198476e+01 4.497361e+01 5.847954e+01 3.600003e+01 6.583464e+01 5.694453e-01 8.725654e-01 1.815268e+00 1.208626e+00 1.827160e+00 1.081781e+00 1.179122e+00 1.772725e+00 1.382346e+00 1.123026e+00 1.434716e+00 9.257820e-01 2.062938e+00 6.816442e-02 9.916596e-02 1.766296e-01 1.289460e-01 2.120108e-01 1.359009e-01 1.578853e-01 2.275968e-01 1.639237e-01 1.376204e-01 1.756150e-01 1.164559e-01 2.219251e-01
<GCONST> 1.000636e+02
<TRANSP> 5
 0.000000e+00 1.000000e+00 0.000000e+00 0.000000e+00 0.000000e+00
 0.000000e+00 7.541735e-01 2.458265e-01 0.000000e+00 0.000000e+00
 0.000000e+00 0.000000e+00 6.484473e-01 3.515527e-01 0.000000e+00
 0.000000e+00 0.000000e+00 0.000000e+00 7.682984e-01 2.317016e-01
 0.000000e+00 0.000000e+00 0.000000e+00 0.000000e+00 0.000000e+00
<ENDHMM>
~h "e"
<BEGINHMM>
<NUMSTATES> 5
<STATE> 2
<MEAN> 39
 8.737582e-01 -6.989123e-01 3.759564e+00 8.436202e-03 -5.321563e+00 -3.974772e+00 -4.660427e-01 -1.239630e+00 -2.728724e+00 1.100684e+00 1.637664e+00 -9.971690e-01 2.534721e+00 -3.321657e-01 -2.864309e-01 1.358180e+00 -4.660100e-01 -1.110468e+00 -1.521679e-01 -1.435203e-01 -7.201093e-02 -8.960938e-01 4.213024e-02 4.139988e-01 -8.617818e-02 1.029278e+00 2.058819e-02 -1.157881e-02 7.387841e-02 -1.279100e-01 -6.979148e-02 6.685757e-02 -6.523073e-02 -4.676932e-02 -8.173738e-02 -3.656332e-02 -1.987728e-02 -6.432260e-02 1.383035e-01
<VARIANCE> 39
 2.084574e+01 3.093359e+01 6.963708e+01 3.591797e+01 6.322057e+01 3.782800e+01 4.070811e+01 5.240336e+01 5.064869e+01 2.936262e+01 3.624378e+01 2.640060e+01 7.645751e+01 6.442537e-01 9.314990e-01 1.891027e+00 1.051975e+00 1.703001e+00 1.130873e+00 1.087464e+00 1.717238e+00 1.219437e+00 7.039660e-01 9.924811e-01 6.693020e-01 1.524601e+00 7.448975e-02 1.006669e-01 2.106988e-01 1.050674e-01 1.764669e-01 1.085190e-01 1.082652e-01 1.550817e-01 1.431165e-01 8.935773e-02 1.020643e-01 8.068304e-02 2.016479e-01
<GCONST> 9.373222e+01
<STATE> 3
<MEAN> 39
 1.501506e-01 -2.260568e+00 9.851984e+00 -3.981481e+00 -1.048460e+01 -3.906989e+00 -2.024449e+00 -1.340207e+00 -6.978786e+00 1.309746e+00 2.948789e+00 -1.528324e+00 7.708735e+00 -1.409334e-01 -1.153916e-01 7.754700e-01 -4.688605e-01 -7.194305e-01 7.990319e-03 -2.712845e-01 -8.733498e-02 -6.131838e-01 -7.150465e-02 2.594624e-01 -1.207123e-01 7.776926e-01 4.111708e-02 8.434395e-02 -2.711096e-01 1.628588e-01 2.529044e-01 2.103300e-02 4.733056e-02 -4.130311e-02 1.732181e-01 -4.745464e-02 -1.193487e-01 7.366263e-03 -1.829806e-01
<VARIANCE> 39
 1.707783e+01 2.645526e+01 5.597878e+01 3.174562e+01 6.267659e+01 4.039779e+01 3.847921e+01 6.446657e+01 3.660973e+01 2.820682e+01 3.554982e+01 2.499135e+01 5.599748e+01 5.660212e-01 7.085720e-01 1.973046e+00 1.055632e+00 1.909439e+00 9.814587e-01 1.118217e+00 1.258665e+00 1.341900e+00 7.337537e-01 1.076485e+00 7.918959e-01 1.816604e+00 6.316341e-02 9.461820e-02 1.365075e-01 8.551921e-02 1.761918e-01 1.013416e-01 9.692670e-02 1.619983e-01 1.091848e-01 8.478699e-02 1.030156e-01 8.167906e-02 1.484967e-01
<GCONST> 9.077557e+01
<STATE> 4
<MEAN> 39
 1.951359e-01 -2.337102e+00 9.776013e+00 -3.443624e+00 -1.074828e+01 -3.296025e+00 -3.547651e+00 -2.654383e+00 -7.744297e+00 7.244956e-01 2.943639e+00 -3.515483e+00 7.335638e+00 6.697495e-02 1.485195e-01 -4.972926e-01 3.197101e-01 5.060498e-01 -2.330266e-02 2.431500e-01 -6.992950e-02 3.329845e-01 -8.669350e-02 -2.395937e-01 1.080858e-01 -4.941759e-01 5.127878e-03 4.163675e-02 -1.960832e-01 8.636677e-02 1.980211e-01 -2.900769e-03 6.956245e-02 7.872378e-03 1.532120e-01 -1.958550e-02 -8.062157e-02 7.365627e-02 -1.047951e-01
<VARIANCE> 39
 1.567434e+01 2.273180e+01 6.191011e+01 3.333898e+01 6.624873e+01 4.123881e+01 3.515549e+01 5.439266e+01 4.625188e+01 3.456795e+01 5.084750e+01 3.239118e+01 8.632944e+01 5.073349e-01 6.472577e-01 1.569422e+00 1.051143e+00 1.717127e+00 1.037972e+00 9.249209e-01 1.284728e+00 1.222497e+00 7.052599e-01 1.143056e+00 8.791063e-01 2.699965e+00 7.348308e-02 7.279962e-02 1.628580e-01 1.292432e-01 1.998764e-01 1.194032e-01 1.200210e-01 1.819014e-01 1.539199e-01 8.848093e-02 1.692068e-01 1.100332e-01 3.166196e-01
<GCONST> 9.480204e+01
<TRANSP> 5
 0.000000e+00 1.000000e+00 0.000000e+00 0.000000e+00 0.000000e+00
 0.000000e+00 6.439903e-01 3.560097e-01 0.000000e+00 0.000000e+00
 0.000000e+00 0.000000e+00 5.352030e-01 4.647970e-01 0.000000e+00
 0.000000e+00 0.000000e+00 0.000000e+00 8.012742e-01 1.987258e-01
 0.000000e+00 0.000000e+00 0.000000e+00 0.000000e+00 0.000000e+00
<ENDHMM>
~h "g"
<BEGINHMM>
<NUMSTATES> 5
<STATE> 2
<MEAN> 39
 4.991074e+00 -2.994461e+00 -2.004977e+00 -4.912518e+00 -1.462971e-01 8.434341e-01 -3.542313e+00 -1.265652e+00 -5.495333e-01 4.253260e-01 -8.440750e-01 -4.156850e+00 5.429175e+00 2.781040e-02 3.077922e-01 -1.772636e-01 3.190276e-01 2.405608e-01 8.837774e-02 1.756559e-01 -9.729636e-02 1.705903e-01 3.821307e-02 4.549835e-02 1.721887e-01 -6.358767e-01 -3.806796e-02 -1.776570e-02 1.428957e-02 1.173748e-02 -3.435953e-02 -3.555633e-02 1.185239e-02 4.423894e-02 -8.558143e-05 1.047906e-02 1.877697e-02 2.218274e-02 4.309114e-02
<VARIANCE> 39
 1.610786e+01 3.629603e+01 5.426696e+01 4.307621e+01 4.106077e+01 6.742027e+01 4.144395e+01 4.002470e+01 4.296282e+01 3.998236e+01 3.747705e+01 3.124356e+01 5.724539e+01 3.604228e-01 7.316039e-01 7.556922e-01 7.540893e-01 8.953496e-01 1.048731e+00 1.001496e+00 9.291326e-01 1.007916e+00 9.025728e-01 8.599969e-01 7.300934e-01 1.049280e+00 3.796323e-02 7.594919e-02 7.542440e-02 9.336466e-02 1.135150e-01 1.091262e-01 1.219877e-01 1.095685e-01 1.074703e-01 1.078260e-01 9.499300e-02 9.734093e-02 1.134770e-01
<GCONST> 8.633613e+01
<STATE> 3
<MEAN> 39
 4.801044e+00 -1.316987e+00 -2.392398e+00 -2.929199e+00 2.903398e-01 -6.707670e-01 -3.138373e+00 -1.284014e+00 -9.026165e-02 9.024191e-01 -1.182502e+00 -3.279966e+00 2.617994e+00 -7.790398e-02 2.771428e-01 -8.321638e-02 3.546361e-01 9.796658e-02 -3.906494e-02 1.953924e-01 5.500798e-02 2.153660e-01 1.956316e-02 3.436702e-02 1.878462e-01 -5.672175e-01 -3.241460e-02 -8.563865e-02 4.292792e-02 -6.638010e-02 -6.707452e-02 -1.255763e-02 -4.651176e-03 3.741750e-02 -4.578446e-02 -6.830296e-03 2.825376e-02 -9.756882e-03 1.517687e-01
<VARIANCE> 39
 1.698250e+01 3.227847e+01 4.675331e+01 3.674264e+01 4.097567e+01 4.947784e+01 4.229293e+01 3.919592e+01 3.942013e+01 3.658290e+01 3.256492e+01 3.090874e+01 4.947614e+01 3.607281e-01 6.158593e-01 6.949037e-01 6.899972e-01 8.082230e-01 8.632600e-01 7.812981e-01 8.506722e-01 9.380307e-01 7.485619e-01 7.588272e-01 6.883746e-01 9.928512e-01 3.890466e-02 6.539346e-02 6.526199e-02 8.492669e-02 1.041007e-01 9.739133e-02 1.101854e-01 1.074535e-01 1.089702e-01 1.004496e-01 8.632310e-02 8.532857e-02 1.029108e-01
<GCONST> 8.263533e+01
<STATE> 4
<MEAN> 39
 3.600570e+00 7.944077e-01 -4.290466e+00 -1.841516e+00 2.128727e-01 -1.511380e+00 -2.446870e+00 -1.524791e+00 1.876083e+00 2.568912e+00 1.194236e-01 -1.307202e+00 -2.233950e+00 -1.578542e-01 1.043520e-01 5.310858e-02 1.453440e-01 3.446067e-02 1.734880e-02 2.098476e-01 8.792940e-02 5.779201e-02 -2.421212e-02 2.500053e-02 1.023472e-01 -1.549871e-01 -1.663886e-02 -5.731438e-02 3.259809e-02 -5.381147e-02 -1.036781e-02 2.526131e-03 1.178222e-02 -1.568541e-02 -5.372287e-02 -1.797312e-02 -2.857433e-03 -1.932176e-02 1.409010e-01
<VARIANCE> 39
 1.548189e+01 2.430615e+01 3.076737e+01 2.948116e+01 2.640691e+01 3.977605e+01 2.955431e+01 3.346908e+01 3.558932e+01 3.223154e+01 3.058919e+01 3.179536e+01 4.236910e+01 3.073021e-01 3.698000e-01 4.400553e-01 4.888912e-01 5.843220e-01 6.122509e-01 4.999949e-01 6.020072e-01 6.200185e-01 5.657044e-01 5.497184e-01 5.724335e-01 4.979698e-01 3.826161e-02 4.696295e-02 4.808002e-02 6.558765e-02 7.839860e-02 7.860865e-02 7.429123e-02 8.199896e-02 8.380446e-02 7.998249e-02 7.559738e-02 7.492699e-02 7.268137e-02
<GCONST> 7.203062e+01
<TRANSP> 5
 0.000000e+00 1.000000e+00 0.000000e+00 0.000000e+00 0.000000e+00
 0.000000e+00 4.670689e-01 5.329311e-01 0.000000e+00 0.000000e+00
 0.000000e+00 0.000000e+00 3.240950e-01 6.759050e-01 0.000000e+00
 0.000000e+00 0.000000e+00 0.000000e+00 7.966028e-01 2.033971e-01
 0.000000e+00 0.000000e+00 0.000000e+00 0.000000e+00 0.000000e+00
<ENDHMM>
~h "h"
<BEGINHMM>
<NUMSTATES> 5
<STATE> 2
<MEAN> 39
 2.709915e+00 -2.915864e+00 1.943484e+00 -1.332282e+00 -1.296656e+00 -1.028232e+00 3.250791e+00 2.932088e+00 -9.879943e-01 -1.406819e+00 -2.179828e+00 -1.269733e-01 5.373432e+00 -3.157569e-02 2.793182e-01 -2.474233e-01 2.522779e-01 2.941218e-01 1.680620e-01 2.344023e-01 -9.555410e-02 9.856584e-02 6.111327e-02 6.099909e-02 2.233279e-01 -5.816733e-01 2.594489e-04 -3.094875e-02 -2.849067e-03 -5.818630e-02 -6.609922e-02 -2.516954e-02 -9.987627e-02 -1.851550e-02 -2.515250e-02 1.667413e-02 4.736891e-02 -4.325078e-02 2.291432e-02
<VARIANCE> 39
 1.551154e+01 2.877910e+01 4.786518e+01 3.039349e+01 5.669982e+01 4.307922e+01 4.825138e+01 5.661828e+01 3.501480e+01 3.569273e+01 3.623803e+01 3.102214e+01 5.029185e+01 2.900103e-01 6.318660e-01 7.875292e-01 7.180592e-01 1.298346e+00 8.576084e-01 9.520835e-01 1.069239e+00 7.053185e-01 8.088154e-01 8.008389e-01 7.580728e-01 7.065604e-01 2.916302e-02 6.196079e-02 6.285413e-02 8.036207e-02 1.240678e-01 8.367325e-02 1.132119e-01 1.024679e-01 8.488759e-02 8.907345e-02 9.149690e-02 8.859026e-02 5.191820e-02
<GCONST> 8.201194e+01
<STATE> 3
<MEAN> 39
 2.630041e+00 -2.626171e+00 1.133905e+00 -1.222395e+00 -9.803416e-01 -6.248198e-01 3.401290e+00 2.769489e+00 -1.016501e+00 -1.563368e+00 -1.728898e+00 2.232988e-01 4.448022e+00 2.656065e-02 4.181901e-02 -2.010327e-01 -6.095648e-02 -7.135607e-02 -2.450310e-02 -1.043130e-01 -3.127206e-02 2.053906e-03 5.234302e-02 1.540913e-01 1.003430e-03 -3.023116e-01 5.361054e-03 -4.313919e-02 1.416547e-02 -6.209125e-02 -7.417894e-02 -4.310648e-02 -8.922204e-02 -4.181656e-03 -2.640389e-02 3.647375e-03 6.532073e-03 -4.722770e-02 6.116082e-02
<VARIANCE> 39
 1.409794e+01 2.874731e+01 4.575433e+01 3.117939e+01 5.344858e+01 4.245411e+01 5.009644e+01 5.508467e+01 3.436938e+01 3.993594e+01 3.176475e+01 2.796184e+01 5.416871e+01 2.573382e-01 5.681731e-01 6.832440e-01 5.878258e-01 1.102873e+00 7.418026e-01 8.148406e-01 9.830124e-01 6.586270e-01 6.864944e-01 6.670035e-01 6.240787e-01 7.156313e-01 2.676253e-02 5.683463e-02 5.491155e-02 7.104596e-02 1.159732e-01 7.563866e-02 1.018376e-01 8.865581e-02 7.386868e-02 7.739127e-02 7.832760e-02 7.468185e-02 4.676940e-02
<GCONST> 7.849154e+01
<STATE> 4
<MEAN> 39
 1.541379e+00 -6.851316e-01 -9.577101e-01 -6.340633e-01 -1.312642e+00 -7.263574e-01 1.895192e+00 1.964181e+00 3.762212e-01 -3.214986e-01 -2.209245e-01 3.479660e-01 -8.199853e-01 -3.728548e-02 1.035874e-01 -5.167563e-02 6.602272e-02 4.091642e-02 3.132362e-02 6.681474e-03 -9.211420e-03 1.012073e-04 1.658998e-03 3.747538e-02 3.647818e-02 -1.971014e-01 1.962788e-03 2.025835e-03 1.196711e-02 3.486100e-03 3.309721e-03 -1.196770e-03 -2.728614e-04 -8.577098e-03 -9.490772e-03 -6.445709e-03 -1.350042e-02 -8.133512e-03 1.784578e-02
<VARIANCE> 39
 1.774808e+01 2.667968e+01 4.166340e+01 2.675086e+01 3.924984e+01 3.434449e+01 3.092026e+01 4.526733e+01 3.185967e+01 2.847442e+01 2.596506e+01 2.502678e+01 5.964347e+01 1.366563e-01 2.323769e-01 3.090953e-01 3.302996e-01 4.568594e-01 4.118107e-01 4.311978e-01 4.608152e-01 4.103523e-01 3.990370e-01 3.971807e-01 3.945577e-01 2.210373e-01 1.628482e-02 2.656114e-02 3.194034e-02 4.106203e-02 5.545300e-02 5.016622e-02 5.589101e-02 5.798924e-02 5.272526e-02 5.228216e-02 5.244383e-02 5.230758e-02 2.230764e-02
<GCONST> 6.089503e+01
<TRANSP> 5
 0.000000e+00 1.000000e+00 0.000000e+00 0.000000e+00 0.000000e+00
 0.000000e+00 4.975905e-01 5.024095e-01 0.000000e+00 0.000000e+00
 0.000000e+00 0.000000e+00 4.207473e-01 5.792527e-01 0.000000e+00
 0.000000e+00 0.000000e+00 0.000000e+00 8.700450e-01 1.299550e-01
 0.000000e+00 0.000000e+00 0.000000e+00 0.000000e+00 0.000000e+00
<ENDHMM>
~h "i"
<BEGINHMM>
<NUMSTATES> 5
<STATE> 2
<MEAN> 39
 1.441548e+00 -2.249400e-01 5.636126e+00 -9.864038e-01 -4.916050e+00 -2.132300e+00 -2.231571e+00 -3.215420e+00 -4.320724e+00 -9.472579e-01 1.157468e-01 -2.148840e+00 4.429223e+00 8.508955e-02 1.745682e-01 -9.042945e-02 1.700016e-01 3.213828e-02 -3.594046e-02 1.199485e-01 -1.804580e-01 1.015295e-03 -1.232444e-02 -3.109208e-02 3.825746e-02 -3.286268e-01 -5.395978e-02 -2.653771e-02 -4.471923e-02 -2.344941e-02 6.671391e-02 -2.743277e-02 2.699655e-03 2.291571e-02 6.054453e-02 -3.363196e-03 -1.527958e-02 2.104762e-02 3.643940e-02
<VARIANCE> 39
 2.255715e+01 2.923277e+01 6.896379e+01 3.946663e+01 6.296715e+01 4.934245e+01 4.270949e+01 5.011699e+01 4.735127e+01 2.822775e+01 3.704580e+01 3.145770e+01 6.679279e+01 6.542256e-01 7.563828e-01 1.559653e+00 9.064141e-01 1.865195e+00 9.515260e-01 1.131751e+00 1.409596e+00 1.232080e+00 7.270832e-01 9.780328e-01 8.360682e-01 1.683471e+00 7.624825e-02 9.327589e-02 1.700233e-01 1.217168e-01 2.263895e-01 1.161933e-01 1.260831e-01 1.794911e-01 1.473902e-01 9.276395e-02 1.284647e-01 9.570877e-02 1.846727e-01
<GCONST> 9.451073e+01
<STATE> 3
<MEAN> 39
 1.463765e+00 2.872982e-01 5.267959e+00 -2.969719e-01 -4.656809e+00 -2.575216e+00 -1.777260e+00 -3.467013e+00 -4.056937e+00 -9.477105e-01 1.317775e-01 -1.902032e+00 3.498370e+00 1.312424e-02 6.524096e-02 -1.509922e-01 7.001524e-02 1.029974e-01 -1.151121e-01 5.776124e-02 -8.836976e-02 9.298421e-02 -1.500929e-02 -3.347517e-02 7.671458e-02 -1.537364e-01 -5.459573e-02 -7.274033e-02 -2.300986e-02 -7.236935e-02 4.097495e-02 -1.636038e-02 -3.669426e-02 6.316824e-02 5.138183e-02 3.330924e-03 -4.235524e-03 3.577183e-03 1.220902e-01
<VARIANCE> 39
 2.073540e+01 2.871906e+01 6.490077e+01 3.861900e+01 6.265738e+01 4.550916e+01 4.219672e+01 5.157038e+01 4.456121e+01 2.785005e+01 3.568381e+01 3.013728e+01 6.571126e+01 6.892396e-01 8.206935e-01 1.661010e+00 1.005146e+00 2.008418e+00 9.988347e-01 1.169707e+00 1.449876e+00 1.295833e+00 7.192811e-01 1.084188e+00 9.120349e-01 2.122873e+00 7.590425e-02 9.430712e-02 1.660615e-01 1.250375e-01 2.274173e-01 1.139870e-01 1.283347e-01 1.713944e-01 1.381854e-01 9.117615e-02 1.196831e-01 9.810634e-02 1.980085e-01
<GCONST> 9.494017e+01
<STATE> 4
<MEAN> 39
 1.326577e+00 8.897632e-01 4.074382e+00 1.506138e-01 -3.951699e+00 -2.814743e+00 -1.827132e+00 -3.638387e+00 -3.297535e+00 -4.237155e-01 3.316964e-01 -1.307270e+00 1.894851e+00 -1.066982e-01 -1.016684e-01 -1.693995e-01 -9.091813e-02 1.883466e-01 -9.423538e-02 -1.146034e-02 8.576138e-02 1.824211e-01 4.700784e-03 -2.328095e-02 9.409072e-02 8.869997e-02 -4.462372e-02 -8.536602e-02 2.299381e-02 -9.339562e-02 -6.242656e-03 1.788372e-03 -1.682960e-02 4.802410e-02 1.595314e-02 -3.528023e-03 -1.320362e-02 -2.518342e-02 1.771708e-01
<VARIANCE> 39
 1.949677e+01 2.753158e+01 5.884456e+01 3.658067e+01 5.082449e+01 4.139025e+01 3.814613e+01 5.205880e+01 3.905603e+01 2.898372e+01 3.352355e+01 2.962466e+01 6.831747e+01 6.594509e-01 8.258746e-01 1.633754e+00 9.834740e-01 1.692049e+00 9.450313e-01 1.087584e+00 1.391346e+00 1.167577e+00 6.788100e-01 1.019466e+00 8.217192e-01 1.841641e+00 7.656036e-02 9.068596e-02 1.488692e-01 1.118341e-01 1.870883e-01 1.111858e-01 1.168263e-01 1.509721e-01 1.229653e-01 8.864883e-02 1.070657e-01 8.815632e-02 1.861587e-01
<GCONST> 9.215152e+01
<TRANSP> 5
 0.000000e+00 1.000000e+00 0.000000e+00 0.000000e+00 0.000000e+00
 0.000000e+00 2.800415e-01 7.199585e-01 0.000000e+00 0.000000e+00
 0.000000e+00 0.000000e+00 2.794866e-01 7.205133e-01 0.000000e+00
 0.000000e+00 0.000000e+00 0.000000e+00 4.431862e-01 5.568138e-01
 0.000000e+00 0.000000e+00 0.000000e+00 0.000000e+00 0.000000e+00
<ENDHMM>
~h "j"
<BEGINHMM>
<NUMSTATES> 5
<STATE> 2
<MEAN> 39
 9.172599e-01 3.913962e+00 1.873343e+00 1.361444e+00 1.619042e+00 -3.663063e+00 2.039092e-02 -3.016950e+00 -1.277586e+00 -2.547415e+00 -3.064446e+00 -1.229076e+00 1.374676e+00 -8.887941e-01 3.633925e-01 1.387301e-01 -3.191093e-01 6.650659e-01 -5.690086e-01 4.361299e-01 1.107498e-01 1.640397e-01 -4.441535e-02 1.228496e-01 5.051521e-01 4.231559e-01 -6.222034e-02 -2.717584e-01 4.470195e-02 -2.133898e-01 -2.714786e-01 -5.418909e-02 -1.440344e-01 1.348829e-01 -2.209753e-02 9.687967e-03 8.426470e-02 3.250099e-02 4.054270e-01
<VARIANCE> 39
 3.692385e+01 3.589798e+01 4.433168e+01 3.820419e+01 4.916037e+01 5.087461e+01 4.387179e+01 4.389108e+01 3.590866e+01 2.711419e+01 3.438671e+01 3.105486e+01 4.947721e+01 1.321102e+00 1.408467e+00 1.309149e+00 1.204508e+00 1.800395e+00 1.490917e+00 1.510114e+00 1.346921e+00 1.044740e+00 7.472165e-01 9.177918e-01 1.114141e+00 2.238418e+00 2.218092e-01 1.542407e-01 1.615793e-01 1.313115e-01 2.673593e-01 1.932140e-01 2.319971e-01 1.826405e-01 1.384076e-01 9.768551e-02 1.187283e-01 1.399630e-01 1.983029e-01
<GCONST> 9.942774e+01
<STATE> 3
<MEAN> 39
 -3.842303e+00 1.892701e+00 4.301599e+00 -2.292472e+00 1.830667e-01 -7.875463e+00 -9.408001e-01 -1.154269e+00 -1.576223e+00 -2.717055e+00 -1.357720e+00 2.209603e+00 9.298421e+00 2.681413e-01 -1.124362e+00 1.033944e-02 -5.645867e-01 -1.043376e+00 -2.291320e-01 -7.973120e-01 7.346655e-01 2.874353e-01 4.834720e-02 1.090320e-01 -2.247715e-02 1.327170e+00 3.557298e-01 -1.797573e-01 -1.791609e-01 5.732959e-02 -1.528758e-01 2.851319e-01 -1.426068e-01 1.757238e-02 4.727380e-02 3.950173e-02 -9.160572e-02 -2.894115e-01 -1.349734e-01
<VARIANCE> 39
 4.222348e+01 4.198206e+01 4.673970e+01 3.132836e+01 7.302179e+01 4.944917e+01 5.688195e+01 4.567175e+01 3.621223e+01 2.495954e+01 3.407803e+01 3.181619e+01 4.025485e+01 1.768377e+00 1.830449e+00 1.954345e+00 1.234959e+00 2.167628e+00 1.650678e+00 2.042996e+00 2.367502e+00 1.646515e+00 8.597649e-01 1.124403e+00 1.358276e+00 2.003511e+00 2.081942e-01 1.940615e-01 2.012707e-01 1.324675e-01 3.451116e-01 1.949574e-01 2.595646e-01 2.142579e-01 1.425842e-01 1.157661e-01 1.368400e-01 1.732656e-01 1.940530e-01
<GCONST> 1.044569e+02
<STATE> 4
<MEAN> 39
 1.297289e+00 -5.706162e+00 3.919021e-01 -5.243370e+00 -5.155289e+00 -4.913301e+00 -5.795697e+00 3.272594e+00 1.494211e+00 -2.307341e+00 -2.557070e+00 -2.456490e+00 1.433729e+01 6.700636e-01 -7.380869e-01 -7.793275e-01 -2.424888e-01 -5.238935e-02 7.672255e-01 -3.306530e-01 2.011754e-01 2.486773e-01 1.935226e-01 -2.189619e-01 -8.067908e-01 1.174345e-01 -8.107280e-02 3.090988e-01 6.256661e-03 1.415010e-01 3.510343e-01 9.184654e-02 2.114230e-01 -2.808026e-01 -1.423239e-01 1.446077e-02 1.018567e-02 1.825414e-02 -3.577511e-01
<VARIANCE> 39
 1.674095e+01 2.410157e+01 5.079045e+01 2.411671e+01 4.491956e+01 4.853434e+01 5.202441e+01 5.664544e+01 4.697522e+01 2.897521e+01 3.615694e+01 3.940535e+01 4.905888e+01 7.661924e-01 1.314934e+00 1.975668e+00 9.689441e-01 2.036033e+00 1.547355e+00 1.539791e+00 1.884053e+00 1.320466e+00 9.682595e-01 1.241836e+00 1.410544e+00 1.582870e+00 1.154812e-01 1.333753e-01 1.885984e-01 1.227925e-01 2.523120e-01 1.899663e-01 2.002123e-01 2.274589e-01 1.519067e-01 1.084244e-01 1.353703e-01 1.718089e-01 1.664573e-01
<GCONST> 9.924334e+01
<TRANSP> 5
 0.000000e+00 1.000000e+00 0.000000e+00 0.000000e+00 0.000000e+00
 0.000000e+00 7.686826e-01 2.313174e-01 0.000000e+00 0.000000e+00
 0.000000e+00 0.000000e+00 7.469881e-01 2.530119e-01 0.000000e+00
 0.000000e+00 0.000000e+00 0.000000e+00 7.136291e-01 2.863708e-01
 0.000000e+00 0.000000e+00 0.000000e+00 0.000000e+00 0.000000e+00
<ENDHMM>
~h "k"
<BEGINHMM>
<NUMSTATES> 5
<STATE> 2
<MEAN> 39
 -6.864175e-01 -1.311111e+00 -6.847316e-02 -2.026893e+00 -2.659193e-01 -2.485231e+00 -1.805028e+00 -1.788145e+00 -1.297248e+00 1.115260e+00 -3.065070e-01 2.406780e-01 1.965479e+00 -2.415619e-01 -5.290852e-01 1.805002e-01 -4.961973e-01 4.687304e-02 -1.102084e-01 -2.095039e-01 1.199931e-01 -2.867239e-02 9.130803e-02 -1.730430e-01 -1.360371e-01 1.130850e+00 9.157540e-02 -3.894031e-02 1.343464e-01 -7.416670e-02 -1.927250e-01 5.396082e-02 -8.696906e-02 1.193252e-02 -6.311070e-02 -7.503635e-02 -7.805747e-04 -1.643998e-01 2.436926e-01
<VARIANCE> 39
 3.418486e+01 4.005141e+01 8.062824e+01 3.933479e+01 7.360490e+01 5.593875e+01 4.261782e+01 4.605466e+01 4.865766e+01 3.529232e+01 3.971068e+01 3.866489e+01 6.850314e+01 1.158742e+00 1.223984e+00 2.693051e+00 1.323773e+00 2.437892e+00 1.674880e+00 1.469119e+00 1.692179e+00 1.869545e+00 1.190914e+00 1.458140e+00 1.488756e+00 2.874720e+00 1.403734e-01 1.435873e-01 2.583036e-01 1.604334e-01 2.844070e-01 2.035387e-01 1.731465e-01 1.946297e-01 2.038500e-01 1.518033e-01 1.890949e-01 1.686802e-01 3.117858e-01
<GCONST> 1.070342e+02
<STATE> 3
<MEAN> 39
 7.995789e-01 -5.600318e+00 1.108418e+00 -5.657398e+00 -3.513814e+00 -2.296736e+00 -4.782506e+00 2.043926e-01 -1.459231e+00 4.468132e-01 -1.035727e+00 -4.096416e+00 1.084715e+01 3.039423e-01 -3.505222e-01 1.897539e-01 -2.715330e-01 -5.532224e-01 1.238628e-01 -2.439470e-01 2.130037e-01 -4.540231e-02 -2.738333e-01 -5.285864e-02 -5.548427e-01 8.621078e-01 3.995689e-02 1.406217e-01 -4.953593e-02 1.396019e-01 3.221737e-02 3.552651e-02 9.793054e-02 -7.781584e-02 -8.227882e-03 -4.236101e-02 2.498959e-02 8.179462e-02 -2.796591e-01
<VARIANCE> 39
 2.654475e+01 3.484368e+01 9.150984e+01 3.553895e+01 8.919991e+01 5.388769e+01 5.012046e+01 5.634031e+01 6.181834e+01 3.975662e+01 4.961441e+01 4.873821e+01 6.885735e+01 9.098509e-01 1.084073e+00 2.418558e+00 1.334274e+00 2.602954e+00 1.971843e+00 1.522262e+00 1.907875e+00 1.962466e+00 1.284895e+00 1.732826e+00 1.658450e+00 2.632425e+00 1.058284e-01 1.296397e-01 2.457848e-01 1.627072e-01 3.587311e-01 2.094561e-01 1.928941e-01 2.221453e-01 2.325186e-01 1.634476e-01 2.175134e-01 2.231230e-01 3.157403e-01
<GCONST> 1.089605e+02
<STATE> 4
<MEAN> 39
 2.139710e+00 -6.028819e+00 -5.271270e-01 -5.714144e+00 -3.177568e+00 -1.285224e+00 -3.547326e+00 1.159509e+00 -1.097572e+00 -3.509623e-01 -2.048427e+00 -4.674003e+00 1.024386e+01 1.767378e-01 1.802629e-01 7.577743e-02 1.580392e-01 -1.073530e-01 1.253689e-01 1.234342e-01 -1.603832e-01 -6.260481e-02 -1.324445e-01 2.302188e-02 -3.343030e-02 -1.920401e-01 -3.882817e-02 1.324184e-01 -9.917635e-03 1.111697e-01 1.013964e-01 -1.462158e-02 5.167469e-02 -8.618461e-02 -3.197345e-03 2.765597e-02 3.817108e-02 1.226975e-01 -2.140453e-01
<VARIANCE> 39
 2.355899e+01 3.549308e+01 7.636903e+01 3.913047e+01 6.692668e+01 6.219577e+01 4.520654e+01 4.993669e+01 5.329204e+01 3.424746e+01 4.302973e+01 4.164019e+01 6.906850e+01 7.010662e-01 9.459035e-01 1.545931e+00 1.198175e+00 1.732534e+00 1.342955e+00 1.096700e+00 1.322317e+00 1.297976e+00 9.783067e-01 1.093571e+00 1.238712e+00 2.332555e+00 8.208397e-02 1.091974e-01 1.620648e-01 1.319164e-01 2.293811e-01 1.497720e-01 1.432012e-01 1.656842e-01 1.656654e-01 1.173529e-01 1.448342e-01 1.550100e-01 2.308250e-01
<GCONST> 9.963599e+01
<TRANSP> 5
 0.000000e+00 1.000000e+00 0.000000e+00 0.000000e+00 0.000000e+00
 0.000000e+00 7.655593e-01 2.344407e-01 0.000000e+00 0.000000e+00
 0.000000e+00 0.000000e+00 6.734899e-01 3.265102e-01 0.000000e+00
 0.000000e+00 0.000000e+00 0.000000e+00 5.719463e-01 4.280536e-01
 0.000000e+00 0.000000e+00 0.000000e+00 0.000000e+00 0.000000e+00
<ENDHMM>
~h "l"
<BEGINHMM>
<NUMSTATES> 5
<STATE> 2
<MEAN> 39
 2.130286e+00 -3.408816e+00 5.094618e+00 -3.877301e+00 -2.144837e+00 -3.384919e+00 -8.649475e+00 -1.472010e+00 -6.893597e-01 -3.511931e+00 -2.987164e+00 -2.733100e+00 1.004864e+01 1.733074e-01 -2.091245e-01 4.213984e-01 -3.859399e-01 -2.504041e-02 -2.081652e-01 -9.005678e-01 1.827903e-01 1.217842e-01 -9.953544e-02 -1.469474e-01 -9.209032e-02 3.293747e-01 -5.358299e-03 -3.029986e-02 -1.527317e-01 -1.279174e-02 -6.502965e-02 4.991661e-02 1.917232e-01 3.429486e-02 -2.401054e-02 9.385350e-02 5.845622e-02 -1.791543e-02 7.944360e-03
<VARIANCE> 39
 1.535793e+01 3.118635e+01 7.027029e+01 3.636040e+01 5.368988e+01 5.287683e+01 1.023032e+02 6.347034e+01 4.733032e+01 4.873199e+01 4.413330e+01 4.130044e+01 6.125941e+01 4.882704e-01 1.136693e+00 2.472207e+00 9.465706e-01 1.952750e+00 1.503148e+00 3.190526e+00 2.354542e+00 1.471936e+00 1.360043e+00 1.335570e+00 1.117215e+00 1.747381e+00 5.323042e-02 1.313381e-01 2.313451e-01 1.097588e-01 2.283751e-01 1.559616e-01 4.143613e-01 2.883134e-01 1.621774e-01 1.696921e-01 1.576420e-01 1.281945e-01 1.640149e-01
<GCONST> 1.033999e+02
<STATE> 3
<MEAN> 39
 3.448921e+00 -5.713082e+00 3.876495e+00 -6.122019e+00 -3.682609e+00 -4.225911e+00 -1.005463e+01 5.107473e-01 4.119067e-01 -1.865230e+00 -2.866178e+00 -4.751127e+00 1.165026e+01 1.029949e-01 -1.627015e-01 -5.185633e-01 2.396587e-02 -1.301487e-01 4.918730e-02 6.155897e-01 2.198950e-01 -3.870216e-02 3.474560e-01 1.618773e-01 -1.440285e-01 2.797223e-02 -1.162831e-02 1.083538e-01 -7.027087e-02 1.180898e-01 5.494820e-02 5.055708e-02 1.793914e-01 -1.111141e-01 -9.996484e-02 9.092975e-03 4.588142e-02 4.909318e-02 -1.494666e-01
<VARIANCE> 39
 1.165763e+01 2.856124e+01 5.733352e+01 3.302045e+01 4.641870e+01 4.368732e+01 7.449686e+01 7.397428e+01 4.522658e+01 5.466212e+01 4.347235e+01 4.280296e+01 5.050109e+01 3.405823e-01 1.165551e+00 1.845404e+00 1.077454e+00 1.444539e+00 1.137252e+00 2.490187e+00 2.479934e+00 1.405492e+00 1.438867e+00 1.256458e+00 9.740363e-01 1.462463e+00 4.064085e-02 1.518346e-01 1.958283e-01 1.238899e-01 1.881729e-01 1.385882e-01 3.355944e-01 3.217839e-01 1.675703e-01 1.817022e-01 1.568796e-01 1.239462e-01 1.906880e-01
<GCONST> 1.001226e+02
<STATE> 4
<MEAN> 39
 3.890016e+00 -3.597115e+00 3.011515e+00 -4.148116e+00 -3.817591e+00 -4.220004e+00 -7.093025e+00 -9.369159e-01 -1.230348e+00 -3.112877e-01 -2.343990e+00 -3.584353e+00 7.474008e+00 -1.253931e-02 2.889871e-01 -3.460603e-01 3.057887e-01 1.071331e-01 8.178522e-02 6.290864e-01 -9.327781e-02 -1.431855e-01 1.576881e-01 1.747268e-01 7.664963e-02 -5.243635e-01 -4.371349e-02 3.193920e-02 -2.107741e-02 2.312672e-03 3.058209e-02 1.557888e-02 3.918745e-02 -7.239631e-04 1.039214e-02 -4.623657e-02 1.210591e-02 3.730705e-02 -2.246393e-02
<VARIANCE> 39
 1.275607e+01 3.239193e+01 5.914577e+01 2.982162e+01 4.416207e+01 4.693165e+01 5.608896e+01 6.104707e+01 4.497078e+01 3.629298e+01 3.892793e+01 3.340415e+01 4.616066e+01 3.874542e-01 1.023164e+00 1.206493e+00 9.459638e-01 1.098126e+00 1.047393e+00 1.593621e+00 1.530930e+00 1.051619e+00 9.800186e-01 1.001155e+00 8.192087e-01 1.431737e+00 3.826256e-02 1.071964e-01 1.204152e-01 9.958245e-02 1.183657e-01 1.178279e-01 1.997361e-01 1.830048e-01 1.251491e-01 1.134162e-01 1.225763e-01 9.380829e-02 1.296236e-01
<GCONST> 9.151610e+01
<TRANSP> 5
 0.000000e+00 1.000000e+00 0.000000e+00 0.000000e+00 0.000000e+00
 0.000000e+00 7.563244e-01 2.436756e-01 0.000000e+00 0.000000e+00
 0.000000e+00 0.000000e+00 6.803771e-01 3.196229e-01 0.000000e+00
 0.000000e+00 0.000000e+00 0.000000e+00 6.590520e-01 3.409481e-01
 0.000000e+00 0.000000e+00 0.000000e+00 0.000000e+00 0.000000e+00
<ENDHMM>
~h "m"
<BEGINHMM>
<NUMSTATES> 5
<STATE> 2
<MEAN> 39
 4.179436e+00 -1.225885e+00 1.869214e+00 1.819596e-01 -1.244010e+00 -4.589186e-01 -3.505731e+00 -4.506595e+00 -4.580843e+00 -2.227682e+00 -6.362602e-01 -4.254550e+00 5.027916e+00 1.541303e-01 2.753502e-02 3.034126e-01 1.655107e-01 -1.455908e-01 5.485294e-02 -3.376961e-02 -3.045291e-01 -3.890132e-01 -7.509372e-02 -3.745675e-03 -9.219088e-02 -5.116251e-02 -6.431856e-02 -9.412955e-02 -9.503691e-03 -1.465486e-01 -5.099570e-02 -2.278329e-02 1.657173e-02 1.557635e-01 8.760177e-02 1.657881e-02 -2.003185e-02 3.946915e-02 1.239594e-01
<VARIANCE> 39
 2.019887e+01 3.076173e+01 4.626399e+01 3.722657e+01 4.149759e+01 4.548396e+01 3.786646e+01 5.809307e+01 4.153365e+01 3.068532e+01 3.878084e+01 3.337422e+01 5.137486e+01 4.712582e-01 7.066180e-01 1.295588e+00 1.231531e+00 1.141860e+00 8.500478e-01 1.045475e+00 1.656360e+00 1.015329e+00 7.946090e-01 8.757045e-01 7.322722e-01 1.075525e+00 4.874972e-02 6.983553e-02 1.388244e-01 1.173389e-01 1.238161e-01 9.450274e-02 1.264312e-01 1.910647e-01 1.336123e-01 1.035085e-01 1.087904e-01 9.010045e-02 8.620930e-02
<GCONST> 8.902718e+01
<STATE> 3
<MEAN> 39
 4.330009e+00 -1.440746e+00 2.872373e+00 4.021455e-01 -1.727348e+00 -5.620594e-01 -3.497199e+00 -4.849121e+00 -5.292112e+00 -2.581576e+00 -7.475238e-01 -4.198728e+00 5.323278e+00 6.506672e-04 -2.012885e-01 1.235908e-01 -2.811753e-01 -2.567362e-01 5.510831e-02 1.001948e-01 1.962513e-01 -1.044371e-01 -7.949342e-02 -6.809631e-03 2.259365e-02 2.690155e-01 -5.332479e-02 -7.818568e-02 -8.871272e-02 -1.661027e-01 -3.519624e-02 6.933614e-03 2.964872e-02 1.818793e-01 1.278865e-01 4.315984e-02 3.917375e-03 2.705814e-02 1.048410e-01
<VARIANCE> 39
 1.741578e+01 2.943671e+01 4.559861e+01 3.583109e+01 3.889547e+01 4.634423e+01 3.583258e+01 5.798999e+01 4.316640e+01 3.133648e+01 3.797100e+01 3.216217e+01 4.461827e+01 4.457607e-01 7.080656e-01 1.380284e+00 1.239468e+00 1.202717e+00 8.747017e-01 1.076633e+00 1.737516e+00 1.055685e+00 8.918896e-01 8.758376e-01 6.858194e-01 1.081333e+00 4.505798e-02 6.438504e-02 1.739228e-01 1.214787e-01 1.193158e-01 9.144767e-02 1.199824e-01 1.858912e-01 1.383809e-01 1.082569e-01 1.084205e-01 8.863582e-02 8.164622e-02
<GCONST> 8.876414e+01
<STATE> 4
<MEAN> 39
 3.875075e+00 -1.226737e+00 2.694547e+00 -1.058554e+00 -2.812695e+00 -9.400707e-01 -2.238114e+00 -3.876411e+00 -4.711833e+00 -2.324691e+00 -8.518867e-01 -3.796967e+00 5.355749e+00 -4.666696e-02 -1.440749e-01 -6.580264e-02 -3.778606e-01 -2.137154e-01 8.641619e-02 1.571622e-01 3.271051e-01 9.528818e-02 2.242115e-02 2.985929e-02 4.552618e-02 1.931005e-01 -1.676325e-02 -3.224389e-02 -4.729144e-02 -5.441631e-02 -2.016023e-03 3.528819e-03 3.771932e-04 6.174934e-02 5.728711e-02 2.352813e-02 4.488562e-03 7.941560e-03 3.392436e-02
<VARIANCE> 39
 1.780595e+01 2.994953e+01 4.604216e+01 3.804945e+01 3.868516e+01 4.144195e+01 3.694588e+01 5.063890e+01 3.340298e+01 3.126690e+01 3.663505e+01 2.954996e+01 3.762376e+01 3.391230e-01 5.701531e-01 1.177346e+00 1.025652e+00 1.106552e+00 7.496539e-01 8.795464e-01 1.252649e+00 8.948570e-01 8.152664e-01 7.397100e-01 5.538973e-01 7.265421e-01 3.361820e-02 5.710685e-02 1.013457e-01 9.778253e-02 1.012036e-01 7.672983e-02 8.878452e-02 1.338505e-01 9.954832e-02 9.064333e-02 9.332111e-02 7.209042e-02 5.706937e-02
<GCONST> 8.209948e+01
<TRANSP> 5
 0.000000e+00 1.000000e+00 0.000000e+00 0.000000e+00 0.000000e+00
 0.000000e+00 3.386392e-01 6.613609e-01 0.000000e+00 0.000000e+00
 0.000000e+00 0.000000e+00 3.537962e-01 6.462037e-01 0.000000e+00
 0.000000e+00 0.000000e+00 0.000000e+00 6.323802e-01 3.676198e-01
 0.000000e+00 0.000000e+00 0.000000e+00 0.000000e+00 0.000000e+00
<ENDHMM>
~h "n"
<BEGINHMM>
<NUMSTATES> 5
<STATE> 2
<MEAN> 39
 4.477282e+00 -2.479129e+00 2.791553e+00 2.773145e-01 -4.185831e+00 -1.623771e+00 -2.824289e+00 -1.866778e+00 -2.561886e+00 -1.834772e+00 -4.018423e+00 -3.466952e+00 5.157917e+00 1.649839e-01 4.194521e-01 3.515114e-01 6.336979e-01 -1.456995e-01 -5.443181e-02 7.128207e-02 -6.816385e-01 -6.085376e-02 1.087047e-01 -3.550656e-01 7.115493e-02 -6.371410e-01 -6.827298e-02 -2.708520e-02 -7.541314e-02 -1.266381e-01 8.067226e-02 3.788234e-02 7.789331e-03 5.941378e-02 1.549121e-02 6.077251e-03 8.214714e-02 7.569935e-03 8.589131e-02
<VARIANCE> 39
 1.367508e+01 3.040483e+01 4.477094e+01 4.182935e+01 4.463441e+01 3.750448e+01 4.752840e+01 8.019025e+01 3.599910e+01 3.476313e+01 4.135068e+01 2.923026e+01 5.014772e+01 3.769287e-01 8.057851e-01 1.504662e+00 1.159013e+00 1.374097e+00 8.595017e-01 1.009385e+00 2.196273e+00 8.788310e-01 9.889942e-01 1.003039e+00 6.751023e-01 1.074960e+00 4.401346e-02 8.020429e-02 1.258473e-01 1.459423e-01 1.284602e-01 9.579743e-02 1.187395e-01 2.679195e-01 9.811475e-02 1.079996e-01 1.250264e-01 8.241566e-02 1.040232e-01
<GCONST> 9.004992e+01
<STATE> 3
<MEAN> 39
 4.693277e+00 -1.087716e+00 3.506552e+00 1.978824e+00 -4.684806e+00 -1.730360e+00 -2.435955e+00 -4.192271e+00 -2.511398e+00 -1.557748e+00 -4.870603e+00 -3.168338e+00 3.425381e+00 -6.176906e-02 2.018322e-01 3.088808e-03 4.816841e-02 1.433554e-01 2.081323e-02 4.341805e-02 -1.073880e-01 -6.143611e-02 3.540651e-02 4.601591e-02 4.049372e-02 -2.390133e-01 -1.058172e-01 -1.286217e-01 -1.070138e-01 -2.732761e-01 8.619651e-02 3.112021e-02 -1.665192e-02 2.618100e-01 1.106684e-03 -2.418406e-02 1.777245e-01 -1.984818e-02 2.103654e-01
<VARIANCE> 39
 1.376606e+01 2.560193e+01 4.304336e+01 3.772066e+01 4.192153e+01 3.551631e+01 3.881899e+01 6.158312e+01 3.360421e+01 3.093585e+01 4.212807e+01 2.824386e+01 4.243322e+01 3.879713e-01 8.572891e-01 1.209766e+00 1.277070e+00 1.179345e+00 8.475778e-01 9.387741e-01 2.181340e+00 9.198635e-01 7.988475e-01 1.111225e+00 6.541225e-01 1.237982e+00 4.881781e-02 8.300562e-02 1.391456e-01 1.507844e-01 1.491640e-01 1.058976e-01 1.177378e-01 2.532032e-01 1.006525e-01 1.095812e-01 1.484436e-01 8.209138e-02 1.028922e-01
<GCONST> 8.921037e+01
<STATE> 4
<MEAN> 39
 4.099161e+00 2.138880e-01 2.138720e+00 1.102276e+00 -3.399354e+00 -1.291026e+00 -2.391614e+00 -3.497049e+00 -2.315651e+00 -1.050675e+00 -3.619752e+00 -2.613080e+00 1.453473e+00 -1.869915e-01 1.161873e-02 -1.496134e-01 -2.277904e-01 2.574534e-01 3.177182e-02 5.086122e-02 2.372746e-01 -2.191606e-03 3.613299e-03 3.027982e-01 5.074351e-02 -5.196568e-02 -6.273297e-02 -9.225305e-02 -1.324853e-02 -1.260076e-01 1.162590e-02 -1.083362e-02 1.634343e-02 9.377910e-02 7.295914e-03 -1.086601e-02 6.674806e-02 4.983772e-03 1.403016e-01
<VARIANCE> 39
 1.340479e+01 2.544448e+01 4.454523e+01 3.231165e+01 3.781730e+01 3.416347e+01 3.555715e+01 4.963107e+01 3.404606e+01 2.864557e+01 3.980844e+01 2.755165e+01 4.168844e+01 3.546982e-01 6.067094e-01 1.001806e+00 9.308462e-01 9.416799e-01 7.571893e-01 8.026130e-01 1.371388e+00 7.953933e-01 6.646844e-01 9.773030e-01 6.010841e-01 8.564594e-01 4.159176e-02 6.536904e-02 9.392659e-02 9.078762e-02 1.097777e-01 9.445273e-02 9.655954e-02 1.505955e-01 8.675528e-02 8.483744e-02 1.065768e-01 7.292499e-02 7.563361e-02
<GCONST> 8.203891e+01
<TRANSP> 5
 0.000000e+00 1.000000e+00 0.000000e+00 0.000000e+00 0.000000e+00
 0.000000e+00 4.475153e-01 5.524848e-01 0.000000e+00 0.000000e+00
 0.000000e+00 0.000000e+00 3.882337e-01 6.117663e-01 0.000000e+00
 0.000000e+00 0.000000e+00 0.000000e+00 6.566390e-01 3.433610e-01
 0.000000e+00 0.000000e+00 0.000000e+00 0.000000e+00 0.000000e+00
<ENDHMM>
~h "o"
<BEGINHMM>
<NUMSTATES> 5
<STATE> 2
<MEAN> 39
 2.278025e+00 2.009769e+00 -1.629081e+00 -3.636678e+00 2.343303e+00 1.251580e+00 -1.247819e+00 -3.120346e+00 -2.219315e+00 2.092450e-01 8.125571e-01 7.449440e-01 3.192018e+00 6.383819e-01 -5.593659e-02 -3.019129e-01 -1.323496e+00 -3.847872e-01 7.230191e-01 -4.999167e-01 -4.392437e-01 -5.596103e-01 -6.552166e-02 3.718945e-01 1.146648e-01 9.301471e-01 2.279930e-02 -1.448751e-02 3.783984e-02 -6.636113e-02 -1.505162e-01 5.076009e-02 -8.189780e-02 -5.393350e-03 -2.584198e-02 -2.704528e-02 3.006557e-02 -3.628990e-02 2.631253e-02
<VARIANCE> 39
 3.333123e+01 3.644398e+01 5.005844e+01 7.266171e+01 5.298787e+01 6.025819e+01 5.912841e+01 3.817100e+01 4.252421e+01 3.444434e+01 3.329394e+01 3.030940e+01 7.930081e+01 1.081890e+00 9.637330e-01 1.555534e+00 1.647408e+00 1.971621e+00 1.759701e+00 1.785621e+00 1.291076e+00 1.389902e+00 1.192773e+00 1.136607e+00 9.964635e-01 2.165341e+00 1.283025e-01 1.204628e-01 1.498979e-01 2.043394e-01 2.186675e-01 1.866215e-01 2.059571e-01 1.617765e-01 1.602785e-01 1.568186e-01 1.311519e-01 1.179774e-01 2.029862e-01
<GCONST> 1.021103e+02
<STATE> 3
<MEAN> 39
 5.301311e+00 7.346783e-01 -2.545026e+00 -1.040316e+01 -2.820391e+00 5.840832e+00 -6.959013e+00 -5.977549e+00 -5.159214e+00 -4.935374e-01 3.572528e+00 -8.092735e-01 9.271239e+00 2.566916e-01 -7.917007e-02 1.086044e-02 -3.385455e-01 -2.664088e-01 1.758226e-01 -3.251690e-01 -1.485890e-01 -1.273589e-01 -3.871403e-02 8.004508e-02 -1.296047e-01 1.655149e-01 -1.390305e-01 9.891610e-03 7.358655e-02 3.131737e-01 1.329848e-01 -2.433472e-01 1.720750e-01 1.348913e-01 1.338120e-01 -2.001226e-02 -1.482455e-01 1.565311e-02 -2.044637e-01
<VARIANCE> 39
 2.325411e+01 2.681609e+01 5.036880e+01 7.392583e+01 5.137363e+01 7.033456e+01 5.785271e+01 4.487586e+01 4.602636e+01 5.074932e+01 4.876149e+01 3.868239e+01 4.695833e+01 8.589025e-01 9.029156e-01 1.457897e+00 2.897277e+00 2.172174e+00 2.650523e+00 2.267843e+00 1.592710e+00 1.657057e+00 1.709380e+00 1.634878e+00 1.230690e+00 2.287722e+00 9.336431e-02 1.033705e-01 1.619425e-01 2.770540e-01 2.557247e-01 2.693260e-01 2.651188e-01 2.088455e-01 2.026167e-01 2.260789e-01 2.144568e-01 1.580186e-01 2.196041e-01
<GCONST> 1.070283e+02
<STATE> 4
<MEAN> 39
 6.112103e+00 2.099101e+00 -3.456957e+00 -9.710997e+00 -1.297866e+00 4.203570e+00 -5.070537e+00 -5.850263e+00 -4.564701e+00 -7.850582e-01 2.127401e+00 5.230886e-01 4.371794e+00 -2.860308e-01 9.897525e-02 1.017721e-01 7.877204e-01 2.978884e-01 -6.595694e-01 2.181418e-01 1.963492e-01 3.115332e-01 3.009355e-02 -2.345780e-01 -2.978240e-02 -5.572683e-01 -9.356401e-02 -4.490713e-02 3.158074e-02 8.569781e-02 4.968748e-02 -7.861511e-02 2.858848e-02 4.335319e-02 4.839101e-02 3.089879e-02 -1.272462e-02 -1.317802e-02 4.199937e-02
<VARIANCE> 39
 1.526560e+01 2.564282e+01 3.261256e+01 6.853555e+01 3.659926e+01 6.005149e+01 4.367789e+01 3.582874e+01 3.782235e+01 3.789317e+01 3.340495e+01 3.308413e+01 4.926199e+01 5.274301e-01 7.658423e-01 8.132485e-01 1.653197e+00 1.204013e+00 1.452045e+00 1.211104e+00 9.276269e-01 9.986459e-01 1.164923e+00 9.756736e-01 8.200303e-01 1.489291e+00 5.132234e-02 9.014573e-02 8.799336e-02 1.871082e-01 1.483155e-01 1.474461e-01 1.472222e-01 1.247300e-01 1.211593e-01 1.522578e-01 1.288043e-01 1.155789e-01 1.789106e-01
<GCONST> 9.175000e+01
<TRANSP> 5
 0.000000e+00 1.000000e+00 0.000000e+00 0.000000e+00 0.000000e+00
 0.000000e+00 6.721196e-01 3.278804e-01 0.000000e+00 0.000000e+00
 0.000000e+00 0.000000e+00 7.618893e-01 2.381108e-01 0.000000e+00
 0.000000e+00 0.000000e+00 0.000000e+00 8.161265e-01 1.838736e-01
 0.000000e+00 0.000000e+00 0.000000e+00 0.000000e+00 0.000000e+00
<ENDHMM>
~h "p"
<BEGINHMM>
<NUMSTATES> 5
<STATE> 2
<MEAN> 39
 9.965477e-01 -1.557090e+00 -3.777191e+00 -2.390577e+00 8.465797e-01 -4.748200e-01 -3.702564e-01 -7.987286e-01 1.999434e+00 1.508959e+00 7.765769e-01 -1.309615e+00 3.187603e+00 2.884855e-01 -7.975277e-01 -3.383294e-01 -7.149766e-01 3.404138e-02 5.111654e-01 -9.110579e-02 -5.423278e-03 -7.189386e-02 -1.169945e-01 -1.992799e-01 -4.404532e-01 1.965868e+00 1.158536e-01 -1.275150e-01 -2.340720e-02 -7.455793e-02 -1.102072e-01 7.498506e-02 -1.248382e-01 2.904931e-02 -5.307898e-02 -6.966347e-02 -7.428850e-02 -1.130411e-01 2.098351e-01
<VARIANCE> 39
 2.706482e+01 3.318689e+01 3.477720e+01 4.014587e+01 4.055198e+01 5.225550e+01 4.005999e+01 3.298752e+01 2.948875e+01 2.858671e+01 3.062436e+01 3.682798e+01 1.044422e+02 9.808615e-01 1.093231e+00 1.118462e+00 1.439397e+00 1.423762e+00 2.049030e+00 1.353818e+00 1.377684e+00 1.156072e+00 1.143954e+00 9.537030e-01 1.386834e+00 3.607223e+00 1.056108e-01 1.211167e-01 1.279328e-01 1.627145e-01 1.498881e-01 2.113643e-01 1.559410e-01 1.455358e-01 1.266979e-01 1.200205e-01 1.099696e-01 1.580043e-01 4.860364e-01
<GCONST> 9.863120e+01
<STATE> 3
<MEAN> 39
 4.013006e+00 -7.478223e+00 -5.758921e+00 -7.028054e+00 -1.529444e+00 2.490322e+00 -3.621593e+00 -2.603751e-01 1.085744e+00 -5.798129e-01 -1.100050e+00 -6.101023e+00 1.460244e+01 3.323371e-01 -5.579641e-01 -2.236374e-02 -8.760446e-02 -2.856272e-01 -5.416604e-02 -4.155746e-01 2.675472e-01 -2.931975e-02 -3.001664e-01 -2.794005e-01 -2.782470e-01 6.704234e-01 -6.730524e-02 1.826547e-01 1.333978e-01 2.274791e-01 2.136631e-02 -1.713346e-01 5.013856e-02 8.578280e-05 -9.727514e-03 -1.888627e-02 7.395698e-03 1.668422e-01 -4.300071e-01
<VARIANCE> 39
 2.240923e+01 3.294038e+01 4.895291e+01 4.990857e+01 5.441248e+01 7.900005e+01 4.626141e+01 5.653951e+01 4.132109e+01 4.360911e+01 4.509872e+01 4.541114e+01 8.432308e+01 8.267273e-01 1.176765e+00 1.567327e+00 1.757968e+00 1.866502e+00 2.459950e+00 1.403007e+00 1.862569e+00 1.254916e+00 1.292395e+00 1.518733e+00 1.563389e+00 3.283455e+00 1.072650e-01 1.308766e-01 1.828648e-01 2.136966e-01 2.192260e-01 2.815540e-01 1.723765e-01 2.414294e-01 1.652947e-01 1.549725e-01 1.794762e-01 2.030016e-01 3.681550e-01
<GCONST> 1.064331e+02
<STATE> 4
<MEAN> 39
 4.323248e+00 -8.054804e+00 -6.194618e+00 -6.343714e+00 7.941589e-01 2.120980e+00 -3.934751e+00 5.463541e-01 2.783765e-01 -1.272064e+00 -3.293419e+00 -5.730793e+00 1.198825e+01 8.788692e-02 1.305419e-01 2.512786e-01 3.935015e-01 -1.250993e-01 -4.405828e-01 -7.189074e-02 1.408741e-01 -1.706759e-02 -9.307817e-02 -2.485136e-01 1.688666e-01 -4.199133e-01 -4.334078e-02 1.311508e-01 6.364933e-02 6.258252e-02 1.279838e-02 -2.237982e-02 6.589028e-02 -3.352582e-02 -6.618904e-03 3.148193e-02 4.492699e-02 7.595392e-02 -1.636455e-01
<VARIANCE> 39
 1.546854e+01 2.967606e+01 4.473316e+01 3.724717e+01 5.354551e+01 8.054718e+01 4.180382e+01 5.526842e+01 4.494085e+01 4.591512e+01 3.893500e+01 3.206568e+01 6.915543e+01 4.604840e-01 8.639773e-01 8.741165e-01 9.854859e-01 1.135584e+00 1.533866e+00 1.061227e+00 1.237015e+00 9.155130e-01 8.471250e-01 9.460130e-01 8.195791e-01 1.993051e+00 6.251006e-02 9.018881e-02 1.101351e-01 1.129997e-01 1.430604e-01 1.819538e-01 1.273879e-01 1.563680e-01 1.138414e-01 1.037489e-01 1.208849e-01 1.165992e-01 2.289138e-01
<GCONST> 9.297030e+01
<TRANSP> 5
 0.000000e+00 1.000000e+00 0.000000e+00 0.000000e+00 0.000000e+00
 0.000000e+00 7.372950e-01 2.627050e-01 0.000000e+00 0.000000e+00
 0.000000e+00 0.000000e+00 6.963791e-01 3.036209e-01 0.000000e+00
 0.000000e+00 0.000000e+00 0.000000e+00 7.381222e-01 2.618778e-01
 0.000000e+00 0.000000e+00 0.000000e+00 0.000000e+00 0.000000e+00
<ENDHMM>
~h "r"
<BEGINHMM>
<NUMSTATES> 5
<STATE> 2
<MEAN> 39
 4.175613e+00 -5.420481e+00 -9.148293e-01 -1.787599e+00 -3.056051e+00 -2.130241e+00 -5.244805e+00 8.182777e-01 1.894516e+00 -1.406155e+00 -2.766592e+00 -2.569360e+00 8.719515e+00 1.550049e-01 -3.159085e-02 4.284785e-01 2.951256e-01 -3.318269e-01 -2.133147e-01 -2.370363e-01 7.228102e-02 -2.338067e-01 -2.742997e-02 6.103810e-02 1.847864e-01 -2.116388e-01 -4.036117e-02 7.162306e-02 2.048960e-03 -8.471917e-02 4.467390e-02 9.299246e-02 7.086074e-02 -6.150817e-02 -1.253667e-01 4.265452e-02 8.189339e-02 -3.663450e-02 -3.481000e-02
<VARIANCE> 39
 1.720336e+01 3.283535e+01 4.736045e+01 4.223454e+01 5.476177e+01 5.640464e+01 5.830704e+01 5.565638e+01 5.079413e+01 3.580286e+01 3.957528e+01 3.512811e+01 6.095977e+01 5.528318e-01 9.701748e-01 1.459055e+00 1.403028e+00 1.717894e+00 1.472669e+00 1.481408e+00 1.926875e+00 1.669211e+00 1.048452e+00 1.159518e+00 1.102733e+00 1.822134e+00 5.913883e-02 1.022056e-01 1.361249e-01 1.734490e-01 1.978403e-01 1.489952e-01 1.767954e-01 2.046783e-01 1.907088e-01 1.355281e-01 1.453569e-01 1.356771e-01 1.679522e-01
<GCONST> 9.900092e+01
<STATE> 3
<MEAN> 39
 4.263445e+00 -5.036911e+00 1.311770e+00 -1.160875e+00 -4.296233e+00 -2.664451e+00 -5.951146e+00 8.589743e-01 9.731612e-02 -1.021004e+00 -1.978208e+00 -2.053738e+00 7.862288e+00 3.358507e-02 2.286090e-01 2.548658e-01 7.545143e-02 -1.634040e-02 6.027829e-02 6.801252e-02 -1.365478e-01 -4.336052e-01 1.234581e-01 1.920128e-01 4.682561e-02 -3.740764e-01 -7.026462e-02 7.065896e-02 -9.425955e-02 -1.012309e-01 1.095865e-01 9.559199e-02 1.319891e-01 -6.834112e-02 -1.559175e-02 2.719596e-02 2.688033e-02 -6.346534e-02 -1.277768e-03
<VARIANCE> 39
 1.700702e+01 3.110133e+01 5.681667e+01 3.473090e+01 5.470108e+01 5.002716e+01 5.711982e+01 5.836430e+01 5.781072e+01 3.638066e+01 4.002545e+01 3.319664e+01 4.919056e+01 5.131592e-01 9.183724e-01 1.668494e+00 1.186355e+00 1.724869e+00 1.330315e+00 1.455665e+00 1.774979e+00 1.848444e+00 1.083969e+00 1.228578e+00 9.841418e-01 1.496994e+00 5.321852e-02 9.395336e-02 1.456687e-01 1.418111e-01 2.036380e-01 1.367793e-01 1.668478e-01 2.088771e-01 2.009128e-01 1.372254e-01 1.476463e-01 1.261416e-01 1.451905e-01
<GCONST> 9.767986e+01
<STATE> 4
<MEAN> 39
 4.521730e+00 -3.085327e+00 -2.614997e-01 -9.926751e-01 -3.225581e+00 -2.771473e+00 -4.683001e+00 -1.699586e-01 6.018043e-01 7.171200e-02 -2.216519e+00 -2.459309e+00 4.072136e+00 -1.159750e-01 2.957608e-01 -5.920325e-02 -2.835498e-02 2.507674e-01 1.971799e-01 2.541524e-01 -1.559607e-01 -2.102943e-01 8.168206e-02 1.863998e-01 -2.114843e-02 -3.761504e-01 -5.314546e-02 -2.334329e-02 -3.459455e-02 -6.033125e-02 3.743759e-02 1.678213e-02 6.095646e-02 1.465778e-03 1.468710e-02 -2.092656e-02 -3.406725e-04 -5.626933e-03 9.065299e-02
<VARIANCE> 39
 1.374694e+01 2.948694e+01 4.928422e+01 3.188319e+01 4.537728e+01 4.699102e+01 4.269488e+01 4.965253e+01 5.128148e+01 3.122206e+01 3.352820e+01 3.072861e+01 5.246956e+01 4.131705e-01 7.858460e-01 1.163464e+00 8.520432e-01 1.220033e+00 1.018741e+00 1.024493e+00 1.210901e+00 1.229138e+00 8.226394e-01 8.897175e-01 7.654434e-01 1.123846e+00 4.524875e-02 8.307024e-02 1.097007e-01 9.774846e-02 1.397013e-01 1.097460e-01 1.258706e-01 1.511196e-01 1.309241e-01 1.043303e-01 1.078700e-01 9.569134e-02 1.058670e-01
<GCONST> 8.831374e+01
<TRANSP> 5
 0.000000e+00 1.000000e+00 0.000000e+00 0.000000e+00 0.000000e+00
 0.000000e+00 4.700285e-01 5.299715e-01 0.000000e+00 0.000000e+00
 0.000000e+00 0.000000e+00 4.342096e-01 5.657904e-01 0.000000e+00
 0.000000e+00 0.000000e+00 0.000000e+00 6.560689e-01 3.439311e-01
 0.000000e+00 0.000000e+00 0.000000e+00 0.000000e+00 0.000000e+00
<ENDHMM>
~h "s"
<BEGINHMM>
<NUMSTATES> 5
<STATE> 2
<MEAN> 39
 -6.684311e+00 3.485271e+00 -1.109336e+00 -7.464656e-01 3.708970e+00 -5.420434e+00 3.449917e+00 -9.880392e-01 6.502672e-01 -1.779771e-01 2.672546e-01 1.467253e+00 4.844594e+00 -1.216071e+00 5.864790e-01 -2.710199e-01 -1.950278e-02 5.504861e-01 -5.157026e-01 7.152924e-01 7.829320e-02 3.592059e-01 -3.827241e-02 2.352956e-01 4.310664e-01 3.119627e-01 9.483326e-02 -8.080515e-02 -3.156934e-02 -3.023222e-02 -9.402226e-02 6.037492e-02 -7.295122e-02 1.234844e-03 -1.166185e-02 -4.904242e-04 -1.669553e-02 -4.520039e-02 1.358266e-02
<VARIANCE> 39
 6.968032e+01 4.933317e+01 6.687365e+01 4.136034e+01 6.387934e+01 5.238708e+01 6.223354e+01 4.622947e+01 4.748591e+01 2.908145e+01 3.675627e+01 3.660538e+01 6.148025e+01 2.050293e+00 1.680205e+00 1.642755e+00 1.145131e+00 1.838489e+00 1.380755e+00 1.622376e+00 1.276231e+00 1.265680e+00 7.082331e-01 1.015943e+00 9.897764e-01 1.834354e+00 2.668678e-01 1.701490e-01 1.758013e-01 1.268894e-01 2.021776e-01 1.516176e-01 2.011323e-01 1.420455e-01 1.428847e-01 9.101766e-02 1.278642e-01 1.176379e-01 1.497740e-01
<GCONST> 1.020365e+02
<STATE> 3
<MEAN> 39
 -8.107677e+00 3.510054e+00 -2.985331e+00 -1.836886e+00 3.708504e+00 -6.394128e+00 3.217175e+00 -6.620520e-01 1.824196e+00 -8.294821e-01 -4.306667e-01 1.623723e+00 9.426389e+00 8.174054e-01 -5.941920e-01 1.652324e-01 -1.714280e-01 -4.421924e-01 2.330124e-01 -5.613793e-01 5.658008e-02 -5.408368e-02 -3.343676e-02 -1.545189e-01 -3.418726e-01 3.222977e-01 2.547376e-01 -1.476607e-01 5.055199e-02 -5.713742e-02 -1.463835e-01 1.147059e-01 -1.998736e-01 -3.889447e-02 -8.632092e-02 5.502036e-03 -2.873747e-02 -1.399206e-01 1.139269e-02
<VARIANCE> 39
 7.031132e+01 5.741334e+01 5.824223e+01 3.835738e+01 6.751253e+01 4.727214e+01 7.659499e+01 4.276133e+01 4.445861e+01 3.086561e+01 4.101554e+01 4.033437e+01 4.499910e+01 3.681162e+00 2.910412e+00 1.983585e+00 1.308965e+00 2.628358e+00 1.780791e+00 3.119043e+00 1.568245e+00 1.406088e+00 1.021687e+00 1.503880e+00 1.794664e+00 1.505292e+00 3.644364e-01 2.756806e-01 1.930089e-01 1.482757e-01 2.737537e-01 1.640555e-01 3.175128e-01 1.880017e-01 1.557586e-01 1.255800e-01 1.789826e-01 1.813198e-01 1.398913e-01
<GCONST> 1.094147e+02
<STATE> 4
<MEAN> 39
 5.303327e-01 -3.698448e+00 -7.496624e-01 -4.534578e+00 -1.869476e+00 -3.980079e+00 -3.679469e+00 4.664083e-02 8.073059e-02 -1.137049e+00 -1.726606e+00 -2.951673e+00 1.143468e+01 7.128801e-01 -3.331063e-01 4.422424e-02 -1.503427e-01 -4.143001e-01 2.852567e-01 -4.792922e-01 -1.516322e-01 -2.454886e-01 3.400958e-02 -5.047087e-02 -3.629919e-01 -2.718273e-02 -1.734873e-01 1.754585e-01 -2.836315e-02 8.243122e-02 1.330920e-01 -3.748440e-03 1.877470e-01 -8.513340e-02 -7.132666e-03 -1.016392e-02 4.426157e-02 1.119213e-01 -1.587652e-01
<VARIANCE> 39
 3.095145e+01 3.274629e+01 6.210151e+01 3.206078e+01 7.005508e+01 5.690060e+01 6.506583e+01 4.917476e+01 5.593798e+01 3.796156e+01 4.543748e+01 3.759031e+01 5.751878e+01 1.603182e+00 1.329579e+00 1.641422e+00 1.170731e+00 2.000274e+00 1.617563e+00 2.045876e+00 1.821111e+00 1.524917e+00 1.019329e+00 1.396915e+00 1.209197e+00 1.613253e+00 1.586400e-01 1.460986e-01 1.705763e-01 1.419653e-01 2.285149e-01 1.620316e-01 2.267809e-01 2.191652e-01 1.794514e-01 1.253231e-01 1.753643e-01 1.422266e-01 1.869134e-01
<GCONST> 1.041091e+02
<TRANSP> 5
 0.000000e+00 1.000000e+00 0.000000e+00 0.000000e+00 0.000000e+00
 0.000000e+00 8.449703e-01 1.550296e-01 0.000000e+00 0.000000e+00
 0.000000e+00 0.000000e+00 8.463264e-01 1.536736e-01 0.000000e+00
 0.000000e+00 0.000000e+00 0.000000e+00 7.847141e-01 2.152858e-01
 0.000000e+00 0.000000e+00 0.000000e+00 0.000000e+00 0.000000e+00
<ENDHMM>
~h "t"
<BEGINHMM>
<NUMSTATES> 5
<STATE> 2
<MEAN> 39
 -4.059694e-01 -3.573091e-01 9.676738e-01 -6.578115e-01 -1.608736e+00 -3.986851e+00 -7.169867e-02 -1.449127e+00 -6.634950e-01 7.370765e-01 1.812536e+00 1.293331e-01 1.008170e+00 -3.289716e-01 -1.301869e-01 5.460923e-01 -2.016276e-01 -1.662238e-01 -7.090778e-02 2.426314e-01 -8.125935e-02 -2.880284e-01 -7.498526e-02 2.214326e-01 1.727512e-01 7.452281e-01 6.576630e-02 -5.626830e-02 1.209693e-01 -6.463151e-02 -9.073264e-02 6.248933e-02 -1.159389e-01 -7.806016e-03 -7.529042e-02 -3.329019e-02 -5.325406e-02 -1.087787e-01 2.393782e-01
<VARIANCE> 39
 3.093722e+01 2.907813e+01 6.861377e+01 3.231156e+01 5.116278e+01 4.388244e+01 5.551985e+01 3.975995e+01 5.343211e+01 3.157593e+01 3.794728e+01 3.759261e+01 7.757193e+01 1.079254e+00 9.353766e-01 2.778756e+00 1.031706e+00 1.930906e+00 1.274914e+00 1.882888e+00 1.278118e+00 2.005518e+00 9.619624e-01 1.181916e+00 1.254824e+00 3.410465e+00 1.427349e-01 1.185661e-01 2.976130e-01 1.267559e-01 2.399924e-01 1.661253e-01 2.459861e-01 1.596365e-01 2.155707e-01 1.299670e-01 1.553284e-01 1.661750e-01 4.047555e-01
<GCONST> 1.038117e+02
<STATE> 3
<MEAN> 39
 -6.410822e-01 -1.690544e+00 3.108068e+00 -1.784614e+00 -2.942766e+00 -3.735633e+00 -4.551379e-01 -1.366046e+00 -1.774210e+00 6.598289e-01 1.876123e+00 1.266620e-01 5.076798e+00 1.007532e-01 -2.403701e-01 1.783661e-01 -2.803121e-01 -2.402058e-02 2.418086e-01 -1.089526e-01 1.197311e-02 1.848016e-02 -8.921758e-02 -2.439574e-01 -1.985542e-01 7.699595e-01 9.580994e-02 2.203009e-02 -6.475214e-02 -5.968890e-03 7.135143e-03 8.579917e-02 -9.759788e-02 -9.152529e-03 1.661659e-02 -3.182675e-02 -1.178032e-01 -1.119001e-01 -2.450187e-02
<VARIANCE> 39
 2.584490e+01 2.789815e+01 7.434449e+01 2.934420e+01 6.989552e+01 4.155366e+01 6.420721e+01 4.666725e+01 6.647467e+01 2.992638e+01 3.900575e+01 4.465286e+01 7.239772e+01 8.019574e-01 1.070635e+00 2.605786e+00 1.129305e+00 2.152115e+00 1.423356e+00 1.763579e+00 1.721719e+00 2.166817e+00 1.094689e+00 1.286670e+00 1.596452e+00 3.074209e+00 9.928430e-02 1.166648e-01 2.441395e-01 1.172850e-01 2.946436e-01 1.598089e-01 2.729459e-01 1.882022e-01 2.296231e-01 1.278745e-01 1.626352e-01 2.008932e-01 3.237017e-01
<GCONST> 1.050158e+02
<STATE> 4
<MEAN> 39
 -2.857006e-01 -6.572367e-01 1.138644e+00 -1.024315e+00 -7.703001e-01 -2.687729e+00 5.248362e-01 -1.219968e+00 3.588956e-01 7.658237e-01 6.726910e-01 3.650751e-01 2.670002e+00 1.164114e-01 -2.027540e-01 1.648457e-01 -3.029055e-01 -2.481506e-02 2.743467e-01 -1.919366e-01 -1.547706e-02 -7.543654e-02 -1.589759e-01 -2.905809e-01 -3.018209e-01 6.503224e-01 8.453734e-02 -4.933894e-04 2.385523e-02 -4.302575e-02 -9.611665e-02 3.561350e-02 -1.429120e-01 -2.377583e-02 -7.813780e-02 -7.563490e-03 -4.645718e-02 -1.046055e-01 2.333719e-02
<VARIANCE> 39
 2.440721e+01 2.807166e+01 5.976777e+01 3.008768e+01 4.796262e+01 3.980873e+01 5.327462e+01 4.215783e+01 4.567421e+01 2.966478e+01 3.280647e+01 3.589989e+01 6.814314e+01 6.920490e-01 9.849349e-01 2.335942e+00 9.691594e-01 1.723719e+00 1.353853e+00 1.506909e+00 1.623514e+00 1.720538e+00 1.021511e+00 1.062219e+00 1.288976e+00 2.800059e+00 8.630881e-02 9.941565e-02 1.437676e-01 9.453536e-02 1.821399e-01 1.356930e-01 2.059605e-01 1.488936e-01 1.401932e-01 1.102638e-01 1.193622e-01 1.299272e-01 2.377424e-01
<GCONST> 9.754685e+01
<TRANSP> 5
 0.000000e+00 1.000000e+00 0.000000e+00 0.000000e+00 0.000000e+00
 0.000000e+00 6.832289e-01 3.167711e-01 0.000000e+00 0.000000e+00
 0.000000e+00 0.000000e+00 4.931646e-01 5.068353e-01 0.000000e+00
 0.000000e+00 0.000000e+00 0.000000e+00 4.522492e-01 5.477508e-01
 0.000000e+00 0.000000e+00 0.000000e+00 0.000000e+00 0.000000e+00
<ENDHMM>
~h "u"
<BEGINHMM>
<NUMSTATES> 5
<STATE> 2
<MEAN> 39
 2.205680e+00 7.042238e-01 -2.030293e+00 -1.463989e+00 1.171627e-01 1.411510e-01 -2.619978e+00 -1.868662e+00 -1.627747e+00 3.094991e-01 1.116474e+00 5.024731e-01 9.856806e-01 1.486769e-02 2.227130e-01 -6.316900e-02 -2.032171e-01 2.354259e-01 1.818594e-01 5.863867e-02 -1.254647e-01 -2.393122e-01 -3.901767e-02 2.031355e-01 1.843457e-01 2.499807e-02 -1.953314e-02 -3.180968e-02 7.620980e-02 -4.621302e-02 -1.097356e-02 -3.575521e-02 -3.638746e-02 -1.155611e-02 1.014334e-02 -2.512879e-02 -4.284926e-02 -3.408543e-02 1.189424e-01
<VARIANCE> 39
 3.946157e+01 2.714925e+01 4.123596e+01 4.040368e+01 5.138439e+01 4.625851e+01 5.782632e+01 5.312945e+01 5.207286e+01 3.875693e+01 3.716167e+01 3.733888e+01 7.033978e+01 1.098797e+00 6.903685e-01 9.881983e-01 1.231106e+00 1.203772e+00 1.225033e+00 1.327940e+00 1.297405e+00 1.478913e+00 9.238089e-01 9.688613e-01 8.167654e-01 1.207936e+00 1.226409e-01 7.937574e-02 1.193596e-01 1.765346e-01 1.541577e-01 1.619050e-01 1.792897e-01 1.705593e-01 2.105670e-01 1.454855e-01 1.446132e-01 1.126551e-01 1.429440e-01
<GCONST> 9.687565e+01
<STATE> 3
<MEAN> 39
 7.484424e-01 1.647535e+00 -1.480697e+00 -1.944934e+00 1.401031e+00 5.216390e-02 -2.146161e+00 -2.899185e+00 -2.398089e+00 -3.033138e-02 1.234179e+00 1.093781e+00 2.514646e+00 -3.078546e-02 8.764379e-02 1.993879e-01 -3.143408e-01 4.123939e-02 -1.948491e-02 -1.138991e-01 -2.117440e-01 -1.960025e-01 -1.032045e-01 9.861333e-02 2.205547e-02 4.398502e-01 3.050038e-03 -7.555824e-02 7.364360e-02 1.219493e-02 -9.381244e-02 -6.769272e-02 -5.181255e-02 2.871385e-02 4.634686e-02 -3.914290e-03 -4.090616e-02 -6.307113e-02 7.946778e-02
<VARIANCE> 39
 6.917553e+01 3.165148e+01 4.262975e+01 5.050403e+01 5.229969e+01 5.847072e+01 6.042211e+01 4.809154e+01 5.525829e+01 3.607359e+01 4.028685e+01 3.906606e+01 6.437877e+01 2.189992e+00 9.024962e-01 1.172889e+00 1.937359e+00 1.675777e+00 1.924034e+00 1.970731e+00 1.449553e+00 1.983161e+00 1.113130e+00 1.138888e+00 1.056284e+00 1.794079e+00 2.087220e-01 9.856945e-02 1.390500e-01 2.217352e-01 1.892181e-01 1.947596e-01 2.208743e-01 1.722893e-01 2.429912e-01 1.557962e-01 1.640655e-01 1.228646e-01 1.682783e-01
<GCONST> 1.045578e+02
<STATE> 4
<MEAN> 39
 4.472224e+00 1.672440e-01 -4.547166e-01 -3.688151e+00 -1.265845e+00 1.280277e+00 -5.404090e+00 -4.438577e+00 -4.110732e+00 -5.105547e-01 1.671153e+00 -5.565081e-01 5.506697e+00 -9.885958e-02 -1.355682e-01 2.688839e-01 1.293070e-01 -5.924034e-03 -3.292355e-01 -9.862068e-02 7.504717e-02 2.288952e-01 8.145006e-04 -8.920141e-02 -1.080844e-01 1.756270e-01 -1.150958e-01 -9.685908e-03 1.745044e-02 7.792854e-02 3.669887e-03 -8.054074e-02 1.163530e-01 8.759423e-02 7.808388e-02 7.568581e-03 -4.071083e-02 2.999043e-02 -7.893221e-02
<VARIANCE> 39
 3.076945e+01 2.783949e+01 4.691714e+01 6.132624e+01 4.997525e+01 6.989222e+01 6.224696e+01 5.401522e+01 5.661993e+01 3.789979e+01 4.321249e+01 3.687418e+01 5.222408e+01 1.225564e+00 9.466088e-01 1.271475e+00 2.077998e+00 1.982919e+00 2.011590e+00 2.128655e+00 1.739119e+00 2.024492e+00 1.271259e+00 1.368753e+00 1.071551e+00 2.251583e+00 1.241888e-01 1.093165e-01 1.391449e-01 2.591280e-01 2.120422e-01 2.306221e-01 2.429632e-01 1.993908e-01 2.499131e-01 1.646889e-01 1.782698e-01 1.297720e-01 2.037296e-01
<GCONST> 1.054114e+02
<TRANSP> 5
 0.000000e+00 1.000000e+00 0.000000e+00 0.000000e+00 0.000000e+00
 0.000000e+00 4.899385e-01 5.100614e-01 0.000000e+00 0.000000e+00
 0.000000e+00 0.000000e+00 5.537804e-01 4.462196e-01 0.000000e+00
 0.000000e+00 0.000000e+00 0.000000e+00 7.264931e-01 2.735069e-01
 0.000000e+00 0.000000e+00 0.000000e+00 0.000000e+00 0.000000e+00
<ENDHMM>
~h "v"
<BEGINHMM>
<NUMSTATES> 5
<STATE> 2
<MEAN> 39
 2.100602e+00 -9.956869e-01 -4.654602e+00 -6.601222e+00 1.324710e+00 9.097651e-02 7.607172e-02 -5.438016e-01 -7.942190e-03 5.149322e-01 -1.076394e+00 -2.187035e+00 7.024708e+00 9.171228e-02 3.563012e-01 1.037061e-01 2.843734e-01 1.415229e-01 -2.653596e-01 -3.844654e-02 1.357213e-01 3.125990e-01 3.337079e-02 -1.384980e-01 -8.163834e-02 -3.603301e-01 1.049054e-01 -4.294804e-02 7.006053e-02 8.478632e-02 -1.269949e-01 -6.082014e-02 -8.560627e-02 -1.240262e-01 2.332437e-02 -9.237220e-02 5.859032e-02 -9.825711e-03 2.379105e-02
<VARIANCE> 39
 1.769211e+01 3.323823e+01 4.124261e+01 5.128474e+01 3.243952e+01 3.657115e+01 2.221103e+01 3.213401e+01 2.413599e+01 1.992734e+01 4.323212e+01 3.626352e+01 5.996527e+01 7.745727e-01 9.949127e-01 7.663541e-01 1.663719e+00 1.677632e+00 1.674688e+00 6.977890e-01 7.656530e-01 1.167367e+00 7.371485e-01 9.469697e-01 8.004619e-01 8.513665e-01 5.719699e-02 9.557424e-02 5.878559e-02 1.579269e-01 1.055728e-01 1.713409e-01 9.072942e-02 8.210231e-02 1.070130e-01 1.008787e-01 1.699043e-01 1.111926e-01 5.929060e-02
<GCONST> 8.666370e+01
<STATE> 3
<MEAN> 39
 4.911330e+00 1.467929e+00 -3.922662e+00 -6.047198e+00 -1.632094e-01 2.526484e-01 -1.354014e+00 -1.268078e+00 4.889489e-02 -3.189665e-01 -1.114287e+00 -3.108499e+00 5.939621e+00 2.183059e-01 1.957700e-01 2.636940e-01 5.351225e-01 -1.348845e-01 -4.084394e-01 -9.749576e-03 1.838715e-01 4.283577e-01 -2.268974e-01 -9.194382e-02 1.408958e-01 -3.357280e-01 -8.782718e-02 -1.507591e-01 -2.368164e-02 -4.950727e-02 -3.399761e-02 -5.201038e-02 3.445422e-02 1.212129e-02 -3.884749e-02 -5.975066e-02 6.739527e-02 8.655553e-02 8.617838e-02
<VARIANCE> 39
 2.601997e+01 3.638014e+01 3.370137e+01 7.614968e+01 4.583946e+01 3.823098e+01 1.798323e+01 2.942692e+01 2.932697e+01 2.739304e+01 2.779454e+01 2.072737e+01 4.781042e+01 9.320238e-01 8.593551e-01 5.605633e-01 9.856982e-01 1.640531e+00 1.100183e+00 4.439251e-01 5.878718e-01 1.061450e+00 6.956809e-01 1.241690e+00 6.755623e-01 8.713066e-01 6.571186e-02 6.396783e-02 5.082020e-02 1.624376e-01 1.623006e-01 1.229985e-01 7.629853e-02 8.328445e-02 1.167898e-01 1.084097e-01 1.055445e-01 8.404975e-02 4.339976e-02
<GCONST> 8.337531e+01
<STATE> 4
<MEAN> 39
 3.246968e+00 -2.191942e+00 -2.896304e+00 -4.042016e+00 -4.572988e-01 -5.251549e+00 5.259199e-01 4.173584e-01 8.029021e-01 -1.313810e-01 -4.679401e+00 -6.666416e-01 6.395062e+00 -8.778787e-02 -1.953221e-01 2.447614e-01 2.367478e-01 -2.818822e-01 -3.189829e-01 8.943869e-02 2.876112e-01 -1.674772e-01 -3.311212e-01 2.069024e-01 3.184290e-01 -1.082526e-01 -3.276926e-02 1.732651e-02 -4.223100e-04 -7.765875e-02 6.124022e-03 9.669603e-02 -2.393128e-03 -9.159766e-02 -1.551951e-01 -1.470434e-02 2.906433e-02 -2.553361e-02 1.080312e-01
<VARIANCE> 39
 1.314605e+01 3.569521e+01 1.857893e+01 5.325025e+01 4.743254e+01 4.326781e+01 1.313238e+01 2.666233e+01 3.257040e+01 2.185838e+01 5.861317e+01 2.118415e+01 6.795319e+01 5.992965e-01 7.284815e-01 6.904207e-01 8.259283e-01 1.373514e+00 1.225681e+00 4.298718e-01 4.827088e-01 8.560060e-01 7.988670e-01 1.340878e+00 5.892103e-01 8.752149e-01 5.363770e-02 9.160276e-02 6.526441e-02 1.225146e-01 1.650565e-01 1.083724e-01 6.311291e-02 4.563503e-02 9.803532e-02 7.667921e-02 7.407655e-02 6.590047e-02 6.915396e-02
<GCONST> 8.002782e+01
<TRANSP> 5
 0.000000e+00 1.000000e+00 0.000000e+00 0.000000e+00 0.000000e+00
 0.000000e+00 3.642934e-01 6.357066e-01 0.000000e+00 0.000000e+00
 0.000000e+00 0.000000e+00 4.544757e-01 5.455243e-01 0.000000e+00
 0.000000e+00 0.000000e+00 0.000000e+00 6.181489e-01 3.818511e-01
 0.000000e+00 0.000000e+00 0.000000e+00 0.000000e+00 0.000000e+00
<ENDHMM>
~h "w"
<BEGINHMM>
<NUMSTATES> 5
<STATE> 2
<MEAN> 39
 1.904548e+00 3.532067e-01 -1.495886e+00 -9.611608e-01 7.123979e-01 -5.834255e-01 -1.416390e+00 -1.837095e+00 -9.971528e-01 -2.160025e-01 2.932069e-01 -1.364205e+00 2.731544e+00 1.779691e-01 7.976989e-02 -2.717960e-01 -1.553237e-01 5.701049e-02 1.849853e-01 -8.374809e-03 -9.079835e-02 -2.985801e-02 8.471562e-02 1.085111e-01 -1.675618e-01 -6.408747e-02 -1.680899e-02 -1.022919e-01 3.301619e-02 -6.091113e-02 -7.579888e-02 -2.256207e-03 7.716607e-03 6.602595e-02 1.797741e-02 -2.168348e-04 -4.027167e-02 -4.219694e-02 1.128197e-01
<VARIANCE> 39
 5.030401e+01 4.130306e+01 4.183451e+01 5.347167e+01 4.591399e+01 5.059667e+01 5.124903e+01 4.839047e+01 3.386573e+01 2.668688e+01 3.354262e+01 3.534792e+01 8.103613e+01 9.430246e-01 6.435331e-01 1.039899e+00 8.999169e-01 1.165559e+00 1.207699e+00 1.018752e+00 1.005463e+00 8.220026e-01 7.158246e-01 7.923166e-01 8.495460e-01 1.274708e+00 1.014580e-01 7.617850e-02 7.905285e-02 9.232090e-02 1.373872e-01 1.154344e-01 1.195823e-01 1.284937e-01 9.604140e-02 8.223452e-02 1.066333e-01 9.112146e-02 1.027046e-01
<GCONST> 9.013847e+01
<STATE> 3
<MEAN> 39
 3.903426e+00 -2.192993e-01 -1.868679e+00 -1.890200e+00 -5.111618e-02 9.848678e-01 -2.379476e+00 -2.406591e+00 -1.596661e+00 -1.601767e-01 2.676076e-01 -2.570416e+00 3.414579e+00 2.266988e-01 -2.640022e-01 -1.909105e-01 -3.333457e-01 -1.665586e-01 1.337788e-01 -2.103186e-02 4.438158e-02 -2.261197e-02 6.210041e-02 6.938550e-02 -2.505058e-01 3.282293e-01 -1.025812e-01 -1.258962e-01 4.925995e-02 -2.770070e-02 -4.237727e-02 -7.031780e-02 5.533330e-02 1.024880e-01 5.018274e-02 -1.066687e-02 -4.455782e-02 6.735770e-03 1.283098e-01
<VARIANCE> 39
 3.021000e+01 4.084590e+01 4.121114e+01 5.875149e+01 4.089899e+01 4.904460e+01 4.532784e+01 4.676789e+01 3.118483e+01 2.764151e+01 3.302274e+01 2.942713e+01 7.499963e+01 8.208003e-01 8.125967e-01 9.905409e-01 1.030864e+00 1.129457e+00 1.377604e+00 1.012437e+00 1.033552e+00 8.340234e-01 7.523460e-01 7.604396e-01 8.315700e-01 1.716971e+00 8.446619e-02 8.282448e-02 7.781491e-02 9.598880e-02 1.521002e-01 1.121582e-01 1.187943e-01 1.247737e-01 9.261287e-02 9.456673e-02 1.087731e-01 9.743562e-02 1.174252e-01
<GCONST> 8.995673e+01
<STATE> 4
<MEAN> 39
 3.799523e+00 -5.451489e-01 -2.748478e+00 -2.736576e+00 -5.701352e-02 1.086636e+00 -2.195704e+00 -1.284527e+00 -1.206624e+00 -2.353403e-02 6.908767e-03 -2.289168e+00 2.687569e+00 -2.122541e-02 -1.904231e-01 -9.132428e-02 -9.734870e-02 -1.964667e-02 1.193772e-02 1.286994e-01 1.169935e-01 9.660035e-02 4.000430e-02 -3.525786e-02 -1.073193e-01 1.506158e-01 -5.029986e-02 -4.424918e-02 3.307023e-02 1.933224e-02 -8.921542e-03 -6.130823e-02 2.259216e-02 2.684166e-02 3.100348e-02 -2.136628e-02 -3.832652e-02 6.403502e-03 7.095512e-02
<VARIANCE> 39
 3.279624e+01 4.019766e+01 3.944127e+01 6.252718e+01 3.794775e+01 4.992688e+01 3.443991e+01 4.939021e+01 3.005819e+01 2.801841e+01 3.251920e+01 2.912874e+01 7.163821e+01 4.529025e-01 7.273076e-01 7.061760e-01 8.620055e-01 8.565544e-01 9.182145e-01 7.173998e-01 8.049886e-01 6.582028e-01 6.196843e-01 6.505610e-01 7.341183e-01 1.090194e+00 4.358933e-02 6.851642e-02 6.515892e-02 8.410020e-02 1.065312e-01 9.662564e-02 8.613387e-02 9.327139e-02 7.485695e-02 7.631140e-02 8.457235e-02 7.629681e-02 8.107723e-02
<GCONST> 8.243179e+01
<TRANSP> 5
 0.000000e+00 1.000000e+00 0.000000e+00 0.000000e+00 0.000000e+00
 0.000000e+00 3.130592e-01 6.869408e-01 0.000000e+00 0.000000e+00
 0.000000e+00 0.000000e+00 2.971227e-01 7.028773e-01 0.000000e+00
 0.000000e+00 0.000000e+00 0.000000e+00 5.943195e-01 4.056804e-01
 0.000000e+00 0.000000e+00 0.000000e+00 0.000000e+00 0.000000e+00
<ENDHMM>
~h "y"
<BEGINHMM>
<NUMSTATES> 5
<STATE> 2
<MEAN> 39
 5.913786e-01 -1.127191e+00 -5.021266e-01 -7.065681e-01 -1.591473e+00 -2.147668e+00 8.917854e-01 1.560794e+00 1.064722e+00 2.549809e-02 -2.932054e-01 3.023801e-01 4.591633e-01 -1.306449e-01 1.703842e-01 1.376543e-02 5.484022e-02 7.357065e-02 4.596516e-02 1.668578e-01 -8.483680e-02 2.662658e-02 -1.745179e-02 5.126296e-02 1.206097e-01 -2.238414e-01 2.627935e-02 -1.300820e-02 1.046915e-01 -6.705639e-02 -4.055861e-02 6.378710e-03 -7.222489e-02 -5.664339e-02 -8.324499e-02 -3.826112e-02 -2.525901e-02 -8.381409e-02 1.087560e-01
<VARIANCE> 39
 2.222525e+01 3.096790e+01 4.735518e+01 2.994204e+01 5.159931e+01 4.551793e+01 3.744689e+01 4.192520e+01 3.632134e+01 2.660792e+01 3.211649e+01 3.191585e+01 7.515456e+01 3.844524e-01 5.578199e-01 1.155074e+00 5.643762e-01 1.106160e+00 7.853717e-01 7.455325e-01 9.353508e-01 8.065327e-01 7.031772e-01 7.656020e-01 7.187132e-01 8.661832e-01 4.096333e-02 6.238049e-02 9.384287e-02 6.794625e-02 1.218666e-01 9.210824e-02 9.242978e-02 1.022570e-01 9.460018e-02 8.582132e-02 8.531684e-02 7.933373e-02 7.650876e-02
<GCONST> 8.238212e+01
<STATE> 3
<MEAN> 39
 6.427176e-02 -4.628571e-01 9.186848e-01 -5.511438e-01 -1.370530e+00 -1.365946e+00 1.186056e+00 9.824076e-01 1.210635e-01 -1.495008e-01 -1.241876e-01 1.110216e-01 7.413494e-01 7.211214e-02 1.521192e-01 3.631571e-01 -1.736675e-01 -1.384311e-01 1.291429e-02 -8.308075e-02 -2.853828e-01 -2.596457e-01 -1.777302e-01 -1.052756e-01 -1.864098e-01 1.183607e-01 6.440689e-02 -2.584442e-02 1.068099e-01 -9.332740e-02 -9.013228e-02 -1.159058e-02 -1.243098e-01 -5.193892e-02 -8.116661e-02 -3.364649e-02 -1.708056e-02 -7.699304e-02 1.415582e-01
<VARIANCE> 39
 2.539371e+01 3.746030e+01 4.831937e+01 3.452575e+01 5.464140e+01 4.680346e+01 3.863290e+01 4.599467e+01 3.677122e+01 2.782768e+01 3.211115e+01 3.056749e+01 8.855212e+01 5.148692e-01 6.944087e-01 1.737186e+00 6.922235e-01 1.493707e+00 8.940338e-01 9.556208e-01 1.085725e+00 9.536441e-01 8.208443e-01 8.786892e-01 7.831489e-01 1.270896e+00 4.960643e-02 6.274676e-02 1.096206e-01 7.519519e-02 1.338406e-01 9.436661e-02 1.031780e-01 1.028858e-01 9.953184e-02 8.752938e-02 8.854801e-02 7.660701e-02 8.988634e-02
<GCONST> 8.705711e+01
<STATE> 4
<MEAN> 39
 2.993777e-01 4.594592e-01 1.057180e+00 -3.746257e-02 -2.525303e+00 -1.637595e+00 1.094095e+00 1.221045e+00 2.843899e-01 -3.984297e-01 -2.603363e-01 6.677737e-01 -2.155478e+00 6.247553e-02 9.783705e-02 1.342548e-01 -8.070594e-02 -1.430897e-02 6.453820e-02 -6.347618e-02 -1.276193e-01 -8.958144e-02 -8.618552e-02 -6.957383e-02 -1.124434e-01 5.434262e-02 1.021500e-02 -2.923639e-02 4.107838e-03 -2.890234e-02 6.049407e-03 6.053617e-03 -2.607021e-02 -8.936140e-04 -9.308847e-03 1.993140e-03 -1.038248e-03 -1.274644e-02 6.967181e-02
<VARIANCE> 39
 1.819291e+01 3.505683e+01 4.999843e+01 3.043066e+01 4.309745e+01 3.760500e+01 3.457315e+01 5.409645e+01 3.320173e+01 2.420945e+01 2.840643e+01 2.792620e+01 7.853591e+01 3.404160e-01 4.627320e-01 1.139536e+00 5.917724e-01 1.032548e+00 6.568158e-01 7.633272e-01 7.898611e-01 7.263759e-01 6.432980e-01 6.217632e-01 5.573131e-01 7.975491e-01 3.333105e-02 4.388183e-02 7.624434e-02 5.570674e-02 9.629566e-02 6.690902e-02 7.943336e-02 8.473701e-02 7.711322e-02 7.051229e-02 6.845478e-02 6.200562e-02 5.755325e-02
<GCONST> 7.736644e+01
<TRANSP> 5
 0.000000e+00 1.000000e+00 0.000000e+00 0.000000e+00 0.000000e+00
 0.000000e+00 4.136423e-01 5.863577e-01 0.000000e+00 0.000000e+00
 0.000000e+00 0.000000e+00 2.500793e-01 7.499207e-01 0.000000e+00
 0.000000e+00 0.000000e+00 0.000000e+00 6.733142e-01 3.266858e-01
 0.000000e+00 0.000000e+00 0.000000e+00 0.000000e+00 0.000000e+00
<ENDHMM>
~h "z"
<BEGINHMM>
<NUMSTATES> 5
<STATE> 2
<MEAN> 39
 -1.284292e+00 3.630829e-01 -1.380836e+00 3.332662e+00 4.187830e+00 -1.021930e-01 1.664698e+00 3.215235e+00 2.100511e+00 -3.441912e+00 1.404154e+00 1.235448e+00 -2.590266e+00 -2.576029e-01 2.597342e-01 3.141036e-01 -1.144404e-01 -3.048784e-02 1.427568e-01 2.556894e-01 1.142162e-01 -2.778055e-01 -3.424808e-02 4.544387e-03 -1.594912e-01 -9.130299e-04 2.704416e-02 4.719417e-03 5.105327e-02 -1.267413e-01 -1.210012e-01 -9.954176e-02 -4.143206e-02 -9.257720e-02 -1.167149e-01 -2.335844e-02 -1.867633e-01 -4.915977e-02 2.130144e-01
<VARIANCE> 39
 1.276484e+01 1.997779e+01 2.147577e+01 2.472373e+01 2.084248e+01 1.860779e+01 2.949542e+01 2.713128e+01 2.002356e+01 4.787518e+01 1.902396e+01 3.421997e+01 8.833543e+01 2.445104e-01 3.413242e-01 1.994497e-01 2.138685e-01 2.738409e-01 5.960668e-01 4.366305e-01 5.493048e-01 3.905619e-01 4.181260e-01 6.440251e-01 3.382033e-01 1.426119e-01 6.316356e-02 8.778553e-02 4.205837e-02 8.464007e-02 8.553630e-02 3.913376e-02 1.489579e-01 1.466962e-01 9.812931e-02 9.887006e-02 6.048661e-02 7.075226e-02 1.006787e-01
<GCONST> 6.706044e+01
<STATE> 3
<MEAN> 39
 -3.155850e+00 2.762928e+00 -1.807612e+00 4.673104e+00 5.664096e+00 1.445510e+00 3.447999e+00 2.398700e+00 1.253461e+00 -1.359543e+00 1.679147e+00 2.593735e+00 -5.949991e+00 -6.430187e-02 3.764775e-01 5.433952e-01 -9.581897e-02 -1.939132e-01 -3.775247e-01 -1.367205e-03 -3.226088e-01 -5.525463e-01 -2.239234e-01 -5.739070e-01 -3.598779e-01 6.135492e-01 1.475263e-01 4.286205e-02 1.554211e-01 -1.057406e-01 -3.009022e-01 -2.430108e-01 -1.286765e-01 -2.496089e-01 -4.659109e-02 -1.946135e-02 -2.088981e-01 -1.131632e-01 4.335727e-01
<VARIANCE> 39
 1.249916e+01 2.072229e+01 2.531445e+01 2.861256e+01 2.018551e+01 2.698671e+01 3.600878e+01 2.159452e+01 1.751720e+01 2.599849e+01 2.239398e+01 3.008331e+01 9.801027e+01 7.914021e-01 5.144770e-01 1.962854e-01 3.156352e-01 3.798048e-01 6.557637e-01 8.855729e-01 7.155907e-01 6.865398e-01 3.227035e-01 4.784435e-01 7.336693e-01 2.677976e-01 1.273144e-01 1.795132e-01 4.091245e-02 1.024624e-01 1.129656e-01 3.453518e-02 1.162251e-01 2.033814e-01 7.658738e-02 4.641227e-02 5.994562e-02 7.875242e-02 9.339058e-02
<GCONST> 7.268643e+01
<STATE> 4
<MEAN> 39
 -4.091693e+00 1.019975e+01 5.475688e-01 6.205759e+00 5.056254e+00 -4.596087e+00 3.148285e+00 -2.733120e+00 -1.054852e+00 -2.058876e+00 -2.908657e-01 2.179231e+00 -2.381639e+00 5.164818e-02 5.020448e-01 4.837499e-01 -2.541344e-01 -6.807944e-01 -1.174024e+00 -2.309118e-01 -7.353580e-01 -3.729796e-01 -4.448942e-01 -3.419995e-01 -3.214065e-02 1.696753e+00 1.395680e-01 -2.250033e-01 5.406892e-02 -1.035148e-01 -1.976451e-01 -5.695604e-03 -9.151036e-02 5.429303e-02 -7.053569e-03 4.951779e-02 8.460396e-02 2.930851e-02 1.081937e-01
<VARIANCE> 39
 4.001057e+01 4.916153e+01 1.909475e+01 2.865346e+01 2.386655e+01 6.338533e+01 2.567824e+01 3.688340e+01 2.942164e+01 2.384127e+01 1.792497e+01 3.211557e+01 9.749705e+01 1.969224e+00 1.871468e+00 6.720172e-01 4.907485e-01 1.289881e+00 9.441646e-01 8.072450e-01 1.631193e+00 1.122106e+00 3.667314e-01 5.893917e-01 9.738284e-01 7.987651e-01 2.737430e-01 2.728454e-01 1.006027e-01 7.421639e-02 1.570716e-01 1.490223e-01 6.619595e-02 2.030874e-01 7.565851e-02 5.289039e-02 5.232011e-02 9.990182e-02 1.318155e-01
<GCONST> 8.787223e+01
<TRANSP> 5
 0.000000e+00 1.000000e+00 0.000000e+00 0.000000e+00 0.000000e+00
 0.000000e+00 4.979569e-01 5.020431e-01 0.000000e+00 0.000000e+00
 0.000000e+00 0.000000e+00 1.989619e-01 8.010381e-01 0.000000e+00
 0.000000e+00 0.000000e+00 0.000000e+00 7.843405e-01 2.156596e-01
 0.000000e+00 0.000000e+00 0.000000e+00 0.000000e+00 0.000000e+00
<ENDHMM>
~h "aa"
<BEGINHMM>
<NUMSTATES> 5
<STATE> 2
<MEAN> 39
 2.740575e+00 -7.617858e+00 -6.810420e+00 -6.789464e+00 2.987626e+00 3.372887e+00 -7.398604e-01 1.729736e+00 2.205086e+00 -1.787159e+00 -4.578741e+00 -6.098732e+00 1.171619e+01 1.203303e-01 -5.229790e-01 -5.589318e-01 -3.244682e-01 4.101083e-01 5.117787e-01 1.281995e-01 7.790246e-02 -7.312740e-03 -2.326979e-01 -3.687094e-01 -5.107221e-01 4.390578e-01 -1.768368e-02 1.396608e-01 1.783459e-01 1.409947e-01 -6.309883e-02 -1.563665e-01 -2.605126e-02 -6.545429e-02 -5.869230e-02 4.438923e-02 8.497288e-02 1.433176e-01 -1.940230e-01
<VARIANCE> 39
 1.904196e+01 3.110069e+01 3.836211e+01 3.568663e+01 4.272627e+01 5.782425e+01 3.937133e+01 4.367242e+01 3.712854e+01 4.126773e+01 3.907273e+01 4.187326e+01 7.308030e+01 5.031146e-01 8.085459e-01 1.067863e+00 9.646167e-01 1.241253e+00 1.288457e+00 9.734077e-01 1.185175e+00 9.259301e-01 9.472277e-01 1.037323e+00 1.010476e+00 1.448831e+00 6.745993e-02 9.235019e-02 1.195838e-01 1.052266e-01 1.385103e-01 1.405638e-01 1.194811e-01 1.350495e-01 1.047265e-01 1.050752e-01 1.251081e-01 1.310062e-01 1.335950e-01
<GCONST> 9.144746e+01
<STATE> 3
<MEAN> 39
 3.570827e+00 -8.514133e+00 -6.987889e+00 -6.570709e+00 3.025617e+00 2.879129e+00 -9.673550e-01 1.993270e+00 1.699561e+00 -2.293854e+00 -5.425475e+00 -6.862078e+00 1.162215e+01 1.371318e-01 2.594432e-01 2.440465e-01 3.643602e-01 -9.433342e-02 -3.365419e-01 2.581806e-02 -8.435929e-04 -6.538519e-02 7.560657e-02 1.812530e-02 1.746440e-01 -6.171396e-01 -1.091143e-02 1.570168e-01 1.503586e-01 1.008267e-01 -1.011596e-01 -1.115355e-01 -2.895560e-02 -4.282204e-02 -5.813210e-03 6.289024e-02 8.630531e-02 1.261331e-01 -1.619291e-01
<VARIANCE> 39
 1.603806e+01 3.157535e+01 3.830103e+01 3.284429e+01 3.897466e+01 5.762867e+01 3.840311e+01 4.377333e+01 3.596192e+01 4.711271e+01 3.807623e+01 3.755282e+01 6.455147e+01 3.830378e-01 8.343028e-01 8.544965e-01 7.899390e-01 1.042282e+00 1.298610e+00 8.981168e-01 1.091169e+00 7.764597e-01 8.135726e-01 8.350854e-01 8.827649e-01 1.298974e+00 5.008274e-02 8.759118e-02 1.040979e-01 8.902053e-02 1.259519e-01 1.506071e-01 1.107367e-01 1.346058e-01 9.518648e-02 1.045369e-01 1.094177e-01 1.064267e-01 1.244479e-01
<GCONST> 8.787140e+01
<STATE> 4
<MEAN> 39
 3.621022e+00 -5.034585e+00 -6.774838e+00 -4.122933e+00 3.019992e+00 1.923483e+00 4.012591e-01 1.841023e+00 2.365902e+00 -5.177746e-01 -4.054167e+00 -4.381033e+00 3.615424e+00 -5.921456e-02 3.255926e-01 1.488801e-01 2.578394e-01 -1.260040e-01 -1.593469e-01 1.254436e-02 -2.968858e-02 6.652238e-03 7.401948e-02 1.281357e-01 2.329026e-01 -4.814299e-01 -2.123691e-02 2.076198e-02 4.611245e-02 -1.765878e-03 -1.945403e-02 -1.734791e-02 -9.665873e-03 -1.356674e-02 -8.906348e-03 4.518577e-03 1.627892e-02 1.723701e-02 2.343518e-02
<VARIANCE> 39
 1.353877e+01 3.017844e+01 3.170179e+01 3.243854e+01 3.368092e+01 4.771557e+01 3.423430e+01 3.899580e+01 3.555352e+01 3.444730e+01 2.897933e+01 3.227401e+01 7.159715e+01 2.718661e-01 5.080222e-01 6.113455e-01 5.829279e-01 7.279946e-01 7.754823e-01 6.645597e-01 7.315288e-01 5.762089e-01 5.786660e-01 5.909877e-01 6.272911e-01 6.766558e-01 3.087428e-02 5.316835e-02 6.208816e-02 6.314006e-02 7.983594e-02 8.186021e-02 7.725744e-02 8.795013e-02 6.986012e-02 6.957763e-02 7.318609e-02 7.371999e-02 6.245364e-02
<GCONST> 7.534322e+01
<TRANSP> 5
 0.000000e+00 1.000000e+00 0.000000e+00 0.000000e+00 0.000000e+00
 0.000000e+00 6.633623e-01 3.366377e-01 0.000000e+00 0.000000e+00
 0.000000e+00 0.000000e+00 6.000690e-01 3.999310e-01 0.000000e+00
 0.000000e+00 0.000000e+00 0.000000e+00 8.341770e-01 1.658230e-01
 0.000000e+00 0.000000e+00 0.000000e+00 0.000000e+00 0.000000e+00
<ENDHMM>
~h "ai"
<BEGINHMM>
<NUMSTATES> 5
<STATE> 2
<MEAN> 39
 2.912561e+00 -6.590544e+00 3.665839e+00 -4.165757e+00 -4.277656e+00 -4.145720e+00 1.249529e+00 5.829892e+00 -1.207765e+00 -1.919132e-01 -4.924142e-01 8.320557e-01 1.142424e+01 -6.299344e-01 1.395517e+00 -4.579079e-01 1.382493e+00 7.348580e-01 -3.552264e-01 1.141665e-01 -5.605155e-01 4.569983e-01 1.261061e-01 4.157109e-01 7.830629e-01 -4.209855e-01 -3.824036e-01 4.345849e-01 -3.256562e-01 1.537124e-01 2.499408e-01 1.729436e-01 3.068048e-01 -2.754613e-01 9.436614e-02 -7.254669e-02 8.608921e-02 2.668314e-02 -2.893931e-01
<VARIANCE> 39
 7.845412e+00 2.165404e+01 1.210579e+01 4.860370e+01 1.584168e+01 1.487546e+01 4.228465e+01 7.147447e+01 1.998726e+01 1.090180e+01 9.794706e+00 1.725494e+01 2.800032e+01 1.010549e+00 1.851649e+00 1.762961e+00 1.256039e+00 8.620263e-01 8.350598e-01 6.487465e-01 1.356882e+00 6.325779e-01 9.879555e-01 6.697099e-01 6.581464e-01 1.041332e+00 1.228680e-01 7.276446e-02 9.959096e-02 1.454445e-01 1.649978e-01 6.890366e-02 7.915694e-02 1.210150e-01 6.519140e-02 9.031875e-02 7.011152e-02 9.982600e-02 6.489488e-02
<GCONST> 7.931980e+01
<STATE> 3
<MEAN> 39
 -7.155201e+00 6.347629e+00 -5.992356e+00 5.951450e+00 7.854484e-01 -7.569779e-01 6.331201e+00 -1.094607e+00 2.756108e+00 -1.352055e+00 3.619141e+00 9.357320e-01 4.453396e+00 -1.688883e+00 1.467074e+00 -1.100620e+00 6.002617e-01 5.979071e-01 1.207349e-01 7.930754e-01 -6.717448e-01 5.850079e-01 1.540688e-02 5.581363e-01 1.134386e-02 -5.702944e-01 1.783120e-01 -3.029821e-01 2.098676e-01 -3.643960e-01 -2.049914e-02 -1.068901e-01 4.074080e-02 1.067239e-01 -1.264466e-01 2.952198e-02 -2.827151e-02 -8.059848e-02 1.807441e-01
<VARIANCE> 39
 6.402291e+01 4.694005e+01 5.532096e+01 1.528122e+01 3.907930e+01 1.949953e+01 4.682253e+01 2.918385e+01 2.058820e+01 1.613803e+01 1.948438e+01 1.571017e+01 1.467520e+01 1.928867e+00 2.202002e+00 2.164720e+00 1.655761e+00 1.566067e+00 1.007950e+00 5.926840e-01 9.535880e-01 8.237698e-01 2.789638e-01 6.076270e-01 7.978594e-01 6.906060e-01 2.534162e-01 1.896491e-01 2.914701e-01 1.051303e-01 1.824119e-01 8.243123e-02 1.151167e-01 9.584769e-02 8.408781e-02 7.644251e-02 5.397362e-02 6.712209e-02 6.443338e-02
<GCONST> 8.590655e+01
<STATE> 4
<MEAN> 39
 -4.928167e+00 2.381622e+00 -1.641133e-02 5.460137e-01 -1.004401e+00 -5.132661e+00 3.585953e+00 -5.909666e-01 -2.637366e+00 5.778167e-01 4.254600e+00 8.962671e-01 7.393167e+00 9.043459e-01 -7.742159e-01 1.255067e+00 -3.920524e-01 -8.255562e-01 -3.393382e-01 -9.712893e-01 -4.801514e-02 -1.085997e+00 3.741691e-01 1.307760e-01 -3.225666e-01 1.866871e-01 3.346181e-02 8.301888e-02 3.126388e-03 8.525807e-02 -6.702084e-02 4.693760e-02 8.858024e-03 -6.655204e-03 5.070172e-02 5.742902e-03 -4.938837e-02 -7.193694e-02 -1.479323e-01
<VARIANCE> 39
 7.713645e+01 6.766581e+01 7.560906e+01 2.025862e+01 8.621920e+01 2.713279e+01 8.514380e+01 2.755660e+01 6.308917e+01 1.929599e+01 3.188975e+01 2.894467e+01 2.335477e+01 2.973048e+00 3.038191e+00 2.833160e+00 1.272594e+00 2.998484e+00 6.315503e-01 2.798274e+00 8.182722e-01 1.941571e+00 7.250046e-01 1.204476e+00 1.092561e+00 1.319286e+00 3.373095e-01 4.149196e-01 3.499144e-01 1.250458e-01 4.741358e-01 6.274316e-02 3.898774e-01 8.599231e-02 2.661930e-01 1.112819e-01 1.530228e-01 1.173593e-01 1.748414e-01
<GCONST> 1.047278e+02
<TRANSP> 5
 0.000000e+00 1.000000e+00 0.000000e+00 0.000000e+00 0.000000e+00
 0.000000e+00 6.564647e-01 3.435353e-01 0.000000e+00 0.000000e+00
 0.000000e+00 0.000000e+00 7.467209e-01 2.532792e-01 0.000000e+00
 0.000000e+00 0.000000e+00 0.000000e+00 8.491964e-01 1.508036e-01
 0.000000e+00 0.000000e+00 0.000000e+00 0.000000e+00 0.000000e+00
<ENDHMM>
~h "au"
<BEGINHMM>
<NUMSTATES> 5
<STATE> 2
<MEAN> 39
 4.204470e+00 -1.630154e+00 -1.590010e+00 -5.543363e+00 -2.221351e+00 2.656006e+00 -4.515985e+00 -8.064777e-01 -2.566982e+00 -2.506923e+00 -6.335386e-01 -2.328444e+00 8.827617e+00 -2.496210e-01 2.003038e-01 -8.644457e-01 -2.705976e-01 3.511761e-01 2.477681e-01 5.127558e-01 6.208633e-02 3.901379e-01 4.069372e-01 1.643079e-01 2.133622e-01 1.900984e-02 -6.616466e-02 -9.239770e-02 -4.103688e-02 -6.373981e-02 -5.296211e-02 -6.811824e-02 2.410397e-02 2.343979e-02 1.147579e-01 6.113940e-02 1.439310e-02 -7.151218e-02 1.029014e-01
<VARIANCE> 39
 2.218222e+01 3.425747e+01 3.760520e+01 6.596214e+01 4.135469e+01 6.133323e+01 9.163654e+01 3.817553e+01 3.344292e+01 5.617583e+01 3.730530e+01 3.735934e+01 7.076302e+01 7.615375e-01 9.582835e-01 1.532941e+00 1.600398e+00 9.990106e-01 1.597227e+00 3.854571e+00 9.555497e-01 1.264514e+00 1.408427e+00 1.027189e+00 1.201988e+00 2.979682e+00 7.270630e-02 7.369293e-02 1.002666e-01 1.843761e-01 9.999871e-02 1.674477e-01 3.562934e-01 8.853351e-02 1.580895e-01 1.466540e-01 1.231622e-01 1.658471e-01 2.218815e-01
<GCONST> 9.946903e+01
<STATE> 3
<MEAN> 39
 1.242447e+00 -2.426172e+00 -5.955829e+00 -7.539260e+00 -2.028342e-01 2.677592e+00 -1.433142e+00 -1.171443e+00 -1.069942e-01 1.852408e+00 5.064990e-01 -2.953050e+00 1.324510e+01 -5.980613e-02 -3.079919e-01 -9.793819e-01 -4.306473e-01 7.116298e-02 3.884257e-01 3.693476e-01 4.008966e-02 4.752865e-01 3.776186e-01 1.203900e-01 -6.133151e-02 2.719291e-01 1.303489e-01 -8.649245e-02 1.544702e-01 1.574888e-01 -7.097092e-02 -6.130131e-02 -1.130733e-01 -1.472198e-02 -3.487231e-02 -1.011815e-01 -1.833515e-02 -3.459399e-02 -1.922200e-01
<VARIANCE> 39
 2.135369e+01 2.111538e+01 3.049928e+01 4.870445e+01 2.797798e+01 4.954716e+01 8.408854e+01 2.648486e+01 3.067022e+01 3.361388e+01 4.092628e+01 3.374137e+01 8.419515e+01 7.893005e-01 6.196196e-01 8.954231e-01 2.049010e+00 6.530206e-01 1.741809e+00 3.249310e+00 1.000207e+00 1.168266e+00 1.298812e+00 1.144984e+00 1.095496e+00 3.089220e+00 7.642158e-02 5.349210e-02 8.007421e-02 1.605782e-01 8.602491e-02 2.076493e-01 4.583063e-01 9.625304e-02 1.880439e-01 1.528110e-01 1.291934e-01 1.126161e-01 2.172955e-01
<GCONST> 9.530125e+01
<STATE> 4
<MEAN> 39
 3.154681e+00 -3.874024e+00 -7.135429e+00 -9.237048e+00 7.103410e-02 5.146634e+00 -1.721495e+00 -1.308100e+00 1.325422e+00 3.030181e+00 1.150375e+00 -3.621761e+00 8.753856e+00 2.351490e-01 -2.805529e-01 -1.940656e-01 1.268684e-01 -9.692042e-02 1.707622e-01 -4.963138e-02 -6.632777e-02 1.545761e-01 -5.129389e-02 1.177281e-01 2.397449e-02 -5.199005e-01 -1.489383e-02 3.468566e-03 1.774439e-01 1.378703e-01 -4.557244e-02 -1.442425e-01 -1.460149e-02 9.417067e-03 -5.697354e-02 -9.044506e-02 -5.566742e-02 5.101962e-02 -1.318458e-02
<VARIANCE> 39
 1.744388e+01 2.144860e+01 1.974296e+01 6.227803e+01 3.032200e+01 1.016369e+02 4.948492e+01 3.741084e+01 2.255249e+01 2.861711e+01 4.200373e+01 4.067968e+01 7.353253e+01 5.844181e-01 6.578653e-01 7.087410e-01 1.619872e+00 8.864360e-01 2.452516e+00 2.205346e+00 6.640522e-01 7.568249e-01 7.721470e-01 9.652219e-01 9.826307e-01 1.732340e+00 5.009650e-02 7.051067e-02 7.417092e-02 1.209043e-01 1.188871e-01 1.819214e-01 2.283648e-01 9.092911e-02 1.178493e-01 9.205322e-02 1.198455e-01 1.293032e-01 1.889147e-01
<GCONST> 9.035830e+01
<TRANSP> 5
 0.000000e+00 1.000000e+00 0.000000e+00 0.000000e+00 0.000000e+00
 0.000000e+00 5.660121e-01 4.339879e-01 0.000000e+00 0.000000e+00
 0.000000e+00 0.000000e+00 6.496855e-01 3.503145e-01 0.000000e+00
 0.000000e+00 0.000000e+00 0.000000e+00 7.532470e-01 2.467530e-01
 0.000000e+00 0.000000e+00 0.000000e+00 0.000000e+00 0.000000e+00
<ENDHMM>
~h "ax"
<BEGINHMM>
<NUMSTATES> 5
<STATE> 2
<MEAN> 39
 4.087292e+00 -4.842531e-01 5.234832e+00 -5.902954e-01 -5.550946e+00 -1.240112e+00 -2.213022e+00 -3.701245e+00 -3.243541e+00 -2.346581e+00 -2.848299e+00 1.061553e+00 4.407113e+00 2.099632e-02 -5.257262e-02 3.735089e-01 4.017829e-02 6.736902e-02 -2.195036e-01 -1.681129e-02 -6.054209e-02 -2.121288e-01 -1.803755e-01 1.445812e-01 -1.296220e-02 1.646423e-01 1.447839e-02 -3.425266e-04 -1.717160e-02 2.629423e-02 -6.573933e-02 -1.410986e-03 -6.642264e-02 -3.624082e-02 -6.007835e-02 -6.132061e-02 9.278937e-02 -8.264641e-02 4.940222e-03
<VARIANCE> 39
 1.751929e+01 2.724806e+01 4.299311e+01 5.433428e+01 4.424106e+01 3.015513e+01 3.640293e+01 1.292771e+02 3.533937e+01 2.979573e+01 2.769312e+01 2.175756e+01 4.063308e+01 4.050921e-01 8.707013e-01 1.705384e+00 1.612498e+00 1.747453e+00 9.012805e-01 1.269092e+00 3.389628e+00 1.159567e+00 8.178250e-01 1.334829e+00 9.676178e-01 1.381493e+00 3.813308e-02 9.516050e-02 1.488900e-01 1.287220e-01 1.691110e-01 1.297852e-01 1.503848e-01 3.655608e-01 1.676765e-01 1.163831e-01 1.654748e-01 1.216548e-01 1.315531e-01
<GCONST> 9.456421e+01
<STATE> 3
<MEAN> 39
 3.850553e+00 -4.439736e-01 6.734905e+00 2.790269e+00 -7.303433e+00 -2.029553e+00 -2.678312e+00 2.784566e-01 -6.485442e+00 -5.167945e+00 3.293836e+00 -4.265889e-01 4.261951e+00 9.983040e-02 2.135518e-01 -1.941121e-02 -7.982326e-02 -4.072915e-01 -1.721415e-01 -2.085963e-01 -2.011501e-01 -2.019931e-01 2.789505e-02 1.720974e-01 -2.556204e-01 -1.562802e-01 4.570848e-03 2.464394e-03 -1.459625e-01 -2.100799e-02 2.428166e-01 5.322248e-03 1.253861e-01 7.878134e-03 1.006892e-01 8.699103e-02 -2.769916e-01 5.654522e-02 -1.158402e-01
<VARIANCE> 39
 1.226842e+01 3.930507e+01 3.011885e+01 2.790496e+01 6.927390e+01 2.780085e+01 2.785920e+01 3.850242e+01 1.442903e+01 2.300080e+01 5.130714e+01 1.877554e+01 5.511631e+01 2.397741e-01 1.323491e+00 1.198800e+00 5.397902e-01 3.081195e+00 8.390424e-01 1.253406e+00 1.611151e+00 7.093207e-01 5.488997e-01 2.136703e+00 7.171079e-01 1.327343e+00 3.371201e-02 1.376927e-01 1.230352e-01 8.808832e-02 3.834881e-01 9.533893e-02 1.638626e-01 2.235439e-01 7.048484e-02 6.250183e-02 2.449751e-01 8.927226e-02 1.262020e-01
<GCONST> 8.782098e+01
<STATE> 4
<MEAN> 39
 2.519375e+00 3.515321e-01 5.074289e+00 1.654372e+00 6.148909e-01 -4.700583e+00 -4.575619e-01 1.509020e-01 -3.472944e+00 2.316689e+00 -1.639446e+00 1.072129e+00 4.596230e+00 3.854408e-01 4.542220e-01 -1.476824e+00 1.482908e-01 2.180061e+00 1.146913e+00 -1.465679e-01 -8.398204e-01 6.142855e-01 6.960856e-01 -5.769991e-01 -4.988146e-02 -6.192290e-01 2.719554e-02 -8.932960e-02 -8.617307e-02 -3.040005e-01 -3.292323e-01 3.323644e-01 -4.593129e-02 -1.500881e-01 -1.692472e-01 -3.522081e-02 3.779014e-01 -8.687520e-02 1.801451e-01
<VARIANCE> 39
 7.121915e+00 1.302944e+01 2.490467e+01 2.411903e+01 6.933350e+01 1.559268e+01 2.025660e+01 2.819848e+01 2.526266e+01 3.442174e+01 2.398361e+01 3.280508e+01 2.850888e+01 2.994652e-01 5.117927e-01 4.421101e-01 1.088957e+00 2.162337e+00 1.642693e+00 6.013853e-01 1.323575e+00 1.263266e+00 4.861031e-01 2.566249e+00 8.059489e-01 5.405955e-01 3.953969e-02 2.635241e-02 3.828982e-02 7.468169e-02 3.680293e-01 7.699325e-02 9.234851e-02 8.332884e-02 1.946591e-01 1.064721e-01 1.702788e-01 1.454786e-01 3.696239e-02
<GCONST> 7.875528e+01
<TRANSP> 5
 0.000000e+00 1.000000e+00 0.000000e+00 0.000000e+00 0.000000e+00
 0.000000e+00 9.082590e-01 9.174105e-02 0.000000e+00 0.000000e+00
 0.000000e+00 0.000000e+00 8.698672e-01 1.301328e-01 0.000000e+00
 0.000000e+00 0.000000e+00 0.000000e+00 7.670065e-01 2.329936e-01
 0.000000e+00 0.000000e+00 0.000000e+00 0.000000e+00 0.000000e+00
<ENDHMM>
~h "bh"
<BEGINHMM>
<NUMSTATES> 5
<STATE> 2
<MEAN> 39
 5.078256e+00 2.540905e+00 -7.652712e-01 3.782411e-01 2.040573e+00 6.735247e-01 -1.552045e+00 -2.821098e+00 -1.272448e+00 -1.116280e+00 -1.217243e+00 -2.700525e+00 1.719838e+00 4.038548e-02 -3.905526e-01 -4.757503e-01 -7.342390e-01 2.402805e-01 5.004300e-01 6.036758e-02 -3.380077e-01 1.708543e-02 5.973842e-01 3.394747e-01 -1.028815e-01 1.083386e+00 -3.960963e-02 -2.395478e-01 -1.120181e-01 -2.687874e-01 -6.986962e-02 1.149428e-02 -8.989356e-02 -8.003104e-03 3.625529e-02 1.283628e-01 2.750762e-02 -7.760323e-02 3.422653e-01
<VARIANCE> 39
