~h "sp"
<BEGINHMM>
<NUMSTATES> 3
<STATE> 2
<MEAN> 39
 -4.903221e+00 3.198384e+00 -1.074319e+00 6.804267e+00 6.661411e+00 3.983848e+00 4.559507e+00 2.860959e+00 3.051951e+00 1.396167e+00 2.820774e+00 5.665686e+00 -1.268656e+01 -1.036051e-02 9.454136e-03 1.721210e-02 -3.895906e-03 1.586204e-02 -1.024401e-03 -3.046382e-04 -1.588686e-02 -1.460438e-02 3.229704e-03 -7.967299e-03 -6.593787e-03 -7.691579e-03 9.270525e-04 8.131475e-04 4.465620e-03 -4.738432e-03 -5.075393e-03 -3.033727e-03 -1.930456e-03 -3.915739e-03 -4.591111e-03 -1.302342e-03 -4.267092e-03 -5.332031e-03 8.138470e-03
<VARIANCE> 39
 7.848465e+00 2.365583e+01 1.468377e+01 1.801527e+01 1.866964e+01 2.276954e+01 2.615061e+01 2.230869e+01 2.082806e+01 1.836898e+01 2.000185e+01 1.688086e+01 2.772581e+01 9.678526e-02 2.364597e-01 1.915873e-01 2.503966e-01 3.004601e-01 3.122110e-01 3.180421e-01 3.447561e-01 3.246349e-01 3.179311e-01 2.904686e-01 2.767020e-01 1.693415e-01 1.224507e-02 2.257610e-02 2.402360e-02 3.299311e-02 3.983711e-02 4.151392e-02 4.425753e-02 4.665699e-02 4.553615e-02 4.454681e-02 4.154276e-02 3.874525e-02 1.681999e-02
<GCONST> 4.739391e+01
<TRANSP> 3
0.0  1.0  0.0
0.0  0.9  0.1
0.0  0.0  0.0
<ENDHMM>
