~o
<STREAMINFO> 1 39
<VECSIZE> 39<NULLD><MFCC_D_A_Z_0><DIAGC>
~s "silst"
<MEAN> 39
 -4.540400e+00 1.921872e+00 -1.411115e+00 5.364521e+00 5.946597e+00 3.017506e+00 3.926708e+00 2.920704e+00 3.117502e+00 1.230301e+00 2.201936e+00 5.057331e+00 -1.069783e+01 -2.311938e-02 1.836232e-02 3.563433e-03 1.629091e-03 3.012723e-02 1.162113e-02 1.561266e-02 -2.022047e-02 -6.220002e-03 9.088635e-03 2.896471e-04 -1.929040e-03 -1.243733e-02 5.437099e-03 8.065244e-03 6.845717e-03 2.015558e-03 -1.028203e-02 3.009559e-03 -2.613876e-03 -5.912819e-03 -6.380564e-03 -2.040543e-03 -1.869898e-03 -5.856501e-03 -2.493672e-03
<VARIANCE> 39
 8.026129e+00 2.574761e+01 1.632539e+01 2.121262e+01 1.981722e+01 2.475281e+01 2.626167e+01 2.273457e+01 2.156715e+01 1.846136e+01 2.120311e+01 1.828729e+01 3.050149e+01 8.074185e-02 2.081097e-01 1.815013e-01 2.247830e-01 2.735865e-01 2.967466e-01 2.945052e-01 3.260521e-01 3.121134e-01 3.147246e-01 2.872550e-01 2.668203e-01 1.161625e-01 9.584239e-03 1.866191e-02 2.119711e-02 2.912998e-02 3.598115e-02 3.952977e-02 4.150071e-02 4.536366e-02 4.492759e-02 4.490263e-02 4.164657e-02 3.795617e-02 1.030063e-02
<GCONST> 4.554610e+01
~h "a"
<BEGINHMM>
<NUMSTATES> 5
<STATE> 2
<MEAN> 39
 2.354028e+00 -4.716730e+00 -1.142930e+00 -4.371013e+00 -1.858683e+00 -1.791758e+00 -4.229825e+00 1.060701e+00 9.357078e-01 1.825828e-01 -1.752428e+00 -3.216864e+00 1.006486e+01 2.641405e-01 -7.405466e-01 -2.005150e-01 -3.982623e-01 -4.723640e-01 -1.171345e-01 -2.508318e-01 6.936927e-01 2.948154e-01 -8.240717e-02 -2.879924e-01 -4.169050e-01 1.006726e+00 -2.368928e-02 1.445732e-01 8.120587e-02 1.623250e-01 3.960221e-02 7.034821e-03 7.707728e-02 -8.654378e-02 -8.024102e-02 -5.256155e-02 2.105605e-02 8.511025e-02 -2.593335e-01
<VARIANCE> 39
 2.213078e+01 3.423676e+01 5.933463e+01 3.981200e+01 6.543680e+01 6.147718e+01 5.569421e+01 4.925558e+01 4.748069e+01 3.475924e+01 4.102228e+01 4.206526e+01 8.184679e+01 8.394195e-01 1.114529e+00 1.614671e+00 1.264035e+00 1.930604e+00 1.791027e+00 1.676318e+00 1.899741e+00 1.474064e+00 1.151684e+00 1.308269e+00 1.221696e+00 2.170112e+00 1.071167e-01 1.488476e-01 1.774547e-01 1.638044e-01 2.374270e-01 1.831903e-01 2.050844e-01 1.978946e-01 1.586021e-01 1.353980e-01 1.620984e-01 1.727591e-01 3.036982e-01
<GCONST> 1.037529e+02
<STATE> 3
<MEAN> 39
 3.290421e+00 -8.592314e+00 -2.483179e+00 -6.165875e+00 -3.925338e+00 -2.929738e+00 -5.256588e+00 5.349485e+00 2.521288e+00 -1.405001e+00 -3.739518e+00 -5.557163e+00 1.466026e+01 2.242151e-01 6.570189e-02 1.404751e-01 4.264270e-01 -1.283878e-01 -1.795768e-01 5.105469e-02 -2.772841e-02 -6.754232e-02 -1.268909e-01 -1.493468e-01 8.733936e-02 -3.634857e-01 -6.087124e-02 3.858455e-01 1.751063e-01 3.046234e-01 2.218611e-01 1.500095e-02 1.107819e-01 -4.223852e-01 -1.654609e-01 3.053195e-02 1.032710e-01 2.235107e-01 -5.488681e-01
<VARIANCE> 39
 1.458250e+01 2.292089e+01 3.764780e+01 2.773054e+01 4.545498e+01 4.668621e+01 4.985104e+01 4.644717e+01 3.650872e+01 4.139699e+01 4.090986e+01 3.641919e+01 5.031758e+01 4.545420e-01 8.959463e-01 1.348616e+00 1.052230e+00 1.705027e+00 1.297674e+00 1.439703e+00 1.675353e+00 1.077179e+00 1.067571e+00 1.158751e+00 1.040284e+00 1.387867e+00 8.493669e-02 1.137779e-01 1.541857e-01 1.175072e-01 1.871609e-01 1.553964e-01 2.104220e-01 2.228626e-01 1.536109e-01 1.534316e-01 1.667871e-01 1.455433e-01 1.698115e-01
<GCONST> 9.568676e+01
<STATE> 4
<MEAN> 39
 4.105125e+00 -3.825695e+00 -1.939659e+00 -1.706767e+00 -1.944839e+00 -4.115618e+00 -4.055262e+00 1.598695e+00 1.861930e+00 2.910229e-02 -2.267632e+00 -2.616199e+00 5.427985e+00 -6.911230e-02 6.388204e-01 2.160235e-01 6.225221e-01 2.089150e-01 -2.858553e-02 2.383275e-01 -4.147237e-01 -9.168820e-02 -5.863281e-03 1.391480e-01 3.567675e-01 -1.195117e+00 -1.264858e-01 4.602610e-02 1.364185e-02 -6.210469e-02 5.756638e-02 5.627244e-02 6.727234e-02 -4.224901e-02 -5.528198e-03 1.098702e-02 3.649865e-02 2.047976e-02 2.681412e-02
<VARIANCE> 39
 1.392258e+01 2.989424e+01 3.605457e+01 3.206889e+01 4.444054e+01 4.807378e+01 4.606705e+01 4.434333e+01 3.791408e+01 3.402846e+01 3.486754e+01 3.566214e+01 7.005817e+01 6.243201e-01 8.726234e-01 1.015921e+00 8.581221e-01 1.171206e+00 9.854658e-01 1.139227e+00 1.335879e+00 9.034629e-01 8.167890e-01 8.900865e-01 8.326038e-01 1.580830e+00 6.636124e-02 9.847911e-02 1.030660e-01 9.328967e-02 1.300071e-01 1.210092e-01 1.255525e-01 1.580647e-01 1.151963e-01 1.027448e-01 1.131029e-01 1.031892e-01 1.679919e-01
<GCONST> 8.984303e+01
<TRANSP> 5
 0.000000e+00 1.000000e+00 0.000000e+00 0.000000e+00 0.000000e+00
 0.000000e+00 4.355046e-01 5.644954e-01 0.000000e+00 0.000000e+00
 0.000000e+00 0.000000e+00 5.738500e-01 4.261501e-01 0.000000e+00
 0.000000e+00 0.000000e+00 0.000000e+00 5.428598e-01 4.571402e-01
 0.000000e+00 0.000000e+00 0.000000e+00 0.000000e+00 0.000000e+00
<ENDHMM>
~h "b"
<BEGINHMM>
<NUMSTATES> 5
<STATE> 2
<MEAN> 39
 5.758814e+00 4.355877e+00 3.575919e-01 2.488682e+00 2.291416e+00 1.524562e+00 -2.471059e+00 -3.222434e+00 -1.935567e+00 -1.550320e+00 -1.309880e+00 -4.059608e+00 -2.789114e+00 -2.728432e-01 1.800981e-01 7.078300e-02 7.692632e-03 2.896217e-01 -4.570197e-02 3.728961e-01 -5.858311e-03 8.349948e-02 -3.549840e-03 8.978472e-02 8.317184e-02 1.428651e-01 -1.449293e-01 -3.883375e-01 -1.233671e-01 -3.610730e-01 -2.613230e-01 -8.881652e-02 -1.123696e-01 6.922796e-02 8.638540e-02 1.198765e-01 1.142621e-01 4.182028e-02 6.490484e-01
<VARIANCE> 39
 1.409834e+01 2.467594e+01 3.264913e+01 2.281517e+01 3.182818e+01 3.537772e+01 2.533092e+01 3.507315e+01 4.068605e+01 2.157531e+01 2.956356e+01 3.138232e+01 1.909070e+01 6.264228e-01 9.259155e-01 9.250786e-01 1.247311e+00 8.832449e-01 1.054400e+00 8.881012e-01 9.082604e-01 7.856981e-01 7.955241e-01 8.148136e-01 7.361540e-01 2.262943e+00 8.846013e-02 9.787125e-02 1.279355e-01 1.179690e-01 1.566422e-01 1.497054e-01 1.312468e-01 1.466337e-01 1.410187e-01 1.170892e-01 1.178346e-01 1.100822e-01 1.746233e-01
<GCONST> 8.682558e+01
<STATE> 3
<MEAN> 39
 2.966252e+00 2.280327e+00 -1.111216e+00 -5.529041e-01 2.962631e+00 4.577050e-01 -1.389766e+00 -4.191367e+00 -1.058416e+00 -3.578595e-01 6.704625e-01 -1.197540e+00 2.637455e+00 -3.772314e-01 -1.240105e+00 -3.297596e-01 -9.994226e-01 -7.629453e-01 -1.129531e-01 -2.059104e-01 2.857521e-01 3.938414e-01 4.058235e-01 2.770284e-01 -1.841961e-01 2.103551e+00 1.108469e-02 -1.989365e-01 2.807454e-02 -8.205833e-02 -2.751851e-01 -1.354941e-02 -1.136879e-01 1.483204e-01 1.863041e-02 -5.654123e-02 -9.923779e-02 -1.136125e-01 1.906162e-01
<VARIANCE> 39
 2.193769e+01 2.501710e+01 3.021296e+01 3.881273e+01 3.052475e+01 4.028530e+01 2.663813e+01 3.530506e+01 3.383396e+01 2.619037e+01 2.876718e+01 3.060499e+01 4.833445e+01 1.032972e+00 1.237908e+00 2.355249e+00 1.808025e+00 2.077675e+00 2.123984e+00 1.393882e+00 1.459276e+00 1.695500e+00 1.273847e+00 1.189914e+00 1.192825e+00 1.718728e+00 8.265793e-02 7.960105e-02 9.852734e-02 1.245053e-01 1.639221e-01 1.317477e-01 1.091104e-01 1.656918e-01 1.445360e-01 1.093211e-01 1.263064e-01 9.567558e-02 1.152483e-01
<GCONST> 9.401236e+01
<STATE> 4
<MEAN> 39
 3.325404e+00 -3.831807e+00 -2.253315e+00 -4.286978e+00 -1.983858e+00 1.547920e-01 -4.411886e+00 -1.461358e+00 1.302198e+00 1.929522e+00 1.898139e+00 -3.407671e+00 1.078695e+01 -4.792978e-01 -1.095419e+00 3.935050e-02 -7.200442e-01 -1.085353e+00 -3.542421e-01 -2.206338e-01 6.934516e-01 2.989765e-01 7.920460e-03 -3.434220e-02 -2.000991e-01 1.728554e+00 3.285443e-02 2.122101e-01 1.342311e-01 2.143893e-01 4.282690e-02 -1.410716e-02 5.919245e-02 2.568204e-04 -1.389125e-01 -2.125525e-01 -1.665954e-01 3.521806e-02 -3.888565e-01
<VARIANCE> 39
 1.992225e+01 2.385715e+01 5.590660e+01 4.336640e+01 3.809475e+01 6.373733e+01 4.615750e+01 4.462395e+01 4.014523e+01 3.979273e+01 3.337859e+01 3.873357e+01 6.312281e+01 1.203886e+00 1.494273e+00 2.282554e+00 1.346956e+00 2.635078e+00 1.950950e+00 1.624410e+00 1.771025e+00 1.998598e+00 1.121361e+00 1.216642e+00 1.289367e+00 1.675837e+00 7.416362e-02 8.994625e-02 1.450618e-01 2.058651e-01 1.431331e-01 2.099803e-01 1.593753e-01 1.966847e-01 1.382660e-01 1.407048e-01 1.350656e-01 1.222983e-01 2.331573e-01
<GCONST> 1.009359e+02
<TRANSP> 5
 0.000000e+00 1.000000e+00 0.000000e+00 0.000000e+00 0.000000e+00
 0.000000e+00 7.290512e-01 2.709488e-01 0.000000e+00 0.000000e+00
 0.000000e+00 0.000000e+00 4.851271e-01 5.148728e-01 0.000000e+00
 0.000000e+00 0.000000e+00 0.000000e+00 4.039986e-01 5.960014e-01
 0.000000e+00 0.000000e+00 0.000000e+00 0.000000e+00 0.000000e+00
<ENDHMM>
~h "c"
<BEGINHMM>
<NUMSTATES> 5
<STATE> 2
<MEAN> 39
 -6.374292e+00 2.276532e+00 -8.280058e-01 -3.099612e+00 2.794186e+00 -3.827406e+00 3.351405e-02 -1.330511e+00 1.045182e+00 7.418426e-01 6.310502e-01 1.325230e+00 -1.515397e-01 -1.499383e+00 -1.187152e-01 3.579544e-01 -7.700612e-01 4.374114e-01 -1.330198e-01 4.420435e-01 2.996472e-01 4.294543e-03 -1.287465e-01 3.322180e-01 4.612525e-01 1.091427e+00 1.969921e-01 -1.529178e-01 2.361368e-01 1.365970e-02 -2.143564e-01 3.244862e-02 -1.111995e-01 7.037292e-02 -6.124481e-02 -1.262879e-01 -6.161611e-02 -7.486089e-02 3.995740e-01
<VARIANCE> 39
 5.915712e+01 3.063142e+01 4.800365e+01 3.722649e+01 3.752866e+01 4.425279e+01 4.072281e+01 3.873577e+01 3.424135e+01 2.558326e+01 2.834561e+01 2.717414e+01 4.868751e+01 1.473005e+00 1.098358e+00 1.735457e+00 9.509624e-01 1.146592e+00 1.120898e+00 1.015143e+00 1.137876e+00 9.283047e-01 7.658568e-01 7.032635e-01 6.379308e-01 2.225280e+00 3.967076e-01 1.324735e-01 1.533797e-01 1.680173e-01 1.820700e-01 1.527721e-01 1.663212e-01 1.258699e-01 1.261509e-01 1.010477e-01 1.095061e-01 1.162859e-01 1.764687e-01
<GCONST> 9.527477e+01
<STATE> 3
<MEAN> 39
 -1.207449e+01 7.658845e-01 6.136044e+00 -5.422881e+00 2.277925e+00 -3.782344e+00 2.055738e+00 1.068621e+00 2.554964e-01 -2.143326e+00 2.097932e+00 3.312765e+00 8.655871e+00 1.695498e+00 -9.467533e-01 5.134572e-01 2.599819e-01 -1.427133e+00 -2.281882e-01 -8.462806e-01 4.031678e-01 -8.304002e-02 -4.437693e-01 -3.382212e-01 -4.369461e-01 1.416987e+00 6.752433e-01 -1.351203e-01 -3.246534e-01 1.426182e-01 -2.690571e-01 4.028768e-02 -2.805966e-01 -8.070667e-02 4.721604e-02 1.180418e-01 -1.477452e-01 -3.074244e-01 -2.180592e-01
<VARIANCE> 39
 5.363302e+01 3.045152e+01 4.208684e+01 2.926411e+01 4.203273e+01 3.987263e+01 3.365315e+01 2.862375e+01 3.197438e+01 2.740552e+01 2.793363e+01 2.185584e+01 2.429289e+01 1.811614e+00 1.061162e+00 2.117919e+00 1.078991e+00 1.367526e+00 1.547386e+00 1.413290e+00 1.479758e+00 1.873144e+00 9.238279e-01 1.132503e+00 9.300187e-01 1.670939e+00 2.150091e-01 1.303594e-01 1.831825e-01 1.160352e-01 1.884706e-01 1.655300e-01 1.308945e-01 1.256622e-01 1.238309e-01 1.252059e-01 1.103931e-01 9.978152e-02 8.718926e-02
<GCONST> 9.483192e+01
<STATE> 4
<MEAN> 39
 1.483081e+00 -5.976457e+00 3.983033e+00 -4.491256e+00 -6.831470e+00 -4.793012e+00 -7.016995e+00 2.942913e+00 2.002622e+00 -1.667111e+00 -8.296995e-01 -1.568243e+00 1.322355e+01 2.172819e+00 -1.050463e+00 -1.005820e+00 -4.894286e-02 -8.440316e-01 4.544927e-01 -8.553134e-01 -5.036126e-02 1.368633e-01 2.748470e-01 -3.732597e-01 -1.225941e+00 6.068316e-01 -3.811718e-01 2.447295e-01 -2.167282e-01 -1.174397e-01 4.676285e-01 2.241672e-01 3.456053e-01 -2.425334e-01 -1.493121e-01 8.567164e-02 1.451164e-01 2.330827e-02 -3.534626e-01
<VARIANCE> 39
 1.483690e+01 2.371828e+01 4.909400e+01 2.268635e+01 3.959252e+01 3.683622e+01 4.477178e+01 3.590767e+01 4.535341e+01 2.757477e+01 2.801411e+01 2.540424e+01 4.192214e+01 1.205748e+00 1.252770e+00 2.244846e+00 1.309156e+00 1.394993e+00 1.804329e+00 1.401343e+00 1.339401e+00 1.375632e+00 1.445411e+00 1.419224e+00 1.067310e+00 8.961372e-01 1.551094e-01 1.146319e-01 1.532341e-01 8.958589e-02 1.496959e-01 1.473756e-01 1.884434e-01 1.207154e-01 1.899688e-01 1.215809e-01 1.252943e-01 1.335730e-01 1.032181e-01
<GCONST> 9.465029e+01
<TRANSP> 5
 0.000000e+00 1.000000e+00 0.000000e+00 0.000000e+00 0.000000e+00
 0.000000e+00 7.717829e-01 2.282172e-01 0.000000e+00 0.000000e+00
 0.000000e+00 0.000000e+00 6.764347e-01 3.235653e-01 0.000000e+00
 0.000000e+00 0.000000e+00 0.000000e+00 5.697209e-01 4.302791e-01
 0.000000e+00 0.000000e+00 0.000000e+00 0.000000e+00 0.000000e+00
<ENDHMM>
~h "d"
<BEGINHMM>
<NUMSTATES> 5
<STATE> 2
<MEAN> 39
 4.356649e+00 3.936096e+00 1.753654e+00 3.534636e+00 1.516802e+00 -1.208758e+00 -2.155808e+00 -2.450723e+00 -2.350744e-01 -1.314042e+00 -2.812313e+00 -4.487391e+00 -2.281436e+00 -5.471023e-01 -2.065888e-01 3.170576e-01 -2.206923e-01 -1.113766e-01 -4.123070e-01 5.486646e-01 6.446835e-02 -9.427448e-02 -1.817926e-01 4.102821e-01 5.272099e-01 7.506215e-01 -1.299359e-01 -2.951425e-01 1.175800e-01 -3.239201e-01 -3.871303e-01 -1.414717e-01 -1.397254e-01 -9.203681e-03 -9.890620e-02 5.566675e-03 1.730749e-01 6.783199e-02 6.167927e-01
<VARIANCE> 39
 1.598750e+01 2.842554e+01 3.047790e+01 2.300856e+01 3.388586e+01 3.151728e+01 3.302012e+01 3.672310e+01 2.804865e+01 2.461654e+01 2.835984e+01 2.681283e+01 2.400236e+01 5.765334e-01 1.006569e+00 1.080909e+00 1.038937e+00 1.550224e+00 1.066750e+00 1.196606e+00 1.404758e+00 1.245309e+00 7.407193e-01 1.072940e+00 7.982193e-01 2.548793e+00 9.076074e-02 9.377962e-02 1.378248e-01 8.755855e-02 1.656556e-01 1.415621e-01 1.566038e-01 1.949267e-01 1.424599e-01 1.010734e-01 1.385896e-01 1.183237e-01 1.648959e-01
<GCONST> 8.948749e+01
<STATE> 3
<MEAN> 39
 -9.529394e-01 -9.035672e-01 6.031532e+00 -3.493846e-01 -4.130748e+00 -7.081122e+00 6.799738e-01 -3.308637e+00 -3.224569e+00 -3.812779e+00 2.672557e+00 5.480755e-01 9.627252e+00 -5.166656e-01 -8.812252e-01 1.024930e+00 -1.016796e+00 -1.919365e+00 -4.945097e-01 -3.755396e-01 -1.128706e-02 -6.868242e-01 7.560225e-02 9.034485e-01 1.144387e-01 2.194729e+00 2.225096e-01 3.464633e-02 -3.126230e-02 -2.769391e-02 -6.629229e-02 2.534296e-01 -2.566877e-01 3.230145e-02 1.802648e-02 1.747814e-01 -1.753332e-01 -2.543155e-01 -2.219603e-01
<VARIANCE> 39
 1.288253e+01 1.463196e+01 3.993340e+01 1.832923e+01 7.724942e+01 3.187791e+01 4.394050e+01 3.508235e+01 3.756943e+01 2.176853e+01 3.571284e+01 2.336465e+01 4.358146e+01 6.217286e-01 9.224374e-01 1.974966e+00 8.192340e-01 1.873823e+00 1.355635e+00 1.458574e+00 2.709541e+00 1.969992e+00 9.202642e-01 1.404262e+00 9.125946e-01 1.281516e+00 4.158527e-02 6.728415e-02 9.706621e-02 6.466287e-02 1.709468e-01 9.259486e-02 1.133261e-01 1.146346e-01 1.072531e-01 9.299977e-02 1.136033e-01 7.936380e-02 1.413324e-01
<GCONST> 8.847990e+01
<STATE> 4
<MEAN> 39
 1.819209e-01 -2.538004e+00 6.516789e+00 -3.552606e+00 -8.164866e+00 -5.143536e+00 -3.840845e+00 -1.837817e+00 -2.664444e+00 -1.258496e+00 1.624245e+00 -2.207182e+00 1.223417e+01 7.990795e-02 -5.355647e-01 2.566567e-01 -7.470230e-01 -8.528448e-01 6.265091e-02 -5.351270e-01 1.018006e-01 -1.483881e-01 3.146328e-01 1.018251e-01 -2.453259e-01 8.881978e-01 1.713892e-01 1.349950e-01 -1.600083e-01 1.483130e-01 2.736821e-01 2.037529e-01 1.011999e-02 -3.423421e-02 3.559348e-02 3.971047e-02 -1.949144e-01 -8.908851e-02 -4.325785e-01
<VARIANCE> 39
 1.631302e+01 2.239889e+01 6.867503e+01 2.626329e+01 8.257155e+01 4.442370e+01 4.414743e+01 6.644968e+01 6.295096e+01 2.553691e+01 5.274548e+01 2.809450e+01 5.630471e+01 5.566788e-01 9.101294e-01 1.870542e+00 1.016616e+00 1.805322e+00 1.212828e+00 1.415859e+00 2.114966e+00 1.495954e+00 9.664453e-01 1.274400e+00 8.818024e-01 2.195798e+00 6.752229e-02 8.411724e-02 1.400118e-01 9.345888e-02 2.317888e-01 1.486137e-01 1.516008e-01 1.907074e-01 1.764467e-01 1.018741e-01 1.858339e-01 1.072810e-01 2.009970e-01
<GCONST> 9.713920e+01
<TRANSP> 5
 0.000000e+00 1.000000e+00 0.000000e+00 0.000000e+00 0.000000e+00
 0.000000e+00 7.582526e-01 2.417474e-01 0.000000e+00 0.000000e+00
 0.000000e+00 0.000000e+00 5.290993e-01 4.709007e-01 0.000000e+00
 0.000000e+00 0.000000e+00 0.000000e+00 3.404359e-01 6.595641e-01
 0.000000e+00 0.000000e+00 0.000000e+00 0.000000e+00 0.000000e+00
<ENDHMM>
~h "e"
<BEGINHMM>
<NUMSTATES> 5
<STATE> 2
<MEAN> 39
 1.269220e-01 -5.979960e-01 2.043380e+00 -3.955013e-01 -4.303443e+00 -3.762179e+00 9.765276e-02 -9.180532e-01 -1.514593e+00 1.148925e+00 2.759828e-01 -3.730025e-01 2.251897e+00 -2.161708e-01 -3.468710e-01 1.483408e+00 -6.123510e-01 -1.306389e+00 -2.090874e-01 -1.060874e-01 2.737952e-02 -1.023458e+00 5.408351e-02 4.917501e-01 -5.866697e-02 1.128612e+00 2.545546e-02 -3.197149e-02 1.608008e-01 -1.485147e-01 -1.310777e-01 6.360076e-02 -6.819695e-02 -3.305928e-02 -1.568537e-01 -1.382756e-02 6.518663e-02 -7.841405e-02 1.512081e-01
<VARIANCE> 39
 1.823759e+01 3.026505e+01 5.619789e+01 3.184711e+01 6.373238e+01 4.254846e+01 4.665361e+01 5.014430e+01 4.524204e+01 3.262537e+01 2.975543e+01 2.875090e+01 6.961660e+01 5.909649e-01 8.830638e-01 1.911672e+00 9.379563e-01 1.614838e+00 1.258083e+00 1.225486e+00 2.067125e+00 1.225640e+00 8.702725e-01 9.995849e-01 7.885382e-01 1.342834e+00 6.492906e-02 8.615751e-02 1.951636e-01 9.503007e-02 1.501687e-01 1.273049e-01 1.261719e-01 1.354798e-01 1.342055e-01 9.046569e-02 8.969521e-02 7.581050e-02 1.711033e-01
<GCONST> 9.276128e+01
<STATE> 3
<MEAN> 39
 1.484622e-01 -4.367779e+00 1.143220e+01 -5.776118e+00 -1.401867e+01 -4.604194e+00 -3.751077e+00 7.804413e-01 -8.466384e+00 4.253942e-01 4.736560e+00 -2.442223e+00 1.176825e+01 -6.015106e-02 -1.301662e-01 5.433585e-01 -3.896414e-01 -6.495643e-01 4.541156e-02 -2.835877e-02 -6.193772e-02 -5.777318e-01 1.120176e-03 3.165214e-01 -1.451030e-01 6.147587e-01 5.544837e-02 1.955126e-01 -3.418593e-01 2.818006e-01 4.261857e-01 3.622944e-02 1.404722e-01 -1.642078e-01 2.447716e-01 -3.647384e-03 -2.303807e-01 4.755791e-02 -4.020453e-01
<VARIANCE> 39
 1.379796e+01 2.107102e+01 3.798322e+01 2.600750e+01 2.622171e+01 3.678648e+01 3.443892e+01 6.186283e+01 2.536127e+01 2.771461e+01 3.215821e+01 2.205689e+01 3.303854e+01 3.596120e-01 4.578138e-01 1.017756e+00 8.666018e-01 1.335225e+00 8.009493e-01 1.176791e+00 1.100361e+00 8.250603e-01 7.390174e-01 1.020159e+00 6.031796e-01 1.243918e+00 4.903491e-02 7.705845e-02 1.063061e-01 8.219906e-02 1.254661e-01 1.057975e-01 1.357566e-01 1.746973e-01 1.021550e-01 8.762781e-02 9.276905e-02 8.637816e-02 1.010199e-01
<GCONST> 8.281503e+01
<STATE> 4
<MEAN> 39
 9.000067e-01 -9.995281e-01 9.268954e+00 -2.321635e+00 -1.157545e+01 -4.228315e+00 -1.368836e+00 -3.033850e+00 -6.830822e+00 1.658877e+00 3.535112e+00 -2.325452e+00 4.075199e+00 9.945398e-02 3.968074e-01 -6.582601e-01 5.961692e-01 7.873489e-01 -2.732381e-02 3.428157e-01 -9.599238e-02 5.307299e-01 -1.710345e-02 -2.326860e-01 2.634077e-01 -1.176690e+00 -5.649986e-02 1.365743e-02 -9.773666e-02 3.004821e-04 1.419416e-01 1.553554e-02 5.097930e-03 4.451182e-02 8.892947e-02 -3.019085e-02 6.738131e-05 6.208895e-02 -1.094921e-02
<VARIANCE> 39
 1.443501e+01 2.092712e+01 3.984005e+01 3.032932e+01 3.288636e+01 3.748795e+01 3.682773e+01 4.842423e+01 3.465838e+01 3.725761e+01 3.325388e+01 2.790036e+01 7.613401e+01 4.108625e-01 6.021050e-01 9.523464e-01 7.658995e-01 1.157983e+00 7.929646e-01 8.762180e-01 1.045863e+00 7.889241e-01 6.649010e-01 8.060421e-01 6.685569e-01 1.636974e+00 5.547290e-02 6.289091e-02 1.002497e-01 9.058541e-02 1.393497e-01 9.188138e-02 1.027898e-01 1.145698e-01 1.207832e-01 9.257583e-02 1.131681e-01 8.535849e-02 2.478514e-01
<GCONST> 8.507375e+01
<TRANSP> 5
 0.000000e+00 1.000000e+00 0.000000e+00 0.000000e+00 0.000000e+00
 0.000000e+00 6.830900e-01 3.169100e-01 0.000000e+00 0.000000e+00
 0.000000e+00 0.000000e+00 7.628809e-01 2.371191e-01 0.000000e+00
 0.000000e+00 0.000000e+00 0.000000e+00 8.334602e-01 1.665399e-01
 0.000000e+00 0.000000e+00 0.000000e+00 0.000000e+00 0.000000e+00
<ENDHMM>
~h "g"
<BEGINHMM>
<NUMSTATES> 5
<STATE> 2
<MEAN> 39
 6.205886e+00 -2.058307e+00 -1.977316e-01 -4.333408e+00 -1.265050e-01 -1.369349e+00 -7.121387e+00 -1.893912e+00 -3.813777e+00 1.456036e+00 -4.526696e-01 -5.384500e+00 5.237605e+00 1.694205e-01 7.741775e-01 8.559303e-02 7.190446e-01 4.053758e-01 -1.347256e-02 2.713708e-01 -3.352881e-01 -1.114274e-01 -1.728164e-01 -4.538186e-02 2.584565e-01 -1.393612e+00 -1.180794e-01 -8.363754e-02 -8.234023e-02 -1.473824e-02 -1.039008e-01 -2.991577e-03 1.861075e-01 1.294094e-01 2.130580e-01 -6.333829e-02 -6.547467e-02 5.308199e-02 1.418270e-01
<VARIANCE> 39
 1.287352e+01 3.019164e+01 4.542557e+01 3.774316e+01 3.731337e+01 4.961858e+01 5.024881e+01 4.229984e+01 4.155505e+01 4.012922e+01 3.637959e+01 3.435055e+01 3.462797e+01 4.631587e-01 9.763545e-01 7.067101e-01 8.777277e-01 8.850198e-01 1.062284e+00 9.972395e-01 1.150444e+00 1.060653e+00 9.085085e-01 8.303794e-01 7.746501e-01 1.475001e+00 3.992084e-02 6.576345e-02 8.711195e-02 8.814605e-02 1.096931e-01 1.115870e-01 1.465317e-01 1.328364e-01 1.202921e-01 1.217967e-01 1.054643e-01 8.519221e-02 1.220914e-01
<GCONST> 8.688913e+01
<STATE> 3
<MEAN> 39
 5.813554e+00 1.347673e+00 -8.128422e-01 -2.946584e-01 -4.447415e-01 -2.485392e+00 -4.165977e+00 -2.425665e+00 -1.264243e+00 1.549939e-01 -1.918063e+00 -4.089040e+00 2.360071e-01 -2.622925e-01 2.844062e-01 -1.674299e-01 3.966886e-01 1.532886e-01 -1.736615e-01 5.180585e-01 9.237247e-02 5.018361e-01 -4.510047e-02 -1.045106e-01 3.052540e-01 -6.643231e-01 -1.066025e-01 -2.947482e-01 2.857590e-03 -2.708697e-01 -1.129168e-01 -4.239853e-02 -6.058631e-02 1.385483e-01 6.562515e-02 1.114388e-01 5.980559e-02 -2.019185e-02 4.411732e-01
<VARIANCE> 39
 1.236704e+01 2.144269e+01 3.573422e+01 2.515546e+01 3.535880e+01 3.463673e+01 3.256918e+01 3.301189e+01 3.488598e+01 2.840016e+01 2.832317e+01 2.558747e+01 1.970504e+01 3.782345e-01 7.722786e-01 8.447786e-01 8.500940e-01 1.137451e+00 1.015795e+00 1.077340e+00 1.056842e+00 1.085678e+00 8.420535e-01 7.409500e-01 7.001011e-01 1.092050e+00 5.680764e-02 7.820467e-02 9.810571e-02 8.374087e-02 1.577519e-01 1.362541e-01 1.332760e-01 1.437538e-01 1.358192e-01 9.729829e-02 9.635257e-02 1.056556e-01 1.306032e-01
<GCONST> 8.370664e+01
<STATE> 4
<MEAN> 39
 2.736395e+00 5.209230e-02 -4.315821e+00 -1.076708e+00 -1.856642e-01 -2.215491e+00 -1.658413e+00 -1.774012e-02 2.649949e+00 2.390665e+00 9.453952e-02 -1.135728e+00 -3.062191e+00 -1.265979e-01 3.296396e-02 1.408747e-02 3.600683e-02 1.920240e-02 2.627734e-02 9.096451e-02 6.712346e-02 9.494481e-02 7.093792e-02 3.309369e-02 7.347167e-02 -9.682040e-02 -1.745005e-03 -3.033863e-02 3.104180e-02 -3.748144e-02 -6.400080e-03 1.370706e-02 -8.670957e-03 -1.254242e-02 -4.340960e-02 -8.983015e-03 -4.887423e-04 -2.596118e-02 1.131415e-01
<VARIANCE> 39
 1.676211e+01 2.155293e+01 2.876399e+01 2.308722e+01 2.434562e+01 3.255538e+01 3.104029e+01 3.452251e+01 3.196626e+01 2.754720e+01 2.891353e+01 3.116562e+01 3.705537e+01 2.055966e-01 2.994125e-01 3.723466e-01 3.989673e-01 5.343335e-01 5.019897e-01 4.819221e-01 5.350581e-01 5.472360e-01 4.876411e-01 4.680397e-01 5.308657e-01 3.298305e-01 2.662813e-02 3.813131e-02 4.303174e-02 5.572503e-02 7.669654e-02 6.637847e-02 6.919587e-02 8.224910e-02 7.591474e-02 6.618970e-02 6.645570e-02 6.997794e-02 6.293777e-02
<GCONST> 6.692101e+01
<TRANSP> 5
 0.000000e+00 1.000000e+00 0.000000e+00 0.000000e+00 0.000000e+00
 0.000000e+00 4.418361e-01 5.581639e-01 0.000000e+00 0.000000e+00
 0.000000e+00 0.000000e+00 6.029570e-01 3.970430e-01 0.000000e+00
 0.000000e+00 0.000000e+00 0.000000e+00 8.496746e-01 1.503254e-01
 0.000000e+00 0.000000e+00 0.000000e+00 0.000000e+00 0.000000e+00
<ENDHMM>
~h "h"
<BEGINHMM>
<NUMSTATES> 5
<STATE> 2
<MEAN> 39
 2.255855e+00 -2.117336e+00 1.394845e+00 -9.975632e-01 2.140634e+00 9.844806e-01 3.518854e+00 1.186164e+00 -4.402532e-01 -1.211396e+00 -2.846380e+00 9.499293e-01 6.748926e+00 -2.368683e-02 3.320777e-01 -8.716539e-02 1.657860e-01 4.264713e-01 2.783673e-01 4.998930e-01 -1.808082e-01 -2.544038e-02 -1.169806e-01 8.140611e-04 2.857092e-01 -4.182883e-01 5.915609e-02 -1.094968e-01 1.366177e-02 -1.716670e-01 -2.660692e-01 -5.095766e-02 -2.039758e-01 1.489987e-02 -1.082747e-01 -1.508573e-02 8.057220e-02 -1.393909e-01 1.095511e-01
<VARIANCE> 39
 1.443841e+01 2.406244e+01 4.780755e+01 2.873440e+01 6.269343e+01 4.613035e+01 5.019926e+01 4.502600e+01 3.994508e+01 4.570324e+01 3.968176e+01 3.650254e+01 3.680163e+01 4.337299e-01 7.652520e-01 1.316840e+00 8.115513e-01 1.745119e+00 1.233309e+00 1.308279e+00 1.457774e+00 1.034599e+00 1.072850e+00 1.096171e+00 7.994098e-01 7.369654e-01 4.239887e-02 8.350790e-02 9.022608e-02 1.060872e-01 1.766784e-01 1.241855e-01 1.550691e-01 1.579013e-01 1.426821e-01 1.322309e-01 1.418813e-01 1.077333e-01 7.656185e-02
<GCONST> 9.033994e+01
<STATE> 3
<MEAN> 39
 2.746014e+00 -4.345170e+00 2.130507e+00 -2.151075e+00 -1.067844e+00 -9.595507e-01 5.006630e+00 3.912109e+00 -1.984475e+00 -3.046852e+00 -2.605824e+00 4.227027e-01 8.683843e+00 2.322942e-01 -3.738784e-01 -4.114953e-02 -3.938913e-01 -6.885075e-01 -2.811521e-01 -3.418691e-01 2.329837e-01 -1.508356e-01 -1.055863e-01 1.432514e-01 -3.528863e-01 2.513889e-01 1.026317e-02 -1.967083e-02 -9.129575e-04 -6.012675e-02 -6.324573e-02 -1.075604e-02 -1.465610e-01 -2.476805e-02 2.706791e-02 6.652901e-02 3.368291e-02 -6.540272e-02 -6.585781e-03
<VARIANCE> 39
 1.385405e+01 2.789334e+01 3.711522e+01 2.797026e+01 5.067867e+01 3.825065e+01 4.651499e+01 4.805645e+01 3.307933e+01 3.476797e+01 3.471361e+01 2.913416e+01 4.193562e+01 2.898751e-01 7.099112e-01 7.675926e-01 6.277635e-01 1.363187e+00 8.579189e-01 1.115228e+00 1.147270e+00 7.921799e-01 8.319368e-01 6.924022e-01 7.039523e-01 7.687256e-01 3.348910e-02 7.423416e-02 6.222069e-02 7.269908e-02 1.386732e-01 7.986049e-02 1.174627e-01 8.961240e-02 8.687115e-02 7.472799e-02 7.601669e-02 8.049885e-02 6.511830e-02
<GCONST> 8.093967e+01
<STATE> 4
<MEAN> 39
 2.730439e+00 -1.979520e+00 -9.237435e-01 -1.670261e+00 -1.668804e+00 -8.620328e-01 1.679764e+00 1.766551e+00 -1.710657e-01 -1.006107e+00 -6.077459e-01 -4.489369e-01 2.402805e+00 1.920399e-02 6.484125e-02 -1.076427e-02 -1.769084e-02 -5.731833e-02 1.665422e-02 -8.302892e-02 -2.489581e-02 -3.975829e-02 3.377656e-02 6.625231e-02 -1.931382e-03 -1.725010e-01 -5.328791e-03 1.254876e-02 8.808191e-03 1.507641e-02 1.301539e-02 3.501999e-04 -1.063140e-03 -1.019973e-02 -7.890365e-03 6.835970e-03 -1.059653e-02 2.611449e-03 -4.487427e-03
<VARIANCE> 39
 2.200764e+01 3.168377e+01 3.985503e+01 2.784492e+01 4.544488e+01 3.725858e+01 3.457916e+01 4.766544e+01 3.139598e+01 2.956233e+01 2.765938e+01 2.728815e+01 6.479438e+01 1.550587e-01 2.539760e-01 3.319209e-01 3.893275e-01 5.306133e-01 4.429282e-01 5.051814e-01 5.190184e-01 4.406207e-01 4.316876e-01 4.439771e-01 4.252587e-01 2.572361e-01 1.662714e-02 3.020517e-02 3.177259e-02 4.281692e-02 7.061461e-02 5.238152e-02 6.392029e-02 6.074506e-02 5.645021e-02 5.701589e-02 5.766733e-02 5.566265e-02 2.556973e-02
<GCONST> 6.446312e+01
<TRANSP> 5
 0.000000e+00 1.000000e+00 0.000000e+00 0.000000e+00 0.000000e+00
 0.000000e+00 6.075783e-01 3.924217e-01 0.000000e+00 0.000000e+00
 0.000000e+00 0.000000e+00 6.526657e-01 3.473343e-01 0.000000e+00
 0.000000e+00 0.000000e+00 0.000000e+00 8.264558e-01 1.735442e-01
 0.000000e+00 0.000000e+00 0.000000e+00 0.000000e+00 0.000000e+00
<ENDHMM>
~h "i"
<BEGINHMM>
<NUMSTATES> 5
<STATE> 2
<MEAN> 39
 -5.558320e-01 -8.784009e-01 1.321994e+01 -3.060272e+00 -1.125373e+01 -1.734720e+00 -4.951787e+00 -5.395937e+00 -9.126608e+00 -1.663017e+00 1.760052e+00 -4.256702e+00 9.138115e+00 2.346991e-01 1.436526e-04 6.032092e-01 -7.365762e-02 -7.913448e-01 -1.510246e-01 -2.926014e-01 -1.552134e-01 -5.695916e-01 -4.573560e-02 2.218528e-01 -3.625831e-01 3.184341e-01 1.119533e-02 8.000986e-02 -4.436373e-01 1.548379e-01 4.343520e-01 -4.988570e-02 1.987648e-01 8.901234e-02 3.280758e-01 4.491562e-02 -1.242343e-01 1.640064e-01 -3.357939e-01
<VARIANCE> 39
 1.551703e+01 2.248697e+01 4.954450e+01 2.891281e+01 4.215683e+01 5.055297e+01 4.145973e+01 5.837550e+01 3.885933e+01 3.358352e+01 3.937087e+01 2.805443e+01 4.233800e+01 6.780159e-01 7.072809e-01 1.729755e+00 9.310352e-01 1.818510e+00 1.224582e+00 1.559737e+00 1.459464e+00 1.382186e+00 9.148489e-01 1.168339e+00 9.724049e-01 1.759676e+00 1.003470e-01 1.142026e-01 1.981687e-01 1.221323e-01 2.346088e-01 1.752675e-01 1.920227e-01 2.548711e-01 1.831310e-01 1.242956e-01 1.752800e-01 1.258221e-01 1.779804e-01
<GCONST> 9.675275e+01
<STATE> 3
<MEAN> 39
 9.929370e-01 -7.639095e-01 1.137419e+01 -1.741921e+00 -1.063420e+01 -4.869702e+00 -3.122959e+00 -5.024337e+00 -8.558946e+00 -1.336752e+00 1.383885e+00 -3.414021e+00 8.013801e+00 1.803485e-01 3.281964e-01 -1.000085e+00 6.207263e-01 8.961836e-01 -2.834294e-01 4.075717e-01 2.716151e-01 6.737833e-01 3.530965e-03 -2.732174e-01 3.181960e-01 -8.581011e-01 -1.191610e-01 5.747803e-02 -3.026433e-01 4.916693e-02 3.735285e-01 5.914445e-02 6.862779e-02 6.016085e-02 2.802716e-01 7.825164e-03 -8.222129e-02 1.349452e-01 -1.772889e-01
<VARIANCE> 39
 1.215218e+01 2.070735e+01 3.767397e+01 2.750590e+01 3.945305e+01 4.391837e+01 3.768403e+01 5.727093e+01 3.800768e+01 3.580735e+01 3.984277e+01 2.667264e+01 3.329576e+01 7.179045e-01 9.155078e-01 1.204529e+00 8.589700e-01 1.288141e+00 9.803192e-01 1.474925e+00 1.988803e+00 1.038455e+00 8.614374e-01 1.255225e+00 8.747648e-01 1.375306e+00 7.595795e-02 7.979009e-02 1.237968e-01 7.806876e-02 1.558492e-01 1.252870e-01 1.319791e-01 1.905273e-01 1.107662e-01 1.108306e-01 1.402609e-01 9.157511e-02 7.859321e-02
<GCONST> 8.953491e+01
<STATE> 4
<MEAN> 39
 9.533634e-01 2.116175e+00 7.129111e+00 1.688664e+00 -5.402718e+00 -4.373112e+00 -1.773925e+00 -4.292159e+00 -4.791725e+00 -1.179723e+00 6.738703e-01 -1.502333e+00 4.895057e-01 -2.122349e-01 1.906326e-01 -1.114195e+00 2.722345e-01 1.021515e+00 -1.170950e-01 2.183361e-01 2.505717e-01 8.289790e-01 1.158387e-01 -1.159757e-01 4.931037e-01 -8.064572e-01 -1.534407e-01 -1.180755e-01 -1.525478e-03 -1.625874e-01 2.642432e-02 4.690979e-02 -3.469236e-02 1.280221e-02 1.573607e-02 1.590466e-03 3.292503e-03 1.493099e-02 2.888916e-01
<VARIANCE> 39
 1.542523e+01 2.369998e+01 3.645372e+01 2.444885e+01 4.134589e+01 3.639375e+01 3.337562e+01 3.813801e+01 3.018402e+01 2.782958e+01 3.221281e+01 2.777593e+01 5.762650e+01 8.719088e-01 8.366058e-01 1.301993e+00 8.149260e-01 1.228036e+00 1.058647e+00 1.190124e+00 1.661130e+00 9.866295e-01 7.555115e-01 1.215119e+00 8.120259e-01 1.518752e+00 7.289601e-02 7.630444e-02 1.302237e-01 8.533864e-02 1.478993e-01 1.058880e-01 1.075878e-01 1.215226e-01 1.012709e-01 8.534840e-02 1.053226e-01 8.105104e-02 2.108339e-01
<GCONST> 8.796295e+01
<TRANSP> 5
 0.000000e+00 1.000000e+00 0.000000e+00 0.000000e+00 0.000000e+00
 0.000000e+00 7.091765e-01 2.908234e-01 0.000000e+00 0.000000e+00
 0.000000e+00 0.000000e+00 3.902200e-01 6.097800e-01 0.000000e+00
 0.000000e+00 0.000000e+00 0.000000e+00 5.515764e-01 4.484236e-01
 0.000000e+00 0.000000e+00 0.000000e+00 0.000000e+00 0.000000e+00
<ENDHMM>
~h "j"
<BEGINHMM>
<NUMSTATES> 5
<STATE> 2
<MEAN> 39
 1.686868e+00 4.288165e+00 2.289509e+00 2.310529e+00 1.732666e+00 -3.399066e+00 9.065458e-02 -2.748010e+00 -1.376956e+00 -2.885993e+00 -3.633071e+00 -2.079226e+00 3.582597e-03 -1.198224e+00 6.048577e-01 7.213069e-02 -4.491708e-01 1.019379e+00 -4.178894e-01 7.333083e-01 2.688372e-02 1.879823e-01 4.109912e-02 2.066099e-01 5.393053e-01 2.891000e-01 -1.429953e-01 -2.822073e-01 1.011638e-01 -2.814023e-01 -3.066280e-01 -1.174175e-01 -1.576006e-01 1.054298e-01 -4.613778e-02 1.343936e-02 1.224800e-01 1.010140e-01 5.101390e-01
<VARIANCE> 39
 2.476757e+01 3.016225e+01 4.608128e+01 2.940020e+01 4.074387e+01 4.285368e+01 3.575731e+01 3.922735e+01 3.530579e+01 2.621441e+01 3.156174e+01 2.833901e+01 3.373243e+01 1.072277e+00 1.035733e+00 1.331594e+00 9.340615e-01 1.321951e+00 1.324202e+00 1.107382e+00 1.257143e+00 9.039323e-01 7.186213e-01 8.276020e-01 1.021962e+00 1.609401e+00 1.784937e-01 1.296890e-01 1.584195e-01 1.056824e-01 2.052909e-01 1.623700e-01 1.809223e-01 1.625783e-01 1.338367e-01 9.337661e-02 9.759253e-02 1.180577e-01 1.157787e-01
<GCONST> 9.266673e+01
<STATE> 3
<MEAN> 39
 -7.300494e+00 5.152421e+00 4.734284e+00 -2.790679e+00 3.950394e+00 -8.280402e+00 1.843216e+00 -2.833112e+00 -2.133742e+00 -3.002371e+00 -1.305264e+00 2.767468e+00 7.649183e+00 3.690856e-03 -1.140144e+00 2.721497e-01 -6.975656e-01 -1.104085e+00 -5.386022e-01 -7.710505e-01 7.707059e-01 2.507195e-01 1.269785e-02 2.742058e-01 3.937702e-01 1.612398e+00 5.742310e-01 -3.888734e-01 -1.731125e-01 9.768957e-02 -4.278748e-01 2.798978e-01 -3.443212e-01 1.379611e-01 9.760404e-02 4.008901e-02 -1.234756e-01 -3.327168e-01 -3.051029e-02
<VARIANCE> 39
 2.771615e+01 2.716546e+01 4.303067e+01 2.851487e+01 4.487952e+01 4.662655e+01 3.714999e+01 3.309063e+01 3.015876e+01 2.242032e+01 2.653024e+01 2.500685e+01 2.461175e+01 1.308810e+00 1.044818e+00 1.558756e+00 9.905830e-01 1.369761e+00 1.200234e+00 1.411872e+00 1.950961e+00 1.660799e+00 7.479435e-01 7.908816e-01 9.136627e-01 1.308015e+00 9.894653e-02 1.255215e-01 1.816485e-01 1.156776e-01 1.964534e-01 1.564332e-01 1.627072e-01 1.657747e-01 1.292510e-01 1.156585e-01 1.120434e-01 1.313445e-01 1.248663e-01
<GCONST> 9.296034e+01
<STATE> 4
<MEAN> 39
 7.508439e-01 -4.782119e+00 3.322381e+00 -4.443875e+00 -6.774862e+00 -7.727533e+00 -6.069023e+00 4.426749e+00 1.852671e+00 -2.816447e+00 -2.030073e+00 1.356452e+00 1.360348e+01 1.111935e+00 -1.644512e+00 -1.104433e+00 -5.121171e-01 -7.876323e-01 8.496593e-01 -8.419142e-01 9.087088e-01 7.994046e-01 2.746373e-01 -3.591818e-01 -1.094891e+00 8.701234e-01 -3.163213e-02 2.763759e-01 -1.923869e-01 1.038250e-01 5.049114e-01 3.075877e-01 2.652254e-01 -3.448317e-01 -1.435456e-01 5.660532e-02 -4.726351e-02 -2.477056e-01 -4.154152e-01
<VARIANCE> 39
 1.247950e+01 2.045320e+01 3.555042e+01 1.906559e+01 3.128934e+01 3.121406e+01 4.561536e+01 4.356825e+01 4.118081e+01 2.380433e+01 2.435423e+01 2.330038e+01 3.537486e+01 6.978633e-01 9.165724e-01 1.758916e+00 8.766993e-01 1.664343e+00 1.283032e+00 1.672266e+00 1.811087e+00 1.399978e+00 9.829745e-01 1.139066e+00 1.128633e+00 8.089791e-01 1.109261e-01 1.125581e-01 1.319816e-01 9.885763e-02 1.582965e-01 1.269435e-01 1.577817e-01 1.632609e-01 1.437433e-01 9.623334e-02 1.184919e-01 1.234183e-01 8.817998e-02
<GCONST> 9.000079e+01
<TRANSP> 5
 0.000000e+00 1.000000e+00 0.000000e+00 0.000000e+00 0.000000e+00
 0.000000e+00 7.297696e-01 2.702304e-01 0.000000e+00 0.000000e+00
 0.000000e+00 0.000000e+00 7.025763e-01 2.974237e-01 0.000000e+00
 0.000000e+00 0.000000e+00 0.000000e+00 6.168559e-01 3.831441e-01
 0.000000e+00 0.000000e+00 0.000000e+00 0.000000e+00 0.000000e+00
<ENDHMM>
~h "k"
<BEGINHMM>
<NUMSTATES> 5
<STATE> 2
<MEAN> 39
 -2.272093e-01 -6.416354e-01 -2.982616e+00 -1.174495e+00 -4.680193e-01 -3.298642e+00 -1.052069e+00 -3.488602e-01 6.594182e-01 1.790142e+00 5.699366e-01 1.169958e+00 -3.011542e+00 -6.075093e-01 -5.488814e-01 -8.585483e-02 -4.941124e-01 6.090183e-01 -1.408427e-01 9.682558e-03 9.568384e-02 1.596804e-01 2.951787e-01 -3.156497e-01 2.690310e-01 7.288081e-01 4.719783e-02 -6.551342e-02 3.297555e-01 -1.963360e-01 -1.715875e-01 9.223717e-02 -1.315501e-01 -9.094924e-02 -1.932395e-01 -6.779394e-02 -7.972164e-02 -2.307751e-01 5.249736e-01
<VARIANCE> 39
 2.094359e+01 3.489665e+01 4.724484e+01 3.043174e+01 4.930775e+01 4.764959e+01 3.246843e+01 4.201566e+01 3.418055e+01 2.823918e+01 3.451600e+01 3.184264e+01 3.228345e+01 8.378462e-01 9.626207e-01 1.889414e+00 1.003994e+00 1.521989e+00 1.219586e+00 1.035956e+00 1.247311e+00 1.189215e+00 9.047070e-01 1.054479e+00 9.656699e-01 1.796338e+00 1.231854e-01 1.404135e-01 1.695141e-01 1.103275e-01 2.219300e-01 1.764494e-01 1.265848e-01 1.569644e-01 1.470695e-01 1.210165e-01 1.554543e-01 1.282825e-01 1.498239e-01
<GCONST> 9.481186e+01
<STATE> 3
<MEAN> 39
 -3.928555e+00 -4.193721e+00 -6.203813e-02 -5.337873e+00 3.677864e+00 -2.917048e+00 -1.250221e+00 -1.447602e+00 -4.231264e-01 3.362011e+00 -2.900342e+00 1.402265e+00 4.846494e+00 1.060273e-01 -3.717411e-01 1.172025e+00 -7.451471e-01 -8.890347e-01 1.949414e-01 -5.990075e-01 -1.933868e-01 -5.995041e-01 -2.662032e-01 -1.217952e-01 -9.788325e-01 1.991424e+00 2.813433e-01 1.045405e-01 6.772150e-02 1.188229e-01 -5.072473e-01 7.113224e-02 -8.973103e-02 9.525012e-03 -9.350619e-02 -2.066008e-01 1.886349e-01 -2.570643e-01 1.084954e-02
<VARIANCE> 39
 3.171545e+01 4.238458e+01 7.978329e+01 3.259229e+01 6.674058e+01 4.340340e+01 4.432213e+01 4.141197e+01 3.675704e+01 3.105294e+01 3.176960e+01 3.314382e+01 2.948647e+01 1.067034e+00 1.281866e+00 2.610673e+00 9.756289e-01 1.810068e+00 1.809468e+00 1.246417e+00 1.905040e+00 1.972075e+00 9.788874e-01 1.559242e+00 1.212113e+00 1.588611e+00 8.189391e-02 1.039945e-01 1.499064e-01 1.143576e-01 1.754556e-01 1.743384e-01 1.631903e-01 1.513438e-01 1.413630e-01 1.195072e-01 1.405957e-01 1.191216e-01 1.169038e-01
<GCONST> 9.833362e+01
<STATE> 4
<MEAN> 39
 -1.575207e-01 -2.747291e+00 3.475663e+00 -5.393394e+00 -3.514804e+00 -1.979575e+00 -4.174253e+00 -1.873970e+00 -3.222443e+00 9.326826e-01 -1.145481e+00 -3.373478e+00 7.911020e+00 4.133226e-01 -1.084821e-01 5.836221e-01 -3.152258e-01 -1.153693e+00 1.452519e-01 -3.761359e-01 -6.034273e-02 -3.989789e-01 -4.374270e-01 1.296115e-01 -8.206616e-01 1.243798e+00 8.780933e-02 6.567439e-02 -1.399640e-01 1.681240e-01 -2.966022e-02 -4.837604e-03 8.503053e-02 1.114834e-02 7.564889e-02 -5.281002e-02 5.651214e-02 7.604541e-02 -2.487510e-01
<VARIANCE> 39
 2.735293e+01 4.073204e+01 9.488277e+01 3.177088e+01 7.503590e+01 4.832095e+01 4.595752e+01 5.619162e+01 5.399068e+01 2.892896e+01 3.943879e+01 3.806311e+01 6.034975e+01 1.181942e+00 1.212165e+00 1.975254e+00 1.134157e+00 2.086950e+00 2.025754e+00 1.512800e+00 1.895947e+00 1.868004e+00 1.169811e+00 1.591153e+00 1.516324e+00 2.245020e+00 9.267311e-02 1.198445e-01 1.954303e-01 1.124251e-01 2.496837e-01 1.565385e-01 1.555067e-01 1.739581e-01 1.480789e-01 1.191786e-01 1.435819e-01 1.368194e-01 2.152618e-01
<GCONST> 1.029838e+02
<TRANSP> 5
 0.000000e+00 1.000000e+00 0.000000e+00 0.000000e+00 0.000000e+00
 0.000000e+00 7.353286e-01 2.646715e-01 0.000000e+00 0.000000e+00
 0.000000e+00 0.000000e+00 4.882934e-01 5.117066e-01 0.000000e+00
 0.000000e+00 0.000000e+00 0.000000e+00 3.023423e-01 6.976577e-01
 0.000000e+00 0.000000e+00 0.000000e+00 0.000000e+00 0.000000e+00
<ENDHMM>
~h "l"
<BEGINHMM>
<NUMSTATES> 5
<STATE> 2
<MEAN> 39
 2.720716e+00 -1.385049e+00 8.647862e+00 -4.008152e+00 -6.324442e-01 -3.545881e+00 -1.316100e+01 -4.935529e+00 -1.279632e+00 -4.250201e+00 -4.469743e+00 -2.475204e+00 7.402811e+00 1.340774e-01 1.349479e-01 4.544425e-01 -1.500663e-01 3.345579e-01 1.477382e-01 -8.834032e-01 -2.808928e-01 7.015423e-02 -2.195011e-02 -2.091791e-01 -9.492264e-02 -8.687828e-02 -4.337509e-02 -1.854807e-01 -3.862559e-01 -4.800343e-02 -2.578546e-01 2.097715e-02 4.947813e-01 2.755544e-01 1.248324e-02 1.753929e-01 1.585264e-01 -4.391490e-02 1.963836e-01
<VARIANCE> 39
 1.170365e+01 1.921454e+01 4.563408e+01 3.693917e+01 4.431442e+01 5.205072e+01 7.072282e+01 5.267368e+01 4.990154e+01 6.606321e+01 3.891711e+01 4.675351e+01 3.425957e+01 3.281527e-01 7.655493e-01 1.657273e+00 9.018027e-01 1.230584e+00 1.183781e+00 2.374728e+00 1.836245e+00 1.350278e+00 1.141515e+00 1.108661e+00 9.380011e-01 1.183148e+00 4.199573e-02 9.475005e-02 1.599175e-01 1.160478e-01 1.750674e-01 1.883668e-01 3.314270e-01 2.359922e-01 1.757076e-01 2.077421e-01 1.765624e-01 1.438995e-01 8.737194e-02
<GCONST> 9.624474e+01
<STATE> 3
<MEAN> 39
 2.861661e+00 -2.703980e+00 7.274964e+00 -4.547420e+00 -2.435839e+00 -3.299359e+00 -1.251269e+01 -3.844630e+00 -1.234617e+00 -2.810719e+00 -3.116642e+00 -3.389191e+00 8.790592e+00 -3.212928e-02 -3.685358e-01 -7.920773e-01 4.102590e-02 -4.438469e-01 -2.113480e-02 9.309908e-01 5.761964e-01 7.279654e-02 4.084680e-01 2.139167e-01 -1.334562e-01 2.817618e-01 -3.657162e-02 -6.331271e-02 -2.673482e-01 2.763798e-02 -8.825279e-02 3.508126e-02 4.048719e-01 1.410757e-01 -2.646922e-02 4.605210e-02 9.043861e-02 -1.475091e-02 4.323214e-02
<VARIANCE> 39
 1.052451e+01 2.272134e+01 4.759229e+01 3.281018e+01 4.862743e+01 4.730632e+01 7.588566e+01 7.169677e+01 4.627179e+01 5.767613e+01 4.093887e+01 4.008499e+01 4.192554e+01 3.970330e-01 1.053157e+00 1.815021e+00 1.035667e+00 1.535125e+00 1.200956e+00 2.046462e+00 2.172132e+00 1.520687e+00 1.467999e+00 1.342581e+00 1.008928e+00 1.351526e+00 3.757460e-02 9.046513e-02 1.473763e-01 1.016515e-01 1.619849e-01 1.484932e-01 2.650818e-01 2.270232e-01 1.440857e-01 1.597953e-01 1.637087e-01 1.095546e-01 9.372769e-02
<GCONST> 9.656637e+01
<STATE> 4
<MEAN> 39
 3.429442e+00 -1.768124e+00 3.940576e+00 -2.482450e+00 -2.538236e+00 -3.850329e+00 -8.436852e+00 -4.429490e+00 -1.286726e+00 -5.286438e-01 -3.095742e+00 -2.573400e+00 5.054841e+00 -9.939396e-02 -1.377297e-01 -8.465087e-01 1.123447e-01 -1.563164e-01 4.761709e-02 1.074123e+00 5.462901e-01 1.233946e-01 2.573668e-01 3.549975e-01 -4.393712e-02 -1.420182e-01 -4.231746e-02 -3.647183e-02 -7.404085e-02 -6.971671e-02 6.397416e-03 -4.699075e-04 9.408694e-02 7.608015e-02 -1.385526e-02 -2.033068e-02 6.374441e-02 3.181912e-02 7.087055e-02
<VARIANCE> 39
 1.118095e+01 2.263658e+01 4.834282e+01 2.970375e+01 3.525085e+01 4.303566e+01 4.997237e+01 5.576854e+01 3.968354e+01 3.151280e+01 3.348337e+01 3.136422e+01 5.167701e+01 4.135563e-01 9.082491e-01 1.366025e+00 9.319503e-01 1.259257e+00 1.179494e+00 1.515510e+00 1.783006e+00 1.178393e+00 1.138823e+00 1.168679e+00 9.256491e-01 1.347269e+00 3.337835e-02 6.224790e-02 8.879799e-02 8.574269e-02 8.803669e-02 1.198977e-01 1.557197e-01 1.551986e-01 1.075981e-01 9.429554e-02 1.102436e-01 7.925134e-02 6.768752e-02
<GCONST> 8.774171e+01
<TRANSP> 5
 0.000000e+00 1.000000e+00 0.000000e+00 0.000000e+00 0.000000e+00
 0.000000e+00 6.791232e-01 3.208767e-01 0.000000e+00 0.000000e+00
 0.000000e+00 0.000000e+00 2.958136e-01 7.041863e-01 0.000000e+00
 0.000000e+00 0.000000e+00 0.000000e+00 5.461941e-01 4.538059e-01
 0.000000e+00 0.000000e+00 0.000000e+00 0.000000e+00 0.000000e+00
<ENDHMM>
~h "m"
<BEGINHMM>
<NUMSTATES> 5
<STATE> 2
<MEAN> 39
 5.091926e+00 2.452501e-01 3.206713e+00 2.540899e+00 -1.288977e+00 -8.179088e-01 -4.123233e+00 -7.704548e+00 -5.945332e+00 -1.698733e+00 -9.088079e-01 -5.359534e+00 3.443946e+00 2.556951e-01 2.327745e-01 5.517920e-01 5.854595e-01 2.243697e-02 8.822439e-02 -1.423053e-01 -8.398997e-01 -7.374780e-01 -5.821795e-02 1.319978e-01 -2.272510e-01 -2.061042e-01 -1.030027e-01 -1.514738e-01 -7.520200e-02 -2.417754e-01 -5.411542e-02 -1.818647e-02 1.851472e-02 2.640319e-01 1.370765e-01 -2.739938e-02 4.572607e-03 7.010207e-02 2.208123e-01
<VARIANCE> 39
 8.717061e+00 2.067042e+01 3.403478e+01 2.262348e+01 2.737834e+01 3.648936e+01 3.269319e+01 3.326426e+01 3.281938e+01 2.520613e+01 3.504640e+01 2.483628e+01 2.724901e+01 3.879458e-01 4.789649e-01 1.121076e+00 7.012746e-01 1.115131e+00 9.893985e-01 8.794262e-01 1.012564e+00 1.023601e+00 7.561535e-01 1.101371e+00 7.817904e-01 8.650745e-01 4.399489e-02 4.917543e-02 1.264542e-01 7.081974e-02 9.820132e-02 7.870866e-02 9.252182e-02 1.154330e-01 1.228748e-01 7.889151e-02 1.031445e-01 8.514523e-02 4.318163e-02
<GCONST> 7.894880e+01
<STATE> 3
<MEAN> 39
 5.480350e+00 -1.129919e+00 5.367891e+00 3.423610e+00 -1.289815e+00 6.881796e-01 -5.272130e+00 -9.368833e+00 -9.128501e+00 -2.861205e+00 9.412230e-01 -5.599047e+00 5.063876e+00 4.978884e-03 -5.582702e-01 -4.061666e-01 -7.495960e-01 -8.482035e-02 1.305699e-01 -7.270373e-02 6.544402e-01 2.967253e-01 -1.654981e-01 1.339705e-02 3.727780e-02 8.529739e-01 -1.075177e-01 -1.926418e-01 -2.641207e-01 -3.921572e-01 -8.947850e-02 -5.585127e-03 7.633600e-02 5.537818e-01 4.111825e-01 1.939970e-02 -1.024152e-01 8.109142e-02 2.587939e-01
<VARIANCE> 39
 7.412254e+00 1.871743e+01 3.162566e+01 2.205904e+01 2.663489e+01 4.251734e+01 3.482399e+01 3.237304e+01 3.657566e+01 2.920292e+01 4.229366e+01 3.003526e+01 2.261817e+01 3.045816e-01 5.768188e-01 1.389485e+00 9.148306e-01 1.058824e+00 9.385855e-01 9.179367e-01 1.251151e+00 1.319527e+00 7.818610e-01 1.038790e+00 7.064336e-01 8.150623e-01 4.768104e-02 6.284758e-02 2.040143e-01 9.997574e-02 1.177500e-01 1.182139e-01 1.520428e-01 1.409460e-01 1.926290e-01 1.422929e-01 2.005380e-01 1.327725e-01 6.406542e-02
<GCONST> 8.481634e+01
<STATE> 4
<MEAN> 39
 4.731307e+00 -2.769223e+00 1.364905e+00 -1.394575e+00 -2.223924e+00 -1.399599e+00 -4.240436e+00 -3.648028e+00 -3.668547e+00 -3.095204e+00 -8.321410e-01 -4.970803e+00 7.981820e+00 -2.742597e-01 -7.190861e-01 -1.853029e-01 -1.170057e+00 -6.522520e-01 1.707450e-01 4.239953e-01 1.444010e+00 4.848388e-01 -2.427094e-01 -9.613421e-02 1.899008e-01 9.615704e-01 -4.735671e-02 3.758759e-02 1.156937e-01 -1.174311e-02 -6.334916e-02 2.777006e-02 7.980163e-02 1.374508e-03 -6.663387e-02 5.633657e-02 8.420879e-03 2.841595e-03 -6.203464e-02
<VARIANCE> 39
 1.052651e+01 3.171369e+01 4.210770e+01 2.933709e+01 3.165581e+01 4.256421e+01 3.547497e+01 5.327526e+01 3.253962e+01 2.875092e+01 3.519334e+01 2.460805e+01 3.076785e+01 3.564229e-01 7.248930e-01 2.013143e+00 8.304284e-01 1.508357e+00 9.865669e-01 1.332328e+00 1.508543e+00 1.326540e+00 1.214746e+00 1.171021e+00 8.881558e-01 5.963988e-01 3.191150e-02 6.314807e-02 8.839075e-02 7.900599e-02 1.013474e-01 9.728298e-02 9.520195e-02 1.243178e-01 1.046917e-01 8.896031e-02 9.959958e-02 7.488070e-02 4.370007e-02
<GCONST> 8.371187e+01
<TRANSP> 5
 0.000000e+00 1.000000e+00 0.000000e+00 0.000000e+00 0.000000e+00
 0.000000e+00 6.595078e-01 3.404922e-01 0.000000e+00 0.000000e+00
 0.000000e+00 0.000000e+00 6.056800e-01 3.943200e-01 0.000000e+00
 0.000000e+00 0.000000e+00 0.000000e+00 5.822995e-01 4.177005e-01
 0.000000e+00 0.000000e+00 0.000000e+00 0.000000e+00 0.000000e+00
<ENDHMM>
~h "n"
<BEGINHMM>
<NUMSTATES> 5
<STATE> 2
<MEAN> 39
 5.102252e+00 -1.571821e+00 3.622813e+00 2.096509e+00 -4.548925e+00 -1.876772e+00 -4.312088e+00 -4.245759e+00 -1.533003e+00 -1.830730e+00 -5.411705e+00 -3.816623e+00 3.923491e+00 2.997257e-01 6.114697e-01 6.201407e-01 9.801847e-01 -3.616300e-01 -9.828391e-02 2.634131e-02 -1.196810e+00 -1.086989e-01 2.397692e-01 -5.667314e-01 6.935938e-02 -7.902882e-01 -8.796209e-02 -6.040040e-02 -1.344767e-01 -1.895250e-01 8.497656e-02 4.267485e-02 6.224110e-02 1.376495e-01 -1.165193e-03 -6.844085e-03 9.702951e-02 1.743673e-02 1.458284e-01
<VARIANCE> 39
 1.058402e+01 2.444630e+01 3.579058e+01 2.809055e+01 3.499186e+01 3.050607e+01 3.734950e+01 5.891570e+01 3.217005e+01 3.111572e+01 3.488740e+01 2.680063e+01 3.860521e+01 3.254181e-01 6.160938e-01 1.421036e+00 7.477074e-01 1.214801e+00 8.392723e-01 8.881199e-01 1.629554e+00 9.307058e-01 9.593801e-01 9.420813e-01 6.785894e-01 8.043342e-01 3.432262e-02 5.912639e-02 1.019259e-01 7.274073e-02 9.564339e-02 7.757096e-02 9.096170e-02 1.487315e-01 8.801334e-02 8.845050e-02 9.069946e-02 7.629104e-02 5.309483e-02
<GCONST> 8.120687e+01
<STATE> 3
<MEAN> 39
 5.853275e+00 -5.086443e-01 5.120915e+00 4.688951e+00 -6.697355e+00 -2.219047e+00 -3.448206e+00 -7.731143e+00 -2.265566e+00 -1.494151e+00 -6.704302e+00 -3.942213e+00 3.158363e+00 -1.013860e-01 1.116928e-01 3.049784e-02 -3.992433e-02 1.872606e-01 -8.417677e-02 3.071559e-02 3.674039e-02 -1.904985e-01 1.698444e-02 4.042843e-02 3.411518e-02 -5.773936e-02 -2.240449e-01 -2.357365e-01 -1.798275e-01 -5.082349e-01 1.983039e-01 5.213663e-02 -8.382833e-03 5.534394e-01 -1.906901e-02 -8.072618e-02 3.299047e-01 7.176057e-03 3.524529e-01
<VARIANCE> 39
 1.003592e+01 1.889112e+01 2.997321e+01 2.394616e+01 3.008724e+01 2.620185e+01 3.126439e+01 4.525979e+01 2.971582e+01 2.963634e+01 3.467389e+01 2.456288e+01 2.782997e+01 3.161878e-01 7.655711e-01 1.042524e+00 9.303260e-01 1.108010e+00 8.258689e-01 8.658731e-01 1.873094e+00 9.135639e-01 6.361944e-01 9.592013e-01 6.181393e-01 9.844241e-01 6.041036e-02 8.170492e-02 1.790047e-01 1.167806e-01 1.618812e-01 1.361542e-01 1.277710e-01 1.992451e-01 1.185359e-01 1.291240e-01 1.481612e-01 9.998203e-02 8.246642e-02
<GCONST> 8.458994e+01
<STATE> 4
<MEAN> 39
 4.112116e+00 4.408084e-01 2.655441e+00 1.976266e+00 -3.111516e+00 -2.626797e+00 -3.277656e+00 -3.829506e+00 -2.168227e+00 -9.198505e-01 -4.518808e+00 -2.974132e+00 1.239925e+00 -3.956710e-01 -2.052834e-01 -2.241689e-01 -6.208891e-01 3.645525e-01 1.057179e-01 1.394383e-01 6.579712e-01 -1.028231e-01 -8.484520e-02 5.990899e-01 7.738472e-02 2.213078e-01 -7.906843e-02 -1.026939e-01 -1.539824e-02 -1.503114e-01 -2.096711e-02 4.877740e-02 4.803865e-02 7.707729e-02 7.007565e-03 -3.894737e-04 8.421133e-02 5.537225e-03 1.582311e-01
<VARIANCE> 39
 1.254247e+01 2.425101e+01 3.553438e+01 2.447827e+01 3.245402e+01 3.358237e+01 3.425853e+01 4.536286e+01 3.694447e+01 3.001424e+01 3.529726e+01 2.726144e+01 3.942778e+01 4.173558e-01 7.223775e-01 1.310470e+00 9.467984e-01 1.177163e+00 8.848912e-01 8.299196e-01 1.497428e+00 9.908514e-01 8.318157e-01 1.028261e+00 6.970813e-01 9.698249e-01 4.571941e-02 6.495510e-02 8.878063e-02 7.161104e-02 9.771794e-02 1.022948e-01 9.103457e-02 1.230166e-01 9.654043e-02 9.167304e-02 1.003930e-01 7.716509e-02 7.460181e-02
<GCONST> 8.261996e+01
<TRANSP> 5
 0.000000e+00 1.000000e+00 0.000000e+00 0.000000e+00 0.000000e+00
 0.000000e+00 5.277437e-01 4.722564e-01 0.000000e+00 0.000000e+00
 0.000000e+00 0.000000e+00 5.397744e-01 4.602257e-01 0.000000e+00
 0.000000e+00 0.000000e+00 0.000000e+00 6.141902e-01 3.858098e-01
 0.000000e+00 0.000000e+00 0.000000e+00 0.000000e+00 0.000000e+00
<ENDHMM>
~h "o"
<BEGINHMM>
<NUMSTATES> 5
<STATE> 2
<MEAN> 39
 3.515590e+00 5.236116e-01 -2.771298e+00 -5.006268e+00 2.326351e+00 1.189214e+00 -3.800351e+00 -3.978565e+00 -1.265370e+00 1.591283e+00 6.975603e-01 -2.742271e-01 7.791870e+00 1.045501e+00 -2.858046e-02 -8.416006e-01 -1.517853e+00 -7.731466e-01 1.085944e+00 -6.317111e-01 -7.387470e-01 -6.568123e-01 3.700839e-02 6.860356e-01 5.931033e-02 9.544863e-01 -2.241348e-02 1.093552e-01 1.064094e-01 -3.406292e-02 -1.872154e-01 1.102918e-01 6.008476e-02 5.051639e-03 -1.189619e-01 -1.444307e-01 4.851719e-02 1.977628e-02 -2.079271e-01
<VARIANCE> 39
 1.947914e+01 2.410050e+01 3.619068e+01 4.509441e+01 4.718338e+01 4.899617e+01 6.680676e+01 3.664915e+01 4.172500e+01 3.281426e+01 2.666285e+01 2.876549e+01 6.319287e+01 8.244865e-01 8.879139e-01 1.438065e+00 1.398209e+00 1.739598e+00 1.701920e+00 1.732662e+00 1.330786e+00 1.344254e+00 1.177898e+00 1.160875e+00 1.043779e+00 1.790508e+00 1.134695e-01 1.130463e-01 1.308825e-01 1.786007e-01 1.922098e-01 1.676053e-01 1.993924e-01 1.613830e-01 1.530578e-01 1.393099e-01 1.082622e-01 1.112376e-01 2.138069e-01
<GCONST> 9.753351e+01
<STATE> 3
<MEAN> 39
 6.684351e+00 4.966856e-01 -4.858584e+00 -1.365578e+01 -4.190892e+00 8.342731e+00 -7.705674e+00 -6.932055e+00 -5.671080e+00 -7.416840e-01 5.867890e+00 -6.323379e-01 1.145502e+01 3.457110e-01 2.476878e-02 -2.799901e-02 -4.904952e-01 -4.725986e-01 3.599953e-01 -3.471398e-01 -1.575597e-01 -3.105943e-01 -2.645126e-01 1.097403e-01 -9.054048e-02 -3.974294e-02 -2.016542e-01 2.951226e-02 1.731523e-01 4.799556e-01 3.026212e-01 -3.905612e-01 2.062705e-01 1.865401e-01 1.959779e-01 -7.111563e-03 -3.077327e-01 1.636526e-02 -3.272774e-01
<VARIANCE> 39
 1.225492e+01 2.059424e+01 2.136689e+01 3.663343e+01 2.939075e+01 4.982117e+01 4.925321e+01 3.447887e+01 3.362475e+01 4.257801e+01 3.551196e+01 3.797977e+01 3.332092e+01 4.812630e-01 6.788883e-01 8.836508e-01 2.116572e+00 1.663457e+00 1.878887e+00 1.925452e+00 1.148176e+00 1.468978e+00 1.469826e+00 1.257385e+00 1.069630e+00 1.329271e+00 6.809734e-02 8.792061e-02 1.041084e-01 1.376641e-01 1.569856e-01 1.638826e-01 2.373296e-01 1.653409e-01 1.422417e-01 1.980345e-01 1.462598e-01 1.462963e-01 1.215684e-01
<GCONST> 9.358521e+01
<STATE> 4
<MEAN> 39
 6.880176e+00 2.050928e+00 -4.232639e+00 -1.062379e+01 -1.763657e+00 4.312620e+00 -5.001441e+00 -5.130815e+00 -4.977847e+00 -1.490095e+00 1.353673e+00 6.961040e-01 4.852034e+00 -2.842713e-01 2.646421e-01 2.298907e-01 1.039484e+00 4.891944e-01 -7.268999e-01 2.460904e-01 1.270718e-01 3.046343e-01 4.191177e-02 -3.110086e-01 -1.751391e-02 -9.236692e-01 -1.102272e-01 -1.176978e-02 2.313020e-02 1.188961e-01 5.830148e-02 -6.069433e-02 3.500474e-02 -6.974565e-04 6.533254e-02 6.044451e-02 4.779717e-02 1.316919e-04 -1.139800e-02
<VARIANCE> 39
 1.103253e+01 2.489993e+01 2.506181e+01 5.908728e+01 3.391443e+01 5.828762e+01 4.619654e+01 3.552232e+01 3.832610e+01 3.980744e+01 3.033633e+01 3.463515e+01 4.436439e+01 4.022411e-01 6.901805e-01 6.890494e-01 1.424701e+00 9.539180e-01 1.342681e+00 9.777333e-01 8.831533e-01 8.378277e-01 9.644677e-01 9.331683e-01 7.302375e-01 1.231867e+00 3.896467e-02 7.484967e-02 6.836211e-02 1.593134e-01 1.116667e-01 1.281050e-01 1.412709e-01 1.119095e-01 1.170475e-01 1.455251e-01 1.036338e-01 1.036807e-01 1.210508e-01
<GCONST> 8.660905e+01
<TRANSP> 5
 0.000000e+00 1.000000e+00 0.000000e+00 0.000000e+00 0.000000e+00
 0.000000e+00 6.395797e-01 3.604203e-01 0.000000e+00 0.000000e+00
 0.000000e+00 0.000000e+00 7.593649e-01 2.406351e-01 0.000000e+00
 0.000000e+00 0.000000e+00 0.000000e+00 8.070343e-01 1.929657e-01
 0.000000e+00 0.000000e+00 0.000000e+00 0.000000e+00 0.000000e+00
<ENDHMM>
~h "p"
<BEGINHMM>
<NUMSTATES> 5
<STATE> 2
<MEAN> 39
 -6.221787e-01 7.843740e-01 -2.914662e+00 -2.950620e-01 9.393095e-01 -1.569743e+00 6.256592e-01 -4.444528e-01 2.198260e+00 2.106648e+00 2.077591e+00 5.267152e-01 -2.105756e+00 5.940068e-02 -5.640181e-01 -2.156780e-01 -4.242487e-01 1.561360e-01 2.791348e-01 9.104309e-02 -9.097586e-02 5.237741e-02 1.447440e-02 -6.946138e-02 -2.046218e-01 1.373979e+00 1.571130e-01 -1.965867e-01 -1.608629e-02 -1.564856e-01 -9.276243e-02 1.023736e-01 -1.409618e-01 -1.353610e-02 -8.159743e-02 -7.589557e-02 -1.182293e-01 -1.732159e-01 4.331344e-01
<VARIANCE> 39
 2.127836e+01 2.620507e+01 3.196996e+01 2.408368e+01 3.805339e+01 3.771438e+01 3.099996e+01 2.845283e+01 2.758715e+01 2.296226e+01 2.505547e+01 2.855248e+01 5.648407e+01 8.373265e-01 8.680770e-01 1.050089e+00 1.024496e+00 1.158690e+00 1.555738e+00 9.682262e-01 9.798164e-01 1.031481e+00 8.218477e-01 7.436851e-01 1.036305e+00 3.804579e+00 8.869073e-02 8.292113e-02 1.235100e-01 1.018376e-01 1.473097e-01 1.618088e-01 1.225002e-01 1.237478e-01 1.156936e-01 9.473497e-02 9.208488e-02 1.111470e-01 2.584530e-01
<GCONST> 8.929515e+01
<STATE> 3
<MEAN> 39
 3.960081e+00 -5.688243e+00 -7.291348e+00 -7.472469e+00 4.981436e-01 4.998128e+00 -8.776910e-01 -3.012960e+00 4.962674e-01 1.733447e+00 7.385599e-01 -4.842467e+00 1.281196e+01 5.869264e-01 -1.228467e+00 -5.582144e-01 -6.435419e-01 -2.660587e-01 4.555785e-01 -7.780328e-01 8.407956e-02 3.823428e-02 -3.508641e-01 -5.659263e-01 -9.115228e-01 1.992245e+00 -7.365476e-02 1.143699e-01 1.486457e-01 2.733653e-01 -8.376939e-02 -3.308669e-01 -1.193380e-01 1.774269e-01 6.519071e-02 -1.142073e-01 -8.660611e-02 1.206965e-01 -4.881367e-01
<VARIANCE> 39
 2.087060e+01 2.578239e+01 3.732401e+01 4.202186e+01 3.530260e+01 6.094326e+01 3.661456e+01 3.134394e+01 3.440944e+01 3.098054e+01 2.943368e+01 3.661871e+01 8.207186e+01 8.804866e-01 8.753979e-01 1.199429e+00 1.477607e+00 1.557100e+00 2.455618e+00 1.278953e+00 1.611051e+00 1.415017e+00 1.236235e+00 1.066299e+00 1.181098e+00 2.587670e+00 8.019543e-02 9.829789e-02 1.290731e-01 1.408041e-01 1.548196e-01 1.865526e-01 1.379484e-01 1.403318e-01 1.482103e-01 1.166804e-01 1.026643e-01 1.528473e-01 2.891450e-01
<GCONST> 9.672823e+01
<STATE> 4
<MEAN> 39
 3.367457e+00 -8.302481e+00 -8.461042e+00 -6.670418e+00 2.567914e+00 4.207266e+00 -3.405217e+00 -9.900653e-01 1.208339e+00 -8.142138e-01 -2.495148e+00 -6.335270e+00 1.164880e+01 8.749826e-02 -2.321232e-01 2.922747e-01 2.846289e-01 -3.801135e-01 -7.590382e-01 -3.099472e-01 4.526967e-01 1.105563e-01 -2.612738e-01 -5.187534e-01 -1.066548e-02 2.414566e-01 -4.232580e-02 1.946267e-01 1.870967e-01 1.241602e-01 -7.842503e-02 -1.450283e-01 9.746274e-02 2.206007e-02 -5.486663e-02 -9.255599e-03 7.894184e-03 1.679187e-01 -1.897549e-01
<VARIANCE> 39
 1.894655e+01 2.988415e+01 3.409318e+01 3.346810e+01 4.294403e+01 6.450531e+01 3.886250e+01 5.155941e+01 4.513489e+01 4.358859e+01 3.521645e+01 3.569313e+01 9.982117e+01 6.054400e-01 8.929414e-01 7.866588e-01 9.747795e-01 1.029258e+00 1.336506e+00 1.172311e+00 1.236886e+00 1.030846e+00 7.262876e-01 1.077337e+00 9.393766e-01 2.147514e+00 8.569561e-02 1.063455e-01 1.172729e-01 1.289210e-01 1.359911e-01 1.636597e-01 1.362666e-01 1.462112e-01 1.224541e-01 1.001035e-01 1.294154e-01 1.477801e-01 4.133896e-01
<GCONST> 9.435382e+01
<TRANSP> 5
 0.000000e+00 1.000000e+00 0.000000e+00 0.000000e+00 0.000000e+00
 0.000000e+00 7.641594e-01 2.358405e-01 0.000000e+00 0.000000e+00
 0.000000e+00 0.000000e+00 5.412812e-01 4.587187e-01 0.000000e+00
 0.000000e+00 0.000000e+00 0.000000e+00 6.101682e-01 3.898318e-01
 0.000000e+00 0.000000e+00 0.000000e+00 0.000000e+00 0.000000e+00
<ENDHMM>
~h "r"
<BEGINHMM>
<NUMSTATES> 5
<STATE> 2
<MEAN> 39
 4.597621e+00 -7.120068e+00 -1.126903e+00 -7.428632e-01 -5.718847e+00 -4.207593e+00 -6.435853e+00 1.389046e+00 4.066720e+00 -1.122541e+00 -3.727096e+00 -2.209867e+00 1.012269e+01 3.288220e-01 5.013888e-02 6.384116e-01 8.170807e-01 -3.775868e-01 -2.706258e-01 -5.476822e-01 -7.324988e-02 -3.215935e-01 -1.686898e-01 2.228852e-01 4.732338e-01 -6.639416e-01 -5.041937e-02 1.718388e-01 -3.160314e-02 -1.604574e-01 1.558903e-01 2.041924e-01 1.250248e-01 -1.185657e-01 -2.141595e-01 7.409170e-02 1.408746e-01 -8.176354e-02 -1.109379e-01
<VARIANCE> 39
 1.492299e+01 2.762354e+01 3.223758e+01 2.862349e+01 4.420787e+01 4.239357e+01 5.845241e+01 5.381182e+01 3.844230e+01 3.140785e+01 3.137173e+01 2.857099e+01 4.830560e+01 5.379202e-01 8.630739e-01 1.163353e+00 1.110300e+00 1.573064e+00 1.273146e+00 1.409535e+00 1.751815e+00 1.205407e+00 9.879648e-01 1.104667e+00 1.205477e+00 1.322205e+00 5.046135e-02 8.261941e-02 9.351965e-02 1.212292e-01 1.636724e-01 1.427785e-01 1.748470e-01 1.688253e-01 1.377044e-01 1.235619e-01 1.179276e-01 1.183086e-01 1.051245e-01
<GCONST> 9.187810e+01
<STATE> 3
<MEAN> 39
 5.517154e+00 -6.442165e+00 1.172081e+00 1.297366e+00 -5.827879e+00 -4.047124e+00 -8.124191e+00 3.233616e-01 1.048180e+00 -1.430336e+00 -2.339684e+00 -9.472585e-01 7.757930e+00 8.657683e-02 6.509740e-01 2.309653e-01 2.950671e-01 3.811242e-01 1.065081e-01 1.119466e-01 -3.436746e-01 -5.081651e-01 1.063722e-01 2.755610e-01 9.047091e-02 -1.019979e+00 -1.311691e-01 1.254396e-01 -2.091787e-01 -2.794251e-01 1.756672e-01 1.303097e-01 2.516438e-01 -2.227457e-03 3.440056e-02 8.618514e-02 -1.833533e-02 -1.914130e-01 1.171471e-02
<VARIANCE> 39
 1.508257e+01 2.398091e+01 4.046307e+01 2.999299e+01 5.518731e+01 4.518266e+01 5.036901e+01 5.140545e+01 4.622142e+01 3.508419e+01 3.443111e+01 3.170782e+01 3.284229e+01 4.770828e-01 8.177608e-01 1.095114e+00 8.614509e-01 1.419315e+00 1.019354e+00 1.246513e+00 1.472493e+00 1.301855e+00 9.648432e-01 8.666813e-01 8.597424e-01 1.202535e+00 4.936492e-02 7.727056e-02 1.114478e-01 1.366856e-01 1.753378e-01 1.405871e-01 1.511123e-01 1.771576e-01 1.659133e-01 1.389478e-01 1.313294e-01 1.378399e-01 8.741789e-02
<GCONST> 9.102837e+01
<STATE> 4
<MEAN> 39
 3.607182e+00 -1.592243e+00 -2.410509e+00 8.758387e-02 -1.057117e+00 -2.387594e+00 -3.810396e+00 6.294460e-01 3.196177e+00 9.705926e-01 -1.385108e+00 -1.800385e+00 -2.830610e-01 -1.691356e-01 3.788640e-01 -1.991732e-01 -6.827378e-02 2.501814e-01 1.817104e-01 3.532436e-01 -4.191252e-02 -7.386602e-02 1.329766e-01 1.304995e-01 -5.112475e-02 -5.822809e-01 -4.792500e-02 -7.784023e-02 -1.278737e-02 -8.576386e-02 -4.541218e-02 1.674739e-02 3.693795e-02 3.269375e-02 -1.533833e-02 -1.925923e-02 -7.913494e-03 -9.655984e-03 1.567265e-01
<VARIANCE> 39
 1.582720e+01 2.458486e+01 3.785632e+01 2.364283e+01 3.504210e+01 3.952878e+01 3.757165e+01 4.045903e+01 3.670186e+01 3.083333e+01 3.034055e+01 3.201112e+01 5.124892e+01 3.789629e-01 6.516055e-01 8.776045e-01 6.205265e-01 9.193234e-01 7.829874e-01 7.972450e-01 1.039667e+00 9.706087e-01 6.895477e-01 6.482634e-01 7.001812e-01 8.844653e-01 4.491633e-02 6.340378e-02 8.077785e-02 8.454350e-02 1.098978e-01 8.955249e-02 1.013143e-01 1.204183e-01 9.892965e-02 9.522884e-02 8.326136e-02 9.577691e-02 7.339550e-02
<GCONST> 8.102432e+01
<TRANSP> 5
 0.000000e+00 1.000000e+00 0.000000e+00 0.000000e+00 0.000000e+00
 0.000000e+00 3.999946e-01 6.000054e-01 0.000000e+00 0.000000e+00
 0.000000e+00 0.000000e+00 4.730760e-01 5.269240e-01 0.000000e+00
 0.000000e+00 0.000000e+00 0.000000e+00 7.276768e-01 2.723232e-01
 0.000000e+00 0.000000e+00 0.000000e+00 0.000000e+00 0.000000e+00
<ENDHMM>
~h "s"
<BEGINHMM>
<NUMSTATES> 5
<STATE> 2
<MEAN> 39
 -8.444119e+00 5.410173e+00 -2.367914e+00 -8.583185e-01 5.621007e+00 -7.022997e+00 4.958497e+00 -7.539858e-01 1.756303e+00 -5.909688e-01 -2.272344e-01 2.080001e+00 6.331565e+00 -1.862046e+00 1.128469e+00 -6.449894e-01 1.003719e-01 7.960755e-01 -4.450299e-01 1.082638e+00 2.632819e-02 5.380775e-01 1.437638e-01 5.334218e-01 6.675873e-01 -8.656619e-02 1.995437e-01 -2.346506e-01 -1.011942e-02 -6.908254e-02 -2.400735e-01 1.381374e-01 -2.109509e-01 -7.853718e-04 -7.271187e-02 8.946201e-03 -9.416311e-03 -1.188123e-01 1.078163e-02
<VARIANCE> 39
 4.778570e+01 3.888530e+01 5.155070e+01 3.661683e+01 4.613497e+01 4.074830e+01 4.690086e+01 4.090978e+01 3.595339e+01 2.935010e+01 3.614109e+01 2.963812e+01 4.761846e+01 1.086603e+00 1.309164e+00 1.317927e+00 9.633074e-01 1.385281e+00 1.284169e+00 1.343271e+00 1.226529e+00 1.052468e+00 8.343002e-01 9.917203e-01 8.303390e-01 1.035765e+00 2.221218e-01 1.608679e-01 1.467499e-01 1.129839e-01 1.406056e-01 1.252371e-01 1.553982e-01 1.287624e-01 1.114917e-01 9.665738e-02 1.234841e-01 9.799860e-02 7.760618e-02
<GCONST> 9.414149e+01
<STATE> 3
<MEAN> 39
 -1.345570e+01 6.148806e+00 -4.440581e+00 -4.177366e-01 5.928936e+00 -7.098027e+00 7.251088e+00 -5.488292e-01 3.225655e+00 -1.866902e-01 1.792137e+00 3.909119e+00 6.003171e+00 1.227410e+00 -9.029091e-01 3.549207e-01 -1.438126e-01 -5.375121e-01 3.024789e-01 -6.718101e-01 8.607422e-02 -1.209127e-01 -6.636504e-02 -3.259284e-01 -3.789203e-01 1.763197e-01 5.476836e-01 -2.733951e-01 1.649777e-01 -9.954509e-02 -2.354401e-01 1.060137e-01 -3.469987e-01 -2.418730e-02 -1.321889e-01 -1.628270e-02 -1.426200e-01 -2.382536e-01 1.119128e-01
<VARIANCE> 39
 2.839071e+01 3.353215e+01 4.839291e+01 3.889080e+01 3.752368e+01 4.016723e+01 3.981166e+01 3.568002e+01 3.028011e+01 2.420949e+01 2.919566e+01 2.455833e+01 2.709790e+01 1.854225e+00 9.420187e-01 1.387835e+00 7.913589e-01 1.220648e+00 1.067182e+00 1.327529e+00 9.378458e-01 8.883967e-01 6.291202e-01 8.694432e-01 7.946093e-01 9.570239e-01 1.686442e-01 1.264383e-01 1.460167e-01 9.738657e-02 1.517056e-01 1.459437e-01 1.581794e-01 1.312910e-01 1.069936e-01 9.669733e-02 1.212269e-01 9.335101e-02 6.147545e-02
<GCONST> 8.963642e+01
<STATE> 4
<MEAN> 39
 -2.536686e-02 -1.491677e+00 2.617503e-01 -3.118207e+00 -1.201712e+00 -5.785188e+00 -1.913645e+00 4.776730e-02 1.475520e-01 -8.354385e-01 -1.886477e+00 -1.212761e+00 1.005400e+01 1.891350e+00 -1.337737e+00 3.527758e-01 -6.555091e-01 -1.372092e+00 5.550615e-01 -1.693919e+00 -6.791504e-02 -5.101593e-01 1.688558e-02 -2.889001e-01 -1.095489e+00 6.016569e-01 -3.485871e-01 2.272904e-01 -1.662854e-01 2.526041e-02 1.775870e-01 5.857433e-02 1.972900e-01 -1.358661e-01 1.376609e-03 -1.396646e-02 1.157579e-01 8.185993e-02 -1.329851e-01
<VARIANCE> 39
 2.153698e+01 2.821766e+01 5.553136e+01 2.811486e+01 8.335566e+01 4.467694e+01 5.724329e+01 3.472614e+01 5.126717e+01 2.732638e+01 3.941850e+01 2.683995e+01 5.456674e+01 1.294824e+00 1.395143e+00 2.113314e+00 1.135067e+00 2.125315e+00 2.065949e+00 1.783250e+00 1.795098e+00 1.380245e+00 1.150818e+00 1.592976e+00 1.240173e+00 1.070295e+00 9.501071e-02 1.068676e-01 1.263728e-01 1.070071e-01 2.342316e-01 1.230386e-01 2.031358e-01 1.275197e-01 1.444063e-01 9.158378e-02 1.347023e-01 1.038698e-01 1.228329e-01
<GCONST> 9.800161e+01
<TRANSP> 5
 0.000000e+00 1.000000e+00 0.000000e+00 0.000000e+00 0.000000e+00
 0.000000e+00 8.053499e-01 1.946501e-01 0.000000e+00 0.000000e+00
 0.000000e+00 0.000000e+00 8.029389e-01 1.970611e-01 0.000000e+00
 0.000000e+00 0.000000e+00 0.000000e+00 6.152440e-01 3.847560e-01
 0.000000e+00 0.000000e+00 0.000000e+00 0.000000e+00 0.000000e+00
<ENDHMM>
~h "t"
<BEGINHMM>
<NUMSTATES> 5
<STATE> 2
<MEAN> 39
 1.565921e+00 6.001709e-02 -4.081777e+00 -1.560699e-01 -1.558911e+00 -2.736622e+00 -1.547995e+00 -1.620473e-02 2.745178e+00 2.302597e+00 1.178412e+00 -5.420676e-01 -5.048522e+00 -6.229031e-01 -2.524287e-01 4.657158e-02 -2.274603e-01 2.364857e-01 -8.482590e-02 5.987090e-01 2.008327e-02 7.845803e-02 -8.313368e-02 2.153619e-01 4.581945e-01 3.079256e-01 -5.698925e-02 -6.656803e-02 2.768911e-01 -8.672031e-02 2.591296e-02 -6.477923e-02 1.165523e-02 -6.430016e-02 -1.183176e-01 -1.309580e-01 -6.186230e-02 -2.682768e-02 5.826263e-01
<VARIANCE> 39
 1.472173e+01 2.841947e+01 4.098980e+01 2.360011e+01 3.201620e+01 3.537389e+01 2.903913e+01 4.000465e+01 3.816994e+01 2.592867e+01 3.005604e+01 3.113630e+01 1.977979e+01 5.558555e-01 7.035503e-01 1.028710e+00 6.124420e-01 8.188801e-01 7.827566e-01 9.251610e-01 7.881822e-01 7.460185e-01 7.038629e-01 6.765767e-01 7.075658e-01 1.779244e+00 8.911774e-02 1.111102e-01 1.431751e-01 8.823929e-02 1.467542e-01 1.320047e-01 1.499127e-01 1.423707e-01 1.252965e-01 1.064671e-01 1.157203e-01 1.174341e-01 1.726440e-01
<GCONST> 8.528614e+01
<STATE> 3
<MEAN> 39
 -3.478848e+00 -7.327777e-01 -6.848398e-01 -1.340475e+00 5.704645e-01 -4.254584e+00 2.392291e+00 -1.637012e+00 9.348052e-01 9.810789e-01 2.432014e+00 2.907734e+00 -2.646727e-01 -3.378267e-01 -2.485641e-01 9.124009e-01 -3.463623e-01 1.797782e-02 -1.361734e-01 2.440681e-01 -1.639712e-01 -3.066269e-01 -4.348844e-01 -1.670571e-01 -5.550791e-02 1.905888e+00 2.829890e-01 -4.261980e-04 1.830102e-01 -5.518311e-02 -2.855171e-01 1.246865e-01 -3.950510e-01 -2.937791e-02 -1.461434e-01 -2.495226e-02 -1.166494e-01 -3.440754e-01 2.223690e-01
<VARIANCE> 39
 2.320068e+01 3.184031e+01 4.863672e+01 3.036435e+01 4.437804e+01 4.298004e+01 4.006200e+01 3.964369e+01 4.272802e+01 2.685722e+01 3.205424e+01 3.086836e+01 5.264176e+01 7.339414e-01 1.101749e+00 2.315061e+00 1.034542e+00 1.507070e+00 1.325345e+00 1.487954e+00 1.673459e+00 1.726583e+00 9.819258e-01 1.138758e+00 1.174025e+00 1.890346e+00 7.917260e-02 1.072894e-01 2.356201e-01 9.858128e-02 1.557484e-01 1.646902e-01 1.881408e-01 1.725370e-01 1.743024e-01 1.156784e-01 1.515125e-01 1.345088e-01 1.555756e-01
<GCONST> 9.685040e+01
<STATE> 4
<MEAN> 39
 -3.715402e+00 -2.198765e+00 1.245864e+00 -1.445707e+00 1.969712e+00 -5.275121e+00 4.697807e+00 -8.718156e-01 1.627776e+00 -1.601552e+00 1.202673e+00 2.669166e+00 6.487154e+00 3.362015e-01 -3.719648e-01 1.123974e+00 -5.819462e-01 -6.987981e-01 1.008274e-01 -8.112429e-01 -1.910399e-01 -6.163503e-01 -3.379500e-01 -3.090561e-01 -8.040169e-01 2.103720e+00 2.817760e-01 5.229416e-02 -4.010987e-02 -2.822351e-02 -2.835129e-01 1.843693e-01 -4.103496e-01 -2.106327e-02 -1.244458e-01 1.183570e-01 -6.258484e-02 -2.669267e-01 -2.190146e-01
<VARIANCE> 39
 2.293705e+01 2.676381e+01 3.444977e+01 2.174274e+01 4.171889e+01 3.640857e+01 5.380984e+01 2.957775e+01 3.252865e+01 2.437695e+01 3.118616e+01 2.611243e+01 3.423173e+01 8.099344e-01 1.062740e+00 3.108768e+00 1.133707e+00 1.717282e+00 1.938546e+00 1.738180e+00 2.432940e+00 2.279519e+00 1.215702e+00 1.543767e+00 1.333886e+00 1.905322e+00 5.471669e-02 9.543975e-02 1.268408e-01 7.547872e-02 1.223431e-01 1.217046e-01 1.623381e-01 1.119230e-01 1.053552e-01 8.959951e-02 1.085728e-01 9.202497e-02 1.233336e-01
<GCONST> 9.298559e+01
<TRANSP> 5
 0.000000e+00 1.000000e+00 0.000000e+00 0.000000e+00 0.000000e+00
 0.000000e+00 7.341371e-01 2.658629e-01 0.000000e+00 0.000000e+00
 0.000000e+00 0.000000e+00 3.716649e-01 6.283351e-01 0.000000e+00
 0.000000e+00 0.000000e+00 0.000000e+00 4.668838e-01 5.331162e-01
 0.000000e+00 0.000000e+00 0.000000e+00 0.000000e+00 0.000000e+00
<ENDHMM>
~h "u"
<BEGINHMM>
<NUMSTATES> 5
<STATE> 2
<MEAN> 39
 4.144619e+00 2.179827e-01 -3.865805e+00 -3.796472e+00 -1.539282e+00 4.296085e-01 -4.511014e+00 -3.306450e+00 -2.370929e+00 9.911489e-01 5.824109e-01 -2.265694e-01 1.784547e+00 4.883209e-01 3.188700e-01 -2.362237e-01 -6.887364e-01 -1.132557e-01 7.029175e-01 -7.864566e-02 -4.603390e-01 -7.516924e-01 -2.278689e-01 2.589650e-01 7.847690e-02 1.848394e-01 -2.435275e-02 -1.617705e-02 1.170129e-01 -5.496857e-03 9.791871e-03 1.755364e-02 -4.407775e-02 9.502591e-03 -3.145021e-02 -6.382156e-02 -6.586089e-04 -5.812171e-02 1.322373e-01
<VARIANCE> 39
 2.008114e+01 2.638673e+01 3.067467e+01 3.857235e+01 4.838489e+01 4.715982e+01 5.745025e+01 4.487765e+01 5.246573e+01 3.984319e+01 3.353444e+01 3.437396e+01 6.233604e+01 7.209945e-01 6.491349e-01 8.890167e-01 1.151941e+00 1.159097e+00 1.395521e+00 1.616289e+00 1.207109e+00 1.409673e+00 1.169969e+00 1.058324e+00 9.187641e-01 1.048437e+00 7.142292e-02 6.910610e-02 8.717591e-02 1.589565e-01 1.372573e-01 1.415972e-01 1.935426e-01 1.508926e-01 1.807914e-01 1.731594e-01 1.451668e-01 1.026337e-01 1.417454e-01
<GCONST> 9.368591e+01
<STATE> 3
<MEAN> 39
 2.033050e+00 3.096413e+00 -2.673540e+00 -4.573849e+00 -1.510088e-02 1.515464e+00 -1.967731e+00 -3.375289e+00 -4.326731e+00 -1.493981e+00 8.629234e-01 7.273727e-01 3.291433e+00 3.898529e-01 -5.412457e-02 7.794195e-02 -5.951684e-01 -1.612367e-01 4.193476e-01 -6.463353e-01 -5.141094e-01 -5.521499e-01 -5.183520e-02 3.249421e-01 -2.545308e-01 9.222023e-01 -9.702405e-02 -1.034342e-01 1.114390e-01 1.923932e-01 5.848691e-02 -1.445051e-01 -8.060652e-02 3.902771e-02 1.722089e-01 1.129097e-01 1.223033e-02 -5.800606e-02 -3.687098e-03
<VARIANCE> 39
 7.325040e+01 3.671391e+01 3.998405e+01 6.319194e+01 6.297199e+01 7.046014e+01 5.923955e+01 4.407965e+01 5.272213e+01 3.586003e+01 3.371038e+01 3.480439e+01 7.194254e+01 1.741372e+00 1.001242e+00 1.121010e+00 2.135944e+00 1.717127e+00 2.070064e+00 2.158548e+00 1.454665e+00 1.616582e+00 1.116101e+00 1.225553e+00 1.158269e+00 2.303321e+00 1.720902e-01 1.164543e-01 1.383710e-01 2.538127e-01 2.236448e-01 2.111670e-01 2.418266e-01 1.643597e-01 2.134196e-01 1.605526e-01 1.517820e-01 1.266147e-01 2.030769e-01
<GCONST> 1.057219e+02
<STATE> 4
<MEAN> 39
 6.461783e+00 -4.172782e-01 -1.711621e+00 -6.145654e+00 -1.503330e+00 3.565568e+00 -9.539356e+00 -6.390564e+00 -5.630844e+00 4.798990e-01 3.570090e+00 -2.611245e+00 8.050080e+00 -3.783889e-01 -1.356858e-01 5.683859e-01 8.099714e-01 3.509821e-01 -7.820833e-01 -9.476063e-02 2.440050e-01 7.225915e-01 1.118710e-01 -2.319672e-01 -1.345612e-01 -4.431842e-02 -2.501045e-01 5.758659e-02 6.829423e-02 1.959901e-01 5.078026e-02 -2.418003e-01 3.653266e-01 2.221034e-01 1.793682e-01 -7.144921e-02 -1.770905e-01 1.533122e-01 -2.408791e-01
<VARIANCE> 39
 1.527894e+01 2.286345e+01 2.858309e+01 4.917822e+01 3.881266e+01 5.764107e+01 5.251608e+01 5.065720e+01 5.948854e+01 4.229325e+01 4.235160e+01 3.940361e+01 3.618325e+01 9.202704e-01 9.306800e-01 1.018779e+00 1.392461e+00 1.841891e+00 1.609058e+00 2.333423e+00 1.850617e+00 1.689816e+00 1.301604e+00 1.394308e+00 1.124569e+00 1.956975e+00 1.040443e-01 1.000219e-01 1.326461e-01 2.307664e-01 1.842804e-01 2.300836e-01 2.519371e-01 2.104114e-01 2.927809e-01 1.802475e-01 1.970848e-01 1.508942e-01 1.899590e-01
<GCONST> 1.016054e+02
<TRANSP> 5
 0.000000e+00 1.000000e+00 0.000000e+00 0.000000e+00 0.000000e+00
 0.000000e+00 5.613452e-01 4.386548e-01 0.000000e+00 0.000000e+00
 0.000000e+00 0.000000e+00 5.924684e-01 4.075316e-01 0.000000e+00
 0.000000e+00 0.000000e+00 0.000000e+00 7.516056e-01 2.483944e-01
 0.000000e+00 0.000000e+00 0.000000e+00 0.000000e+00 0.000000e+00
<ENDHMM>
~h "v"
<BEGINHMM>
<NUMSTATES> 5
<STATE> 2
<MEAN> 39
 5.278114e+00 -5.085368e-01 -7.141852e+00 -1.128532e+01 -2.453623e+00 4.754979e+00 -4.596546e+00 -5.355069e+00 -4.917638e+00 1.006254e+00 2.831135e+00 -1.550661e+00 8.670366e+00 4.202628e-01 8.513237e-01 6.490249e-01 6.820386e-01 6.819971e-01 1.578951e-01 4.462810e-01 -1.401578e-01 -2.445855e-01 -6.219857e-01 -3.623715e-01 4.749835e-01 -9.724492e-01 -9.353020e-02 -1.830055e-02 1.260291e-01 2.828987e-01 1.741428e-01 -2.296537e-01 1.058505e-01 1.128856e-01 3.092268e-01 -8.836284e-03 -2.444443e-01 -1.316012e-01 -7.545122e-02
<VARIANCE> 39
 1.074838e+01 1.880404e+01 2.897352e+01 5.350196e+01 1.980367e+01 6.313757e+01 2.967896e+01 2.113037e+01 2.507990e+01 3.686259e+01 4.012363e+01 3.013777e+01 6.796837e+01 4.007804e-01 4.149407e-01 7.847951e-01 1.304566e+00 1.270573e+00 1.361327e+00 6.256201e-01 8.206709e-01 1.205935e+00 5.079049e-01 1.595059e+00 9.853223e-01 6.943114e-01 4.598604e-02 4.341119e-02 6.482040e-02 8.213457e-02 8.508232e-02 1.037906e-01 1.185180e-01 8.946730e-02 1.146524e-01 9.515558e-02 1.065972e-01 1.242087e-01 5.026062e-02
<GCONST> 8.119728e+01
<STATE> 3
<MEAN> 39
 6.034313e+00 2.874358e+00 -2.824603e+00 -4.571254e+00 2.711209e+00 3.441851e+00 -2.566651e+00 -5.582983e+00 -2.159012e+00 -1.089721e+00 -2.126302e+00 -2.050240e+00 3.976676e+00 -2.406489e-01 2.347377e-01 5.889942e-01 1.213701e+00 5.917331e-01 -7.401245e-01 7.231699e-01 5.534620e-01 8.786070e-01 -2.435012e-01 -4.458962e-01 -8.900223e-02 -5.741363e-01 -1.646191e-01 -2.222745e-01 -1.514358e-01 -1.666125e-01 -1.934737e-01 -1.325887e-01 1.468841e-02 1.567930e-01 7.595529e-02 9.732072e-02 1.781103e-01 3.282129e-02 2.650314e-01
<VARIANCE> 39
 8.195210e+00 1.874826e+01 3.302633e+01 8.103856e+01 5.181765e+01 2.719344e+01 2.622145e+01 2.201254e+01 2.483140e+01 2.339170e+01 2.401555e+01 2.216174e+01 4.201731e+01 5.254105e-01 5.233039e-01 4.834040e-01 8.744555e-01 1.125458e+00 1.087911e+00 9.887986e-01 6.420681e-01 6.419116e-01 7.817522e-01 1.361954e+00 1.093369e+00 1.160214e+00 4.530403e-02 4.491185e-02 5.052043e-02 1.163676e-01 1.811137e-01 8.513481e-02 7.709952e-02 9.341840e-02 1.190213e-01 9.716576e-02 1.026865e-01 9.769911e-02 4.374873e-02
<GCONST> 7.941550e+01
<STATE> 4
<MEAN> 39
 2.792370e+00 -7.599901e-01 -3.501451e+00 -2.066599e+00 1.521905e+00 -3.947198e+00 4.222178e-02 -1.398609e+00 3.371148e+00 -8.724744e-01 -1.819139e+00 -2.224343e+00 4.141700e+00 -3.973445e-01 -5.853746e-01 2.185193e-01 6.216099e-02 -4.787360e-01 -6.943554e-01 3.721998e-01 6.882711e-01 3.001277e-01 -3.023510e-01 3.353463e-01 3.000946e-01 1.727394e-01 -1.378298e-02 -5.831670e-02 6.736081e-04 -2.189955e-01 -9.014000e-02 1.839452e-01 -5.770926e-02 -9.096237e-02 -2.753653e-01 -7.101610e-02 7.723928e-02 7.692254e-02 1.936078e-01
<VARIANCE> 39
 7.968859e+00 2.898651e+01 1.860608e+01 3.398412e+01 4.343543e+01 2.994192e+01 2.007221e+01 1.326608e+01 1.839898e+01 3.424799e+01 3.876086e+01 2.579460e+01 6.112065e+01 2.293930e-01 5.889381e-01 5.766985e-01 7.878773e-01 2.188541e+00 1.070781e+00 5.823775e-01 3.739271e-01 1.244961e+00 8.474294e-01 1.120641e+00 6.467145e-01 6.641555e-01 4.725230e-02 1.143597e-01 7.970788e-02 9.139471e-02 1.413209e-01 1.232755e-01 1.146014e-01 4.539473e-02 6.399632e-02 7.654727e-02 1.154051e-01 9.006339e-02 9.442218e-02
<GCONST> 7.795280e+01
<TRANSP> 5
 0.000000e+00 1.000000e+00 0.000000e+00 0.000000e+00 0.000000e+00
 0.000000e+00 6.787088e-01 3.212912e-01 0.000000e+00 0.000000e+00
 0.000000e+00 0.000000e+00 7.103539e-01 2.896462e-01 0.000000e+00
 0.000000e+00 0.000000e+00 0.000000e+00 6.910182e-01 3.089818e-01
 0.000000e+00 0.000000e+00 0.000000e+00 0.000000e+00 0.000000e+00
<ENDHMM>
~h "w"
<BEGINHMM>
<NUMSTATES> 5
<STATE> 2
<MEAN> 39
 3.038067e+00 8.778099e-01 -2.308572e+00 -6.936176e-01 1.170449e+00 3.507138e-01 -2.478183e+00 -3.020639e+00 -1.704292e+00 -6.982947e-01 -1.871349e-01 -2.384379e+00 2.698671e+00 4.325831e-01 1.561681e-01 -1.494179e-01 -1.171399e-03 3.400792e-01 3.731221e-01 -1.761069e-01 -4.563213e-01 -1.737190e-01 6.934094e-02 1.728788e-01 -8.997302e-02 -7.948006e-02 -4.729831e-02 -1.544840e-01 2.171835e-02 -1.602730e-01 -1.315890e-01 2.450618e-02 1.386809e-02 7.066151e-02 5.170324e-03 -4.469779e-03 4.279302e-02 -1.069947e-02 2.085968e-01
<VARIANCE> 39
 3.603563e+01 3.256432e+01 4.160468e+01 4.724941e+01 3.738530e+01 5.169964e+01 4.932747e+01 3.550598e+01 3.075100e+01 2.860611e+01 3.035850e+01 2.740215e+01 6.898974e+01 1.006128e+00 6.147390e-01 1.361442e+00 1.183545e+00 1.490011e+00 1.419329e+00 1.182813e+00 1.048177e+00 1.236978e+00 9.674300e-01 9.531265e-01 8.662307e-01 1.412493e+00 1.045481e-01 8.200579e-02 1.042980e-01 1.185770e-01 1.636382e-01 1.338917e-01 1.588459e-01 1.252997e-01 1.103566e-01 9.713922e-02 9.993895e-02 9.832329e-02 1.148925e-01
<GCONST> 9.218296e+01
<STATE> 3
<MEAN> 39
 6.064606e+00 -1.147100e-01 -1.803436e+00 -2.081587e+00 1.283360e+00 3.562991e+00 -4.783762e+00 -5.628637e+00 -3.684406e+00 -1.125289e+00 1.873296e+00 -2.374309e+00 4.123252e+00 1.368628e-01 -4.446129e-01 -2.721094e-01 -6.982633e-01 -1.780185e-01 1.860281e-01 -1.033706e-01 3.565067e-02 1.887042e-01 2.186002e-01 2.950326e-01 -1.485089e-01 8.291801e-01 -2.121331e-01 -1.861522e-01 2.386247e-02 -7.572702e-02 -2.077250e-01 -2.197505e-01 9.931302e-02 3.101252e-01 1.738286e-01 3.672003e-02 -1.073619e-01 -5.979073e-02 2.693558e-01
<VARIANCE> 39
 1.508182e+01 2.587612e+01 2.768949e+01 5.521968e+01 2.602814e+01 3.968219e+01 3.794136e+01 2.777398e+01 2.509196e+01 2.911016e+01 3.252484e+01 2.250355e+01 3.821320e+01 7.013885e-01 8.623018e-01 1.231087e+00 1.581330e+00 1.451918e+00 1.694903e+00 1.415126e+00 1.143766e+00 1.298943e+00 1.090433e+00 9.997704e-01 9.983630e-01 1.812953e+00 7.574707e-02 8.384761e-02 9.185975e-02 1.253155e-01 1.610675e-01 1.188801e-01 1.669574e-01 1.403848e-01 1.455412e-01 1.391971e-01 1.477292e-01 1.214726e-01 1.161084e-01
<GCONST> 9.089039e+01
<STATE> 4
<MEAN> 39
 5.883630e+00 -3.006080e+00 -5.566613e+00 -7.140568e+00 6.324694e-01 4.195127e+00 -3.665282e+00 -3.892266e+00 -1.432566e+00 1.513571e+00 1.482435e+00 -3.850748e+00 7.642329e+00 -3.336809e-01 -5.360861e-01 -9.580625e-02 -7.969316e-02 -5.926113e-02 -3.015217e-01 2.130062e-01 5.902362e-01 4.856525e-01 6.615870e-02 -3.408862e-01 -2.870533e-01 5.557351e-01 -9.721196e-02 -2.710609e-02 1.030017e-01 1.121205e-01 -2.893420e-02 -1.393724e-01 5.908518e-02 1.314833e-01 1.093348e-02 -1.229827e-01 -1.418066e-01 2.491191e-02 1.242283e-02
<VARIANCE> 39
 1.271378e+01 2.274617e+01 3.649443e+01 5.329590e+01 3.158244e+01 5.481973e+01 4.286562e+01 3.223868e+01 3.217305e+01 2.940954e+01 3.936061e+01 3.067587e+01 4.421478e+01 4.856846e-01 8.348343e-01 1.032540e+00 1.377721e+00 1.343744e+00 1.346811e+00 1.083805e+00 1.151444e+00 1.113697e+00 8.786752e-01 1.098913e+00 1.116002e+00 1.251402e+00 3.973969e-02 5.941616e-02 6.356958e-02 1.188542e-01 1.131574e-01 9.684430e-02 1.216888e-01 1.073233e-01 9.651583e-02 9.485523e-02 1.216986e-01 9.542865e-02 7.046118e-02
<GCONST> 8.642645e+01
<TRANSP> 5
 0.000000e+00 1.000000e+00 0.000000e+00 0.000000e+00 0.000000e+00
 0.000000e+00 5.038488e-01 4.961512e-01 0.000000e+00 0.000000e+00
 0.000000e+00 0.000000e+00 5.570188e-01 4.429812e-01 0.000000e+00
 0.000000e+00 0.000000e+00 0.000000e+00 6.559578e-01 3.440422e-01
 0.000000e+00 0.000000e+00 0.000000e+00 0.000000e+00 0.000000e+00
<ENDHMM>
~h "y"
<BEGINHMM>
<NUMSTATES> 5
<STATE> 2
<MEAN> 39
 3.125288e-01 -2.523402e+00 5.390263e+00 -2.314017e+00 -7.742576e+00 -4.837938e+00 -9.269764e-01 1.669631e+00 -2.269877e+00 -4.603784e-01 1.575191e+00 -1.224222e+00 7.037371e+00 1.119989e-01 -2.283327e-01 -1.530130e-01 -2.033964e-01 -1.860686e-01 -2.357849e-01 7.903624e-02 4.038029e-01 1.672046e-01 -1.107990e-01 -1.377902e-01 -9.804770e-02 3.314875e-01 3.248379e-02 5.530801e-02 -8.170017e-02 -2.426139e-02 2.481876e-01 1.643334e-01 -5.738380e-02 -1.253136e-01 1.316831e-02 -4.396902e-02 -1.630850e-01 -7.520264e-02 -6.215209e-02
<VARIANCE> 39
 1.790911e+01 3.583477e+01 4.702120e+01 3.606855e+01 7.909015e+01 4.912766e+01 4.601260e+01 5.755941e+01 4.638243e+01 3.354405e+01 4.140205e+01 2.902530e+01 1.017531e+02 6.484991e-01 1.094396e+00 2.938321e+00 8.533722e-01 2.216429e+00 9.776702e-01 1.378558e+00 2.264207e+00 1.833860e+00 1.138802e+00 1.473807e+00 1.007026e+00 1.411683e+00 5.307523e-02 9.061080e-02 1.962571e-01 1.075855e-01 2.970903e-01 1.555078e-01 1.542013e-01 1.847097e-01 1.700921e-01 1.179252e-01 1.745516e-01 1.063095e-01 1.662631e-01
<GCONST> 9.923350e+01
<STATE> 3
<MEAN> 39
 -1.338709e+00 1.834169e+00 9.612459e+00 -1.899123e+00 -4.624756e+00 -1.394879e+00 -2.091077e+00 -1.536790e+00 -4.557502e+00 -1.509596e+00 1.156996e+00 -1.431771e+00 4.862318e+00 2.554446e-01 -3.674708e-01 4.864109e-01 -5.669286e-01 -7.491934e-01 -2.516887e-01 -4.257513e-01 4.695183e-02 -3.145153e-01 -2.348193e-01 5.557681e-02 -2.312681e-01 1.211097e+00 3.539954e-02 -1.142028e-01 -2.508295e-01 1.461840e-02 8.134005e-02 4.060126e-02 7.025422e-02 7.693604e-02 1.142575e-01 2.741643e-02 -5.413448e-02 1.571855e-02 -1.848694e-02
<VARIANCE> 39
 2.751119e+01 5.262736e+01 8.617908e+01 3.791014e+01 7.948578e+01 5.191036e+01 5.275615e+01 6.412473e+01 5.453836e+01 3.235886e+01 3.745975e+01 3.124268e+01 8.381940e+01 8.322520e-01 1.319159e+00 3.580522e+00 1.084852e+00 2.408599e+00 1.252176e+00 1.781134e+00 1.891194e+00 1.950531e+00 1.096084e+00 1.373599e+00 1.025373e+00 2.175613e+00 9.776397e-02 1.255915e-01 2.642297e-01 1.205760e-01 3.011207e-01 1.484673e-01 2.065511e-01 2.104629e-01 1.866153e-01 1.278458e-01 1.734220e-01 1.199315e-01 1.539531e-01
<GCONST> 1.045469e+02
<STATE> 4
<MEAN> 39
 1.349402e+00 -2.726783e+00 5.440747e+00 -3.413189e+00 -7.157127e+00 -4.475546e+00 -9.267604e-01 1.351788e+00 -2.447375e+00 -8.216565e-01 3.340320e-03 -1.286357e+00 6.737831e+00 1.416447e-01 -2.557231e-01 -6.883740e-01 -3.932523e-02 3.903301e-01 1.166672e-01 1.426453e-01 2.261397e-01 3.554463e-01 -8.082331e-02 -3.405896e-01 -9.592848e-02 1.490355e-02 -1.040602e-02 3.571684e-02 -7.934900e-02 3.538546e-02 1.557310e-01 9.913802e-02 1.330321e-02 -7.509281e-02 9.651322e-03 -1.173176e-02 -5.724918e-02 -2.360886e-02 -6.121458e-02
<VARIANCE> 39
 1.282518e+01 3.761195e+01 6.070551e+01 3.120498e+01 5.076011e+01 3.397651e+01 4.570128e+01 7.700353e+01 3.931534e+01 2.768233e+01 3.329606e+01 2.720604e+01 6.948453e+01 3.433800e-01 7.388690e-01 1.611371e+00 6.916190e-01 1.713083e+00 8.736551e-01 9.132832e-01 1.270249e+00 1.078593e+00 9.196962e-01 1.178680e+00 6.607419e-01 9.590421e-01 2.665746e-02 5.413009e-02 1.021753e-01 6.144753e-02 1.348178e-01 7.713044e-02 9.352232e-02 1.464062e-01 1.096865e-01 8.391201e-02 9.890245e-02 6.626095e-02 5.522538e-02
<GCONST> 8.497145e+01
<TRANSP> 5
 0.000000e+00 1.000000e+00 0.000000e+00 0.000000e+00 0.000000e+00
 0.000000e+00 3.406873e-01 6.593127e-01 0.000000e+00 0.000000e+00
 0.000000e+00 0.000000e+00 6.989118e-01 3.010881e-01 0.000000e+00
 0.000000e+00 0.000000e+00 0.000000e+00 6.878341e-01 3.121659e-01
 0.000000e+00 0.000000e+00 0.000000e+00 0.000000e+00 0.000000e+00
<ENDHMM>
~h "z"
<BEGINHMM>
<NUMSTATES> 5
<STATE> 2
<MEAN> 39
 -3.876143e+00 3.847051e+00 -4.678853e+00 5.048931e+00 6.528502e+00 7.094606e-01 3.469755e+00 -5.786195e-01 2.413633e+00 -2.747524e+00 -8.871702e-01 7.121160e-01 -2.431499e+00 -3.511742e-01 6.071311e-01 1.333369e-01 8.074369e-02 3.031076e-01 -2.559312e-01 5.709901e-02 -5.433325e-02 -5.666517e-02 -2.209246e-01 -2.228469e-01 5.412412e-02 1.988524e-01 1.535394e-01 -1.302147e-01 1.861853e-01 -3.223546e-01 -2.771285e-01 -1.967250e-01 -2.161828e-01 1.150891e-01 -4.914274e-02 1.003723e-01 -1.506902e-01 -7.072096e-02 3.591173e-01
<VARIANCE> 39
 3.455748e+01 1.326443e+01 2.800488e+01 2.251210e+01 1.511408e+01 3.246054e+01 2.911327e+01 2.562418e+01 1.743500e+01 3.734459e+01 2.816678e+01 3.621513e+01 9.229955e+01 5.553886e-01 7.982451e-01 3.934714e-01 6.403883e-01 4.925339e-01 7.869335e-01 6.881809e-01 3.705943e-01 2.478836e-01 2.462521e-01 7.242376e-01 5.038229e-01 4.562819e-01 6.356534e-02 2.138597e-01 3.918444e-02 1.738930e-01 7.954135e-02 5.191997e-02 1.047569e-01 2.234567e-01 7.813322e-02 9.322401e-02 1.443324e-01 6.162719e-02 1.859032e-01
<GCONST> 7.604005e+01
<STATE> 3
<MEAN> 39
 -5.101228e+00 5.871373e+00 -1.440622e+00 6.745734e+00 6.818685e+00 5.136015e-01 5.197285e+00 1.122677e+00 7.981764e-02 -1.822124e-01 1.049595e+00 3.363535e+00 -7.749430e+00 9.473788e-01 7.134560e-01 8.463156e-01 -1.534422e-01 -7.714379e-01 -9.423767e-01 -6.787458e-01 -8.004175e-01 -5.912652e-01 -4.509007e-01 -7.133427e-01 -6.645992e-01 1.107548e+00 1.606388e-01 7.830869e-02 1.040240e-01 -9.039544e-02 -2.517979e-01 -2.274138e-01 -2.246643e-01 -1.806971e-01 2.468607e-02 -2.606541e-02 -2.597323e-02 -6.153171e-02 2.579206e-01
<VARIANCE> 39
 5.515748e+01 1.651374e+01 3.043949e+01 2.152635e+01 2.327136e+01 2.105538e+01 2.847274e+01 1.849383e+01 2.216043e+01 2.199561e+01 2.071703e+01 1.868531e+01 6.692385e+01 1.544533e+00 7.082052e-01 3.932291e-01 4.502730e-01 7.722613e-01 7.055846e-01 7.048622e-01 1.388404e+00 9.616589e-01 4.472270e-01 4.801688e-01 7.019100e-01 6.194001e-01 2.033722e-01 1.483777e-01 5.159273e-02 6.298031e-02 1.643011e-01 5.245329e-02 1.008195e-01 1.346786e-01 6.074191e-02 4.230220e-02 8.956443e-02 8.252115e-02 1.020276e-01
<GCONST> 7.767083e+01
<STATE> 4
<MEAN> 39
 -1.556758e+00 1.041105e+01 3.757982e+00 2.610675e+00 3.029295e+00 -8.541526e+00 -3.525569e-04 -5.299097e+00 -1.796623e+00 -2.556177e+00 -1.803970e+00 1.077741e+00 3.223212e+00 9.503227e-02 -6.617091e-01 4.454541e-01 -8.631574e-01 -7.078363e-01 -8.316305e-01 -5.190580e-01 2.625112e-01 -1.100476e-01 -1.257387e-01 1.786214e-01 -6.272411e-02 1.743806e+00 9.991383e-02 -3.406328e-01 -8.819996e-02 -3.926117e-02 -1.833334e-01 2.056669e-01 -4.448380e-02 2.659310e-01 1.936871e-03 3.676235e-02 6.313144e-02 -5.285223e-02 -2.049423e-04
<VARIANCE> 39
 3.944749e+01 4.585601e+01 3.890491e+01 4.885466e+01 5.328380e+01 4.357573e+01 3.683605e+01 3.814154e+01 3.729662e+01 2.095278e+01 1.626870e+01 2.687984e+01 7.242257e+01 2.307302e+00 2.814324e+00 8.638878e-01 9.087396e-01 3.235078e+00 1.152144e+00 1.592994e+00 2.044353e+00 1.002588e+00 3.830741e-01 6.398351e-01 7.000082e-01 1.219803e+00 2.819052e-01 1.501718e-01 1.403612e-01 1.011137e-01 4.026302e-01 1.578845e-01 1.497074e-01 1.574789e-01 1.092100e-01 4.190841e-02 7.471652e-02 1.189533e-01 1.119705e-01
<GCONST> 9.509385e+01
<TRANSP> 5
 0.000000e+00 1.000000e+00 0.000000e+00 0.000000e+00 0.000000e+00
 0.000000e+00 3.347498e-01 6.652502e-01 0.000000e+00 0.000000e+00
 0.000000e+00 0.000000e+00 6.592163e-01 3.407837e-01 0.000000e+00
 0.000000e+00 0.000000e+00 0.000000e+00 8.563473e-01 1.436526e-01
 0.000000e+00 0.000000e+00 0.000000e+00 0.000000e+00 0.000000e+00
<ENDHMM>
~h "aa"
<BEGINHMM>
<NUMSTATES> 5
<STATE> 2
<MEAN> 39
 2.384687e+00 -8.420660e+00 -7.696354e+00 -7.763286e+00 2.479265e+00 3.517292e+00 -1.048555e+00 2.178649e+00 2.897979e+00 -2.377729e+00 -5.509255e+00 -7.073933e+00 1.453025e+01 1.056547e-01 -7.239634e-01 -8.538327e-01 -5.356342e-01 4.622962e-01 7.985401e-01 1.462873e-01 1.367979e-01 4.526447e-03 -3.697004e-01 -4.811743e-01 -7.983831e-01 7.592562e-01 -3.639546e-02 1.886476e-01 2.368411e-01 1.986166e-01 -3.459403e-02 -1.842433e-01 -2.182483e-02 -1.041865e-01 -1.208193e-01 6.412829e-02 1.467675e-01 2.065216e-01 -2.996077e-01
<VARIANCE> 39
 1.730885e+01 2.036713e+01 3.376579e+01 2.519013e+01 3.951921e+01 5.385457e+01 4.136060e+01 4.670262e+01 3.719205e+01 3.928948e+01 3.549779e+01 3.436601e+01 5.070996e+01 5.684804e-01 6.392362e-01 1.029146e+00 8.823742e-01 1.435378e+00 1.286444e+00 1.197146e+00 1.326921e+00 1.094585e+00 1.043326e+00 1.133597e+00 9.222342e-01 1.063604e+00 8.205542e-02 8.297126e-02 1.256743e-01 9.428161e-02 1.469667e-01 1.417660e-01 1.479624e-01 1.615013e-01 1.190815e-01 1.103203e-01 1.311900e-01 1.306243e-01 1.078151e-01
<GCONST> 9.038702e+01
<STATE> 3
<MEAN> 39
 3.450727e+00 -1.044607e+01 -7.596932e+00 -8.475383e+00 2.990726e+00 3.722298e+00 -1.778238e+00 2.931606e+00 1.770631e+00 -2.561939e+00 -5.889174e+00 -8.347663e+00 1.466548e+01 2.419150e-01 4.060131e-01 5.113713e-01 5.091400e-01 -1.808852e-01 -6.430041e-01 -7.371880e-02 3.229179e-02 -1.070790e-01 1.559234e-01 3.647066e-02 3.539831e-01 -7.905654e-01 3.080399e-04 2.415622e-01 1.518765e-01 1.707169e-01 -7.073274e-02 -1.151627e-01 2.632652e-03 -1.029486e-01 3.274838e-03 7.379185e-02 9.097661e-02 1.678285e-01 -2.686021e-01
<VARIANCE> 39
 1.457390e+01 1.871459e+01 3.080776e+01 2.573201e+01 3.470779e+01 5.982375e+01 3.899779e+01 4.372091e+01 3.757544e+01 4.845889e+01 3.757510e+01 3.359901e+01 3.858938e+01 3.753953e-01 7.188084e-01 8.070882e-01 6.643017e-01 1.047578e+00 1.256831e+00 1.011354e+00 1.154200e+00 7.595583e-01 8.067526e-01 8.365964e-01 8.303621e-01 9.207118e-01 5.015984e-02 6.558599e-02 9.918772e-02 7.142493e-02 1.311410e-01 1.546424e-01 1.238868e-01 1.473600e-01 1.005719e-01 1.087956e-01 1.170420e-01 1.003253e-01 6.997308e-02
<GCONST> 8.471410e+01
<STATE> 4
<MEAN> 39
 3.383359e+00 -3.806580e+00 -6.960756e+00 -2.672030e+00 3.235401e+00 1.160177e+00 7.263627e-01 1.619578e+00 2.760295e+00 -4.986759e-03 -3.495062e+00 -3.394505e+00 1.039424e+00 -6.978160e-02 4.300862e-01 1.142192e-01 3.528292e-01 -9.430762e-02 -7.784799e-02 3.792783e-02 -9.285080e-02 7.885351e-03 8.177264e-02 1.809373e-01 2.747395e-01 -6.852981e-01 -4.536813e-02 -2.302157e-02 1.008827e-02 -4.460442e-02 -3.652590e-03 2.584719e-02 1.164148e-02 2.628254e-03 -5.347569e-03 -1.121338e-02 4.133049e-03 -1.222831e-02 6.796660e-02
<VARIANCE> 39
 1.234996e+01 2.202186e+01 2.791774e+01 2.511030e+01 3.329205e+01 4.232536e+01 3.576690e+01 3.614020e+01 3.358090e+01 3.385922e+01 2.915365e+01 2.958880e+01 6.099141e+01 3.026347e-01 5.363067e-01 6.256798e-01 5.948653e-01 7.744572e-01 7.440354e-01 7.179827e-01 7.835152e-01 6.416385e-01 6.248485e-01 6.204110e-01 6.658864e-01 7.657025e-01 3.491855e-02 4.426192e-02 5.519716e-02 5.752739e-02 8.007754e-02 8.047116e-02 7.505331e-02 8.843375e-02 7.299492e-02 7.211203e-02 7.202491e-02 7.164892e-02 4.493899e-02
<GCONST> 7.425892e+01
<TRANSP> 5
 0.000000e+00 1.000000e+00 0.000000e+00 0.000000e+00 0.000000e+00
 0.000000e+00 7.037665e-01 2.962335e-01 0.000000e+00 0.000000e+00
 0.000000e+00 0.000000e+00 7.621861e-01 2.378139e-01 0.000000e+00
 0.000000e+00 0.000000e+00 0.000000e+00 8.137679e-01 1.862321e-01
 0.000000e+00 0.000000e+00 0.000000e+00 0.000000e+00 0.000000e+00
<ENDHMM>
~h "ai"
<BEGINHMM>
<NUMSTATES> 5
<STATE> 2
<MEAN> 39
 3.184586e+00 -8.438239e+00 1.872198e+00 -5.177307e+00 -4.971094e+00 -4.125644e+00 3.811123e+00 6.594719e+00 -1.788445e+00 -3.061599e+00 -9.699909e-01 -1.808363e+00 1.088394e+01 -1.574210e-01 7.820489e-01 -6.416470e-02 7.325455e-01 5.844918e-01 -2.619436e-01 -2.913904e-02 -3.655600e-01 4.545782e-01 1.919395e-01 3.136120e-01 4.754562e-01 1.861048e-01 -2.544469e-01 3.695859e-01 -1.520915e-01 2.238552e-01 1.742804e-01 9.575383e-02 1.573574e-01 -1.855751e-01 9.823287e-02 6.853516e-02 3.525377e-02 1.376584e-01 -2.786981e-01
<VARIANCE> 39
 3.513151e+00 8.049152e+00 1.663477e+01 3.123351e+01 9.221621e+00 1.073971e+01 4.115326e+01 2.874490e+01 2.329570e+01 2.874992e+01 7.185756e+00 1.486025e+01 1.359094e+01 6.313462e-01 1.623043e+00 8.481934e-01 1.348659e+00 6.915276e-01 4.230157e-01 9.067140e-01 1.441938e+00 4.786119e-01 9.679659e-01 4.149601e-01 7.865976e-01 1.118529e+00 6.915048e-02 7.338239e-02 8.061360e-02 1.025652e-01 1.103707e-01 6.117928e-02 1.230474e-01 1.219077e-01 4.575221e-02 1.509206e-01 5.497315e-02 7.544401e-02 3.179806e-02
<GCONST> 7.096579e+01
<STATE> 3
<MEAN> 39
 -4.841617e+00 7.243901e+00 -4.260633e+00 6.087873e+00 4.336973e+00 -1.800564e-01 8.949271e+00 -9.291331e-01 4.220426e+00 -1.224897e+00 2.855947e+00 3.261631e+00 4.427325e+00 -1.988898e+00 2.013806e+00 -1.314526e+00 5.119315e-01 6.324140e-01 4.846329e-01 8.025635e-01 -3.950179e-01 7.705035e-01 2.146720e-01 6.592481e-01 1.636400e-01 -9.679413e-01 4.883542e-02 -4.202661e-01 9.721679e-02 -3.512200e-01 -2.405470e-01 -1.577203e-01 -1.113593e-01 2.155440e-01 -1.211785e-01 -9.569559e-03 -9.155000e-04 -1.974731e-01 1.755809e-01
<VARIANCE> 39
 4.973454e+01 3.392642e+01 3.528472e+01 1.285597e+01 3.394808e+01 5.747054e+01 3.583038e+01 2.962034e+01 1.953200e+01 2.979793e+01 2.367695e+01 1.496348e+01 1.009317e+01 1.149350e+00 1.352512e+00 1.453591e+00 1.401732e+00 1.813060e+00 1.295915e+00 8.474418e-01 8.374389e-01 8.051671e-01 8.139902e-01 6.828072e-01 7.689393e-01 2.705466e-01 1.519949e-01 1.181492e-01 1.766433e-01 9.589715e-02 1.816290e-01 1.322205e-01 7.661084e-02 6.865643e-02 5.557645e-02 1.425923e-01 8.812623e-02 5.611921e-02 4.413057e-02
<GCONST> 8.326509e+01
<STATE> 4
<MEAN> 39
 -9.618454e+00 9.662378e+00 -6.751367e+00 4.339677e+00 1.401869e+00 -3.161738e+00 6.596564e+00 -4.883766e-01 4.333698e+00 -4.262126e-01 3.867986e+00 3.103801e+00 2.253914e+00 -1.494376e+00 1.334293e-01 -2.272651e-01 -5.319213e-01 5.203451e-01 -6.351829e-01 5.457136e-01 1.681525e-01 2.206500e-01 7.976808e-02 8.470719e-01 -1.021752e-01 -6.419334e-02 5.546601e-01 -5.604848e-01 4.346165e-01 -2.132521e-01 2.041634e-01 -2.463943e-02 -8.656897e-02 -6.789360e-03 -1.575309e-01 1.349849e-01 -5.320020e-02 -6.619588e-02 2.868554e-01
<VARIANCE> 39
 6.035517e+01 2.144091e+01 6.441969e+01 2.358840e+01 3.985334e+01 3.922532e+01 4.792632e+01 4.027619e+01 5.851317e+01 4.101128e+01 2.272649e+01 1.683307e+01 6.902061e+00 1.054405e+00 8.015323e-01 5.592581e-01 7.246706e-02 5.516269e-01 2.207873e-01 9.675979e-01 6.885132e-01 2.286998e-01 1.877898e-01 6.521283e-01 2.253154e-01 1.815742e-01 2.091628e-01 1.034768e-01 3.330575e-01 1.081956e-01 1.176556e-01 9.093363e-02 1.163437e-01 3.597087e-02 1.948246e-01 1.465076e-02 3.813911e-02 5.342883e-02 1.914458e-02
<GCONST> 7.091264e+01
<TRANSP> 5
 0.000000e+00 1.000000e+00 0.000000e+00 0.000000e+00 0.000000e+00
 0.000000e+00 8.741559e-01 1.258442e-01 0.000000e+00 0.000000e+00
 0.000000e+00 0.000000e+00 7.941766e-01 2.058234e-01 0.000000e+00
 0.000000e+00 0.000000e+00 0.000000e+00 8.927786e-04 9.991072e-01
 0.000000e+00 0.000000e+00 0.000000e+00 0.000000e+00 0.000000e+00
<ENDHMM>
~h "au"
<BEGINHMM>
<NUMSTATES> 5
<STATE> 2
<MEAN> 39
 4.470921e+00 -1.813709e+00 -7.861559e-01 -8.354165e+00 -3.863305e+00 1.894486e+00 -7.207838e+00 6.627695e-02 -2.699879e-01 -2.822201e+00 -1.233209e+00 -2.768705e+00 1.235790e+01 1.160718e-01 -1.438164e-01 -8.001246e-01 -1.266209e+00 6.186690e-02 1.112603e+00 1.754417e-01 -1.628693e-02 7.673211e-02 4.129237e-01 5.234912e-01 1.202906e-01 8.830836e-01 -2.483717e-02 -3.630495e-02 -9.018438e-02 -3.730667e-02 -6.648477e-02 8.350134e-02 9.315272e-02 -3.365383e-02 -7.961584e-02 3.869477e-02 1.467441e-01 -9.171627e-02 5.921367e-03
<VARIANCE> 39
 1.706069e+01 3.137586e+01 2.827406e+01 8.092574e+01 4.286294e+01 7.290708e+01 7.704717e+01 3.221589e+01 5.181056e+01 4.784301e+01 3.415994e+01 3.937030e+01 5.610679e+01 7.946284e-01 7.554734e-01 1.875625e+00 1.999607e+00 1.387065e+00 1.864508e+00 2.712576e+00 9.749780e-01 1.223044e+00 1.995822e+00 1.207603e+00 2.224322e+00 3.090180e+00 7.151733e-02 7.292806e-02 9.116508e-02 2.382515e-01 1.453678e-01 2.303248e-01 3.044252e-01 9.442194e-02 1.677480e-01 1.735500e-01 1.548062e-01 2.648195e-01 2.978415e-01
<GCONST> 1.023757e+02
<STATE> 3
<MEAN> 39
 1.376474e+00 -5.357193e+00 -8.442922e+00 -1.093916e+01 -1.659637e+00 6.134613e+00 -1.119266e+00 -1.639618e+00 -9.995487e-02 2.707082e+00 1.646162e+00 -5.672667e+00 1.873595e+01 2.232427e-01 -4.079189e-01 -8.812275e-01 -2.315764e-01 -1.937924e-02 6.803078e-01 3.014834e-01 -6.632806e-02 -7.856082e-03 6.885672e-02 3.424952e-01 -2.989188e-01 2.456024e-01 1.432199e-01 8.528943e-02 2.855638e-01 3.412571e-01 6.354745e-02 -1.996399e-01 -1.966002e-01 -1.480182e-02 2.040161e-03 -2.019078e-01 -9.876843e-02 1.039647e-01 -4.508537e-01
<VARIANCE> 39
 1.180357e+01 1.092151e+01 1.161900e+01 1.923002e+01 1.753901e+01 3.212815e+01 8.440129e+01 2.728884e+01 3.754107e+01 2.705033e+01 3.665479e+01 3.541280e+01 3.267722e+01 5.543333e-01 3.752217e-01 9.956173e-01 1.985796e+00 9.055585e-01 2.431405e+00 4.219973e+00 1.029072e+00 1.306762e+00 1.402039e+00 1.504865e+00 1.322703e+00 1.410798e+00 4.616989e-02 4.199766e-02 6.528724e-02 1.331358e-01 9.278122e-02 1.884339e-01 4.826861e-01 1.564779e-01 1.967866e-01 1.727435e-01 1.260950e-01 1.504036e-01 7.001674e-02
<GCONST> 8.898087e+01
<STATE> 4
<MEAN> 39
 6.997963e+00 -4.484524e+00 -7.562258e+00 -1.281002e+01 -1.023683e+00 8.818625e+00 -3.042815e+00 -4.159657e+00 -6.884913e-01 1.850163e+00 2.459815e+00 -3.634398e+00 9.085774e+00 1.896320e-01 5.395380e-02 -3.791549e-02 8.400590e-01 8.272059e-02 -4.438620e-01 6.126449e-02 3.534391e-02 3.130858e-02 -2.063133e-01 -1.989559e-01 1.756579e-01 -7.255116e-01 -1.179668e-01 4.923695e-02 1.376325e-01 2.326973e-01 2.417477e-03 -2.829825e-01 -5.743049e-02 9.107579e-02 1.151684e-01 -1.523668e-02 -1.198765e-01 3.010050e-02 -5.425956e-02
<VARIANCE> 39
 7.911592e+00 3.110007e+01 1.621538e+01 4.445211e+01 2.888913e+01 5.028960e+01 4.332909e+01 3.354253e+01 2.988294e+01 4.541973e+01 3.192115e+01 4.036382e+01 5.520609e+01 3.662308e-01 5.690933e-01 6.055181e-01 1.456672e+00 8.021031e-01 2.038862e+00 1.283269e+00 7.194250e-01 9.509576e-01 7.914409e-01 8.054621e-01 1.068722e+00 1.024816e+00 3.283889e-02 5.308626e-02 7.491978e-02 1.348612e-01 8.265224e-02 1.669424e-01 1.440777e-01 8.017845e-02 1.077339e-01 1.019980e-01 1.352836e-01 1.504657e-01 1.004846e-01
<GCONST> 8.462626e+01
<TRANSP> 5
 0.000000e+00 1.000000e+00 0.000000e+00 0.000000e+00 0.000000e+00
 0.000000e+00 6.380631e-01 3.619369e-01 0.000000e+00 0.000000e+00
 0.000000e+00 0.000000e+00 7.772825e-01 2.227174e-01 0.000000e+00
 0.000000e+00 0.000000e+00 0.000000e+00 8.424746e-01 1.575254e-01
 0.000000e+00 0.000000e+00 0.000000e+00 0.000000e+00 0.000000e+00
<ENDHMM>
~h "ax"
<BEGINHMM>
<NUMSTATES> 5
<STATE> 2
<MEAN> 39
 5.638818e+00 -7.508497e+00 4.430851e+00 4.919521e+00 -6.565172e+00 -3.521117e-01 2.756565e-01 7.474912e+00 -2.583483e+00 -2.038678e+00 -5.998528e+00 1.108039e+00 9.922387e+00 4.199855e-01 2.520129e-01 2.615145e-01 1.153340e+00 -8.019447e-01 -8.808103e-02 7.546648e-01 -7.643360e-01 2.386222e-02 -7.951977e-01 2.370787e-01 2.610593e-01 -3.680565e-01 5.213455e-03 2.863997e-01 -5.890109e-02 4.401715e-02 2.198432e-01 -5.693086e-02 -2.051135e-01 -3.328132e-01 3.061526e-02 -1.315277e-01 7.820752e-02 -2.085603e-01 -3.326045e-01
<VARIANCE> 39
 5.926781e+00 1.137872e+01 1.384274e+01 4.957497e+01 1.664456e+01 2.194369e+01 4.058504e+01 4.267294e+01 3.349715e+01 2.316181e+01 1.586725e+01 9.307666e+00 1.416128e+01 1.263247e-01 1.017941e+00 6.297089e-01 1.031585e+00 1.061046e+00 5.522040e-01 1.714480e+00 2.482367e+00 1.292413e+00 7.617608e-01 7.327042e-01 5.118582e-01 1.166421e+00 3.437239e-02 5.535731e-02 6.291975e-02 1.990581e-01 1.324794e-01 8.394394e-02 2.521163e-01 1.543178e-01 1.650137e-01 1.215894e-01 1.090581e-01 5.519200e-02 6.413276e-02
<GCONST> 7.750711e+01
<STATE> 3
<MEAN> 39
 6.973389e+00 2.379998e+00 5.563027e+00 8.136559e+00 -5.541750e+00 -5.581703e-01 -2.432174e+00 -3.694307e+00 -2.280703e+00 -8.048120e+00 -2.323161e+00 -2.071908e+00 1.460325e+00 -4.104758e-02 1.110297e+00 -3.361966e-01 -1.592146e-01 6.298121e-01 -1.311478e-01 -5.682957e-01 -3.478616e-01 1.613326e-01 -3.006621e-01 -2.675666e-01 -5.820134e-01 -9.891211e-01 -8.662289e-02 -3.094715e-01 -2.047242e-01 -1.897796e-01 8.465736e-02 -4.515833e-02 1.894420e-01 5.047997e-01 2.018294e-02 1.684358e-01 -1.641366e-01 6.802192e-02 5.083760e-02
<VARIANCE> 39
 4.593854e+00 1.978101e+01 1.211343e+01 1.868388e+01 7.057033e+00 7.101594e+00 4.818345e+01 5.079588e+01 3.945068e+01 1.074888e+01 4.092059e+01 1.812444e+01 6.816096e+00 5.460739e-02 7.026892e-01 3.761117e-01 2.102594e-01 2.791854e-01 2.588185e-01 1.719430e+00 2.023426e+00 6.357180e-01 2.953847e-01 1.251077e+00 7.433447e-01 1.417633e-01 1.406833e-02 7.668624e-02 5.654599e-02 4.445658e-02 3.664409e-02 4.626708e-02 2.619488e-01 1.765996e-01 1.022378e-01 5.949317e-02 1.870282e-01 6.962178e-02 1.700174e-02
<GCONST> 6.123766e+01
<STATE> 4
<MEAN> 39
 6.608065e+00 2.072042e+00 1.350249e+00 7.892288e+00 -1.300605e+00 -3.286948e+00 -6.498690e-01 1.413864e+00 2.693565e-01 -8.115018e+00 -7.046127e+00 -4.032078e+00 -2.408784e+00 -7.039359e-01 -8.615245e-01 -1.380833e+00 -1.170437e+00 7.191972e-01 -2.896242e-01 6.198162e-01 1.358707e+00 2.903820e-01 6.413027e-01 -7.109420e-02 2.425902e-01 -8.209936e-01 -2.301087e-01 -2.303384e-01 2.270557e-01 -2.547037e-01 -1.589456e-01 3.685443e-02 7.154164e-02 -1.290946e-01 -4.733165e-02 1.906688e-01 3.571190e-01 2.734165e-01 3.495555e-01
<VARIANCE> 39
 4.213494e+00 2.302865e+01 1.065067e+01 1.890313e+01 9.152521e+00 1.297083e+01 2.561935e+01 2.066561e+01 1.718640e+01 1.518574e+01 1.362572e+01 1.737034e+01 5.148297e+00 1.644041e-01 3.458816e-01 4.348287e-01 4.953371e-01 2.722890e-01 7.930296e-01 1.245752e+00 6.848513e-01 7.432871e-01 2.138953e-01 1.979144e+00 4.761587e-01 2.457681e-01 2.208745e-02 5.393528e-02 1.445618e-01 5.490112e-02 5.267012e-02 2.533849e-02 1.699471e-01 9.490421e-02 6.505331e-02 7.705013e-02 7.644642e-02 6.794155e-02 9.978022e-02
<GCONST> 6.070377e+01
<TRANSP> 5
 0.000000e+00 1.000000e+00 0.000000e+00 0.000000e+00 0.000000e+00
 0.000000e+00 8.594062e-01 1.405938e-01 0.000000e+00 0.000000e+00
 0.000000e+00 0.000000e+00 8.352842e-01 1.647158e-01 0.000000e+00
 0.000000e+00 0.000000e+00 0.000000e+00 6.817145e-01 3.182854e-01
 0.000000e+00 0.000000e+00 0.000000e+00 0.000000e+00 0.000000e+00
<ENDHMM>
~h "bh"
