~o
<STREAMINFO> 1 39
<VECSIZE> 39<NULLD><MFCC_D_A_Z_0><DIAGC>
~s "silst"
<MEAN> 39
 -4.962680e+00 2.433838e+00 -1.296150e+00 6.179965e+00 6.653280e+00 3.459925e+00 4.462402e+00 3.004142e+00 3.193977e+00 1.280358e+00 2.527806e+00 5.598886e+00 -1.190312e+01 -2.257400e-02 1.325816e-02 9.716561e-03 -8.688868e-03 2.959590e-02 3.973119e-03 1.203808e-02 -2.524183e-02 -1.512273e-02 8.299009e-03 -2.432536e-03 -8.659801e-03 4.080524e-03 5.061215e-03 4.476208e-03 6.474644e-03 -3.239966e-03 -1.186621e-02 -2.436273e-03 -5.280180e-03 -5.040327e-03 -6.847035e-03 -2.031983e-03 -4.636604e-03 -7.346340e-03 2.277894e-03
<VARIANCE> 39
 6.564902e+00 2.588085e+01 1.466819e+01 1.967145e+01 1.861664e+01 2.347217e+01 2.655714e+01 2.242146e+01 2.061398e+01 1.861180e+01 2.074646e+01 1.744478e+01 2.836162e+01 9.347893e-02 2.477079e-01 1.995052e-01 2.513329e-01 2.969439e-01 3.207124e-01 3.102015e-01 3.341642e-01 3.199863e-01 3.195941e-01 2.899957e-01 2.750393e-01 1.468050e-01 1.139026e-02 2.162468e-02 2.359947e-02 3.259943e-02 3.878743e-02 4.234775e-02 4.333884e-02 4.628056e-02 4.608024e-02 4.563324e-02 4.229111e-02 3.908554e-02 1.388663e-02
<GCONST> 4.708002e+01
~h "a"
<BEGINHMM>
<NUMSTATES> 5
<STATE> 2
<MEAN> 39
 2.756639e+00 -2.506896e+00 9.119584e-01 -2.721087e+00 -1.283774e+00 -1.528348e+00 -4.089841e+00 -3.279970e-01 -8.712646e-01 -3.084442e-01 -1.141771e+00 -2.701389e+00 6.974476e+00 1.628668e-01 -3.568354e-01 1.228843e-01 -1.856578e-01 -3.187058e-01 -2.143112e-01 -1.953446e-01 2.686797e-01 1.821719e-02 -5.642366e-02 -6.685515e-02 -8.339058e-02 5.270269e-01 -4.681401e-02 1.490708e-02 -6.534314e-03 5.198522e-02 -1.301640e-02 -1.027818e-02 8.445354e-02 1.798596e-02 5.979338e-03 -6.379789e-03 3.672838e-03 6.276937e-02 -6.041346e-02
<VARIANCE> 39
 2.444743e+01 4.816729e+01 7.877294e+01 4.210355e+01 5.792271e+01 5.694084e+01 5.274859e+01 5.587627e+01 5.467296e+01 3.324264e+01 3.986079e+01 3.900737e+01 7.526134e+01 7.839939e-01 1.529355e+00 1.534572e+00 1.562268e+00 1.828220e+00 1.449452e+00 1.549959e+00 1.980208e+00 1.515270e+00 1.004879e+00 1.237409e+00 1.183230e+00 3.129454e+00 1.007704e-01 1.771990e-01 1.981488e-01 1.640762e-01 2.221896e-01 1.657529e-01 2.014882e-01 2.452362e-01 1.746866e-01 1.294085e-01 1.499352e-01 1.425258e-01 2.692192e-01
<GCONST> 1.045065e+02
<STATE> 3
<MEAN> 39
 3.535766e+00 -6.502038e+00 -3.790544e-01 -4.276120e+00 -3.827878e+00 -3.006166e+00 -4.678339e+00 3.575917e+00 4.200907e-01 -1.023837e+00 -2.110893e+00 -3.631158e+00 1.156969e+01 8.769666e-02 -8.784172e-03 -9.846516e-02 2.641109e-01 4.302422e-02 -1.302294e-01 2.488514e-01 1.506876e-01 1.362801e-01 -1.600121e-01 -2.539012e-01 1.276058e-01 -2.161427e-01 -6.882419e-02 2.432254e-01 7.004865e-02 1.539432e-01 1.483475e-01 5.774046e-02 1.116599e-01 -2.626123e-01 -7.273074e-02 9.967869e-03 3.092420e-02 9.520072e-02 -2.911556e-01
<VARIANCE> 39
 1.601094e+01 2.944038e+01 5.182253e+01 3.358549e+01 5.908846e+01 4.968913e+01 5.298208e+01 5.228387e+01 4.601185e+01 4.240798e+01 4.535254e+01 3.737848e+01 6.127147e+01 5.654661e-01 1.345875e+00 1.735948e+00 1.261244e+00 1.971451e+00 1.385898e+00 1.544718e+00 2.059834e+00 1.308309e+00 1.138684e+00 1.385296e+00 1.074097e+00 2.167161e+00 7.489020e-02 1.355591e-01 1.680527e-01 1.513991e-01 2.340457e-01 1.534853e-01 1.931935e-01 2.494994e-01 1.676224e-01 1.590512e-01 1.786208e-01 1.407915e-01 2.321179e-01
<GCONST> 1.011877e+02
<STATE> 4
<MEAN> 39
 3.650450e+00 -3.039846e+00 -1.887820e+00 -1.088564e+00 -1.686777e+00 -4.144666e+00 -3.229054e+00 1.716822e+00 2.063751e+00 -2.487733e-01 -2.461866e+00 -2.079533e+00 3.972774e+00 -1.612692e-01 3.678255e-01 8.680733e-02 2.970010e-01 1.671246e-01 1.116171e-02 2.874091e-01 -2.450121e-01 6.944960e-03 -8.188772e-03 5.658760e-02 2.365537e-01 -6.846367e-01 -8.149154e-02 -5.703071e-03 4.063920e-02 -7.176516e-02 1.684337e-02 3.827584e-02 1.838567e-02 -3.874074e-02 -3.711508e-02 2.049210e-02 4.054878e-02 -2.090952e-03 1.031151e-01
<VARIANCE> 39
 1.496075e+01 3.075878e+01 3.629812e+01 2.938791e+01 4.052796e+01 4.470782e+01 4.112443e+01 4.409072e+01 3.758467e+01 3.281292e+01 3.409422e+01 3.369902e+01 7.008769e+01 5.654045e-01 9.258112e-01 1.004967e+00 9.123783e-01 1.204960e+00 9.615450e-01 1.117564e+00 1.256936e+00 8.849705e-01 7.863824e-01 8.524733e-01 8.159813e-01 1.697787e+00 6.600645e-02 1.087587e-01 1.107106e-01 1.034773e-01 1.350248e-01 1.171245e-01 1.245851e-01 1.571714e-01 1.164261e-01 1.008681e-01 1.118037e-01 1.035696e-01 1.937279e-01
<GCONST> 8.972666e+01
<TRANSP> 5
 0.000000e+00 1.000000e+00 0.000000e+00 0.000000e+00 0.000000e+00
 0.000000e+00 4.926507e-01 5.073493e-01 0.000000e+00 0.000000e+00
 0.000000e+00 0.000000e+00 5.063093e-01 4.936907e-01 0.000000e+00
 0.000000e+00 0.000000e+00 0.000000e+00 5.827911e-01 4.172089e-01
 0.000000e+00 0.000000e+00 0.000000e+00 0.000000e+00 0.000000e+00
<ENDHMM>
~h "b"
<BEGINHMM>
<NUMSTATES> 5
<STATE> 2
<MEAN> 39
 5.186599e+00 4.593141e+00 5.361136e-01 2.884126e+00 2.453405e+00 1.543715e+00 -1.861497e+00 -3.693943e+00 -2.296179e+00 -1.852063e+00 -8.914627e-01 -3.208807e+00 -2.919755e+00 -2.464104e-01 -8.053504e-02 -6.538816e-02 -2.524857e-01 1.720129e-01 -4.614238e-02 2.549580e-01 -1.496254e-02 1.119450e-01 9.959967e-02 1.447423e-01 4.328533e-02 5.320605e-01 -9.833132e-02 -4.120164e-01 -1.320293e-01 -3.676777e-01 -2.725320e-01 -5.462912e-02 -1.427533e-01 1.002719e-01 1.108366e-01 1.227388e-01 8.641224e-02 4.018437e-03 6.372839e-01
<VARIANCE> 39
 1.844872e+01 2.556873e+01 3.363273e+01 2.454108e+01 3.334649e+01 3.578248e+01 2.654083e+01 3.682898e+01 4.139380e+01 2.207230e+01 2.918429e+01 3.081541e+01 2.599465e+01 6.665926e-01 1.172433e+00 1.159226e+00 1.486617e+00 1.035531e+00 1.183803e+00 9.660243e-01 9.958115e-01 8.946446e-01 9.122858e-01 8.664231e-01 8.387682e-01 2.572124e+00 9.703559e-02 9.927602e-02 1.302076e-01 1.231017e-01 1.635048e-01 1.587101e-01 1.304021e-01 1.631635e-01 1.549293e-01 1.229954e-01 1.316123e-01 1.158581e-01 1.818005e-01
<GCONST> 9.015468e+01
<STATE> 3
<MEAN> 39
 3.020161e+00 4.178181e-01 -1.827701e+00 -2.263218e+00 1.936894e+00 3.218239e-01 -1.782080e+00 -3.972511e+00 -4.386792e-01 5.245203e-01 1.062562e+00 -1.262984e+00 5.344643e+00 -3.786805e-01 -1.284334e+00 -3.049406e-01 -9.773942e-01 -8.457136e-01 -1.931864e-01 -2.470226e-01 4.781069e-01 5.079339e-01 3.424588e-01 1.558320e-01 -2.280456e-01 2.125639e+00 6.009933e-03 -9.464353e-02 9.063905e-02 9.180764e-03 -2.385928e-01 -1.408941e-02 -1.003214e-01 1.430238e-01 -1.923731e-02 -1.159874e-01 -1.132833e-01 -7.857168e-02 5.409040e-02
<VARIANCE> 39
 2.365471e+01 2.679224e+01 3.683490e+01 4.208518e+01 3.334763e+01 4.574910e+01 3.248284e+01 3.677718e+01 3.620789e+01 2.754458e+01 3.301054e+01 3.371453e+01 5.735530e+01 1.174901e+00 1.481375e+00 2.411027e+00 1.864050e+00 2.272577e+00 2.289106e+00 1.566732e+00 1.649767e+00 1.798451e+00 1.298633e+00 1.313126e+00 1.441711e+00 2.053247e+00 8.969613e-02 9.164007e-02 1.037870e-01 1.525871e-01 1.765205e-01 1.581793e-01 1.188309e-01 1.724800e-01 1.522974e-01 1.146367e-01 1.396910e-01 1.120360e-01 1.869996e-01
<GCONST> 9.842709e+01
<STATE> 4
<MEAN> 39
 3.522968e+00 -4.779287e+00 -1.578532e+00 -4.343946e+00 -3.616766e+00 3.826469e-01 -4.888018e+00 -3.498602e-01 7.637254e-01 8.050537e-01 8.195845e-01 -4.143583e+00 1.135759e+01 -2.739921e-01 -6.724184e-01 2.430711e-01 -2.480593e-01 -8.155670e-01 -3.919944e-01 -1.372990e-01 5.743600e-01 1.183563e-01 -2.146116e-01 -2.269679e-01 -7.134729e-02 9.027888e-01 7.479811e-03 2.924958e-01 1.022001e-01 2.226995e-01 1.796316e-01 -5.850610e-03 1.294307e-01 -1.269403e-01 -1.213615e-01 -1.383381e-01 -1.270302e-01 8.338441e-02 -4.581100e-01
<VARIANCE> 39
 1.889761e+01 3.033819e+01 6.507764e+01 4.790317e+01 5.314790e+01 6.420559e+01 5.099355e+01 5.221475e+01 5.164642e+01 4.207963e+01 3.665123e+01 4.070862e+01 5.893454e+01 9.497378e-01 1.557863e+00 1.917203e+00 1.710336e+00 2.516343e+00 1.906929e+00 1.485737e+00 1.982670e+00 1.858611e+00 1.190963e+00 1.374581e+00 1.280290e+00 2.275746e+00 9.707060e-02 1.391641e-01 1.969152e-01 2.488794e-01 2.325505e-01 2.376623e-01 1.850906e-01 2.610509e-01 1.727303e-01 1.718749e-01 1.704464e-01 1.596176e-01 3.180377e-01
<GCONST> 1.060614e+02
<TRANSP> 5
 0.000000e+00 1.000000e+00 0.000000e+00 0.000000e+00 0.000000e+00
 0.000000e+00 7.195998e-01 2.804002e-01 0.000000e+00 0.000000e+00
 0.000000e+00 0.000000e+00 4.496001e-01 5.503998e-01 0.000000e+00
 0.000000e+00 0.000000e+00 0.000000e+00 5.837299e-01 4.162702e-01
 0.000000e+00 0.000000e+00 0.000000e+00 0.000000e+00 0.000000e+00
<ENDHMM>
~h "c"
<BEGINHMM>
<NUMSTATES> 5
<STATE> 2
<MEAN> 39
 -7.087868e+00 2.432524e+00 -1.622194e-01 -3.466205e+00 2.895967e+00 -3.978493e+00 4.527475e-01 -1.218494e+00 6.071855e-01 3.220632e-01 6.611974e-01 1.488552e+00 9.914646e-01 -1.160755e+00 -1.636908e-01 3.646905e-01 -6.199623e-01 2.627898e-01 -1.722221e-01 3.413061e-01 3.480127e-01 3.101833e-02 -1.718268e-01 2.493278e-01 4.008689e-01 1.083073e+00 2.723851e-01 -1.780931e-01 1.552660e-01 3.107245e-02 -2.371195e-01 4.139396e-02 -1.475723e-01 7.425363e-02 -3.071461e-02 -9.279872e-02 -7.114968e-02 -1.040453e-01 3.267219e-01
<VARIANCE> 39
 7.112170e+01 3.175574e+01 4.966121e+01 3.745397e+01 3.941649e+01 4.570837e+01 4.074594e+01 3.746592e+01 3.504348e+01 2.586541e+01 3.029856e+01 2.923189e+01 5.071552e+01 2.252485e+00 1.167806e+00 1.802174e+00 1.069023e+00 1.409521e+00 1.221806e+00 1.133414e+00 1.197510e+00 1.007606e+00 7.635117e-01 8.306305e-01 7.400615e-01 2.369840e+00 4.520586e-01 1.419968e-01 1.821966e-01 1.763590e-01 1.955886e-01 1.616379e-01 1.714732e-01 1.286806e-01 1.241816e-01 1.059711e-01 1.156715e-01 1.258566e-01 2.145667e-01
<GCONST> 9.831228e+01
<STATE> 3
<MEAN> 39
 -5.931068e+00 -2.401989e+00 6.927756e+00 -4.645913e+00 -2.334018e+00 -4.830680e+00 -1.073646e+00 2.145368e+00 -5.565413e-02 -2.898225e+00 1.081823e+00 2.179176e+00 1.063502e+01 2.073956e+00 -1.045151e+00 -4.403499e-02 3.931234e-01 -1.327925e+00 -1.644099e-01 -9.584604e-01 2.948899e-01 4.047189e-02 -3.162843e-01 -4.738314e-01 -6.924401e-01 9.735135e-01 2.171445e-01 4.936866e-02 -3.909704e-01 5.731634e-02 8.589828e-02 1.004058e-01 -6.704459e-02 -1.652643e-01 5.495160e-02 1.599587e-01 -6.921736e-02 -2.368221e-01 -2.819867e-01
<VARIANCE> 39
 7.291534e+01 3.371866e+01 4.621657e+01 2.498529e+01 6.838995e+01 3.766823e+01 4.718998e+01 3.106029e+01 3.690554e+01 2.513121e+01 3.170103e+01 2.325628e+01 3.729664e+01 1.643667e+00 1.265072e+00 2.442142e+00 1.027863e+00 1.515920e+00 1.634037e+00 1.379065e+00 1.422904e+00 1.586631e+00 1.032826e+00 1.324962e+00 1.013646e+00 1.549305e+00 3.975565e-01 1.479675e-01 1.741900e-01 1.086517e-01 3.120229e-01 1.740038e-01 1.914937e-01 1.287743e-01 1.292390e-01 1.153934e-01 1.168586e-01 9.958623e-02 1.069980e-01
<GCONST> 9.888457e+01
<STATE> 4
<MEAN> 39
 -1.375923e-01 -3.413381e+00 2.503630e+00 -2.624152e+00 -3.255358e+00 -4.782879e+00 -2.432122e+00 1.776743e+00 1.134039e+00 -1.853391e+00 -8.033448e-01 -2.960868e-01 8.233922e+00 1.170528e+00 -4.490761e-01 -7.079300e-01 1.235120e-01 -3.385659e-01 2.621968e-01 -5.269935e-01 -1.775401e-01 1.650405e-01 1.429414e-01 -3.244826e-01 -8.254303e-01 1.297408e-01 -2.472753e-01 1.516910e-01 -5.911730e-02 -8.102918e-02 2.627563e-01 1.204730e-01 1.422992e-01 -1.456340e-01 -9.521732e-02 9.400737e-02 9.533382e-02 -1.389562e-02 -1.683232e-01
<VARIANCE> 39
 3.172463e+01 4.002324e+01 4.715585e+01 2.704296e+01 5.232785e+01 3.860637e+01 5.246461e+01 4.213689e+01 4.019579e+01 2.263840e+01 3.068177e+01 3.131488e+01 7.356946e+01 1.707123e+00 1.270398e+00 2.007811e+00 9.005334e-01 1.663938e+00 1.238873e+00 1.174172e+00 1.357779e+00 1.238134e+00 9.943303e-01 8.919956e-01 1.122952e+00 1.720522e+00 2.142296e-01 1.368486e-01 1.325704e-01 8.996470e-02 2.289585e-01 1.504077e-01 1.925400e-01 1.326638e-01 1.264335e-01 1.074168e-01 1.138727e-01 1.185559e-01 1.688763e-01
<GCONST> 9.719717e+01
<TRANSP> 5
 0.000000e+00 1.000000e+00 0.000000e+00 0.000000e+00 0.000000e+00
 0.000000e+00 8.052982e-01 1.947018e-01 0.000000e+00 0.000000e+00
 0.000000e+00 0.000000e+00 6.884245e-01 3.115755e-01 0.000000e+00
 0.000000e+00 0.000000e+00 0.000000e+00 2.659163e-01 7.340837e-01
 0.000000e+00 0.000000e+00 0.000000e+00 0.000000e+00 0.000000e+00
<ENDHMM>
~h "d"
<BEGINHMM>
<NUMSTATES> 5
<STATE> 2
<MEAN> 39
 2.183743e+00 2.648634e+00 2.466336e+00 2.492064e+00 1.125769e+00 -2.553088e+00 -4.808453e-01 -2.892372e+00 -7.294166e-01 -1.911009e+00 -1.904349e+00 -2.575059e+00 7.529665e-01 -5.748390e-01 -4.745521e-01 6.035899e-01 -4.515949e-01 -6.829714e-01 -5.172700e-01 2.821639e-01 5.594057e-02 -3.433129e-01 -2.061053e-01 5.856335e-01 4.431333e-01 1.386968e+00 -2.264532e-02 -2.198808e-01 1.199480e-01 -2.461415e-01 -3.807478e-01 -4.465969e-02 -2.175324e-01 2.276707e-02 -1.011307e-01 3.575609e-02 1.221621e-01 -4.404652e-02 4.306336e-01
<VARIANCE> 39
 2.752870e+01 3.092069e+01 3.552225e+01 2.775266e+01 4.176161e+01 3.970729e+01 4.271755e+01 3.731464e+01 3.210666e+01 2.679387e+01 3.165708e+01 3.562020e+01 5.247876e+01 7.730422e-01 1.064829e+00 1.625687e+00 1.168071e+00 2.267534e+00 1.287922e+00 1.549059e+00 1.896912e+00 1.656206e+00 8.545570e-01 1.324739e+00 1.021060e+00 2.522365e+00 1.162690e-01 1.071041e-01 1.417779e-01 1.167784e-01 1.854551e-01 1.703901e-01 1.620823e-01 1.829079e-01 1.446525e-01 1.120457e-01 1.563130e-01 1.379412e-01 2.716239e-01
<GCONST> 9.729905e+01
<STATE> 3
<MEAN> 39
 -3.653321e-02 -2.139073e+00 8.849472e+00 -1.729225e+00 -9.629037e+00 -5.259852e+00 -3.683915e+00 -2.065758e+00 -4.914644e+00 -2.468352e+00 3.985849e+00 -2.209462e+00 1.208992e+01 -2.036542e-02 -7.840819e-01 4.328063e-01 -8.158826e-01 -1.295178e+00 -1.338571e-01 -6.578487e-01 4.916107e-01 -2.602830e-01 2.294390e-01 4.389573e-01 -2.358724e-01 1.282622e+00 1.768301e-01 1.054947e-01 -2.312619e-01 9.143993e-02 3.073264e-01 1.790841e-01 1.038035e-02 -2.371361e-03 1.424969e-01 1.021887e-01 -2.794487e-01 -9.392025e-02 -4.253389e-01
<VARIANCE> 39
 1.480958e+01 1.775757e+01 6.324752e+01 2.375786e+01 6.492195e+01 4.342820e+01 3.869254e+01 5.953931e+01 5.812664e+01 2.617092e+01 4.414154e+01 3.142296e+01 5.018305e+01 6.225914e-01 8.449369e-01 2.320414e+00 9.796844e-01 2.285429e+00 1.262264e+00 1.464028e+00 2.456112e+00 2.100479e+00 9.796645e-01 1.488939e+00 9.972879e-01 1.921422e+00 7.053643e-02 9.475509e-02 1.737788e-01 1.199308e-01 2.490056e-01 1.559747e-01 1.781506e-01 2.223286e-01 2.018856e-01 1.195276e-01 1.647558e-01 1.373174e-01 2.421041e-01
<GCONST> 9.872951e+01
<STATE> 4
<MEAN> 39
 1.934050e+00 -5.046721e+00 4.267391e+00 -4.814455e+00 -7.103769e+00 -4.119849e+00 -4.628736e+00 1.179078e+00 -1.785697e+00 -1.331244e+00 -4.346062e-01 -4.460689e+00 1.259301e+01 2.131131e-01 -9.645566e-02 -1.013164e-01 -1.274785e-01 8.215804e-02 1.021455e-01 -1.216759e-01 -5.743248e-02 -3.510482e-04 2.337005e-01 -2.608533e-01 -1.054293e-01 -1.912471e-01 2.711489e-02 1.746410e-01 -5.422609e-02 1.450763e-01 1.818485e-01 8.453491e-02 9.157846e-02 -1.585740e-01 -1.933863e-02 5.970065e-03 -4.868170e-02 4.354120e-02 -3.010777e-01
<VARIANCE> 39
 1.504200e+01 2.533784e+01 7.413462e+01 3.153143e+01 6.998310e+01 4.944759e+01 5.131778e+01 7.101089e+01 6.130077e+01 3.950735e+01 5.630318e+01 3.420003e+01 6.241969e+01 4.922136e-01 8.310001e-01 1.779966e+00 1.159135e+00 2.048461e+00 1.011973e+00 1.210282e+00 1.726789e+00 1.314085e+00 1.065778e+00 1.396287e+00 8.448188e-01 2.148431e+00 6.594972e-02 9.446821e-02 1.699289e-01 1.211328e-01 2.176457e-01 1.450499e-01 1.681691e-01 2.393675e-01 1.607220e-01 1.349997e-01 1.815788e-01 1.211068e-01 2.370823e-01
<GCONST> 9.906281e+01
<TRANSP> 5
 0.000000e+00 1.000000e+00 0.000000e+00 0.000000e+00 0.000000e+00
 0.000000e+00 7.558234e-01 2.441766e-01 0.000000e+00 0.000000e+00
 0.000000e+00 0.000000e+00 5.946815e-01 4.053186e-01 0.000000e+00
 0.000000e+00 0.000000e+00 0.000000e+00 5.678263e-01 4.321737e-01
 0.000000e+00 0.000000e+00 0.000000e+00 0.000000e+00 0.000000e+00
<ENDHMM>
~h "e"
<BEGINHMM>
<NUMSTATES> 5
<STATE> 2
<MEAN> 39
 4.591749e-01 -2.474034e-01 1.559539e+00 4.873615e-01 -3.711982e+00 -3.673571e+00 1.943857e-01 -1.086449e+00 -1.442710e+00 9.641670e-01 4.335046e-01 -5.825237e-01 1.478994e+00 -2.955317e-01 -3.175313e-01 1.486474e+00 -4.345613e-01 -1.231317e+00 -2.729227e-01 -8.706623e-02 2.077457e-02 -9.963623e-01 3.385190e-02 4.330024e-01 -4.168389e-02 1.078079e+00 2.482068e-02 -3.897260e-02 1.644722e-01 -1.790224e-01 -1.356125e-01 7.957992e-02 -8.215550e-02 -3.508919e-02 -1.564260e-01 -1.468071e-02 4.902186e-02 -9.126820e-02 1.783315e-01
<VARIANCE> 39
 1.941550e+01 2.921853e+01 5.389292e+01 3.263968e+01 5.938802e+01 3.817960e+01 3.867262e+01 5.203973e+01 4.376706e+01 3.364243e+01 3.372860e+01 2.699709e+01 7.176847e+01 6.482292e-01 8.681833e-01 1.748716e+00 1.045280e+00 1.610993e+00 1.235644e+00 1.179803e+00 2.135166e+00 1.178242e+00 8.433675e-01 1.052247e+00 7.582828e-01 1.290606e+00 7.134937e-02 8.820734e-02 1.872158e-01 1.017673e-01 1.529341e-01 1.320282e-01 1.241208e-01 1.557086e-01 1.282773e-01 9.507501e-02 1.017480e-01 7.675066e-02 1.752482e-01
<GCONST> 9.299180e+01
<STATE> 3
<MEAN> 39
 1.688063e-01 -3.339784e+00 1.145056e+01 -5.196703e+00 -1.311525e+01 -4.679362e+00 -2.481681e+00 -9.575431e-01 -8.122034e+00 1.239738e+00 3.628212e+00 -1.780396e+00 1.006787e+01 -1.183932e-01 -1.694450e-01 8.006103e-01 -5.868191e-01 -8.617342e-01 6.691892e-02 -2.761636e-01 -1.553756e-02 -7.113798e-01 -5.862635e-03 4.386579e-01 -1.885740e-01 8.561456e-01 4.014705e-02 1.328577e-01 -3.222793e-01 2.278286e-01 3.448406e-01 4.462296e-02 7.068302e-02 -9.829698e-02 2.119505e-01 -4.128468e-02 -1.511617e-01 2.560117e-02 -2.957677e-01
<VARIANCE> 39
 1.384396e+01 2.371539e+01 3.746374e+01 2.570048e+01 3.205628e+01 3.588680e+01 3.594654e+01 6.773420e+01 2.678849e+01 2.635326e+01 3.395329e+01 2.148903e+01 3.579382e+01 3.786798e-01 5.166944e-01 1.232838e+00 7.841385e-01 1.417942e+00 8.187636e-01 1.078816e+00 1.199744e+00 9.135350e-01 6.844062e-01 1.003901e+00 6.379675e-01 1.364374e+00 4.657849e-02 8.072223e-02 1.047442e-01 7.341718e-02 1.305127e-01 1.008118e-01 1.107721e-01 1.601620e-01 8.967163e-02 8.196273e-02 8.901490e-02 7.738914e-02 9.321629e-02
<GCONST> 8.297630e+01
<STATE> 4
<MEAN> 39
 4.321777e-01 -1.580539e+00 1.030421e+01 -2.682005e+00 -1.221485e+01 -3.939689e+00 -2.917330e+00 -2.650611e+00 -7.693876e+00 1.173983e+00 4.264740e+00 -3.254355e+00 5.681262e+00 1.139997e-01 2.988733e-01 -6.016892e-01 5.538541e-01 7.181844e-01 -2.613434e-02 3.535555e-01 -9.516360e-02 4.201232e-01 -4.190657e-02 -2.389104e-01 2.039087e-01 -9.589703e-01 -2.270266e-02 4.627172e-02 -1.557410e-01 6.042688e-02 2.029769e-01 2.546344e-03 6.869439e-02 3.845786e-04 1.360962e-01 -1.169216e-02 -7.432757e-02 8.446764e-02 -8.596666e-02
<VARIANCE> 39
 1.566449e+01 2.202768e+01 4.073648e+01 3.026065e+01 3.714988e+01 3.318258e+01 3.299514e+01 5.145737e+01 3.786714e+01 3.503540e+01 3.869230e+01 2.764610e+01 8.478753e+01 4.429508e-01 5.722556e-01 1.023361e+00 7.365529e-01 1.188393e+00 8.009084e-01 7.691405e-01 1.021745e+00 8.693116e-01 6.106241e-01 9.002866e-01 7.083937e-01 1.903116e+00 6.752066e-02 6.737565e-02 1.262313e-01 1.095953e-01 1.684354e-01 1.000252e-01 1.187684e-01 1.463267e-01 1.378230e-01 8.964296e-02 1.412741e-01 9.392515e-02 3.036220e-01
<GCONST> 8.769515e+01
<TRANSP> 5
 0.000000e+00 1.000000e+00 0.000000e+00 0.000000e+00 0.000000e+00
 0.000000e+00 6.827287e-01 3.172713e-01 0.000000e+00 0.000000e+00
 0.000000e+00 0.000000e+00 7.114181e-01 2.885819e-01 0.000000e+00
 0.000000e+00 0.000000e+00 0.000000e+00 8.318654e-01 1.681346e-01
 0.000000e+00 0.000000e+00 0.000000e+00 0.000000e+00 0.000000e+00
<ENDHMM>
~h "g"
<BEGINHMM>
<NUMSTATES> 5
<STATE> 2
<MEAN> 39
 5.877149e+00 -4.212114e+00 -3.104307e+00 -7.110661e+00 5.983505e-01 4.046579e+00 -4.465014e+00 -1.060890e+00 -1.975462e+00 -5.887648e-01 3.520452e-01 -5.233367e+00 8.016902e+00 9.588742e-02 3.766789e-01 -9.429104e-02 3.697336e-01 2.634362e-01 5.368685e-02 2.633179e-01 -1.696955e-01 8.423327e-02 -4.156575e-02 2.578904e-02 2.841107e-01 -6.962987e-01 -6.019567e-02 -2.087220e-02 9.102495e-03 3.643769e-02 -3.425321e-02 -7.423284e-02 3.428024e-02 5.520638e-02 8.041585e-02 2.382886e-02 -1.284057e-02 3.617393e-02 4.470601e-02
<VARIANCE> 39
 1.514721e+01 3.679673e+01 4.906463e+01 5.503699e+01 3.684040e+01 8.661944e+01 3.725921e+01 3.681788e+01 4.280743e+01 4.055267e+01 4.261012e+01 3.175833e+01 6.629100e+01 3.852137e-01 7.589504e-01 7.571226e-01 1.058756e+00 9.737543e-01 1.337976e+00 1.083032e+00 9.443247e-01 1.185654e+00 9.691229e-01 9.653648e-01 7.214966e-01 1.018744e+00 4.394624e-02 7.885753e-02 7.605562e-02 1.018560e-01 1.254588e-01 1.099601e-01 1.309718e-01 1.092562e-01 1.156312e-01 1.030384e-01 1.103856e-01 9.324674e-02 1.187195e-01
<GCONST> 8.849624e+01
<STATE> 3
<MEAN> 39
 5.471850e+00 5.269047e-02 -1.837245e+00 -1.543240e+00 1.293916e-01 -1.392949e+00 -3.336373e+00 -1.605830e+00 -5.449558e-01 6.058766e-01 -1.639678e+00 -3.574078e+00 1.509393e+00 -2.044576e-01 3.206196e-01 -1.426423e-01 4.865092e-01 1.221131e-01 -1.731217e-01 3.437891e-01 9.988295e-02 4.816222e-01 8.910351e-03 -5.050918e-02 2.505025e-01 -6.671556e-01 -8.284125e-02 -2.049484e-01 3.407713e-02 -1.775757e-01 -1.034802e-01 -1.254535e-02 -3.261017e-02 9.846511e-02 -1.769081e-02 2.387882e-02 5.893276e-02 -1.433801e-02 3.010167e-01
<VARIANCE> 39
 1.524296e+01 2.720699e+01 3.785337e+01 3.022624e+01 3.961711e+01 4.268184e+01 3.805448e+01 3.483007e+01 3.810415e+01 3.230764e+01 3.020652e+01 2.772357e+01 3.327610e+01 3.857403e-01 6.591580e-01 8.029482e-01 8.542726e-01 9.958363e-01 1.043529e+00 9.002505e-01 9.834638e-01 1.116285e+00 7.902145e-01 8.443623e-01 7.505950e-01 9.543793e-01 4.656581e-02 7.795320e-02 6.930742e-02 8.807938e-02 1.293009e-01 1.072843e-01 1.319124e-01 1.179864e-01 1.285852e-01 1.094294e-01 9.074664e-02 9.087022e-02 1.197294e-01
<GCONST> 8.392059e+01
<STATE> 4
<MEAN> 39
 3.102388e+00 7.515396e-01 -4.356343e+00 -1.133096e+00 -8.965380e-02 -2.066566e+00 -2.100022e+00 -7.127330e-01 2.582586e+00 2.602391e+00 2.519369e-01 -9.892752e-01 -3.265615e+00 -1.562829e-01 8.206613e-02 3.337678e-02 1.112912e-01 2.943891e-02 1.323535e-02 1.808987e-01 7.901221e-02 9.207604e-02 8.328314e-03 1.620888e-02 1.050739e-01 -1.480526e-01 -8.133110e-03 -5.130966e-02 3.896875e-02 -5.137140e-02 -3.150151e-03 8.857812e-03 3.880908e-03 -1.424685e-02 -5.678471e-02 -1.389966e-02 -2.082065e-03 -2.173767e-02 1.322697e-01
<VARIANCE> 39
 1.673293e+01 2.144359e+01 2.828593e+01 2.430640e+01 2.311007e+01 3.389044e+01 2.733564e+01 3.316499e+01 3.221066e+01 2.839586e+01 2.793220e+01 3.173755e+01 3.663839e+01 2.450888e-01 3.106322e-01 3.785207e-01 4.040747e-01 5.377903e-01 5.343109e-01 4.700550e-01 5.544356e-01 5.708023e-01 5.117550e-01 5.133759e-01 5.478577e-01 3.432929e-01 3.253117e-02 4.409169e-02 4.354652e-02 5.705469e-02 7.695661e-02 6.939754e-02 7.072320e-02 8.116005e-02 8.012480e-02 7.274047e-02 7.073575e-02 7.347578e-02 6.594309e-02
<GCONST> 6.809912e+01
<TRANSP> 5
 0.000000e+00 1.000000e+00 0.000000e+00 0.000000e+00 0.000000e+00
 0.000000e+00 6.040952e-01 3.959047e-01 0.000000e+00 0.000000e+00
 0.000000e+00 0.000000e+00 2.828655e-01 7.171344e-01 0.000000e+00
 0.000000e+00 0.000000e+00 0.000000e+00 8.371204e-01 1.628796e-01
 0.000000e+00 0.000000e+00 0.000000e+00 0.000000e+00 0.000000e+00
<ENDHMM>
~h "h"
<BEGINHMM>
<NUMSTATES> 5
<STATE> 2
<MEAN> 39
 2.839682e+00 -3.413124e+00 2.363966e+00 -1.852177e+00 -9.263763e-01 -1.166583e+00 3.701197e+00 3.044843e+00 -1.164387e+00 -1.731323e+00 -2.775460e+00 1.574996e-01 7.266122e+00 -8.124041e-03 3.270889e-01 -1.834027e-01 2.734470e-01 4.206921e-01 2.223570e-01 3.222781e-01 -1.599257e-01 4.620158e-02 1.929591e-02 -1.602725e-02 2.494604e-01 -5.867845e-01 1.141267e-02 -2.516818e-02 -8.402714e-03 -7.111961e-02 -9.980239e-02 -8.873790e-03 -1.397310e-01 -3.556103e-02 -2.588225e-02 2.008001e-02 6.872499e-02 -7.202135e-02 1.462858e-02
<VARIANCE> 39
 1.261654e+01 2.646965e+01 4.784457e+01 3.036633e+01 6.095437e+01 4.358567e+01 4.835405e+01 5.277002e+01 3.623840e+01 3.856378e+01 4.140326e+01 3.507122e+01 4.614429e+01 2.884740e-01 7.239447e-01 9.974046e-01 7.875886e-01 1.517355e+00 1.003708e+00 1.124939e+00 1.291266e+00 8.654861e-01 1.022091e+00 1.009750e+00 8.487952e-01 7.099571e-01 2.872711e-02 7.042719e-02 6.751849e-02 9.223622e-02 1.443315e-01 9.459312e-02 1.299699e-01 1.232820e-01 1.029454e-01 1.036244e-01 1.095140e-01 1.006671e-01 5.732347e-02
<GCONST> 8.560423e+01
<STATE> 3
<MEAN> 39
 2.720938e+00 -3.631410e+00 1.708894e+00 -1.714202e+00 -1.023896e+00 -5.107783e-01 4.195323e+00 3.589268e+00 -1.527378e+00 -2.465667e+00 -1.981485e+00 1.752091e-01 6.845409e+00 1.180455e-01 -1.588118e-01 -1.461779e-01 -2.512262e-01 -3.700809e-01 -1.372378e-01 -2.650109e-01 5.795518e-02 -6.223718e-02 -1.430926e-02 1.605002e-01 -1.777174e-01 -2.635257e-02 8.518746e-03 -3.853408e-02 1.642653e-02 -6.876391e-02 -8.362247e-02 -3.579821e-02 -1.136195e-01 -1.282045e-02 -2.052727e-02 2.825669e-02 6.819928e-03 -5.571901e-02 3.959889e-02
<VARIANCE> 39
 1.285448e+01 2.959722e+01 4.068749e+01 2.974346e+01 5.546195e+01 4.137323e+01 5.019062e+01 5.226293e+01 3.262965e+01 3.972435e+01 3.176616e+01 2.802217e+01 5.312093e+01 2.542378e-01 6.657757e-01 7.052535e-01 5.627711e-01 1.303191e+00 7.839458e-01 9.181147e-01 1.055572e+00 7.200508e-01 7.728214e-01 6.689234e-01 6.679529e-01 7.736651e-01 2.722458e-02 6.646011e-02 5.545717e-02 7.002907e-02 1.364212e-01 7.752638e-02 1.125732e-01 8.939780e-02 7.958256e-02 7.974827e-02 7.900561e-02 8.099692e-02 5.429018e-02
<GCONST> 7.986145e+01
<STATE> 4
<MEAN> 39
 2.409049e+00 -1.804888e+00 -1.076909e+00 -1.426334e+00 -1.761182e+00 -1.202195e+00 1.869492e+00 2.132121e+00 9.352245e-03 -7.356799e-01 -5.170780e-01 -4.093288e-02 1.210859e+00 -2.025520e-02 1.105333e-01 -3.793404e-02 4.229295e-02 1.856605e-02 3.521179e-02 -2.084141e-02 -2.276270e-02 -1.827131e-02 2.044898e-02 4.475519e-02 1.914276e-02 -2.069575e-01 6.475766e-04 8.814171e-03 1.148067e-02 1.154493e-02 4.409725e-03 2.907845e-04 2.881907e-03 -6.594870e-03 -1.142064e-02 -2.732910e-03 -1.361713e-02 -4.883756e-03 7.034438e-03
<VARIANCE> 39
 1.862341e+01 2.993003e+01 4.004210e+01 2.768714e+01 4.045662e+01 3.476037e+01 3.210127e+01 4.621262e+01 3.283998e+01 2.841340e+01 2.598502e+01 2.533752e+01 6.578001e+01 1.373843e-01 2.289435e-01 2.981159e-01 3.294539e-01 4.665708e-01 4.053389e-01 4.369525e-01 4.646772e-01 4.117765e-01 3.973217e-01 4.024018e-01 4.019624e-01 2.179693e-01 1.602758e-02 2.767440e-02 3.023900e-02 4.211527e-02 6.162723e-02 4.928163e-02 5.828780e-02 5.857686e-02 5.371448e-02 5.329305e-02 5.401429e-02 5.398184e-02 2.225082e-02
<GCONST> 6.151963e+01
<TRANSP> 5
 0.000000e+00 1.000000e+00 0.000000e+00 0.000000e+00 0.000000e+00
 0.000000e+00 5.986270e-01 4.013731e-01 0.000000e+00 0.000000e+00
 0.000000e+00 0.000000e+00 5.834309e-01 4.165691e-01 0.000000e+00
 0.000000e+00 0.000000e+00 0.000000e+00 8.425136e-01 1.574865e-01
 0.000000e+00 0.000000e+00 0.000000e+00 0.000000e+00 0.000000e+00
<ENDHMM>
~h "i"
<BEGINHMM>
<NUMSTATES> 5
<STATE> 2
<MEAN> 39
 2.603455e-01 -4.514596e-01 1.034741e+01 -2.136575e+00 -8.873295e+00 -2.393187e+00 -3.580213e+00 -4.850026e+00 -7.342103e+00 -1.319590e+00 9.354886e-01 -3.283564e+00 6.870300e+00 1.485325e-01 2.632426e-01 1.192738e-01 1.890377e-01 -1.322710e-01 -1.518570e-01 1.032859e-01 -2.320603e-01 -1.615831e-01 4.931302e-02 -6.109372e-03 -8.727922e-02 -3.441834e-01 -1.738931e-02 4.331012e-02 -2.566673e-01 9.278698e-02 2.704454e-01 -3.006648e-02 7.750292e-02 5.295979e-02 1.903517e-01 1.524048e-02 -5.850917e-02 9.828869e-02 -1.659119e-01
<VARIANCE> 39
 1.825999e+01 2.358864e+01 6.258521e+01 3.295191e+01 5.813768e+01 4.982254e+01 4.204013e+01 5.375608e+01 4.739468e+01 3.170213e+01 3.766131e+01 2.782208e+01 5.036041e+01 6.191660e-01 6.861226e-01 1.763382e+00 9.114774e-01 1.857472e+00 1.022105e+00 1.209211e+00 1.498408e+00 1.331744e+00 7.985280e-01 1.090073e+00 8.369083e-01 1.630007e+00 8.664035e-02 9.104302e-02 2.096282e-01 1.218841e-01 2.520559e-01 1.389424e-01 1.425301e-01 2.078524e-01 1.715461e-01 1.075839e-01 1.554703e-01 1.011150e-01 1.739937e-01
<GCONST> 9.529504e+01
<STATE> 3
<MEAN> 39
 9.484755e-01 8.161736e-01 8.358001e+00 -1.018390e-01 -7.153632e+00 -3.712843e+00 -1.914185e+00 -4.620881e+00 -5.972126e+00 -1.018688e+00 6.178532e-01 -2.486213e+00 4.039906e+00 7.218216e-02 1.895993e-01 -3.385624e-01 2.146964e-01 2.896370e-01 -3.133382e-01 1.149013e-01 -9.884170e-03 2.181997e-01 7.307157e-03 -2.467893e-02 1.263236e-01 -3.366966e-01 -9.995645e-02 -5.537270e-02 -1.628526e-01 -3.671697e-02 1.862701e-01 1.864862e-02 4.373770e-03 8.823589e-02 1.475154e-01 -2.794657e-04 -1.758495e-02 8.115110e-02 5.938455e-02
<VARIANCE> 39
 1.740804e+01 2.457951e+01 5.387252e+01 3.300003e+01 5.756798e+01 4.063800e+01 4.241255e+01 5.382127e+01 4.501095e+01 3.017054e+01 3.548861e+01 2.826272e+01 5.924826e+01 7.376979e-01 8.383369e-01 2.200569e+00 1.084115e+00 2.394603e+00 1.141912e+00 1.404244e+00 1.703825e+00 1.703857e+00 8.192763e-01 1.290431e+00 1.083511e+00 2.945678e+00 8.340750e-02 8.821494e-02 1.886337e-01 1.213192e-01 2.478566e-01 1.244258e-01 1.545510e-01 1.875688e-01 1.543010e-01 9.780263e-02 1.293101e-01 1.064519e-01 1.999060e-01
<GCONST> 9.713431e+01
<STATE> 4
<MEAN> 39
 9.551086e-01 1.674273e+00 5.758976e+00 1.101281e+00 -5.065847e+00 -3.914228e+00 -1.808766e+00 -3.969371e+00 -3.903674e+00 -7.075765e-01 5.660201e-01 -1.299940e+00 8.473983e-01 -2.101348e-01 -8.050065e-02 -6.434929e-01 3.485301e-03 6.040146e-01 -1.046066e-01 8.599886e-02 2.574174e-01 5.137013e-01 5.503695e-02 -2.993778e-02 3.017023e-01 -1.707581e-01 -9.305463e-02 -1.157803e-01 1.348303e-02 -1.267566e-01 2.610759e-02 3.463642e-02 -1.041520e-02 3.029512e-02 9.233302e-03 -9.208191e-03 -1.960742e-02 -3.203445e-03 2.684533e-01
<VARIANCE> 39
 1.633959e+01 2.603224e+01 4.787806e+01 3.015742e+01 4.585685e+01 3.663684e+01 3.366397e+01 4.847182e+01 3.553258e+01 2.767914e+01 3.223160e+01 2.733008e+01 5.957161e+01 7.426271e-01 8.722575e-01 1.742547e+00 9.256186e-01 1.644753e+00 9.809294e-01 1.175619e+00 1.615613e+00 1.180025e+00 7.272418e-01 1.126870e+00 8.367650e-01 1.794847e+00 8.214350e-02 9.544202e-02 1.689621e-01 1.074986e-01 1.914605e-01 1.185288e-01 1.177211e-01 1.574381e-01 1.263642e-01 8.957318e-02 1.083256e-01 8.956875e-02 2.333196e-01
<GCONST> 9.192261e+01
<TRANSP> 5
 0.000000e+00 1.000000e+00 0.000000e+00 0.000000e+00 0.000000e+00
 0.000000e+00 5.150570e-01 4.849429e-01 0.000000e+00 0.000000e+00
 0.000000e+00 0.000000e+00 3.460915e-01 6.539086e-01 0.000000e+00
 0.000000e+00 0.000000e+00 0.000000e+00 5.190302e-01 4.809699e-01
 0.000000e+00 0.000000e+00 0.000000e+00 0.000000e+00 0.000000e+00
<ENDHMM>
~h "j"
<BEGINHMM>
<NUMSTATES> 5
<STATE> 2
<MEAN> 39
 1.104067e+00 4.289760e+00 2.372107e+00 2.048610e+00 1.590294e+00 -3.763029e+00 1.274344e-01 -3.027902e+00 -1.404325e+00 -2.857925e+00 -3.645627e+00 -1.778903e+00 5.878004e-01 -1.138046e+00 5.259245e-01 9.689914e-02 -4.564500e-01 9.084533e-01 -4.890289e-01 6.559593e-01 5.807167e-02 1.836863e-01 1.003294e-02 2.132790e-01 5.822464e-01 3.654028e-01 -9.792511e-02 -2.925860e-01 8.291899e-02 -2.607462e-01 -2.991547e-01 -9.258859e-02 -1.650104e-01 1.339805e-01 -3.290391e-02 1.525310e-02 1.154331e-01 7.471574e-02 4.741991e-01
<VARIANCE> 39
 3.081099e+01 3.109734e+01 4.512925e+01 3.112496e+01 4.620158e+01 4.388508e+01 3.882975e+01 4.004592e+01 3.549616e+01 2.621649e+01 3.208957e+01 2.894715e+01 3.494701e+01 1.091585e+00 1.144319e+00 1.370534e+00 9.357656e-01 1.495845e+00 1.359554e+00 1.219598e+00 1.286772e+00 9.526026e-01 7.133327e-01 8.436001e-01 1.028936e+00 1.720532e+00 2.079175e-01 1.403616e-01 1.691764e-01 1.079231e-01 2.362809e-01 1.763906e-01 2.027953e-01 1.742022e-01 1.365344e-01 9.215742e-02 1.045829e-01 1.275339e-01 1.228972e-01
<GCONST> 9.477654e+01
<STATE> 3
<MEAN> 39
 -6.000338e+00 3.716577e+00 5.259571e+00 -2.794528e+00 1.738992e+00 -8.732806e+00 3.474755e-01 -2.090420e+00 -2.140223e+00 -3.117522e+00 -9.130996e-01 3.133733e+00 8.815029e+00 3.392907e-01 -1.350742e+00 1.042891e-01 -6.473992e-01 -1.278254e+00 -3.272334e-01 -9.592542e-01 8.994758e-01 3.345343e-01 5.055788e-02 2.011231e-01 1.542198e-01 1.565962e+00 5.084983e-01 -2.997884e-01 -2.297072e-01 9.952974e-02 -2.733786e-01 3.288536e-01 -2.572229e-01 8.437220e-02 1.053942e-01 6.015169e-02 -1.402511e-01 -3.730295e-01 -1.127467e-01
<VARIANCE> 39
 3.391342e+01 3.277444e+01 4.173812e+01 2.739783e+01 5.913684e+01 4.495204e+01 4.377622e+01 3.432778e+01 3.181877e+01 2.201120e+01 2.629397e+01 2.464007e+01 2.734859e+01 1.405128e+00 1.093189e+00 1.774575e+00 1.057111e+00 1.357378e+00 1.375819e+00 1.490880e+00 2.090576e+00 1.746653e+00 7.830191e-01 9.039601e-01 1.045206e+00 1.327020e+00 1.298761e-01 1.403594e-01 1.687013e-01 1.137206e-01 2.577017e-01 1.563031e-01 1.849892e-01 1.641748e-01 1.226725e-01 1.138549e-01 1.136624e-01 1.291420e-01 1.280820e-01
<GCONST> 9.541400e+01
<STATE> 4
<MEAN> 39
 1.296314e+00 -6.005960e+00 1.209222e+00 -5.248230e+00 -6.454039e+00 -6.261457e+00 -6.963833e+00 4.901961e+00 2.897405e+00 -2.344302e+00 -2.729941e+00 -1.181213e+00 1.434040e+01 9.583917e-01 -1.161477e+00 -1.112158e+00 -3.784488e-01 -1.409615e-01 1.065431e+00 -5.578266e-01 4.132308e-01 5.455406e-01 3.573815e-01 -2.756289e-01 -1.165040e+00 3.462841e-01 -1.238467e-01 3.880337e-01 -4.200063e-02 1.522643e-01 5.012906e-01 1.586490e-01 3.373533e-01 -3.912576e-01 -2.215813e-01 1.520657e-02 1.097397e-02 -3.599263e-02 -4.367322e-01
<VARIANCE> 39
 1.306842e+01 1.955121e+01 4.178942e+01 1.940456e+01 3.360640e+01 3.480446e+01 4.929007e+01 4.555081e+01 4.201612e+01 2.676018e+01 2.939341e+01 2.980779e+01 3.749632e+01 6.193484e-01 1.212587e+00 1.582682e+00 8.473926e-01 1.886200e+00 1.155554e+00 1.539434e+00 1.879310e+00 1.339071e+00 9.389402e-01 1.248459e+00 1.061544e+00 1.138053e+00 9.787908e-02 1.097526e-01 1.721131e-01 1.126028e-01 1.829208e-01 1.555164e-01 1.789445e-01 1.755446e-01 1.510045e-01 9.973020e-02 1.312430e-01 1.715398e-01 1.062301e-01
<GCONST> 9.288411e+01
<TRANSP> 5
 0.000000e+00 1.000000e+00 0.000000e+00 0.000000e+00 0.000000e+00
 0.000000e+00 7.682829e-01 2.317171e-01 0.000000e+00 0.000000e+00
 0.000000e+00 0.000000e+00 7.179976e-01 2.820024e-01 0.000000e+00
 0.000000e+00 0.000000e+00 0.000000e+00 6.670831e-01 3.329169e-01
 0.000000e+00 0.000000e+00 0.000000e+00 0.000000e+00 0.000000e+00
<ENDHMM>
~h "k"
<BEGINHMM>
<NUMSTATES> 5
<STATE> 2
<MEAN> 39
 -1.539291e+00 -1.084465e+00 -1.825608e+00 -1.715457e+00 1.023278e+00 -3.352241e+00 -8.514299e-01 -1.183236e+00 -1.345503e-01 2.010349e+00 -3.346631e-01 1.423534e+00 -6.006239e-01 -4.062034e-01 -5.798295e-01 2.517110e-01 -5.461793e-01 2.371301e-01 -1.054440e-01 -1.961997e-01 1.062687e-01 -3.615194e-02 1.600859e-01 -2.665599e-01 -7.379308e-02 1.207407e+00 1.229847e-01 -4.353634e-02 2.523673e-01 -1.243014e-01 -2.749882e-01 9.371762e-02 -1.382330e-01 -2.499623e-02 -1.402677e-01 -1.017534e-01 5.980834e-04 -2.501524e-01 3.810522e-01
<VARIANCE> 39
 3.036576e+01 4.162504e+01 6.494944e+01 3.497688e+01 6.201788e+01 5.060567e+01 3.656359e+01 4.367472e+01 3.997352e+01 3.123955e+01 3.669856e+01 3.254264e+01 4.813913e+01 1.064042e+00 1.139459e+00 2.569832e+00 1.082440e+00 2.154956e+00 1.492502e+00 1.271539e+00 1.493089e+00 1.630637e+00 1.040732e+00 1.251250e+00 1.373297e+00 2.306769e+00 1.343694e-01 1.381438e-01 2.071110e-01 1.319431e-01 2.444918e-01 1.861053e-01 1.438039e-01 1.671659e-01 1.711211e-01 1.316282e-01 1.762621e-01 1.411913e-01 2.166927e-01
<GCONST> 1.015747e+02
<STATE> 3
<MEAN> 39
 4.250211e-02 -5.116266e+00 2.611962e+00 -5.753179e+00 -3.652424e+00 -2.341654e+00 -5.659639e+00 -8.726062e-03 -2.201351e+00 1.046335e+00 -6.159049e-01 -4.142184e+00 1.038597e+01 4.207766e-01 -5.251151e-01 4.664845e-01 -4.197037e-01 -1.062855e+00 1.626408e-01 -4.768676e-01 2.944877e-01 -1.570961e-01 -4.096673e-01 2.751059e-02 -8.915120e-01 1.447722e+00 7.706134e-02 1.557675e-01 -1.120654e-01 1.802424e-01 -4.800404e-03 7.019206e-03 1.571751e-01 -7.520344e-02 3.206786e-02 -7.507861e-02 1.835748e-02 1.132401e-01 -3.512655e-01
<VARIANCE> 39
 2.662289e+01 3.657055e+01 9.906802e+01 3.009052e+01 9.136639e+01 4.858872e+01 4.727644e+01 5.789087e+01 6.153288e+01 3.529974e+01 4.558274e+01 4.504932e+01 5.913426e+01 8.802441e-01 1.024001e+00 2.428611e+00 1.142994e+00 2.370197e+00 1.932152e+00 1.544894e+00 1.918619e+00 2.022134e+00 1.194519e+00 1.820401e+00 1.457664e+00 2.089400e+00 9.659062e-02 1.214219e-01 2.434528e-01 1.394531e-01 3.692644e-01 1.974543e-01 1.816257e-01 2.103404e-01 2.149862e-01 1.539191e-01 1.984112e-01 1.982063e-01 2.732196e-01
<GCONST> 1.067278e+02
<STATE> 4
<MEAN> 39
 1.372633e+00 -5.916659e+00 4.056911e-01 -5.695980e+00 -4.009266e+00 -1.923341e+00 -3.984292e+00 1.207530e+00 -1.209186e+00 8.012266e-02 -2.091459e+00 -4.676748e+00 1.031618e+01 2.451968e-01 1.327205e-01 2.210287e-01 9.177793e-02 -3.849911e-01 1.174341e-01 8.881225e-02 -2.318911e-01 -1.708829e-01 -2.454304e-01 8.931580e-03 -1.628930e-01 1.003535e-01 -2.810474e-02 1.697516e-01 -5.462784e-02 1.574364e-01 1.401482e-01 -2.310066e-02 8.789496e-02 -1.026805e-01 1.430955e-02 2.216856e-02 3.585854e-02 1.525281e-01 -2.812025e-01
<VARIANCE> 39
 2.642787e+01 3.820553e+01 8.032140e+01 3.658969e+01 6.558565e+01 5.367540e+01 4.360043e+01 5.200991e+01 5.588691e+01 3.124319e+01 4.288342e+01 4.162891e+01 7.414648e+01 8.546676e-01 9.033166e-01 1.718049e+00 1.235608e+00 1.902824e+00 1.448479e+00 1.141967e+00 1.438552e+00 1.355514e+00 1.011760e+00 1.162594e+00 1.270209e+00 2.513641e+00 9.531410e-02 1.200969e-01 1.722151e-01 1.309215e-01 2.737002e-01 1.566885e-01 1.585044e-01 1.782800e-01 1.690599e-01 1.210918e-01 1.564382e-01 1.723199e-01 2.940878e-01
<GCONST> 1.016595e+02
<TRANSP> 5
 0.000000e+00 1.000000e+00 0.000000e+00 0.000000e+00 0.000000e+00
 0.000000e+00 7.650306e-01 2.349694e-01 0.000000e+00 0.000000e+00
 0.000000e+00 0.000000e+00 5.537585e-01 4.462415e-01 0.000000e+00
 0.000000e+00 0.000000e+00 0.000000e+00 4.282562e-01 5.717438e-01
 0.000000e+00 0.000000e+00 0.000000e+00 0.000000e+00 0.000000e+00
<ENDHMM>
~h "l"
<BEGINHMM>
<NUMSTATES> 5
<STATE> 2
<MEAN> 39
 2.073958e+00 -2.324678e+00 7.038578e+00 -3.747283e+00 -1.385065e+00 -3.437825e+00 -1.068295e+01 -3.249587e+00 -1.087112e+00 -3.969300e+00 -3.747713e+00 -2.305991e+00 8.603938e+00 1.505062e-01 -8.595331e-02 4.836501e-01 -3.364702e-01 1.623909e-01 -5.478468e-02 -1.033843e+00 5.108386e-03 1.009906e-01 -7.148367e-02 -1.479272e-01 -1.017702e-01 2.129814e-01 -1.538518e-02 -1.171119e-01 -2.702113e-01 -4.345619e-02 -1.694908e-01 4.431517e-02 3.213999e-01 1.576485e-01 4.739620e-03 1.436320e-01 1.014615e-01 -4.743602e-02 1.197561e-01
<VARIANCE> 39
 1.419706e+01 2.564442e+01 6.163140e+01 3.405489e+01 5.269557e+01 5.182465e+01 9.571426e+01 6.315516e+01 4.646814e+01 5.758029e+01 4.332875e+01 4.283806e+01 5.332073e+01 4.381537e-01 1.031047e+00 2.309241e+00 8.827831e-01 1.776499e+00 1.453880e+00 2.769312e+00 2.223918e+00 1.521522e+00 1.288757e+00 1.296446e+00 1.115194e+00 1.594733e+00 5.013705e-02 1.145022e-01 2.164302e-01 1.040983e-01 2.258221e-01 1.831763e-01 4.131947e-01 2.743543e-01 1.682503e-01 1.862050e-01 1.686943e-01 1.399188e-01 1.306384e-01
<GCONST> 1.018703e+02
<STATE> 3
<MEAN> 39
 3.108178e+00 -6.188370e+00 3.431360e+00 -6.837559e+00 -4.148057e+00 -4.056747e+00 -1.113235e+01 6.497635e-01 1.235761e+00 -1.776627e+00 -3.234189e+00 -5.265833e+00 1.316510e+01 1.257229e-01 -2.816812e-01 -7.318302e-01 3.899691e-02 -2.199924e-01 3.218248e-02 7.812595e-01 4.431295e-01 8.494023e-03 4.438904e-01 2.438392e-01 -2.218108e-01 1.283804e-01 1.107464e-02 1.406006e-01 -3.518858e-02 1.391030e-01 8.539387e-02 5.391125e-02 1.746325e-01 -1.669082e-01 -1.441803e-01 -2.286189e-03 5.871074e-02 5.269898e-02 -2.081379e-01
<VARIANCE> 39
 1.119220e+01 2.642645e+01 5.462585e+01 2.912566e+01 4.515044e+01 4.087988e+01 7.005437e+01 7.910754e+01 4.487054e+01 4.824370e+01 3.942345e+01 4.390590e+01 5.607966e+01 3.560247e-01 1.077390e+00 1.931597e+00 9.313217e-01 1.544155e+00 1.132886e+00 2.324351e+00 2.659447e+00 1.450975e+00 1.432658e+00 1.181276e+00 1.017456e+00 1.414656e+00 4.222547e-02 1.408757e-01 2.229094e-01 1.057257e-01 1.863634e-01 1.376490e-01 3.441670e-01 3.420739e-01 1.719640e-01 1.605728e-01 1.493326e-01 1.243963e-01 1.894780e-01
<GCONST> 9.940142e+01
<STATE> 4
<MEAN> 39
 3.992330e+00 -2.904949e+00 3.349476e+00 -3.202926e+00 -3.276811e+00 -3.896477e+00 -7.995549e+00 -2.265892e+00 -1.173609e+00 -1.725123e-01 -2.681935e+00 -3.451498e+00 6.726752e+00 -7.247973e-03 3.167748e-01 -4.410215e-01 3.505127e-01 1.258606e-01 1.195865e-01 7.548493e-01 -1.250879e-01 -1.209345e-01 1.904242e-01 2.352791e-01 4.890582e-02 -6.033702e-01 -5.755179e-02 1.189043e-03 -4.311262e-02 -3.719110e-02 1.015687e-02 1.058505e-02 8.925751e-02 5.604022e-02 1.568513e-02 -5.536356e-02 2.321713e-02 4.089914e-02 1.869831e-02
<VARIANCE> 39
 1.125528e+01 2.813524e+01 5.441223e+01 3.056940e+01 4.042569e+01 4.638507e+01 5.125872e+01 5.796736e+01 4.140609e+01 3.174547e+01 3.623710e+01 3.267088e+01 4.654449e+01 4.195252e-01 9.671115e-01 1.300572e+00 9.174331e-01 1.174526e+00 1.127084e+00 1.651190e+00 1.753535e+00 1.108001e+00 9.817562e-01 1.102759e+00 8.334113e-01 1.342246e+00 3.553099e-02 9.335466e-02 1.187194e-01 9.720481e-02 1.144319e-01 1.287958e-01 1.866938e-01 1.889085e-01 1.283606e-01 1.033069e-01 1.275622e-01 9.048463e-02 1.151639e-01
<GCONST> 9.071648e+01
<TRANSP> 5
 0.000000e+00 1.000000e+00 0.000000e+00 0.000000e+00 0.000000e+00
 0.000000e+00 7.170781e-01 2.829219e-01 0.000000e+00 0.000000e+00
 0.000000e+00 0.000000e+00 6.367285e-01 3.632714e-01 0.000000e+00
 0.000000e+00 0.000000e+00 0.000000e+00 6.262620e-01 3.737380e-01
 0.000000e+00 0.000000e+00 0.000000e+00 0.000000e+00 0.000000e+00
<ENDHMM>
~h "m"
<BEGINHMM>
<NUMSTATES> 5
<STATE> 2
<MEAN> 39
 4.907641e+00 -2.078112e-01 2.537533e+00 2.264822e+00 -1.121925e+00 -4.605692e-01 -4.169340e+00 -7.224798e+00 -5.868658e+00 -1.916531e+00 -1.225965e-01 -5.246545e+00 3.801733e+00 2.774768e-01 1.668912e-01 5.709903e-01 5.436274e-01 -9.978735e-02 5.106214e-02 -1.662134e-01 -8.234506e-01 -7.824302e-01 -8.720338e-02 1.100176e-01 -2.443083e-01 -1.304041e-01 -1.166190e-01 -1.808355e-01 -2.681545e-02 -2.654492e-01 -8.770245e-02 -1.904429e-02 2.159767e-02 3.039348e-01 1.561704e-01 -1.838766e-02 -4.562259e-02 8.335602e-02 2.479064e-01
<VARIANCE> 39
 1.300779e+01 2.387395e+01 3.756158e+01 2.873934e+01 3.256166e+01 3.889073e+01 3.640498e+01 4.276112e+01 3.798902e+01 2.607434e+01 3.786438e+01 3.073163e+01 3.685332e+01 4.618335e-01 6.317309e-01 1.372563e+00 9.794425e-01 1.255284e+00 1.060624e+00 1.068455e+00 1.326732e+00 1.128190e+00 7.879238e-01 1.101929e+00 8.535118e-01 1.112153e+00 4.918656e-02 6.453706e-02 1.425389e-01 9.758521e-02 1.173237e-01 9.535451e-02 1.227455e-01 1.671711e-01 1.477950e-01 9.315036e-02 1.237261e-01 1.029481e-01 6.773247e-02
<GCONST> 8.633694e+01
<STATE> 3
<MEAN> 39
 5.194359e+00 -1.305864e+00 4.600469e+00 2.838037e+00 -1.398480e+00 7.072478e-04 -4.965979e+00 -8.255395e+00 -7.906206e+00 -2.801544e+00 3.573510e-01 -5.433405e+00 5.294891e+00 -5.003520e-02 -5.241555e-01 -8.577644e-02 -6.183541e-01 -2.626685e-01 1.174667e-01 2.859468e-02 6.015522e-01 1.020981e-01 -2.421112e-01 -5.755726e-02 9.748532e-02 7.535818e-01 -9.339124e-02 -1.518638e-01 -2.129488e-01 -3.544031e-01 -7.703242e-02 2.832807e-02 8.450375e-02 4.463528e-01 3.033384e-01 2.751944e-02 -4.669758e-02 6.636216e-02 2.091119e-01
<VARIANCE> 39
 9.729271e+00 2.193065e+01 3.456252e+01 2.517632e+01 2.891269e+01 4.562408e+01 3.200961e+01 4.358133e+01 4.209854e+01 3.077226e+01 4.067841e+01 2.988034e+01 2.779507e+01 3.621642e-01 6.942390e-01 1.579518e+00 1.129546e+00 1.187298e+00 9.669857e-01 1.040292e+00 1.809695e+00 1.257360e+00 9.778737e-01 1.037651e+00 7.627200e-01 9.629851e-01 4.570768e-02 6.357068e-02 2.206257e-01 1.051703e-01 1.197412e-01 1.054313e-01 1.375971e-01 1.737031e-01 2.005486e-01 1.340678e-01 1.594972e-01 1.158512e-01 6.951862e-02
<GCONST> 8.774883e+01
<STATE> 4
<MEAN> 39
 4.376103e+00 -1.218521e+00 2.948839e+00 -3.993536e-01 -2.446545e+00 -8.304546e-01 -3.491311e+00 -4.817987e+00 -4.984882e+00 -2.417555e+00 -9.688983e-01 -4.573567e+00 5.685885e+00 -1.151644e-01 -3.269956e-01 -1.771539e-01 -6.920993e-01 -3.208358e-01 1.616904e-01 2.236983e-01 7.499785e-01 2.890438e-01 -6.423707e-02 1.356379e-02 7.301294e-02 4.827618e-01 -2.675651e-02 -1.727368e-02 -2.102226e-02 -5.880148e-02 -1.576864e-02 1.062373e-02 2.856552e-02 6.535362e-02 3.647814e-02 2.351183e-02 1.992371e-03 1.420574e-02 1.505007e-02
<VARIANCE> 39
 1.113526e+01 2.644119e+01 4.164688e+01 3.029427e+01 3.397559e+01 3.934314e+01 3.415442e+01 4.575913e+01 3.073588e+01 2.989586e+01 3.618747e+01 2.697734e+01 2.773756e+01 2.851431e-01 5.862600e-01 1.429616e+00 9.852793e-01 1.213077e+00 7.401158e-01 9.414003e-01 1.370176e+00 9.664310e-01 8.445527e-01 8.351500e-01 6.339789e-01 6.421767e-01 2.847200e-02 5.195628e-02 9.191807e-02 7.738443e-02 9.547036e-02 7.815055e-02 8.396009e-02 1.212714e-01 1.003465e-01 8.737558e-02 9.910486e-02 7.151307e-02 4.139502e-02
<GCONST> 7.968513e+01
<TRANSP> 5
 0.000000e+00 1.000000e+00 0.000000e+00 0.000000e+00 0.000000e+00
 0.000000e+00 4.895626e-01 5.104374e-01 0.000000e+00 0.000000e+00
 0.000000e+00 0.000000e+00 5.507403e-01 4.492597e-01 0.000000e+00
 0.000000e+00 0.000000e+00 0.000000e+00 6.759027e-01 3.240973e-01
 0.000000e+00 0.000000e+00 0.000000e+00 0.000000e+00 0.000000e+00
<ENDHMM>
~h "n"
<BEGINHMM>
<NUMSTATES> 5
<STATE> 2
<MEAN> 39
 4.817724e+00 -2.649697e+00 3.474703e+00 8.985320e-01 -4.600182e+00 -1.841700e+00 -3.986125e+00 -2.637314e+00 -2.182700e+00 -2.059815e+00 -4.703198e+00 -4.005371e+00 5.339441e+00 2.936235e-01 6.112901e-01 6.320884e-01 9.784101e-01 -3.718197e-01 -1.251410e-01 4.686135e-02 -1.180800e+00 -1.162446e-01 2.296100e-01 -5.377190e-01 5.992266e-02 -8.430477e-01 -7.842461e-02 -2.130953e-02 -1.166384e-01 -1.405336e-01 9.063531e-02 5.271456e-02 4.591093e-02 6.550789e-02 8.225690e-03 5.657095e-03 7.448084e-02 2.306612e-02 1.002799e-01
<VARIANCE> 39
 1.161684e+01 2.770372e+01 3.838834e+01 3.678588e+01 3.902342e+01 3.370954e+01 4.429876e+01 7.882851e+01 3.471649e+01 3.471780e+01 3.677928e+01 2.730236e+01 4.618515e+01 3.543097e-01 7.536961e-01 1.579841e+00 9.418547e-01 1.343335e+00 8.739896e-01 9.837713e-01 1.946924e+00 9.606751e-01 1.060661e+00 1.001845e+00 6.873186e-01 9.461982e-01 4.104736e-02 7.031183e-02 1.160101e-01 1.173526e-01 1.100220e-01 8.879813e-02 1.056164e-01 2.222654e-01 9.815355e-02 1.047146e-01 1.066050e-01 7.817051e-02 8.194095e-02
<GCONST> 8.696932e+01
<STATE> 3
<MEAN> 39
 5.606686e+00 -6.363792e-01 4.843875e+00 4.306880e+00 -6.210531e+00 -2.305442e+00 -3.124200e+00 -7.104337e+00 -2.220604e+00 -1.361765e+00 -6.544289e+00 -3.714568e+00 3.151203e+00 -8.483370e-02 1.526534e-01 2.422812e-02 1.108445e-02 1.640971e-01 -4.190830e-02 3.050356e-02 -5.392941e-02 -1.783746e-01 1.878908e-02 9.213022e-03 3.295971e-02 -1.210041e-01 -1.919772e-01 -2.224336e-01 -1.766534e-01 -4.725786e-01 1.720752e-01 6.487521e-02 -2.132421e-02 5.063817e-01 -1.645636e-02 -7.891874e-02 3.056152e-01 -1.095547e-02 3.339822e-01
<VARIANCE> 39
 1.095865e+01 1.919235e+01 3.264249e+01 2.738288e+01 3.363779e+01 2.841119e+01 3.282594e+01 4.945245e+01 3.020518e+01 2.961202e+01 3.676455e+01 2.513430e+01 2.962917e+01 3.310694e-01 8.774954e-01 1.138981e+00 1.083786e+00 1.106631e+00 8.845988e-01 8.890268e-01 2.131211e+00 9.522918e-01 7.254052e-01 1.028247e+00 6.143836e-01 1.092208e+00 5.568790e-02 8.107242e-02 1.731345e-01 1.319543e-01 1.633981e-01 1.238721e-01 1.203194e-01 2.213644e-01 1.166017e-01 1.296481e-01 1.543813e-01 9.274688e-02 8.787852e-02
<GCONST> 8.636606e+01
<STATE> 4
<MEAN> 39
 4.400873e+00 5.036513e-01 2.530064e+00 1.792290e+00 -3.492820e+00 -1.721709e+00 -3.128596e+00 -4.383619e+00 -2.512138e+00 -1.116917e+00 -4.531563e+00 -2.867790e+00 1.159078e+00 -2.866440e-01 -7.403760e-02 -2.203072e-01 -4.150618e-01 3.298949e-01 6.115349e-02 8.240661e-02 4.462489e-01 -4.397755e-02 -4.833250e-02 4.703830e-01 7.480783e-02 5.719189e-02 -7.967189e-02 -1.069907e-01 -1.514933e-02 -1.457507e-01 6.605882e-03 7.639302e-03 4.009584e-02 1.052158e-01 1.125514e-02 -8.474166e-03 9.184654e-02 9.790378e-03 1.598879e-01
<VARIANCE> 39
 1.131860e+01 2.334470e+01 3.927355e+01 2.638112e+01 3.316909e+01 3.375072e+01 3.269867e+01 4.446420e+01 3.282861e+01 2.820423e+01 3.660273e+01 2.590895e+01 3.390309e+01 3.584420e-01 6.358610e-01 1.059514e+00 9.054321e-01 9.769577e-01 7.929326e-01 7.954270e-01 1.395287e+00 8.733568e-01 7.036530e-01 9.879494e-01 6.201019e-01 8.265586e-01 4.258747e-02 6.469323e-02 9.375539e-02 7.796887e-02 1.035763e-01 9.869879e-02 9.198683e-02 1.310356e-01 8.940544e-02 8.609802e-02 1.016419e-01 7.601535e-02 7.257412e-02
<GCONST> 8.070264e+01
<TRANSP> 5
 0.000000e+00 1.000000e+00 0.000000e+00 0.000000e+00 0.000000e+00
 0.000000e+00 5.170881e-01 4.829119e-01 0.000000e+00 0.000000e+00
 0.000000e+00 0.000000e+00 5.022974e-01 4.977025e-01 0.000000e+00
 0.000000e+00 0.000000e+00 0.000000e+00 6.712127e-01 3.287873e-01
 0.000000e+00 0.000000e+00 0.000000e+00 0.000000e+00 0.000000e+00
<ENDHMM>
~h "o"
<BEGINHMM>
<NUMSTATES> 5
<STATE> 2
<MEAN> 39
 2.330422e+00 1.276978e+00 -2.502645e+00 -3.942055e+00 3.729707e+00 1.079007e+00 -1.278412e+00 -2.880511e+00 -1.725723e+00 9.590932e-01 4.158951e-01 4.569776e-01 5.101466e+00 8.664773e-01 -8.731675e-02 -6.028277e-01 -1.515777e+00 -5.715466e-01 9.628388e-01 -5.465181e-01 -5.884907e-01 -6.256701e-01 -1.920313e-02 5.429164e-01 1.295359e-01 1.131318e+00 5.655390e-02 5.088870e-02 6.093845e-02 -7.637136e-02 -2.390111e-01 1.079028e-01 -7.473298e-02 -5.400332e-02 -8.529524e-02 -7.264970e-02 5.712050e-02 -2.254679e-02 -6.492241e-02
<VARIANCE> 39
 2.719015e+01 3.039544e+01 4.687534e+01 5.481466e+01 4.921712e+01 4.993686e+01 5.836840e+01 3.613901e+01 4.240645e+01 3.277401e+01 2.782565e+01 2.854085e+01 7.349487e+01 9.849494e-01 1.028356e+00 1.530972e+00 1.435462e+00 1.876319e+00 1.635853e+00 1.804791e+00 1.292838e+00 1.335272e+00 1.158864e+00 1.180956e+00 9.992011e-01 2.161934e+00 1.219629e-01 1.175878e-01 1.467358e-01 1.766496e-01 1.991741e-01 1.625971e-01 1.914675e-01 1.487210e-01 1.523467e-01 1.395091e-01 1.071472e-01 1.050473e-01 2.237019e-01
<GCONST> 9.933877e+01
<STATE> 3
<MEAN> 39
 6.171760e+00 1.887401e-01 -4.211068e+00 -1.265843e+01 -3.955371e+00 7.252587e+00 -8.313198e+00 -6.622650e+00 -5.136817e+00 -3.168424e-01 5.191375e+00 -1.147928e+00 1.174415e+01 3.902548e-01 -9.600006e-03 -3.517835e-02 -4.801883e-01 -4.693978e-01 3.786437e-01 -4.544221e-01 -2.420300e-01 -2.702650e-01 -1.560956e-01 1.699685e-01 -1.366426e-01 4.246467e-02 -2.001345e-01 4.039386e-02 1.491560e-01 4.327195e-01 2.583915e-01 -3.457890e-01 2.575025e-01 1.840538e-01 1.648290e-01 -4.331583e-02 -2.618918e-01 4.901893e-02 -3.351704e-01
<VARIANCE> 39
 1.360958e+01 2.287053e+01 2.968481e+01 4.495919e+01 3.454071e+01 5.971758e+01 5.452259e+01 3.872717e+01 3.892348e+01 4.838977e+01 4.212536e+01 3.980282e+01 3.469563e+01 6.257069e-01 7.403196e-01 1.078282e+00 2.522335e+00 1.861009e+00 2.359759e+00 2.172659e+00 1.361934e+00 1.566525e+00 1.572852e+00 1.462582e+00 1.143790e+00 1.711275e+00 7.812671e-02 9.697728e-02 1.270513e-01 1.905095e-01 1.872437e-01 2.149883e-01 2.565072e-01 1.888225e-01 1.657972e-01 2.215683e-01 1.802331e-01 1.518634e-01 1.530971e-01
<GCONST> 9.953935e+01
<STATE> 4
<MEAN> 39
 6.774923e+00 2.230824e+00 -4.161270e+00 -1.027781e+01 -1.268916e+00 4.625771e+00 -5.026558e+00 -5.803049e+00 -4.860123e+00 -1.217694e+00 2.041905e+00 7.153927e-01 4.595991e+00 -2.816847e-01 2.196542e-01 1.618155e-01 9.098668e-01 4.099523e-01 -6.614886e-01 2.495168e-01 1.635415e-01 3.039862e-01 3.192685e-02 -2.724831e-01 -1.489067e-02 -7.981437e-01 -1.150629e-01 -3.782423e-02 3.517091e-02 1.153451e-01 6.023725e-02 -8.844769e-02 2.349658e-02 2.838333e-02 7.440352e-02 5.309168e-02 6.646487e-03 -1.513262e-02 3.189360e-02
<VARIANCE> 39
 1.178338e+01 2.224463e+01 2.536675e+01 6.061898e+01 3.285361e+01 5.535524e+01 4.193472e+01 3.375427e+01 3.686142e+01 3.731342e+01 2.986197e+01 3.205650e+01 4.359880e+01 4.391387e-01 7.291797e-01 6.766444e-01 1.477686e+00 9.967985e-01 1.303874e+00 1.070798e+00 8.472617e-01 9.043656e-01 1.049296e+00 8.921880e-01 7.557741e-01 1.308974e+00 4.237673e-02 8.382016e-02 7.355233e-02 1.734172e-01 1.250971e-01 1.303964e-01 1.396419e-01 1.147773e-01 1.180493e-01 1.433342e-01 1.113294e-01 1.064695e-01 1.599111e-01
<GCONST> 8.746053e+01
<TRANSP> 5
 0.000000e+00 1.000000e+00 0.000000e+00 0.000000e+00 0.000000e+00
 0.000000e+00 6.786141e-01 3.213859e-01 0.000000e+00 0.000000e+00
 0.000000e+00 0.000000e+00 7.501401e-01 2.498599e-01 0.000000e+00
 0.000000e+00 0.000000e+00 0.000000e+00 8.364781e-01 1.635219e-01
 0.000000e+00 0.000000e+00 0.000000e+00 0.000000e+00 0.000000e+00
<ENDHMM>
~h "p"
<BEGINHMM>
<NUMSTATES> 5
<STATE> 2
<MEAN> 39
 1.138375e-01 -3.640265e-01 -3.477622e+00 -1.381535e+00 1.302473e+00 -8.946902e-01 6.590875e-01 -7.771369e-01 2.268875e+00 1.979832e+00 1.462439e+00 -9.768554e-02 9.370183e-01 2.352682e-01 -7.909201e-01 -2.918820e-01 -6.573805e-01 8.456763e-02 4.377255e-01 -4.389885e-02 -8.142135e-02 -3.125308e-02 -5.454918e-02 -1.786973e-01 -4.193549e-01 2.024325e+00 1.656550e-01 -1.822277e-01 -2.876199e-02 -1.230619e-01 -1.323490e-01 8.644786e-02 -1.689456e-01 1.922618e-02 -6.966138e-02 -7.748665e-02 -1.108143e-01 -1.739905e-01 3.219429e-01
<VARIANCE> 39
 2.244806e+01 2.684692e+01 3.224741e+01 2.938205e+01 3.694171e+01 4.076116e+01 3.337865e+01 2.862638e+01 2.648884e+01 2.378399e+01 2.593941e+01 3.029295e+01 8.938628e+01 9.363983e-01 9.355797e-01 1.196276e+00 1.226260e+00 1.352661e+00 1.868734e+00 1.195500e+00 1.246939e+00 1.202301e+00 1.038451e+00 8.895639e-01 1.274344e+00 3.373867e+00 9.038561e-02 9.253640e-02 1.283787e-01 1.221852e-01 1.436974e-01 1.782071e-01 1.369968e-01 1.319052e-01 1.225431e-01 1.069116e-01 1.014257e-01 1.332359e-01 3.801816e-01
<GCONST> 9.363463e+01
<STATE> 3
<MEAN> 39
 3.905818e+00 -7.300742e+00 -7.184315e+00 -7.901241e+00 -7.743436e-01 3.956106e+00 -2.977551e+00 -1.352631e+00 1.503475e+00 1.012420e+00 -5.078340e-01 -6.810410e+00 1.465804e+01 4.661395e-01 -8.975683e-01 -2.283599e-01 -3.076752e-01 -3.687319e-01 3.465946e-02 -7.225865e-01 3.248499e-01 4.438776e-02 -3.711188e-01 -4.625827e-01 -6.240029e-01 1.248876e+00 -8.497948e-02 2.167442e-01 1.991956e-01 3.230973e-01 -1.067721e-02 -2.877195e-01 2.441544e-02 7.749727e-02 -1.560716e-03 -7.523063e-02 -1.509040e-02 2.561203e-01 -5.946153e-01
<VARIANCE> 39
 2.157626e+01 2.617616e+01 4.135635e+01 4.141730e+01 4.240942e+01 7.074361e+01 4.099126e+01 4.651259e+01 3.982847e+01 3.978808e+01 4.070742e+01 3.940073e+01 8.162775e+01 8.018990e-01 1.037947e+00 1.345547e+00 1.521072e+00 1.604845e+00 2.348368e+00 1.332030e+00 1.668117e+00 1.303961e+00 1.228136e+00 1.273586e+00 1.371683e+00 2.690182e+00 9.744937e-02 1.224158e-01 1.620256e-01 1.669264e-01 1.942222e-01 2.362911e-01 1.660211e-01 2.052647e-01 1.697308e-01 1.397369e-01 1.629588e-01 1.855747e-01 3.229979e-01
<GCONST> 1.019761e+02
<STATE> 4
<MEAN> 39
 3.967556e+00 -8.364258e+00 -7.431653e+00 -6.729942e+00 1.859888e+00 2.952332e+00 -4.014664e+00 -1.869527e-01 6.748853e-01 -1.232525e+00 -3.450660e+00 -6.201219e+00 1.218200e+01 8.821452e-02 3.244792e-02 3.273369e-01 4.278629e-01 -2.786970e-01 -7.072206e-01 -1.592949e-01 2.892039e-01 2.119317e-02 -1.841258e-01 -4.211623e-01 1.831886e-01 -3.052590e-01 -5.605512e-02 1.853628e-01 1.075786e-01 9.802479e-02 -1.761528e-02 -5.702001e-02 1.134444e-01 -3.666254e-02 -2.744511e-02 1.415641e-02 5.333407e-02 1.246282e-01 -2.091534e-01
<VARIANCE> 39
 1.622927e+01 3.032311e+01 3.776139e+01 3.298589e+01 4.577550e+01 7.539448e+01 4.041262e+01 5.588161e+01 4.461515e+01 4.652219e+01 3.717945e+01 3.078859e+01 7.765189e+01 4.956444e-01 8.665714e-01 7.685641e-01 9.369054e-01 1.052929e+00 1.472378e+00 1.071770e+00 1.144962e+00 8.802185e-01 7.660611e-01 9.704373e-01 8.484600e-01 1.899769e+00 7.298160e-02 9.773903e-02 1.089411e-01 1.140431e-01 1.380911e-01 1.865710e-01 1.335481e-01 1.520405e-01 1.155720e-01 1.004451e-01 1.302514e-01 1.228707e-01 2.706504e-01
<GCONST> 9.264359e+01
<TRANSP> 5
 0.000000e+00 1.000000e+00 0.000000e+00 0.000000e+00 0.000000e+00
 0.000000e+00 7.443551e-01 2.556448e-01 0.000000e+00 0.000000e+00
 0.000000e+00 0.000000e+00 6.039501e-01 3.960499e-01 0.000000e+00
 0.000000e+00 0.000000e+00 0.000000e+00 6.583300e-01 3.416701e-01
 0.000000e+00 0.000000e+00 0.000000e+00 0.000000e+00 0.000000e+00
<ENDHMM>
~h "r"
<BEGINHMM>
<NUMSTATES> 5
<STATE> 2
<MEAN> 39
 4.214913e+00 -6.505239e+00 -1.442083e+00 -1.135243e+00 -4.327415e+00 -3.445508e+00 -6.113903e+00 1.184846e+00 3.603096e+00 -1.555053e+00 -3.518945e+00 -2.461973e+00 1.005494e+01 2.754022e-01 -6.274144e-02 5.790032e-01 5.287480e-01 -4.242779e-01 -2.715646e-01 -4.586489e-01 7.506166e-02 -2.823842e-01 -1.180533e-01 1.318117e-01 3.088487e-01 -3.932315e-01 -4.206591e-02 1.271378e-01 -5.863183e-03 -1.306255e-01 9.694117e-02 1.658227e-01 1.030433e-01 -9.477875e-02 -1.989741e-01 7.226306e-02 1.264080e-01 -6.368332e-02 -9.606162e-02
<VARIANCE> 39
 1.651827e+01 3.026501e+01 3.546711e+01 3.842533e+01 5.137654e+01 4.838053e+01 6.111977e+01 5.426439e+01 4.098254e+01 3.342699e+01 3.469062e+01 3.473825e+01 5.901343e+01 5.633163e-01 9.194223e-01 1.245975e+00 1.428141e+00 1.654566e+00 1.455526e+00 1.473935e+00 1.880219e+00 1.369207e+00 1.000430e+00 1.092287e+00 1.238156e+00 1.898789e+00 6.078516e-02 9.468687e-02 1.109810e-01 1.708685e-01 1.860109e-01 1.527678e-01 1.853346e-01 1.939544e-01 1.579529e-01 1.327418e-01 1.298386e-01 1.447423e-01 1.560185e-01
<GCONST> 9.679672e+01
<STATE> 3
<MEAN> 39
 4.767349e+00 -6.235095e+00 1.940830e+00 -2.797157e-01 -5.578744e+00 -3.529106e+00 -7.931849e+00 1.054721e+00 9.576018e-02 -1.162327e+00 -2.006990e+00 -1.576043e+00 8.688588e+00 9.157963e-02 4.129145e-01 2.696922e-01 1.508956e-01 1.477683e-01 1.304730e-01 7.103978e-02 -2.608208e-01 -5.363681e-01 1.755833e-01 2.605948e-01 6.189169e-02 -6.905509e-01 -1.082438e-01 1.235377e-01 -1.801113e-01 -1.793742e-01 1.667048e-01 1.301539e-01 2.229526e-01 -7.546439e-02 1.151194e-02 4.986026e-02 1.972070e-03 -1.259263e-01 -5.653881e-03
<VARIANCE> 39
 1.583480e+01 2.712398e+01 5.112808e+01 3.426421e+01 5.689636e+01 4.780335e+01 5.722427e+01 5.621822e+01 5.614703e+01 3.555633e+01 3.639914e+01 3.480458e+01 3.989149e+01 4.937755e-01 8.864277e-01 1.473977e+00 1.097819e+00 1.550407e+00 1.269401e+00 1.384600e+00 1.738350e+00 1.847913e+00 1.055386e+00 1.199589e+00 9.487031e-01 1.513008e+00 5.131131e-02 8.633839e-02 1.335027e-01 1.534350e-01 1.988371e-01 1.485708e-01 1.617201e-01 2.022144e-01 1.992190e-01 1.426165e-01 1.508166e-01 1.456656e-01 1.246751e-01
<GCONST> 9.633339e+01
<STATE> 4
<MEAN> 39
 4.756017e+00 -2.510025e+00 -1.496332e+00 -1.312539e-01 -2.589132e+00 -3.066203e+00 -4.957792e+00 -3.063911e-02 2.112915e+00 7.296984e-01 -2.082777e+00 -2.483328e+00 2.157703e+00 -1.568840e-01 4.523071e-01 -1.610790e-01 -4.356498e-02 3.247026e-01 2.427483e-01 3.682781e-01 -1.249956e-01 -1.405537e-01 1.359291e-01 1.829221e-01 -5.602343e-02 -5.958481e-01 -7.486939e-02 -5.752031e-02 -3.504574e-02 -9.583163e-02 4.403403e-03 2.805141e-02 7.198589e-02 3.028888e-02 7.829241e-03 -3.209256e-02 -2.655446e-03 -8.626653e-03 1.467576e-01
<VARIANCE> 39
 1.254816e+01 2.695414e+01 4.126326e+01 2.650358e+01 4.005745e+01 4.194429e+01 3.908870e+01 4.420491e+01 4.328784e+01 3.104773e+01 2.965104e+01 3.032504e+01 5.116745e+01 3.992426e-01 7.764925e-01 1.028453e+00 7.488859e-01 1.072846e+00 9.249585e-01 9.455464e-01 1.143646e+00 1.119032e+00 7.524971e-01 7.422591e-01 7.499506e-01 1.049135e+00 4.407500e-02 7.691167e-02 9.630681e-02 9.028544e-02 1.264866e-01 1.049905e-01 1.165014e-01 1.376518e-01 1.162898e-01 1.048464e-01 9.468635e-02 9.968501e-02 9.429415e-02
<GCONST> 8.493049e+01
<TRANSP> 5
 0.000000e+00 1.000000e+00 0.000000e+00 0.000000e+00 0.000000e+00
 0.000000e+00 4.536596e-01 5.463404e-01 0.000000e+00 0.000000e+00
 0.000000e+00 0.000000e+00 4.389219e-01 5.610781e-01 0.000000e+00
 0.000000e+00 0.000000e+00 0.000000e+00 6.904383e-01 3.095617e-01
 0.000000e+00 0.000000e+00 0.000000e+00 0.000000e+00 0.000000e+00
<ENDHMM>
~h "s"
<BEGINHMM>
<NUMSTATES> 5
<STATE> 2
<MEAN> 39
 -8.131083e+00 4.604594e+00 -2.153473e+00 -5.648624e-01 4.626324e+00 -6.422796e+00 4.541951e+00 -7.932870e-01 1.510499e+00 -4.219866e-01 1.487834e-01 2.040118e+00 5.512625e+00 -1.475822e+00 8.358994e-01 -4.712956e-01 7.124926e-02 6.507198e-01 -4.185080e-01 9.045119e-01 3.152934e-02 4.593277e-01 6.268733e-02 3.846038e-01 5.606816e-01 1.496202e-02 1.607518e-01 -1.599553e-01 1.799839e-03 -5.768199e-02 -1.511271e-01 9.884133e-02 -1.391046e-01 -1.306322e-03 -5.278404e-02 -4.788389e-04 -2.058018e-02 -8.998102e-02 2.459594e-02
<VARIANCE> 39
 5.718744e+01 4.419807e+01 5.730102e+01 3.907398e+01 5.050160e+01 4.522696e+01 5.120298e+01 4.187718e+01 3.913940e+01 2.910904e+01 3.747292e+01 3.100516e+01 5.358552e+01 1.633026e+00 1.609339e+00 1.357159e+00 9.978086e-01 1.497702e+00 1.261405e+00 1.464283e+00 1.146131e+00 1.047751e+00 7.524475e-01 9.810632e-01 8.769724e-01 1.253344e+00 2.348150e-01 1.562392e-01 1.527520e-01 1.088132e-01 1.583744e-01 1.298977e-01 1.639844e-01 1.214548e-01 1.174225e-01 8.985726e-02 1.204080e-01 9.741165e-02 9.972779e-02
<GCONST> 9.646357e+01
<STATE> 3
<MEAN> 39
 -1.164940e+01 5.535092e+00 -3.828004e+00 -7.853756e-01 5.964511e+00 -7.227593e+00 6.680991e+00 -5.513567e-01 2.958263e+00 -4.758787e-01 5.981061e-01 3.462647e+00 7.209352e+00 1.505451e+00 -1.058893e+00 4.317453e-01 -2.640007e-01 -6.906565e-01 3.827791e-01 -9.331154e-01 9.909936e-02 -1.906554e-01 -6.604056e-02 -3.610323e-01 -5.634077e-01 3.449217e-01 4.741360e-01 -2.681133e-01 1.139567e-01 -1.175800e-01 -2.708114e-01 1.356524e-01 -3.735563e-01 -3.893537e-02 -1.361929e-01 -2.615723e-03 -9.184643e-02 -2.485022e-01 1.006882e-01
<VARIANCE> 39
 4.513424e+01 3.668513e+01 4.930075e+01 3.624850e+01 4.150891e+01 3.891724e+01 4.584192e+01 3.586670e+01 3.239154e+01 2.520559e+01 3.341203e+01 2.724151e+01 3.025607e+01 2.273323e+00 1.446985e+00 1.747758e+00 1.003977e+00 1.744904e+00 1.430555e+00 1.853953e+00 1.234443e+00 1.126919e+00 8.145683e-01 1.177881e+00 1.135420e+00 1.169920e+00 2.529602e-01 1.684307e-01 1.660457e-01 1.084053e-01 1.655437e-01 1.487146e-01 1.849062e-01 1.481847e-01 1.146900e-01 1.082613e-01 1.492480e-01 1.098515e-01 7.416579e-02
<GCONST> 9.658047e+01
<STATE> 4
<MEAN> 39
 8.247070e-01 -3.555745e+00 -4.285715e-02 -4.489337e+00 -2.561053e+00 -4.599869e+00 -4.283464e+00 4.774173e-01 4.741198e-02 -5.738719e-01 -1.863419e+00 -2.717853e+00 1.133194e+01 1.333990e+00 -8.424556e-01 1.775915e-01 -4.151054e-01 -9.258959e-01 4.656007e-01 -1.164312e+00 -1.868049e-01 -4.159550e-01 3.111670e-02 -1.226769e-01 -7.777013e-01 2.492350e-01 -3.359400e-01 2.981442e-01 -9.921846e-02 1.205339e-01 2.369959e-01 -1.395956e-03 3.070875e-01 -1.462000e-01 5.130166e-03 -2.454877e-02 9.862380e-02 1.722725e-01 -2.220349e-01
<VARIANCE> 39
 2.132300e+01 2.925235e+01 6.725581e+01 2.946383e+01 7.666243e+01 5.410069e+01 5.692229e+01 4.473435e+01 5.876348e+01 3.136401e+01 4.391061e+01 3.249789e+01 6.052014e+01 1.356467e+00 1.391226e+00 1.844185e+00 1.140655e+00 2.104884e+00 1.794316e+00 2.047896e+00 1.697926e+00 1.467591e+00 9.984062e-01 1.455070e+00 1.214492e+00 1.446421e+00 1.230648e-01 1.322011e-01 1.728339e-01 1.376185e-01 2.323205e-01 1.587105e-01 2.243566e-01 1.837699e-01 1.831728e-01 1.093271e-01 1.760044e-01 1.339867e-01 1.750005e-01
<GCONST> 1.022901e+02
<TRANSP> 5
 0.000000e+00 1.000000e+00 0.000000e+00 0.000000e+00 0.000000e+00
 0.000000e+00 8.509346e-01 1.490654e-01 0.000000e+00 0.000000e+00
 0.000000e+00 0.000000e+00 7.860768e-01 2.139232e-01 0.000000e+00
 0.000000e+00 0.000000e+00 0.000000e+00 6.718545e-01 3.281455e-01
 0.000000e+00 0.000000e+00 0.000000e+00 0.000000e+00 0.000000e+00
<ENDHMM>
~h "t"
<BEGINHMM>
<NUMSTATES> 5
<STATE> 2
<MEAN> 39
 -2.701879e-01 2.674812e-01 -2.071153e+00 -2.247278e-01 -8.589720e-01 -3.803005e+00 2.510059e-01 -1.179542e+00 1.518069e+00 1.606998e+00 1.635557e+00 5.436878e-01 -2.439616e+00 -6.075114e-01 -2.041685e-01 4.857318e-01 -2.524499e-01 4.024104e-02 -1.747229e-01 5.300397e-01 -4.939360e-02 -1.715023e-01 -1.338630e-01 2.587061e-01 3.618502e-01 8.513225e-01 6.179340e-02 -7.617146e-02 2.754338e-01 -8.802186e-02 -1.123087e-01 2.145686e-02 -1.421250e-01 -3.664292e-02 -1.545771e-01 -8.798931e-02 -6.191705e-02 -1.342389e-01 4.519154e-01
<VARIANCE> 39
 2.719959e+01 2.885671e+01 5.543233e+01 2.915492e+01 3.793667e+01 4.067777e+01 4.142675e+01 3.803920e+01 4.415137e+01 2.884348e+01 3.344862e+01 3.434327e+01 5.082628e+01 8.631218e-01 8.960963e-01 2.228671e+00 8.884395e-01 1.396435e+00 1.077377e+00 1.440238e+00 1.100653e+00 1.471627e+00 8.552628e-01 9.951968e-01 9.908093e-01 2.767434e+00 1.373289e-01 1.155781e-01 2.371890e-01 1.119134e-01 2.037155e-01 1.662135e-01 2.233554e-01 1.583166e-01 1.707503e-01 1.257625e-01 1.491872e-01 1.505005e-01 3.002707e-01
<GCONST> 9.774818e+01
<STATE> 3
<MEAN> 39
 -2.147176e+00 -2.113345e+00 3.381883e+00 -2.066008e+00 -2.330358e+00 -4.255683e+00 6.809770e-01 -9.966552e-01 -1.815683e+00 4.539683e-01 2.612252e+00 1.040141e+00 4.816557e+00 4.472140e-02 -2.968001e-01 5.265201e-01 -3.188164e-01 -1.783480e-01 5.979868e-02 -2.009959e-01 -4.973838e-02 -2.037295e-01 -2.022416e-01 -2.143871e-01 -2.677555e-01 1.194336e+00 1.809933e-01 3.493550e-02 -7.339902e-02 -7.270445e-03 -5.523017e-02 1.191684e-01 -1.962416e-01 -2.466732e-02 1.768367e-02 -2.407464e-02 -1.490189e-01 -1.926278e-01 -2.584661e-02
<VARIANCE> 39
 2.443457e+01 2.760096e+01 7.353033e+01 2.877192e+01 7.088322e+01 4.203265e+01 6.692228e+01 4.211361e+01 6.772087e+01 3.099954e+01 3.684666e+01 4.364729e+01 6.826853e+01 7.069712e-01 1.029957e+00 2.925433e+00 1.107906e+00 2.149252e+00 1.427675e+00 1.724431e+00 1.769350e+00 2.228203e+00 1.165498e+00 1.279263e+00 1.402022e+00 3.071416e+00 9.706215e-02 1.096261e-01 2.578878e-01 1.093380e-01 2.758451e-01 1.600293e-01 2.824509e-01 1.677036e-01 2.116639e-01 1.304885e-01 1.586629e-01 1.906929e-01 2.912491e-01
<GCONST> 1.042007e+02
<STATE> 4
<MEAN> 39
 -1.884435e+00 -1.171227e+00 3.289567e-01 -8.763723e-01 9.896274e-01 -3.535943e+00 2.582367e+00 -6.378548e-01 1.498966e+00 -1.151686e-01 6.754216e-01 1.582730e+00 3.606895e+00 3.003840e-01 -2.774558e-01 5.075233e-01 -4.534320e-01 -2.884109e-01 2.318049e-01 -5.173539e-01 -1.227716e-01 -2.667554e-01 -2.666666e-01 -4.140352e-01 -5.739966e-01 1.280257e+00 1.738041e-01 2.553800e-02 2.820116e-03 -4.018862e-02 -1.865421e-01 8.677945e-02 -2.567215e-01 -3.472900e-02 -1.029200e-01 4.270890e-02 -4.821303e-02 -1.727949e-01 -7.601110e-02
<VARIANCE> 39
 2.409111e+01 2.729800e+01 4.209435e+01 2.518933e+01 4.393556e+01 3.906454e+01 5.476144e+01 3.514695e+01 3.783559e+01 2.694564e+01 3.056200e+01 3.005274e+01 6.145070e+01 7.202610e-01 1.078519e+00 2.620039e+00 9.741041e-01 1.684679e+00 1.528880e+00 1.657336e+00 1.970386e+00 1.827197e+00 1.092838e+00 1.209560e+00 1.345921e+00 2.785275e+00 7.815471e-02 9.512971e-02 1.260576e-01 8.172550e-02 1.462613e-01 1.305605e-01 1.864946e-01 1.230450e-01 1.171728e-01 9.904914e-02 1.126572e-01 1.101577e-01 1.896568e-01
<GCONST> 9.531002e+01
<TRANSP> 5
 0.000000e+00 1.000000e+00 0.000000e+00 0.000000e+00 0.000000e+00
 0.000000e+00 6.668677e-01 3.331323e-01 0.000000e+00 0.000000e+00
 0.000000e+00 0.000000e+00 4.477934e-01 5.522066e-01 0.000000e+00
 0.000000e+00 0.000000e+00 0.000000e+00 4.542469e-01 5.457531e-01
 0.000000e+00 0.000000e+00 0.000000e+00 0.000000e+00 0.000000e+00
<ENDHMM>
~h "u"
<BEGINHMM>
<NUMSTATES> 5
<STATE> 2
<MEAN> 39
 2.997582e+00 1.173707e+00 -3.064543e+00 -1.768266e+00 -3.252070e-01 -1.509940e-02 -2.910728e+00 -2.253239e+00 -1.187786e+00 8.041304e-01 1.088193e+00 4.269897e-01 -1.334349e-01 1.534741e-01 2.932816e-01 -1.524451e-01 -3.089075e-01 1.772492e-01 3.521373e-01 2.992573e-02 -2.331224e-01 -4.043936e-01 -7.336560e-02 2.281178e-01 1.754107e-01 -1.012889e-02 -4.502834e-02 -4.154827e-02 1.070286e-01 -5.148174e-02 -3.720657e-03 -5.169915e-04 -4.023755e-02 -1.106955e-02 -3.243004e-02 -5.249509e-02 -2.289188e-02 -3.124695e-02 1.474660e-01
<VARIANCE> 39
 2.671867e+01 2.549582e+01 3.331870e+01 3.874648e+01 4.692408e+01 4.389684e+01 5.389517e+01 4.809807e+01 4.623720e+01 3.924967e+01 3.429708e+01 3.402271e+01 6.945682e+01 9.666486e-01 6.301931e-01 8.762793e-01 1.115878e+00 1.156760e+00 1.245193e+00 1.311503e+00 1.261972e+00 1.322410e+00 9.182120e-01 9.302544e-01 8.015503e-01 1.152172e+00 9.706390e-02 7.363453e-02 1.093662e-01 1.575740e-01 1.432541e-01 1.477255e-01 1.686310e-01 1.579165e-01 1.766233e-01 1.480685e-01 1.277105e-01 1.030773e-01 1.467628e-01
<GCONST> 9.367816e+01
<STATE> 3
<MEAN> 39
 1.436077e-01 3.008640e+00 -1.814575e+00 -2.193711e+00 1.949169e+00 -1.467517e-01 -1.289541e+00 -2.783093e+00 -2.633480e+00 -5.452234e-01 7.233641e-01 1.181788e+00 2.050348e+00 1.753665e-01 5.702637e-02 1.876822e-01 -5.367848e-01 -1.543163e-01 2.260262e-01 -3.392955e-01 -3.601534e-01 -4.968823e-01 -1.548593e-01 1.580498e-01 -6.857768e-02 7.092622e-01 1.367082e-02 -1.131050e-01 1.053855e-01 4.296432e-02 -9.535887e-02 -5.403876e-02 -9.949077e-02 1.424750e-02 4.419404e-02 2.688356e-02 1.341078e-03 -7.712283e-02 1.019739e-01
<VARIANCE> 39
 7.355050e+01 3.488345e+01 4.323942e+01 5.210458e+01 5.300297e+01 6.048071e+01 5.931253e+01 4.419735e+01 4.849139e+01 3.393050e+01 3.589205e+01 3.558474e+01 7.401743e+01 2.173108e+00 9.681613e-01 1.182930e+00 2.042858e+00 1.745565e+00 2.124257e+00 2.026831e+00 1.446570e+00 1.759392e+00 1.064039e+00 1.142763e+00 1.099940e+00 2.087599e+00 2.042658e-01 1.060973e-01 1.446050e-01 2.145818e-01 2.053519e-01 1.868402e-01 2.249589e-01 1.727301e-01 2.116573e-01 1.493141e-01 1.565383e-01 1.227087e-01 1.973036e-01
<GCONST> 1.048150e+02
<STATE> 4
<MEAN> 39
 5.839489e+00 2.580557e-01 -1.578674e+00 -5.309624e+00 -1.243580e+00 2.931615e+00 -7.655306e+00 -5.761217e+00 -5.344459e+00 -2.189412e-01 2.587464e+00 -1.514927e+00 6.639384e+00 -2.437935e-01 -1.479787e-01 4.063901e-01 4.303171e-01 2.095373e-01 -4.928737e-01 -8.411220e-02 1.183944e-01 4.320144e-01 6.318610e-02 -8.329146e-02 -1.023596e-01 1.399459e-01 -2.063540e-01 1.012511e-02 5.488893e-02 1.513387e-01 3.750072e-02 -1.840578e-01 2.238860e-01 1.497163e-01 1.530034e-01 -8.213213e-03 -9.194741e-02 8.559748e-02 -1.520381e-01
<VARIANCE> 39
 2.070403e+01 2.526378e+01 3.821637e+01 6.102867e+01 4.646455e+01 6.717735e+01 5.968634e+01 5.126261e+01 5.893409e+01 3.965119e+01 4.220027e+01 3.944518e+01 4.642043e+01 1.174566e+00 9.648586e-01 1.213369e+00 1.899674e+00 2.073236e+00 2.064924e+00 2.308539e+00 1.872452e+00 1.970564e+00 1.296499e+00 1.416678e+00 1.136812e+00 2.362438e+00 1.222795e-01 1.142434e-01 1.430137e-01 2.769052e-01 2.188870e-01 2.572300e-01 2.666461e-01 2.157731e-01 2.809049e-01 1.800769e-01 2.034043e-01 1.506234e-01 2.227166e-01
<GCONST> 1.057241e+02
<TRANSP> 5
 0.000000e+00 1.000000e+00 0.000000e+00 0.000000e+00 0.000000e+00
 0.000000e+00 5.541065e-01 4.458934e-01 0.000000e+00 0.000000e+00
 0.000000e+00 0.000000e+00 5.678524e-01 4.321475e-01 0.000000e+00
 0.000000e+00 0.000000e+00 0.000000e+00 7.765680e-01 2.234320e-01
 0.000000e+00 0.000000e+00 0.000000e+00 0.000000e+00 0.000000e+00
<ENDHMM>
~h "v"
<BEGINHMM>
<NUMSTATES> 5
<STATE> 2
<MEAN> 39
 1.819165e+00 -1.638636e-01 -5.445971e+00 -6.417744e+00 1.573215e+00 1.901612e-01 -6.146162e-02 -1.878861e+00 -8.811806e-01 1.088885e+00 -1.670947e-01 -9.080979e-01 6.829409e+00 1.474339e-01 4.573490e-01 1.335982e-01 2.580841e-01 1.786519e-01 1.088914e-02 3.073098e-01 2.358495e-01 2.625794e-01 -3.123080e-01 -5.877502e-02 9.661230e-02 -3.409603e-01 1.441020e-01 -2.771682e-02 5.532608e-02 2.405841e-02 -1.337158e-01 1.804015e-02 -1.328902e-01 -9.688647e-02 5.555927e-02 -9.280208e-02 4.787340e-02 -1.044782e-01 1.205582e-02
<VARIANCE> 39
 1.084296e+01 2.252521e+01 3.162640e+01 5.092618e+01 3.374239e+01 3.409103e+01 2.034797e+01 2.311416e+01 2.571138e+01 2.287370e+01 3.945115e+01 4.014230e+01 6.174561e+01 7.609721e-01 7.838957e-01 7.287478e-01 2.009770e+00 1.534230e+00 2.153172e+00 8.834898e-01 9.043523e-01 1.233541e+00 7.826120e-01 1.320476e+00 7.922939e-01 6.234971e-01 4.939210e-02 1.104851e-01 6.701306e-02 1.640839e-01 1.185860e-01 1.736772e-01 9.865141e-02 6.840809e-02 1.205241e-01 1.176810e-01 1.643835e-01 1.331937e-01 6.197244e-02
<GCONST> 8.654099e+01
<STATE> 3
<MEAN> 39
 5.751341e+00 3.435409e+00 -3.574524e+00 -5.032888e+00 -1.159825e-01 2.052840e+00 -9.265652e-01 -3.566554e+00 -9.046159e-01 -9.789338e-01 -5.557097e-01 -1.784561e+00 4.381214e+00 1.122299e-01 1.714319e-01 3.492589e-01 6.321620e-01 3.002185e-02 -3.376969e-01 1.874423e-01 2.060053e-01 6.093436e-01 -3.015066e-01 -1.991365e-01 5.804142e-02 -3.335865e-01 -1.646571e-01 -1.823182e-01 -7.349715e-02 -1.145616e-01 -1.733403e-02 -8.816382e-02 1.875469e-03 9.790978e-02 -2.241896e-02 3.048467e-02 1.193175e-01 6.873990e-02 1.334618e-01
<VARIANCE> 39
 1.779615e+01 2.040204e+01 3.319880e+01 8.467740e+01 5.604219e+01 2.354266e+01 2.021960e+01 1.479076e+01 2.976557e+01 3.125834e+01 2.246145e+01 1.754279e+01 4.551400e+01 8.473106e-01 7.333794e-01 6.301110e-01 8.121788e-01 1.649711e+00 9.278639e-01 4.872818e-01 7.707686e-01 6.751613e-01 8.963095e-01 1.263607e+00 5.548667e-01 1.127173e+00 5.519710e-02 5.513056e-02 4.406722e-02 1.426470e-01 1.829821e-01 1.190393e-01 6.746925e-02 8.878936e-02 1.011432e-01 9.431304e-02 1.134998e-01 7.428335e-02 4.197303e-02
<GCONST> 8.018458e+01
<STATE> 4
<MEAN> 39
 2.808194e+00 -2.185029e+00 -3.421813e+00 -3.355718e+00 -6.173235e-02 -4.963680e+00 1.401696e+00 -3.313935e-01 1.531326e+00 -1.243182e+00 -3.178679e+00 -3.340032e-01 6.082023e+00 -2.492531e-01 -3.918345e-01 2.463361e-01 -2.983755e-03 -5.484884e-01 -3.706832e-01 2.325674e-01 4.744024e-01 7.027028e-02 -3.786940e-01 3.054547e-01 2.160426e-01 1.695669e-01 -1.651407e-02 2.438240e-02 2.972814e-02 -1.011331e-01 1.464989e-02 1.573528e-01 -2.353268e-02 -6.694492e-02 -1.755295e-01 -8.082044e-03 2.970739e-02 -2.441815e-02 1.303707e-01
<VARIANCE> 39
 9.273889e+00 3.419102e+01 1.591198e+01 4.624798e+01 5.254514e+01 3.662503e+01 1.610034e+01 1.768934e+01 3.359014e+01 2.978266e+01 6.814678e+01 2.217997e+01 7.496329e+01 4.461485e-01 7.740945e-01 6.512054e-01 7.633738e-01 1.644533e+00 1.045747e+00 4.259356e-01 3.835143e-01 9.085540e-01 7.241507e-01 1.209931e+00 6.839832e-01 6.619812e-01 4.078981e-02 1.078625e-01 6.904320e-02 1.273581e-01 1.506549e-01 9.215982e-02 7.797688e-02 3.603019e-02 8.994078e-02 8.317742e-02 6.517237e-02 6.010558e-02 1.035529e-01
<GCONST> 7.872832e+01
<TRANSP> 5
 0.000000e+00 1.000000e+00 0.000000e+00 0.000000e+00 0.000000e+00
 0.000000e+00 5.109679e-01 4.890321e-01 0.000000e+00 0.000000e+00
 0.000000e+00 0.000000e+00 6.033528e-01 3.966472e-01 0.000000e+00
 0.000000e+00 0.000000e+00 0.000000e+00 6.720159e-01 3.279841e-01
 0.000000e+00 0.000000e+00 0.000000e+00 0.000000e+00 0.000000e+00
<ENDHMM>
~h "w"
<BEGINHMM>
<NUMSTATES> 5
<STATE> 2
<MEAN> 39
 2.300748e+00 4.870940e-01 -1.210978e+00 -7.817054e-01 5.317637e-01 -6.774782e-01 -2.221864e+00 -2.753583e+00 -1.306308e+00 -4.917126e-01 3.410714e-01 -1.616019e+00 3.647250e+00 3.204834e-01 1.450433e-01 -3.098612e-01 -1.733555e-01 1.931189e-01 3.424503e-01 -1.335925e-01 -2.535686e-01 -1.045639e-01 1.329603e-01 2.214616e-01 -1.835641e-01 -8.498867e-02 -2.244600e-02 -1.430037e-01 1.457838e-02 -9.925171e-02 -1.178753e-01 5.110328e-03 2.563850e-02 8.996998e-02 2.680205e-02 6.061500e-03 -3.285612e-02 -4.381970e-02 1.621602e-01
<VARIANCE> 39
 4.396115e+01 3.876262e+01 4.342019e+01 5.035057e+01 3.833098e+01 5.103114e+01 5.330266e+01 4.943766e+01 3.148522e+01 2.809250e+01 3.301524e+01 3.235714e+01 7.423215e+01 1.089089e+00 6.359101e-01 1.232279e+00 1.006660e+00 1.386480e+00 1.307217e+00 1.087864e+00 1.026864e+00 1.026064e+00 8.826578e-01 8.343607e-01 8.581908e-01 1.283548e+00 1.176782e-01 8.427949e-02 9.303298e-02 1.091907e-01 1.526334e-01 1.342041e-01 1.501947e-01 1.348505e-01 1.111193e-01 9.676134e-02 1.099747e-01 9.534927e-02 1.116786e-01
<GCONST> 9.242646e+01
<STATE> 3
<MEAN> 39
 5.379960e+00 -9.304744e-02 -1.831308e+00 -2.291379e+00 4.018934e-01 2.092393e+00 -4.090380e+00 -4.039614e+00 -2.678382e+00 -3.880269e-01 1.318129e+00 -2.721018e+00 4.144699e+00 2.303158e-01 -4.131398e-01 -2.832535e-01 -6.111627e-01 -2.264886e-01 2.044611e-01 -1.715256e-02 5.684176e-02 1.318625e-03 1.290104e-01 1.698345e-01 -2.599406e-01 6.321751e-01 -1.856140e-01 -1.751994e-01 4.212050e-02 -3.453221e-02 -1.147520e-01 -1.460105e-01 1.210611e-01 2.114809e-01 1.178643e-01 -3.450458e-04 -1.078177e-01 -9.747295e-03 2.085215e-01
<VARIANCE> 39
 2.223260e+01 3.434153e+01 3.698772e+01 5.708711e+01 3.331533e+01 4.299922e+01 4.351244e+01 4.342147e+01 2.755757e+01 2.877389e+01 3.367842e+01 2.463248e+01 5.631971e+01 8.324723e-01 7.942159e-01 1.118828e+00 1.235161e+00 1.330908e+00 1.581520e+00 1.217435e+00 1.161295e+00 9.994454e-01 9.708131e-01 7.781307e-01 8.695422e-01 1.717347e+00 8.516685e-02 8.617259e-02 8.546928e-02 1.114832e-01 1.775097e-01 1.231141e-01 1.522921e-01 1.548177e-01 1.142852e-01 1.262416e-01 1.369645e-01 1.162467e-01 1.259848e-01
<GCONST> 9.174026e+01
<STATE> 4
<MEAN> 39
 4.958786e+00 -1.483011e+00 -4.116772e+00 -5.439622e+00 1.397564e-01 2.559206e+00 -3.194666e+00 -2.839605e+00 -1.474521e+00 3.963106e-01 6.597666e-01 -2.858834e+00 5.049531e+00 -1.089658e-01 -3.393588e-01 -5.949603e-02 -1.338841e-01 -1.026531e-01 -6.693003e-02 2.116244e-01 2.671649e-01 1.854685e-01 8.775055e-02 -5.162712e-02 -1.561817e-01 2.824044e-01 -7.086333e-02 -5.148908e-02 5.051086e-02 5.051035e-02 -1.979830e-02 -9.304354e-02 2.390383e-02 6.035651e-02 4.265096e-02 -3.441795e-02 -7.791087e-02 3.500095e-03 6.536777e-02
<VARIANCE> 39
 2.138757e+01 3.007673e+01 4.096318e+01 6.229148e+01 3.311874e+01 5.181725e+01 3.533490e+01 4.282123e+01 3.125111e+01 3.233481e+01 3.500061e+01 2.846459e+01 5.407410e+01 4.524756e-01 7.432367e-01 8.256936e-01 1.033270e+00 1.002136e+00 1.063114e+00 8.262066e-01 9.577360e-01 8.154908e-01 7.639768e-01 7.304260e-01 8.205329e-01 1.188565e+00 4.500949e-02 6.590723e-02 6.512134e-02 1.019774e-01 1.139621e-01 1.026974e-01 9.636413e-02 1.015303e-01 8.477254e-02 8.896663e-02 9.867915e-02 7.855122e-02 7.680576e-02
<GCONST> 8.411550e+01
<TRANSP> 5
 0.000000e+00 1.000000e+00 0.000000e+00 0.000000e+00 0.000000e+00
 0.000000e+00 3.585123e-01 6.414877e-01 0.000000e+00 0.000000e+00
 0.000000e+00 0.000000e+00 4.383457e-01 5.616543e-01 0.000000e+00
 0.000000e+00 0.000000e+00 0.000000e+00 6.260819e-01 3.739180e-01
 0.000000e+00 0.000000e+00 0.000000e+00 0.000000e+00 0.000000e+00
<ENDHMM>
~h "y"
<BEGINHMM>
<NUMSTATES> 5
<STATE> 2
<MEAN> 39
 4.040844e-01 -1.355053e+00 7.908500e-01 -1.160719e+00 -2.998819e+00 -3.186637e+00 3.640065e-01 2.021747e+00 6.898185e-01 8.118986e-02 1.196603e-01 -2.503024e-02 2.076518e+00 -1.709327e-01 8.387313e-02 -1.946080e-01 -3.997898e-03 2.265787e-01 7.216883e-02 2.356726e-01 1.900306e-02 2.014228e-01 -4.000929e-02 -5.474420e-02 1.251083e-01 -1.404350e-01 2.191621e-02 -6.149470e-03 1.202615e-01 -6.027068e-02 -2.582761e-03 4.666429e-02 -7.098320e-02 -1.065077e-01 -1.151544e-01 -6.086909e-02 -3.802905e-02 -8.325075e-02 1.099911e-01
<VARIANCE> 39
 2.174341e+01 3.548471e+01 4.811781e+01 3.063794e+01 5.846567e+01 4.550447e+01 4.334081e+01 4.610530e+01 3.799503e+01 2.825363e+01 3.355519e+01 3.338036e+01 8.696259e+01 5.004929e-01 6.937091e-01 1.778803e+00 6.718593e-01 1.491066e+00 9.324494e-01 8.753703e-01 1.245490e+00 1.109410e+00 8.676283e-01 1.052935e+00 8.212945e-01 1.043737e+00 4.932319e-02 8.203069e-02 1.175187e-01 7.664791e-02 1.513871e-01 1.141526e-01 1.007861e-01 1.246218e-01 1.092769e-01 9.862581e-02 1.051688e-01 9.335705e-02 1.110058e-01
<GCONST> 8.896173e+01
<STATE> 3
<MEAN> 39
 -1.117021e+00 -1.292660e-01 2.758083e+00 -6.296881e-01 -1.627195e+00 -1.338165e+00 1.174749e+00 1.113355e+00 -1.754832e-01 3.324733e-02 1.017416e-01 -8.155730e-02 1.517362e+00 1.444256e-01 6.508568e-02 5.799364e-01 -3.937550e-01 -2.437292e-01 1.008382e-02 -2.674246e-01 -3.026668e-01 -3.902385e-01 -3.009988e-01 -1.540741e-01 -3.426255e-01 5.713627e-01 9.665198e-02 -2.147491e-02 1.147152e-01 -9.790431e-02 -1.113619e-01 8.342406e-04 -1.435696e-01 -8.235386e-02 -1.221448e-01 -5.143936e-02 1.202134e-02 -8.186778e-02 1.421891e-01
<VARIANCE> 39
 2.669402e+01 4.163354e+01 5.170971e+01 3.524176e+01 6.394532e+01 5.022191e+01 4.254443e+01 5.046283e+01 4.165304e+01 2.973068e+01 3.167455e+01 3.051575e+01 9.990039e+01 6.648914e-01 9.471516e-01 2.856230e+00 8.424031e-01 2.148998e+00 1.118793e+00 1.331858e+00 1.493660e+00 1.411488e+00 9.671947e-01 1.213360e+00 9.167119e-01 1.583851e+00 5.825377e-02 7.490045e-02 1.467098e-01 8.055276e-02 1.724634e-01 1.255875e-01 1.217100e-01 1.360345e-01 1.322919e-01 1.008786e-01 1.101528e-01 8.776133e-02 1.194325e-01
<GCONST> 9.451581e+01
<STATE> 4
<MEAN> 39
 2.355020e-01 -3.649867e-01 1.361016e+00 -7.178769e-01 -2.919835e+00 -2.474033e+00 1.133088e+00 1.554169e+00 5.222597e-02 -5.444131e-01 -3.756548e-01 4.737360e-01 -2.523085e-01 7.841630e-02 3.370301e-02 6.772366e-02 -9.619049e-02 3.753297e-02 1.073928e-01 -5.953213e-02 -1.129439e-01 -6.076833e-02 -1.214418e-01 -8.787911e-02 -1.233349e-01 9.648693e-02 9.177602e-03 -1.913056e-02 -6.500224e-03 -1.781967e-02 1.574763e-02 1.692965e-02 -1.227107e-02 -1.257780e-02 -1.502417e-02 3.736187e-03 -5.613178e-03 -9.905844e-03 4.776030e-02
<VARIANCE> 39
 1.760674e+01 3.725345e+01 5.591222e+01 2.901404e+01 4.549181e+01 3.674325e+01 3.614200e+01 6.266117e+01 3.423122e+01 2.461472e+01 2.909406e+01 2.893825e+01 7.869867e+01 3.586439e-01 4.903730e-01 1.391321e+00 6.304778e-01 1.200493e+00 7.013701e-01 8.304281e-01 8.868296e-01 8.572229e-01 7.054824e-01 7.724795e-01 5.980175e-01 8.564502e-01 3.405903e-02 4.360822e-02 8.468267e-02 5.478150e-02 1.039980e-01 6.807814e-02 8.127651e-02 9.683646e-02 8.651697e-02 7.187007e-02 7.961679e-02 6.525694e-02 5.419695e-02
<GCONST> 7.982624e+01
<TRANSP> 5
 0.000000e+00 1.000000e+00 0.000000e+00 0.000000e+00 0.000000e+00
 0.000000e+00 3.572035e-01 6.427966e-01 0.000000e+00 0.000000e+00
 0.000000e+00 0.000000e+00 3.449771e-01 6.550229e-01 0.000000e+00
 0.000000e+00 0.000000e+00 0.000000e+00 6.726567e-01 3.273433e-01
 0.000000e+00 0.000000e+00 0.000000e+00 0.000000e+00 0.000000e+00
<ENDHMM>
~h "z"
<BEGINHMM>
<NUMSTATES> 5
<STATE> 2
<MEAN> 39
 -3.883071e+00 3.888107e+00 -2.530972e+00 5.382620e+00 5.996716e+00 1.162546e+00 3.470140e+00 1.151694e+00 1.216341e+00 -1.593115e+00 5.399088e-01 2.477426e+00 -4.984752e+00 -2.615073e-01 4.190823e-01 2.278425e-01 -7.881746e-02 2.263732e-01 -1.966608e-01 1.110257e-02 3.404149e-02 -1.854017e-01 -1.901050e-01 -1.823042e-01 -9.911583e-02 1.858892e-01 1.552674e-01 -6.101567e-02 1.647199e-01 -2.174463e-01 -2.425378e-01 -2.236708e-01 -1.682732e-01 1.138326e-02 -5.421155e-02 6.136837e-02 -1.915799e-01 -9.427277e-02 3.317658e-01
<VARIANCE> 39
 3.692379e+01 1.552660e+01 3.053907e+01 2.224469e+01 1.474986e+01 2.486629e+01 2.458207e+01 1.938469e+01 2.300634e+01 3.427043e+01 2.828167e+01 3.751700e+01 8.189472e+01 4.873632e-01 6.843531e-01 2.907507e-01 2.994739e-01 4.145359e-01 4.892200e-01 5.973685e-01 3.772233e-01 2.635275e-01 2.123625e-01 6.827875e-01 4.520388e-01 1.780306e-01 6.667390e-02 1.720137e-01 5.289036e-02 1.630537e-01 1.150964e-01 6.053186e-02 7.777297e-02 1.938515e-01 7.946417e-02 9.459675e-02 1.097376e-01 8.060042e-02 1.618321e-01
<GCONST> 7.243214e+01
<STATE> 3
<MEAN> 39
 -5.268018e+00 4.570093e+00 -2.691030e+00 4.535773e+00 6.231671e+00 8.696737e-01 4.355021e+00 1.303459e+00 5.543262e-01 -3.060808e-01 1.877711e+00 3.355457e+00 -6.208849e+00 3.639474e-01 5.011967e-01 6.426265e-01 -2.063740e-01 -4.404294e-01 -7.003697e-01 -3.196720e-01 -3.679743e-01 -4.526615e-01 -1.982686e-01 -6.763539e-01 -5.139101e-01 7.623987e-01 3.077152e-01 2.169775e-02 1.625076e-01 -1.246182e-01 -3.508695e-01 -2.747150e-01 -2.434460e-01 -1.828266e-01 -3.131024e-02 -1.798195e-02 -1.915071e-01 -1.283663e-01 4.000102e-01
<VARIANCE> 39
 2.580943e+01 1.132059e+01 3.710375e+01 2.038240e+01 2.090638e+01 2.396160e+01 2.102695e+01 1.818389e+01 1.548851e+01 2.171015e+01 1.887137e+01 2.684443e+01 7.442965e+01 9.425079e-01 5.839476e-01 3.796444e-01 3.514941e-01 5.126448e-01 5.415668e-01 6.598693e-01 1.009657e+00 8.017976e-01 4.310109e-01 5.776533e-01 8.126829e-01 3.788444e-01 7.686050e-02 2.200396e-01 5.034641e-02 1.151305e-01 1.475415e-01 4.488449e-02 9.613404e-02 2.016745e-01 6.794146e-02 5.054068e-02 8.528649e-02 6.552680e-02 1.237776e-01
<GCONST> 7.427206e+01
<STATE> 4
<MEAN> 39
 -3.275529e+00 1.146044e+01 2.247888e+00 6.246436e+00 4.784328e+00 -6.172688e+00 2.628329e+00 -4.137819e+00 -1.306109e+00 -2.498546e+00 -1.541246e+00 2.132949e+00 -1.273080e+00 3.425170e-01 3.615918e-02 5.116416e-01 -5.486505e-01 -6.601730e-01 -1.099504e+00 -5.827526e-01 -3.519768e-01 -2.562642e-01 -3.712243e-01 -1.129401e-01 -2.609580e-02 1.678806e+00 8.751056e-02 -3.079988e-01 -1.931628e-02 -1.111001e-01 -1.846467e-01 6.686594e-02 -1.129528e-01 1.861391e-01 2.935734e-02 5.892307e-02 9.699492e-02 -1.473924e-02 7.720909e-02
<VARIANCE> 39
 4.931847e+01 3.851958e+01 4.114355e+01 3.323660e+01 3.645580e+01 5.484428e+01 3.201353e+01 3.511866e+01 3.742450e+01 2.356085e+01 1.650083e+01 2.739108e+01 9.217992e+01 2.491390e+00 2.692088e+00 8.100318e-01 7.833013e-01 1.996485e+00 9.295073e-01 1.073359e+00 2.061220e+00 1.035407e+00 4.085310e-01 6.327605e-01 7.843682e-01 8.535160e-01 2.935634e-01 2.105518e-01 1.039037e-01 7.968341e-02 2.511813e-01 1.439590e-01 1.192044e-01 1.925869e-01 8.401365e-02 4.707559e-02 6.521786e-02 1.324334e-01 1.103816e-01
<GCONST> 9.247359e+01
<TRANSP> 5
 0.000000e+00 1.000000e+00 0.000000e+00 0.000000e+00 0.000000e+00
 0.000000e+00 1.483362e-01 8.516637e-01 0.000000e+00 0.000000e+00
 0.000000e+00 0.000000e+00 3.611714e-01 6.388286e-01 0.000000e+00
 0.000000e+00 0.000000e+00 0.000000e+00 8.267542e-01 1.732458e-01
 0.000000e+00 0.000000e+00 0.000000e+00 0.000000e+00 0.000000e+00
<ENDHMM>
~h "aa"
<BEGINHMM>
<NUMSTATES> 5
<STATE> 2
<MEAN> 39
 2.413354e+00 -8.030958e+00 -7.346218e+00 -7.443811e+00 2.867620e+00 3.633868e+00 -8.535163e-01 1.920302e+00 2.574788e+00 -2.035172e+00 -4.939847e+00 -6.539338e+00 1.345536e+01 9.994451e-02 -7.012730e-01 -7.720950e-01 -5.016658e-01 4.895418e-01 7.273195e-01 1.340661e-01 1.253967e-01 6.694716e-03 -3.563642e-01 -4.909480e-01 -7.083339e-01 7.357169e-01 -2.260887e-02 1.623968e-01 2.061043e-01 1.774355e-01 -5.118416e-02 -1.788481e-01 -2.872716e-02 -8.764006e-02 -9.574026e-02 4.762419e-02 1.082356e-01 1.711470e-01 -2.529635e-01
<VARIANCE> 39
 1.832092e+01 2.400395e+01 3.535854e+01 3.026065e+01 4.173806e+01 5.640037e+01 4.000082e+01 4.448655e+01 3.693086e+01 3.944836e+01 3.754403e+01 3.825693e+01 6.161513e+01 5.661963e-01 6.909328e-01 1.041535e+00 9.119229e-01 1.339121e+00 1.280054e+00 1.121143e+00 1.278951e+00 1.062270e+00 1.030452e+00 1.120676e+00 9.752426e-01 1.223210e+00 7.951909e-02 8.760968e-02 1.287214e-01 1.014490e-01 1.472898e-01 1.414821e-01 1.365294e-01 1.497720e-01 1.134757e-01 1.077834e-01 1.339612e-01 1.362514e-01 1.244376e-01
<GCONST> 9.139471e+01
<STATE> 3
<MEAN> 39
 3.549325e+00 -9.953006e+00 -7.541448e+00 -7.937672e+00 3.083934e+00 3.390659e+00 -1.704664e+00 2.554010e+00 1.889724e+00 -2.757049e+00 -5.898106e+00 -7.963167e+00 1.380906e+01 2.268206e-01 3.678339e-01 4.520582e-01 4.996088e-01 -1.813440e-01 -6.016346e-01 -3.993631e-02 3.918196e-02 -9.137782e-02 1.340548e-01 3.887151e-02 3.190115e-01 -7.984723e-01 -3.792119e-03 2.149589e-01 1.493676e-01 1.458552e-01 -8.836050e-02 -1.122602e-01 -8.769904e-03 -7.921758e-02 -3.939727e-05 7.648157e-02 9.299167e-02 1.496439e-01 -2.263050e-01
<VARIANCE> 39
 1.482569e+01 2.292598e+01 3.124288e+01 2.809232e+01 3.649802e+01 5.972202e+01 3.883603e+01 4.336953e+01 3.607839e+01 5.113586e+01 3.869855e+01 3.489845e+01 5.084323e+01 3.879320e-01 7.560922e-01 7.850478e-01 6.988435e-01 1.034465e+00 1.299338e+00 9.698047e-01 1.150415e+00 7.701812e-01 8.252094e-01 8.425257e-01 8.442264e-01 1.132069e+00 5.170061e-02 7.623670e-02 1.045560e-01 7.909140e-02 1.309839e-01 1.634060e-01 1.220145e-01 1.452996e-01 1.009953e-01 1.114228e-01 1.173787e-01 1.011911e-01 1.064415e-01
<GCONST> 8.659631e+01
<STATE> 4
<MEAN> 39
 3.633737e+00 -4.580717e+00 -7.085794e+00 -3.574795e+00 3.225293e+00 1.654384e+00 4.952185e-01 1.737590e+00 2.600924e+00 -2.506791e-01 -3.892750e+00 -4.066490e+00 2.441968e+00 -5.926413e-02 3.800473e-01 1.234549e-01 3.053268e-01 -1.168027e-01 -1.173949e-01 2.142098e-02 -6.551743e-02 4.536936e-03 8.427129e-02 1.545130e-01 2.547548e-01 -5.722867e-01 -3.442822e-02 2.132927e-03 3.163109e-02 -2.021680e-02 -8.464187e-03 3.893535e-03 1.643976e-03 -7.771830e-03 -5.302960e-03 -1.231517e-03 1.231822e-02 4.743136e-03 4.575008e-02
<VARIANCE> 39
 1.216384e+01 2.573991e+01 2.779249e+01 2.851970e+01 3.240249e+01 4.414461e+01 3.347433e+01 3.732410e+01 3.416012e+01 3.346832e+01 2.837109e+01 3.010225e+01 6.505498e+01 2.693392e-01 5.044953e-01 5.994698e-01 5.725985e-01 7.326643e-01 7.503576e-01 6.872960e-01 7.361985e-01 5.981164e-01 5.871496e-01 5.996478e-01 6.443143e-01 6.618429e-01 3.102435e-02 4.873936e-02 5.578341e-02 5.918794e-02 7.726216e-02 7.914713e-02 7.537813e-02 8.863125e-02 7.037575e-02 6.956515e-02 7.310005e-02 7.227267e-02 5.328960e-02
<GCONST> 7.389938e+01
<TRANSP> 5
 0.000000e+00 1.000000e+00 0.000000e+00 0.000000e+00 0.000000e+00
 0.000000e+00 7.157919e-01 2.842081e-01 0.000000e+00 0.000000e+00
 0.000000e+00 0.000000e+00 7.240705e-01 2.759295e-01 0.000000e+00
 0.000000e+00 0.000000e+00 0.000000e+00 8.195627e-01 1.804373e-01
 0.000000e+00 0.000000e+00 0.000000e+00 0.000000e+00 0.000000e+00
<ENDHMM>
~h "ai"
<BEGINHMM>
<NUMSTATES> 5
<STATE> 2
<MEAN> 39
 3.269461e+00 -8.086963e+00 2.795516e+00 -4.452008e+00 -5.278690e+00 -5.287486e+00 1.748783e+00 6.392993e+00 -6.549560e-01 -1.655732e+00 -8.110752e-01 -1.139382e+00 1.167313e+01 -4.788940e-01 1.230966e+00 -8.037060e-02 1.124061e+00 7.978446e-01 -2.544975e-01 1.940717e-01 -6.123911e-01 5.185528e-01 3.021962e-01 3.368543e-01 8.318232e-01 -1.834352e-01 -3.538216e-01 4.807624e-01 -2.475756e-01 1.876725e-01 3.180144e-01 1.666164e-01 2.950203e-01 -2.304524e-01 9.879686e-02 -3.873447e-02 6.832945e-02 1.432577e-01 -3.308928e-01
<VARIANCE> 39
 3.945459e+00 1.231204e+01 1.440919e+01 4.491380e+01 9.941219e+00 1.059688e+01 5.454935e+01 4.648879e+01 2.080077e+01 1.832515e+01 7.821001e+00 1.573515e+01 1.637367e+01 8.101869e-01 1.554666e+00 1.132477e+00 1.175483e+00 9.009212e-01 5.978770e-01 1.076529e+00 1.753436e+00 4.811755e-01 1.127915e+00 5.963849e-01 6.967480e-01 9.575881e-01 7.345059e-02 5.703302e-02 7.993846e-02 1.665823e-01 1.054057e-01 7.638016e-02 1.344718e-01 1.464542e-01 5.861651e-02 1.390882e-01 8.295374e-02 9.249816e-02 3.258945e-02
<GCONST> 7.543432e+01
<STATE> 3
<MEAN> 39
 -8.156971e+00 8.229398e+00 -6.515221e+00 5.874304e+00 3.423410e+00 -1.768691e+00 8.757094e+00 -1.627407e+00 4.290806e+00 -1.920548e+00 2.704472e+00 2.685889e+00 4.337755e+00 -1.767484e+00 1.663566e+00 -1.165020e+00 3.625563e-01 8.108597e-01 2.531331e-01 8.853875e-01 -4.358254e-01 7.119640e-01 8.115783e-02 7.065142e-01 6.475020e-02 -6.658258e-01 2.577240e-01 -4.478045e-01 2.640749e-01 -3.726583e-01 -1.939279e-01 -8.153307e-02 -1.558760e-01 2.161164e-01 -1.638400e-01 7.872678e-02 1.818155e-02 -1.825213e-01 1.947787e-01
<VARIANCE> 39
 5.843693e+01 3.390671e+01 4.934759e+01 1.676192e+01 3.848023e+01 3.558487e+01 3.177329e+01 2.202039e+01 2.179415e+01 2.569380e+01 2.279639e+01 1.876026e+01 9.079307e+00 1.837357e+00 2.188466e+00 1.754457e+00 1.531794e+00 1.413741e+00 1.236484e+00 6.499601e-01 8.470772e-01 8.053929e-01 4.406360e-01 5.350303e-01 7.336977e-01 5.961666e-01 2.362412e-01 1.197252e-01 2.961638e-01 1.027665e-01 1.566592e-01 7.197154e-02 8.081394e-02 6.473218e-02 7.360341e-02 7.891058e-02 5.509403e-02 5.837395e-02 4.403180e-02
<GCONST> 8.339839e+01
<STATE> 4
<MEAN> 39
 -4.169365e+00 1.154173e+00 2.211661e+00 -7.443184e-01 -3.537225e+00 -5.639119e+00 1.585214e+00 -1.016543e+00 -4.919690e+00 1.632536e+00 4.370848e+00 -2.260984e-01 8.485695e+00 1.217437e+00 -9.299652e-01 1.480783e+00 -2.866911e-01 -1.126078e+00 -2.042084e-01 -1.242540e+00 8.794873e-02 -1.238657e+00 3.362773e-01 1.211140e-01 -5.273914e-01 4.795911e-02 -1.553020e-02 1.826526e-01 -1.430945e-01 1.845886e-01 3.924761e-02 7.726611e-02 8.912235e-02 -5.360432e-02 1.524398e-01 -4.669762e-02 -6.871660e-02 -7.043526e-02 -2.453133e-01
<VARIANCE> 39
 6.595615e+01 6.199851e+01 7.113613e+01 1.937826e+01 9.794533e+01 2.026682e+01 8.797085e+01 1.952823e+01 8.967197e+01 2.217554e+01 2.981130e+01 2.904525e+01 2.691968e+01 2.171765e+00 2.759995e+00 2.499509e+00 1.550488e+00 2.550179e+00 5.923978e-01 2.468934e+00 4.537203e-01 1.975831e+00 8.022042e-01 1.316191e+00 1.059036e+00 1.815817e+00 2.885264e-01 3.846231e-01 3.135649e-01 1.157947e-01 5.575490e-01 5.973165e-02 4.165615e-01 7.393149e-02 3.659380e-01 1.300504e-01 1.700522e-01 1.067015e-01 1.958732e-01
<GCONST> 1.038955e+02
<TRANSP> 5
 0.000000e+00 1.000000e+00 0.000000e+00 0.000000e+00 0.000000e+00
 0.000000e+00 8.171012e-01 1.828988e-01 0.000000e+00 0.000000e+00
 0.000000e+00 0.000000e+00 8.105014e-01 1.894986e-01 0.000000e+00
 0.000000e+00 0.000000e+00 0.000000e+00 8.333747e-01 1.666253e-01
 0.000000e+00 0.000000e+00 0.000000e+00 0.000000e+00 0.000000e+00
<ENDHMM>
~h "au"
<BEGINHMM>
<NUMSTATES> 5
<STATE> 2
<MEAN> 39
 3.863366e+00 -1.181411e+00 -9.949753e-02 -6.563630e+00 -1.907622e+00 1.388927e+00 -4.389486e+00 -2.153628e-01 -2.222902e+00 -2.574134e+00 -2.057967e+00 -1.204805e+00 9.098361e+00 -1.922913e-01 2.260536e-01 -6.855407e-01 -5.888561e-01 4.009146e-01 3.725821e-01 3.912767e-01 4.246417e-02 3.182670e-01 3.222792e-01 1.521237e-01 2.499374e-01 2.864221e-01 -7.663198e-02 -8.727302e-02 -9.638961e-02 -6.035773e-02 -9.088324e-02 -4.186891e-02 5.923919e-03 -3.525935e-03 9.117375e-02 6.434742e-02 9.419207e-02 -4.592814e-02 1.485190e-01
<VARIANCE> 39
 2.319798e+01 3.334505e+01 3.096193e+01 1.041103e+02 4.630278e+01 6.988248e+01 1.024810e+02 4.196197e+01 3.470626e+01 3.907409e+01 3.439182e+01 4.695597e+01 7.280329e+01 6.246386e-01 9.594807e-01 1.484231e+00 1.946156e+00 1.108024e+00 1.674413e+00 3.062769e+00 7.873821e-01 1.302930e+00 1.619102e+00 9.604897e-01 1.653047e+00 3.114655e+00 6.225424e-02 9.298833e-02 1.018011e-01 2.406875e-01 1.268614e-01 1.983192e-01 2.723844e-01 8.131240e-02 1.475262e-01 1.644429e-01 1.137467e-01 2.112072e-01 2.537722e-01
<GCONST> 1.009618e+02
<STATE> 3
<MEAN> 39
 8.953747e-01 -3.608705e+00 -7.074568e+00 -9.811728e+00 -5.479420e-01 2.941934e+00 -2.110546e+00 -1.818407e+00 8.010252e-01 2.143680e+00 3.880889e-01 -3.540090e+00 1.688063e+01 5.249654e-02 -4.469618e-01 -1.044298e+00 -6.419680e-01 -3.427436e-02 7.062153e-01 2.180421e-01 -3.922389e-02 3.076118e-01 4.079738e-01 4.682302e-01 -2.367860e-01 6.077420e-01 1.852819e-01 -3.179524e-02 2.143489e-01 3.048562e-01 -3.998263e-02 -6.256903e-02 -1.643645e-01 -4.977796e-03 -3.736123e-02 -1.489029e-01 -2.589411e-02 -1.758632e-02 -3.633384e-01
<VARIANCE> 39
 1.324794e+01 1.790022e+01 1.992308e+01 3.190066e+01 2.701755e+01 4.852742e+01 9.762991e+01 2.512872e+01 4.174024e+01 2.747390e+01 3.782779e+01 2.836550e+01 5.911203e+01 6.778702e-01 4.382717e-01 9.420039e-01 2.513456e+00 6.705701e-01 2.275623e+00 3.800809e+00 1.122643e+00 1.195279e+00 1.428801e+00 1.330213e+00 1.419865e+00 2.289577e+00 5.170652e-02 4.071483e-02 8.380610e-02 1.485641e-01 9.827314e-02 2.477579e-01 5.365680e-01 1.366503e-01 2.185231e-01 1.781007e-01 1.293634e-01 1.416684e-01 1.182235e-01
<GCONST> 9.394937e+01
<STATE> 4
<MEAN> 39
 5.839395e+00 -4.831985e+00 -7.952294e+00 -1.192805e+01 -8.328867e-01 8.093655e+00 -3.333561e+00 -3.857635e+00 7.903699e-01 3.479831e+00 2.217076e+00 -4.402231e+00 9.512657e+00 2.626064e-01 -1.778580e-01 -1.292300e-01 6.684116e-01 -1.323403e-01 -1.526506e-01 3.716353e-02 1.234229e-02 1.571677e-01 -2.056223e-01 1.579316e-02 3.761376e-02 -6.784561e-01 -8.426910e-02 5.595683e-02 1.665817e-01 2.154535e-01 -9.214321e-03 -2.543507e-01 -4.301403e-02 6.294540e-02 3.481377e-02 -7.729301e-02 -1.077652e-01 6.965185e-02 -3.689371e-02
<VARIANCE> 39
 1.185797e+01 2.338920e+01 1.634715e+01 5.309261e+01 2.148635e+01 6.474742e+01 3.996205e+01 3.212394e+01 2.609871e+01 3.389958e+01 3.603797e+01 3.745979e+01 7.177747e+01 5.469288e-01 5.593513e-01 5.739200e-01 1.639566e+00 7.752368e-01 2.880358e+00 1.980901e+00 6.634942e-01 8.921312e-01 8.173968e-01 9.672582e-01 1.038300e+00 1.251188e+00 4.707585e-02 5.269047e-02 8.417449e-02 1.414428e-01 8.557300e-02 2.065270e-01 1.882832e-01 8.743502e-02 1.256880e-01 1.071642e-01 1.276313e-01 1.649235e-01 1.479432e-01
<GCONST> 8.782314e+01
<TRANSP> 5
 0.000000e+00 1.000000e+00 0.000000e+00 0.000000e+00 0.000000e+00
 0.000000e+00 7.226769e-01 2.773231e-01 0.000000e+00 0.000000e+00
 0.000000e+00 0.000000e+00 7.298781e-01 2.701219e-01 0.000000e+00
 0.000000e+00 0.000000e+00 0.000000e+00 8.261928e-01 1.738072e-01
 0.000000e+00 0.000000e+00 0.000000e+00 0.000000e+00 0.000000e+00
<ENDHMM>
~h "ax"
<BEGINHMM>
<NUMSTATES> 5
<STATE> 2
<MEAN> 39
 5.341458e+00 -5.435530e+00 2.551122e+00 4.476636e+00 -4.487505e+00 -9.779878e-01 -4.763520e-01 5.548008e+00 -1.720864e+00 -2.254174e+00 -6.637362e+00 4.606026e-01 6.859977e+00 9.451792e-02 1.461334e-01 5.476598e-01 5.376328e-01 -2.769751e-01 -2.454345e-01 3.599223e-01 -2.611505e-01 -2.265723e-01 -5.399057e-01 3.029606e-01 2.193546e-01 1.263428e-02 7.501278e-03 6.495012e-02 2.733234e-02 5.552060e-02 -3.806594e-02 -5.464634e-02 -1.705728e-01 -6.753400e-02 -7.126603e-02 -1.164761e-01 9.740873e-02 -1.732812e-01 -1.385590e-02
<VARIANCE> 39
 1.002402e+01 2.680917e+01 2.853759e+01 4.523016e+01 2.583493e+01 2.384667e+01 3.758770e+01 5.345786e+01 3.566271e+01 3.229138e+01 9.663080e+00 1.539734e+01 4.026909e+01 3.399333e-01 1.168560e+00 9.493136e-01 9.794362e-01 8.271351e-01 7.973980e-01 1.528583e+00 2.952913e+00 1.692479e+00 9.132204e-01 8.284816e-01 1.043549e+00 1.924081e+00 2.809116e-02 1.329195e-01 1.598747e-01 9.223565e-02 1.236223e-01 1.038949e-01 1.712164e-01 3.749612e-01 1.922744e-01 1.378386e-01 9.999298e-02 8.545656e-02 1.992402e-01
<GCONST> 8.833521e+01
<STATE> 3
<MEAN> 39
 4.869680e+00 2.318784e-01 7.423951e+00 5.978626e+00 -8.563133e+00 -4.738857e+00 -6.082802e+00 1.578377e+00 -5.069946e+00 -8.167573e+00 2.951334e+00 -2.837801e+00 6.102272e+00 9.506811e-02 1.207706e-01 -3.338394e-01 2.008954e-02 2.732093e-01 1.659096e-02 -5.041773e-01 1.829281e-01 1.243613e-01 -9.339795e-02 2.805609e-02 -6.375099e-01 -4.287988e-01 -1.091088e-02 -2.661780e-01 -2.823718e-01 -1.782071e-01 2.598144e-01 1.049119e-01 3.444312e-01 1.461942e-01 2.288228e-01 2.104087e-01 -2.681965e-01 1.169223e-01 -1.575194e-01
<VARIANCE> 39
 1.389404e+01 2.764836e+01 1.165983e+01 3.016335e+01 4.117864e+01 3.939603e+01 4.380766e+01 1.618259e+01 1.969300e+01 1.418284e+01 6.328365e+01 1.735329e+01 4.273601e+01 1.529924e-01 8.586541e-01 8.912588e-01 2.105858e-01 2.645600e+00 1.370042e+00 2.285133e+00 5.247430e-01 1.007696e+00 3.125384e-01 2.665530e+00 5.688075e-01 1.042765e+00 2.262755e-02 1.072705e-01 9.354651e-02 3.647178e-02 2.198502e-01 1.374477e-01 2.109442e-01 1.004462e-01 8.292372e-02 3.677205e-02 2.680480e-01 8.575822e-02 5.823492e-02
<GCONST> 7.944033e+01
<STATE> 4
<MEAN> 39
 5.641430e+00 -4.216399e-01 4.103382e+00 6.800479e+00 -6.439722e-01 -1.835618e+00 -2.392573e-01 1.418974e+00 1.983477e+00 -6.234102e+00 -4.260506e+00 -4.422456e+00 1.892134e+00 4.101150e-03 -3.961390e-01 -1.463295e+00 -1.084676e+00 1.593674e+00 5.248951e-01 4.152499e-01 8.255657e-03 5.943993e-01 6.602607e-01 -4.507853e-01 -1.424548e-01 -9.309694e-01 -2.381770e-01 -7.168270e-02 -1.830957e-02 -3.739151e-01 -3.101412e-01 -8.299187e-02 -6.467056e-02 -1.489653e-01 -3.310581e-01 1.653242e-01 3.890130e-01 4.105578e-01 2.884277e-01
<VARIANCE> 39
 4.078132e+00 3.805027e+01 1.745181e+01 4.204299e+01 2.052745e+01 1.967730e+01 2.891333e+01 1.702293e+01 1.435678e+01 9.251443e+00 2.119456e+01 1.621495e+01 3.923448e+01 4.912078e-01 5.741559e-01 4.313610e-01 5.061290e-01 1.689728e+00 2.978895e+00 7.768009e-01 1.912053e+00 7.087059e-01 6.608754e-02 1.428630e+00 2.737435e-01 9.386013e-02 2.340441e-02 1.258602e-01 1.068203e-01 3.416934e-02 2.329684e-01 6.979894e-02 2.059503e-01 6.946401e-02 1.105314e-01 5.640185e-02 1.226259e-02 5.775981e-02 4.952211e-02
<GCONST> 6.763432e+01
<TRANSP> 5
 0.000000e+00 1.000000e+00 0.000000e+00 0.000000e+00 0.000000e+00
 0.000000e+00 8.667458e-01 1.332542e-01 0.000000e+00 0.000000e+00
 0.000000e+00 0.000000e+00 7.760514e-01 2.239486e-01 0.000000e+00
 0.000000e+00 0.000000e+00 0.000000e+00 3.532066e-01 6.467935e-01
 0.000000e+00 0.000000e+00 0.000000e+00 0.000000e+00 0.000000e+00
<ENDHMM>
~h "bh"
<BEGINHMM>
