~o
<STREAMINFO> 1 39
<VECSIZE> 39<NULLD><MFCC_D_A_Z_0><DIAGC>
~h "a"
<BEGINHMM>
<NUMSTATES> 5
<STATE> 2
<MEAN> 39
 2.580336e+00 -2.208181e+00 1.802818e-01 -2.090192e+00 -1.346851e+00 -1.716025e+00 -2.470720e+00 -4.123611e-03 -5.727115e-01 -4.401891e-01 -1.222964e+00 -2.172745e+00 5.080809e+00 7.196059e-02 -3.192816e-02 4.323950e-02 -8.240672e-03 -5.814233e-02 -7.393119e-02 6.759317e-03 2.077544e-02 -2.569877e-02 -1.867011e-02 -2.919742e-02 1.534828e-02 2.800640e-02 -2.069206e-02 -1.182389e-02 -5.345665e-03 -1.352368e-02 6.061750e-04 1.163493e-02 2.447923e-02 -6.831523e-03 2.779850e-03 -1.483222e-05 -2.223727e-04 1.176334e-02 1.636115e-02
<VARIANCE> 39
 2.610597e+01 4.277026e+01 6.609013e+01 4.035257e+01 5.715219e+01 5.135459e+01 5.146302e+01 5.507758e+01 4.742962e+01 3.557333e+01 3.879843e+01 3.716677e+01 7.730532e+01 6.838314e-01 1.141644e+00 1.352281e+00 1.234729e+00 1.511493e+00 1.205810e+00 1.361522e+00 1.505567e+00 1.167795e+00 9.383478e-01 1.005552e+00 9.353779e-01 2.274735e+00 7.549291e-02 1.178493e-01 1.333890e-01 1.279597e-01 1.719370e-01 1.321433e-01 1.562161e-01 1.800114e-01 1.331121e-01 1.158226e-01 1.238780e-01 1.134096e-01 1.884082e-01
<GCONST> 9.775060e+01
<STATE> 3
<MEAN> 39
 2.715969e+00 -2.552073e+00 1.502004e-01 -2.238600e+00 -1.611879e+00 -1.911917e+00 -2.377500e+00 1.974456e-01 -5.321164e-01 -4.511099e-01 -1.321391e+00 -2.139326e+00 5.478893e+00 3.075884e-02 -4.063010e-02 -1.568272e-02 1.001635e-02 -1.672652e-02 -1.963806e-02 8.570049e-02 1.261078e-02 -2.803197e-03 -1.966849e-02 -5.251673e-02 4.787983e-02 2.689194e-03 -2.101849e-02 5.803382e-03 -1.624135e-03 -7.670423e-03 1.558961e-02 2.119405e-02 1.581857e-02 -1.826001e-02 -5.950028e-03 -2.620049e-03 -6.513500e-04 3.746041e-03 3.886051e-03
<VARIANCE> 39
 2.459933e+01 3.945115e+01 6.407766e+01 3.917155e+01 5.788101e+01 5.114495e+01 5.132545e+01 5.492012e+01 4.656408e+01 3.614305e+01 3.928557e+01 3.687251e+01 7.338581e+01 6.583512e-01 1.131493e+00 1.398299e+00 1.181344e+00 1.578415e+00 1.214852e+00 1.343500e+00 1.536001e+00 1.128967e+00 9.658394e-01 1.049037e+00 9.151477e-01 2.119340e+00 7.123587e-02 1.150060e-01 1.323082e-01 1.283504e-01 1.779683e-01 1.327059e-01 1.536335e-01 1.817372e-01 1.320584e-01 1.159890e-01 1.263324e-01 1.128543e-01 1.917706e-01
<GCONST> 9.741730e+01
<STATE> 4
<MEAN> 39
 2.884502e+00 -2.537550e+00 -3.669312e-01 -2.000277e+00 -1.686273e+00 -2.301321e+00 -2.193471e+00 2.246349e-01 -1.977052e-01 -3.953145e-01 -1.683250e+00 -1.996608e+00 4.792256e+00 -2.733157e-02 5.293436e-02 -2.664817e-03 3.548297e-02 4.125279e-02 3.081620e-02 1.099219e-01 -5.067645e-02 -1.896359e-02 -1.062520e-02 -2.398920e-02 5.893881e-02 -1.169463e-01 -2.018644e-02 4.750016e-04 1.229581e-02 -1.930512e-02 1.024505e-02 1.068843e-02 1.636707e-03 -1.276690e-02 -9.781320e-03 1.592780e-03 1.124150e-02 -5.998236e-03 2.305535e-02
<VARIANCE> 39
 2.192854e+01 3.663669e+01 5.712785e+01 3.643997e+01 5.321625e+01 5.036798e+01 4.780682e+01 5.266848e+01 4.420207e+01 3.512160e+01 3.897829e+01 3.534898e+01 7.291885e+01 5.679750e-01 8.825630e-01 1.150489e+00 9.718686e-01 1.391253e+00 1.059506e+00 1.163719e+00 1.316584e+00 9.735130e-01 8.610532e-01 9.320591e-01 8.162310e-01 1.665376e+00 6.073675e-02 9.502130e-02 1.108164e-01 1.093522e-01 1.513337e-01 1.180977e-01 1.316597e-01 1.546757e-01 1.164579e-01 1.039384e-01 1.129082e-01 1.020103e-01 1.580546e-01
<GCONST> 9.268377e+01
<TRANSP> 5
 0.000000e+00 1.000000e+00 0.000000e+00 0.000000e+00 0.000000e+00
 0.000000e+00 4.237819e-01 5.762181e-01 0.000000e+00 0.000000e+00
 0.000000e+00 0.000000e+00 4.231848e-01 5.768152e-01 0.000000e+00
 0.000000e+00 0.000000e+00 0.000000e+00 5.151945e-01 4.848054e-01
 0.000000e+00 0.000000e+00 0.000000e+00 0.000000e+00 0.000000e+00
<ENDHMM>
~h "b"
<BEGINHMM>
<NUMSTATES> 5
<STATE> 2
<MEAN> 39
 3.038361e+00 9.288527e-01 5.698150e-01 -5.306042e-02 5.878460e-01 -5.799396e-02 -1.948646e+00 -2.387921e+00 -1.510613e+00 -1.012429e+00 -1.431364e+00 -1.875753e+00 2.433652e+00 1.153959e-01 -2.080135e-01 -2.236451e-01 -3.383846e-01 1.505722e-01 -8.595441e-03 -7.116044e-02 -1.504470e-03 7.429440e-02 1.841373e-02 6.760760e-03 -1.855521e-02 5.429989e-01 -2.897839e-02 -9.916130e-02 -2.683494e-02 -9.684334e-02 -9.032326e-02 -7.973127e-03 -1.836926e-02 4.611577e-02 1.761311e-02 1.284708e-02 3.460532e-02 1.089864e-02 1.518580e-01
<VARIANCE> 39
 2.979431e+01 5.203049e+01 5.192629e+01 5.537445e+01 5.729204e+01 5.255333e+01 4.564793e+01 5.749945e+01 4.795015e+01 3.142277e+01 3.895505e+01 3.760518e+01 8.239812e+01 9.182069e-01 1.530148e+00 1.512646e+00 1.786080e+00 1.527047e+00 1.493157e+00 1.264082e+00 1.828601e+00 1.177339e+00 9.123590e-01 1.234484e+00 1.069922e+00 3.057116e+00 1.112037e-01 1.795308e-01 1.636105e-01 1.850401e-01 1.962905e-01 1.748013e-01 1.655999e-01 2.362523e-01 1.567090e-01 1.182462e-01 1.482544e-01 1.265573e-01 2.976051e-01
<GCONST> 1.031513e+02
<STATE> 3
<MEAN> 39
 3.313237e+00 -3.896598e-01 -2.635108e-01 -1.679685e+00 3.167046e-01 6.991985e-04 -2.532440e+00 -2.302516e+00 -1.134475e+00 -9.645248e-01 -1.155336e+00 -1.878726e+00 5.234019e+00 5.251025e-02 -3.425635e-01 -2.130075e-01 -4.017479e-01 -1.503122e-01 -1.497636e-02 -7.213343e-02 8.329896e-02 9.676937e-02 2.801294e-02 5.752433e-02 -1.335955e-02 6.791934e-01 -3.220256e-02 -4.062993e-03 2.424084e-02 6.367827e-06 -7.602090e-02 9.702081e-04 1.145503e-02 1.976817e-02 -1.282717e-02 -1.084294e-02 9.832218e-03 6.385791e-03 1.994989e-04
<VARIANCE> 39
 2.941577e+01 5.090056e+01 5.102888e+01 5.851649e+01 5.512655e+01 5.878447e+01 4.789517e+01 6.125494e+01 4.908730e+01 3.526354e+01 4.044482e+01 4.023362e+01 7.538142e+01 1.030498e+00 1.828785e+00 1.726848e+00 2.058567e+00 1.845998e+00 1.891082e+00 1.467999e+00 2.163283e+00 1.392653e+00 1.018139e+00 1.385663e+00 1.225355e+00 3.262465e+00 1.147822e-01 2.075282e-01 1.635226e-01 2.202905e-01 2.252253e-01 1.930344e-01 1.807212e-01 2.733794e-01 1.689839e-01 1.343464e-01 1.584627e-01 1.398953e-01 3.446047e-01
<GCONST> 1.067365e+02
<STATE> 4
<MEAN> 39
 3.626170e+00 -1.668528e+00 -6.769275e-01 -3.032408e+00 -9.180878e-01 -3.503371e-02 -3.181463e+00 -1.915619e+00 -9.543065e-01 -1.161556e+00 -9.971675e-01 -2.049735e+00 7.198095e+00 -5.939601e-02 -1.589415e-01 -1.870319e-02 -1.472443e-01 -1.964772e-01 -6.320874e-02 2.781317e-02 9.385134e-02 -3.259153e-03 -1.458780e-02 2.411666e-02 -2.627597e-05 3.003676e-01 -3.181564e-02 4.255623e-02 4.499849e-02 4.040619e-02 -1.423964e-04 7.016672e-04 1.448947e-02 -7.650319e-03 -2.261914e-02 -9.440027e-03 -2.765259e-03 6.907961e-03 -7.415280e-02
<VARIANCE> 39
 2.598133e+01 4.758141e+01 5.372364e+01 5.804681e+01 5.194042e+01 6.183375e+01 4.916763e+01 6.256263e+01 5.121569e+01 3.660126e+01 4.233107e+01 4.068731e+01 6.128414e+01 8.768328e-01 1.646201e+00 1.542847e+00 1.995723e+00 1.998096e+00 1.815741e+00 1.538295e+00 2.069439e+00 1.368310e+00 1.068268e+00 1.382711e+00 1.152933e+00 2.555894e+00 9.863690e-02 1.872572e-01 1.447642e-01 2.233923e-01 2.273123e-01 1.905377e-01 1.875742e-01 2.597677e-01 1.592536e-01 1.449344e-01 1.635977e-01 1.371081e-01 2.916121e-01
<GCONST> 1.053915e+02
<TRANSP> 5
 0.000000e+00 1.000000e+00 0.000000e+00 0.000000e+00 0.000000e+00
 0.000000e+00 5.696749e-01 4.303251e-01 0.000000e+00 0.000000e+00
 0.000000e+00 0.000000e+00 6.256872e-01 3.743128e-01 0.000000e+00
 0.000000e+00 0.000000e+00 0.000000e+00 7.520218e-01 2.479782e-01
 0.000000e+00 0.000000e+00 0.000000e+00 0.000000e+00 0.000000e+00
<ENDHMM>
~h "c"
<BEGINHMM>
<NUMSTATES> 5
<STATE> 2
<MEAN> 39
 -1.338328e+00 -1.379005e+00 -7.694725e-01 -3.144822e+00 9.036717e-01 -1.899634e+00 3.770016e-01 8.941715e-01 9.343000e-01 -3.472482e-01 -1.302444e+00 -9.507006e-01 3.833781e+00 -1.952081e-01 -9.732199e-02 7.306471e-03 -1.634587e-01 1.724040e-01 -1.584629e-02 1.215607e-01 1.163214e-01 4.973812e-02 -2.343283e-02 -1.240177e-03 1.022801e-01 2.073277e-01 4.895819e-02 -5.207635e-02 1.989349e-02 -8.696003e-03 -5.177408e-02 -3.907858e-03 -3.666154e-02 1.455281e-02 -2.018706e-02 -1.352274e-02 -1.811595e-02 -8.853461e-03 8.737177e-02
<VARIANCE> 39
 6.413354e+01 4.345930e+01 6.058518e+01 4.322366e+01 5.256470e+01 5.833215e+01 4.142486e+01 4.618005e+01 4.063036e+01 2.842902e+01 4.004778e+01 3.793352e+01 7.283056e+01 2.064122e+00 1.169009e+00 1.320788e+00 1.103331e+00 1.372786e+00 1.414247e+00 1.038757e+00 1.042267e+00 8.269907e-01 7.121184e-01 1.076758e+00 9.757876e-01 1.955395e+00 2.560477e-01 1.238351e-01 1.555015e-01 1.393672e-01 1.618652e-01 1.463019e-01 1.319732e-01 1.232654e-01 1.075130e-01 9.081356e-02 1.135753e-01 1.143546e-01 2.048327e-01
<GCONST> 9.821891e+01
<STATE> 3
<MEAN> 39
 -5.419131e-01 -2.330119e+00 -5.219945e-01 -3.401719e+00 5.383595e-01 -1.525754e+00 2.521395e-02 1.106832e+00 6.720570e-01 -4.058806e-01 -1.310144e+00 -1.118706e+00 4.556818e+00 2.463043e-02 -1.431312e-01 -7.626214e-02 -5.002393e-02 6.280024e-02 1.049720e-02 4.880070e-02 9.906112e-02 3.667686e-02 -2.775034e-02 -2.338862e-02 5.067449e-02 1.624264e-01 2.773148e-02 -5.225055e-03 1.588583e-02 2.022716e-02 -5.691779e-02 -1.995735e-02 -3.000250e-02 -1.562317e-02 -1.840997e-02 -9.634364e-03 1.977346e-03 -8.506327e-03 4.454894e-02
<VARIANCE> 39
 5.667299e+01 4.101422e+01 6.379447e+01 4.234853e+01 5.150131e+01 5.739486e+01 3.963593e+01 4.562453e+01 4.042054e+01 2.917916e+01 3.679593e+01 3.926936e+01 7.183826e+01 1.897628e+00 1.075034e+00 1.272440e+00 1.131832e+00 1.411392e+00 1.294258e+00 1.049245e+00 1.008612e+00 8.618898e-01 6.776050e-01 9.931005e-01 8.869978e-01 1.894323e+00 2.152354e-01 1.124336e-01 1.533175e-01 1.261707e-01 1.655741e-01 1.335808e-01 1.327269e-01 1.194091e-01 1.058601e-01 9.217358e-02 1.085415e-01 1.066222e-01 1.936793e-01
<GCONST> 9.680271e+01
<STATE> 4
<MEAN> 39
 2.117931e-03 -1.972292e+00 -2.134339e+00 -2.410894e+00 8.682116e-01 -1.266928e+00 4.361849e-01 1.348174e+00 1.333105e+00 -1.083184e-01 -9.560067e-01 -6.607329e-01 2.051860e+00 -9.091804e-02 -4.387753e-03 -2.461389e-02 -2.730075e-03 2.700801e-02 -5.587706e-03 4.638462e-02 1.974326e-02 2.421875e-02 -4.011875e-04 2.998489e-02 9.239957e-02 3.324108e-02 1.710332e-02 -1.259061e-02 4.652924e-02 -1.774863e-03 -5.413816e-02 -2.123537e-02 -3.995671e-02 -1.191916e-02 -1.817714e-02 -5.968083e-03 -6.772089e-03 -2.397863e-02 6.888409e-02
<VARIANCE> 39
 3.939757e+01 3.330677e+01 5.690409e+01 3.784259e+01 4.396835e+01 5.381659e+01 3.417099e+01 4.050109e+01 3.808289e+01 2.698549e+01 3.243581e+01 3.764184e+01 7.342844e+01 1.088761e+00 7.142133e-01 9.744791e-01 8.645905e-01 1.050235e+00 9.101045e-01 8.079357e-01 8.429987e-01 7.161667e-01 5.814290e-01 7.116447e-01 7.044432e-01 1.540266e+00 1.187283e-01 7.321620e-02 1.041438e-01 8.827971e-02 1.265384e-01 1.020124e-01 1.014755e-01 9.279054e-02 8.658139e-02 7.790773e-02 8.704101e-02 9.127564e-02 1.331024e-01
<GCONST> 8.758466e+01
<TRANSP> 5
 0.000000e+00 1.000000e+00 0.000000e+00 0.000000e+00 0.000000e+00
 0.000000e+00 5.616578e-01 4.383422e-01 0.000000e+00 0.000000e+00
 0.000000e+00 0.000000e+00 4.713353e-01 5.286647e-01 0.000000e+00
 0.000000e+00 0.000000e+00 0.000000e+00 5.608943e-01 4.391058e-01
 0.000000e+00 0.000000e+00 0.000000e+00 0.000000e+00 0.000000e+00
<ENDHMM>
~h "d"
<BEGINHMM>
<NUMSTATES> 5
<STATE> 2
<MEAN> 39
 1.089913e+00 -1.341033e+00 4.407812e+00 -1.627237e+00 -4.461889e+00 -2.753524e+00 -3.417343e+00 -2.575867e+00 -2.924266e+00 -1.382210e+00 2.076147e-01 -3.046463e+00 7.401744e+00 -4.904917e-02 -1.368073e-01 3.319788e-01 -1.114902e-01 -3.631905e-01 -1.401912e-01 -1.218440e-01 -5.497613e-02 -1.863632e-01 -4.283084e-02 1.156474e-01 -6.620115e-02 3.948073e-01 8.270601e-03 6.543312e-04 -3.093086e-02 3.471503e-03 8.469031e-03 1.620637e-02 3.853281e-03 1.084728e-02 1.350282e-02 1.786154e-02 -8.941076e-03 1.337178e-02 -3.019602e-02
<VARIANCE> 39
 3.535682e+01 3.947184e+01 7.731979e+01 4.234048e+01 8.078797e+01 5.366488e+01 5.906197e+01 6.173440e+01 5.325125e+01 3.647078e+01 4.756800e+01 3.896600e+01 7.983900e+01 1.203183e+00 1.211295e+00 2.229740e+00 1.470725e+00 2.615359e+00 1.549183e+00 1.936793e+00 1.927426e+00 1.657600e+00 1.045865e+00 1.470751e+00 1.189739e+00 3.043521e+00 1.355507e-01 1.376849e-01 2.300946e-01 1.721673e-01 3.055502e-01 1.794306e-01 2.308086e-01 2.263494e-01 1.867323e-01 1.306115e-01 1.904359e-01 1.466088e-01 3.348975e-01
<GCONST> 1.081166e+02
<STATE> 3
<MEAN> 39
 1.136667e+00 -2.027548e+00 5.187598e+00 -2.168163e+00 -5.540039e+00 -3.132234e+00 -3.732769e+00 -2.504702e+00 -3.351127e+00 -1.259937e+00 5.797450e-01 -3.094303e+00 8.443658e+00 2.615597e-02 -1.467855e-01 1.015605e-01 -1.215781e-01 -2.242321e-01 -3.379279e-02 -6.712856e-02 4.641366e-02 -6.008326e-02 2.406592e-02 9.221304e-03 -2.308239e-02 2.297950e-01 1.098786e-02 2.198940e-02 -5.718588e-02 1.661670e-02 5.587758e-02 2.888450e-02 1.595925e-02 6.399920e-03 2.956224e-02 1.250495e-02 -2.766339e-02 1.210498e-02 -6.939823e-02
<VARIANCE> 39
 2.976288e+01 3.530066e+01 8.126355e+01 3.955947e+01 7.858128e+01 5.499346e+01 5.591268e+01 6.470258e+01 5.803990e+01 3.595268e+01 4.816768e+01 3.879845e+01 6.729809e+01 1.056291e+00 1.197545e+00 2.292889e+00 1.424435e+00 2.549522e+00 1.542686e+00 1.810336e+00 1.950009e+00 1.774471e+00 1.084900e+00 1.531307e+00 1.180002e+00 2.796917e+00 1.171508e-01 1.323339e-01 2.235008e-01 1.648379e-01 2.981207e-01 1.813242e-01 2.206908e-01 2.271610e-01 1.997561e-01 1.325920e-01 1.902228e-01 1.489884e-01 3.172665e-01
<GCONST> 1.072636e+02
<STATE> 4
<MEAN> 39
 2.497783e+00 -3.894259e+00 4.023020e+00 -4.188130e+00 -6.305538e+00 -3.641622e+00 -4.493954e+00 -1.942474e+00 -2.990677e+00 -1.346316e+00 -1.157717e+00 -4.097338e+00 1.074527e+01 2.485528e-02 5.359765e-02 -6.501602e-02 4.148377e-02 7.430396e-02 2.179939e-02 6.750172e-02 1.881609e-02 4.722961e-02 5.869087e-02 -4.319527e-02 3.867456e-02 -1.787038e-01 -5.925894e-03 2.751862e-02 -2.367951e-02 2.521869e-02 4.301656e-02 1.038563e-02 1.803902e-02 -4.557191e-03 1.709567e-02 -2.984123e-05 2.802149e-03 2.059262e-02 -5.526866e-02
<VARIANCE> 39
 2.414342e+01 3.717103e+01 8.351819e+01 4.025418e+01 6.978345e+01 5.695369e+01 5.359852e+01 6.496586e+01 5.805495e+01 4.018308e+01 5.380305e+01 4.049370e+01 7.063725e+01 6.949813e-01 9.421734e-01 1.788127e+00 1.219867e+00 1.883940e+00 1.240574e+00 1.345959e+00 1.642189e+00 1.386724e+00 9.703381e-01 1.293439e+00 1.018169e+00 2.082715e+00 7.888453e-02 1.039702e-01 1.705786e-01 1.361543e-01 2.167459e-01 1.465740e-01 1.628201e-01 1.939265e-01 1.553271e-01 1.173087e-01 1.529778e-01 1.220921e-01 2.216299e-01
<GCONST> 1.010803e+02
<TRANSP> 5
 0.000000e+00 1.000000e+00 0.000000e+00 0.000000e+00 0.000000e+00
 0.000000e+00 8.128507e-01 1.871493e-01 0.000000e+00 0.000000e+00
 0.000000e+00 0.000000e+00 7.831482e-01 2.168518e-01 0.000000e+00
 0.000000e+00 0.000000e+00 0.000000e+00 9.046583e-01 9.534167e-02
 0.000000e+00 0.000000e+00 0.000000e+00 0.000000e+00 0.000000e+00
<ENDHMM>
~h "e"
<BEGINHMM>
<NUMSTATES> 5
<STATE> 2
<MEAN> 39
 5.804340e-01 -1.347114e+00 4.335895e+00 -2.020045e+00 -5.284063e+00 -2.717227e+00 -9.971873e-01 -8.960385e-01 -3.253346e+00 9.159111e-01 1.120300e+00 -1.344185e+00 4.180092e+00 -1.008154e-01 -1.713274e-01 5.358756e-01 -2.489195e-01 -4.717723e-01 -4.632161e-02 -4.437847e-02 1.618781e-02 -2.996630e-01 5.885534e-03 1.251045e-01 9.064348e-04 4.293444e-01 1.449116e-02 -1.541944e-02 -3.132098e-02 -2.737502e-02 3.649015e-02 3.914889e-02 -2.303875e-03 -2.726732e-02 1.393025e-02 -2.848488e-02 -3.724427e-02 -8.476084e-03 4.204647e-02
<VARIANCE> 39
 2.945872e+01 3.348132e+01 8.649800e+01 4.306059e+01 9.838721e+01 4.744271e+01 4.492894e+01 5.726181e+01 5.879044e+01 3.294580e+01 4.548536e+01 3.660617e+01 8.470139e+01 7.363076e-01 9.840238e-01 1.930525e+00 1.154059e+00 1.876545e+00 1.210633e+00 1.006130e+00 1.381981e+00 1.268326e+00 7.926869e-01 1.024040e+00 7.467710e-01 2.024476e+00 8.771398e-02 1.037204e-01 1.874339e-01 1.246620e-01 2.070839e-01 1.206842e-01 1.098411e-01 1.596099e-01 1.393911e-01 1.070493e-01 1.157867e-01 9.809973e-02 2.146263e-01
<GCONST> 9.818143e+01
<STATE> 3
<MEAN> 39
 5.102075e-01 -1.801005e+00 5.051243e+00 -2.818581e+00 -6.003769e+00 -2.538384e+00 -1.063269e+00 -1.038807e+00 -3.726346e+00 8.220264e-01 1.081520e+00 -1.424853e+00 5.282202e+00 -2.319135e-02 -1.209603e-01 2.862368e-01 -1.848577e-01 -2.316774e-01 3.029824e-03 -2.999249e-02 -7.821499e-02 -1.742487e-01 -4.666713e-02 -9.988779e-03 -1.306828e-02 3.300191e-01 7.833818e-03 1.580314e-02 -7.506450e-02 3.343178e-02 8.031100e-02 2.527882e-02 7.947267e-03 -2.515860e-02 5.198400e-02 -2.563581e-02 -3.621061e-02 -5.272044e-03 -2.002190e-02
<VARIANCE> 39
 2.603231e+01 3.138060e+01 8.872527e+01 4.204449e+01 1.015928e+02 4.932988e+01 4.441994e+01 5.975550e+01 5.748732e+01 3.350265e+01 4.746294e+01 3.665616e+01 7.941293e+01 7.924376e-01 9.533943e-01 2.294854e+00 1.267447e+00 2.124711e+00 1.240645e+00 1.072743e+00 1.389014e+00 1.447661e+00 8.688399e-01 1.159323e+00 8.644296e-01 2.379765e+00 8.303247e-02 9.770269e-02 1.895559e-01 1.301749e-01 2.078902e-01 1.211507e-01 1.181627e-01 1.682213e-01 1.404952e-01 1.022488e-01 1.305542e-01 1.022350e-01 2.082092e-01
<GCONST> 9.941921e+01
<STATE> 4
<MEAN> 39
 6.089100e-01 -2.466976e+00 5.025039e+00 -3.560899e+00 -6.466108e+00 -2.216332e+00 -2.078040e+00 -2.159225e+00 -3.736983e+00 3.941972e-01 2.269727e-01 -2.591635e+00 7.481575e+00 2.308472e-02 -4.117413e-02 -6.479630e-02 3.287131e-02 1.380024e-01 1.412990e-02 1.852198e-02 -7.995559e-02 8.591408e-02 -6.022466e-02 -1.098101e-01 -1.975329e-02 3.030065e-02 -2.826893e-03 2.589870e-02 -6.711917e-02 5.497834e-02 7.722741e-02 3.952477e-03 1.082724e-02 7.519817e-03 5.195229e-02 -2.474842e-03 -8.628192e-03 1.272067e-02 -5.820944e-02
<VARIANCE> 39
 2.176347e+01 3.011912e+01 9.429507e+01 4.094753e+01 9.604436e+01 5.120037e+01 4.466767e+01 5.778373e+01 5.957139e+01 3.747412e+01 6.233839e+01 3.794484e+01 8.762046e+01 7.229185e-01 8.360740e-01 2.337365e+00 1.401953e+00 2.252569e+00 1.316301e+00 1.150086e+00 1.418459e+00 1.604026e+00 8.756189e-01 1.559294e+00 1.058061e+00 2.818865e+00 7.921281e-02 8.545852e-02 1.878523e-01 1.409958e-01 2.093207e-01 1.456150e-01 1.312431e-01 1.801291e-01 1.656006e-01 1.043430e-01 1.773701e-01 1.253186e-01 2.516333e-01
<GCONST> 1.017604e+02
<TRANSP> 5
 0.000000e+00 1.000000e+00 0.000000e+00 0.000000e+00 0.000000e+00
 0.000000e+00 5.549706e-01 4.450295e-01 0.000000e+00 0.000000e+00
 0.000000e+00 0.000000e+00 5.482078e-01 4.517922e-01 0.000000e+00
 0.000000e+00 0.000000e+00 0.000000e+00 7.676775e-01 2.323225e-01
 0.000000e+00 0.000000e+00 0.000000e+00 0.000000e+00 0.000000e+00
<ENDHMM>
~h "g"
<BEGINHMM>
<NUMSTATES> 5
<STATE> 2
<MEAN> 39
 3.703637e+00 -1.870893e+00 -2.355099e+00 -3.559445e+00 1.406239e-01 -4.897494e-01 -2.448169e+00 -1.094152e+00 4.503472e-03 1.126864e+00 -1.082022e+00 -2.912421e+00 3.389106e+00 -4.986275e-02 1.505787e-01 -8.683915e-02 1.753569e-01 1.224139e-01 1.332479e-02 6.473620e-02 -2.384980e-02 1.115261e-01 2.780225e-02 -1.217602e-02 5.378761e-02 -3.453150e-01 -3.005241e-03 -6.528206e-03 3.777744e-02 7.328473e-03 -2.329017e-02 -2.555836e-02 -5.012353e-03 7.619412e-03 -2.710622e-02 -1.339500e-02 1.071149e-02 9.769309e-03 1.191070e-02
<VARIANCE> 39
 1.923786e+01 3.609023e+01 5.595717e+01 3.985230e+01 4.132306e+01 4.888301e+01 4.637068e+01 4.500159e+01 4.155026e+01 3.842269e+01 3.422446e+01 3.661018e+01 7.082626e+01 3.882804e-01 6.501490e-01 7.066109e-01 6.922169e-01 8.134211e-01 8.833534e-01 8.567238e-01 8.979906e-01 8.656776e-01 8.199091e-01 7.504863e-01 7.116147e-01 1.127918e+00 4.358705e-02 6.442973e-02 7.616178e-02 9.082877e-02 9.656203e-02 1.035633e-01 1.045900e-01 1.068126e-01 1.052983e-01 9.654899e-02 8.909452e-02 9.093925e-02 1.188432e-01
<GCONST> 8.493636e+01
<STATE> 3
<MEAN> 39
 3.552010e+00 -1.448329e+00 -2.464149e+00 -3.095285e+00 3.280528e-01 -4.808904e-01 -2.248686e+00 -1.142902e+00 1.021333e-01 1.191817e+00 -9.530591e-01 -2.609293e+00 2.522243e+00 -5.063434e-02 1.233051e-01 -1.825684e-02 1.731338e-01 6.617039e-02 -2.641824e-02 6.732546e-02 -4.212536e-03 5.095931e-02 -8.316992e-03 2.247616e-03 6.843924e-02 -2.829676e-01 6.896514e-04 -2.385763e-02 3.672332e-02 -1.443099e-02 -3.197686e-02 -2.024643e-02 6.884300e-03 8.138806e-03 -3.154578e-02 -1.516057e-02 5.456907e-03 1.118143e-02 5.127130e-02
<VARIANCE> 39
 2.013431e+01 3.643991e+01 5.367823e+01 3.998934e+01 4.052835e+01 4.839050e+01 4.572602e+01 4.427747e+01 4.115389e+01 3.806333e+01 3.332882e+01 3.684617e+01 7.038326e+01 4.047607e-01 6.085560e-01 6.792931e-01 6.544162e-01 7.615973e-01 8.212672e-01 8.023174e-01 8.314509e-01 8.102937e-01 7.469420e-01 7.077422e-01 6.629323e-01 1.092738e+00 4.636051e-02 6.010743e-02 6.972606e-02 8.513415e-02 9.048550e-02 9.944208e-02 1.005780e-01 1.021460e-01 9.755553e-02 9.132902e-02 8.338338e-02 8.644974e-02 1.120955e-01
<GCONST> 8.346889e+01
<STATE> 4
<MEAN> 39
 3.392011e+00 -4.727603e-01 -3.021102e+00 -2.671374e+00 4.211959e-01 -5.442418e-01 -2.056566e+00 -1.717759e+00 4.784582e-01 1.445738e+00 -5.455691e-01 -1.847406e+00 6.207839e-01 -7.511473e-02 8.172547e-02 4.924215e-02 1.122563e-01 1.270066e-02 -3.820585e-02 1.213236e-01 2.984467e-02 1.749339e-02 -1.735253e-02 7.241924e-03 7.537177e-02 -1.400490e-01 -6.476863e-03 -3.886553e-02 2.821967e-02 -3.182191e-02 -2.325728e-02 -1.210787e-02 1.942409e-02 5.334944e-03 -2.792540e-02 -1.374885e-02 -1.861177e-03 4.550060e-03 8.944331e-02
<VARIANCE> 39
 1.968650e+01 3.614107e+01 4.790217e+01 3.888794e+01 3.691702e+01 4.710575e+01 3.943682e+01 4.230129e+01 4.348293e+01 3.762479e+01 3.179162e+01 3.622304e+01 6.684202e+01 4.117729e-01 5.361779e-01 6.172594e-01 6.408218e-01 7.072554e-01 8.037910e-01 6.988952e-01 7.455752e-01 7.313638e-01 6.665692e-01 6.302755e-01 6.260630e-01 9.474328e-01 4.858954e-02 5.609836e-02 6.319980e-02 7.861584e-02 8.471303e-02 9.616074e-02 8.996092e-02 9.372372e-02 9.025551e-02 8.863205e-02 7.717239e-02 7.989179e-02 1.017567e-01
<GCONST> 8.095126e+01
<TRANSP> 5
 0.000000e+00 1.000000e+00 0.000000e+00 0.000000e+00 0.000000e+00
 0.000000e+00 4.079983e-01 5.920017e-01 0.000000e+00 0.000000e+00
 0.000000e+00 0.000000e+00 4.083800e-01 5.916200e-01 0.000000e+00
 0.000000e+00 0.000000e+00 0.000000e+00 6.060737e-01 3.939263e-01
 0.000000e+00 0.000000e+00 0.000000e+00 0.000000e+00 0.000000e+00
<ENDHMM>
~h "h"
<BEGINHMM>
<NUMSTATES> 5
<STATE> 2
<MEAN> 39
 2.044889e+00 -1.353841e+00 6.693652e-01 -8.507683e-01 -9.220829e-01 -5.955791e-01 2.152548e+00 1.606146e+00 -4.522360e-01 -6.112111e-01 -1.097466e+00 6.095753e-02 2.021640e+00 -7.747374e-02 1.491434e-01 -1.754074e-01 1.285799e-01 1.293682e-01 9.140052e-02 1.193113e-01 -4.345487e-02 5.841725e-02 3.712758e-02 1.135936e-01 1.283976e-01 -4.017200e-01 6.986255e-03 -3.572293e-02 1.741362e-02 -4.338494e-02 -3.857642e-02 -2.592163e-02 -5.100484e-02 4.129633e-03 -2.173925e-02 -4.865729e-03 4.808035e-03 -3.202414e-02 4.688437e-02
<VARIANCE> 39
 2.040380e+01 3.077184e+01 5.359045e+01 3.245209e+01 5.262308e+01 4.224204e+01 4.519720e+01 5.238453e+01 3.549750e+01 3.319470e+01 3.332428e+01 3.049399e+01 6.050917e+01 2.988465e-01 5.083721e-01 7.217131e-01 5.971816e-01 1.017632e+00 7.048178e-01 7.616307e-01 8.539432e-01 6.384401e-01 6.333218e-01 6.694380e-01 5.986425e-01 6.784126e-01 3.263373e-02 5.421178e-02 6.408442e-02 7.059598e-02 1.088871e-01 7.445420e-02 9.324694e-02 9.114709e-02 7.719267e-02 7.637088e-02 8.017252e-02 7.435806e-02 5.330389e-02
<GCONST> 7.895271e+01
<STATE> 3
<MEAN> 39
 1.962682e+00 -1.227454e+00 4.334188e-01 -7.480884e-01 -9.091079e-01 -5.673734e-01 2.223326e+00 1.542372e+00 -4.411800e-01 -5.819299e-01 -8.757825e-01 1.413614e-01 1.503087e+00 -4.888599e-02 9.858933e-02 -1.511920e-01 5.462010e-02 5.556095e-02 3.143664e-02 3.164981e-02 -4.177874e-02 2.704767e-02 2.810523e-02 9.506845e-02 6.402984e-02 -3.155625e-01 1.184895e-02 -3.327091e-02 1.766821e-02 -3.942827e-02 -4.239165e-02 -2.976079e-02 -4.672224e-02 4.846737e-03 -1.933614e-02 -7.441907e-03 -9.182336e-03 -3.084052e-02 5.707211e-02
<VARIANCE> 39
 1.947679e+01 3.016410e+01 5.273472e+01 3.219227e+01 5.153873e+01 4.159753e+01 4.477586e+01 5.249820e+01 3.490659e+01 3.372311e+01 3.237860e+01 3.010291e+01 6.148174e+01 2.697902e-01 4.651015e-01 6.569076e-01 5.452514e-01 9.226850e-01 6.476052e-01 7.080874e-01 7.919731e-01 6.192746e-01 5.895505e-01 6.196461e-01 5.674324e-01 6.490666e-01 3.015407e-02 5.100315e-02 5.838531e-02 6.610982e-02 1.011930e-01 7.092768e-02 8.843431e-02 8.615477e-02 7.149244e-02 7.212102e-02 7.427683e-02 6.954071e-02 4.837639e-02
<GCONST> 7.690341e+01
<STATE> 4
<MEAN> 39
 1.144321e+00 -2.126371e-01 -9.953330e-01 8.994719e-03 -9.283936e-01 -4.249806e-01 1.776212e+00 1.502362e+00 4.013573e-01 -5.254327e-02 4.241741e-02 5.251585e-01 -1.865300e+00 -4.042993e-02 9.128075e-02 -6.471567e-02 6.003067e-02 5.538300e-02 2.330797e-02 3.060745e-02 -7.098353e-03 2.239183e-02 -1.015458e-02 3.404694e-02 3.807402e-02 -1.830000e-01 4.263864e-03 -1.004146e-02 1.332295e-02 -1.134262e-02 -4.592550e-03 -8.078757e-03 -9.772760e-03 -5.782306e-03 -8.038262e-03 -4.722336e-03 -9.719330e-03 -1.087725e-02 3.267790e-02
<VARIANCE> 39
 1.925794e+01 2.674914e+01 4.567309e+01 2.821623e+01 4.176809e+01 3.612460e+01 3.303056e+01 4.535541e+01 3.312181e+01 2.817365e+01 2.793035e+01 2.845147e+01 6.206915e+01 1.877374e-01 3.043599e-01 4.121224e-01 3.986722e-01 5.705417e-01 4.724739e-01 4.975536e-01 5.493927e-01 4.722563e-01 4.438809e-01 4.390983e-01 4.431566e-01 3.496573e-01 2.150429e-02 3.307089e-02 4.057724e-02 4.762952e-02 6.544208e-02 5.617744e-02 6.258038e-02 6.720101e-02 5.872316e-02 5.658000e-02 5.612142e-02 5.651296e-02 3.278847e-02
<GCONST> 6.637960e+01
<TRANSP> 5
 0.000000e+00 1.000000e+00 0.000000e+00 0.000000e+00 0.000000e+00
 0.000000e+00 3.702457e-01 6.297542e-01 0.000000e+00 0.000000e+00
 0.000000e+00 0.000000e+00 3.664288e-01 6.335711e-01 0.000000e+00
 0.000000e+00 0.000000e+00 0.000000e+00 8.261515e-01 1.738485e-01
 0.000000e+00 0.000000e+00 0.000000e+00 0.000000e+00 0.000000e+00
<ENDHMM>
~h "i"
<BEGINHMM>
<NUMSTATES> 5
<STATE> 2
<MEAN> 39
 1.721001e+00 -8.248030e-01 2.626609e+00 -1.537930e+00 -2.924932e+00 -1.171825e+00 -1.180466e+00 -1.784332e+00 -2.362809e+00 -6.414746e-01 -6.319629e-01 -1.673819e+00 4.011483e+00 1.468240e-02 4.265427e-02 -6.962467e-02 4.879422e-02 3.380022e-03 -1.183288e-02 9.065058e-02 -7.782052e-02 -2.355578e-02 -4.394153e-02 9.631225e-03 6.855505e-02 -9.868510e-02 -1.939459e-02 -2.186985e-02 1.692556e-02 -2.556858e-02 7.946344e-04 -2.501992e-02 -2.809702e-02 4.490512e-03 8.177634e-03 5.507865e-05 -2.493576e-03 -2.407170e-03 3.849884e-02
<VARIANCE> 39
 2.547924e+01 3.801049e+01 7.030276e+01 4.682564e+01 6.238379e+01 5.285089e+01 4.316822e+01 5.723176e+01 4.691174e+01 2.946974e+01 3.858737e+01 3.588754e+01 7.644984e+01 5.696105e-01 7.560772e-01 1.278589e+00 9.991416e-01 1.515127e+00 9.638789e-01 1.007999e+00 1.193597e+00 1.059161e+00 6.787853e-01 9.029427e-01 7.970410e-01 1.539639e+00 6.314467e-02 8.612718e-02 1.233504e-01 1.111090e-01 1.745442e-01 1.081715e-01 1.197904e-01 1.413276e-01 1.231044e-01 8.819594e-02 1.139666e-01 9.250567e-02 1.596409e-01
<GCONST> 9.264290e+01
<STATE> 3
<MEAN> 39
 1.668562e+00 -7.513276e-01 2.546415e+00 -1.455357e+00 -2.910346e+00 -1.347318e+00 -1.054298e+00 -1.958637e+00 -2.402688e+00 -6.817273e-01 -6.112465e-01 -1.567679e+00 3.865708e+00 -9.396066e-03 -5.084885e-03 -6.409856e-02 7.037776e-04 1.736661e-02 -4.771212e-02 3.223500e-02 -4.765212e-02 1.417290e-03 -3.513210e-02 9.757717e-03 6.147883e-02 -2.109792e-02 -1.323074e-02 -3.354714e-02 1.694865e-02 -3.354671e-02 -3.395535e-03 -2.064535e-02 -3.439498e-02 1.981129e-02 9.140332e-03 5.489044e-03 -3.984014e-03 -1.234614e-02 6.263466e-02
<VARIANCE> 39
 2.526031e+01 3.774282e+01 7.015436e+01 4.666649e+01 6.280580e+01 5.254165e+01 4.279900e+01 5.679990e+01 4.612246e+01 2.971375e+01 3.764349e+01 3.472575e+01 7.606859e+01 5.606391e-01 7.831066e-01 1.286573e+00 1.010243e+00 1.565116e+00 9.947404e-01 1.019937e+00 1.203718e+00 1.061016e+00 6.834437e-01 9.467684e-01 8.032365e-01 1.634995e+00 6.680705e-02 8.795494e-02 1.259194e-01 1.129692e-01 1.797410e-01 1.075409e-01 1.221677e-01 1.347404e-01 1.228399e-01 8.636736e-02 1.085857e-01 9.227470e-02 1.658045e-01
<GCONST> 9.285349e+01
<STATE> 4
<MEAN> 39
 1.624255e+00 -5.971926e-01 2.248982e+00 -1.266685e+00 -2.949147e+00 -1.525465e+00 -9.836702e-01 -2.099760e+00 -2.248010e+00 -5.825354e-01 -4.987277e-01 -1.350497e+00 3.082528e+00 -3.429858e-02 -4.215648e-02 -4.885754e-02 -2.811261e-02 4.829050e-02 -5.840471e-02 -1.736925e-02 -7.746131e-03 3.289608e-02 -1.646321e-02 1.012716e-02 4.430282e-02 4.869394e-02 -1.438428e-02 -3.450799e-02 2.366489e-02 -3.338442e-02 -7.236056e-03 -1.506457e-02 -1.997345e-02 2.583944e-02 4.252434e-03 5.540880e-03 -4.963310e-03 -2.161372e-02 7.575728e-02
<VARIANCE> 39
 2.450794e+01 3.635637e+01 6.621832e+01 4.554853e+01 5.903797e+01 5.014886e+01 4.167527e+01 5.722434e+01 4.389298e+01 2.997373e+01 3.560333e+01 3.297217e+01 7.860809e+01 5.448296e-01 7.765319e-01 1.252913e+00 9.538627e-01 1.465952e+00 9.667217e-01 9.953507e-01 1.154440e+00 1.009068e+00 6.620060e-01 9.081641e-01 7.544193e-01 1.592093e+00 6.673337e-02 8.411597e-02 1.203407e-01 1.053584e-01 1.672845e-01 1.037919e-01 1.152120e-01 1.269274e-01 1.126270e-01 8.290134e-02 1.002035e-01 8.768544e-02 1.532239e-01
<GCONST> 9.124199e+01
<TRANSP> 5
 0.000000e+00 1.000000e+00 0.000000e+00 0.000000e+00 0.000000e+00
 0.000000e+00 3.500196e-01 6.499804e-01 0.000000e+00 0.000000e+00
 0.000000e+00 0.000000e+00 3.519860e-01 6.480140e-01 0.000000e+00
 0.000000e+00 0.000000e+00 0.000000e+00 4.555877e-01 5.444123e-01
 0.000000e+00 0.000000e+00 0.000000e+00 0.000000e+00 0.000000e+00
<ENDHMM>
~h "j"
<BEGINHMM>
<NUMSTATES> 5
<STATE> 2
<MEAN> 39
 1.293915e+00 1.200551e+00 1.055326e+00 -8.667933e-01 3.269773e-01 -2.108911e+00 -1.408738e+00 -2.284698e+00 -1.228453e+00 -1.651475e+00 -1.671471e+00 -9.513684e-01 4.187483e+00 -1.953861e-01 -6.238842e-02 1.557308e-01 -1.351309e-01 8.138929e-02 -3.858132e-01 -8.896177e-02 1.521442e-01 9.767347e-02 -5.249827e-02 -7.011931e-02 9.119919e-02 4.276890e-01 5.457796e-03 -1.135589e-01 1.739430e-03 -7.486716e-02 -1.309248e-01 -4.834419e-03 -4.734306e-02 5.764504e-02 -2.858012e-03 1.713325e-03 1.743623e-02 -2.050340e-02 1.478200e-01
<VARIANCE> 39
 3.490678e+01 4.946452e+01 5.322652e+01 4.612648e+01 6.005396e+01 6.201525e+01 5.030102e+01 5.855959e+01 4.181746e+01 2.939994e+01 4.192063e+01 3.699905e+01 7.711264e+01 1.175373e+00 1.693834e+00 1.674109e+00 1.510419e+00 2.269002e+00 1.794037e+00 1.742440e+00 1.693029e+00 1.212083e+00 8.452260e-01 1.014909e+00 1.214944e+00 2.770817e+00 1.609797e-01 1.797004e-01 1.729120e-01 1.650126e-01 2.948489e-01 2.028647e-01 2.176569e-01 2.008184e-01 1.402693e-01 1.189106e-01 1.298309e-01 1.435126e-01 2.898343e-01
<GCONST> 1.049475e+02
<STATE> 3
<MEAN> 39
 4.134793e-01 -2.095323e-02 1.817625e+00 -2.070586e+00 -7.560183e-01 -3.672773e+00 -2.486006e+00 -1.309126e+00 -8.156440e-01 -1.849178e+00 -1.845816e+00 -6.739026e-01 7.558292e+00 1.194283e-02 -4.777659e-01 3.626383e-02 -2.786040e-01 -3.839757e-01 -1.869778e-01 -2.114363e-01 3.004828e-01 9.284000e-02 -1.880669e-02 -5.780878e-02 -9.084060e-02 6.508902e-01 6.869489e-02 -4.605081e-02 -4.856236e-02 -2.181782e-03 -4.861389e-02 9.257993e-02 -4.592290e-04 -6.945542e-03 -1.802669e-02 1.004417e-02 -8.337607e-03 -6.470213e-02 -3.781915e-02
<VARIANCE> 39
 3.737774e+01 4.962091e+01 5.550733e+01 4.019181e+01 7.061775e+01 5.977510e+01 5.838852e+01 6.418282e+01 4.384095e+01 3.082578e+01 3.997845e+01 3.772475e+01 6.867323e+01 1.511140e+00 2.029664e+00 2.112448e+00 1.485535e+00 2.649861e+00 2.027669e+00 1.967238e+00 2.167791e+00 1.377006e+00 9.931043e-01 1.164012e+00 1.418037e+00 2.604595e+00 1.872861e-01 2.110278e-01 2.029059e-01 1.611099e-01 3.593384e-01 2.240979e-01 2.491240e-01 2.439726e-01 1.533995e-01 1.304701e-01 1.410211e-01 1.719162e-01 3.007012e-01
<GCONST> 1.086103e+02
<STATE> 4
<MEAN> 39
 1.844198e+00 -3.078809e+00 5.090595e-01 -4.038354e+00 -1.991280e+00 -2.798957e+00 -3.459318e+00 -3.101903e-01 -6.366280e-01 -1.766762e+00 -1.985332e+00 -2.374343e+00 1.003103e+01 2.115840e-01 -2.959812e-01 -1.267430e-01 -1.291832e-01 -1.779716e-01 1.680714e-01 -3.485906e-02 9.054900e-02 -3.673769e-02 1.839386e-02 -7.623249e-02 -2.364274e-01 1.049940e-01 -2.583264e-04 8.129267e-02 -3.677221e-03 4.690182e-02 7.198809e-02 5.298632e-02 5.005577e-02 -6.713311e-02 -2.755867e-02 1.052823e-02 -3.103489e-03 1.446766e-04 -1.338673e-01
<VARIANCE> 39
 2.617944e+01 4.133833e+01 6.079797e+01 3.977420e+01 6.064371e+01 5.770749e+01 5.047070e+01 6.804042e+01 4.648814e+01 3.288881e+01 3.739993e+01 4.034403e+01 7.625397e+01 9.494650e-01 1.428271e+00 1.930590e+00 1.152125e+00 2.158328e+00 1.636621e+00 1.464010e+00 1.839808e+00 1.164634e+00 9.048642e-01 1.080112e+00 1.272502e+00 2.042652e+00 1.242778e-01 1.499890e-01 1.818540e-01 1.290143e-01 2.616788e-01 1.894798e-01 1.798904e-01 2.219283e-01 1.327399e-01 1.120775e-01 1.187773e-01 1.555826e-01 2.184537e-01
<GCONST> 1.025038e+02
<TRANSP> 5
 0.000000e+00 1.000000e+00 0.000000e+00 0.000000e+00 0.000000e+00
 0.000000e+00 6.661971e-01 3.338028e-01 0.000000e+00 0.000000e+00
 0.000000e+00 0.000000e+00 7.371857e-01 2.628143e-01 0.000000e+00
 0.000000e+00 0.000000e+00 0.000000e+00 6.664456e-01 3.335544e-01
 0.000000e+00 0.000000e+00 0.000000e+00 0.000000e+00 0.000000e+00
<ENDHMM>
~h "k"
<BEGINHMM>
<NUMSTATES> 5
<STATE> 2
<MEAN> 39
 9.242631e-01 -2.605084e+00 4.346610e-01 -3.533456e+00 -1.792779e+00 -1.109865e+00 -2.631813e+00 -1.543701e+00 -1.689142e+00 -5.081453e-03 -8.546715e-01 -2.179260e+00 5.688399e+00 -1.046508e-02 -2.668597e-01 1.930238e-02 -2.207421e-01 -6.993288e-02 -6.649026e-02 -9.897510e-02 7.749798e-02 -2.319560e-02 -2.044993e-02 -7.760560e-02 -1.430898e-01 5.141858e-01 1.757162e-02 7.371986e-03 1.099230e-02 9.027428e-03 -3.982619e-02 5.611755e-03 -8.492168e-03 5.804691e-03 -9.889995e-05 -1.955226e-02 4.132351e-03 -1.954829e-02 2.468638e-02
<VARIANCE> 39
 3.402488e+01 4.141763e+01 8.656416e+01 4.503695e+01 7.479371e+01 6.200883e+01 4.887762e+01 5.437991e+01 5.437786e+01 3.828031e+01 4.483757e+01 4.467734e+01 7.993206e+01 1.057980e+00 1.249300e+00 2.195369e+00 1.518953e+00 2.242563e+00 1.810066e+00 1.407003e+00 1.682274e+00 1.633995e+00 1.178544e+00 1.443056e+00 1.385535e+00 2.934725e+00 1.191969e-01 1.393813e-01 2.168626e-01 1.726318e-01 2.697943e-01 1.984583e-01 1.744487e-01 1.934283e-01 1.836761e-01 1.468004e-01 1.822752e-01 1.692330e-01 2.946410e-01
<GCONST> 1.073061e+02
<STATE> 3
<MEAN> 39
 1.266750e+00 -3.728487e+00 2.054273e-01 -4.429566e+00 -2.129796e+00 -1.347517e+00 -3.001874e+00 -8.299819e-01 -1.506572e+00 -9.230936e-02 -1.311350e+00 -2.931821e+00 7.446302e+00 7.778184e-02 -1.506553e-01 1.667961e-02 -9.440800e-02 -1.392443e-01 -1.453918e-03 -7.356837e-02 9.875543e-02 1.838062e-03 -7.838389e-02 -4.624850e-02 -1.656907e-01 3.534330e-01 1.111892e-02 5.098369e-02 -1.881828e-05 5.170048e-02 -4.481065e-03 1.818904e-02 2.169952e-02 -1.771918e-02 1.699588e-03 -1.181826e-02 1.623372e-02 1.912496e-02 -8.278224e-02
<VARIANCE> 39
 3.113019e+01 4.269962e+01 8.823555e+01 4.344015e+01 7.661801e+01 6.318758e+01 4.918470e+01 5.734478e+01 5.647363e+01 3.930650e+01 4.556345e+01 4.554018e+01 7.179025e+01 9.939212e-01 1.214724e+00 2.112772e+00 1.460287e+00 2.255692e+00 1.809494e+00 1.376177e+00 1.666757e+00 1.665979e+00 1.148552e+00 1.453382e+00 1.459482e+00 2.685709e+00 1.130548e-01 1.351263e-01 2.075344e-01 1.653636e-01 2.706963e-01 1.950483e-01 1.692345e-01 1.946210e-01 1.905347e-01 1.417003e-01 1.845218e-01 1.780487e-01 2.725297e-01
<GCONST> 1.068722e+02
<STATE> 4
<MEAN> 39
 2.109259e+00 -4.114101e+00 -4.936483e-01 -4.533887e+00 -2.319154e+00 -1.243575e+00 -2.517349e+00 6.159259e-02 -1.049552e+00 -4.814806e-01 -1.710889e+00 -3.503991e+00 7.547710e+00 5.902658e-02 7.540859e-02 1.676523e-03 9.405912e-02 -3.516651e-02 3.044589e-02 5.744058e-02 -6.138350e-03 2.203442e-02 -3.433285e-02 2.808670e-03 -8.676374e-03 -8.226875e-02 -1.572520e-02 4.569325e-02 4.774709e-03 4.076777e-02 3.022054e-02 1.878841e-03 2.253160e-02 -2.896410e-02 1.340494e-03 9.709141e-03 1.434309e-02 4.156075e-02 -8.187785e-02
<VARIANCE> 39
 2.547026e+01 4.213697e+01 7.810449e+01 4.367468e+01 6.707532e+01 6.153443e+01 4.509404e+01 5.359198e+01 5.193082e+01 3.698820e+01 4.107741e+01 4.186405e+01 6.810372e+01 7.279786e-01 9.818610e-01 1.503355e+00 1.161894e+00 1.653765e+00 1.372971e+00 1.124728e+00 1.373264e+00 1.280002e+00 9.713371e-01 1.087413e+00 1.158188e+00 2.069262e+00 8.236171e-02 1.060342e-01 1.502365e-01 1.295357e-01 1.997819e-01 1.493159e-01 1.367688e-01 1.607613e-01 1.489010e-01 1.163552e-01 1.363653e-01 1.391789e-01 1.980936e-01
<GCONST> 9.914133e+01
<TRANSP> 5
 0.000000e+00 1.000000e+00 0.000000e+00 0.000000e+00 0.000000e+00
 0.000000e+00 7.355217e-01 2.644783e-01 0.000000e+00 0.000000e+00
 0.000000e+00 0.000000e+00 6.890994e-01 3.109006e-01 0.000000e+00
 0.000000e+00 0.000000e+00 0.000000e+00 6.599867e-01 3.400133e-01
 0.000000e+00 0.000000e+00 0.000000e+00 0.000000e+00 0.000000e+00
<ENDHMM>
~h "l"
<BEGINHMM>
<NUMSTATES> 5
<STATE> 2
<MEAN> 39
 2.615525e+00 -3.488572e+00 3.353552e+00 -3.870868e+00 -2.599537e+00 -3.199043e+00 -5.671642e+00 -1.907148e-01 -8.845936e-01 -2.010113e+00 -1.838618e+00 -3.145961e+00 8.394542e+00 1.489568e-01 -1.330835e-01 1.583472e-01 -2.067521e-01 -6.564014e-02 -1.265662e-01 -3.917109e-01 8.612590e-02 2.177161e-02 -8.640649e-03 -7.694467e-02 -6.237357e-02 1.943831e-01 -9.012851e-03 1.542753e-02 -6.091478e-02 6.781616e-03 1.221863e-05 3.829626e-02 8.490630e-02 -1.902619e-02 -2.686725e-02 3.968090e-02 2.709303e-02 7.971437e-05 -2.742835e-02
<VARIANCE> 39
 2.004698e+01 3.863364e+01 7.270874e+01 3.833772e+01 5.588893e+01 5.017313e+01 8.717491e+01 5.794104e+01 4.641943e+01 4.274002e+01 4.293612e+01 3.970590e+01 6.222544e+01 5.459708e-01 1.227290e+00 1.885067e+00 1.016232e+00 1.739960e+00 1.215648e+00 2.861269e+00 1.864642e+00 1.192721e+00 1.251197e+00 1.162275e+00 9.413558e-01 1.673643e+00 5.616448e-02 1.383934e-01 1.674190e-01 1.088534e-01 1.928077e-01 1.291993e-01 3.151029e-01 2.220183e-01 1.358875e-01 1.472350e-01 1.351544e-01 1.072489e-01 1.636167e-01
<GCONST> 1.004015e+02
<STATE> 3
<MEAN> 39
 3.219375e+00 -3.807668e+00 2.956786e+00 -4.411358e+00 -2.847023e+00 -3.346075e+00 -5.882946e+00 -5.491259e-02 -7.607669e-01 -1.386096e+00 -1.936412e+00 -3.512444e+00 8.362152e+00 7.997605e-02 -4.983898e-02 -1.375178e-01 -6.877799e-02 -5.187923e-02 -7.038105e-04 9.384203e-02 2.111216e-02 -5.551402e-02 1.393749e-01 2.378490e-02 -4.767721e-02 1.942512e-02 -1.898943e-02 3.447406e-02 -5.322350e-02 3.685690e-02 1.575893e-02 3.990581e-02 1.008923e-01 -2.998630e-02 -3.454337e-02 2.218183e-02 2.294260e-02 1.219494e-02 -5.443579e-02
<VARIANCE> 39
 1.706695e+01 3.584162e+01 6.952933e+01 3.659439e+01 5.481265e+01 4.816787e+01 7.977701e+01 5.925668e+01 4.557308e+01 4.687172e+01 4.290871e+01 3.964214e+01 5.641426e+01 4.552715e-01 1.219804e+00 1.617818e+00 1.107272e+00 1.483595e+00 1.111480e+00 2.447751e+00 1.808378e+00 1.166669e+00 1.226379e+00 1.143808e+00 9.143318e-01 1.676591e+00 4.828752e-02 1.368682e-01 1.526195e-01 1.161514e-01 1.753578e-01 1.257996e-01 2.791054e-01 2.113031e-01 1.370861e-01 1.529333e-01 1.386034e-01 1.092054e-01 1.705824e-01
<GCONST> 9.879489e+01
<STATE> 4
<MEAN> 39
 3.403222e+00 -3.196480e+00 2.157798e+00 -4.150098e+00 -3.084842e+00 -3.498233e+00 -4.977818e+00 -4.334080e-01 -1.193573e+00 -4.999278e-01 -1.868158e+00 -3.463242e+00 6.926730e+00 -5.267072e-03 9.624705e-02 -1.909954e-01 7.499107e-02 2.648675e-02 5.841735e-02 2.817625e-01 -2.259481e-02 -9.358542e-02 1.115134e-01 7.012206e-02 4.486404e-02 -2.025085e-01 -2.090487e-02 1.831995e-02 -9.587608e-03 1.412887e-02 9.853984e-03 1.823460e-02 2.906115e-02 -1.177919e-02 -8.179011e-03 -5.308828e-03 1.222695e-02 1.846395e-02 -2.599374e-02
<VARIANCE> 39
 1.689631e+01 3.658499e+01 6.897623e+01 3.430066e+01 5.149414e+01 4.678218e+01 6.191508e+01 5.628024e+01 4.713266e+01 4.153840e+01 3.960960e+01 3.610365e+01 5.485232e+01 4.120114e-01 1.019576e+00 1.183754e+00 9.777048e-01 1.159638e+00 9.782206e-01 1.643516e+00 1.425862e+00 9.947811e-01 1.007218e+00 9.503580e-01 8.109546e-01 1.553982e+00 4.299764e-02 1.110596e-01 1.190466e-01 1.012262e-01 1.327986e-01 1.109924e-01 1.951628e-01 1.671997e-01 1.181857e-01 1.220048e-01 1.157469e-01 9.707741e-02 1.361301e-01
<GCONST> 9.297994e+01
<TRANSP> 5
 0.000000e+00 1.000000e+00 0.000000e+00 0.000000e+00 0.000000e+00
 0.000000e+00 6.848361e-01 3.151639e-01 0.000000e+00 0.000000e+00
 0.000000e+00 0.000000e+00 6.115569e-01 3.884431e-01 0.000000e+00
 0.000000e+00 0.000000e+00 0.000000e+00 6.430814e-01 3.569186e-01
 0.000000e+00 0.000000e+00 0.000000e+00 0.000000e+00 0.000000e+00
<ENDHMM>
~h "m"
<BEGINHMM>
<NUMSTATES> 5
<STATE> 2
<MEAN> 39
 2.816528e+00 -2.045598e+00 9.556874e-01 -1.461019e+00 -1.418774e+00 -6.118991e-01 -1.633201e+00 -1.305658e+00 -2.457336e+00 -1.410248e+00 -6.044827e-01 -2.679624e+00 5.125490e+00 2.307734e-02 5.352500e-02 1.040921e-01 7.303441e-02 -5.725322e-02 1.338455e-03 9.017573e-02 -5.294448e-02 -6.881346e-02 -1.360913e-02 -3.275720e-02 -4.131170e-03 -9.333208e-02 -1.251047e-02 -9.046867e-03 1.067046e-02 -2.707591e-02 -1.592741e-02 -1.892109e-02 -6.949601e-03 1.228862e-02 6.701373e-03 5.815561e-03 -4.282242e-03 6.229522e-03 2.874925e-02
<VARIANCE> 39
 3.001954e+01 3.670129e+01 5.918123e+01 4.178234e+01 5.296033e+01 5.263802e+01 4.206296e+01 5.516874e+01 4.328138e+01 3.429152e+01 3.859837e+01 3.642515e+01 6.908002e+01 5.528680e-01 6.479865e-01 1.138239e+00 9.630167e-01 1.131980e+00 8.128527e-01 1.018711e+00 1.255226e+00 9.155547e-01 7.528287e-01 7.766777e-01 6.728873e-01 1.009827e+00 5.585006e-02 6.929630e-02 1.135428e-01 9.973057e-02 1.216879e-01 9.192522e-02 1.132631e-01 1.515256e-01 1.112723e-01 9.258917e-02 9.317284e-02 8.344425e-02 8.948687e-02
<GCONST> 8.874116e+01
<STATE> 3
<MEAN> 39
 2.809189e+00 -1.957167e+00 1.225184e+00 -1.443045e+00 -1.623762e+00 -6.817518e-01 -1.493792e+00 -1.388275e+00 -2.553071e+00 -1.421207e+00 -6.036143e-01 -2.632057e+00 5.052671e+00 -8.592050e-03 3.097609e-02 8.845757e-02 1.265606e-02 -7.994208e-02 -2.469211e-02 9.147223e-02 -1.772047e-03 -3.607516e-02 -6.091101e-04 -3.172241e-02 1.529108e-02 -4.911581e-02 -7.928104e-03 -1.699626e-02 -5.998108e-03 -2.743781e-02 -1.431234e-02 -1.515802e-02 -1.005672e-02 2.322070e-02 1.493972e-02 6.127102e-03 -2.667392e-03 6.458113e-03 2.920953e-02
<VARIANCE> 39
 3.037204e+01 3.626944e+01 5.959606e+01 4.095010e+01 5.235647e+01 5.219192e+01 4.094629e+01 5.407244e+01 4.302626e+01 3.432652e+01 3.858326e+01 3.540299e+01 6.473656e+01 5.602970e-01 6.477042e-01 1.148185e+00 9.500418e-01 1.136313e+00 8.278673e-01 1.005455e+00 1.261122e+00 9.361782e-01 7.847782e-01 7.600086e-01 6.616841e-01 1.031962e+00 5.413221e-02 6.768303e-02 1.154401e-01 9.853338e-02 1.204326e-01 8.984264e-02 1.114212e-01 1.467575e-01 1.096864e-01 9.225415e-02 9.300888e-02 8.050154e-02 8.620605e-02
<GCONST> 8.840606e+01
<STATE> 4
<MEAN> 39
 2.682183e+00 -1.785651e+00 1.532454e+00 -1.555569e+00 -2.099442e+00 -8.798667e-01 -9.281338e-01 -1.356919e+00 -2.570459e+00 -1.296589e+00 -7.025520e-01 -2.434693e+00 4.396241e+00 -2.012714e-02 3.210638e-02 2.696181e-02 -1.230914e-02 -8.510344e-02 -2.526204e-02 8.639094e-02 4.636389e-02 1.973913e-02 2.012427e-02 -2.807553e-02 3.210934e-02 -6.767396e-02 1.895575e-03 -1.938001e-02 -1.323282e-02 -1.454719e-02 -5.960254e-03 -5.460467e-03 -1.323133e-02 2.329375e-02 1.555846e-02 -9.156146e-04 -3.345740e-03 4.155475e-03 2.148768e-02
<VARIANCE> 39
 2.959240e+01 3.482206e+01 5.892043e+01 3.926926e+01 5.092857e+01 4.885497e+01 3.880198e+01 4.987589e+01 3.917270e+01 3.392899e+01 3.668439e+01 3.395670e+01 5.989328e+01 4.879717e-01 6.056806e-01 1.051397e+00 8.680608e-01 1.053428e+00 7.937173e-01 9.091080e-01 1.123174e+00 8.591443e-01 7.564627e-01 7.034711e-01 6.100548e-01 9.094414e-01 4.729838e-02 6.262959e-02 1.012144e-01 9.078040e-02 1.110489e-01 8.296066e-02 1.019539e-01 1.291540e-01 9.861857e-02 8.621491e-02 8.550747e-02 7.432264e-02 7.325678e-02
<GCONST> 8.535251e+01
<TRANSP> 5
 0.000000e+00 1.000000e+00 0.000000e+00 0.000000e+00 0.000000e+00
 0.000000e+00 3.579668e-01 6.420332e-01 0.000000e+00 0.000000e+00
 0.000000e+00 0.000000e+00 3.541578e-01 6.458422e-01 0.000000e+00
 0.000000e+00 0.000000e+00 0.000000e+00 5.167581e-01 4.832419e-01
 0.000000e+00 0.000000e+00 0.000000e+00 0.000000e+00 0.000000e+00
<ENDHMM>
~h "n"
<BEGINHMM>
<NUMSTATES> 5
<STATE> 2
<MEAN> 39
 3.119992e+00 -1.635042e+00 1.644176e+00 -9.398495e-01 -2.777224e+00 -1.085429e+00 -1.369922e+00 -9.654343e-01 -2.141595e+00 -1.244556e+00 -2.145440e+00 -2.286087e+00 4.431642e+00 1.515775e-02 1.353762e-01 5.528630e-02 1.543107e-01 -2.882011e-03 -2.490375e-02 4.089990e-02 -8.360492e-02 1.990595e-03 6.736979e-03 -5.185656e-02 3.640458e-02 -2.672876e-01 -2.457652e-02 -1.633416e-02 -1.791370e-02 -4.912049e-02 2.506256e-02 5.678467e-03 -4.140146e-03 1.664348e-02 6.298273e-03 1.034350e-02 3.182418e-02 -4.900442e-03 3.619871e-02
<VARIANCE> 39
 2.057428e+01 3.456950e+01 5.749717e+01 4.189457e+01 5.454018e+01 4.451329e+01 4.580859e+01 6.560775e+01 3.878849e+01 3.379271e+01 4.206717e+01 3.223139e+01 6.373261e+01 4.668211e-01 7.405894e-01 1.141371e+00 1.117855e+00 1.217074e+00 8.676266e-01 9.504908e-01 1.608936e+00 8.374686e-01 7.839013e-01 9.692799e-01 7.043476e-01 1.232757e+00 5.104783e-02 7.860179e-02 1.084262e-01 1.210298e-01 1.299559e-01 9.905308e-02 1.163396e-01 1.858858e-01 9.679139e-02 9.483685e-02 1.137265e-01 8.538685e-02 1.118474e-01
<GCONST> 8.989256e+01
<STATE> 3
<MEAN> 39
 3.109752e+00 -1.338511e+00 1.718446e+00 -6.967002e-01 -2.776377e+00 -1.117405e+00 -1.292671e+00 -1.160585e+00 -2.121165e+00 -1.213253e+00 -2.204978e+00 -2.189115e+00 3.951309e+00 -3.403566e-02 9.483662e-02 7.607544e-03 4.732691e-02 3.165729e-02 -8.822380e-03 3.586954e-02 -3.592481e-02 1.280438e-02 2.829033e-02 3.258260e-02 1.700513e-02 -1.871461e-01 -2.840889e-02 -3.195979e-02 -1.703653e-02 -6.469569e-02 1.959330e-02 2.646279e-03 -6.532353e-03 3.136434e-02 2.956735e-03 8.095764e-03 3.688751e-02 -1.165213e-02 6.405459e-02
<VARIANCE> 39
 2.014307e+01 3.411210e+01 5.731241e+01 4.106161e+01 5.445937e+01 4.329373e+01 4.396003e+01 6.331105e+01 3.847724e+01 3.338767e+01 4.221419e+01 3.195128e+01 6.351630e+01 4.738619e-01 7.335320e-01 1.110365e+00 1.130037e+00 1.178218e+00 8.598180e-01 9.743278e-01 1.566439e+00 8.419964e-01 7.672342e-01 9.743004e-01 7.175106e-01 1.269590e+00 5.148565e-02 7.677540e-02 1.091845e-01 1.200186e-01 1.309670e-01 9.884717e-02 1.157678e-01 1.829503e-01 9.556517e-02 9.297180e-02 1.145507e-01 8.276182e-02 1.126497e-01
<GCONST> 8.960111e+01
<STATE> 4
<MEAN> 39
 2.877504e+00 -6.659008e-01 1.432459e+00 -6.377785e-01 -2.691037e+00 -1.031913e+00 -1.103117e+00 -1.287275e+00 -1.858449e+00 -8.752837e-01 -1.916146e+00 -2.044747e+00 2.517898e+00 -8.171131e-02 5.320648e-02 -5.300264e-02 -2.397929e-02 8.094042e-02 3.795626e-03 2.515794e-02 2.939661e-02 3.637539e-02 2.858493e-02 9.905918e-02 1.427979e-02 -1.296999e-01 -2.393078e-02 -3.787501e-02 -2.931633e-03 -5.219926e-02 7.150003e-03 -9.672860e-03 -3.103968e-03 2.536194e-02 1.249995e-04 -2.509406e-03 1.794412e-02 -3.992927e-03 7.680571e-02
<VARIANCE> 39
 1.881577e+01 3.219040e+01 5.654662e+01 3.760358e+01 5.053538e+01 4.100558e+01 4.073260e+01 5.694820e+01 3.837165e+01 3.241498e+01 4.014426e+01 3.137688e+01 6.386849e+01 4.181211e-01 6.182460e-01 9.838970e-01 9.640790e-01 1.025288e+00 7.892336e-01 8.792635e-01 1.259593e+00 7.677873e-01 6.849812e-01 8.497661e-01 6.619650e-01 1.043244e+00 4.562671e-02 6.669061e-02 9.483662e-02 9.980544e-02 1.174855e-01 9.188235e-02 1.020230e-01 1.485035e-01 8.833934e-02 8.587403e-02 1.015638e-01 7.639443e-02 9.614564e-02
<GCONST> 8.560600e+01
<TRANSP> 5
 0.000000e+00 1.000000e+00 0.000000e+00 0.000000e+00 0.000000e+00
 0.000000e+00 3.648030e-01 6.351970e-01 0.000000e+00 0.000000e+00
 0.000000e+00 0.000000e+00 3.637099e-01 6.362901e-01 0.000000e+00
 0.000000e+00 0.000000e+00 0.000000e+00 5.346569e-01 4.653431e-01
 0.000000e+00 0.000000e+00 0.000000e+00 0.000000e+00 0.000000e+00
<ENDHMM>
~h "o"
<BEGINHMM>
<NUMSTATES> 5
<STATE> 2
<MEAN> 39
 2.158165e+00 1.530106e+00 -1.810486e-01 -4.131662e+00 -5.498915e-01 1.402115e+00 -2.493092e+00 -3.473804e+00 -2.751194e+00 -2.550733e-02 1.127401e+00 2.364664e-01 2.732806e+00 2.044479e-01 -3.380491e-03 1.961215e-02 -4.535679e-01 -8.264858e-02 1.366722e-01 -2.513529e-01 -2.207859e-01 -2.237730e-01 5.472446e-03 2.783606e-02 -8.453445e-03 3.352915e-01 -6.534635e-03 -3.448360e-02 1.744995e-02 1.286671e-02 -1.360400e-02 -3.020958e-02 -2.401603e-02 3.631050e-02 2.400866e-02 -4.849085e-04 -2.114950e-02 -4.005849e-02 3.916798e-02
<VARIANCE> 39
 3.665475e+01 3.392724e+01 5.973745e+01 8.699073e+01 5.825341e+01 6.709354e+01 6.180733e+01 4.491967e+01 4.728788e+01 3.767186e+01 3.972417e+01 3.493353e+01 8.607815e+01 1.020596e+00 8.314884e-01 1.494769e+00 2.007159e+00 1.786838e+00 1.768797e+00 1.802729e+00 1.308721e+00 1.391508e+00 1.248385e+00 1.157655e+00 1.078874e+00 2.322302e+00 1.027858e-01 9.617510e-02 1.395426e-01 2.197741e-01 2.096953e-01 2.002213e-01 2.005066e-01 1.579750e-01 1.701364e-01 1.620883e-01 1.506479e-01 1.251680e-01 2.169395e-01
<GCONST> 1.034814e+02
<STATE> 3
<MEAN> 39
 2.772972e+00 1.243290e+00 -3.810029e-02 -5.695759e+00 -1.056103e+00 1.899948e+00 -3.788625e+00 -4.160620e+00 -3.335492e+00 1.537866e-01 1.353155e+00 -2.431119e-02 4.309000e+00 1.117195e-01 -8.555143e-02 4.499669e-02 -1.913925e-01 -6.880532e-02 -5.278588e-02 -1.805597e-01 -6.751181e-02 -4.373898e-02 2.948156e-02 -2.996823e-02 -1.020538e-01 2.594328e-01 -3.527723e-02 -2.495009e-02 -3.303390e-03 7.727882e-02 3.646501e-03 -6.108058e-02 3.201161e-02 5.952983e-02 4.904799e-02 -4.298551e-03 -2.054697e-02 -1.991682e-02 -1.586626e-02
<VARIANCE> 39
 3.697928e+01 3.332348e+01 6.505965e+01 8.642390e+01 5.902835e+01 7.209076e+01 6.129252e+01 4.641295e+01 4.970494e+01 4.020860e+01 4.235490e+01 3.682978e+01 7.219651e+01 1.058857e+00 8.793987e-01 1.569104e+00 2.347028e+00 1.914253e+00 2.108658e+00 1.845093e+00 1.389016e+00 1.560034e+00 1.344468e+00 1.320110e+00 1.117706e+00 2.580403e+00 1.011111e-01 9.514549e-02 1.545837e-01 2.380474e-01 2.222443e-01 2.129689e-01 2.135017e-01 1.699753e-01 1.807778e-01 1.758920e-01 1.651725e-01 1.369298e-01 2.350696e-01
<GCONST> 1.056177e+02
<STATE> 4
<MEAN> 39
 3.176719e+00 1.183755e+00 -1.940825e-01 -5.736688e+00 -1.499488e+00 1.209819e+00 -3.587663e+00 -4.285106e+00 -3.172284e+00 2.543568e-01 1.226375e+00 -5.427381e-02 3.678383e+00 -3.576636e-02 -6.661002e-02 -1.676890e-02 1.469870e-01 3.973236e-02 -2.435456e-01 5.220669e-03 7.600801e-02 9.966516e-02 -7.783079e-03 -9.557004e-02 -1.003211e-01 3.118262e-02 -3.269941e-02 -2.744542e-02 1.489882e-03 4.248811e-02 8.541197e-03 -2.831691e-02 1.996280e-02 4.109721e-02 2.388475e-02 -4.279729e-03 -5.959840e-03 -1.206633e-02 1.746652e-02
<VARIANCE> 39
 2.965883e+01 3.283961e+01 6.209638e+01 7.466505e+01 5.531558e+01 6.869402e+01 5.406185e+01 4.478608e+01 4.301848e+01 3.805291e+01 3.990215e+01 3.518362e+01 6.490484e+01 7.883379e-01 8.107340e-01 1.326991e+00 1.810015e+00 1.634230e+00 1.665700e+00 1.423790e+00 1.199630e+00 1.307808e+00 1.205210e+00 1.130327e+00 9.538040e-01 1.998989e+00 7.767680e-02 8.877002e-02 1.311627e-01 1.853428e-01 1.831247e-01 1.657361e-01 1.673578e-01 1.446587e-01 1.433596e-01 1.520493e-01 1.428727e-01 1.215508e-01 1.856246e-01
<GCONST> 9.957088e+01
<TRANSP> 5
 0.000000e+00 1.000000e+00 0.000000e+00 0.000000e+00 0.000000e+00
 0.000000e+00 5.848387e-01 4.151614e-01 0.000000e+00 0.000000e+00
 0.000000e+00 0.000000e+00 6.330203e-01 3.669797e-01 0.000000e+00
 0.000000e+00 0.000000e+00 0.000000e+00 6.464536e-01 3.535464e-01
 0.000000e+00 0.000000e+00 0.000000e+00 0.000000e+00 0.000000e+00
<ENDHMM>
~h "p"
<BEGINHMM>
<NUMSTATES> 5
<STATE> 2
<MEAN> 39
 2.806972e+00 -4.070147e+00 -3.497932e+00 -3.959575e+00 -1.614482e-01 -2.861158e-02 -1.999247e+00 -1.770608e-01 7.937893e-01 -1.867067e-01 -1.138170e+00 -3.310443e+00 6.520108e+00 2.120029e-01 -3.935828e-01 -1.311513e-01 -3.509200e-01 -1.438794e-02 1.483021e-01 -7.710312e-02 4.132859e-02 -8.046023e-02 -1.105377e-01 -1.560981e-01 -2.305065e-01 8.133993e-01 1.321594e-02 5.645305e-03 5.276260e-03 1.370249e-02 -2.707255e-02 1.402481e-02 -8.337607e-03 -6.619034e-03 -2.116501e-02 -1.423220e-02 -1.109715e-02 4.099668e-03 1.312672e-02
<VARIANCE> 39
 2.716100e+01 4.422709e+01 5.229647e+01 5.148086e+01 5.485609e+01 6.568615e+01 4.796392e+01 4.774255e+01 4.072552e+01 4.077176e+01 4.112912e+01 4.413812e+01 1.043491e+02 7.979932e-01 1.248342e+00 1.167459e+00 1.670373e+00 1.488248e+00 2.040834e+00 1.290004e+00 1.401833e+00 1.125298e+00 1.110195e+00 1.094999e+00 1.289438e+00 3.557084e+00 9.841254e-02 1.330922e-01 1.265131e-01 1.879564e-01 1.657993e-01 2.228255e-01 1.472210e-01 1.622289e-01 1.366187e-01 1.274349e-01 1.302436e-01 1.543527e-01 3.645729e-01
<GCONST> 1.022891e+02
<STATE> 3
<MEAN> 39
 3.743860e+00 -5.427041e+00 -3.458481e+00 -4.957557e+00 -9.967922e-01 1.295818e-01 -2.668645e+00 -5.529643e-02 1.931991e-01 -6.677727e-01 -1.698707e+00 -4.111956e+00 9.507010e+00 1.249352e-01 -2.010136e-01 -3.102162e-02 -1.195925e-01 -6.607936e-02 3.092326e-02 -9.430469e-02 3.807510e-02 -6.459681e-02 -1.011677e-01 -1.270409e-01 -1.122887e-01 4.150504e-01 -2.969081e-02 6.413676e-02 2.435447e-02 7.106695e-02 1.021584e-03 -2.554434e-02 9.135070e-03 -1.459378e-02 7.290397e-04 -6.831153e-04 9.134517e-03 3.991386e-02 -1.251024e-01
<VARIANCE> 39
 2.371316e+01 4.042255e+01 5.946362e+01 4.985526e+01 5.983519e+01 7.467487e+01 4.731459e+01 5.584250e+01 4.564726e+01 4.164947e+01 4.359363e+01 4.258371e+01 8.717363e+01 8.163456e-01 1.279964e+00 1.416748e+00 1.762209e+00 1.586033e+00 2.109124e+00 1.315525e+00 1.569226e+00 1.220407e+00 1.135574e+00 1.222350e+00 1.291961e+00 3.530482e+00 9.275246e-02 1.312604e-01 1.471495e-01 1.893729e-01 1.818359e-01 2.265512e-01 1.493511e-01 1.839357e-01 1.457751e-01 1.303607e-01 1.467084e-01 1.546078e-01 3.345559e-01
<GCONST> 1.036845e+02
<STATE> 4
<MEAN> 39
 3.952662e+00 -5.967458e+00 -3.401498e+00 -5.100226e+00 -1.143865e+00 -5.584605e-01 -2.790714e+00 1.329377e-01 -2.568178e-01 -8.456786e-01 -2.781402e+00 -4.523100e+00 9.767423e+00 1.155655e-02 6.621856e-02 6.294160e-02 1.186525e-01 -1.388673e-02 -7.094500e-02 -1.676965e-02 -4.768372e-03 -2.082070e-02 -1.556521e-02 -7.933478e-02 5.259572e-02 -1.227856e-01 -2.319465e-02 4.831089e-02 2.111444e-02 3.250429e-02 1.011676e-02 -6.762117e-03 1.444376e-02 -1.220859e-02 6.567754e-03 1.490382e-02 1.382200e-02 2.837569e-02 -7.977730e-02
<VARIANCE> 39
 1.824241e+01 3.623281e+01 6.376751e+01 4.187958e+01 5.786555e+01 7.091505e+01 4.459725e+01 5.294804e+01 4.831645e+01 4.168418e+01 4.030534e+01 3.516398e+01 7.468594e+01 5.610063e-01 9.128016e-01 1.218658e+00 1.210370e+00 1.264514e+00 1.490725e+00 1.075362e+00 1.244755e+00 1.002074e+00 8.929892e-01 9.939017e-01 9.102433e-01 2.294363e+00 6.381010e-02 9.258825e-02 1.248754e-01 1.307928e-01 1.448748e-01 1.697103e-01 1.197322e-01 1.447928e-01 1.179239e-01 1.060438e-01 1.196607e-01 1.106468e-01 2.282524e-01
<GCONST> 9.539946e+01
<TRANSP> 5
 0.000000e+00 1.000000e+00 0.000000e+00 0.000000e+00 0.000000e+00
 0.000000e+00 6.803828e-01 3.196172e-01 0.000000e+00 0.000000e+00
 0.000000e+00 0.000000e+00 6.916010e-01 3.083989e-01 0.000000e+00
 0.000000e+00 0.000000e+00 0.000000e+00 7.683216e-01 2.316784e-01
 0.000000e+00 0.000000e+00 0.000000e+00 0.000000e+00 0.000000e+00
<ENDHMM>
~h "r"
<BEGINHMM>
<NUMSTATES> 5
<STATE> 2
<MEAN> 39
 3.253976e+00 -3.407401e+00 -1.149401e-01 -2.153126e+00 -2.102871e+00 -1.651773e+00 -3.146519e+00 1.375203e-01 -1.089474e-01 -7.820250e-01 -1.742485e+00 -2.305554e+00 6.233325e+00 3.491164e-02 1.840182e-02 1.486017e-01 9.460732e-02 -1.134188e-01 -8.116563e-02 -4.015170e-02 1.227820e-02 -1.136164e-01 4.072550e-03 5.723716e-02 6.767183e-02 -7.396399e-02 -1.730643e-02 1.258312e-02 1.249165e-03 -2.476763e-02 1.285308e-02 2.564623e-02 1.280236e-02 -1.820705e-02 -1.886183e-02 1.383013e-02 2.024366e-02 -9.107664e-03 3.445836e-03
<VARIANCE> 39
 2.175665e+01 3.667964e+01 6.079613e+01 3.980715e+01 6.030453e+01 5.552126e+01 5.256141e+01 5.501970e+01 5.364163e+01 3.474146e+01 4.132416e+01 3.550387e+01 6.468481e+01 5.547047e-01 9.210642e-01 1.404794e+00 1.182337e+00 1.674136e+00 1.262457e+00 1.307693e+00 1.532706e+00 1.445211e+00 9.382557e-01 1.050681e+00 9.762157e-01 1.656656e+00 5.991213e-02 9.601451e-02 1.336977e-01 1.354681e-01 1.918598e-01 1.363205e-01 1.496221e-01 1.767533e-01 1.606708e-01 1.222954e-01 1.310291e-01 1.173829e-01 1.533234e-01
<GCONST> 9.691656e+01
<STATE> 3
<MEAN> 39
 3.295294e+00 -3.323877e+00 2.440042e-01 -1.989787e+00 -2.419298e+00 -1.801804e+00 -3.240105e+00 1.360621e-01 -4.168056e-01 -7.512411e-01 -1.589594e+00 -2.231873e+00 6.124939e+00 -4.845544e-03 5.212834e-02 1.149940e-01 4.044718e-02 -5.499620e-02 -2.339807e-02 1.870260e-02 -2.722991e-02 -1.320503e-01 2.876240e-02 8.075141e-02 4.776805e-02 -9.550902e-02 -2.085173e-02 1.269692e-02 -1.026357e-02 -2.633413e-02 2.656304e-02 2.774756e-02 2.530619e-02 -2.074401e-02 -7.177664e-03 1.012303e-02 1.243696e-02 -1.187079e-02 1.106279e-03
<VARIANCE> 39
 2.133063e+01 3.596972e+01 6.133423e+01 3.781256e+01 5.973095e+01 5.363489e+01 5.138800e+01 5.517830e+01 5.392800e+01 3.465872e+01 4.070965e+01 3.469545e+01 6.254916e+01 5.417188e-01 8.761628e-01 1.478640e+00 1.117340e+00 1.684707e+00 1.244452e+00 1.317461e+00 1.501977e+00 1.478371e+00 9.459366e-01 1.065370e+00 9.650981e-01 1.541210e+00 5.787198e-02 9.262063e-02 1.333230e-01 1.277416e-01 1.901232e-01 1.330621e-01 1.490416e-01 1.733800e-01 1.600508e-01 1.216085e-01 1.305065e-01 1.150895e-01 1.449191e-01
<GCONST> 9.628516e+01
<STATE> 4
<MEAN> 39
 3.447660e+00 -3.145601e+00 -9.612732e-02 -2.009664e+00 -2.503929e+00 -2.059408e+00 -3.005085e+00 -4.293767e-02 -3.173659e-01 -4.899358e-01 -1.769099e+00 -2.362477e+00 5.166206e+00 -4.528621e-02 9.529620e-02 3.806578e-02 9.231646e-03 5.713908e-02 5.535385e-02 1.014430e-01 -6.240527e-02 -1.132135e-01 3.050709e-02 8.489121e-02 3.979871e-02 -1.419041e-01 -1.843192e-02 3.139791e-03 -8.691493e-03 -1.839462e-02 2.156087e-02 1.025599e-02 2.410433e-02 -8.156535e-03 7.841885e-03 -1.152290e-03 7.299283e-04 -3.448567e-03 2.034726e-02
<VARIANCE> 39
 1.938153e+01 3.429689e+01 6.112441e+01 3.651218e+01 5.675533e+01 5.129705e+01 4.619591e+01 5.141017e+01 5.084582e+01 3.309772e+01 3.863425e+01 3.354973e+01 6.409926e+01 4.730839e-01 7.584381e-01 1.264684e+00 9.324048e-01 1.428594e+00 1.094248e+00 1.127166e+00 1.302822e+00 1.195521e+00 8.580213e-01 9.356638e-01 8.423426e-01 1.290130e+00 5.212094e-02 8.234709e-02 1.156234e-01 1.036106e-01 1.570391e-01 1.179039e-01 1.298040e-01 1.481422e-01 1.311757e-01 1.069175e-01 1.129835e-01 1.008207e-01 1.194482e-01
<GCONST> 9.172239e+01
<TRANSP> 5
 0.000000e+00 1.000000e+00 0.000000e+00 0.000000e+00 0.000000e+00
 0.000000e+00 4.506492e-01 5.493509e-01 0.000000e+00 0.000000e+00
 0.000000e+00 0.000000e+00 4.448454e-01 5.551547e-01 0.000000e+00
 0.000000e+00 0.000000e+00 0.000000e+00 5.778159e-01 4.221842e-01
 0.000000e+00 0.000000e+00 0.000000e+00 0.000000e+00 0.000000e+00
<ENDHMM>
~h "s"
<BEGINHMM>
<NUMSTATES> 5
<STATE> 2
<MEAN> 39
 -3.471423e+00 1.037533e+00 -4.507919e-01 -1.775442e+00 1.633971e+00 -3.427706e+00 6.792438e-01 -9.690160e-01 -4.859653e-01 -7.904607e-01 -3.975466e-01 1.497918e-01 6.008976e+00 -4.311235e-01 7.812685e-02 -6.179196e-02 -1.389923e-01 1.892394e-01 -3.266307e-01 1.617641e-01 6.592634e-02 1.406910e-01 -7.324214e-02 4.982113e-03 9.958373e-02 5.813782e-01 2.626339e-02 -1.214217e-02 -2.248068e-02 5.546643e-03 -2.676458e-02 1.924943e-02 -1.491953e-02 2.181403e-03 1.158846e-02 4.253058e-03 3.287969e-04 -1.386194e-02 -1.648256e-02
<VARIANCE> 39
 7.374551e+01 5.889391e+01 7.325493e+01 4.787040e+01 7.931446e+01 6.293971e+01 7.268480e+01 5.242962e+01 5.354096e+01 3.401431e+01 4.218790e+01 4.420154e+01 8.537992e+01 2.532210e+00 1.925713e+00 1.943075e+00 1.406798e+00 2.445377e+00 1.670273e+00 2.158309e+00 1.629360e+00 1.549334e+00 8.907142e-01 1.251928e+00 1.305960e+00 2.299565e+00 2.536292e-01 1.874368e-01 1.956826e-01 1.543894e-01 2.639934e-01 1.766606e-01 2.392415e-01 1.889017e-01 1.715288e-01 1.143002e-01 1.546831e-01 1.506811e-01 2.001011e-01
<GCONST> 1.093558e+02
<STATE> 3
<MEAN> 39
 -3.796975e+00 7.847453e-01 -1.377836e+00 -2.758163e+00 9.290526e-01 -4.169850e+00 -4.483147e-01 -1.389437e+00 1.604350e-02 -1.106776e+00 -5.597216e-01 -2.727742e-01 9.112830e+00 1.036931e-01 -1.586781e-01 -1.065230e-02 -8.859037e-02 -1.048269e-01 -1.215774e-02 -1.279514e-01 1.499781e-02 3.445145e-02 -3.152984e-02 -2.192348e-02 -1.000742e-01 2.213393e-01 6.040998e-02 -2.700937e-02 5.188933e-03 1.223909e-04 -3.561680e-02 3.884218e-02 -3.512890e-02 -8.993789e-03 -2.048960e-02 3.140213e-03 -3.761780e-03 -2.903096e-02 -3.266734e-02
<VARIANCE> 39
 7.711003e+01 6.244641e+01 6.893583e+01 4.487971e+01 8.321216e+01 6.209808e+01 8.224448e+01 5.532254e+01 5.476481e+01 3.702893e+01 4.454247e+01 4.658703e+01 6.306514e+01 3.126609e+00 2.299217e+00 2.065921e+00 1.458883e+00 2.689828e+00 1.894856e+00 2.791075e+00 1.832153e+00 1.666634e+00 1.103290e+00 1.412778e+00 1.610963e+00 2.078861e+00 2.985676e-01 2.282878e-01 2.114365e-01 1.735505e-01 2.945878e-01 1.913415e-01 3.047290e-01 2.212015e-01 1.870870e-01 1.372143e-01 1.773636e-01 1.815797e-01 2.194531e-01
<GCONST> 1.128847e+02
<STATE> 4
<MEAN> 39
 7.691444e-02 -2.862634e+00 -6.849676e-01 -4.310566e+00 -1.380325e+00 -3.761095e+00 -2.732253e+00 -9.519220e-01 -4.468346e-01 -1.310267e+00 -1.648953e+00 -2.626029e+00 1.022924e+01 2.175074e-01 -8.050596e-02 3.177257e-02 -2.743003e-02 -1.029262e-01 1.022936e-01 -1.127949e-01 -2.030501e-02 -6.238006e-02 3.066365e-02 -1.256720e-02 -1.082700e-01 -5.344161e-02 -1.637139e-02 3.159151e-02 -2.905443e-03 1.930107e-02 1.789417e-02 1.013806e-02 2.965533e-02 -1.670412e-02 -3.644014e-03 4.183037e-03 6.014884e-03 1.796190e-02 -4.684841e-02
<VARIANCE> 39
 5.236595e+01 4.569453e+01 6.756697e+01 3.715709e+01 6.995295e+01 5.743177e+01 7.136510e+01 5.428333e+01 5.125539e+01 3.894332e+01 4.368837e+01 4.341183e+01 6.040466e+01 1.740343e+00 1.391726e+00 1.710081e+00 1.163731e+00 1.938572e+00 1.462942e+00 2.020829e+00 1.703856e+00 1.438974e+00 1.010671e+00 1.217535e+00 1.197144e+00 1.800429e+00 1.734271e-01 1.443301e-01 1.710823e-01 1.381777e-01 2.190861e-01 1.549588e-01 2.267108e-01 2.088040e-01 1.631533e-01 1.243474e-01 1.492276e-01 1.363415e-01 1.919611e-01
<GCONST> 1.049760e+02
<TRANSP> 5
 0.000000e+00 1.000000e+00 0.000000e+00 0.000000e+00 0.000000e+00
 0.000000e+00 8.253703e-01 1.746297e-01 0.000000e+00 0.000000e+00
 0.000000e+00 0.000000e+00 9.068413e-01 9.315865e-02 0.000000e+00
 0.000000e+00 0.000000e+00 0.000000e+00 9.185058e-01 8.149422e-02
 0.000000e+00 0.000000e+00 0.000000e+00 0.000000e+00 0.000000e+00
<ENDHMM>
~h "t"
<BEGINHMM>
<NUMSTATES> 5
<STATE> 2
<MEAN> 39
 5.336147e-01 -5.217496e-01 3.112364e+00 -1.541327e+00 -2.883313e+00 -2.574382e+00 -1.119122e+00 -2.098422e+00 -2.359173e+00 6.821243e-01 9.399211e-01 -1.056831e+00 2.973723e+00 -7.643973e-02 -3.037609e-02 2.627965e-01 -3.426963e-02 -1.108928e-01 3.932095e-02 3.945950e-02 -4.843842e-02 -1.427576e-01 2.444668e-02 5.589522e-02 -2.864290e-02 2.767021e-01 1.593424e-02 -2.352171e-02 -8.913256e-03 -2.454604e-02 -5.292682e-03 2.620098e-02 -3.097582e-02 1.461551e-02 1.331973e-02 -1.160959e-02 -2.716876e-02 -3.105726e-02 5.936515e-02
<VARIANCE> 39
 2.946590e+01 3.092961e+01 8.387851e+01 3.614668e+01 6.152073e+01 4.943686e+01 5.544345e+01 4.934190e+01 6.083585e+01 3.324301e+01 4.059931e+01 4.066293e+01 7.121532e+01 8.486706e-01 9.560235e-01 2.620790e+00 1.168591e+00 1.907781e+00 1.385333e+00 1.762233e+00 1.384899e+00 1.993511e+00 1.005077e+00 1.142490e+00 1.350731e+00 3.136250e+00 1.022889e-01 1.124386e-01 2.334122e-01 1.351333e-01 2.246500e-01 1.538796e-01 2.211522e-01 1.579041e-01 2.000038e-01 1.264678e-01 1.449915e-01 1.651139e-01 3.287758e-01
<GCONST> 1.036133e+02
<STATE> 3
<MEAN> 39
 5.271073e-01 -6.452428e-01 3.548741e+00 -1.680623e+00 -3.240083e+00 -2.299263e+00 -1.066255e+00 -2.041241e+00 -2.355380e+00 6.850682e-01 7.314157e-01 -1.189801e+00 3.749869e+00 1.711553e-02 -6.218058e-02 4.550988e-02 -6.503332e-02 -6.454349e-03 9.792137e-02 -8.151047e-03 8.613075e-03 1.967072e-02 8.024042e-03 -6.764712e-02 -5.661130e-02 2.198087e-01 1.921239e-02 -1.437682e-02 -4.121684e-02 -2.019903e-02 1.475682e-02 1.266784e-02 -2.465241e-02 1.556646e-02 1.973330e-02 -1.667779e-02 -3.348034e-02 -1.531789e-02 1.107581e-02
<VARIANCE> 39
 2.746273e+01 3.115617e+01 8.764171e+01 3.467018e+01 6.530228e+01 4.831833e+01 5.581326e+01 5.161398e+01 6.404296e+01 3.207550e+01 3.930193e+01 4.286307e+01 6.667658e+01 7.545418e-01 9.756161e-01 2.307044e+00 1.121743e+00 1.876477e+00 1.393416e+00 1.769746e+00 1.463319e+00 1.869515e+00 9.993686e-01 1.172768e+00 1.452927e+00 2.806607e+00 9.200589e-02 1.088120e-01 2.093741e-01 1.267398e-01 2.253273e-01 1.527488e-01 2.247343e-01 1.675142e-01 1.906138e-01 1.231120e-01 1.403369e-01 1.702635e-01 3.027109e-01
<GCONST> 1.029116e+02
<STATE> 4
<MEAN> 39
 7.600130e-01 -3.962508e-01 2.600263e+00 -1.444531e+00 -2.631024e+00 -1.926889e+00 -8.331971e-01 -1.756703e+00 -1.513885e+00 8.017449e-01 2.948834e-01 -9.708049e-01 2.660011e+00 2.156019e-02 -8.331617e-02 -1.020611e-01 -8.423257e-02 8.965437e-02 6.887347e-02 -1.508366e-02 5.075083e-02 7.726585e-02 -1.904343e-02 -8.334722e-02 -1.931902e-02 1.061812e-01 1.421942e-02 -2.039419e-02 2.611452e-03 -2.697933e-02 -1.857857e-02 -8.719105e-04 -3.166383e-02 3.764041e-03 -2.011197e-02 -1.822687e-02 -1.621219e-02 -1.784059e-02 4.195374e-02
<VARIANCE> 39
 2.481483e+01 3.032363e+01 8.013411e+01 3.431759e+01 5.788181e+01 4.554112e+01 4.966975e+01 4.982642e+01 5.480464e+01 3.150960e+01 3.597680e+01 3.920955e+01 6.511285e+01 6.297514e-01 8.671352e-01 1.634711e+00 9.765114e-01 1.527082e+00 1.176086e+00 1.407438e+00 1.310209e+00 1.363867e+00 9.083809e-01 1.028235e+00 1.148667e+00 2.230052e+00 7.533243e-02 9.238970e-02 1.507969e-01 1.063923e-01 1.828040e-01 1.318497e-01 1.830875e-01 1.478315e-01 1.469880e-01 1.121980e-01 1.222101e-01 1.410295e-01 2.208233e-01
<GCONST> 9.692478e+01
<TRANSP> 5
 0.000000e+00 1.000000e+00 0.000000e+00 0.000000e+00 0.000000e+00
 0.000000e+00 6.188360e-01 3.811640e-01 0.000000e+00 0.000000e+00
 0.000000e+00 0.000000e+00 5.552940e-01 4.447060e-01 0.000000e+00
 0.000000e+00 0.000000e+00 0.000000e+00 5.012039e-01 4.987962e-01
 0.000000e+00 0.000000e+00 0.000000e+00 0.000000e+00 0.000000e+00
<ENDHMM>
~h "u"
<BEGINHMM>
<NUMSTATES> 5
<STATE> 2
<MEAN> 39
 1.527907e+00 9.576743e-02 -3.891177e-01 -1.427209e+00 -1.270883e-01 -1.903867e-01 -1.697802e+00 -1.436829e+00 -1.686977e+00 -4.212824e-01 7.394045e-01 2.336649e-01 2.006823e+00 1.836863e-02 8.366578e-02 2.854066e-02 -7.549489e-02 8.733544e-02 7.116888e-03 -2.222641e-02 -1.055130e-01 -5.127636e-02 -1.293439e-02 7.917731e-02 5.360354e-02 7.302596e-02 5.617837e-03 -1.755519e-02 2.129406e-02 -2.360528e-02 -3.475195e-02 -2.724072e-02 -2.007557e-02 -6.965362e-03 1.510464e-02 -4.679734e-03 -3.767485e-02 -2.793926e-02 4.635004e-02
<VARIANCE> 39
 4.606330e+01 3.363367e+01 5.291249e+01 4.984275e+01 5.706903e+01 5.436309e+01 6.125903e+01 5.706483e+01 5.327091e+01 3.902351e+01 4.115306e+01 3.975567e+01 8.311463e+01 1.102488e+00 7.203624e-01 1.129221e+00 1.339489e+00 1.361687e+00 1.298297e+00 1.403801e+00 1.271060e+00 1.447415e+00 9.483449e-01 1.022154e+00 8.774545e-01 1.425318e+00 1.191966e-01 7.623837e-02 1.224806e-01 1.708949e-01 1.509576e-01 1.588284e-01 1.705085e-01 1.563845e-01 1.838523e-01 1.324751e-01 1.404543e-01 1.098889e-01 1.438188e-01
<GCONST> 9.870604e+01
<STATE> 3
<MEAN> 39
 1.454204e+00 2.977696e-01 -1.529073e-01 -1.625919e+00 5.818887e-03 -1.370851e-01 -1.825243e+00 -1.802168e+00 -1.818894e+00 -4.342086e-01 9.271871e-01 2.550308e-01 2.510698e+00 1.538887e-02 2.464998e-02 1.041201e-01 -9.399126e-02 -1.657493e-02 -6.664544e-02 -5.171331e-02 -9.767327e-02 -7.024526e-03 -2.303039e-02 2.264289e-03 -1.555645e-02 1.465260e-01 5.453442e-03 -2.458758e-02 2.053400e-02 -1.358863e-02 -4.756839e-02 -2.261448e-02 -9.361732e-03 1.062787e-02 8.934541e-03 -3.661941e-03 -4.147932e-02 -2.863368e-02 2.510048e-02
<VARIANCE> 39
 4.874441e+01 3.414392e+01 5.491511e+01 5.225972e+01 5.555959e+01 5.894013e+01 6.230961e+01 5.825297e+01 5.417471e+01 3.832577e+01 4.266763e+01 3.903693e+01 8.013298e+01 1.384908e+00 7.789555e-01 1.249415e+00 1.610340e+00 1.515483e+00 1.577018e+00 1.603026e+00 1.386421e+00 1.634181e+00 1.036449e+00 1.115008e+00 9.565080e-01 1.657792e+00 1.258729e-01 8.235795e-02 1.256599e-01 1.853474e-01 1.633948e-01 1.691882e-01 1.868989e-01 1.577172e-01 1.883892e-01 1.330180e-01 1.444574e-01 1.123583e-01 1.482110e-01
<GCONST> 1.011711e+02
<STATE> 4
<MEAN> 39
 2.158037e+00 -6.037430e-02 2.381863e-01 -2.327202e+00 -7.043098e-01 -1.911532e-01 -2.633900e+00 -2.319330e+00 -2.126952e+00 -6.456878e-01 7.991742e-01 -1.949015e-01 3.652548e+00 1.290142e-02 -3.164418e-02 1.181785e-01 -5.479262e-02 -7.781600e-02 -1.064905e-01 -3.657928e-02 -3.203586e-02 6.112338e-02 3.416042e-03 -9.739400e-02 -5.537582e-02 7.755183e-02 -1.427810e-02 -9.699541e-03 2.490383e-03 3.348341e-03 -2.049321e-02 -8.209233e-03 1.392436e-02 2.307964e-02 -4.731703e-03 5.013435e-03 -2.015366e-02 -8.220757e-03 -5.694465e-03
<VARIANCE> 39
 4.082069e+01 3.282544e+01 5.739536e+01 5.558342e+01 5.331687e+01 6.396990e+01 6.167185e+01 6.001561e+01 5.263312e+01 3.636724e+01 4.132424e+01 3.822242e+01 7.577862e+01 1.210841e+00 7.872266e-01 1.242552e+00 1.685628e+00 1.557618e+00 1.653553e+00 1.620534e+00 1.467961e+00 1.647530e+00 1.072187e+00 1.168230e+00 9.676644e-01 1.798508e+00 1.081437e-01 8.527570e-02 1.238742e-01 1.883014e-01 1.694224e-01 1.700131e-01 1.895503e-01 1.586798e-01 1.838349e-01 1.291214e-01 1.400249e-01 1.154079e-01 1.510099e-01
<GCONST> 1.010770e+02
<TRANSP> 5
 0.000000e+00 1.000000e+00 0.000000e+00 0.000000e+00 0.000000e+00
 0.000000e+00 4.285462e-01 5.714538e-01 0.000000e+00 0.000000e+00
 0.000000e+00 0.000000e+00 4.479183e-01 5.520816e-01 0.000000e+00
 0.000000e+00 0.000000e+00 0.000000e+00 5.598597e-01 4.401403e-01
 0.000000e+00 0.000000e+00 0.000000e+00 0.000000e+00 0.000000e+00
<ENDHMM>
~h "v"
<BEGINHMM>
<NUMSTATES> 5
<STATE> 2
<MEAN> 39
 -1.878445e+00 -8.211823e-01 -2.112202e+00 -5.818579e+00 2.110923e+00 -1.703957e+00 4.357794e-01 1.224943e-01 -7.690938e-01 1.292676e+00 -4.619534e-01 -1.948370e+00 7.497484e+00 3.584233e-01 1.251690e-01 -2.647419e-02 2.414655e-01 4.286141e-02 -2.060303e-02 -5.782498e-02 1.838155e-01 -1.248087e-02 -1.442807e-01 -7.795017e-02 4.658384e-04 -5.286755e-02 1.247242e-01 -5.565743e-02 -1.563832e-03 3.142764e-02 -7.495481e-02 3.913874e-02 -3.724701e-02 -5.712137e-02 -3.209535e-02 -5.109922e-02 5.319546e-02 8.639061e-04 1.627725e-02
<VARIANCE> 39
 1.164259e+02 2.597186e+01 4.805157e+01 3.892842e+01 4.521766e+01 3.319692e+01 2.631688e+01 3.040870e+01 3.618057e+01 2.267804e+01 4.439187e+01 2.409137e+01 3.609947e+01 1.720683e+00 7.374077e-01 1.040601e+00 1.303870e+00 1.239679e+00 8.278891e-01 6.675607e-01 7.251811e-01 9.306234e-01 4.633570e-01 7.875962e-01 5.794008e-01 9.505950e-01 1.747651e-01 7.803728e-02 8.141921e-02 1.806465e-01 1.299887e-01 1.077086e-01 7.411513e-02 7.528830e-02 1.238655e-01 6.283095e-02 1.562624e-01 8.496317e-02 7.938819e-02
<GCONST> 8.698042e+01
<STATE> 3
<MEAN> 39
 2.229697e+00 -6.349596e-01 -3.430476e+00 -4.887340e+00 1.253014e+00 -1.226604e+00 -5.570610e-02 1.750996e-01 -8.738903e-01 8.790734e-01 -1.436461e+00 -2.358495e+00 6.797095e+00 4.306004e-01 9.943110e-02 8.803024e-03 2.206988e-01 -1.432235e-01 -4.386942e-03 1.833640e-02 6.015279e-02 -1.765639e-01 -2.611087e-01 9.388095e-02 1.161263e-01 -1.932769e-02 -1.851232e-02 -7.230703e-02 1.236412e-02 -7.611108e-02 -7.916391e-02 5.978062e-02 -2.673566e-02 -2.781144e-02 -1.455883e-02 -5.588551e-02 3.819206e-02 4.227166e-03 5.746456e-02
<VARIANCE> 39
 6.678851e+01 2.955849e+01 4.991934e+01 4.398051e+01 5.661204e+01 3.769218e+01 2.458654e+01 3.174678e+01 4.232695e+01 2.512070e+01 3.901768e+01 2.358002e+01 3.936267e+01 1.381790e+00 6.392332e-01 1.079205e+00 1.355162e+00 1.296387e+00 1.111771e+00 6.522713e-01 7.632337e-01 1.161517e+00 4.843289e-01 9.570338e-01 5.190691e-01 9.351937e-01 1.335179e-01 6.810035e-02 9.510047e-02 1.776405e-01 1.577421e-01 1.069745e-01 7.304238e-02 7.617531e-02 1.376777e-01 7.189135e-02 1.115114e-01 8.511943e-02 7.553362e-02
<GCONST> 8.742305e+01
<STATE> 4
<MEAN> 39
 3.725742e+00 -8.303490e-01 -5.133723e+00 -3.377748e+00 -3.373431e-01 -2.185102e+00 1.191451e+00 2.659120e+00 2.550548e+00 8.818139e-01 -3.038257e+00 -1.796839e+00 2.595046e+00 1.092883e-01 6.726954e-02 2.325832e-01 1.512696e-01 -7.220978e-02 1.007478e-01 6.154982e-02 2.135736e-02 -1.986978e-01 -2.777328e-01 1.089783e-01 1.446643e-01 5.082002e-02 -1.278760e-02 -4.996897e-02 5.081493e-02 -5.252982e-02 -5.383025e-02 3.694194e-02 -3.994281e-02 -6.413815e-02 -6.090393e-02 -1.969337e-02 -4.441073e-03 -4.714203e-02 6.808087e-02
<VARIANCE> 39
 2.552263e+01 2.541220e+01 4.775549e+01 4.126003e+01 5.159838e+01 3.769972e+01 2.231110e+01 4.689433e+01 7.077603e+01 2.284493e+01 3.611700e+01 2.366688e+01 6.693871e+01 8.421077e-01 5.636445e-01 8.144493e-01 1.018088e+00 1.154605e+00 1.079804e+00 6.413584e-01 8.238971e-01 1.082402e+00 4.593900e-01 8.595124e-01 6.190131e-01 7.329742e-01 5.503004e-02 5.288911e-02 7.156046e-02 1.262768e-01 1.807507e-01 1.012507e-01 6.394093e-02 7.488788e-02 1.196430e-01 5.782905e-02 8.612969e-02 7.295220e-02 6.197824e-02
<GCONST> 8.290420e+01
<TRANSP> 5
 0.000000e+00 1.000000e+00 0.000000e+00 0.000000e+00 0.000000e+00
 0.000000e+00 4.871276e-01 5.128724e-01 0.000000e+00 0.000000e+00
 0.000000e+00 0.000000e+00 4.041635e-01 5.958365e-01 0.000000e+00
 0.000000e+00 0.000000e+00 0.000000e+00 5.350257e-01 4.649743e-01
 0.000000e+00 0.000000e+00 0.000000e+00 0.000000e+00 0.000000e+00
<ENDHMM>
~h "w"
<BEGINHMM>
<NUMSTATES> 5
<STATE> 2
<MEAN> 39
 2.167206e+00 -9.133942e-01 -1.185575e+00 -1.284839e+00 1.078803e-01 -2.294457e-01 -7.660920e-01 -6.992480e-01 -4.887333e-01 -5.664207e-02 -8.296671e-01 -1.700414e+00 2.676592e+00 1.166923e-01 2.660847e-02 -1.652051e-01 -4.229315e-02 9.172474e-03 5.239679e-02 -1.932619e-02 6.940803e-04 9.535786e-03 2.907247e-02 3.415389e-02 -9.162980e-02 -6.747030e-02 2.082047e-03 -4.477903e-02 3.204413e-02 -3.255605e-02 -3.146923e-02 -1.682238e-02 -1.336466e-02 5.877971e-03 -1.245590e-02 -1.030837e-02 -3.841981e-03 -2.229283e-02 6.452291e-02
<VARIANCE> 39
 3.535975e+01 4.092148e+01 5.054720e+01 5.062484e+01 4.805685e+01 5.218484e+01 4.644096e+01 4.902477e+01 3.602744e+01 2.647452e+01 3.379790e+01 3.437357e+01 8.469681e+01 7.056858e-01 7.000485e-01 8.913570e-01 8.187091e-01 1.004269e+00 9.850976e-01 8.980923e-01 9.761896e-01 7.604567e-01 6.353350e-01 7.863979e-01 7.709018e-01 1.269279e+00 7.205360e-02 7.162312e-02 7.740416e-02 9.068715e-02 1.232520e-01 1.019424e-01 1.007872e-01 1.151647e-01 8.961003e-02 8.033475e-02 9.427688e-02 8.580461e-02 1.040609e-01
<GCONST> 8.749209e+01
<STATE> 3
<MEAN> 39
 2.591462e+00 -9.971445e-01 -1.392373e+00 -1.506027e+00 -1.071235e-01 -8.831066e-02 -8.782659e-01 -7.619556e-01 -5.432754e-01 5.690364e-03 -7.599703e-01 -2.011644e+00 2.837246e+00 1.228198e-01 -6.845737e-02 -1.202248e-01 -9.175713e-02 -4.622116e-02 2.912218e-02 -3.712825e-02 1.696385e-02 -3.496177e-03 1.339967e-02 3.099928e-02 -1.108898e-01 3.676771e-02 -2.020267e-02 -4.798984e-02 3.523394e-02 -2.091805e-02 -2.499682e-02 -3.141001e-02 -5.272209e-03 1.070639e-02 -3.494371e-03 -1.290920e-02 -7.915875e-03 -3.655742e-03 6.427079e-02
<VARIANCE> 39
 3.332668e+01 4.167412e+01 5.070389e+01 5.088582e+01 4.653677e+01 5.267613e+01 4.603932e+01 4.975885e+01 3.605452e+01 2.627426e+01 3.266768e+01 3.344587e+01 7.986532e+01 7.123187e-01 7.379346e-01 8.821946e-01 8.617947e-01 9.960589e-01 9.929926e-01 8.790088e-01 9.566560e-01 7.509708e-01 6.348962e-01 7.760265e-01 7.607149e-01 1.427673e+00 6.957907e-02 7.147019e-02 7.752119e-02 9.322961e-02 1.212707e-01 1.007871e-01 9.962934e-02 1.112649e-01 8.666639e-02 7.894707e-02 9.179887e-02 8.701622e-02 1.085629e-01
<GCONST> 8.735204e+01
<STATE> 4
<MEAN> 39
 2.848235e+00 -1.297369e+00 -1.756669e+00 -1.593528e+00 -9.433420e-02 1.526966e-01 -1.070251e+00 -2.057876e-01 -5.037072e-01 -2.495700e-02 -7.366844e-01 -2.013309e+00 2.268606e+00 3.247745e-02 -4.985105e-02 -8.546430e-02 -3.464929e-02 -1.775946e-02 7.946993e-03 2.891178e-02 1.491916e-02 1.841485e-02 3.770723e-03 1.171796e-02 -4.676060e-02 -5.944527e-03 -2.419992e-02 -1.933943e-02 2.495854e-02 -3.620544e-03 -9.134742e-03 -2.917961e-02 5.776857e-03 3.126398e-03 4.063893e-03 -1.226063e-02 -1.211936e-02 6.052192e-03 4.275936e-02
<VARIANCE> 39
 3.197940e+01 3.961873e+01 4.876995e+01 4.906457e+01 4.424826e+01 5.315617e+01 3.994136e+01 5.265234e+01 3.319109e+01 2.526744e+01 3.191928e+01 3.138198e+01 7.762227e+01 5.130816e-01 6.862298e-01 7.430896e-01 8.288211e-01 8.968974e-01 8.612479e-01 7.599694e-01 8.331892e-01 6.483307e-01 5.912987e-01 6.883246e-01 6.712067e-01 1.196772e+00 5.197297e-02 6.511807e-02 6.834103e-02 8.410945e-02 1.034649e-01 9.019987e-02 8.618290e-02 9.826757e-02 7.705817e-02 7.089619e-02 8.276308e-02 7.529792e-02 9.152434e-02
<GCONST> 8.324206e+01
<TRANSP> 5
 0.000000e+00 1.000000e+00 0.000000e+00 0.000000e+00 0.000000e+00
 0.000000e+00 3.363830e-01 6.636170e-01 0.000000e+00 0.000000e+00
 0.000000e+00 0.000000e+00 3.339849e-01 6.660151e-01 0.000000e+00
 0.000000e+00 0.000000e+00 0.000000e+00 5.259405e-01 4.740595e-01
 0.000000e+00 0.000000e+00 0.000000e+00 0.000000e+00 0.000000e+00
<ENDHMM>
~h "y"
<BEGINHMM>
<NUMSTATES> 5
<STATE> 2
<MEAN> 39
 7.333015e-01 -6.777057e-01 -2.657118e-02 -5.703208e-01 -1.117709e+00 -1.039644e+00 1.197030e+00 9.801428e-01 4.521246e-01 -1.074616e-01 -3.324645e-01 2.403064e-01 -4.653078e-01 -5.123233e-02 1.180551e-01 6.199254e-02 1.380859e-02 -5.293466e-03 2.925960e-02 6.456350e-02 -3.634493e-02 -2.099683e-02 -8.566803e-03 3.748615e-02 4.824217e-02 -1.710738e-01 2.390336e-02 -1.154505e-02 5.765503e-02 -4.753882e-02 -3.435662e-02 -1.686804e-02 -4.906502e-02 -1.542049e-02 -3.913471e-02 -1.950968e-02 -1.886601e-02 -4.257450e-02 7.427877e-02
<VARIANCE> 39
 2.319727e+01 3.174602e+01 5.800499e+01 3.401226e+01 5.269022e+01 4.616329e+01 3.939035e+01 4.348989e+01 3.824414e+01 2.777061e+01 3.225120e+01 3.273992e+01 8.181630e+01 3.375413e-01 4.976235e-01 9.450470e-01 5.699524e-01 9.637639e-01 7.144312e-01 7.209831e-01 7.931340e-01 6.908275e-01 6.103529e-01 6.594675e-01 6.265629e-01 8.111160e-01 3.979595e-02 5.600803e-02 8.529816e-02 6.548686e-02 1.091983e-01 8.215958e-02 9.049258e-02 9.067251e-02 8.272283e-02 7.786981e-02 7.621226e-02 7.544744e-02 6.874860e-02
<GCONST> 8.046072e+01
<STATE> 3
<MEAN> 39
 6.344689e-01 -4.663921e-01 5.836750e-01 -6.175187e-01 -1.179989e+00 -1.009421e+00 1.144843e+00 8.114222e-01 1.171249e-01 -1.858044e-01 -3.065996e-01 2.459529e-01 -3.067747e-01 2.428294e-02 9.771357e-02 1.716520e-01 -7.769394e-02 -7.843148e-02 -3.761309e-03 -4.061548e-02 -7.726671e-02 -1.047715e-01 -4.767587e-02 -1.755591e-02 -5.091136e-02 -2.391973e-02 3.192211e-02 -1.787152e-02 4.739113e-02 -4.769001e-02 -4.045679e-02 -2.006231e-02 -5.735522e-02 -1.488779e-02 -3.286646e-02 -1.702191e-02 -1.474746e-02 -3.852350e-02 8.607090e-02
<VARIANCE> 39
 2.395922e+01 3.379702e+01 5.848317e+01 3.525497e+01 5.371588e+01 4.541249e+01 3.946283e+01 4.445357e+01 3.760500e+01 2.794648e+01 3.250768e+01 3.265078e+01 8.398663e+01 3.779297e-01 5.461636e-01 1.145569e+00 6.332530e-01 1.101865e+00 7.390620e-01 8.151481e-01 8.659630e-01 7.612835e-01 6.360143e-01 6.874420e-01 6.450523e-01 9.959443e-01 4.049744e-02 5.537813e-02 8.909726e-02 6.840724e-02 1.132561e-01 8.109912e-02 9.375655e-02 9.090472e-02 8.345969e-02 7.885640e-02 7.743489e-02 7.397053e-02 7.122017e-02
<GCONST> 8.215146e+01
<STATE> 4
<MEAN> 39
 6.424029e-01 -1.687535e-01 1.182825e+00 -6.178660e-01 -1.950778e+00 -1.415951e+00 1.126905e+00 7.985150e-01 -1.054259e-01 -2.781062e-01 -2.486895e-01 4.264337e-01 -1.041465e+00 4.737591e-02 7.474284e-02 1.178094e-01 -6.463119e-02 -3.785250e-02 3.332838e-03 -6.687732e-02 -5.045384e-02 -7.002380e-02 -4.495155e-02 -4.310088e-02 -7.710019e-02 2.441730e-02 1.460429e-02 -1.648225e-02 1.398383e-02 -1.909777e-02 -7.752232e-03 -7.304994e-03 -2.795862e-02 -9.437206e-03 -1.162048e-02 -3.516936e-03 -5.484126e-03 -1.841121e-02 6.232328e-02
<VARIANCE> 39
 2.117665e+01 3.479798e+01 6.185052e+01 3.361438e+01 5.254726e+01 4.145777e+01 3.891244e+01 4.632544e+01 3.671978e+01 2.768235e+01 3.192002e+01 3.044383e+01 8.287949e+01 3.416305e-01 4.921852e-01 1.093606e+00 6.322916e-01 1.076139e+00 6.990452e-01 8.346664e-01 7.887892e-01 7.196178e-01 6.240531e-01 6.285696e-01 5.777478e-01 8.945573e-01 3.515436e-02 4.994171e-02 7.911263e-02 6.177408e-02 1.058393e-01 7.518073e-02 8.724281e-02 8.595666e-02 7.727332e-02 7.617429e-02 7.344709e-02 6.578868e-02 6.216351e-02
<GCONST> 7.990562e+01
<TRANSP> 5
 0.000000e+00 1.000000e+00 0.000000e+00 0.000000e+00 0.000000e+00
 0.000000e+00 4.419813e-01 5.580187e-01 0.000000e+00 0.000000e+00
 0.000000e+00 0.000000e+00 4.023965e-01 5.976035e-01 0.000000e+00
 0.000000e+00 0.000000e+00 0.000000e+00 6.233482e-01 3.766518e-01
 0.000000e+00 0.000000e+00 0.000000e+00 0.000000e+00 0.000000e+00
<ENDHMM>
~h "z"
<BEGINHMM>
<NUMSTATES> 5
<STATE> 2
<MEAN> 39
 -1.185508e+00 2.004777e-01 -1.450570e+00 2.829998e+00 5.237266e+00 1.056400e+00 1.436244e+00 2.883039e+00 1.665320e+00 -1.907567e+00 1.517558e+00 1.889240e+00 -2.335255e+00 -1.214422e-01 2.108050e-01 3.869569e-01 4.337338e-02 -4.564973e-02 8.127772e-02 1.799887e-01 -2.920821e-03 -2.368412e-01 -1.013366e-01 -1.599553e-01 -2.706504e-01 9.699403e-02 4.311667e-02 1.566473e-02 8.246396e-02 -1.044543e-01 -7.365849e-02 -1.167955e-01 -2.748614e-02 -1.151204e-01 -9.849821e-02 -4.389112e-02 -1.267267e-01 -8.039172e-02 1.602841e-01
<VARIANCE> 39
 1.632295e+01 2.703463e+01 2.421958e+01 5.957905e+01 2.328320e+01 2.820062e+01 5.168259e+01 3.024723e+01 2.278367e+01 3.937683e+01 2.020111e+01 3.950148e+01 1.261700e+02 2.278002e-01 3.263634e-01 3.443402e-01 3.007395e-01 2.824021e-01 6.520893e-01 7.607267e-01 6.240881e-01 5.335937e-01 3.642244e-01 5.258430e-01 3.642864e-01 2.394608e-01 4.308152e-02 6.242815e-02 4.914127e-02 6.391218e-02 5.092449e-02 6.086485e-02 1.094353e-01 1.236880e-01 9.845615e-02 7.974892e-02 7.808728e-02 7.696160e-02 4.323725e-02
<GCONST> 7.031517e+01
<STATE> 3
<MEAN> 39
 -1.817545e+00 9.517525e-01 -8.895575e-01 2.612885e+00 4.474181e+00 1.999294e+00 2.290971e+00 2.690448e+00 1.245452e+00 -1.134877e+00 1.570712e+00 1.913852e+00 -3.530648e+00 -1.395538e-02 2.366004e-01 4.837031e-01 -8.129890e-02 -1.471417e-01 -1.545500e-01 2.098875e-01 -2.781243e-01 -5.637975e-01 -1.851575e-01 -4.242163e-01 -4.266168e-01 4.651169e-01 1.249421e-01 4.775097e-02 8.309036e-02 -7.195296e-02 -1.322335e-01 -1.790925e-01 -1.182235e-01 -2.343601e-01 -9.953176e-02 -4.758830e-02 -1.798699e-01 -1.420149e-01 2.624846e-01
<VARIANCE> 39
 1.399217e+01 2.642841e+01 2.525775e+01 7.240759e+01 1.863022e+01 2.769616e+01 4.474554e+01 3.638812e+01 1.864635e+01 2.992067e+01 2.089621e+01 3.037018e+01 1.397456e+02 5.636505e-01 5.338299e-01 2.822121e-01 2.370485e-01 4.233256e-01 8.539269e-01 7.316383e-01 8.976461e-01 6.409082e-01 3.574877e-01 5.331504e-01 5.193582e-01 3.845617e-01 7.091850e-02 9.230912e-02 6.914323e-02 8.033013e-02 7.269963e-02 5.951165e-02 6.368483e-02 1.212325e-01 9.088064e-02 6.045974e-02 5.544435e-02 6.334201e-02 8.035430e-02
<GCONST> 7.349734e+01
<STATE> 4
<MEAN> 39
 -3.444562e+00 4.972581e+00 1.092289e+00 4.186477e+00 4.940594e+00 -9.986045e-01 4.279467e+00 9.857863e-02 -1.676131e+00 -8.891055e-02 2.447897e-01 2.584669e+00 -3.841340e+00 2.797776e-01 6.714395e-01 5.103086e-01 -1.128001e-01 -4.744465e-01 -8.237358e-01 -1.923175e-01 -8.798165e-01 -6.475052e-01 -4.325324e-01 -5.998796e-01 -5.089222e-01 1.444048e+00 1.173094e-01 -2.498003e-02 -1.047370e-02 -8.795995e-02 -1.561875e-01 -1.281209e-01 -1.133514e-01 -8.043230e-02 -2.014055e-02 -2.253615e-02 3.369907e-02 -1.767611e-02 1.984810e-01
<VARIANCE> 39
 2.305489e+01 5.210961e+01 2.140557e+01 4.685576e+01 2.567512e+01 6.051744e+01 2.999378e+01 4.165750e+01 2.360103e+01 2.782805e+01 2.685400e+01 2.815317e+01 1.287908e+02 1.457329e+00 1.082663e+00 6.089389e-01 2.815495e-01 8.206958e-01 9.828273e-01 6.500777e-01 1.332551e+00 9.768513e-01 4.363012e-01 5.376215e-01 7.573493e-01 1.269652e+00 1.138268e-01 2.031093e-01 9.684704e-02 7.141796e-02 1.309446e-01 9.890325e-02 4.391840e-02 1.324238e-01 6.242008e-02 6.185227e-02 6.271930e-02 4.823509e-02 1.170496e-01
<GCONST> 8.321563e+01
<TRANSP> 5
 0.000000e+00 1.000000e+00 0.000000e+00 0.000000e+00 0.000000e+00
 0.000000e+00 3.426743e-01 6.573257e-01 0.000000e+00 0.000000e+00
 0.000000e+00 0.000000e+00 2.578512e-01 7.421488e-01 0.000000e+00
 0.000000e+00 0.000000e+00 0.000000e+00 5.583045e-01 4.416954e-01
 0.000000e+00 0.000000e+00 0.000000e+00 0.000000e+00 0.000000e+00
<ENDHMM>
~h "aa"
<BEGINHMM>
<NUMSTATES> 5
<STATE> 2
<MEAN> 39
 2.669460e+00 -4.969349e+00 -4.277781e+00 -4.376430e+00 1.777679e+00 1.382326e+00 1.412059e-02 1.227574e+00 1.336158e+00 -8.279907e-01 -3.541034e+00 -4.132397e+00 6.964097e+00 6.428167e-02 -8.083522e-02 -1.805896e-01 -1.069469e-02 1.377279e-01 1.546054e-01 8.861887e-02 8.116166e-03 3.214081e-03 -4.021769e-02 -1.300336e-01 -1.336658e-01 -4.880733e-02 -1.280676e-02 5.133795e-02 8.135857e-02 3.865656e-02 -4.200085e-02 -6.650817e-02 -2.494039e-02 -1.900701e-02 -1.899940e-02 1.407664e-02 4.208921e-02 5.778547e-02 -4.969827e-02
<VARIANCE> 39
 2.279128e+01 4.024054e+01 5.815801e+01 4.157693e+01 4.946869e+01 5.630088e+01 4.060807e+01 4.759919e+01 3.976696e+01 3.662401e+01 3.955670e+01 4.039286e+01 7.887048e+01 4.881962e-01 8.339030e-01 1.082883e+00 9.193817e-01 1.116199e+00 1.074814e+00 8.658385e-01 1.047152e+00 7.975353e-01 7.684066e-01 8.909703e-01 9.019309e-01 1.397863e+00 5.857515e-02 8.469538e-02 1.120310e-01 9.954157e-02 1.238181e-01 1.157792e-01 1.034371e-01 1.202792e-01 9.386130e-02 9.066740e-02 1.049691e-01 1.057135e-01 1.234673e-01
<GCONST> 8.983010e+01
<STATE> 3
<MEAN> 39
 2.850326e+00 -4.974334e+00 -4.424590e+00 -4.234345e+00 1.901494e+00 1.433847e+00 7.712062e-02 1.233822e+00 1.288347e+00 -8.878812e-01 -3.709228e+00 -4.253249e+00 6.639535e+00 3.591364e-02 7.511903e-02 1.477371e-02 1.087110e-01 1.113786e-03 -1.368463e-02 3.055987e-02 -1.112056e-02 -1.978913e-02 6.661841e-03 -9.029176e-03 1.791229e-02 -2.194570e-01 -1.084591e-02 4.668819e-02 7.985173e-02 2.657594e-02 -5.198383e-02 -5.913720e-02 -2.863750e-02 -9.986694e-03 -1.228339e-02 1.529160e-02 4.565061e-02 5.489857e-02 -3.737579e-02
<VARIANCE> 39
 2.178743e+01 3.995308e+01 5.838108e+01 4.030331e+01 4.811957e+01 5.571848e+01 3.966030e+01 4.755244e+01 3.925380e+01 3.688421e+01 3.849091e+01 3.887511e+01 7.772768e+01 4.609041e-01 7.948246e-01 1.034419e+00 8.579441e-01 1.053748e+00 1.022732e+00 8.414618e-01 9.978937e-01 7.601895e-01 7.306129e-01 8.405695e-01 8.423130e-01 1.348161e+00 5.337526e-02 8.121128e-02 1.083235e-01 9.397312e-02 1.188245e-01 1.126402e-01 1.003228e-01 1.187317e-01 8.892564e-02 8.899520e-02 9.987884e-02 9.876630e-02 1.188745e-01
<GCONST> 8.836960e+01
<STATE> 4
<MEAN> 39
 2.898731e+00 -4.098513e+00 -5.057843e+00 -3.540532e+00 2.101776e+00 1.351413e+00 4.769086e-01 1.424149e+00 1.775568e+00 -4.840246e-01 -3.372712e+00 -3.625061e+00 3.720615e+00 -2.755231e-02 1.864524e-01 1.073983e-01 1.496244e-01 -8.417212e-02 -9.994601e-02 -5.477822e-03 -2.135975e-02 3.339797e-03 4.242430e-02 8.160903e-02 1.275261e-01 -3.042027e-01 -8.576932e-03 1.511607e-02 4.362374e-02 -8.945201e-04 -2.230302e-02 -2.590524e-02 -1.315430e-02 -1.031890e-02 -7.290523e-03 4.624256e-03 1.616634e-02 1.798855e-02 1.670038e-02
<VARIANCE> 39
 1.881764e+01 3.584529e+01 5.012078e+01 3.772115e+01 4.260065e+01 4.975845e+01 3.582133e+01 4.357987e+01 3.689967e+01 3.309236e+01 3.340778e+01 3.501545e+01 8.019943e+01 3.592402e-01 5.663247e-01 7.908939e-01 6.511374e-01 8.294814e-01 8.066272e-01 7.052543e-01 8.195220e-01 6.246521e-01 5.917514e-01 6.655419e-01 6.626422e-01 9.157040e-01 4.015993e-02 6.012281e-02 8.059847e-02 7.255457e-02 9.244756e-02 8.804218e-02 8.333368e-02 9.620737e-02 7.377976e-02 7.235169e-02 7.955064e-02 7.891621e-02 8.165973e-02
<GCONST> 8.058269e+01
<TRANSP> 5
 0.000000e+00 1.000000e+00 0.000000e+00 0.000000e+00 0.000000e+00
 0.000000e+00 4.687419e-01 5.312580e-01 0.000000e+00 0.000000e+00
 0.000000e+00 0.000000e+00 4.647894e-01 5.352105e-01 0.000000e+00
 0.000000e+00 0.000000e+00 0.000000e+00 6.926119e-01 3.073882e-01
 0.000000e+00 0.000000e+00 0.000000e+00 0.000000e+00 0.000000e+00
<ENDHMM>
~h "ai"
<BEGINHMM>
<NUMSTATES> 5
<STATE> 2
<MEAN> 39
 -9.474343e-02 -2.291909e+00 1.969355e+00 -1.689559e-01 -2.527290e-01 -1.498414e+00 1.924498e-01 1.338049e+00 1.461357e+00 2.748942e+00 -7.593831e-01 4.556857e-02 1.128232e+00 -7.307234e-01 3.710809e-02 2.741767e-01 3.075893e-01 9.050235e-04 -3.499399e-01 2.107428e-01 -1.952483e-01 2.336584e-01 -2.126973e-01 4.731612e-02 1.972815e-01 5.205830e-01 -1.925849e-01 1.556030e-01 -6.043407e-02 1.603941e-01 -8.391915e-02 8.703161e-02 -1.861329e-03 -1.152744e-01 -5.295523e-02 -6.271804e-02 1.780785e-01 4.715264e-03 -9.875254e-02
<VARIANCE> 39
 4.766903e+01 3.975025e+01 4.234583e+01 4.711860e+01 5.723664e+01 2.045768e+01 4.165599e+01 4.615046e+01 2.439350e+01 1.628210e+01 2.674078e+01 3.131531e+01 8.324932e+01 2.278144e+00 2.240474e+00 2.901611e+00 1.973842e+00 1.991473e+00 7.367932e-01 8.513626e-01 7.455482e-01 6.003586e-01 4.818574e-01 1.120487e+00 8.656932e-01 1.479468e+00 2.269486e-01 7.157751e-02 1.738534e-01 8.004078e-02 2.257185e-01 4.430224e-02 9.249756e-02 9.917927e-02 1.398414e-01 7.800319e-02 1.181335e-01 1.369985e-01 6.917855e-02
<GCONST> 9.200672e+01
<STATE> 3
<MEAN> 39
 -4.618394e+00 -1.219561e+00 2.079233e+00 1.597728e+00 -2.039418e-01 -1.810292e+00 1.678298e+00 -8.277793e-02 2.241863e+00 1.721842e+00 3.783522e-01 1.181334e+00 2.108219e+00 -1.131144e+00 2.649243e-01 1.043596e-01 3.723729e-01 2.439924e-02 9.771799e-02 2.352180e-01 -3.113556e-01 1.466706e-02 -3.426902e-01 4.792458e-01 2.113128e-01 4.170048e-01 5.654864e-02 -8.821225e-03 -5.120497e-02 6.835766e-03 -6.412216e-02 9.056062e-02 -3.698050e-02 9.606910e-05 -7.959751e-02 -2.285224e-02 1.077993e-01 -4.452637e-02 1.510521e-02
<VARIANCE> 39
 8.899519e+01 5.210458e+01 8.610976e+01 4.634354e+01 5.817746e+01 1.516526e+01 5.370195e+01 2.350455e+01 3.107984e+01 2.598821e+01 4.096456e+01 3.362704e+01 4.562379e+01 2.547409e+00 1.733745e+00 3.742513e+00 1.813691e+00 1.302392e+00 7.122110e-01 1.432868e+00 8.781657e-01 1.006350e+00 6.271731e-01 1.642282e+00 1.019948e+00 1.549255e+00 3.042860e-01 1.266007e-01 2.105621e-01 1.690295e-01 2.289307e-01 7.256202e-02 1.353101e-01 8.131505e-02 1.165201e-01 1.090124e-01 2.222377e-01 1.447692e-01 7.952601e-02
<GCONST> 9.859136e+01
<STATE> 4
<MEAN> 39
 -2.742454e+00 -9.324558e-01 -6.889067e-01 -1.588646e+00 1.629597e+00 -3.944694e-01 8.594065e-01 1.287426e+00 1.138528e+00 -1.042470e+00 4.449368e-01 -7.231633e-01 7.668547e+00 1.536207e-01 -1.022159e-01 2.226694e-03 -8.745234e-02 -6.063522e-02 -4.096017e-03 -1.438031e-01 6.638568e-02 -6.103365e-02 -5.320190e-02 -4.524795e-02 -6.070322e-02 1.343011e-01 3.606800e-02 -9.589814e-03 -5.266378e-03 1.791081e-04 -1.282265e-02 -3.933891e-03 -1.878974e-02 -1.726145e-03 -4.723499e-03 9.463753e-03 -2.776582e-02 -1.390927e-02 -1.519531e-02
<VARIANCE> 39
 8.041241e+01 6.734985e+01 8.240809e+01 3.045556e+01 8.399725e+01 3.350193e+01 5.578886e+01 4.065003e+01 5.595232e+01 3.225300e+01 5.027496e+01 3.668608e+01 3.847038e+01 3.609776e+00 2.663851e+00 2.533345e+00 1.061358e+00 1.911746e+00 8.817292e-01 2.140326e+00 1.089523e+00 1.273996e+00 1.050348e+00 1.803449e+00 1.401457e+00 1.605128e+00 3.314388e-01 2.645869e-01 2.397748e-01 1.365146e-01 1.813658e-01 1.098819e-01 2.603607e-01 1.261882e-01 1.445824e-01 1.241158e-01 1.790019e-01 1.563835e-01 1.744772e-01
<GCONST> 1.062254e+02
<TRANSP> 5
 0.000000e+00 1.000000e+00 0.000000e+00 0.000000e+00 0.000000e+00
 0.000000e+00 6.163474e-01 3.836526e-01 0.000000e+00 0.000000e+00
 0.000000e+00 0.000000e+00 6.439875e-01 3.560125e-01 0.000000e+00
 0.000000e+00 0.000000e+00 0.000000e+00 9.808431e-01 1.915692e-02
 0.000000e+00 0.000000e+00 0.000000e+00 0.000000e+00 0.000000e+00
<ENDHMM>
~h "au"
<BEGINHMM>
<NUMSTATES> 5
<STATE> 2
<MEAN> 39
 1.970701e+00 -1.608473e+00 -1.058821e+00 -3.662825e+00 -1.062164e+00 -2.322538e-01 -2.283412e+00 -2.418038e-01 -3.316403e-01 -7.753028e-01 -4.920059e-01 -2.401236e+00 6.577837e+00 -1.508448e-01 8.746813e-03 -2.862258e-01 -2.829112e-02 2.213510e-01 9.348732e-02 1.590076e-01 6.677853e-02 2.074991e-01 2.967126e-01 2.064423e-01 1.350949e-01 -2.112326e-01 6.912924e-03 -6.399202e-02 -1.551355e-02 -3.357184e-02 -4.975586e-02 1.475617e-02 -1.511846e-02 -4.653262e-02 2.490926e-02 1.573119e-02 -1.423275e-02 3.567764e-02 3.385080e-03
<VARIANCE> 39
 2.647190e+01 3.571327e+01 5.059457e+01 4.717541e+01 3.827836e+01 5.066275e+01 8.763421e+01 4.480057e+01 3.538309e+01 4.298454e+01 4.491642e+01 3.827193e+01 8.277680e+01 6.369874e-01 8.661649e-01 1.953054e+00 9.985338e-01 1.233564e+00 1.393745e+00 3.235244e+00 9.517510e-01 9.916536e-01 1.045733e+00 7.195550e-01 7.559446e-01 2.196084e+00 6.391088e-02 9.410115e-02 1.393991e-01 1.198333e-01 1.347822e-01 1.481116e-01 3.448124e-01 1.130112e-01 1.153975e-01 1.185182e-01 1.155614e-01 1.028193e-01 1.874981e-01
<GCONST> 9.653522e+01
<STATE> 3
<MEAN> 39
 1.475360e+00 -1.822691e+00 -1.876324e+00 -3.934000e+00 -6.279632e-01 -4.448070e-02 -1.350215e+00 -8.719103e-03 3.607182e-01 -3.126334e-01 -5.158389e-01 -2.115641e+00 6.304029e+00 -6.494742e-02 -7.947572e-02 -4.066361e-01 -6.142654e-02 1.404850e-01 1.719571e-01 1.552226e-01 -2.690396e-03 2.601237e-01 2.833390e-01 1.357076e-01 1.781750e-01 -2.635244e-01 5.688462e-02 -5.507484e-02 2.124853e-02 -1.599207e-02 -6.682339e-02 -5.507515e-03 -8.274462e-02 -4.688449e-02 -2.811783e-02 -4.147673e-02 -2.673872e-02 1.720400e-02 2.261622e-02
<VARIANCE> 39
 2.549757e+01 3.663929e+01 4.647250e+01 4.557730e+01 3.640601e+01 5.012672e+01 8.567769e+01 4.261944e+01 3.614827e+01 4.097914e+01 4.395419e+01 3.734098e+01 8.684626e+01 6.914513e-01 8.595787e-01 1.524089e+00 1.184641e+00 1.052050e+00 1.313336e+00 2.617586e+00 8.718733e-01 9.553955e-01 9.563433e-01 9.002509e-01 8.197384e-01 2.160252e+00 6.559093e-02 8.301847e-02 1.384047e-01 1.118993e-01 1.243310e-01 1.568736e-01 3.180802e-01 1.001950e-01 1.146777e-01 1.175272e-01 1.089669e-01 9.975457e-02 1.706586e-01
<GCONST> 9.529006e+01
<STATE> 4
<MEAN> 39
 1.470896e+00 -2.478528e+00 -3.054351e+00 -3.921613e+00 -4.957805e-01 1.917098e-01 -1.162019e+00 5.732278e-01 8.748158e-01 8.486032e-02 -7.829207e-01 -1.793175e+00 4.976668e+00 5.978906e-02 -1.439697e-01 -2.842365e-01 -3.982855e-02 7.082537e-02 1.613102e-01 -2.523616e-02 -6.148432e-02 1.593214e-01 1.678003e-01 1.180814e-01 1.380768e-01 -2.972701e-01 5.092739e-02 -1.715072e-02 7.951818e-02 1.858843e-03 -5.361466e-02 -1.502181e-02 -6.571846e-02 -4.885242e-02 -8.009524e-02 -6.968428e-02 -9.752234e-03 -2.978567e-03 3.086066e-02
<VARIANCE> 39
 2.309445e+01 3.607182e+01 3.698316e+01 4.824965e+01 3.585711e+01 5.325181e+01 6.143000e+01 4.568935e+01 3.711964e+01 3.802738e+01 4.999636e+01 3.737671e+01 9.008151e+01 6.556942e-01 7.901535e-01 1.329869e+00 1.213593e+00 8.967356e-01 1.323790e+00 1.963935e+00 7.176665e-01 8.290336e-01 8.467058e-01 8.801744e-01 7.004774e-01 1.829529e+00 5.392462e-02 7.556111e-02 1.177439e-01 1.048822e-01 1.115934e-01 1.318340e-01 2.101036e-01 9.985310e-02 1.019581e-01 1.019108e-01 9.850513e-02 9.609999e-02 1.397920e-01
<GCONST> 9.159705e+01
<TRANSP> 5
 0.000000e+00 1.000000e+00 0.000000e+00 0.000000e+00 0.000000e+00
 0.000000e+00 3.935223e-01 6.064777e-01 0.000000e+00 0.000000e+00
 0.000000e+00 0.000000e+00 3.809822e-01 6.190178e-01 0.000000e+00
 0.000000e+00 0.000000e+00 0.000000e+00 4.437686e-01 5.562314e-01
 0.000000e+00 0.000000e+00 0.000000e+00 0.000000e+00 0.000000e+00
<ENDHMM>
~h "ax"
<BEGINHMM>
<NUMSTATES> 5
<STATE> 2
<MEAN> 39
 4.353553e+00 -1.389839e+00 4.944028e+00 -6.670049e-01 -5.380566e+00 -9.173363e-01 -2.706404e+00 -4.013700e+00 -4.349653e+00 -2.459697e+00 -1.181288e+00 3.955582e-01 5.453621e+00 1.073060e-01 -2.394179e-02 1.350899e-01 -6.888445e-02 2.925465e-02 8.444203e-03 -1.134419e-02 -8.615973e-02 -1.888671e-01 -1.443629e-01 8.208974e-02 -8.597939e-02 1.275956e-01 -9.412131e-03 3.160337e-02 -4.927827e-02 1.546174e-02 -1.622819e-02 -6.721388e-03 -3.307258e-02 3.513683e-03 -4.563725e-03 -2.010450e-02 2.480291e-02 -3.000315e-02 -3.160831e-02
<VARIANCE> 39
 1.406874e+01 3.034523e+01 4.576091e+01 5.636489e+01 5.925160e+01 3.649402e+01 3.140593e+01 1.091398e+02 3.323095e+01 2.830868e+01 4.198903e+01 2.099142e+01 4.420152e+01 4.200771e-01 9.854827e-01 1.741830e+00 1.610158e+00 2.646710e+00 1.441375e+00 1.090243e+00 3.072950e+00 1.327939e+00 7.768326e-01 1.547605e+00 9.686036e-01 1.382174e+00 3.482417e-02 9.732041e-02 1.518445e-01 1.464845e-01 2.684565e-01 1.471025e-01 1.434507e-01 3.116676e-01 1.649293e-01 1.118904e-01 1.935045e-01 1.255857e-01 1.274635e-01
<GCONST> 9.667960e+01
<STATE> 3
<MEAN> 39
 3.923728e+00 -8.622690e-01 3.962150e+00 2.963915e-01 -5.839812e+00 -1.712699e+00 -1.328449e+00 -5.304832e-01 -6.228537e+00 -3.257025e+00 1.377557e+00 7.800872e-01 5.361796e+00 6.146394e-02 2.999127e-01 -1.472000e-01 9.271068e-02 -5.641874e-02 4.978918e-02 -9.322686e-02 8.360412e-03 -1.655798e-01 -6.460428e-02 -7.644718e-02 -7.525408e-02 -2.418084e-01 -1.991207e-03 -2.059338e-04 -4.860774e-02 2.516334e-03 1.429141e-01 2.441784e-02 -2.772406e-02 -1.032037e-02 5.515289e-02 3.425961e-02 -7.315648e-02 2.648088e-03 -6.026429e-02
<VARIANCE> 39
 1.060015e+01 3.306499e+01 4.430354e+01 4.680178e+01 6.518290e+01 3.228241e+01 2.256191e+01 3.936423e+01 2.128497e+01 2.568739e+01 4.306258e+01 2.580951e+01 6.498889e+01 2.845244e-01 1.191298e+00 1.566744e+00 1.115912e+00 3.436629e+00 1.449296e+00 8.956659e-01 1.611858e+00 1.071800e+00 8.116156e-01 1.638401e+00 9.946058e-01 1.431776e+00 2.861537e-02 1.079608e-01 1.184298e-01 1.154205e-01 3.661872e-01 1.574610e-01 1.275383e-01 1.934586e-01 1.220318e-01 8.503910e-02 2.052158e-01 1.111159e-01 1.206038e-01
<GCONST> 9.217151e+01
<STATE> 4
<MEAN> 39
 3.370715e+00 5.939636e-01 3.469199e+00 -2.287312e-01 -4.252776e+00 -2.646749e+00 -8.860878e-01 -5.193107e-01 -5.700716e+00 -1.753488e+00 4.010600e-01 7.839377e-01 4.457328e+00 8.384963e-02 2.403117e-01 -4.927435e-01 1.426727e-01 9.646268e-01 4.416384e-01 -2.271076e-01 -1.548221e-01 1.851438e-01 2.561681e-01 -1.446296e-01 -1.282123e-01 -4.339674e-01 2.080411e-02 -6.006565e-02 -6.235014e-02 -8.054259e-02 -1.496017e-02 1.323418e-01 -4.114372e-02 -1.152155e-01 -8.063295e-03 4.583338e-02 1.514219e-01 -4.737116e-02 4.108410e-02
<VARIANCE> 39
 1.070874e+01 2.128520e+01 4.399979e+01 5.189386e+01 6.857072e+01 3.041344e+01 1.867427e+01 2.878102e+01 2.626122e+01 4.140132e+01 2.518385e+01 2.656872e+01 4.887168e+01 2.649913e-01 9.463671e-01 2.103480e+00 1.225207e+00 3.988025e+00 1.569669e+00 7.318908e-01 1.115322e+00 1.273517e+00 9.845177e-01 1.738645e+00 8.110900e-01 1.346976e+00 2.771880e-02 6.190839e-02 9.984813e-02 1.763458e-01 4.050965e-01 1.392515e-01 6.996237e-02 1.410872e-01 1.549985e-01 1.326924e-01 2.112221e-01 1.209033e-01 9.964811e-02
<GCONST> 9.046009e+01
<TRANSP> 5
 0.000000e+00 1.000000e+00 0.000000e+00 0.000000e+00 0.000000e+00
 0.000000e+00 9.353967e-01 6.460331e-02 0.000000e+00 0.000000e+00
 0.000000e+00 0.000000e+00 7.751530e-01 2.248470e-01 0.000000e+00
 0.000000e+00 0.000000e+00 0.000000e+00 8.222791e-01 1.777209e-01
 0.000000e+00 0.000000e+00 0.000000e+00 0.000000e+00 0.000000e+00
<ENDHMM>
~h "bh"
<BEGINHMM>
<NUMSTATES> 5
<STATE> 2
<MEAN> 39
 3.934680e+00 -9.352215e-01 -2.477056e+00 -3.012078e+00 1.003621e+00 9.975373e-01 -3.010898e+00 -2.340292e+00 -6.809112e-01 6.804814e-01 -6.809144e-01 -3.394154e+00 4.389162e+00 1.163757e-01 -1.054891e-01 -1.310456e-01 -1.846364e-01 1.159723e-01 1.278187e-01 6.773707e-03 -2.254646e-01 -4.613997e-02 1.874847e-01 6.902611e-02 -9.245940e-02 1.373311e-01 -1.875422e-02 -3.944667e-02 2.606201e-03 -3.745133e-02 -2.168003e-02 -2.925735e-02 1.087574e-02 -6.194700e-03 -6.364454e-03 -7.693635e-05 -9.166999e-03 -2.382576e-03 7.352054e-02
<VARIANCE> 39
