~o
<STREAMINFO> 1 39
<VECSIZE> 39<NULLD><MFCC_D_A_Z_0><DIAGC>
~s "silst"
<MEAN> 39
 -4.695772e+00 1.991592e+00 -1.360088e+00 5.537808e+00 6.120967e+00 3.126262e+00 4.038361e+00 2.937318e+00 3.133526e+00 1.230042e+00 2.283795e+00 5.208353e+00 -1.095175e+01 -2.313208e-02 1.724388e-02 5.125348e-03 -5.611891e-04 3.094710e-02 1.013035e-02 1.538870e-02 -2.180009e-02 -8.263030e-03 9.978269e-03 -6.040030e-04 -4.464249e-03 -8.258495e-03 5.602594e-03 7.763853e-03 7.056254e-03 1.245485e-03 -1.139572e-02 1.901316e-03 -3.272582e-03 -6.043626e-03 -6.519398e-03 -1.800058e-03 -2.124637e-03 -6.495871e-03 -1.488305e-03
<VARIANCE> 39
 7.138844e+00 2.578788e+01 1.552563e+01 2.098655e+01 1.945293e+01 2.408342e+01 2.623513e+01 2.266771e+01 2.119575e+01 1.846451e+01 2.095152e+01 1.806242e+01 3.015103e+01 8.248501e-02 2.175549e-01 1.855549e-01 2.305660e-01 2.794219e-01 3.020886e-01 2.967854e-01 3.280085e-01 3.149383e-01 3.155816e-01 2.888343e-01 2.681152e-01 1.215212e-01 9.839218e-03 1.925768e-02 2.166262e-02 2.974161e-02 3.654403e-02 4.006710e-02 4.180000e-02 4.555759e-02 4.535063e-02 4.499931e-02 4.186549e-02 3.815916e-02 1.090365e-02
<GCONST> 4.571926e+01
~h "a"
<BEGINHMM>
<NUMSTATES> 5
<STATE> 2
<MEAN> 39
 2.125000e+00 -3.779367e+00 1.263224e-01 -3.909383e+00 -1.960155e+00 -1.736341e+00 -4.132440e+00 3.769826e-01 8.480627e-02 1.168479e-02 -1.395244e+00 -3.005227e+00 9.144582e+00 2.365559e-01 -6.820936e-01 -1.152552e-01 -3.449298e-01 -4.924374e-01 -1.724299e-01 -2.094850e-01 5.838364e-01 2.152685e-01 -6.743786e-02 -1.952023e-01 -2.865028e-01 9.516156e-01 -2.631532e-02 9.168988e-02 2.222308e-02 1.338557e-01 3.688469e-02 5.207284e-03 8.830341e-02 -3.195285e-02 -3.517324e-02 -3.791392e-02 -6.443458e-04 7.696561e-02 -2.004640e-01
<VARIANCE> 39
 2.441193e+01 4.062172e+01 7.927467e+01 4.159855e+01 6.550988e+01 5.952396e+01 5.581773e+01 5.218317e+01 5.424619e+01 3.455910e+01 4.153305e+01 4.145308e+01 7.991580e+01 8.494201e-01 1.210991e+00 1.612293e+00 1.335698e+00 1.922867e+00 1.679540e+00 1.618003e+00 1.885715e+00 1.495944e+00 1.094875e+00 1.280404e+00 1.185741e+00 2.383833e+00 1.100620e-01 1.644485e-01 2.084605e-01 1.682579e-01 2.437251e-01 1.794015e-01 2.150664e-01 2.131676e-01 1.715300e-01 1.342363e-01 1.642173e-01 1.696354e-01 2.994815e-01
<GCONST> 1.050220e+02
<STATE> 3
<MEAN> 39
 3.357603e+00 -8.412316e+00 -1.975275e+00 -5.954150e+00 -4.018999e+00 -3.023804e+00 -5.222532e+00 5.268275e+00 2.072199e+00 -1.377043e+00 -3.447082e+00 -5.224308e+00 1.435879e+01 1.877735e-01 5.978275e-02 5.392494e-02 4.051162e-01 -6.970976e-02 -1.919402e-01 1.032124e-01 1.865140e-02 -1.485331e-02 -1.459383e-01 -1.975597e-01 1.048020e-01 -3.424639e-01 -6.192724e-02 3.702646e-01 1.556973e-01 2.818219e-01 2.124653e-01 2.620938e-02 1.064714e-01 -4.093521e-01 -1.479217e-01 2.742725e-02 8.814993e-02 1.946159e-01 -5.127863e-01
<VARIANCE> 39
 1.457135e+01 2.354881e+01 4.123542e+01 2.882574e+01 4.892292e+01 4.748686e+01 5.077316e+01 4.705317e+01 3.880305e+01 4.217832e+01 4.229274e+01 3.700108e+01 5.108997e+01 4.696740e-01 1.009334e+00 1.497890e+00 1.107649e+00 1.709003e+00 1.281154e+00 1.468310e+00 1.779713e+00 1.133723e+00 1.082395e+00 1.207200e+00 1.052632e+00 1.569082e+00 8.112223e-02 1.126460e-01 1.592976e-01 1.216800e-01 1.963459e-01 1.535325e-01 2.041470e-01 2.218876e-01 1.572065e-01 1.541074e-01 1.679449e-01 1.423933e-01 1.708517e-01
<GCONST> 9.675829e+01
<STATE> 4
<MEAN> 39
 3.955513e+00 -3.503066e+00 -2.043487e+00 -1.397547e+00 -1.741041e+00 -4.114712e+00 -3.802884e+00 1.671836e+00 2.075597e+00 -3.309179e-02 -2.316699e+00 -2.439734e+00 4.634350e+00 -1.055247e-01 5.878972e-01 1.694961e-01 5.492799e-01 2.066009e-01 -1.590559e-02 2.645193e-01 -3.743653e-01 -6.590466e-02 -6.598634e-03 1.300894e-01 3.402835e-01 -1.100343e+00 -1.187102e-01 2.794120e-02 1.904447e-02 -7.071485e-02 4.880551e-02 5.139241e-02 5.545671e-02 -4.023326e-02 -1.553936e-02 1.412898e-02 3.661639e-02 1.394950e-02 5.971382e-02
<VARIANCE> 39
 1.453779e+01 3.001330e+01 3.532502e+01 3.087226e+01 4.292723e+01 4.609291e+01 4.359250e+01 4.377515e+01 3.726558e+01 3.358975e+01 3.409413e+01 3.566891e+01 7.110500e+01 6.195507e-01 8.795512e-01 1.016657e+00 8.583615e-01 1.135760e+00 9.530656e-01 1.116516e+00 1.309766e+00 8.848681e-01 8.063940e-01 8.795995e-01 8.332972e-01 1.611519e+00 6.790346e-02 1.002187e-01 1.034971e-01 9.495884e-02 1.279162e-01 1.173852e-01 1.211939e-01 1.581085e-01 1.130017e-01 1.018635e-01 1.111908e-01 1.013067e-01 1.774386e-01
<GCONST> 8.949322e+01
<TRANSP> 5
 0.000000e+00 1.000000e+00 0.000000e+00 0.000000e+00 0.000000e+00
 0.000000e+00 4.745825e-01 5.254176e-01 0.000000e+00 0.000000e+00
 0.000000e+00 0.000000e+00 5.711894e-01 4.288106e-01 0.000000e+00
 0.000000e+00 0.000000e+00 0.000000e+00 5.609052e-01 4.390948e-01
 0.000000e+00 0.000000e+00 0.000000e+00 0.000000e+00 0.000000e+00
<ENDHMM>
~h "b"
<BEGINHMM>
<NUMSTATES> 5
<STATE> 2
<MEAN> 39
 5.642894e+00 4.456261e+00 3.751808e-01 2.593546e+00 2.403729e+00 1.508770e+00 -2.294996e+00 -3.260223e+00 -1.970961e+00 -1.601517e+00 -1.238624e+00 -3.941967e+00 -2.852047e+00 -2.794567e-01 1.085473e-01 3.149107e-02 -5.761584e-02 2.493275e-01 -4.953815e-02 3.448037e-01 -5.699137e-03 9.305024e-02 2.153756e-02 1.155106e-01 7.734242e-02 2.470949e-01 -1.326620e-01 -3.973802e-01 -1.247552e-01 -3.641016e-01 -2.705108e-01 -7.966290e-02 -1.208243e-01 7.299149e-02 8.965109e-02 1.203046e-01 1.096177e-01 3.290313e-02 6.513346e-01
<VARIANCE> 39
 1.471589e+01 2.449910e+01 3.237091e+01 2.320670e+01 3.229654e+01 3.494157e+01 2.530218e+01 3.497233e+01 4.031824e+01 2.158848e+01 2.923211e+01 3.132121e+01 1.948466e+01 6.271114e-01 9.890685e-01 9.826797e-01 1.324669e+00 9.277538e-01 1.081519e+00 9.077911e-01 9.169119e-01 8.079973e-01 8.191103e-01 8.271699e-01 7.644964e-01 2.373155e+00 8.949806e-02 9.768952e-02 1.287026e-01 1.172947e-01 1.589812e-01 1.513204e-01 1.315222e-01 1.485259e-01 1.426220e-01 1.177921e-01 1.185583e-01 1.114433e-01 1.731954e-01
<GCONST> 8.739584e+01
<STATE> 3
<MEAN> 39
 3.025445e+00 1.684407e+00 -1.528957e+00 -1.422948e+00 2.638656e+00 6.895334e-01 -1.549583e+00 -4.253578e+00 -9.156079e-01 1.276372e-01 1.031879e+00 -1.049320e+00 3.617466e+00 -3.752908e-01 -1.257694e+00 -3.292149e-01 -9.820169e-01 -7.831304e-01 -1.108641e-01 -2.292028e-01 3.178789e-01 4.255722e-01 3.988264e-01 2.250592e-01 -2.150229e-01 2.113913e+00 1.071629e-02 -1.643081e-01 4.784681e-02 -3.462069e-02 -2.544334e-01 -2.530597e-02 -1.075537e-01 1.484554e-01 1.349842e-02 -8.332393e-02 -1.147329e-01 -1.122870e-01 1.358428e-01
<VARIANCE> 39
 2.184736e+01 2.443232e+01 3.073244e+01 4.352604e+01 3.048544e+01 4.368250e+01 2.822665e+01 3.505120e+01 3.427673e+01 2.741515e+01 2.936642e+01 3.127895e+01 5.158083e+01 1.046295e+00 1.298804e+00 2.350260e+00 1.826109e+00 2.126813e+00 2.152176e+00 1.444515e+00 1.507680e+00 1.743830e+00 1.275690e+00 1.190178e+00 1.234214e+00 1.761360e+00 7.960720e-02 7.755136e-02 9.350378e-02 1.394492e-01 1.604401e-01 1.369020e-01 1.100273e-01 1.644507e-01 1.430364e-01 1.105844e-01 1.256154e-01 9.526477e-02 1.250476e-01
<GCONST> 9.476263e+01
<STATE> 4
<MEAN> 39
 3.258946e+00 -4.180909e+00 -1.975459e+00 -4.163290e+00 -2.553751e+00 1.474361e-01 -4.731886e+00 -1.021016e+00 1.383909e+00 1.694372e+00 1.694836e+00 -3.801656e+00 1.115136e+01 -4.340267e-01 -1.045472e+00 1.104043e-01 -5.913691e-01 -1.102455e+00 -3.958004e-01 -2.404768e-01 7.485572e-01 2.616014e-01 -8.178399e-02 -8.384101e-02 -1.928717e-01 1.573282e+00 3.468310e-02 2.463501e-01 1.289102e-01 2.254655e-01 9.171014e-02 -1.024179e-02 9.023807e-02 -3.290426e-02 -1.479065e-01 -2.106048e-01 -1.684540e-01 6.239938e-02 -4.371318e-01
<VARIANCE> 39
 1.912577e+01 2.467416e+01 6.146291e+01 4.292580e+01 4.213032e+01 6.462270e+01 4.777126e+01 4.550108e+01 4.267178e+01 4.054550e+01 3.399491e+01 4.075603e+01 6.279204e+01 1.151824e+00 1.433184e+00 2.136514e+00 1.447974e+00 2.572921e+00 1.852617e+00 1.597813e+00 1.841799e+00 2.003529e+00 1.093397e+00 1.223310e+00 1.280358e+00 1.710685e+00 7.930596e-02 9.616046e-02 1.688880e-01 2.215815e-01 1.642752e-01 2.257516e-01 1.680227e-01 2.146960e-01 1.521606e-01 1.472961e-01 1.440212e-01 1.391942e-01 2.568974e-01
<GCONST> 1.023311e+02
<TRANSP> 5
 0.000000e+00 1.000000e+00 0.000000e+00 0.000000e+00 0.000000e+00
 0.000000e+00 7.299706e-01 2.700294e-01 0.000000e+00 0.000000e+00
 0.000000e+00 0.000000e+00 4.955106e-01 5.044894e-01 0.000000e+00
 0.000000e+00 0.000000e+00 0.000000e+00 4.158145e-01 5.841855e-01
 0.000000e+00 0.000000e+00 0.000000e+00 0.000000e+00 0.000000e+00
<ENDHMM>
~h "c"
<BEGINHMM>
<NUMSTATES> 5
<STATE> 2
<MEAN> 39
 -7.013376e+00 2.321242e+00 -6.974731e-01 -3.425775e+00 3.025066e+00 -3.843243e+00 2.431002e-01 -1.315501e+00 9.535652e-01 6.364642e-01 7.407691e-01 1.472170e+00 4.200083e-01 -1.395097e+00 -1.479274e-01 4.017062e-01 -7.326350e-01 3.676223e-01 -1.309097e-01 4.030361e-01 3.294643e-01 3.874758e-03 -1.555049e-01 3.082406e-01 4.463060e-01 1.146270e+00 2.520920e-01 -1.633446e-01 2.169286e-01 3.564766e-02 -2.393835e-01 3.342524e-02 -1.364388e-01 6.989244e-02 -5.386556e-02 -1.182888e-01 -6.797745e-02 -9.199712e-02 3.656202e-01
<VARIANCE> 39
 6.281625e+01 3.090476e+01 4.728694e+01 3.702082e+01 3.745372e+01 4.392204e+01 4.142451e+01 3.794673e+01 3.386806e+01 2.544465e+01 2.830905e+01 2.755311e+01 4.948265e+01 1.656883e+00 1.098527e+00 1.756525e+00 9.877344e-01 1.223259e+00 1.156811e+00 1.059019e+00 1.153228e+00 9.657147e-01 7.628250e-01 7.256591e-01 6.460491e-01 2.211631e+00 4.202361e-01 1.365986e-01 1.599814e-01 1.691601e-01 1.874230e-01 1.550270e-01 1.713417e-01 1.264577e-01 1.270860e-01 1.026625e-01 1.122702e-01 1.218545e-01 1.852396e-01
<GCONST> 9.607424e+01
<STATE> 3
<MEAN> 39
 -1.056590e+01 1.789320e-01 6.802388e+00 -5.096981e+00 1.045864e+00 -4.111230e+00 1.238173e+00 1.225034e+00 1.200039e-01 -2.590874e+00 2.015327e+00 3.242059e+00 9.130013e+00 1.935853e+00 -1.038694e+00 4.145055e-01 3.201110e-01 -1.529707e+00 -2.327683e-01 -9.623461e-01 4.137521e-01 -5.364288e-02 -4.364082e-01 -3.752446e-01 -5.281884e-01 1.334982e+00 5.752656e-01 -9.996554e-02 -3.753305e-01 1.149812e-01 -1.767594e-01 5.919190e-02 -2.335359e-01 -1.081550e-01 5.772572e-02 1.461464e-01 -1.434900e-01 -3.096279e-01 -2.416942e-01
<VARIANCE> 39
 6.362823e+01 3.071407e+01 4.065254e+01 2.801118e+01 4.941360e+01 3.938586e+01 3.805198e+01 2.767178e+01 3.297084e+01 2.679191e+01 2.865339e+01 2.140518e+01 2.688141e+01 1.615350e+00 1.097009e+00 2.171877e+00 1.067059e+00 1.256418e+00 1.563718e+00 1.405113e+00 1.439521e+00 1.881436e+00 9.935991e-01 1.245046e+00 9.488114e-01 1.555164e+00 2.586482e-01 1.293600e-01 1.694472e-01 1.101810e-01 2.146522e-01 1.639503e-01 1.370145e-01 1.213640e-01 1.231034e-01 1.200549e-01 1.076955e-01 9.507918e-02 8.549529e-02
<GCONST> 9.526875e+01
<STATE> 4
<MEAN> 39
 1.461263e+00 -6.095075e+00 3.688630e+00 -4.262327e+00 -6.706416e+00 -4.746686e+00 -6.866412e+00 3.039245e+00 2.186132e+00 -1.573819e+00 -1.162815e+00 -1.686015e+00 1.304255e+01 2.089226e+00 -9.567048e-01 -1.066089e+00 -4.078658e-02 -7.211344e-01 4.682785e-01 -8.173459e-01 -1.185317e-01 1.365570e-01 3.379192e-01 -4.039954e-01 -1.245034e+00 5.304096e-01 -4.024070e-01 2.541064e-01 -1.876650e-01 -1.312076e-01 4.724887e-01 2.247305e-01 3.570766e-01 -2.431925e-01 -1.621583e-01 8.557502e-02 1.683517e-01 3.851455e-02 -3.493581e-01
<VARIANCE> 39
 1.677690e+01 2.418946e+01 4.600512e+01 2.356501e+01 4.199070e+01 3.693812e+01 4.810729e+01 3.788725e+01 4.568186e+01 2.623593e+01 2.665083e+01 2.400023e+01 4.299844e+01 1.225870e+00 1.281523e+00 2.182209e+00 1.268471e+00 1.324638e+00 1.706087e+00 1.316820e+00 1.343701e+00 1.366646e+00 1.357602e+00 1.254915e+00 1.084921e+00 9.824603e-01 1.582052e-01 1.141387e-01 1.482204e-01 9.116631e-02 1.643442e-01 1.527466e-01 1.936869e-01 1.248778e-01 1.806325e-01 1.152481e-01 1.219608e-01 1.203303e-01 1.114987e-01
<GCONST> 9.458974e+01
<TRANSP> 5
 0.000000e+00 1.000000e+00 0.000000e+00 0.000000e+00 0.000000e+00
 0.000000e+00 7.830991e-01 2.169009e-01 0.000000e+00 0.000000e+00
 0.000000e+00 0.000000e+00 6.642932e-01 3.357069e-01 0.000000e+00
 0.000000e+00 0.000000e+00 0.000000e+00 5.227758e-01 4.772242e-01
 0.000000e+00 0.000000e+00 0.000000e+00 0.000000e+00 0.000000e+00
<ENDHMM>
~h "d"
<BEGINHMM>
<NUMSTATES> 5
<STATE> 2
<MEAN> 39
 3.737659e+00 3.715348e+00 1.854618e+00 3.340750e+00 1.672679e+00 -1.613628e+00 -1.536450e+00 -2.498910e+00 -2.703114e-01 -1.570963e+00 -2.731086e+00 -3.957679e+00 -1.627249e+00 -5.882618e-01 -2.976076e-01 3.915287e-01 -3.028236e-01 -2.708147e-01 -4.587682e-01 4.996249e-01 5.750035e-02 -1.593356e-01 -1.940395e-01 4.774885e-01 5.366167e-01 9.731363e-01 -1.010951e-01 -2.852412e-01 1.258342e-01 -3.102099e-01 -4.017005e-01 -1.182020e-01 -1.678028e-01 -3.856267e-03 -1.017366e-01 1.815466e-02 1.623436e-01 3.838532e-02 5.833881e-01
<VARIANCE> 39
 1.944469e+01 2.883930e+01 2.976003e+01 2.324282e+01 3.341719e+01 3.282122e+01 3.570735e+01 3.528040e+01 2.732030e+01 2.477223e+01 2.763038e+01 2.903011e+01 2.889986e+01 5.805339e-01 1.028562e+00 1.199590e+00 1.041779e+00 1.773417e+00 1.096782e+00 1.255165e+00 1.548574e+00 1.380166e+00 7.583013e-01 1.117646e+00 8.047866e-01 2.531886e+00 9.488042e-02 9.370629e-02 1.348038e-01 8.926795e-02 1.607729e-01 1.442308e-01 1.557181e-01 1.916211e-01 1.421910e-01 1.022226e-01 1.411252e-01 1.205876e-01 1.782321e-01
<GCONST> 9.071046e+01
<STATE> 3
<MEAN> 39
 -7.344447e-01 -1.277550e+00 7.390067e+00 -7.029285e-01 -6.642979e+00 -6.950176e+00 -9.195403e-01 -3.162531e+00 -4.128583e+00 -3.574792e+00 3.707325e+00 -2.199915e-01 1.099578e+01 -3.855657e-01 -8.538213e-01 9.602535e-01 -9.957067e-01 -1.888955e+00 -3.667098e-01 -5.366160e-01 9.107882e-02 -6.534716e-01 1.598798e-01 8.307809e-01 -3.235959e-02 1.990929e+00 2.327763e-01 6.022565e-02 -1.105945e-01 1.341344e-02 7.614749e-02 2.525321e-01 -1.849066e-01 3.527706e-02 7.170875e-02 1.673508e-01 -2.345095e-01 -2.237572e-01 -3.270933e-01
<VARIANCE> 39
 1.309423e+01 1.424413e+01 4.460339e+01 1.936312e+01 7.835232e+01 3.470728e+01 4.322761e+01 4.069958e+01 4.371425e+01 2.252419e+01 3.755959e+01 2.454493e+01 4.540145e+01 6.346210e-01 8.685421e-01 1.944195e+00 8.139255e-01 1.817946e+00 1.357979e+00 1.430066e+00 2.607402e+00 1.911695e+00 9.074020e-01 1.366530e+00 9.169711e-01 1.378620e+00 4.677058e-02 7.096526e-02 1.128884e-01 7.515410e-02 2.087315e-01 1.020806e-01 1.281417e-01 1.347689e-01 1.313408e-01 9.703286e-02 1.237203e-01 9.081411e-02 1.521040e-01
<GCONST> 9.064292e+01
<STATE> 4
<MEAN> 39
 6.190979e-01 -3.314893e+00 5.929416e+00 -3.992008e+00 -8.180489e+00 -4.871881e+00 -4.235875e+00 -6.600683e-01 -2.339360e+00 -1.156917e+00 9.230621e-01 -2.835145e+00 1.245673e+01 1.719002e-01 -4.648199e-01 9.475341e-02 -6.170548e-01 -5.090796e-01 1.045906e-01 -4.129167e-01 9.911988e-02 -4.860018e-02 3.160119e-01 -7.920194e-02 -2.272515e-01 5.624225e-01 1.357706e-01 1.526410e-01 -1.321303e-01 1.609769e-01 2.690472e-01 1.787193e-01 4.345151e-02 -8.625832e-02 1.636333e-02 2.146364e-02 -1.572290e-01 -5.817577e-02 -4.125686e-01
<VARIANCE> 39
 1.599819e+01 2.273967e+01 7.239725e+01 2.713877e+01 7.817026e+01 4.754676e+01 4.781638e+01 7.166609e+01 6.273375e+01 2.634749e+01 5.376928e+01 3.115666e+01 5.864814e+01 5.624529e-01 8.819341e-01 1.875128e+00 1.080525e+00 1.888930e+00 1.174440e+00 1.385076e+00 2.068959e+00 1.496903e+00 9.717426e-01 1.372763e+00 8.519622e-01 2.360056e+00 7.024363e-02 8.485278e-02 1.611183e-01 1.026022e-01 2.427102e-01 1.564677e-01 1.602245e-01 2.038437e-01 1.879431e-01 1.038410e-01 1.936642e-01 1.109297e-01 2.170265e-01
<GCONST> 9.844491e+01
<TRANSP> 5
 0.000000e+00 1.000000e+00 0.000000e+00 0.000000e+00 0.000000e+00
 0.000000e+00 7.615775e-01 2.384226e-01 0.000000e+00 0.000000e+00
 0.000000e+00 0.000000e+00 5.382514e-01 4.617486e-01 0.000000e+00
 0.000000e+00 0.000000e+00 0.000000e+00 3.746901e-01 6.253099e-01
 0.000000e+00 0.000000e+00 0.000000e+00 0.000000e+00 0.000000e+00
<ENDHMM>
~h "e"
<BEGINHMM>
<NUMSTATES> 5
<STATE> 2
<MEAN> 39
 8.179762e-02 -4.327141e-01 1.754224e+00 -1.281824e-01 -3.766840e+00 -3.718736e+00 3.353544e-01 -8.853403e-01 -1.346347e+00 9.645209e-01 3.354759e-01 -1.651530e-01 1.960519e+00 -2.149611e-01 -3.415224e-01 1.472986e+00 -5.685093e-01 -1.273295e+00 -2.077386e-01 -6.565778e-02 5.299336e-02 -1.008059e+00 5.285246e-02 4.543743e-01 -4.669460e-02 1.110170e+00 3.089240e-02 -3.424527e-02 1.749853e-01 -1.523274e-01 -1.523888e-01 6.517457e-02 -8.208431e-02 -3.488599e-02 -1.726670e-01 -8.578312e-03 6.300981e-02 -8.514030e-02 1.646522e-01
<VARIANCE> 39
 1.877679e+01 3.108168e+01 5.342235e+01 3.113801e+01 6.405781e+01 4.353890e+01 4.685312e+01 5.115320e+01 4.454816e+01 3.357339e+01 2.963543e+01 2.932782e+01 6.859443e+01 6.083174e-01 8.820825e-01 1.873976e+00 9.429996e-01 1.652889e+00 1.295465e+00 1.219553e+00 2.073578e+00 1.213796e+00 8.638324e-01 9.857378e-01 8.255415e-01 1.300805e+00 6.671274e-02 8.548999e-02 1.890785e-01 9.623383e-02 1.553715e-01 1.350414e-01 1.365312e-01 1.412465e-01 1.332376e-01 9.364615e-02 9.445514e-02 7.587633e-02 1.769128e-01
<GCONST> 9.318459e+01
<STATE> 3
<MEAN> 39
 1.885552e-01 -4.183065e+00 1.149335e+01 -5.685855e+00 -1.388313e+01 -4.530784e+00 -3.531623e+00 4.757765e-01 -8.450421e+00 6.721373e-01 4.572283e+00 -2.272970e+00 1.134569e+01 -6.011077e-02 -1.643085e-01 6.229019e-01 -4.717841e-01 -7.592006e-01 6.625621e-02 -1.115610e-01 -5.050869e-02 -6.194677e-01 1.934771e-02 3.603619e-01 -1.812569e-01 7.071952e-01 5.156541e-02 1.811462e-01 -3.431274e-01 2.669460e-01 4.181725e-01 4.059595e-02 1.251510e-01 -1.506665e-01 2.458845e-01 -1.695910e-02 -2.163714e-01 4.125875e-02 -3.770257e-01
<VARIANCE> 39
 1.329190e+01 2.027274e+01 3.801872e+01 2.653040e+01 2.713207e+01 3.774092e+01 3.485470e+01 6.155394e+01 2.568785e+01 2.750196e+01 3.230747e+01 2.201624e+01 3.245223e+01 3.677085e-01 4.461501e-01 1.081259e+00 8.148101e-01 1.307562e+00 8.074244e-01 1.236590e+00 1.105497e+00 8.553274e-01 7.514893e-01 9.957289e-01 6.150620e-01 1.205244e+00 4.726723e-02 7.497872e-02 1.096181e-01 8.523331e-02 1.308486e-01 1.072836e-01 1.328761e-01 1.687289e-01 1.016143e-01 8.755429e-02 9.202650e-02 8.456993e-02 9.468266e-02
<GCONST> 8.277220e+01
<STATE> 4
<MEAN> 39
 8.926448e-01 -1.071589e+00 9.406939e+00 -2.372961e+00 -1.171579e+01 -4.018089e+00 -1.723390e+00 -2.924304e+00 -6.938768e+00 1.637707e+00 3.666836e+00 -2.461274e+00 4.303863e+00 1.060713e-01 3.868714e-01 -6.362574e-01 5.920015e-01 7.903423e-01 -4.041824e-02 3.455716e-01 -1.012553e-01 4.978508e-01 -2.211322e-02 -2.457967e-01 2.456904e-01 -1.125553e+00 -4.960604e-02 1.898988e-02 -1.031145e-01 1.021049e-02 1.523791e-01 1.142401e-02 1.930141e-02 3.868428e-02 9.176481e-02 -2.758720e-02 -1.382389e-02 6.699347e-02 -2.864492e-02
<VARIANCE> 39
 1.477655e+01 2.101239e+01 3.944906e+01 3.092781e+01 3.322829e+01 3.711324e+01 3.662257e+01 4.926836e+01 3.454657e+01 3.691216e+01 3.331887e+01 2.737051e+01 7.802589e+01 4.082946e-01 5.768280e-01 9.623486e-01 7.580518e-01 1.136007e+00 7.922029e-01 8.453654e-01 1.035909e+00 8.176879e-01 6.655269e-01 7.948780e-01 6.785996e-01 1.639217e+00 5.569819e-02 6.475408e-02 1.039079e-01 9.476256e-02 1.444005e-01 9.324271e-02 1.076706e-01 1.183222e-01 1.252782e-01 9.404644e-02 1.153216e-01 8.731358e-02 2.557719e-01
<GCONST> 8.541055e+01
<TRANSP> 5
 0.000000e+00 1.000000e+00 0.000000e+00 0.000000e+00 0.000000e+00
 0.000000e+00 6.882399e-01 3.117601e-01 0.000000e+00 0.000000e+00
 0.000000e+00 0.000000e+00 7.574992e-01 2.425008e-01 0.000000e+00
 0.000000e+00 0.000000e+00 0.000000e+00 8.401315e-01 1.598685e-01
 0.000000e+00 0.000000e+00 0.000000e+00 0.000000e+00 0.000000e+00
<ENDHMM>
~h "g"
<BEGINHMM>
<NUMSTATES> 5
<STATE> 2
<MEAN> 39
 6.150407e+00 -3.412537e+00 -1.824259e+00 -6.722880e+00 5.672858e-01 2.045265e+00 -6.765192e+00 -4.926344e-01 -3.505780e+00 2.618504e-01 2.864758e-01 -5.776431e+00 7.769125e+00 1.321248e-01 5.842042e-01 1.571827e-02 4.900104e-01 3.903944e-01 8.502742e-02 2.768893e-01 -2.131281e-01 -5.155914e-02 -1.364288e-01 1.175580e-03 2.711420e-01 -9.947079e-01 -8.774173e-02 -4.488733e-02 -2.637266e-02 5.197440e-02 -7.935294e-02 -5.272703e-02 1.297189e-01 6.350181e-02 1.718210e-01 -3.559422e-02 -6.736649e-02 6.465004e-02 6.603090e-02
<VARIANCE> 39
 1.338154e+01 3.567137e+01 4.559863e+01 5.471021e+01 3.727301e+01 7.915985e+01 4.367806e+01 4.669968e+01 4.590025e+01 3.741318e+01 3.704184e+01 3.640107e+01 6.364163e+01 4.084404e-01 9.815893e-01 6.790553e-01 1.414193e+00 8.468375e-01 1.447507e+00 9.891652e-01 1.247965e+00 1.414949e+00 8.700992e-01 9.228124e-01 8.594530e-01 1.560410e+00 4.189096e-02 7.206444e-02 7.608854e-02 1.071604e-01 1.094680e-01 1.103003e-01 1.291876e-01 1.449934e-01 1.400010e-01 1.131280e-01 1.050922e-01 9.440261e-02 1.302268e-01
<GCONST> 9.016360e+01
<STATE> 3
<MEAN> 39
 5.772247e+00 1.275552e+00 -1.072852e+00 -4.167703e-01 -2.434486e-01 -2.281645e+00 -4.002922e+00 -2.283480e+00 -1.027997e+00 2.130504e-01 -1.905815e+00 -4.004058e+00 3.568452e-01 -2.714543e-01 3.327358e-01 -1.512671e-01 4.688787e-01 1.207274e-01 -1.816728e-01 5.334411e-01 6.599002e-02 5.442045e-01 -4.477119e-02 -1.196484e-01 3.256882e-01 -7.096256e-01 -1.034146e-01 -2.966422e-01 1.345451e-02 -2.613877e-01 -1.127367e-01 -4.679213e-02 -5.178019e-02 1.364805e-01 4.514268e-02 1.035208e-01 5.733060e-02 -1.581009e-02 4.252996e-01
<VARIANCE> 39
 1.246109e+01 2.175730e+01 3.486275e+01 2.485014e+01 3.651380e+01 3.619654e+01 3.329058e+01 3.333852e+01 3.664138e+01 2.867266e+01 2.809434e+01 2.664648e+01 2.145278e+01 3.710560e-01 7.604535e-01 8.427973e-01 9.041833e-01 1.076856e+00 1.018918e+00 1.025441e+00 1.042895e+00 1.122547e+00 8.138344e-01 7.602210e-01 7.180695e-01 1.003537e+00 5.464556e-02 7.871772e-02 9.317150e-02 8.422439e-02 1.548685e-01 1.354233e-01 1.322663e-01 1.361634e-01 1.433255e-01 1.012203e-01 9.604339e-02 1.048452e-01 1.214148e-01
<GCONST> 8.369701e+01
<STATE> 4
<MEAN> 39
 2.833491e+00 4.798840e-02 -4.354069e+00 -1.092819e+00 -1.871001e-01 -2.182347e+00 -1.671420e+00 -4.721626e-02 2.795374e+00 2.511480e+00 1.381645e-01 -1.047301e+00 -3.101118e+00 -1.305305e-01 4.509462e-02 2.236798e-02 5.892227e-02 1.529207e-02 2.183210e-02 1.127738e-01 5.589785e-02 8.909617e-02 6.620128e-02 1.987213e-02 8.235511e-02 -1.092178e-01 -1.146823e-03 -3.361878e-02 3.215241e-02 -4.009982e-02 -5.881919e-03 1.213755e-02 -7.895304e-03 -1.407622e-02 -4.702113e-02 -8.817128e-03 -2.024941e-03 -2.649635e-02 1.153402e-01
<VARIANCE> 39
 1.598043e+01 2.156149e+01 2.893406e+01 2.258803e+01 2.432097e+01 3.227266e+01 3.052005e+01 3.422807e+01 3.141633e+01 2.705500e+01 2.857562e+01 3.153942e+01 3.549875e+01 2.067233e-01 2.954842e-01 3.733273e-01 3.979829e-01 5.288875e-01 5.032567e-01 4.757189e-01 5.313190e-01 5.496192e-01 4.922133e-01 4.796429e-01 5.488632e-01 3.101279e-01 2.742079e-02 3.925752e-02 4.346379e-02 5.567224e-02 7.684430e-02 6.574551e-02 6.802322e-02 8.271936e-02 7.775741e-02 6.761249e-02 6.708767e-02 7.080863e-02 6.260661e-02
<GCONST> 6.682869e+01
<TRANSP> 5
 0.000000e+00 1.000000e+00 0.000000e+00 0.000000e+00 0.000000e+00
 0.000000e+00 5.235047e-01 4.764953e-01 0.000000e+00 0.000000e+00
 0.000000e+00 0.000000e+00 5.783269e-01 4.216731e-01 0.000000e+00
 0.000000e+00 0.000000e+00 0.000000e+00 8.497683e-01 1.502316e-01
 0.000000e+00 0.000000e+00 0.000000e+00 0.000000e+00 0.000000e+00
<ENDHMM>
~h "h"
<BEGINHMM>
<NUMSTATES> 5
<STATE> 2
<MEAN> 39
 2.403990e+00 -2.486163e+00 1.787926e+00 -1.334502e+00 1.222383e+00 4.073367e-01 3.524403e+00 1.688981e+00 -8.244010e-01 -1.281424e+00 -3.072666e+00 9.672953e-01 6.914046e+00 -1.064324e-02 3.649782e-01 -1.176532e-01 2.046732e-01 4.834514e-01 3.166263e-01 4.897607e-01 -2.182302e-01 -1.398580e-02 -1.039448e-01 9.743265e-03 2.765694e-01 -4.940375e-01 4.576406e-02 -8.272596e-02 6.913003e-03 -1.393611e-01 -2.236495e-01 -4.113308e-02 -1.952780e-01 -2.839805e-03 -7.767055e-02 -9.517224e-03 8.634566e-02 -1.294395e-01 7.904007e-02
<VARIANCE> 39
 1.313848e+01 2.439908e+01 4.886224e+01 2.916205e+01 6.419086e+01 4.525626e+01 5.037547e+01 4.730726e+01 3.862634e+01 4.485491e+01 4.225375e+01 3.714310e+01 3.761626e+01 3.810681e-01 7.553504e-01 1.268836e+00 7.790529e-01 1.681601e+00 1.156431e+00 1.323094e+00 1.461413e+00 9.708164e-01 1.079057e+00 1.121026e+00 8.136072e-01 7.260542e-01 3.697766e-02 8.162629e-02 8.343314e-02 9.989038e-02 1.754267e-01 1.174279e-01 1.535467e-01 1.521067e-01 1.316156e-01 1.270052e-01 1.383157e-01 1.057464e-01 7.554390e-02
<GCONST> 8.947546e+01
<STATE> 3
<MEAN> 39
 2.702827e+00 -4.247491e+00 2.078792e+00 -2.045897e+00 -1.080299e+00 -7.850164e-01 4.942789e+00 3.793591e+00 -1.968670e+00 -3.053686e+00 -2.471827e+00 2.657847e-01 8.444214e+00 2.175962e-01 -3.342702e-01 -5.659705e-02 -3.702834e-01 -6.449322e-01 -2.619689e-01 -3.321972e-01 2.010870e-01 -1.276856e-01 -1.033608e-01 1.570985e-01 -3.361628e-01 2.153474e-01 1.182434e-02 -2.356463e-02 3.087966e-03 -6.243534e-02 -6.920609e-02 -1.722301e-02 -1.421789e-01 -2.248202e-02 1.629755e-02 6.211770e-02 2.839163e-02 -6.005041e-02 4.108704e-03
<VARIANCE> 39
 1.375858e+01 2.863853e+01 3.745749e+01 2.741040e+01 5.245686e+01 3.881889e+01 4.768177e+01 4.876280e+01 3.295409e+01 3.572935e+01 3.441684e+01 2.849652e+01 4.345736e+01 2.776100e-01 6.877962e-01 7.287853e-01 5.778717e-01 1.365307e+00 8.222858e-01 1.072579e+00 1.107690e+00 7.595605e-01 8.042037e-01 6.825941e-01 6.877214e-01 7.380861e-01 3.298729e-02 7.362989e-02 6.066821e-02 7.074318e-02 1.412402e-01 7.930690e-02 1.172685e-01 8.817232e-02 8.499072e-02 7.532410e-02 7.822626e-02 8.066016e-02 6.341732e-02
<GCONST> 8.049432e+01
<STATE> 4
<MEAN> 39
 2.754795e+00 -1.961416e+00 -8.527629e-01 -1.670281e+00 -1.723533e+00 -9.928016e-01 1.646136e+00 1.983004e+00 -1.891149e-01 -9.958061e-01 -6.218331e-01 -3.133984e-01 2.175073e+00 1.094790e-02 7.784665e-02 -1.546553e-02 2.511241e-03 -3.626783e-02 2.425617e-02 -6.725462e-02 -2.286354e-02 -3.901592e-02 3.355021e-02 7.186324e-02 6.519991e-04 -1.912892e-01 -4.459640e-03 1.320719e-02 9.148440e-03 1.674372e-02 1.334099e-02 1.820702e-03 3.068780e-03 -9.906802e-03 -1.079807e-02 5.830806e-03 -1.187394e-02 2.748180e-03 -3.574789e-03
<VARIANCE> 39
 2.142549e+01 3.232939e+01 3.891905e+01 2.823136e+01 4.476841e+01 3.644364e+01 3.379683e+01 4.758361e+01 3.118086e+01 2.880999e+01 2.724748e+01 2.666268e+01 6.890403e+01 1.468557e-01 2.452661e-01 3.169428e-01 3.627889e-01 4.939979e-01 4.284002e-01 4.735745e-01 4.898607e-01 4.289432e-01 4.138808e-01 4.181946e-01 4.095212e-01 2.437771e-01 1.649941e-02 3.022420e-02 3.119762e-02 4.237029e-02 6.836239e-02 5.143565e-02 6.226642e-02 5.889263e-02 5.537787e-02 5.535299e-02 5.564694e-02 5.447792e-02 2.500915e-02
<GCONST> 6.345012e+01
<TRANSP> 5
 0.000000e+00 1.000000e+00 0.000000e+00 0.000000e+00 0.000000e+00
 0.000000e+00 5.938179e-01 4.061820e-01 0.000000e+00 0.000000e+00
 0.000000e+00 0.000000e+00 6.592578e-01 3.407423e-01 0.000000e+00
 0.000000e+00 0.000000e+00 0.000000e+00 8.287400e-01 1.712600e-01
 0.000000e+00 0.000000e+00 0.000000e+00 0.000000e+00 0.000000e+00
<ENDHMM>
~h "i"
<BEGINHMM>
<NUMSTATES> 5
<STATE> 2
<MEAN> 39
 -4.610596e-01 -8.854019e-01 1.309652e+01 -3.166013e+00 -1.110562e+01 -1.843997e+00 -4.737414e+00 -5.408287e+00 -9.108282e+00 -1.485766e+00 1.641277e+00 -4.287614e+00 8.925601e+00 2.341612e-01 4.565213e-02 4.888288e-01 -1.775516e-02 -6.553970e-01 -1.670937e-01 -2.174047e-01 -1.454524e-01 -4.691848e-01 -2.172625e-02 1.815954e-01 -3.081744e-01 2.107704e-01 1.154893e-02 7.738005e-02 -4.230494e-01 1.564008e-01 4.108487e-01 -4.973052e-02 1.785030e-01 8.419481e-02 3.150173e-01 3.716283e-02 -1.193367e-01 1.596514e-01 -3.133508e-01
<VARIANCE> 39
 1.532420e+01 2.187033e+01 5.047837e+01 2.805007e+01 4.357298e+01 5.124359e+01 4.185886e+01 5.755694e+01 3.913690e+01 3.447650e+01 3.977563e+01 2.824827e+01 4.199264e+01 6.438559e-01 7.092605e-01 1.855568e+00 9.635192e-01 1.870114e+00 1.185173e+00 1.517390e+00 1.494089e+00 1.439440e+00 9.040733e-01 1.187624e+00 9.486029e-01 1.800295e+00 9.231708e-02 1.060681e-01 1.983540e-01 1.182390e-01 2.325836e-01 1.690588e-01 1.889123e-01 2.402417e-01 1.816007e-01 1.257580e-01 1.706661e-01 1.216690e-01 1.711212e-01
<GCONST> 9.646996e+01
<STATE> 3
<MEAN> 39
 1.042906e+00 -3.047983e-01 1.069083e+01 -1.098792e+00 -9.830839e+00 -4.789917e+00 -2.718123e+00 -4.947161e+00 -7.905932e+00 -1.342899e+00 1.310997e+00 -3.130799e+00 7.276551e+00 1.590512e-01 2.820158e-01 -9.871827e-01 5.671046e-01 8.493248e-01 -3.100301e-01 4.078360e-01 2.812942e-01 6.844043e-01 -6.459091e-03 -2.440278e-01 3.459927e-01 -8.154899e-01 -1.348479e-01 2.313584e-02 -2.786294e-01 1.568852e-02 3.413335e-01 5.893141e-02 6.044892e-02 6.839794e-02 2.534556e-01 2.375718e-03 -7.387338e-02 1.227752e-01 -1.212152e-01
<VARIANCE> 39
 1.280563e+01 2.214999e+01 3.973249e+01 2.839480e+01 4.461983e+01 4.399594e+01 3.874417e+01 5.750925e+01 4.084088e+01 3.401134e+01 3.833924e+01 2.716542e+01 3.929045e+01 7.518216e-01 1.007640e+00 1.432721e+00 9.313233e-01 1.563235e+00 1.089053e+00 1.520974e+00 2.206766e+00 1.152560e+00 8.664947e-01 1.321266e+00 9.354517e-01 1.723618e+00 7.802952e-02 8.331046e-02 1.305706e-01 7.878407e-02 1.738982e-01 1.270155e-01 1.348854e-01 1.940979e-01 1.162947e-01 1.039946e-01 1.380298e-01 9.385118e-02 9.695423e-02
<GCONST> 9.184592e+01
<STATE> 4
<MEAN> 39
 1.026385e+00 2.047812e+00 6.740222e+00 1.638411e+00 -5.337091e+00 -4.260600e+00 -1.806955e+00 -4.133619e+00 -4.620529e+00 -9.834906e-01 8.025625e-01 -1.435714e+00 1.778623e-01 -2.308358e-01 1.314178e-01 -1.095710e+00 2.361455e-01 1.001648e+00 -9.342454e-02 2.091838e-01 2.751813e-01 8.174045e-01 9.801427e-02 -1.206498e-01 4.884060e-01 -7.042460e-01 -1.472908e-01 -1.208956e-01 1.661552e-02 -1.660254e-01 2.567243e-02 4.904865e-02 -3.630669e-02 4.845974e-03 6.559470e-03 -1.083969e-03 9.599652e-04 6.964401e-03 3.073429e-01
<VARIANCE> 39
 1.551162e+01 2.388118e+01 3.792463e+01 2.534589e+01 4.139304e+01 3.610941e+01 3.335456e+01 3.954976e+01 3.094946e+01 2.819444e+01 3.143562e+01 2.780550e+01 5.711080e+01 8.428220e-01 8.634312e-01 1.352259e+00 8.555388e-01 1.254694e+00 1.060106e+00 1.191904e+00 1.637092e+00 9.793955e-01 7.608440e-01 1.193748e+00 8.085105e-01 1.577124e+00 7.501478e-02 8.067643e-02 1.381529e-01 8.878832e-02 1.501834e-01 1.125742e-01 1.071260e-01 1.272758e-01 1.035989e-01 8.612122e-02 1.063582e-01 8.131853e-02 2.189362e-01
<GCONST> 8.857983e+01
<TRANSP> 5
 0.000000e+00 1.000000e+00 0.000000e+00 0.000000e+00 0.000000e+00
 0.000000e+00 7.255372e-01 2.744628e-01 0.000000e+00 0.000000e+00
 0.000000e+00 0.000000e+00 2.978876e-01 7.021124e-01 0.000000e+00
 0.000000e+00 0.000000e+00 0.000000e+00 5.656404e-01 4.343595e-01
 0.000000e+00 0.000000e+00 0.000000e+00 0.000000e+00 0.000000e+00
<ENDHMM>
~h "j"
<BEGINHMM>
<NUMSTATES> 5
<STATE> 2
<MEAN> 39
 1.470751e+00 4.361577e+00 2.302809e+00 2.239695e+00 1.815983e+00 -3.500412e+00 1.409927e-01 -2.867535e+00 -1.385612e+00 -2.899628e+00 -3.619497e+00 -1.963618e+00 1.460532e-01 -1.202993e+00 5.854974e-01 8.116313e-02 -4.647081e-01 1.004832e+00 -4.326179e-01 7.217514e-01 3.848244e-02 1.835184e-01 4.328188e-02 2.134755e-01 5.495564e-01 3.263782e-01 -1.260782e-01 -2.901690e-01 1.039950e-01 -2.745362e-01 -3.154880e-01 -1.108621e-01 -1.658842e-01 1.129699e-01 -4.571615e-02 1.451206e-02 1.222325e-01 9.367970e-02 5.032624e-01
<VARIANCE> 39
 2.666201e+01 2.996079e+01 4.607893e+01 2.990710e+01 4.165323e+01 4.291272e+01 3.609465e+01 3.842334e+01 3.527628e+01 2.626133e+01 3.166532e+01 2.862356e+01 3.351372e+01 1.068000e+00 1.048938e+00 1.329142e+00 9.311568e-01 1.337558e+00 1.309524e+00 1.130629e+00 1.264661e+00 9.053962e-01 7.087221e-01 8.278270e-01 1.022599e+00 1.609349e+00 1.881060e-01 1.326384e-01 1.598466e-01 1.063880e-01 2.108250e-01 1.632129e-01 1.879195e-01 1.628824e-01 1.341659e-01 9.246457e-02 9.848860e-02 1.203629e-01 1.149125e-01
<GCONST> 9.296604e+01
<STATE> 3
<MEAN> 39
 -6.974689e+00 4.813546e+00 5.017847e+00 -2.848441e+00 3.402257e+00 -8.439149e+00 1.483149e+00 -2.720120e+00 -2.223854e+00 -3.060660e+00 -1.186079e+00 2.914120e+00 7.933990e+00 9.679034e-02 -1.209287e+00 2.371659e-01 -6.828966e-01 -1.176038e+00 -4.973047e-01 -8.225816e-01 8.073072e-01 2.720435e-01 1.587899e-02 2.514348e-01 3.409629e-01 1.610782e+00 5.619934e-01 -3.662606e-01 -1.971486e-01 1.007046e-01 -3.908966e-01 2.973686e-01 -3.261981e-01 1.270635e-01 1.036826e-01 4.450177e-02 -1.315288e-01 -3.474963e-01 -5.474247e-02
<VARIANCE> 39
 2.911776e+01 2.812216e+01 4.191263e+01 2.822759e+01 4.866391e+01 4.606233e+01 3.815229e+01 3.327794e+01 3.065802e+01 2.206146e+01 2.613730e+01 2.439955e+01 2.495039e+01 1.314420e+00 1.022583e+00 1.635928e+00 1.008411e+00 1.335850e+00 1.241738e+00 1.425299e+00 1.984158e+00 1.723895e+00 7.530608e-01 8.139898e-01 9.358066e-01 1.303335e+00 1.020015e-01 1.279871e-01 1.740203e-01 1.122167e-01 2.094601e-01 1.538415e-01 1.665580e-01 1.656630e-01 1.262871e-01 1.162780e-01 1.114853e-01 1.280761e-01 1.226444e-01
<GCONST> 9.324149e+01
<STATE> 4
<MEAN> 39
 9.122066e-01 -5.216129e+00 2.707205e+00 -4.685825e+00 -6.838655e+00 -7.361121e+00 -6.423078e+00 4.700506e+00 2.260410e+00 -2.725714e+00 -2.333081e+00 7.232242e-01 1.393915e+01 1.081628e+00 -1.527599e+00 -1.138112e+00 -4.838570e-01 -6.003229e-01 9.435129e-01 -7.926223e-01 7.749981e-01 7.512690e-01 3.125577e-01 -3.397606e-01 -1.166468e+00 7.294492e-01 -6.637841e-02 3.227701e-01 -1.448672e-01 1.191622e-01 5.261878e-01 2.699807e-01 3.003182e-01 -3.730622e-01 -1.773141e-01 4.686008e-02 -2.356748e-02 -1.885153e-01 -4.327759e-01
<VARIANCE> 39
 1.241828e+01 1.988686e+01 3.790746e+01 1.911709e+01 3.098188e+01 3.197309e+01 4.597615e+01 4.307991e+01 4.186319e+01 2.470134e+01 2.582612e+01 2.430488e+01 3.589817e+01 6.701627e-01 1.006828e+00 1.662719e+00 8.470534e-01 1.804244e+00 1.229413e+00 1.648918e+00 1.818071e+00 1.341850e+00 9.710873e-01 1.151237e+00 1.062991e+00 8.796763e-01 1.058632e-01 1.133458e-01 1.507857e-01 1.066481e-01 1.583553e-01 1.360900e-01 1.644844e-01 1.661549e-01 1.488877e-01 9.654022e-02 1.218991e-01 1.408397e-01 9.408440e-02
<GCONST> 9.074691e+01
<TRANSP> 5
 0.000000e+00 1.000000e+00 0.000000e+00 0.000000e+00 0.000000e+00
 0.000000e+00 7.373745e-01 2.626255e-01 0.000000e+00 0.000000e+00
 0.000000e+00 0.000000e+00 7.062175e-01 2.937825e-01 0.000000e+00
 0.000000e+00 0.000000e+00 0.000000e+00 6.325061e-01 3.674939e-01
 0.000000e+00 0.000000e+00 0.000000e+00 0.000000e+00 0.000000e+00
<ENDHMM>
~h "k"
<BEGINHMM>
<NUMSTATES> 5
<STATE> 2
<MEAN> 39
 -9.839985e-01 -1.089785e+00 -2.875816e+00 -1.542861e+00 4.095112e-01 -3.408329e+00 -8.448299e-01 -5.190173e-01 5.927862e-01 2.080732e+00 1.526010e-01 1.541343e+00 -2.157015e+00 -5.482846e-01 -5.627131e-01 9.678917e-02 -5.435752e-01 4.842310e-01 -1.107103e-01 -6.950745e-02 7.705114e-02 7.908855e-02 2.545195e-01 -3.362435e-01 1.283591e-01 9.494808e-01 9.401417e-02 -4.575597e-02 3.262670e-01 -1.642556e-01 -2.382887e-01 1.029014e-01 -1.460741e-01 -7.765645e-02 -1.927653e-01 -9.150263e-02 -4.371861e-02 -2.638237e-01 4.748535e-01
<VARIANCE> 39
 2.482861e+01 3.829174e+01 5.101266e+01 3.224416e+01 5.502991e+01 4.835095e+01 3.323168e+01 4.206600e+01 3.388828e+01 2.929830e+01 3.586250e+01 3.132817e+01 3.689774e+01 8.909166e-01 1.017309e+00 2.162169e+00 1.002027e+00 1.656098e+00 1.277130e+00 1.088487e+00 1.339523e+00 1.303108e+00 9.332721e-01 1.080299e+00 1.103785e+00 1.910660e+00 1.270973e-01 1.379731e-01 1.653860e-01 1.172180e-01 2.316343e-01 1.775624e-01 1.288523e-01 1.561249e-01 1.499765e-01 1.239220e-01 1.667861e-01 1.283261e-01 1.589085e-01
<GCONST> 9.666905e+01
<STATE> 3
<MEAN> 39
 -2.307626e+00 -3.986509e+00 1.281836e+00 -5.412747e+00 1.093502e+00 -2.647033e+00 -3.036959e+00 -1.416493e+00 -1.394756e+00 2.701381e+00 -1.997727e+00 -7.414041e-01 6.482578e+00 2.665474e-01 -4.795982e-01 1.004105e+00 -6.962563e-01 -1.188589e+00 2.036126e-01 -6.579027e-01 1.168372e-02 -5.064560e-01 -3.416199e-01 3.227010e-02 -1.105802e+00 1.986243e+00 2.133629e-01 1.077855e-01 -3.150418e-02 1.366994e-01 -3.594099e-01 4.268403e-02 7.572420e-03 1.291764e-02 -1.898420e-02 -1.807021e-01 1.405530e-01 -1.210572e-01 -1.141901e-01
<VARIANCE> 39
 3.234829e+01 4.039122e+01 8.672680e+01 3.080428e+01 8.290088e+01 4.179408e+01 4.857637e+01 4.394916e+01 4.451015e+01 3.130252e+01 3.533110e+01 4.007893e+01 4.019831e+01 1.036818e+00 1.171396e+00 2.471504e+00 9.838926e-01 1.879907e+00 1.962729e+00 1.371719e+00 1.945227e+00 2.118627e+00 1.048466e+00 1.708159e+00 1.305689e+00 1.679147e+00 8.669114e-02 1.014910e-01 1.807489e-01 1.104595e-01 2.450189e-01 1.723917e-01 1.696952e-01 1.609961e-01 1.486105e-01 1.233440e-01 1.435869e-01 1.387923e-01 1.576010e-01
<GCONST> 1.010627e+02
<STATE> 4
<MEAN> 39
 -8.141777e-02 -3.710041e+00 2.602595e+00 -5.813592e+00 -3.683914e+00 -2.014196e+00 -4.025481e+00 -8.223378e-01 -2.405465e+00 8.973899e-01 -1.315326e+00 -3.559436e+00 8.481268e+00 3.673046e-01 -4.867414e-02 5.219723e-01 -2.490322e-01 -9.907202e-01 1.668829e-01 -2.381853e-01 -1.035416e-01 -3.353500e-01 -4.319367e-01 6.371797e-02 -6.791626e-01 1.009661e+00 5.698534e-02 1.110786e-01 -1.232483e-01 1.892138e-01 2.850379e-02 -1.280994e-02 9.791945e-02 -4.329151e-02 4.478624e-02 -3.296784e-02 4.566545e-02 1.173882e-01 -2.756329e-01
<VARIANCE> 39
 2.857482e+01 4.271355e+01 8.825705e+01 3.287411e+01 7.273965e+01 4.724049e+01 4.752495e+01 5.550346e+01 5.623060e+01 2.977105e+01 4.013535e+01 4.296897e+01 6.876913e+01 1.138629e+00 1.132046e+00 2.048405e+00 1.098356e+00 2.064909e+00 1.899298e+00 1.390419e+00 1.798668e+00 1.747941e+00 1.164413e+00 1.449706e+00 1.401468e+00 2.149446e+00 1.010268e-01 1.273773e-01 1.828118e-01 1.188878e-01 2.794377e-01 1.595367e-01 1.668036e-01 1.696248e-01 1.570812e-01 1.200354e-01 1.564687e-01 1.674813e-01 2.636642e-01
<GCONST> 1.036130e+02
<TRANSP> 5
 0.000000e+00 1.000000e+00 0.000000e+00 0.000000e+00 0.000000e+00
 0.000000e+00 7.498399e-01 2.501601e-01 0.000000e+00 0.000000e+00
 0.000000e+00 0.000000e+00 4.280180e-01 5.719820e-01 0.000000e+00
 0.000000e+00 0.000000e+00 0.000000e+00 2.669200e-01 7.330800e-01
 0.000000e+00 0.000000e+00 0.000000e+00 0.000000e+00 0.000000e+00
<ENDHMM>
~h "l"
<BEGINHMM>
<NUMSTATES> 5
<STATE> 2
<MEAN> 39
 2.679407e+00 -1.401102e+00 8.505989e+00 -3.941105e+00 -6.059850e-01 -3.421907e+00 -1.299449e+01 -4.847540e+00 -1.274710e+00 -4.334152e+00 -4.138679e+00 -2.443613e+00 7.443617e+00 1.262916e-01 5.932883e-02 3.910315e-01 -1.909076e-01 2.617827e-01 1.051206e-01 -8.346987e-01 -1.818402e-01 9.263274e-02 3.305217e-03 -1.762055e-01 -1.104173e-01 6.571252e-03 -3.957924e-02 -1.812159e-01 -3.763814e-01 -4.558679e-02 -2.450511e-01 2.541478e-02 4.773628e-01 2.654481e-01 1.447852e-02 1.701042e-01 1.419798e-01 -4.607406e-02 1.908057e-01
<VARIANCE> 39
 1.186395e+01 1.978731e+01 4.673117e+01 3.730772e+01 4.437876e+01 5.308580e+01 7.445278e+01 5.389321e+01 5.012527e+01 6.624391e+01 4.126818e+01 4.595604e+01 3.611031e+01 3.403165e-01 8.395879e-01 1.863487e+00 8.902473e-01 1.356077e+00 1.225101e+00 2.501419e+00 1.974638e+00 1.394242e+00 1.192960e+00 1.168897e+00 9.764522e-01 1.251450e+00 4.183017e-02 9.798393e-02 1.682215e-01 1.118962e-01 1.824805e-01 1.849223e-01 3.424725e-01 2.364210e-01 1.770630e-01 2.062429e-01 1.776606e-01 1.435147e-01 9.097943e-02
<GCONST> 9.737844e+01
<STATE> 3
<MEAN> 39
 2.710070e+00 -3.723180e+00 5.773820e+00 -5.097557e+00 -3.505720e+00 -3.754291e+00 -1.160186e+01 -2.303488e+00 -3.718216e-01 -2.499104e+00 -2.947056e+00 -3.570837e+00 1.014113e+01 7.319405e-03 -3.699980e-01 -7.429238e-01 4.686783e-02 -4.110636e-01 1.886147e-02 8.744408e-01 5.278605e-01 6.058970e-02 4.175988e-01 2.094035e-01 -1.914245e-01 2.600117e-01 -1.547259e-02 1.607345e-03 -1.641970e-01 6.299728e-02 -9.211103e-03 6.180100e-02 3.121774e-01 2.463715e-02 -7.181565e-02 1.860622e-02 7.153848e-02 -8.087561e-03 -3.979670e-02
<VARIANCE> 39
 1.076937e+01 2.519131e+01 5.350904e+01 3.167684e+01 5.015756e+01 4.417505e+01 7.332359e+01 7.484247e+01 4.840713e+01 4.946168e+01 3.996593e+01 3.939954e+01 5.331956e+01 4.018248e-01 1.051575e+00 1.992740e+00 9.891878e-01 1.579605e+00 1.185309e+00 2.231364e+00 2.393095e+00 1.453443e+00 1.515494e+00 1.328877e+00 1.015543e+00 1.354085e+00 3.961363e-02 9.978192e-02 1.800566e-01 9.865247e-02 1.752313e-01 1.394686e-01 2.838879e-01 2.656398e-01 1.472154e-01 1.519980e-01 1.554335e-01 1.101496e-01 1.217194e-01
<GCONST> 9.782693e+01
<STATE> 4
<MEAN> 39
 3.621696e+00 -1.915648e+00 3.765603e+00 -2.418622e+00 -2.623556e+00 -3.740404e+00 -8.474438e+00 -4.334985e+00 -1.194965e+00 -4.313279e-01 -3.182623e+00 -2.793615e+00 5.249033e+00 -7.471505e-02 -1.974818e-02 -7.272455e-01 1.956211e-01 -7.549246e-02 8.871543e-02 1.003367e+00 3.730165e-01 7.095284e-02 2.313935e-01 3.071835e-01 -3.250322e-02 -2.805244e-01 -4.823771e-02 -3.483389e-02 -7.587845e-02 -7.321371e-02 6.982086e-03 -4.510771e-03 9.937304e-02 8.834159e-02 -7.921834e-03 -2.736135e-02 6.573926e-02 3.804271e-02 6.636045e-02
<VARIANCE> 39
 1.112131e+01 2.279489e+01 4.973138e+01 3.044791e+01 3.711791e+01 4.352325e+01 4.964798e+01 5.594038e+01 3.934223e+01 3.069546e+01 3.466171e+01 3.201102e+01 5.276075e+01 4.213943e-01 8.928506e-01 1.423347e+00 9.245850e-01 1.208480e+00 1.156993e+00 1.573308e+00 1.816694e+00 1.176074e+00 1.091003e+00 1.175499e+00 9.118977e-01 1.336772e+00 3.399736e-02 6.975549e-02 1.000819e-01 8.979181e-02 9.810726e-02 1.239368e-01 1.648805e-01 1.702952e-01 1.108134e-01 9.376012e-02 1.199103e-01 8.441914e-02 8.109658e-02
<GCONST> 8.880656e+01
<TRANSP> 5
 0.000000e+00 1.000000e+00 0.000000e+00 0.000000e+00 0.000000e+00
 0.000000e+00 6.961723e-01 3.038277e-01 0.000000e+00 0.000000e+00
 0.000000e+00 0.000000e+00 3.442844e-01 6.557156e-01 0.000000e+00
 0.000000e+00 0.000000e+00 0.000000e+00 5.681503e-01 4.318497e-01
 0.000000e+00 0.000000e+00 0.000000e+00 0.000000e+00 0.000000e+00
<ENDHMM>
~h "m"
<BEGINHMM>
<NUMSTATES> 5
<STATE> 2
<MEAN> 39
 5.122443e+00 2.258215e-01 2.956297e+00 2.611555e+00 -1.224248e+00 -8.061516e-01 -4.041576e+00 -7.762683e+00 -5.952528e+00 -1.743993e+00 -8.270780e-01 -5.373749e+00 3.488920e+00 2.904816e-01 2.449452e-01 6.189095e-01 6.189697e-01 -4.571150e-03 9.040850e-02 -1.813392e-01 -9.193937e-01 -8.224282e-01 -5.880520e-02 1.530837e-01 -2.476366e-01 -1.953281e-01 -1.122134e-01 -1.698401e-01 -6.325702e-02 -2.579811e-01 -6.513485e-02 -2.009981e-02 1.181002e-02 2.840892e-01 1.452357e-01 -2.890147e-02 1.424406e-03 7.734530e-02 2.409285e-01
<VARIANCE> 39
 9.400219e+00 2.130827e+01 3.337542e+01 2.325510e+01 2.798109e+01 3.659073e+01 3.396289e+01 3.482762e+01 3.408971e+01 2.497850e+01 3.566475e+01 2.559875e+01 3.003382e+01 4.199011e-01 5.057732e-01 1.178354e+00 7.414548e-01 1.206621e+00 1.072018e+00 9.446573e-01 1.010823e+00 1.060155e+00 7.789499e-01 1.159067e+00 8.312147e-01 9.731132e-01 4.725714e-02 5.005091e-02 1.331138e-01 7.292411e-02 1.022009e-01 8.363578e-02 9.890649e-02 1.225891e-01 1.325981e-01 8.176143e-02 1.085314e-01 9.074864e-02 4.567840e-02
<GCONST> 8.078806e+01
<STATE> 3
<MEAN> 39
 5.504460e+00 -1.167672e+00 5.361671e+00 3.467350e+00 -1.286845e+00 5.576519e-01 -5.356501e+00 -9.359717e+00 -9.101038e+00 -2.788779e+00 1.028658e+00 -5.617351e+00 5.106810e+00 -7.799610e-03 -5.738571e-01 -3.527786e-01 -7.394938e-01 -1.097932e-01 1.252388e-01 -6.649808e-02 6.637435e-01 2.828819e-01 -1.763246e-01 3.506926e-04 5.987328e-02 8.558181e-01 -1.095688e-01 -1.887471e-01 -2.620982e-01 -3.914200e-01 -9.189686e-02 -3.377791e-04 8.481550e-02 5.494627e-01 4.059152e-01 1.689224e-02 -1.039605e-01 7.941820e-02 2.544964e-01
<VARIANCE> 39
 7.457476e+00 1.875337e+01 3.169816e+01 2.150076e+01 2.609402e+01 4.355038e+01 3.452798e+01 3.259167e+01 3.683055e+01 2.934624e+01 4.244503e+01 3.024517e+01 2.272105e+01 3.040889e-01 5.920342e-01 1.422464e+00 9.302824e-01 1.077563e+00 9.362571e-01 9.129347e-01 1.301897e+00 1.320661e+00 8.159292e-01 1.038227e+00 7.128384e-01 8.397560e-01 4.701382e-02 6.256246e-02 2.074510e-01 9.677750e-02 1.179653e-01 1.174966e-01 1.503684e-01 1.402598e-01 1.976950e-01 1.426842e-01 1.973222e-01 1.307717e-01 6.188468e-02
<GCONST> 8.493346e+01
<STATE> 4
<MEAN> 39
 4.671813e+00 -2.218997e+00 1.715566e+00 -1.057915e+00 -2.007048e+00 -1.227116e+00 -4.126621e+00 -4.172312e+00 -3.941087e+00 -2.900096e+00 -9.775962e-01 -4.949210e+00 7.296627e+00 -2.357905e-01 -6.196696e-01 -2.065477e-01 -1.054240e+00 -5.796002e-01 1.740902e-01 3.963999e-01 1.278533e+00 4.522256e-01 -2.148022e-01 -6.733335e-02 1.525311e-01 8.506486e-01 -4.220568e-02 2.511333e-02 7.464238e-02 -2.760492e-02 -5.496173e-02 2.505981e-02 7.334168e-02 1.902600e-02 -4.174834e-02 4.484238e-02 1.012874e-02 6.376892e-03 -4.225527e-02
<VARIANCE> 39
 9.981346e+00 3.011737e+01 4.028158e+01 2.782630e+01 3.128365e+01 4.110404e+01 3.509625e+01 4.820576e+01 3.170669e+01 2.860638e+01 3.446906e+01 2.473224e+01 2.955837e+01 3.354463e-01 7.139444e-01 1.847875e+00 8.780531e-01 1.426667e+00 9.075855e-01 1.222156e+00 1.507518e+00 1.219705e+00 1.118126e+00 1.067305e+00 8.179567e-01 6.272248e-01 2.999882e-02 5.835180e-02 9.379681e-02 7.284488e-02 9.882049e-02 9.252416e-02 8.952866e-02 1.152694e-01 1.019742e-01 8.529357e-02 9.741319e-02 7.214569e-02 3.935232e-02
<GCONST> 8.203449e+01
<TRANSP> 5
 0.000000e+00 1.000000e+00 0.000000e+00 0.000000e+00 0.000000e+00
 0.000000e+00 6.208200e-01 3.791800e-01 0.000000e+00 0.000000e+00
 0.000000e+00 0.000000e+00 6.010225e-01 3.989775e-01 0.000000e+00
 0.000000e+00 0.000000e+00 0.000000e+00 6.031739e-01 3.968261e-01
 0.000000e+00 0.000000e+00 0.000000e+00 0.000000e+00 0.000000e+00
<ENDHMM>
~h "n"
<BEGINHMM>
<NUMSTATES> 5
<STATE> 2
<MEAN> 39
 5.019981e+00 -1.844474e+00 3.484906e+00 1.790596e+00 -4.460730e+00 -1.812712e+00 -4.288047e+00 -3.740833e+00 -1.647110e+00 -1.942579e+00 -5.132674e+00 -3.879639e+00 4.273705e+00 3.128863e-01 6.211042e-01 6.545163e-01 1.021103e+00 -3.747440e-01 -1.218809e-01 1.572383e-02 -1.225635e+00 -1.183554e-01 2.447841e-01 -5.705824e-01 6.704513e-02 -8.259298e-01 -8.446708e-02 -5.002039e-02 -1.319028e-01 -1.748282e-01 8.169572e-02 4.735202e-02 6.311338e-02 1.115791e-01 2.787170e-03 1.950219e-03 8.392072e-02 2.152877e-02 1.342511e-01
<VARIANCE> 39
 1.087174e+01 2.573329e+01 3.674123e+01 3.003055e+01 3.582082e+01 3.163235e+01 3.971400e+01 6.476897e+01 3.302317e+01 3.239511e+01 3.491113e+01 2.679456e+01 4.208186e+01 3.382845e-01 6.368028e-01 1.474379e+00 7.612966e-01 1.252308e+00 8.647854e-01 9.222730e-01 1.652577e+00 9.380242e-01 9.955441e-01 9.625493e-01 6.855738e-01 8.439656e-01 3.569482e-02 6.011479e-02 1.039104e-01 8.017573e-02 9.845993e-02 7.908911e-02 9.435508e-02 1.591820e-01 8.870987e-02 9.183453e-02 9.179356e-02 7.585818e-02 5.953998e-02
<GCONST> 8.260201e+01
<STATE> 3
<MEAN> 39
 5.857509e+00 -5.346352e-01 5.116212e+00 4.715246e+00 -6.629593e+00 -2.274323e+00 -3.433882e+00 -7.726577e+00 -2.210795e+00 -1.463054e+00 -6.736066e+00 -3.937740e+00 3.159697e+00 -9.214462e-02 1.177814e-01 4.092780e-02 -1.737458e-02 1.706944e-01 -7.603022e-02 2.526990e-02 3.189109e-03 -1.918205e-01 2.334870e-02 1.738064e-02 4.054391e-02 -6.859078e-02 -2.209697e-01 -2.348958e-01 -1.818780e-01 -5.082419e-01 1.937330e-01 5.731924e-02 -1.015462e-02 5.519230e-01 -2.014169e-02 -8.119452e-02 3.289934e-01 4.545650e-03 3.531411e-01
<VARIANCE> 39
 9.974797e+00 1.874931e+01 3.019247e+01 2.391539e+01 2.981758e+01 2.644180e+01 3.126119e+01 4.491358e+01 2.996858e+01 2.960551e+01 3.451927e+01 2.450274e+01 2.760541e+01 3.154965e-01 7.871011e-01 1.044612e+00 9.619626e-01 1.109092e+00 8.372724e-01 8.696241e-01 1.940569e+00 9.046493e-01 6.497046e-01 9.743742e-01 6.146247e-01 1.001159e+00 5.908280e-02 8.042913e-02 1.774084e-01 1.156726e-01 1.626251e-01 1.338977e-01 1.260580e-01 1.974931e-01 1.181053e-01 1.299783e-01 1.470416e-01 9.903923e-02 8.195770e-02
<GCONST> 8.460928e+01
<STATE> 4
<MEAN> 39
 4.253199e+00 5.172858e-01 2.653542e+00 2.001797e+00 -3.260525e+00 -2.440323e+00 -3.360904e+00 -4.098889e+00 -2.228852e+00 -1.010447e+00 -4.653224e+00 -2.958783e+00 1.257295e+00 -3.793721e-01 -1.742055e-01 -2.224485e-01 -5.734075e-01 3.612716e-01 9.463107e-02 1.350157e-01 6.255845e-01 -8.766960e-02 -7.323005e-02 5.725924e-01 9.075263e-02 1.798232e-01 -8.167525e-02 -1.053039e-01 -1.562572e-02 -1.517973e-01 -1.405148e-02 3.823434e-02 5.103820e-02 8.514132e-02 8.437958e-03 -3.688318e-04 8.732902e-02 4.890366e-03 1.590441e-01
<VARIANCE> 39
 1.198005e+01 2.373208e+01 3.549285e+01 2.409308e+01 3.231643e+01 3.309855e+01 3.326251e+01 4.416986e+01 3.614974e+01 2.912765e+01 3.554842e+01 2.693605e+01 3.654028e+01 3.996604e-01 7.015319e-01 1.214209e+00 9.236969e-01 1.132540e+00 8.533123e-01 8.078303e-01 1.464531e+00 9.609705e-01 7.997035e-01 1.004315e+00 6.672632e-01 9.248374e-01 4.448375e-02 6.440002e-02 8.712942e-02 7.039294e-02 9.784544e-02 1.009781e-01 8.996766e-02 1.203517e-01 9.444766e-02 8.929575e-02 9.909283e-02 7.658800e-02 7.306777e-02
<GCONST> 8.163849e+01
<TRANSP> 5
 0.000000e+00 1.000000e+00 0.000000e+00 0.000000e+00 0.000000e+00
 0.000000e+00 5.176162e-01 4.823838e-01 0.000000e+00 0.000000e+00
 0.000000e+00 0.000000e+00 5.433081e-01 4.566919e-01 0.000000e+00
 0.000000e+00 0.000000e+00 0.000000e+00 6.280152e-01 3.719848e-01
 0.000000e+00 0.000000e+00 0.000000e+00 0.000000e+00 0.000000e+00
<ENDHMM>
~h "o"
<BEGINHMM>
<NUMSTATES> 5
<STATE> 2
<MEAN> 39
 3.172476e+00 6.632234e-01 -2.751400e+00 -4.668466e+00 2.896121e+00 1.373850e+00 -2.856468e+00 -3.526691e+00 -1.450268e+00 1.372220e+00 6.511406e-01 -8.134094e-02 7.032677e+00 9.959604e-01 -5.225360e-02 -7.945957e-01 -1.489621e+00 -7.109153e-01 1.041973e+00 -5.841853e-01 -7.003388e-01 -6.425134e-01 2.149688e-02 6.384205e-01 9.431737e-02 9.978881e-01 6.231032e-03 9.235787e-02 9.151690e-02 -5.242726e-02 -2.159301e-01 1.092279e-01 9.735431e-03 -1.660396e-02 -1.098309e-01 -1.236956e-01 5.215226e-02 8.090687e-03 -1.669234e-01
<VARIANCE> 39
 2.126938e+01 2.591413e+01 3.926727e+01 4.683895e+01 4.768226e+01 4.910766e+01 6.477966e+01 3.637629e+01 4.232912e+01 3.269550e+01 2.668769e+01 2.845283e+01 6.626210e+01 8.621224e-01 9.579843e-01 1.458858e+00 1.430828e+00 1.795922e+00 1.686040e+00 1.723819e+00 1.331078e+00 1.322096e+00 1.160829e+00 1.185219e+00 1.006227e+00 1.872902e+00 1.143654e-01 1.169266e-01 1.363152e-01 1.801267e-01 1.962493e-01 1.671595e-01 1.947701e-01 1.560063e-01 1.530605e-01 1.373406e-01 1.056184e-01 1.062070e-01 2.192541e-01
<GCONST> 9.800124e+01
<STATE> 3
<MEAN> 39
 6.561058e+00 3.812499e-01 -4.754107e+00 -1.340404e+01 -4.116588e+00 8.005626e+00 -8.012126e+00 -6.924695e+00 -5.436278e+00 -5.048623e-01 5.789879e+00 -7.598365e-01 1.157602e+01 3.785994e-01 2.862409e-02 -4.573239e-02 -5.258844e-01 -4.885006e-01 3.926225e-01 -3.741393e-01 -1.859550e-01 -3.280202e-01 -2.493897e-01 1.382068e-01 -9.378079e-02 -2.974465e-02 -2.043947e-01 3.675689e-02 1.740695e-01 4.664529e-01 2.952965e-01 -3.759037e-01 2.277306e-01 1.916470e-01 1.814050e-01 -2.523058e-02 -3.025550e-01 2.621984e-02 -3.363870e-01
<VARIANCE> 39
 1.219817e+01 2.116115e+01 2.184625e+01 3.764491e+01 2.966378e+01 5.221975e+01 4.971228e+01 3.409985e+01 3.440963e+01 4.418295e+01 3.666288e+01 3.825028e+01 3.317091e+01 5.129079e-01 6.790308e-01 9.389181e-01 2.174808e+00 1.698413e+00 1.952272e+00 1.962649e+00 1.174940e+00 1.483978e+00 1.479504e+00 1.292994e+00 1.081497e+00 1.368249e+00 7.081320e-02 9.051785e-02 1.061411e-01 1.461429e-01 1.589635e-01 1.725559e-01 2.387713e-01 1.677834e-01 1.455979e-01 2.044781e-01 1.496830e-01 1.473143e-01 1.259048e-01
<GCONST> 9.449633e+01
<STATE> 4
<MEAN> 39
 6.933861e+00 2.197396e+00 -4.221159e+00 -1.064102e+01 -1.693166e+00 4.373682e+00 -4.924055e+00 -5.343943e+00 -5.015075e+00 -1.472225e+00 1.498026e+00 8.520690e-01 4.678182e+00 -2.788132e-01 2.632472e-01 2.102148e-01 1.018160e+00 4.765217e-01 -7.061421e-01 2.505351e-01 1.298618e-01 2.956401e-01 4.027174e-02 -3.025078e-01 -2.070583e-02 -9.148942e-01 -1.151935e-01 -2.026766e-02 2.497229e-02 1.244668e-01 6.164317e-02 -6.880847e-02 2.800820e-02 5.299686e-03 7.045309e-02 6.199079e-02 3.968135e-02 -6.797913e-03 6.867262e-04
<VARIANCE> 39
 1.084891e+01 2.311956e+01 2.494902e+01 5.974335e+01 3.370403e+01 5.752565e+01 4.496494e+01 3.427644e+01 3.763958e+01 3.901506e+01 2.979806e+01 3.316972e+01 4.299262e+01 4.014671e-01 6.976586e-01 6.706852e-01 1.441899e+00 9.526573e-01 1.325914e+00 1.003241e+00 8.641269e-01 8.404035e-01 9.739815e-01 9.174221e-01 7.368648e-01 1.226690e+00 3.819000e-02 7.491125e-02 6.904119e-02 1.610952e-01 1.126420e-01 1.275003e-01 1.412940e-01 1.110569e-01 1.160979e-01 1.446455e-01 1.038856e-01 1.039077e-01 1.264919e-01
<GCONST> 8.632903e+01
<TRANSP> 5
 0.000000e+00 1.000000e+00 0.000000e+00 0.000000e+00 0.000000e+00
 0.000000e+00 6.424074e-01 3.575926e-01 0.000000e+00 0.000000e+00
 0.000000e+00 0.000000e+00 7.605855e-01 2.394145e-01 0.000000e+00
 0.000000e+00 0.000000e+00 0.000000e+00 8.105670e-01 1.894331e-01
 0.000000e+00 0.000000e+00 0.000000e+00 0.000000e+00 0.000000e+00
<ENDHMM>
~h "p"
<BEGINHMM>
<NUMSTATES> 5
<STATE> 2
<MEAN> 39
 -4.396718e-01 4.694897e-01 -3.110564e+00 -5.501008e-01 1.135249e+00 -1.560258e+00 6.784527e-01 -5.177835e-01 2.240798e+00 2.115758e+00 1.948784e+00 4.256525e-01 -1.169321e+00 1.201936e-01 -6.598211e-01 -2.309188e-01 -5.003502e-01 1.379865e-01 3.319830e-01 5.162078e-02 -9.173186e-02 2.250424e-02 -1.249695e-02 -1.058432e-01 -2.872184e-01 1.611120e+00 1.654917e-01 -2.042601e-01 -1.908686e-02 -1.551094e-01 -1.097038e-01 9.991104e-02 -1.558681e-01 -2.045622e-03 -7.803897e-02 -7.911556e-02 -1.221554e-01 -1.844016e-01 4.178241e-01
<VARIANCE> 39
 2.025946e+01 2.562168e+01 3.227873e+01 2.393517e+01 3.810582e+01 3.708645e+01 3.068889e+01 2.860909e+01 2.742549e+01 2.295225e+01 2.488238e+01 2.793500e+01 6.388797e+01 8.593592e-01 8.920642e-01 1.131263e+00 1.082662e+00 1.251910e+00 1.676930e+00 1.042877e+00 1.067961e+00 1.111497e+00 8.897873e-01 7.911187e-01 1.114813e+00 3.752399e+00 8.523340e-02 8.296610e-02 1.281421e-01 1.038675e-01 1.505570e-01 1.656880e-01 1.258810e-01 1.267714e-01 1.196379e-01 9.690528e-02 9.412515e-02 1.132900e-01 2.782513e-01
<GCONST> 9.035110e+01
<STATE> 3
<MEAN> 39
 4.101138e+00 -6.189023e+00 -7.555376e+00 -7.784459e+00 2.022238e-01 5.000854e+00 -1.437603e+00 -2.782278e+00 7.062013e-01 1.804473e+00 5.106940e-01 -5.588739e+00 1.331453e+01 5.587460e-01 -1.205465e+00 -5.054929e-01 -5.811497e-01 -3.013971e-01 3.491082e-01 -8.067049e-01 1.678032e-01 6.606002e-02 -3.523894e-01 -5.644395e-01 -9.024898e-01 1.849476e+00 -8.538210e-02 1.530259e-01 1.721058e-01 3.024811e-01 -6.489733e-02 -3.391886e-01 -8.447223e-02 1.653135e-01 5.217540e-02 -1.141523e-01 -6.930042e-02 1.717495e-01 -5.396565e-01
<VARIANCE> 39
 2.035663e+01 2.511962e+01 3.713248e+01 4.067707e+01 3.596292e+01 6.152365e+01 3.788244e+01 3.334968e+01 3.587053e+01 3.260760e+01 3.155812e+01 3.729860e+01 8.050449e+01 8.370039e-01 8.633835e-01 1.186600e+00 1.457425e+00 1.539679e+00 2.369128e+00 1.263566e+00 1.628620e+00 1.360634e+00 1.211586e+00 1.078035e+00 1.167413e+00 2.488326e+00 8.072130e-02 1.027614e-01 1.354144e-01 1.431803e-01 1.565986e-01 1.903960e-01 1.437115e-01 1.463030e-01 1.537444e-01 1.216025e-01 1.107833e-01 1.619190e-01 2.889488e-01
<GCONST> 9.712986e+01
<STATE> 4
<MEAN> 39
 3.400195e+00 -8.391675e+00 -8.352863e+00 -6.824129e+00 2.513705e+00 3.973129e+00 -3.618229e+00 -6.395976e-01 1.168269e+00 -8.640158e-01 -2.832923e+00 -6.570383e+00 1.188806e+01 7.491115e-02 -1.540970e-01 3.153588e-01 3.288961e-01 -3.641583e-01 -7.878876e-01 -2.630613e-01 4.340114e-01 9.853878e-02 -2.321489e-01 -5.005523e-01 5.821437e-02 6.444822e-02 -4.144192e-02 1.998197e-01 1.650770e-01 1.188241e-01 -5.783907e-02 -1.180889e-01 1.084002e-01 -3.081228e-03 -5.325653e-02 -3.416250e-03 2.148879e-02 1.661973e-01 -1.923671e-01
<VARIANCE> 39
 1.849390e+01 2.968893e+01 3.408808e+01 3.240965e+01 4.326111e+01 6.645039e+01 3.859464e+01 5.325965e+01 4.476792e+01 4.322759e+01 3.638017e+01 3.466789e+01 9.539415e+01 5.684105e-01 8.574321e-01 7.425066e-01 9.432517e-01 1.029997e+00 1.351966e+00 1.126755e+00 1.187871e+00 9.611387e-01 7.152333e-01 1.039436e+00 8.737555e-01 2.060580e+00 8.409025e-02 1.062126e-01 1.144905e-01 1.261798e-01 1.363179e-01 1.648073e-01 1.368542e-01 1.497498e-01 1.206215e-01 9.860502e-02 1.347910e-01 1.423115e-01 3.862984e-01
<GCONST> 9.367484e+01
<TRANSP> 5
 0.000000e+00 1.000000e+00 0.000000e+00 0.000000e+00 0.000000e+00
 0.000000e+00 7.488822e-01 2.511178e-01 0.000000e+00 0.000000e+00
 0.000000e+00 0.000000e+00 5.524578e-01 4.475421e-01 0.000000e+00
 0.000000e+00 0.000000e+00 0.000000e+00 6.289645e-01 3.710355e-01
 0.000000e+00 0.000000e+00 0.000000e+00 0.000000e+00 0.000000e+00
<ENDHMM>
~h "r"
<BEGINHMM>
<NUMSTATES> 5
<STATE> 2
<MEAN> 39
 4.432774e+00 -7.013101e+00 -1.221177e+00 -8.231454e-01 -5.595579e+00 -4.252351e+00 -6.298263e+00 1.266575e+00 4.152913e+00 -1.257628e+00 -3.882321e+00 -2.210234e+00 1.031759e+01 3.309403e-01 2.698133e-02 6.270009e-01 7.845212e-01 -4.057534e-01 -2.667741e-01 -5.589659e-01 -5.104228e-02 -3.188184e-01 -1.658660e-01 2.188648e-01 4.438515e-01 -6.436784e-01 -4.309114e-02 1.665210e-01 -2.188799e-02 -1.527632e-01 1.461070e-01 2.017389e-01 1.155938e-01 -1.128565e-01 -2.205227e-01 8.060674e-02 1.469654e-01 -7.844865e-02 -1.208877e-01
<VARIANCE> 39
 1.547371e+01 2.786061e+01 3.232574e+01 3.031422e+01 4.553958e+01 4.208556e+01 5.927168e+01 5.377443e+01 3.821963e+01 3.111035e+01 3.182766e+01 2.959933e+01 5.135537e+01 5.402520e-01 8.483346e-01 1.160576e+00 1.164935e+00 1.559732e+00 1.290685e+00 1.409153e+00 1.757238e+00 1.197746e+00 9.656587e-01 1.095822e+00 1.212765e+00 1.387977e+00 5.250058e-02 8.209927e-02 9.491524e-02 1.295879e-01 1.637784e-01 1.421075e-01 1.781354e-01 1.723690e-01 1.371754e-01 1.242158e-01 1.202270e-01 1.240850e-01 1.116744e-01
<GCONST> 9.245131e+01
<STATE> 3
<MEAN> 39
 5.423727e+00 -6.591464e+00 1.409336e+00 1.065174e+00 -6.140052e+00 -4.015285e+00 -8.333668e+00 5.262212e-01 8.093739e-01 -1.512775e+00 -2.189574e+00 -1.025606e+00 8.091780e+00 1.063759e-01 6.200534e-01 2.385745e-01 2.843696e-01 3.424000e-01 1.063698e-01 9.379166e-02 -3.366600e-01 -5.451019e-01 1.245258e-01 2.927754e-01 8.344796e-02 -1.006268e+00 -1.308467e-01 1.330950e-01 -2.121372e-01 -2.668842e-01 1.872573e-01 1.256181e-01 2.586422e-01 -1.944129e-02 3.789501e-02 8.266246e-02 -2.070936e-02 -1.804528e-01 1.020894e-02
<VARIANCE> 39
 1.524399e+01 2.406048e+01 4.250984e+01 3.086079e+01 5.625128e+01 4.542264e+01 5.231933e+01 5.303391e+01 4.833942e+01 3.502384e+01 3.538290e+01 3.246990e+01 3.409735e+01 4.750127e-01 8.039744e-01 1.138130e+00 9.001002e-01 1.446123e+00 1.038967e+00 1.272687e+00 1.506395e+00 1.367980e+00 9.775795e-01 8.989935e-01 8.653278e-01 1.244901e+00 4.921362e-02 7.725628e-02 1.141840e-01 1.418507e-01 1.798633e-01 1.430524e-01 1.533097e-01 1.842684e-01 1.706727e-01 1.373011e-01 1.357352e-01 1.399469e-01 9.604368e-02
<GCONST> 9.194149e+01
<STATE> 4
<MEAN> 39
 4.065697e+00 -1.794848e+00 -2.298831e+00 1.164761e-01 -1.324364e+00 -2.718843e+00 -4.276402e+00 3.190784e-01 3.108342e+00 1.017691e+00 -1.560606e+00 -2.061236e+00 1.470530e-01 -1.803397e-01 4.152550e-01 -2.159480e-01 -7.842668e-02 2.952200e-01 2.015703e-01 3.775135e-01 -5.022221e-02 -7.326481e-02 1.517756e-01 1.483112e-01 -6.679223e-02 -6.192521e-01 -6.062229e-02 -8.176663e-02 -1.684119e-02 -9.939498e-02 -4.199948e-02 2.553383e-02 4.527543e-02 4.124962e-02 -1.018919e-02 -2.177299e-02 -5.168400e-03 -9.805699e-03 1.729173e-01
<VARIANCE> 39
 1.451122e+01 2.452031e+01 3.734465e+01 2.372106e+01 3.507933e+01 3.899237e+01 3.623130e+01 3.979638e+01 3.774376e+01 3.093034e+01 2.995113e+01 3.130129e+01 5.024690e+01 3.846181e-01 6.753450e-01 8.949623e-01 6.847867e-01 9.546112e-01 8.138014e-01 8.296352e-01 1.084876e+00 1.001417e+00 6.905146e-01 6.715167e-01 7.110253e-01 9.612209e-01 4.514678e-02 6.551227e-02 8.384525e-02 8.721037e-02 1.124200e-01 9.548640e-02 1.038171e-01 1.242350e-01 1.030576e-01 9.806198e-02 8.631796e-02 9.734435e-02 8.231095e-02
<GCONST> 8.181477e+01
<TRANSP> 5
 0.000000e+00 1.000000e+00 0.000000e+00 0.000000e+00 0.000000e+00
 0.000000e+00 4.155010e-01 5.844991e-01 0.000000e+00 0.000000e+00
 0.000000e+00 0.000000e+00 4.645756e-01 5.354244e-01 0.000000e+00
 0.000000e+00 0.000000e+00 0.000000e+00 7.168245e-01 2.831755e-01
 0.000000e+00 0.000000e+00 0.000000e+00 0.000000e+00 0.000000e+00
<ENDHMM>
~h "s"
<BEGINHMM>
<NUMSTATES> 5
<STATE> 2
<MEAN> 39
 -8.621145e+00 5.399084e+00 -2.486020e+00 -7.723153e-01 5.481417e+00 -6.923161e+00 4.968971e+00 -7.176696e-01 1.794410e+00 -5.351516e-01 -7.306790e-02 2.122223e+00 6.103265e+00 -1.774224e+00 1.051449e+00 -6.134740e-01 9.046265e-02 7.472594e-01 -4.195624e-01 1.025973e+00 2.704151e-02 5.134591e-01 1.358676e-01 5.043026e-01 6.378514e-01 -6.512035e-02 2.045030e-01 -2.292919e-01 3.258862e-04 -6.540454e-02 -2.239940e-01 1.317029e-01 -1.994853e-01 -1.039995e-03 -7.127690e-02 5.688464e-03 -1.650964e-02 -1.145981e-01 1.438916e-02
<VARIANCE> 39
 4.902649e+01 3.966098e+01 5.200056e+01 3.729544e+01 4.620719e+01 4.147279e+01 4.668113e+01 4.084954e+01 3.606162e+01 2.902926e+01 3.629857e+01 2.960735e+01 4.848146e+01 1.184184e+00 1.357595e+00 1.283880e+00 9.469600e-01 1.394686e+00 1.260726e+00 1.352219e+00 1.190614e+00 1.025311e+00 8.120012e-01 9.829749e-01 8.287260e-01 1.058291e+00 2.215653e-01 1.582886e-01 1.459682e-01 1.116321e-01 1.424085e-01 1.259321e-01 1.548114e-01 1.253984e-01 1.102705e-01 9.484833e-02 1.225706e-01 9.703254e-02 7.884698e-02
<GCONST> 9.416260e+01
<STATE> 3
<MEAN> 39
 -1.311974e+01 5.987212e+00 -4.261323e+00 -4.415739e-01 6.066186e+00 -7.155037e+00 7.322527e+00 -5.506272e-01 3.193663e+00 -2.582985e-01 1.586635e+00 3.920908e+00 6.149111e+00 1.364991e+00 -9.743763e-01 3.967760e-01 -1.747831e-01 -5.967106e-01 3.185196e-01 -7.589018e-01 8.869142e-02 -1.483722e-01 -7.152030e-02 -3.679002e-01 -4.391387e-01 2.181941e-01 5.348247e-01 -2.685431e-01 1.519857e-01 -1.079645e-01 -2.471866e-01 1.099362e-01 -3.584466e-01 -2.775451e-02 -1.330677e-01 -1.184603e-02 -1.343607e-01 -2.449744e-01 1.152310e-01
<VARIANCE> 39
 3.098619e+01 3.362844e+01 4.753900e+01 3.815094e+01 3.730378e+01 3.931811e+01 3.936174e+01 3.552332e+01 3.019750e+01 2.404978e+01 2.985196e+01 2.451428e+01 2.735132e+01 1.800129e+00 9.773490e-01 1.452590e+00 8.378220e-01 1.313350e+00 1.140590e+00 1.412582e+00 9.992563e-01 9.310446e-01 6.566938e-01 9.171079e-01 8.380977e-01 1.013444e+00 1.812600e-01 1.294863e-01 1.486270e-01 9.724959e-02 1.504148e-01 1.467515e-01 1.575427e-01 1.329972e-01 1.064470e-01 9.740506e-02 1.249641e-01 9.355066e-02 6.180388e-02
<GCONST> 9.045408e+01
<STATE> 4
<MEAN> 39
 3.808624e-01 -2.109638e+00 1.513532e-01 -3.551337e+00 -1.758650e+00 -5.602080e+00 -2.684635e+00 2.180240e-01 1.641748e-01 -7.392963e-01 -1.999648e+00 -1.692905e+00 1.056346e+01 1.797588e+00 -1.291610e+00 3.109001e-01 -6.440526e-01 -1.309524e+00 5.583977e-01 -1.629274e+00 -7.710894e-02 -4.923081e-01 3.437577e-02 -2.480693e-01 -1.065892e+00 5.611090e-01 -3.692981e-01 2.629649e-01 -1.545726e-01 5.753647e-02 2.113510e-01 4.667823e-02 2.440803e-01 -1.497147e-01 -7.389488e-04 -1.973773e-02 1.237840e-01 1.165288e-01 -1.660282e-01
<VARIANCE> 39
 2.027510e+01 2.845375e+01 5.727621e+01 2.816620e+01 8.091305e+01 4.582033e+01 5.538369e+01 3.620459e+01 5.215822e+01 2.813449e+01 4.044821e+01 2.795708e+01 5.612136e+01 1.288342e+00 1.379652e+00 2.008741e+00 1.115314e+00 2.069006e+00 2.013270e+00 1.796985e+00 1.761947e+00 1.342512e+00 1.123872e+00 1.540665e+00 1.252335e+00 1.086921e+00 9.701169e-02 1.114760e-01 1.348290e-01 1.178066e-01 2.320603e-01 1.312673e-01 2.076106e-01 1.386753e-01 1.513981e-01 9.401085e-02 1.463430e-01 1.121163e-01 1.342022e-01
<GCONST> 9.862614e+01
<TRANSP> 5
 0.000000e+00 1.000000e+00 0.000000e+00 0.000000e+00 0.000000e+00
 0.000000e+00 8.177039e-01 1.822961e-01 0.000000e+00 0.000000e+00
 0.000000e+00 0.000000e+00 7.965114e-01 2.034886e-01 0.000000e+00
 0.000000e+00 0.000000e+00 0.000000e+00 6.147020e-01 3.852980e-01
 0.000000e+00 0.000000e+00 0.000000e+00 0.000000e+00 0.000000e+00
<ENDHMM>
~h "t"
<BEGINHMM>
<NUMSTATES> 5
<STATE> 2
<MEAN> 39
 1.174018e+00 2.465503e-01 -4.018964e+00 -1.532187e-01 -1.262226e+00 -2.728534e+00 -1.271709e+00 -1.942487e-01 2.615791e+00 2.325087e+00 1.320286e+00 -3.685878e-01 -4.954347e+00 -6.538271e-01 -2.632458e-01 1.621431e-01 -2.445032e-01 2.378939e-01 -1.250496e-01 6.177432e-01 5.997899e-03 3.006240e-02 -1.174639e-01 2.045574e-01 4.655637e-01 4.929880e-01 -2.389204e-02 -6.416643e-02 3.013452e-01 -8.292808e-02 -7.998588e-03 -5.463816e-02 -2.683915e-02 -6.439925e-02 -1.339136e-01 -1.307426e-01 -6.769572e-02 -5.432267e-02 5.751634e-01
<VARIANCE> 39
 1.661974e+01 2.832056e+01 4.185582e+01 2.460355e+01 3.249004e+01 3.673999e+01 2.949603e+01 4.044876e+01 3.797407e+01 2.558200e+01 3.039914e+01 3.041805e+01 2.239654e+01 5.890077e-01 7.707683e-01 1.205402e+00 6.662871e-01 8.676388e-01 8.213141e-01 9.642021e-01 8.564450e-01 8.315105e-01 7.312625e-01 7.230386e-01 7.309247e-01 1.916231e+00 9.608871e-02 1.133881e-01 1.548858e-01 8.974741e-02 1.575167e-01 1.408136e-01 1.591704e-01 1.509555e-01 1.323340e-01 1.090171e-01 1.217219e-01 1.243667e-01 1.791207e-01
<GCONST> 8.724948e+01
<STATE> 3
<MEAN> 39
 -3.744460e+00 -1.183749e+00 1.031442e+00 -1.576838e+00 -1.357139e-01 -4.513941e+00 2.795626e+00 -1.687546e+00 -4.306637e-02 4.841625e-01 2.527622e+00 2.763430e+00 1.388386e+00 -2.395442e-01 -2.242228e-01 8.892380e-01 -3.180957e-01 -9.455919e-02 -1.396400e-01 1.342182e-01 -1.607503e-01 -3.240918e-01 -4.075765e-01 -1.587487e-01 -1.033402e-01 1.760494e+00 2.684548e-01 5.669155e-03 1.023666e-01 -5.139408e-02 -2.411176e-01 1.332273e-01 -3.662073e-01 -2.008098e-02 -1.004729e-01 -1.070565e-02 -1.229419e-01 -3.167590e-01 1.465926e-01
<VARIANCE> 39
 2.274511e+01 3.164137e+01 6.030922e+01 3.003808e+01 5.219133e+01 4.380514e+01 4.608564e+01 3.926134e+01 4.937281e+01 2.813850e+01 3.257062e+01 3.430196e+01 5.631807e+01 6.971256e-01 1.030952e+00 2.733986e+00 1.029235e+00 1.696392e+00 1.414020e+00 1.481929e+00 1.730730e+00 1.888742e+00 1.027419e+00 1.184616e+00 1.199907e+00 2.292426e+00 8.593580e-02 1.062390e-01 2.530738e-01 9.800884e-02 1.866241e-01 1.643855e-01 2.193074e-01 1.639095e-01 1.755381e-01 1.174458e-01 1.521023e-01 1.502805e-01 1.879993e-01
<GCONST> 9.911052e+01
<STATE> 4
<MEAN> 39
 -3.599129e+00 -1.982984e+00 1.082267e+00 -1.374217e+00 1.963084e+00 -5.151171e+00 4.420987e+00 -8.160995e-01 1.726303e+00 -1.456896e+00 9.483743e-01 2.579377e+00 6.278491e+00 3.815590e-01 -3.823684e-01 1.013700e+00 -5.962473e-01 -6.380036e-01 1.372559e-01 -8.215010e-01 -1.526350e-01 -5.311968e-01 -3.250033e-01 -3.830812e-01 -8.218964e-01 2.051195e+00 2.744435e-01 4.868723e-02 -4.008068e-02 -3.199396e-02 -2.731175e-01 1.839954e-01 -3.924842e-01 -2.498507e-02 -1.241909e-01 1.140622e-01 -5.453584e-02 -2.594685e-01 -2.116763e-01
<VARIANCE> 39
 2.393614e+01 2.684876e+01 3.363955e+01 2.184994e+01 4.202380e+01 3.673560e+01 5.393725e+01 2.972429e+01 3.215271e+01 2.508846e+01 3.137775e+01 2.603500e+01 3.687409e+01 8.070350e-01 1.102560e+00 3.050383e+00 1.120001e+00 1.749434e+00 1.909340e+00 1.725831e+00 2.442057e+00 2.256540e+00 1.216050e+00 1.507968e+00 1.317791e+00 2.045891e+00 5.953342e-02 9.607841e-02 1.222100e-01 7.748967e-02 1.280978e-01 1.250391e-01 1.630862e-01 1.122913e-01 1.059002e-01 9.016962e-02 1.102561e-01 9.284402e-02 1.299898e-01
<GCONST> 9.340783e+01
<TRANSP> 5
 0.000000e+00 1.000000e+00 0.000000e+00 0.000000e+00 0.000000e+00
 0.000000e+00 7.227649e-01 2.772351e-01 0.000000e+00 0.000000e+00
 0.000000e+00 0.000000e+00 3.594345e-01 6.405656e-01 0.000000e+00
 0.000000e+00 0.000000e+00 0.000000e+00 4.533724e-01 5.466275e-01
 0.000000e+00 0.000000e+00 0.000000e+00 0.000000e+00 0.000000e+00
<ENDHMM>
~h "u"
<BEGINHMM>
<NUMSTATES> 5
<STATE> 2
<MEAN> 39
 3.785830e+00 5.620140e-01 -3.738020e+00 -3.219980e+00 -1.118592e+00 2.180011e-01 -3.974742e+00 -3.003129e+00 -1.908134e+00 9.173830e-01 7.611513e-01 1.159452e-01 8.279055e-01 4.049578e-01 3.091041e-01 -2.465188e-01 -5.877334e-01 -3.943773e-02 6.043050e-01 -2.935983e-02 -4.068899e-01 -6.352577e-01 -1.842446e-01 2.433631e-01 9.814149e-02 1.124233e-01 -2.494055e-02 -2.208051e-02 1.077454e-01 -2.424802e-02 7.942067e-03 2.320055e-02 -4.403493e-02 -9.309980e-04 -4.502178e-02 -6.030752e-02 -2.280713e-03 -5.229585e-02 1.396541e-01
<VARIANCE> 39
 2.101233e+01 2.584639e+01 3.009335e+01 3.753429e+01 4.727923e+01 4.546812e+01 5.471311e+01 4.325750e+01 4.844683e+01 3.836181e+01 3.308238e+01 3.485336e+01 6.589388e+01 7.403543e-01 6.216556e-01 8.656598e-01 1.101188e+00 1.157629e+00 1.298396e+00 1.484201e+00 1.193976e+00 1.329965e+00 1.056402e+00 1.004376e+00 8.692225e-01 1.015216e+00 7.240891e-02 6.706696e-02 8.830598e-02 1.511583e-01 1.351504e-01 1.364220e-01 1.789997e-01 1.494724e-01 1.665870e-01 1.611312e-01 1.357167e-01 1.012748e-01 1.352453e-01
<GCONST> 9.242348e+01
<STATE> 3
<MEAN> 39
 1.386950e+00 3.244756e+00 -2.811651e+00 -3.860438e+00 7.888883e-01 1.022990e+00 -1.519359e+00 -3.093873e+00 -3.808032e+00 -1.228363e+00 8.253429e-01 8.877825e-01 2.683813e+00 3.986588e-01 -1.300218e-02 7.083169e-02 -6.616965e-01 -1.788269e-01 4.508081e-01 -5.982687e-01 -5.225545e-01 -6.023017e-01 -1.069318e-01 2.943979e-01 -2.327385e-01 9.268559e-01 -6.027515e-02 -1.056403e-01 1.091032e-01 1.357334e-01 1.563489e-02 -1.083532e-01 -1.007934e-01 2.031248e-02 1.303393e-01 9.159144e-02 2.441555e-02 -6.236622e-02 3.390899e-02
<VARIANCE> 39
 7.409161e+01 3.665016e+01 4.071655e+01 5.986086e+01 6.371636e+01 6.829318e+01 6.097873e+01 4.316446e+01 5.145573e+01 3.517268e+01 3.306421e+01 3.496731e+01 7.591770e+01 1.812636e+00 1.023344e+00 1.159680e+00 2.143943e+00 1.723168e+00 2.117233e+00 2.184642e+00 1.404375e+00 1.667790e+00 1.114910e+00 1.215481e+00 1.179191e+00 2.316221e+00 1.721452e-01 1.161947e-01 1.379141e-01 2.466434e-01 2.169672e-01 1.997083e-01 2.426106e-01 1.618973e-01 2.089030e-01 1.599365e-01 1.510663e-01 1.275192e-01 2.029742e-01
<GCONST> 1.056721e+02
<STATE> 4
<MEAN> 39
 6.507298e+00 -2.058135e-01 -1.862076e+00 -6.301291e+00 -1.586720e+00 3.842234e+00 -9.225914e+00 -6.423237e+00 -5.829425e+00 2.670904e-01 3.564002e+00 -2.397684e+00 7.808096e+00 -3.439599e-01 -1.410639e-01 5.290148e-01 7.175105e-01 3.405192e-01 -7.042096e-01 -1.180773e-01 2.001071e-01 6.629418e-01 1.161135e-01 -1.828042e-01 -1.367331e-01 1.768782e-03 -2.495951e-01 4.502058e-02 7.076666e-02 2.066974e-01 5.815533e-02 -2.492006e-01 3.351493e-01 2.152838e-01 1.924012e-01 -5.451006e-02 -1.679343e-01 1.385196e-01 -2.210981e-01
<VARIANCE> 39
 1.567656e+01 2.305730e+01 2.902400e+01 5.169801e+01 4.070319e+01 5.770673e+01 5.305622e+01 4.923307e+01 5.946745e+01 4.237184e+01 4.125900e+01 3.968801e+01 3.810160e+01 9.591280e-01 9.230696e-01 1.022352e+00 1.504395e+00 1.837703e+00 1.732327e+00 2.381468e+00 1.846171e+00 1.750087e+00 1.338215e+00 1.410869e+00 1.154596e+00 2.063846e+00 1.047183e-01 1.025314e-01 1.303563e-01 2.410216e-01 1.901500e-01 2.310405e-01 2.612838e-01 2.075178e-01 2.919523e-01 1.880897e-01 1.986096e-01 1.564688e-01 1.997038e-01
<GCONST> 1.023762e+02
<TRANSP> 5
 0.000000e+00 1.000000e+00 0.000000e+00 0.000000e+00 0.000000e+00
 0.000000e+00 5.705571e-01 4.294429e-01 0.000000e+00 0.000000e+00
 0.000000e+00 0.000000e+00 5.875054e-01 4.124946e-01 0.000000e+00
 0.000000e+00 0.000000e+00 0.000000e+00 7.666342e-01 2.333658e-01
 0.000000e+00 0.000000e+00 0.000000e+00 0.000000e+00 0.000000e+00
<ENDHMM>
~h "v"
<BEGINHMM>
<NUMSTATES> 5
<STATE> 2
<MEAN> 39
 3.677001e+00 -9.662067e-01 -5.547128e+00 -8.933743e+00 -5.229336e-01 2.164285e+00 -1.833187e+00 -3.372117e+00 -2.961820e+00 6.432607e-01 1.860637e+00 -1.845207e-01 6.941569e+00 2.620525e-01 7.306024e-01 3.380047e-01 5.975053e-01 7.023156e-01 2.290244e-01 3.856199e-01 2.174457e-02 -1.784784e-02 -5.013267e-01 -3.369823e-01 2.535740e-01 -6.104724e-01 1.674909e-02 1.564949e-02 5.402024e-02 1.044527e-01 1.625514e-02 -7.852969e-02 -5.740662e-02 5.096158e-03 1.847367e-01 -3.629620e-02 -1.204166e-01 -1.839565e-01 -4.934663e-03
<VARIANCE> 39
 1.273328e+01 2.108776e+01 2.672124e+01 5.017499e+01 3.016248e+01 5.571042e+01 2.026565e+01 2.718536e+01 2.737584e+01 3.139021e+01 4.506287e+01 3.789789e+01 6.390695e+01 6.856089e-01 7.110909e-01 8.965750e-01 1.879342e+00 1.160050e+00 1.884712e+00 7.311792e-01 9.080054e-01 1.073905e+00 6.035227e-01 1.679747e+00 1.156854e+00 7.186787e-01 5.732743e-02 7.401137e-02 7.312009e-02 1.393230e-01 1.058020e-01 1.494261e-01 9.165212e-02 1.039437e-01 1.556327e-01 9.583691e-02 1.230108e-01 1.317126e-01 4.594458e-02
<GCONST> 8.638409e+01
<STATE> 3
<MEAN> 39
 6.623964e+00 3.126893e+00 -3.567700e+00 -5.675030e+00 1.587299e+00 3.826240e+00 -2.383084e+00 -4.844991e+00 -1.694077e+00 -1.625180e+00 -1.768259e+00 -1.929890e+00 4.342214e+00 -6.037747e-02 3.008912e-01 4.458455e-01 8.312319e-01 3.809598e-01 -5.603796e-01 4.674431e-01 2.970982e-01 7.457394e-01 -3.073896e-01 -4.544186e-01 -1.261105e-01 -3.759221e-01 -1.704056e-01 -1.904294e-01 -1.119937e-01 -1.594618e-01 -1.434199e-01 -1.305192e-01 3.608700e-02 1.650622e-01 2.408328e-02 6.321806e-02 1.526696e-01 4.071195e-02 2.019631e-01
<VARIANCE> 39
 1.081054e+01 1.996325e+01 3.620343e+01 9.819574e+01 6.424818e+01 2.862365e+01 2.350927e+01 2.236869e+01 2.530310e+01 2.340163e+01 2.486901e+01 1.931422e+01 3.784314e+01 6.841903e-01 5.154266e-01 5.156724e-01 8.976796e-01 1.589416e+00 8.867378e-01 7.591115e-01 7.677428e-01 7.688656e-01 7.323762e-01 1.344594e+00 1.031679e+00 1.069206e+00 4.463958e-02 4.476044e-02 4.828274e-02 1.214700e-01 2.253070e-01 8.993204e-02 6.664837e-02 9.364626e-02 1.010706e-01 7.748363e-02 1.113095e-01 9.903432e-02 4.971825e-02
<GCONST> 8.032348e+01
<STATE> 4
<MEAN> 39
 2.922318e+00 -9.032413e-01 -3.721698e+00 -2.458565e+00 8.559865e-01 -3.976416e+00 2.788736e-01 -1.213966e+00 3.273952e+00 -1.630062e+00 -2.015549e+00 -2.158618e+00 4.802134e+00 -3.733316e-01 -5.033926e-01 2.130893e-01 -6.587674e-02 -6.026112e-01 -6.438214e-01 3.071704e-01 6.084219e-01 1.404241e-01 -3.873306e-01 3.377084e-01 2.082332e-01 2.307590e-01 -9.772388e-03 -3.684219e-02 3.391210e-02 -1.831250e-01 -5.862502e-02 1.751729e-01 -4.835320e-02 -9.037510e-02 -2.681999e-01 -3.236013e-02 7.196123e-02 5.805665e-02 1.578430e-01
<VARIANCE> 39
 7.558460e+00 3.075787e+01 1.955990e+01 4.095778e+01 4.704560e+01 3.415060e+01 2.105870e+01 1.467725e+01 2.330328e+01 3.366341e+01 4.430834e+01 2.698129e+01 6.736577e+01 2.174296e-01 5.922763e-01 5.684819e-01 6.153809e-01 2.292871e+00 9.785118e-01 5.841528e-01 4.120870e-01 1.181243e+00 7.312059e-01 1.113034e+00 6.610888e-01 6.067021e-01 4.161306e-02 1.179906e-01 6.703018e-02 9.080873e-02 1.487617e-01 1.056159e-01 1.107906e-01 4.078354e-02 6.930108e-02 7.539892e-02 1.118417e-01 8.947790e-02 1.037882e-01
<GCONST> 7.812489e+01
<TRANSP> 5
 0.000000e+00 1.000000e+00 0.000000e+00 0.000000e+00 0.000000e+00
 0.000000e+00 6.239435e-01 3.760565e-01 0.000000e+00 0.000000e+00
 0.000000e+00 0.000000e+00 7.276673e-01 2.723327e-01 0.000000e+00
 0.000000e+00 0.000000e+00 0.000000e+00 6.768304e-01 3.231697e-01
 0.000000e+00 0.000000e+00 0.000000e+00 0.000000e+00 0.000000e+00
<ENDHMM>
~h "w"
<BEGINHMM>
<NUMSTATES> 5
<STATE> 2
<MEAN> 39
 2.934870e+00 5.857007e-01 -1.608633e+00 -4.488105e-01 9.090143e-01 -1.568093e-01 -2.269808e+00 -3.064836e+00 -1.236728e+00 -5.654753e-01 -3.611858e-01 -2.066417e+00 2.933494e+00 4.633636e-01 1.631413e-01 -2.387348e-01 -3.778694e-02 3.687816e-01 4.164793e-01 -2.085837e-01 -4.428938e-01 -1.667597e-01 4.419677e-02 2.168757e-01 -1.318423e-01 -1.103688e-01 -3.835478e-02 -1.489044e-01 1.938421e-02 -1.619020e-01 -1.344564e-01 2.950556e-02 1.471141e-02 8.318865e-02 -5.472892e-03 2.754227e-03 3.849821e-02 -1.961948e-02 2.080188e-01
<VARIANCE> 39
 3.693594e+01 3.432736e+01 4.162864e+01 4.609563e+01 3.578640e+01 5.163969e+01 5.024476e+01 3.706443e+01 3.030467e+01 2.980103e+01 3.051716e+01 2.848126e+01 7.086013e+01 1.073356e+00 6.014978e-01 1.389483e+00 1.126351e+00 1.500411e+00 1.439572e+00 1.116281e+00 1.093896e+00 1.195585e+00 9.608594e-01 9.425327e-01 8.649318e-01 1.444380e+00 1.095172e-01 8.523629e-02 1.031093e-01 1.200869e-01 1.630391e-01 1.384691e-01 1.525168e-01 1.333150e-01 1.130961e-01 1.008178e-01 1.012919e-01 9.840108e-02 1.158307e-01
<GCONST> 9.255973e+01
<STATE> 3
<MEAN> 39
 5.931064e+00 -1.483138e-01 -1.699882e+00 -2.001906e+00 1.222107e+00 3.325169e+00 -4.737390e+00 -5.336994e+00 -3.406319e+00 -9.239949e-01 1.948402e+00 -2.525628e+00 4.063095e+00 1.535692e-01 -4.500712e-01 -2.775217e-01 -7.346534e-01 -1.974038e-01 2.066435e-01 -8.485810e-02 6.185861e-02 1.428088e-01 2.070917e-01 2.933283e-01 -1.744224e-01 8.237133e-01 -2.127350e-01 -1.846079e-01 2.794940e-02 -7.610721e-02 -2.031744e-01 -2.120912e-01 1.102002e-01 3.012682e-01 1.691966e-01 3.128447e-02 -1.176922e-01 -4.643659e-02 2.652032e-01
<VARIANCE> 39
 1.575927e+01 2.773164e+01 2.946449e+01 5.453323e+01 2.691040e+01 4.004258e+01 3.901607e+01 2.953873e+01 2.507242e+01 2.956368e+01 3.394208e+01 2.297950e+01 4.089420e+01 7.451778e-01 8.448582e-01 1.197543e+00 1.423648e+00 1.452359e+00 1.695290e+00 1.355636e+00 1.115060e+00 1.207220e+00 1.084521e+00 9.528257e-01 9.759425e-01 1.779380e+00 7.817815e-02 8.766899e-02 9.463971e-02 1.245340e-01 1.703566e-01 1.213011e-01 1.677249e-01 1.489913e-01 1.427015e-01 1.386096e-01 1.551299e-01 1.242861e-01 1.252390e-01
<GCONST> 9.136620e+01
<STATE> 4
<MEAN> 39
 5.823290e+00 -2.616314e+00 -5.344325e+00 -7.173833e+00 4.998981e-01 4.082940e+00 -3.219118e+00 -3.752095e+00 -1.739874e+00 1.173542e+00 1.335285e+00 -3.482218e+00 6.887091e+00 -2.853499e-01 -4.655072e-01 -7.335222e-02 -7.929602e-02 -7.884350e-02 -2.598598e-01 2.123613e-01 5.197244e-01 3.792796e-01 6.668066e-02 -2.571806e-01 -2.304146e-01 4.556638e-01 -9.045710e-02 -3.035009e-02 8.723056e-02 1.030672e-01 -2.053636e-02 -1.275214e-01 4.804125e-02 1.093074e-01 2.215388e-02 -9.597704e-02 -1.213815e-01 1.660010e-02 2.026835e-02
<VARIANCE> 39
 1.390431e+01 2.270625e+01 3.864465e+01 5.376343e+01 3.272945e+01 5.674665e+01 4.103116e+01 3.260861e+01 3.065529e+01 3.076025e+01 3.725239e+01 2.948423e+01 4.392661e+01 4.779395e-01 8.348692e-01 9.575187e-01 1.247630e+00 1.301073e+00 1.281096e+00 1.003362e+00 1.086269e+00 9.771247e-01 8.781663e-01 1.011989e+00 1.021891e+00 1.250337e+00 3.977433e-02 5.759143e-02 6.489316e-02 1.097911e-01 1.130851e-01 9.699903e-02 1.148936e-01 1.024621e-01 8.972474e-02 9.247187e-02 1.145878e-01 8.859078e-02 6.753892e-02
<GCONST> 8.533514e+01
<TRANSP> 5
 0.000000e+00 1.000000e+00 0.000000e+00 0.000000e+00 0.000000e+00
 0.000000e+00 4.669480e-01 5.330520e-01 0.000000e+00 0.000000e+00
 0.000000e+00 0.000000e+00 5.559828e-01 4.440172e-01 0.000000e+00
 0.000000e+00 0.000000e+00 0.000000e+00 6.728120e-01 3.271880e-01
 0.000000e+00 0.000000e+00 0.000000e+00 0.000000e+00 0.000000e+00
<ENDHMM>
~h "y"
<BEGINHMM>
<NUMSTATES> 5
<STATE> 2
<MEAN> 39
 4.135880e-01 -2.458909e+00 4.461097e+00 -1.887461e+00 -6.838323e+00 -4.434596e+00 -4.411501e-01 1.867939e+00 -1.628629e+00 -5.423259e-01 1.092414e+00 -9.336825e-01 5.834857e+00 4.172359e-02 -1.285165e-01 -3.154970e-01 -1.268731e-01 1.149065e-01 -1.363601e-01 1.757080e-01 2.772754e-01 2.832378e-01 -1.125882e-01 -2.402167e-01 -2.411579e-02 1.705485e-01 2.478761e-02 5.029632e-02 -1.666157e-02 -4.056379e-02 1.933598e-01 1.506999e-01 -6.987461e-02 -1.442896e-01 -3.639195e-02 -4.413991e-02 -1.236599e-01 -8.063092e-02 -1.196794e-02
<VARIANCE> 39
 1.852080e+01 3.532135e+01 4.518358e+01 3.558345e+01 7.479269e+01 5.087109e+01 4.637770e+01 5.940814e+01 4.536599e+01 3.115203e+01 3.777941e+01 2.989206e+01 9.828500e+01 6.324517e-01 9.648829e-01 2.806819e+00 7.931862e-01 2.175573e+00 1.024277e+00 1.274871e+00 1.911878e+00 1.792249e+00 1.055512e+00 1.376060e+00 9.741454e-01 1.304982e+00 5.244159e-02 9.218015e-02 1.720816e-01 9.743451e-02 2.666835e-01 1.563233e-01 1.436899e-01 1.763699e-01 1.549753e-01 1.120555e-01 1.477283e-01 1.002540e-01 1.629527e-01
<GCONST> 9.742155e+01
<STATE> 3
<MEAN> 39
 -1.490239e+00 9.469110e-01 7.038344e+00 -8.054893e-01 -3.705408e+00 -1.695240e+00 -2.008089e-01 -3.865709e-01 -2.715503e+00 -9.722034e-01 3.778742e-01 -9.505925e-01 3.550305e+00 2.380663e-01 -1.646827e-01 5.975474e-01 -5.481597e-01 -5.062533e-01 -1.143217e-01 -4.716304e-01 -7.711408e-02 -4.070559e-01 -3.124874e-01 -6.519160e-02 -3.424757e-01 9.973928e-01 6.114448e-02 -5.805341e-02 -1.041424e-01 -4.594364e-02 2.201636e-02 4.004049e-02 -3.578710e-02 -8.368743e-03 5.565495e-03 -8.832689e-03 -8.059248e-03 -1.668253e-02 3.198785e-02
<VARIANCE> 39
 2.848601e+01 5.175466e+01 7.008350e+01 3.679972e+01 8.312990e+01 5.473475e+01 4.910042e+01 6.454892e+01 4.801392e+01 3.141974e+01 3.599368e+01 3.118446e+01 9.824094e+01 8.090863e-01 1.186610e+00 3.788601e+00 1.017918e+00 2.497444e+00 1.286359e+00 1.701071e+00 2.017022e+00 2.038336e+00 1.103483e+00 1.453189e+00 1.054422e+00 1.964181e+00 8.956420e-02 1.124840e-01 2.408856e-01 1.109003e-01 2.904766e-01 1.536863e-01 1.772026e-01 1.987705e-01 1.838870e-01 1.186480e-01 1.544154e-01 1.186686e-01 1.625649e-01
<GCONST> 1.035469e+02
<STATE> 4
<MEAN> 39
 7.657096e-01 -1.548338e+00 4.314144e+00 -2.419623e+00 -5.408898e+00 -3.576658e+00 1.409809e-02 1.183705e+00 -1.800988e+00 -7.420198e-01 -1.471134e-01 -8.842871e-01 4.163111e+00 1.062597e-01 -1.167411e-01 -3.600014e-01 -1.101343e-01 2.558025e-01 1.168752e-01 1.050295e-02 6.698471e-02 1.537764e-01 -9.460292e-02 -1.998631e-01 -1.122944e-01 8.152505e-02 -7.854407e-03 5.162678e-03 -5.929971e-02 1.887201e-02 8.315483e-02 6.292269e-02 9.018018e-03 -4.938665e-02 2.457057e-04 7.679104e-03 -1.756286e-02 -1.114410e-02 -2.253851e-02
<VARIANCE> 39
 1.692665e+01 4.245506e+01 6.556094e+01 3.119308e+01 5.167524e+01 3.894548e+01 4.320557e+01 7.228256e+01 3.891341e+01 2.660108e+01 3.211653e+01 2.818352e+01 7.880432e+01 3.902233e-01 5.786381e-01 1.642766e+00 7.193449e-01 1.631558e+00 8.411976e-01 8.778633e-01 1.089706e+00 1.025644e+00 7.959044e-01 1.046810e+00 6.275925e-01 9.952303e-01 3.043509e-02 5.589488e-02 9.654447e-02 5.522096e-02 1.132079e-01 7.218228e-02 8.556700e-02 1.334219e-01 1.033444e-01 7.628122e-02 8.391892e-02 6.581787e-02 5.025196e-02
<GCONST> 8.404913e+01
<TRANSP> 5
 0.000000e+00 1.000000e+00 0.000000e+00 0.000000e+00 0.000000e+00
 0.000000e+00 2.973775e-01 7.026225e-01 0.000000e+00 0.000000e+00
 0.000000e+00 0.000000e+00 6.054021e-01 3.945979e-01 0.000000e+00
 0.000000e+00 0.000000e+00 0.000000e+00 6.843970e-01 3.156030e-01
 0.000000e+00 0.000000e+00 0.000000e+00 0.000000e+00 0.000000e+00
<ENDHMM>
~h "z"
<BEGINHMM>
<NUMSTATES> 5
<STATE> 2
<MEAN> 39
 -3.850508e+00 3.894402e+00 -4.351395e+00 5.082487e+00 6.328510e+00 7.329609e-01 3.578397e+00 -4.257617e-02 2.544844e+00 -2.425204e+00 -8.455862e-01 9.902934e-01 -2.886334e+00 -3.375226e-01 6.229764e-01 1.880423e-01 8.937374e-02 2.939006e-01 -2.271899e-01 3.891204e-02 -7.556703e-02 -7.107297e-02 -2.054392e-01 -1.969490e-01 5.474262e-02 1.325250e-01 1.542441e-01 -1.197225e-01 1.884207e-01 -3.022977e-01 -2.633475e-01 -2.071131e-01 -2.088801e-01 9.442450e-02 -4.811645e-02 9.413917e-02 -1.485520e-01 -7.782688e-02 3.554601e-01
<VARIANCE> 39
 3.703034e+01 1.330563e+01 2.749813e+01 2.251607e+01 1.561775e+01 3.231496e+01 3.058950e+01 2.338748e+01 1.748999e+01 3.868120e+01 2.982956e+01 3.803742e+01 8.951515e+01 5.669119e-01 7.040561e-01 3.362159e-01 5.204574e-01 4.557892e-01 6.429046e-01 6.439406e-01 3.248107e-01 2.155472e-01 2.274868e-01 7.086511e-01 5.137789e-01 2.701682e-01 7.090621e-02 2.122581e-01 4.426643e-02 1.657427e-01 1.083270e-01 6.053785e-02 1.021051e-01 2.226685e-01 7.873949e-02 9.750191e-02 1.344809e-01 6.363195e-02 1.824251e-01
<GCONST> 7.510580e+01
<STATE> 3
<MEAN> 39
 -5.439039e+00 5.497604e+00 -1.953670e+00 6.342332e+00 7.298755e+00 8.007607e-01 5.226322e+00 1.263737e+00 2.909882e-01 -3.274484e-01 1.135054e+00 3.271561e+00 -7.607194e+00 1.002308e+00 6.333203e-01 8.080977e-01 -1.692698e-01 -7.664711e-01 -8.387666e-01 -6.125908e-01 -6.970925e-01 -5.780206e-01 -4.195338e-01 -7.385833e-01 -6.423388e-01 1.062525e+00 2.101944e-01 6.561513e-02 1.213821e-01 -9.616448e-02 -2.806751e-01 -2.443517e-01 -2.332562e-01 -1.837040e-01 4.879016e-03 -2.624163e-02 -5.736452e-02 -7.971440e-02 2.833619e-01
<VARIANCE> 39
 5.501389e+01 1.583001e+01 3.005164e+01 1.904601e+01 2.008534e+01 2.060381e+01 2.724689e+01 1.765015e+01 1.926750e+01 2.293277e+01 1.982798e+01 1.883871e+01 6.885348e+01 1.361705e+00 6.010576e-01 4.423725e-01 3.735608e-01 7.214281e-01 5.839133e-01 6.852905e-01 1.332855e+00 8.712014e-01 4.563956e-01 4.438725e-01 7.319888e-01 5.464776e-01 1.703958e-01 1.599550e-01 4.652701e-02 7.496355e-02 1.524904e-01 5.399218e-02 1.009940e-01 1.403982e-01 6.135220e-02 4.255420e-02 9.522246e-02 7.453882e-02 1.139852e-01
<GCONST> 7.625288e+01
<STATE> 4
<MEAN> 39
 -1.638030e+00 1.053374e+01 3.625927e+00 3.131907e+00 3.160793e+00 -8.084455e+00 3.885739e-01 -5.267917e+00 -1.822286e+00 -2.470245e+00 -1.674770e+00 1.209475e+00 2.466505e+00 8.155733e-02 -5.616580e-01 4.690239e-01 -8.255461e-01 -6.614329e-01 -9.032791e-01 -5.328990e-01 1.682651e-01 -1.368115e-01 -1.494051e-01 1.494252e-01 -8.462938e-02 1.738275e+00 8.296558e-02 -3.259401e-01 -8.042445e-02 -5.215586e-02 -1.810453e-01 1.775131e-01 -5.630852e-02 2.528002e-01 1.114942e-02 3.905128e-02 6.484257e-02 -4.589152e-02 1.822304e-02
<VARIANCE> 39
 3.896865e+01 4.207632e+01 3.847709e+01 4.925012e+01 5.142036e+01 4.597751e+01 3.658394e+01 3.767824e+01 3.697048e+01 2.083798e+01 1.674750e+01 2.683839e+01 7.626325e+01 2.329822e+00 2.913300e+00 8.407540e-01 9.283766e-01 3.139035e+00 1.158122e+00 1.570883e+00 2.132016e+00 1.052406e+00 3.899247e-01 6.695006e-01 6.903285e-01 1.210281e+00 2.885256e-01 1.570669e-01 1.360810e-01 1.014701e-01 3.962604e-01 1.554811e-01 1.472617e-01 1.613707e-01 1.073200e-01 4.108576e-02 7.598998e-02 1.203102e-01 1.131757e-01
<GCONST> 9.520677e+01
<TRANSP> 5
 0.000000e+00 1.000000e+00 0.000000e+00 0.000000e+00 0.000000e+00
 0.000000e+00 2.989441e-01 7.010559e-01 0.000000e+00 0.000000e+00
 0.000000e+00 0.000000e+00 6.244447e-01 3.755553e-01 0.000000e+00
 0.000000e+00 0.000000e+00 0.000000e+00 8.605546e-01 1.394454e-01
 0.000000e+00 0.000000e+00 0.000000e+00 0.000000e+00 0.000000e+00
<ENDHMM>
~h "aa"
<BEGINHMM>
<NUMSTATES> 5
<STATE> 2
<MEAN> 39
 2.362551e+00 -8.300584e+00 -7.636438e+00 -7.658871e+00 2.630856e+00 3.568846e+00 -9.097394e-01 2.105555e+00 2.807083e+00 -2.349911e+00 -5.430262e+00 -6.864739e+00 1.432910e+01 1.040198e-01 -7.221700e-01 -8.594832e-01 -5.351688e-01 4.833092e-01 7.942355e-01 1.396417e-01 1.310398e-01 2.161331e-03 -3.679775e-01 -4.908115e-01 -7.857326e-01 7.671490e-01 -3.302315e-02 1.805869e-01 2.320807e-01 1.917247e-01 -4.171335e-02 -1.826194e-01 -2.884779e-02 -1.011722e-01 -1.165432e-01 6.115358e-02 1.414957e-01 1.938543e-01 -2.898372e-01
<VARIANCE> 39
 1.753235e+01 2.099080e+01 3.406701e+01 2.632366e+01 4.047203e+01 5.426374e+01 4.126818e+01 4.632864e+01 3.746492e+01 3.924207e+01 3.543559e+01 3.528487e+01 5.282101e+01 5.782849e-01 6.414535e-01 1.026852e+00 8.858953e-01 1.415011e+00 1.272995e+00 1.190005e+00 1.323957e+00 1.094034e+00 1.043988e+00 1.136479e+00 9.302837e-01 1.074925e+00 8.160981e-02 8.333054e-02 1.267881e-01 9.621136e-02 1.483239e-01 1.407427e-01 1.459517e-01 1.599025e-01 1.180734e-01 1.097354e-01 1.322225e-01 1.332912e-01 1.090058e-01
<GCONST> 9.061824e+01
<STATE> 3
<MEAN> 39
 3.462175e+00 -1.041997e+01 -7.586743e+00 -8.443288e+00 2.945556e+00 3.684240e+00 -1.840364e+00 2.928229e+00 1.817826e+00 -2.611705e+00 -5.852555e+00 -8.349930e+00 1.463494e+01 2.451486e-01 3.943790e-01 5.055408e-01 5.095740e-01 -1.779118e-01 -6.437715e-01 -7.574437e-02 3.787365e-02 -1.045193e-01 1.536976e-01 3.335628e-02 3.471698e-01 -7.932056e-01 5.441241e-04 2.397619e-01 1.513586e-01 1.679883e-01 -7.135355e-02 -1.152762e-01 3.426551e-03 -1.033448e-01 1.486928e-03 7.418182e-02 9.018836e-02 1.669866e-01 -2.663979e-01
<VARIANCE> 39
 1.465960e+01 1.905818e+01 3.055497e+01 2.597681e+01 3.523313e+01 6.018150e+01 3.872599e+01 4.328113e+01 3.748760e+01 4.940559e+01 3.777183e+01 3.355794e+01 4.011010e+01 3.789379e-01 7.236167e-01 7.977658e-01 6.638985e-01 1.049115e+00 1.256991e+00 1.001984e+00 1.148361e+00 7.638125e-01 8.143486e-01 8.425818e-01 8.306941e-01 9.508089e-01 5.091908e-02 6.658617e-02 1.014548e-01 7.192084e-02 1.323859e-01 1.563756e-01 1.243606e-01 1.467000e-01 1.008664e-01 1.098758e-01 1.179812e-01 1.004499e-01 7.396779e-02
<GCONST> 8.500578e+01
<STATE> 4
<MEAN> 39
 3.434638e+00 -3.943569e+00 -7.047191e+00 -2.779957e+00 3.228600e+00 1.239331e+00 6.938659e-01 1.656379e+00 2.728597e+00 4.741057e-03 -3.550981e+00 -3.521275e+00 1.258537e+00 -6.686837e-02 4.203758e-01 1.091755e-01 3.439117e-01 -9.242356e-02 -7.840908e-02 3.561271e-02 -9.409773e-02 9.730830e-03 8.019851e-02 1.725364e-01 2.741389e-01 -6.713621e-01 -4.511045e-02 -1.943867e-02 1.441951e-02 -4.216031e-02 -4.129839e-03 2.320574e-02 1.124730e-02 1.523658e-03 -4.183094e-03 -1.090336e-02 4.895832e-03 -9.613854e-03 6.732912e-02
<VARIANCE> 39
 1.225119e+01 2.258827e+01 2.741770e+01 2.568849e+01 3.308747e+01 4.200467e+01 3.484300e+01 3.668094e+01 3.372894e+01 3.402185e+01 2.901974e+01 2.913018e+01 6.124037e+01 2.946109e-01 5.372052e-01 6.173974e-01 5.910414e-01 7.693016e-01 7.420863e-01 7.162480e-01 7.739114e-01 6.343541e-01 6.204672e-01 6.134894e-01 6.608525e-01 7.481691e-01 3.451916e-02 4.557663e-02 5.499662e-02 5.759103e-02 7.987194e-02 7.937787e-02 7.525451e-02 8.825294e-02 7.297585e-02 7.186475e-02 7.216353e-02 7.164770e-02 4.713371e-02
<GCONST> 7.416496e+01
<TRANSP> 5
 0.000000e+00 1.000000e+00 0.000000e+00 0.000000e+00 0.000000e+00
 0.000000e+00 7.030023e-01 2.969977e-01 0.000000e+00 0.000000e+00
 0.000000e+00 0.000000e+00 7.584498e-01 2.415502e-01 0.000000e+00
 0.000000e+00 0.000000e+00 0.000000e+00 8.129104e-01 1.870896e-01
 0.000000e+00 0.000000e+00 0.000000e+00 0.000000e+00 0.000000e+00
<ENDHMM>
~h "ai"
<BEGINHMM>
<NUMSTATES> 5
<STATE> 2
<MEAN> 39
 3.141530e+00 -8.387738e+00 1.879387e+00 -5.037863e+00 -5.021386e+00 -4.404586e+00 3.292004e+00 6.767894e+00 -1.274781e+00 -3.020643e+00 -7.651765e-01 -1.869671e+00 1.120910e+01 -2.244858e-01 8.451945e-01 -5.401770e-02 8.035657e-01 6.333298e-01 -2.742850e-01 2.703693e-02 -3.937078e-01 5.236599e-01 2.302637e-01 3.433593e-01 5.600719e-01 1.388232e-01 -2.766959e-01 3.986031e-01 -1.646355e-01 2.226582e-01 1.985016e-01 1.047446e-01 1.883523e-01 -2.084557e-01 9.706762e-02 6.636714e-02 3.430996e-02 1.506457e-01 -2.976269e-01
<VARIANCE> 39
 3.497415e+00 8.745372e+00 1.746175e+01 3.536365e+01 9.831777e+00 1.150213e+01 4.517954e+01 3.326393e+01 2.219764e+01 2.996794e+01 7.559711e+00 1.594922e+01 1.391643e+01 6.989304e-01 1.694955e+00 9.372566e-01 1.357056e+00 7.472497e-01 4.596977e-01 9.872379e-01 1.552946e+00 4.577944e-01 1.019115e+00 4.687083e-01 7.887396e-01 1.143807e+00 7.250265e-02 7.033468e-02 8.641724e-02 1.172595e-01 1.157095e-01 6.499783e-02 1.299205e-01 1.276258e-01 4.868454e-02 1.638198e-01 6.084449e-02 8.069247e-02 3.085343e-02
<GCONST> 7.315122e+01
<STATE> 3
<MEAN> 39
 -6.364826e+00 7.890722e+00 -5.508351e+00 5.728254e+00 4.188648e+00 -8.915912e-01 9.029456e+00 -1.164187e+00 3.954509e+00 -1.083462e+00 2.616100e+00 3.530364e+00 4.339828e+00 -1.865405e+00 1.760916e+00 -1.182250e+00 3.575457e-01 6.389766e-01 3.806934e-01 7.198414e-01 -3.583652e-01 6.843413e-01 2.660023e-01 6.201230e-01 6.246500e-02 -8.226700e-01 1.802015e-01 -4.725710e-01 2.057989e-01 -3.260480e-01 -2.434429e-01 -1.495836e-01 -1.601509e-01 1.949969e-01 -1.441138e-01 9.804841e-04 -1.321937e-02 -1.922029e-01 1.900178e-01
<VARIANCE> 39
 5.991957e+01 3.228823e+01 4.344622e+01 1.614723e+01 3.593197e+01 5.644059e+01 3.135539e+01 2.697163e+01 1.868606e+01 2.865420e+01 2.449898e+01 1.643609e+01 9.252470e+00 1.271381e+00 1.688789e+00 1.453003e+00 1.388960e+00 1.614740e+00 1.211569e+00 8.469636e-01 8.141906e-01 7.779610e-01 7.656429e-01 6.338201e-01 7.353936e-01 3.919092e-01 2.507729e-01 1.209128e-01 2.523777e-01 1.070795e-01 1.832339e-01 1.201694e-01 9.054497e-02 6.513809e-02 6.193042e-02 1.277871e-01 7.516012e-02 5.444076e-02 4.068767e-02
<GCONST> 8.461115e+01
<STATE> 4
<MEAN> 39
 -7.129481e+00 4.153789e+00 1.539055e-01 3.425454e-01 -1.181651e+00 -5.633582e+00 2.137924e+00 1.085594e+00 -1.632299e+00 -1.078212e+00 4.969263e+00 4.516119e-01 7.155723e+00 8.632336e-01 -1.194895e+00 1.053106e+00 -9.871069e-02 -1.012473e+00 -4.076869e-01 -8.610002e-01 2.633496e-01 -8.344315e-01 -2.050492e-01 1.038296e+00 -9.136958e-01 4.591925e-02 1.437450e-01 4.597063e-02 2.716975e-03 1.605865e-02 1.946188e-01 -4.842388e-02 1.742791e-01 -8.355269e-02 5.545525e-02 9.722336e-03 -1.089920e-01 1.571718e-02 -1.093343e-01
<VARIANCE> 39
 7.354770e+01 9.559489e+01 6.897916e+01 1.899369e+01 1.108738e+02 2.803288e+01 9.407081e+01 2.260095e+01 9.818595e+01 2.206931e+01 4.431614e+01 2.345981e+01 2.492680e+01 3.455137e+00 3.483740e+00 1.607582e+00 3.969815e-01 4.261107e+00 1.894244e-01 3.942425e+00 5.530260e-01 1.632172e+00 4.381779e-01 1.017288e+00 5.616978e-01 1.434853e+00 3.822492e-01 6.334877e-01 3.447094e-01 5.854500e-02 6.635054e-01 3.891908e-02 4.317075e-01 7.558389e-02 3.772467e-01 1.194252e-01 2.318712e-01 6.116046e-02 2.346465e-01
<GCONST> 1.021252e+02
<TRANSP> 5
 0.000000e+00 1.000000e+00 0.000000e+00 0.000000e+00 0.000000e+00
 0.000000e+00 8.607880e-01 1.392119e-01 0.000000e+00 0.000000e+00
 0.000000e+00 0.000000e+00 8.200702e-01 1.799299e-01 0.000000e+00
 0.000000e+00 0.000000e+00 0.000000e+00 6.033842e-01 3.966159e-01
 0.000000e+00 0.000000e+00 0.000000e+00 0.000000e+00 0.000000e+00
<ENDHMM>
~h "au"
<BEGINHMM>
<NUMSTATES> 5
<STATE> 2
<MEAN> 39
 4.070190e+00 -1.483744e+00 -5.216365e-01 -7.214810e+00 -3.653400e+00 1.111072e+00 -6.506079e+00 -8.321378e-02 -1.212031e+00 -2.761312e+00 -1.363138e+00 -2.516202e+00 1.116703e+01 1.866693e-02 -1.075890e-01 -8.554235e-01 -1.145038e+00 1.886931e-01 1.001053e+00 1.780509e-01 2.969052e-02 2.451221e-01 4.265517e-01 4.077960e-01 2.038170e-01 9.192150e-01 -3.864393e-02 -4.360209e-02 -1.015546e-01 -1.093510e-01 -9.487852e-02 1.036935e-01 8.918035e-02 -4.237453e-02 -4.509337e-02 5.806598e-02 1.735283e-01 -1.030089e-01 8.477177e-02
<VARIANCE> 39
 1.881860e+01 2.828871e+01 2.972010e+01 7.747371e+01 5.318948e+01 7.853912e+01 6.922195e+01 3.224935e+01 4.963104e+01 5.260708e+01 3.405641e+01 4.179397e+01 5.518527e+01 7.549660e-01 7.152178e-01 1.945286e+00 1.828560e+00 1.491702e+00 1.950601e+00 2.581706e+00 9.668375e-01 1.301643e+00 1.961605e+00 1.069662e+00 2.033301e+00 3.265257e+00 6.670623e-02 7.266548e-02 1.104312e-01 2.170248e-01 1.664464e-01 2.334108e-01 2.793099e-01 9.280957e-02 1.691186e-01 1.638396e-01 1.529372e-01 2.580060e-01 3.161782e-01
<GCONST> 1.024856e+02
<STATE> 3
<MEAN> 39
 1.246778e+00 -5.274439e+00 -8.084394e+00 -1.080840e+01 -1.480610e+00 5.348007e+00 -1.662884e+00 -1.698598e+00 1.068589e-01 2.728888e+00 1.029872e+00 -5.319897e+00 1.874635e+01 2.010466e-01 -4.397348e-01 -9.506425e-01 -4.022863e-01 -8.354761e-02 7.737366e-01 3.260101e-01 -5.734865e-02 2.416404e-02 1.298589e-01 4.138482e-01 -3.050416e-01 3.477970e-01 1.572180e-01 7.038974e-02 2.632367e-01 3.299030e-01 3.802454e-02 -1.631513e-01 -1.786340e-01 -9.766273e-03 -1.912472e-02 -2.091084e-01 -6.785513e-02 8.288284e-02 -4.481849e-01
<VARIANCE> 39
 1.223680e+01 1.167866e+01 1.511497e+01 2.081105e+01 1.895616e+01 3.571215e+01 9.564105e+01 2.724213e+01 3.985072e+01 2.589796e+01 3.495928e+01 3.163576e+01 3.422275e+01 5.854052e-01 3.705120e-01 9.739383e-01 2.141385e+00 8.759978e-01 2.393408e+00 4.258988e+00 1.068977e+00 1.291100e+00 1.457730e+00 1.517724e+00 1.386907e+00 1.515964e+00 4.538525e-02 4.314088e-02 6.902321e-02 1.224960e-01 9.515017e-02 1.921352e-01 4.955857e-01 1.558269e-01 2.005726e-01 1.758155e-01 1.226905e-01 1.436630e-01 7.347672e-02
<GCONST> 8.994394e+01
<STATE> 4
<MEAN> 39
 6.749166e+00 -4.608804e+00 -7.568847e+00 -1.292046e+01 -1.108488e+00 9.159846e+00 -3.258315e+00 -4.257022e+00 -5.222718e-01 1.899388e+00 2.959577e+00 -3.936922e+00 9.600698e+00 2.026697e-01 3.310447e-02 -5.544797e-02 8.247212e-01 7.593364e-02 -4.384539e-01 4.620204e-02 3.942043e-02 5.588752e-02 -1.905259e-01 -1.705925e-01 1.497376e-01 -7.260531e-01 -1.087518e-01 5.815807e-02 1.508688e-01 2.504663e-01 9.001837e-03 -2.931580e-01 -5.339183e-02 8.097596e-02 1.084314e-01 -2.020248e-02 -1.445225e-01 3.279755e-02 -6.154447e-02
<VARIANCE> 39
 8.653691e+00 2.810261e+01 1.662062e+01 4.494445e+01 2.714256e+01 4.888094e+01 4.328105e+01 3.234345e+01 3.063211e+01 4.402701e+01 3.293974e+01 4.178481e+01 6.036408e+01 3.921989e-01 5.677876e-01 6.034760e-01 1.490903e+00 8.436804e-01 2.218162e+00 1.439976e+00 7.255067e-01 1.008216e+00 8.430446e-01 8.623858e-01 1.084770e+00 1.041643e+00 3.700812e-02 5.278800e-02 7.762318e-02 1.397980e-01 8.468052e-02 1.806489e-01 1.562306e-01 8.300149e-02 1.171481e-01 1.043428e-01 1.352454e-01 1.575301e-01 1.107356e-01
<GCONST> 8.588982e+01
<TRANSP> 5
 0.000000e+00 1.000000e+00 0.000000e+00 0.000000e+00 0.000000e+00
 0.000000e+00 6.341365e-01 3.658634e-01 0.000000e+00 0.000000e+00
 0.000000e+00 0.000000e+00 7.701849e-01 2.298151e-01 0.000000e+00
 0.000000e+00 0.000000e+00 0.000000e+00 8.438382e-01 1.561618e-01
 0.000000e+00 0.000000e+00 0.000000e+00 0.000000e+00 0.000000e+00
<ENDHMM>
~h "ax"
<BEGINHMM>
<NUMSTATES> 5
<STATE> 2
<MEAN> 39
 5.757021e+00 -6.645660e+00 4.069280e+00 4.835821e+00 -5.767291e+00 -3.357997e-01 -2.314431e-01 6.432370e+00 -1.479648e+00 -2.083774e+00 -6.395421e+00 1.149969e+00 9.562319e+00 3.799143e-01 2.422795e-01 3.667804e-01 1.087692e+00 -5.731363e-01 -8.803284e-02 7.481935e-01 -6.147484e-01 1.342638e-01 -7.819915e-01 1.482067e-01 1.231477e-01 -3.747621e-01 7.354022e-03 2.156316e-01 -5.094084e-02 3.657699e-02 1.317404e-01 -5.620194e-02 -1.641347e-01 -2.456440e-01 6.763317e-03 -1.236958e-01 8.009885e-02 -2.307995e-01 -2.869796e-01
<VARIANCE> 39
 6.663066e+00 2.010538e+01 1.397627e+01 5.145352e+01 1.882582e+01 2.304847e+01 4.198608e+01 5.954842e+01 3.473252e+01 2.505290e+01 1.367609e+01 9.756825e+00 1.852800e+01 1.612269e-01 1.049542e+00 5.730488e-01 1.182387e+00 9.360319e-01 5.878887e-01 1.713973e+00 2.566288e+00 1.363355e+00 7.799557e-01 6.812478e-01 6.104926e-01 1.320474e+00 3.528942e-02 5.806620e-02 6.732993e-02 2.172596e-01 1.268819e-01 8.731268e-02 2.501025e-01 2.055126e-01 1.735447e-01 1.369680e-01 1.039309e-01 5.097362e-02 8.595990e-02
<GCONST> 8.049181e+01
<STATE> 3
<MEAN> 39
 6.889225e+00 2.396343e+00 6.590319e+00 8.635824e+00 -4.824766e+00 -1.053622e+00 -3.291204e+00 -9.976426e-01 -1.494535e+00 -8.684547e+00 -1.644115e+00 -3.131996e+00 1.580066e+00 -6.731703e-02 8.316590e-01 -3.794834e-01 -4.766556e-02 6.123499e-01 -2.616516e-01 -6.937807e-01 -1.212035e-01 8.748792e-02 -2.502364e-01 -3.687865e-01 -7.531468e-01 -9.710791e-01 -7.468232e-02 -3.422537e-01 -2.571112e-01 -2.054550e-01 4.872427e-02 -5.597854e-02 2.038380e-01 3.991222e-01 3.271888e-02 2.097731e-01 -1.805058e-01 1.389496e-01 4.605377e-02
<VARIANCE> 39
 5.864194e+00 1.686559e+01 1.123134e+01 1.810496e+01 1.029075e+01 9.240546e+00 5.824151e+01 4.969064e+01 2.689256e+01 1.289068e+01 4.666286e+01 1.332762e+01 7.317212e+00 5.307154e-02 8.070533e-01 4.597465e-01 2.596452e-01 3.460038e-01 2.270498e-01 2.238011e+00 1.144904e+00 7.857313e-01 2.976637e-01 1.833189e+00 6.428681e-01 1.424560e-01 1.723636e-02 8.802553e-02 5.464795e-02 3.753309e-02 3.600710e-02 5.377045e-02 3.509700e-01 2.028292e-01 1.104803e-01 5.520113e-02 2.516266e-01 5.461022e-02 1.947551e-02
<GCONST> 6.337108e+01
<STATE> 4
<MEAN> 39
 6.543417e+00 1.041553e+00 1.624010e+00 8.438859e+00 -2.167283e+00 -3.508858e+00 5.379933e-01 1.194336e+00 1.396024e+00 -7.649490e+00 -8.032179e+00 -4.970945e+00 -2.141331e+00 -6.698541e-01 -7.917310e-01 -1.416135e+00 -1.212417e+00 6.587461e-01 -3.828679e-01 4.442513e-01 1.265695e+00 2.202584e-01 6.950213e-01 -1.652259e-02 1.665113e-01 -8.445050e-01 -2.427208e-01 -2.250832e-01 2.018308e-01 -2.967271e-01 -1.413451e-01 2.039703e-02 6.637790e-02 -8.296693e-02 -7.062423e-02 1.639940e-01 3.727008e-01 3.220702e-01 3.484282e-01
<VARIANCE> 39
 4.190426e+00 1.926609e+01 1.144430e+01 2.167738e+01 9.678607e+00 1.142245e+01 3.051435e+01 2.077356e+01 1.098187e+01 1.443462e+01 1.275234e+01 1.475434e+01 6.318369e+00 1.510354e-01 3.651663e-01 3.879171e-01 4.628337e-01 2.788990e-01 7.660520e-01 9.946708e-01 7.890558e-01 6.447439e-01 1.767865e-01 1.668277e+00 5.195351e-01 1.687496e-01 1.884669e-02 5.751896e-02 1.563980e-01 4.550427e-02 6.077645e-02 3.915357e-02 1.884220e-01 9.533203e-02 7.200841e-02 7.530224e-02 6.933533e-02 6.295838e-02 1.040996e-01
<GCONST> 5.964500e+01
<TRANSP> 5
 0.000000e+00 1.000000e+00 0.000000e+00 0.000000e+00 0.000000e+00
 0.000000e+00 8.623942e-01 1.376059e-01 0.000000e+00 0.000000e+00
 0.000000e+00 0.000000e+00 7.778572e-01 2.221428e-01 0.000000e+00
 0.000000e+00 0.000000e+00 0.000000e+00 6.519651e-01 3.480349e-01
 0.000000e+00 0.000000e+00 0.000000e+00 0.000000e+00 0.000000e+00
<ENDHMM>
~h "bh"
<BEGINHMM>
