~o
<STREAMINFO> 1 39
<VECSIZE> 39<NULLD><MFCC_D_A_Z_0><DIAGC>
~s "silst"
<MEAN> 39
 -4.825456e+00 2.135538e+00 -1.336488e+00 5.772357e+00 6.345603e+00 3.234262e+00 4.206341e+00 2.955379e+00 3.166732e+00 1.239249e+00 2.386132e+00 5.385478e+00 -1.132859e+01 -2.282440e-02 1.580152e-02 6.189656e-03 -2.536377e-03 3.215518e-02 7.681471e-03 1.619669e-02 -2.309014e-02 -1.191591e-02 1.075527e-02 -1.019411e-03 -6.950408e-03 -3.162042e-03 5.586890e-03 6.884885e-03 7.105668e-03 -5.384428e-04 -1.220493e-02 5.560440e-04 -3.971617e-03 -6.063232e-03 -6.556862e-03 -1.951889e-03 -3.297523e-03 -7.104518e-03 -5.027230e-05
<VARIANCE> 39
 6.575299e+00 2.596292e+01 1.487083e+01 2.059725e+01 1.913673e+01 2.359824e+01 2.642151e+01 2.261529e+01 2.092915e+01 1.856761e+01 2.083055e+01 1.788290e+01 2.959241e+01 8.640843e-02 2.317930e-01 1.920971e-01 2.390654e-01 2.877451e-01 3.101962e-01 3.018578e-01 3.305656e-01 3.171884e-01 3.168223e-01 2.909031e-01 2.703760e-01 1.308769e-01 1.035884e-02 2.021617e-02 2.244950e-02 3.080497e-02 3.739982e-02 4.100421e-02 4.246078e-02 4.576975e-02 4.558623e-02 4.517182e-02 4.221070e-02 3.853275e-02 1.184176e-02
<GCONST> 4.621735e+01
~h "a"
<BEGINHMM>
<NUMSTATES> 5
<STATE> 2
<MEAN> 39
 2.262267e+00 -3.010324e+00 5.882249e-01 -3.231649e+00 -1.494407e+00 -1.797847e+00 -3.989797e+00 -5.843638e-02 -4.944604e-01 -1.818659e-01 -1.236907e+00 -2.797194e+00 8.174629e+00 1.913183e-01 -5.138976e-01 2.728899e-02 -2.656689e-01 -4.123918e-01 -2.122480e-01 -2.002679e-01 4.083295e-01 9.763885e-02 -6.207449e-02 -1.261563e-01 -1.569188e-01 7.537883e-01 -3.455605e-02 4.896368e-02 1.431844e-03 9.031636e-02 1.047880e-02 -2.896519e-03 8.356361e-02 -1.295195e-03 -1.121151e-02 -2.085141e-02 -2.061116e-04 7.035965e-02 -1.268354e-01
<VARIANCE> 39
 2.625716e+01 4.615608e+01 8.087651e+01 4.216967e+01 6.261909e+01 5.800029e+01 5.513682e+01 5.455409e+01 5.565980e+01 3.273155e+01 4.133303e+01 4.095494e+01 7.667999e+01 8.659253e-01 1.384895e+00 1.562955e+00 1.434029e+00 1.944165e+00 1.563430e+00 1.564015e+00 1.935541e+00 1.516327e+00 1.002006e+00 1.319077e+00 1.188841e+00 2.802772e+00 1.106188e-01 1.774843e-01 2.095180e-01 1.701620e-01 2.426822e-01 1.725121e-01 2.141570e-01 2.354940e-01 1.718860e-01 1.292155e-01 1.625116e-01 1.573553e-01 2.903931e-01
<GCONST> 1.053717e+02
<STATE> 3
<MEAN> 39
 3.403756e+00 -7.755480e+00 -1.229037e+00 -5.401610e+00 -4.012983e+00 -3.090835e+00 -5.032493e+00 4.664997e+00 1.290352e+00 -1.268725e+00 -2.895607e+00 -4.504707e+00 1.345481e+01 1.351000e-01 3.147907e-02 -2.900160e-02 3.509061e-01 -2.074600e-02 -1.906004e-01 1.711875e-01 9.392767e-02 6.427494e-02 -1.818848e-01 -2.582414e-01 1.213865e-01 -2.843425e-01 -6.949034e-02 3.275757e-01 1.189942e-01 2.374289e-01 1.927704e-01 4.282055e-02 1.165283e-01 -3.556901e-01 -1.130347e-01 2.078420e-02 6.766953e-02 1.493836e-01 -4.338106e-01
<VARIANCE> 39
 1.502622e+01 2.546122e+01 4.743213e+01 3.042731e+01 5.444711e+01 4.843150e+01 5.225926e+01 4.855067e+01 4.201516e+01 4.342418e+01 4.473779e+01 3.705999e+01 5.384606e+01 5.122734e-01 1.181704e+00 1.649728e+00 1.177997e+00 1.799284e+00 1.310666e+00 1.516787e+00 1.904449e+00 1.230018e+00 1.094366e+00 1.283810e+00 1.068523e+00 1.834981e+00 7.849817e-02 1.183863e-01 1.668804e-01 1.325007e-01 2.137558e-01 1.541375e-01 1.962088e-01 2.285097e-01 1.638147e-01 1.552032e-01 1.764649e-01 1.410266e-01 1.839744e-01
<GCONST> 9.875893e+01
<STATE> 4
<MEAN> 39
 3.771680e+00 -3.205709e+00 -2.106725e+00 -1.154251e+00 -1.622768e+00 -4.210296e+00 -3.461393e+00 1.752731e+00 2.235671e+00 -1.510385e-01 -2.372560e+00 -2.230813e+00 4.007612e+00 -1.484941e-01 5.031762e-01 1.317161e-01 4.408395e-01 1.925467e-01 3.338087e-04 2.862113e-01 -3.112974e-01 -3.340420e-02 -1.084710e-02 1.103912e-01 3.073704e-01 -9.399595e-01 -1.055439e-01 7.986746e-03 2.987436e-02 -7.517254e-02 3.514413e-02 4.760429e-02 3.727841e-02 -4.266096e-02 -2.864721e-02 1.891918e-02 4.032341e-02 7.248689e-03 9.373580e-02
<VARIANCE> 39
 1.501994e+01 2.994551e+01 3.514891e+01 2.961986e+01 4.181746e+01 4.392740e+01 4.112458e+01 4.317448e+01 3.714919e+01 3.317359e+01 3.391470e+01 3.421867e+01 7.084342e+01 6.038783e-01 8.971240e-01 1.009697e+00 8.828892e-01 1.156000e+00 9.377438e-01 1.110253e+00 1.260703e+00 8.787556e-01 7.923364e-01 8.615484e-01 8.282701e-01 1.651354e+00 6.927467e-02 1.040262e-01 1.064959e-01 9.922186e-02 1.301494e-01 1.169421e-01 1.204178e-01 1.549487e-01 1.145771e-01 9.951474e-02 1.113070e-01 1.009951e-01 1.890198e-01
<GCONST> 8.937930e+01
<TRANSP> 5
 0.000000e+00 1.000000e+00 0.000000e+00 0.000000e+00 0.000000e+00
 0.000000e+00 5.031120e-01 4.968881e-01 0.000000e+00 0.000000e+00
 0.000000e+00 0.000000e+00 5.391337e-01 4.608664e-01 0.000000e+00
 0.000000e+00 0.000000e+00 0.000000e+00 5.740704e-01 4.259296e-01
 0.000000e+00 0.000000e+00 0.000000e+00 0.000000e+00 0.000000e+00
<ENDHMM>
~h "b"
<BEGINHMM>
<NUMSTATES> 5
<STATE> 2
<MEAN> 39
 5.491827e+00 4.582225e+00 4.404423e-01 2.758017e+00 2.501606e+00 1.561468e+00 -2.079052e+00 -3.402709e+00 -2.099694e+00 -1.712213e+00 -1.101675e+00 -3.694190e+00 -2.938740e+00 -2.736543e-01 3.101316e-02 -5.068926e-03 -1.399045e-01 2.031416e-01 -4.631769e-02 3.114194e-01 -1.422743e-02 1.014806e-01 6.255603e-02 1.385149e-01 7.336620e-02 3.677557e-01 -1.188197e-01 -4.051713e-01 -1.267654e-01 -3.640420e-01 -2.737270e-01 -7.144099e-02 -1.296024e-01 7.898708e-02 9.933965e-02 1.219039e-01 9.787951e-02 2.360459e-02 6.486000e-01
<VARIANCE> 39
 1.582176e+01 2.461715e+01 3.269571e+01 2.322553e+01 3.261773e+01 3.486022e+01 2.516292e+01 3.569543e+01 4.055185e+01 2.143449e+01 2.896889e+01 3.125223e+01 2.081950e+01 6.284146e-01 1.068547e+00 1.047656e+00 1.401847e+00 9.736784e-01 1.118362e+00 9.299688e-01 9.332075e-01 8.279428e-01 8.555080e-01 8.403461e-01 7.869472e-01 2.443983e+00 9.119343e-02 9.743632e-02 1.283031e-01 1.177103e-01 1.602567e-01 1.539516e-01 1.293287e-01 1.537818e-01 1.436381e-01 1.181827e-01 1.216501e-01 1.129459e-01 1.739517e-01
<GCONST> 8.813934e+01
<STATE> 3
<MEAN> 39
 3.031064e+00 1.119097e+00 -1.793839e+00 -1.888006e+00 2.310450e+00 5.895657e-01 -1.688653e+00 -4.237687e+00 -6.553115e-01 5.150526e-01 1.229961e+00 -1.015282e+00 4.496459e+00 -3.878380e-01 -1.299442e+00 -3.257829e-01 -9.832701e-01 -8.400677e-01 -1.481871e-01 -2.496285e-01 3.903384e-01 4.871738e-01 3.871099e-01 1.820973e-01 -2.128782e-01 2.148538e+00 1.193297e-02 -1.340300e-01 7.009636e-02 -6.711269e-03 -2.411760e-01 -2.550161e-02 -1.015370e-01 1.532423e-01 -1.782952e-03 -1.137626e-01 -1.255847e-01 -1.011164e-01 9.099094e-02
<VARIANCE> 39
 2.238023e+01 2.453291e+01 3.216102e+01 4.265138e+01 3.030698e+01 4.569953e+01 2.990380e+01 3.471722e+01 3.352859e+01 2.795045e+01 3.051416e+01 3.218549e+01 5.377128e+01 1.078358e+00 1.336068e+00 2.359336e+00 1.796734e+00 2.160780e+00 2.213056e+00 1.508976e+00 1.554101e+00 1.737038e+00 1.285879e+00 1.239423e+00 1.301082e+00 1.801660e+00 8.070254e-02 7.713856e-02 9.195995e-02 1.411259e-01 1.585574e-01 1.440193e-01 1.116722e-01 1.630282e-01 1.396754e-01 1.114371e-01 1.283138e-01 9.709911e-02 1.411483e-01
<GCONST> 9.548697e+01
<STATE> 4
<MEAN> 39
 3.358470e+00 -4.653519e+00 -1.697947e+00 -4.248891e+00 -3.283385e+00 1.935198e-01 -5.094340e+00 -5.530431e-01 1.261993e+00 1.380981e+00 1.345364e+00 -4.107610e+00 1.155328e+01 -3.655717e-01 -9.405500e-01 1.838040e-01 -4.426283e-01 -1.039749e+00 -4.168274e-01 -2.122113e-01 7.240300e-01 1.983950e-01 -1.809725e-01 -1.730395e-01 -1.407091e-01 1.332885e+00 2.685367e-02 2.891869e-01 1.185237e-01 2.423083e-01 1.535063e-01 -8.186830e-03 1.268929e-01 -8.492501e-02 -1.446879e-01 -1.955617e-01 -1.631272e-01 8.204962e-02 -4.825269e-01
<VARIANCE> 39
 1.856750e+01 2.620679e+01 6.421214e+01 4.543041e+01 4.727791e+01 6.419777e+01 4.885545e+01 4.891744e+01 4.745063e+01 4.181343e+01 3.488320e+01 4.160566e+01 6.059024e+01 1.067991e+00 1.399875e+00 1.993635e+00 1.613192e+00 2.507462e+00 1.856393e+00 1.529434e+00 1.865592e+00 1.899743e+00 1.122664e+00 1.249617e+00 1.265900e+00 1.818873e+00 8.767825e-02 1.106252e-01 1.867985e-01 2.368120e-01 1.962130e-01 2.366517e-01 1.787531e-01 2.445121e-01 1.639320e-01 1.557652e-01 1.538946e-01 1.540099e-01 2.825342e-01
<GCONST> 1.039605e+02
<TRANSP> 5
 0.000000e+00 1.000000e+00 0.000000e+00 0.000000e+00 0.000000e+00
 0.000000e+00 7.308460e-01 2.691540e-01 0.000000e+00 0.000000e+00
 0.000000e+00 0.000000e+00 4.811157e-01 5.188844e-01 0.000000e+00
 0.000000e+00 0.000000e+00 0.000000e+00 4.645113e-01 5.354887e-01
 0.000000e+00 0.000000e+00 0.000000e+00 0.000000e+00 0.000000e+00
<ENDHMM>
~h "c"
<BEGINHMM>
<NUMSTATES> 5
<STATE> 2
<MEAN> 39
 -7.190971e+00 2.377123e+00 -4.835295e-01 -3.595224e+00 3.073325e+00 -3.829660e+00 3.276285e-01 -1.281530e+00 7.608036e-01 4.664010e-01 7.840674e-01 1.526298e+00 7.846428e-01 -1.296908e+00 -1.734351e-01 4.087706e-01 -6.993186e-01 3.125221e-01 -1.397575e-01 3.688926e-01 3.436807e-01 1.356814e-02 -1.716802e-01 2.860664e-01 4.279714e-01 1.150402e+00 2.766315e-01 -1.714936e-01 1.933382e-01 4.088588e-02 -2.511248e-01 3.446456e-02 -1.463722e-01 6.782876e-02 -4.467265e-02 -1.071226e-01 -7.219263e-02 -1.022286e-01 3.431727e-01
<VARIANCE> 39
 6.701851e+01 3.097679e+01 4.717284e+01 3.748355e+01 3.779039e+01 4.412437e+01 4.101791e+01 3.735973e+01 3.471512e+01 2.585527e+01 2.866867e+01 2.786335e+01 4.999064e+01 1.867752e+00 1.104615e+00 1.768147e+00 1.008839e+00 1.306429e+00 1.169563e+00 1.092304e+00 1.169101e+00 1.001072e+00 7.664881e-01 7.499966e-01 6.742926e-01 2.262624e+00 4.337509e-01 1.385678e-01 1.681802e-01 1.727251e-01 1.925032e-01 1.573785e-01 1.723755e-01 1.291053e-01 1.268051e-01 1.046648e-01 1.134488e-01 1.251459e-01 1.956341e-01
<GCONST> 9.692204e+01
<STATE> 3
<MEAN> 39
 -8.268394e+00 -1.061626e+00 7.298763e+00 -4.872789e+00 -8.487814e-01 -4.474288e+00 -1.364398e-01 1.638532e+00 -4.547550e-02 -2.892556e+00 1.795952e+00 2.877804e+00 9.999129e+00 2.116906e+00 -1.104267e+00 2.180836e-01 3.616936e-01 -1.529474e+00 -1.891083e-01 -1.051117e+00 3.800437e-01 1.110411e-02 -3.791531e-01 -4.428222e-01 -6.509472e-01 1.213166e+00 4.053319e-01 -3.208344e-02 -4.065000e-01 8.124107e-02 -4.022453e-02 8.499978e-02 -1.471612e-01 -1.478497e-01 6.004651e-02 1.672501e-01 -1.156829e-01 -2.937314e-01 -2.706454e-01
<VARIANCE> 39
 7.366489e+01 3.312101e+01 3.958691e+01 2.582808e+01 6.172254e+01 3.813700e+01 4.426461e+01 2.830018e+01 3.434402e+01 2.609858e+01 2.901778e+01 2.108220e+01 3.051390e+01 1.472266e+00 1.157020e+00 2.227466e+00 1.072143e+00 1.214769e+00 1.597004e+00 1.378430e+00 1.432214e+00 1.821264e+00 1.069637e+00 1.287162e+00 9.720520e-01 1.460548e+00 3.422098e-01 1.373756e-01 1.544072e-01 1.079409e-01 2.667786e-01 1.658462e-01 1.635414e-01 1.232286e-01 1.271601e-01 1.168030e-01 1.092237e-01 9.280320e-02 8.713248e-02
<GCONST> 9.653671e+01
<STATE> 4
<MEAN> 39
 1.018654e+00 -5.422328e+00 3.268774e+00 -3.646386e+00 -6.129547e+00 -4.911459e+00 -5.364860e+00 2.596344e+00 1.730910e+00 -1.644989e+00 -1.579415e+00 -1.375378e+00 1.217180e+01 1.804334e+00 -7.124500e-01 -9.862323e-01 3.993092e-02 -5.563308e-01 3.668213e-01 -6.935722e-01 -2.060526e-01 1.068196e-01 3.375483e-01 -4.055747e-01 -1.128851e+00 3.168149e-01 -3.774022e-01 2.327276e-01 -1.313272e-01 -1.350661e-01 4.309149e-01 2.088136e-01 2.978320e-01 -2.045984e-01 -1.427308e-01 9.242743e-02 1.664001e-01 4.018167e-02 -3.023369e-01
<VARIANCE> 39
 2.153490e+01 2.908462e+01 4.349631e+01 2.612896e+01 4.488844e+01 3.586771e+01 5.438900e+01 4.132872e+01 4.844515e+01 2.521423e+01 2.722774e+01 2.334629e+01 4.902875e+01 1.397035e+00 1.298551e+00 2.342611e+00 1.092286e+00 1.420796e+00 1.485119e+00 1.210714e+00 1.401106e+00 1.354888e+00 1.288144e+00 1.037560e+00 1.123374e+00 1.316314e+00 1.741650e-01 1.205658e-01 1.459541e-01 9.507155e-02 2.035264e-01 1.600768e-01 2.112102e-01 1.386853e-01 1.605834e-01 1.072417e-01 1.210498e-01 1.073544e-01 1.412410e-01
<GCONST> 9.604726e+01
<TRANSP> 5
 0.000000e+00 1.000000e+00 0.000000e+00 0.000000e+00 0.000000e+00
 0.000000e+00 7.944107e-01 2.055893e-01 0.000000e+00 0.000000e+00
 0.000000e+00 0.000000e+00 6.837963e-01 3.162037e-01 0.000000e+00
 0.000000e+00 0.000000e+00 0.000000e+00 3.898350e-01 6.101649e-01
 0.000000e+00 0.000000e+00 0.000000e+00 0.000000e+00 0.000000e+00
<ENDHMM>
~h "d"
<BEGINHMM>
<NUMSTATES> 5
<STATE> 2
<MEAN> 39
 2.959613e+00 3.370336e+00 2.035440e+00 2.956558e+00 1.748567e+00 -2.053412e+00 -9.331321e-01 -2.626775e+00 -3.587020e-01 -1.801235e+00 -2.512343e+00 -3.236588e+00 -7.013081e-01 -6.034775e-01 -3.971529e-01 5.016385e-01 -3.849598e-01 -4.568137e-01 -4.984429e-01 4.099140e-01 5.819577e-02 -2.463617e-01 -2.016074e-01 5.341045e-01 5.155416e-01 1.205126e+00 -6.074772e-02 -2.646157e-01 1.289603e-01 -2.823537e-01 -4.044081e-01 -8.624242e-02 -1.951666e-01 4.374776e-03 -1.053482e-01 2.901307e-02 1.455574e-01 -2.152045e-03 5.223479e-01
<VARIANCE> 39
 2.302526e+01 3.009494e+01 3.053985e+01 2.450713e+01 3.451933e+01 3.501523e+01 3.855255e+01 3.550978e+01 2.842533e+01 2.546478e+01 2.851423e+01 3.179058e+01 3.814891e+01 6.310852e-01 1.033316e+00 1.369239e+00 1.054359e+00 1.996186e+00 1.148480e+00 1.363663e+00 1.724116e+00 1.519127e+00 7.742538e-01 1.194679e+00 8.549499e-01 2.437511e+00 1.032108e-01 9.555344e-02 1.324085e-01 9.670842e-02 1.610539e-01 1.511409e-01 1.523094e-01 1.859466e-01 1.415883e-01 1.029650e-01 1.451883e-01 1.254588e-01 2.087342e-01
<GCONST> 9.283250e+01
<STATE> 3
<MEAN> 39
 -4.625525e-01 -1.629895e+00 8.580205e+00 -1.301472e+00 -8.883591e+00 -6.232237e+00 -2.690666e+00 -2.692127e+00 -4.675833e+00 -3.038735e+00 4.164313e+00 -1.343954e+00 1.210221e+01 -2.000831e-01 -8.308432e-01 7.431672e-01 -9.228281e-01 -1.662571e+00 -2.322886e-01 -6.454792e-01 2.971039e-01 -4.931435e-01 2.264671e-01 6.658139e-01 -1.840663e-01 1.663639e+00 2.233081e-01 8.303613e-02 -1.879926e-01 6.198185e-02 2.224572e-01 2.266502e-01 -8.714680e-02 2.064826e-02 1.167585e-01 1.404545e-01 -2.696361e-01 -1.646734e-01 -4.117801e-01
<VARIANCE> 39
 1.398327e+01 1.527172e+01 5.094177e+01 2.135233e+01 7.010882e+01 3.896458e+01 3.902417e+01 5.033984e+01 5.076606e+01 2.310263e+01 3.956773e+01 2.690568e+01 4.743090e+01 6.632568e-01 8.255914e-01 2.038237e+00 8.710639e-01 1.956685e+00 1.296684e+00 1.390319e+00 2.537373e+00 1.955659e+00 9.070631e-01 1.357447e+00 9.265214e-01 1.642276e+00 5.776522e-02 7.721720e-02 1.380529e-01 9.694526e-02 2.292542e-01 1.249006e-01 1.512543e-01 1.696360e-01 1.675531e-01 1.059064e-01 1.383400e-01 1.102633e-01 1.792901e-01
<GCONST> 9.401186e+01
<STATE> 4
<MEAN> 39
 1.196240e+00 -4.191917e+00 5.153254e+00 -4.279119e+00 -7.801857e+00 -4.898829e+00 -4.461774e+00 5.041039e-01 -1.899458e+00 -1.229567e+00 4.754432e-01 -3.408618e+00 1.248787e+01 2.375671e-01 -3.259947e-01 -1.916999e-02 -3.837701e-01 -1.784902e-01 1.399541e-01 -3.281289e-01 1.426616e-02 -2.503778e-02 3.117344e-01 -1.746549e-01 -2.148342e-01 1.699932e-01 8.402575e-02 1.802912e-01 -9.251690e-02 1.652341e-01 2.356843e-01 1.421677e-01 7.436034e-02 -1.400236e-01 -1.500435e-02 1.573897e-02 -1.126744e-01 -7.931286e-03 -3.876943e-01
<VARIANCE> 39
 1.637547e+01 2.529464e+01 7.137611e+01 2.972445e+01 7.073385e+01 4.697997e+01 5.134277e+01 7.385728e+01 6.352052e+01 3.001980e+01 5.391946e+01 3.455814e+01 6.236197e+01 5.448005e-01 8.389774e-01 1.782004e+00 1.156655e+00 2.034048e+00 1.055912e+00 1.327305e+00 1.803242e+00 1.372598e+00 1.003319e+00 1.432123e+00 8.224339e-01 2.348570e+00 7.063017e-02 9.190843e-02 1.669098e-01 1.183052e-01 2.417940e-01 1.532138e-01 1.666487e-01 2.247473e-01 1.741133e-01 1.193882e-01 1.918025e-01 1.184395e-01 2.498544e-01
<GCONST> 9.925691e+01
<TRANSP> 5
 0.000000e+00 1.000000e+00 0.000000e+00 0.000000e+00 0.000000e+00
 0.000000e+00 7.662315e-01 2.337686e-01 0.000000e+00 0.000000e+00
 0.000000e+00 0.000000e+00 5.606557e-01 4.393444e-01 0.000000e+00
 0.000000e+00 0.000000e+00 0.000000e+00 4.354483e-01 5.645517e-01
 0.000000e+00 0.000000e+00 0.000000e+00 0.000000e+00 0.000000e+00
<ENDHMM>
~h "e"
<BEGINHMM>
<NUMSTATES> 5
<STATE> 2
<MEAN> 39
 1.276076e-01 -2.496859e-01 1.407318e+00 2.137721e-01 -3.265504e+00 -3.428139e+00 3.143172e-01 -7.591968e-01 -1.274176e+00 8.410317e-01 2.771390e-01 -3.427721e-01 1.739147e+00 -2.231192e-01 -3.044556e-01 1.425315e+00 -5.191291e-01 -1.240586e+00 -2.274887e-01 -6.936951e-02 4.142049e-02 -9.743963e-01 3.705751e-02 4.488480e-01 -5.754162e-03 1.049823e+00 2.690104e-02 -3.967424e-02 1.738984e-01 -1.644239e-01 -1.565986e-01 6.944108e-02 -7.417201e-02 -3.607168e-02 -1.638991e-01 -4.617843e-03 5.515422e-02 -7.960612e-02 1.661493e-01
<VARIANCE> 39
 1.913744e+01 3.074804e+01 5.293647e+01 3.138024e+01 6.296420e+01 4.402813e+01 4.463838e+01 5.137807e+01 4.306516e+01 3.343077e+01 3.135353e+01 2.867533e+01 6.893072e+01 6.061348e-01 8.680121e-01 1.845468e+00 9.731844e-01 1.637380e+00 1.308432e+00 1.173542e+00 2.127726e+00 1.195667e+00 8.569753e-01 9.704207e-01 7.822442e-01 1.311149e+00 6.842524e-02 8.719702e-02 1.840705e-01 9.812986e-02 1.529003e-01 1.401060e-01 1.343432e-01 1.531613e-01 1.306107e-01 9.478789e-02 9.800138e-02 7.741017e-02 1.775655e-01
<GCONST> 9.321786e+01
<STATE> 3
<MEAN> 39
 2.188593e-01 -3.881828e+00 1.147239e+01 -5.623144e+00 -1.360595e+01 -4.466001e+00 -3.210531e+00 8.713732e-02 -8.212945e+00 9.104748e-01 4.216334e+00 -1.951908e+00 1.084548e+01 -9.140962e-02 -1.784824e-01 7.137368e-01 -5.423388e-01 -8.385817e-01 6.921597e-02 -1.734287e-01 -1.518705e-02 -6.711130e-01 3.095640e-03 4.117351e-01 -1.721836e-01 7.889304e-01 4.567170e-02 1.613244e-01 -3.364210e-01 2.531573e-01 3.927146e-01 3.989844e-02 1.040727e-01 -1.262316e-01 2.300467e-01 -2.744358e-02 -1.895341e-01 3.038690e-02 -3.436747e-01
<VARIANCE> 39
 1.340406e+01 2.075953e+01 3.728683e+01 2.707002e+01 2.823826e+01 3.902371e+01 3.551350e+01 6.122334e+01 2.514509e+01 2.716349e+01 3.176216e+01 2.198875e+01 3.338159e+01 3.546879e-01 4.626220e-01 1.127917e+00 7.827023e-01 1.319180e+00 8.173422e-01 1.179832e+00 1.126418e+00 8.478245e-01 7.588789e-01 1.002950e+00 6.218694e-01 1.214901e+00 4.610061e-02 7.735214e-02 1.023476e-01 7.875486e-02 1.302464e-01 1.049931e-01 1.265084e-01 1.650321e-01 9.303560e-02 8.612868e-02 9.073450e-02 8.027375e-02 9.120403e-02
<GCONST> 8.244296e+01
<STATE> 4
<MEAN> 39
 7.367669e-01 -1.118809e+00 9.686295e+00 -2.488695e+00 -1.190795e+01 -3.926234e+00 -2.139841e+00 -2.660704e+00 -7.060804e+00 1.415937e+00 3.972790e+00 -2.721091e+00 4.662694e+00 1.143227e-01 3.628599e-01 -6.187543e-01 5.914735e-01 7.812118e-01 -4.426659e-02 3.612971e-01 -1.108790e-01 4.752285e-01 -1.685499e-02 -2.538670e-01 2.173031e-01 -1.070678e+00 -3.968775e-02 2.514493e-02 -1.223048e-01 2.652386e-02 1.730937e-01 5.249721e-03 3.813407e-02 2.023201e-02 1.099578e-01 -2.068452e-02 -3.797124e-02 7.740939e-02 -5.166360e-02
<VARIANCE> 39
 1.538338e+01 2.142043e+01 3.944089e+01 3.257193e+01 3.329512e+01 3.664297e+01 3.505284e+01 4.862218e+01 3.528404e+01 3.721351e+01 3.529789e+01 2.744876e+01 8.287888e+01 4.091667e-01 5.590629e-01 9.461174e-01 7.529624e-01 1.107474e+00 7.981801e-01 8.156931e-01 9.701286e-01 8.170838e-01 6.627910e-01 7.980126e-01 6.980271e-01 1.703344e+00 5.934548e-02 6.668442e-02 1.109665e-01 1.031615e-01 1.529677e-01 9.703387e-02 1.109742e-01 1.239988e-01 1.302174e-01 9.569170e-02 1.259558e-01 9.260100e-02 2.765695e-01
<GCONST> 8.619675e+01
<TRANSP> 5
 0.000000e+00 1.000000e+00 0.000000e+00 0.000000e+00 0.000000e+00
 0.000000e+00 6.921408e-01 3.078593e-01 0.000000e+00 0.000000e+00
 0.000000e+00 0.000000e+00 7.449504e-01 2.550496e-01 0.000000e+00
 0.000000e+00 0.000000e+00 0.000000e+00 8.399080e-01 1.600920e-01
 0.000000e+00 0.000000e+00 0.000000e+00 0.000000e+00 0.000000e+00
<ENDHMM>
~h "g"
<BEGINHMM>
<NUMSTATES> 5
<STATE> 2
<MEAN> 39
 6.146281e+00 -4.374843e+00 -3.171355e+00 -7.916477e+00 7.534089e-01 4.446109e+00 -5.470243e+00 -7.837105e-01 -3.069716e+00 -8.021605e-01 8.424355e-01 -5.925153e+00 9.252320e+00 1.121840e-01 4.351022e-01 -3.847542e-02 4.003311e-01 3.195055e-01 1.143575e-01 3.198558e-01 -1.747959e-01 3.243523e-03 -1.250487e-01 3.590903e-02 2.787774e-01 -7.644848e-01 -6.691732e-02 -2.275787e-02 -8.340561e-06 6.088703e-02 -3.962811e-02 -8.052824e-02 7.144138e-02 4.823634e-02 1.292519e-01 1.036690e-02 -4.351996e-02 5.106097e-02 3.185298e-02
<VARIANCE> 39
 1.477121e+01 3.802795e+01 4.543474e+01 5.834263e+01 3.572296e+01 8.816039e+01 3.739850e+01 3.985760e+01 4.174625e+01 3.895436e+01 4.263655e+01 3.600207e+01 7.563770e+01 3.793651e-01 8.709195e-01 6.713075e-01 1.314740e+00 8.929853e-01 1.476504e+00 1.048746e+00 1.024369e+00 1.247317e+00 9.596130e-01 9.866748e-01 7.893801e-01 1.211328e+00 4.405324e-02 7.596661e-02 7.234766e-02 1.006353e-01 1.188259e-01 1.027908e-01 1.254084e-01 1.233159e-01 1.223426e-01 1.057786e-01 1.088961e-01 9.385806e-02 1.272390e-01
<GCONST> 8.935729e+01
<STATE> 3
<MEAN> 39
 5.691251e+00 1.069278e+00 -1.450850e+00 -6.210966e-01 -9.810316e-02 -1.864437e+00 -3.538330e+00 -2.072726e+00 -8.543303e-01 3.204764e-01 -1.801794e+00 -3.764360e+00 5.692714e-01 -2.908027e-01 3.506302e-01 -1.691334e-01 5.175059e-01 1.423396e-01 -2.082982e-01 4.902341e-01 7.301103e-02 5.844687e-01 -1.257528e-02 -9.044003e-02 3.063509e-01 -7.009997e-01 -9.657112e-02 -2.869224e-01 2.722580e-02 -2.453320e-01 -1.061536e-01 -4.140198e-02 -5.765981e-02 1.274001e-01 2.042862e-02 7.903215e-02 6.251714e-02 -1.794986e-02 3.947026e-01
<VARIANCE> 39
 1.355577e+01 2.282281e+01 3.536385e+01 2.604540e+01 4.003061e+01 3.957468e+01 3.519490e+01 3.349465e+01 3.589866e+01 2.958250e+01 2.851313e+01 2.669142e+01 2.479788e+01 3.786770e-01 7.172920e-01 8.518332e-01 9.091137e-01 1.063061e+00 1.042265e+00 9.930084e-01 1.016144e+00 1.125525e+00 8.088017e-01 8.132982e-01 7.332115e-01 9.216059e-01 5.263092e-02 8.262401e-02 8.341310e-02 8.522107e-02 1.462868e-01 1.317631e-01 1.317827e-01 1.273416e-01 1.360721e-01 1.110801e-01 9.286144e-02 1.019494e-01 1.218825e-01
<GCONST> 8.397329e+01
<STATE> 4
<MEAN> 39
 2.772601e+00 2.901911e-01 -4.452503e+00 -1.013333e+00 -1.935081e-02 -1.970184e+00 -1.720694e+00 -2.131682e-01 2.716970e+00 2.425726e+00 2.019517e-01 -9.374751e-01 -3.269430e+00 -1.364566e-01 5.942917e-02 2.617169e-02 8.644223e-02 1.892143e-02 1.476467e-02 1.319264e-01 6.248682e-02 9.567616e-02 4.656058e-02 2.342772e-02 9.256461e-02 -1.290902e-01 -2.810816e-03 -4.065642e-02 3.535196e-02 -4.614306e-02 -5.292804e-03 1.219051e-02 -5.173459e-03 -1.328937e-02 -5.176293e-02 -1.035960e-02 -3.549000e-03 -2.510761e-02 1.205354e-01
<VARIANCE> 39
 1.599061e+01 2.175728e+01 2.820099e+01 2.246337e+01 2.376228e+01 3.292454e+01 2.870299e+01 3.364804e+01 3.051535e+01 2.731748e+01 2.791844e+01 3.112511e+01 3.454232e+01 2.187539e-01 2.937374e-01 3.669510e-01 3.943232e-01 5.225010e-01 5.109867e-01 4.679798e-01 5.367358e-01 5.385193e-01 4.973914e-01 4.848304e-01 5.533948e-01 3.025204e-01 2.885193e-02 4.167660e-02 4.323416e-02 5.556951e-02 7.686298e-02 6.696042e-02 6.781060e-02 8.152307e-02 7.688181e-02 7.028732e-02 6.706978e-02 7.208687e-02 6.303998e-02
<GCONST> 6.680379e+01
<TRANSP> 5
 0.000000e+00 1.000000e+00 0.000000e+00 0.000000e+00 0.000000e+00
 0.000000e+00 5.933918e-01 4.066082e-01 0.000000e+00 0.000000e+00
 0.000000e+00 0.000000e+00 4.666343e-01 5.333657e-01 0.000000e+00
 0.000000e+00 0.000000e+00 0.000000e+00 8.486774e-01 1.513227e-01
 0.000000e+00 0.000000e+00 0.000000e+00 0.000000e+00 0.000000e+00
<ENDHMM>
~h "h"
<BEGINHMM>
<NUMSTATES> 5
<STATE> 2
<MEAN> 39
 2.635113e+00 -3.120593e+00 2.095338e+00 -1.720623e+00 2.386879e-01 -4.114556e-01 3.696908e+00 2.364253e+00 -9.010102e-01 -1.502481e+00 -3.163731e+00 7.022384e-01 7.222298e+00 -8.604413e-03 3.530775e-01 -1.241732e-01 2.511975e-01 4.865715e-01 2.849706e-01 4.189047e-01 -2.161239e-01 -1.496176e-03 -4.316045e-02 -1.119675e-02 2.819235e-01 -5.496386e-01 2.819679e-02 -4.640784e-02 1.539675e-04 -9.952369e-02 -1.571481e-01 -1.988905e-02 -1.755271e-01 -2.618993e-02 -4.964733e-02 8.286083e-03 8.026320e-02 -1.020735e-01 4.065474e-02
<VARIANCE> 39
 1.238362e+01 2.542082e+01 4.748990e+01 2.958614e+01 6.429385e+01 4.448975e+01 4.912032e+01 5.130610e+01 3.648670e+01 4.323792e+01 4.346721e+01 3.768942e+01 4.067888e+01 3.270151e-01 7.680438e-01 1.157048e+00 7.922114e-01 1.595722e+00 1.096543e+00 1.238654e+00 1.458121e+00 9.379991e-01 1.096450e+00 1.112899e+00 8.582464e-01 7.046478e-01 3.193200e-02 7.748063e-02 7.537197e-02 9.777463e-02 1.614660e-01 1.067178e-01 1.434597e-01 1.423792e-01 1.224978e-01 1.177419e-01 1.268144e-01 1.077784e-01 6.737161e-02
<GCONST> 8.815918e+01
<STATE> 3
<MEAN> 39
 2.691010e+00 -4.038334e+00 2.084020e+00 -1.874330e+00 -9.728844e-01 -4.975843e-01 4.626082e+00 3.594347e+00 -1.861122e+00 -2.789375e+00 -2.294846e+00 1.977465e-01 7.765311e+00 1.798944e-01 -2.647964e-01 -8.211614e-02 -3.268057e-01 -5.451840e-01 -2.182545e-01 -3.088758e-01 1.327235e-01 -1.167228e-01 -5.819035e-02 1.592381e-01 -2.759525e-01 1.347596e-01 1.055271e-02 -2.949245e-02 7.492919e-03 -6.371107e-02 -8.074783e-02 -2.560268e-02 -1.273077e-01 -1.851114e-02 7.376370e-04 4.845362e-02 1.765708e-02 -5.717474e-02 1.934438e-02
<VARIANCE> 39
 1.341150e+01 2.933449e+01 3.928124e+01 2.805681e+01 5.404337e+01 4.085328e+01 4.834497e+01 5.134902e+01 3.278749e+01 3.727280e+01 3.328771e+01 2.800960e+01 4.630130e+01 2.697555e-01 6.742265e-01 7.200540e-01 5.658460e-01 1.358733e+00 8.159077e-01 1.005689e+00 1.081616e+00 7.620341e-01 7.891032e-01 6.757684e-01 6.748645e-01 7.526584e-01 3.087997e-02 7.234877e-02 5.882950e-02 7.013908e-02 1.421019e-01 7.876905e-02 1.163381e-01 9.116516e-02 8.386768e-02 7.722483e-02 7.814323e-02 8.183001e-02 6.106217e-02
<GCONST> 8.044126e+01
<STATE> 4
<MEAN> 39
 2.682017e+00 -1.951217e+00 -7.256870e-01 -1.604059e+00 -1.778659e+00 -1.200188e+00 1.670423e+00 2.106395e+00 -1.672323e-01 -9.157333e-01 -6.266559e-01 -1.659493e-01 1.909738e+00 -2.450451e-03 9.691412e-02 -2.654800e-02 2.130987e-02 -1.390679e-02 2.974187e-02 -4.820327e-02 -2.638390e-02 -3.740724e-02 3.452640e-02 6.719640e-02 5.346322e-03 -2.045176e-01 -2.603291e-03 1.283555e-02 9.934504e-03 1.604673e-02 8.744858e-03 1.399618e-03 5.940761e-03 -7.472804e-03 -1.134736e-02 1.075583e-03 -1.388825e-02 1.537277e-03 -5.643484e-04
<VARIANCE> 39
 2.018912e+01 3.182751e+01 3.992196e+01 2.844106e+01 4.354372e+01 3.588186e+01 3.337098e+01 4.897363e+01 3.170542e+01 2.840853e+01 2.655145e+01 2.571117e+01 6.984532e+01 1.419667e-01 2.371799e-01 3.093669e-01 3.439598e-01 4.841766e-01 4.143480e-01 4.492782e-01 4.767225e-01 4.144235e-01 4.091477e-01 4.068771e-01 4.057543e-01 2.349745e-01 1.631353e-02 2.921120e-02 3.143100e-02 4.282527e-02 6.598431e-02 5.003117e-02 6.027208e-02 5.874093e-02 5.395040e-02 5.521740e-02 5.421451e-02 5.387335e-02 2.417387e-02
<GCONST> 6.271187e+01
<TRANSP> 5
 0.000000e+00 1.000000e+00 0.000000e+00 0.000000e+00 0.000000e+00
 0.000000e+00 5.986035e-01 4.013965e-01 0.000000e+00 0.000000e+00
 0.000000e+00 0.000000e+00 6.511671e-01 3.488330e-01 0.000000e+00
 0.000000e+00 0.000000e+00 0.000000e+00 8.306367e-01 1.693633e-01
 0.000000e+00 0.000000e+00 0.000000e+00 0.000000e+00 0.000000e+00
<ENDHMM>
~h "i"
<BEGINHMM>
<NUMSTATES> 5
<STATE> 2
<MEAN> 39
 -3.151696e-01 -8.827150e-01 1.241568e+01 -3.054017e+00 -1.063190e+01 -1.981242e+00 -4.416577e+00 -5.252128e+00 -8.688994e+00 -1.441067e+00 1.513955e+00 -4.128815e+00 8.510807e+00 2.078599e-01 1.336765e-01 3.440055e-01 7.800668e-02 -4.449698e-01 -1.785924e-01 -8.339710e-02 -1.723858e-01 -3.518746e-01 1.600623e-02 1.123784e-01 -2.244731e-01 1.126449e-02 1.021309e-02 6.926715e-02 -3.769514e-01 1.428677e-01 3.697484e-01 -4.404641e-02 1.442489e-01 7.596339e-02 2.792076e-01 3.070497e-02 -1.073166e-01 1.426480e-01 -2.706639e-01
<VARIANCE> 39
 1.593182e+01 2.149177e+01 5.347742e+01 2.880844e+01 4.765784e+01 5.112483e+01 4.234542e+01 5.616132e+01 4.200390e+01 3.369935e+01 4.008270e+01 2.825560e+01 4.292204e+01 6.080537e-01 7.032053e-01 1.925253e+00 9.598522e-01 1.898883e+00 1.134719e+00 1.411943e+00 1.478832e+00 1.433179e+00 8.619209e-01 1.164271e+00 9.062991e-01 1.740481e+00 8.640394e-02 9.667236e-02 2.075561e-01 1.169552e-01 2.385060e-01 1.593672e-01 1.766351e-01 2.255913e-01 1.843800e-01 1.224732e-01 1.666893e-01 1.173427e-01 1.672906e-01
<GCONST> 9.605093e+01
<STATE> 3
<MEAN> 39
 1.022772e+00 4.811068e-01 9.852705e+00 -3.021387e-01 -8.464130e+00 -4.389542e+00 -2.110832e+00 -4.937718e+00 -7.107765e+00 -1.151496e+00 1.032547e+00 -2.924039e+00 5.686251e+00 1.378736e-01 2.228313e-01 -6.940424e-01 3.968442e-01 5.771636e-01 -3.695264e-01 2.764055e-01 1.413520e-01 4.849834e-01 4.225670e-03 -1.594748e-01 2.681091e-01 -5.404818e-01 -1.360699e-01 -1.660451e-02 -2.405762e-01 -1.044310e-02 2.763072e-01 4.336533e-02 3.911002e-02 8.504612e-02 2.171316e-01 -3.562300e-03 -4.733393e-02 1.147416e-01 -3.964105e-02
<VARIANCE> 39
 1.498563e+01 2.299228e+01 4.529456e+01 3.085310e+01 5.161175e+01 4.252185e+01 4.168927e+01 5.566011e+01 4.400024e+01 3.202799e+01 3.780236e+01 2.851343e+01 5.188941e+01 7.370066e-01 9.540612e-01 2.125406e+00 1.091078e+00 2.210039e+00 1.210415e+00 1.591320e+00 2.142785e+00 1.622880e+00 8.516880e-01 1.377112e+00 1.034773e+00 2.825923e+00 8.590581e-02 8.726358e-02 1.663108e-01 9.722073e-02 2.180854e-01 1.300293e-01 1.615826e-01 1.952873e-01 1.501025e-01 9.788961e-02 1.368309e-01 1.018463e-01 1.503288e-01
<GCONST> 9.637861e+01
<STATE> 4
<MEAN> 39
 1.037666e+00 1.918016e+00 6.358898e+00 1.559480e+00 -5.287563e+00 -4.306317e+00 -1.854566e+00 -3.829565e+00 -4.256698e+00 -9.123683e-01 8.265710e-01 -1.411604e+00 2.498511e-01 -2.621279e-01 3.948035e-02 -1.046208e+00 1.627391e-01 9.515551e-01 -9.701860e-02 1.790323e-01 3.167532e-01 7.799219e-01 7.934969e-02 -1.032088e-01 4.731979e-01 -5.364827e-01 -1.380923e-01 -1.301046e-01 2.891270e-02 -1.700286e-01 2.933962e-02 5.218735e-02 -3.134194e-02 5.295163e-03 -4.955531e-04 -4.365112e-03 -3.565254e-03 -1.204875e-03 3.293813e-01
<VARIANCE> 39
 1.556264e+01 2.416546e+01 4.066763e+01 2.483026e+01 4.179674e+01 3.497613e+01 3.346042e+01 4.188755e+01 3.212811e+01 2.744035e+01 3.124053e+01 2.741884e+01 5.676707e+01 8.306119e-01 8.875510e-01 1.447460e+00 8.769087e-01 1.348708e+00 1.040099e+00 1.219465e+00 1.669910e+00 1.023016e+00 7.461117e-01 1.193552e+00 8.239464e-01 1.634111e+00 8.077998e-02 8.666536e-02 1.476753e-01 9.174974e-02 1.629340e-01 1.178600e-01 1.080191e-01 1.394628e-01 1.112362e-01 8.765592e-02 1.085964e-01 8.469630e-02 2.279713e-01
<GCONST> 8.960946e+01
<TRANSP> 5
 0.000000e+00 1.000000e+00 0.000000e+00 0.000000e+00 0.000000e+00
 0.000000e+00 7.113256e-01 2.886744e-01 0.000000e+00 0.000000e+00
 0.000000e+00 0.000000e+00 3.119768e-01 6.880232e-01 0.000000e+00
 0.000000e+00 0.000000e+00 0.000000e+00 5.394706e-01 4.605293e-01
 0.000000e+00 0.000000e+00 0.000000e+00 0.000000e+00 0.000000e+00
<ENDHMM>
~h "j"
<BEGINHMM>
<NUMSTATES> 5
<STATE> 2
<MEAN> 39
 1.255225e+00 4.385990e+00 2.264909e+00 2.118275e+00 1.844706e+00 -3.633399e+00 1.956646e-01 -2.934187e+00 -1.409382e+00 -2.891026e+00 -3.644503e+00 -1.839095e+00 3.226947e-01 -1.187511e+00 5.700707e-01 7.886358e-02 -4.744405e-01 9.795919e-01 -4.510916e-01 7.003354e-01 4.803796e-02 1.918605e-01 4.142312e-02 2.154370e-01 5.684585e-01 3.387332e-01 -1.115662e-01 -2.939851e-01 1.045884e-01 -2.663458e-01 -3.166221e-01 -1.041356e-01 -1.704228e-01 1.213808e-01 -4.162537e-02 1.468388e-02 1.191275e-01 8.649607e-02 4.926741e-01
<VARIANCE> 39
 2.850700e+01 2.990456e+01 4.641360e+01 3.009317e+01 4.319139e+01 4.303687e+01 3.722036e+01 3.802110e+01 3.524773e+01 2.616324e+01 3.165166e+01 2.891309e+01 3.362917e+01 1.063745e+00 1.059794e+00 1.343895e+00 9.145064e-01 1.382671e+00 1.302374e+00 1.140893e+00 1.253862e+00 9.079159e-01 7.066106e-01 8.212413e-01 1.021329e+00 1.629241e+00 1.985681e-01 1.350293e-01 1.600194e-01 1.067488e-01 2.188896e-01 1.656191e-01 1.933564e-01 1.643697e-01 1.327320e-01 9.190083e-02 1.000134e-01 1.219453e-01 1.166266e-01
<GCONST> 9.333530e+01
<STATE> 3
<MEAN> 39
 -6.562469e+00 4.349690e+00 5.162531e+00 -2.918016e+00 2.706888e+00 -8.647863e+00 1.021003e+00 -2.469921e+00 -2.186360e+00 -3.069342e+00 -1.043018e+00 3.034069e+00 8.305047e+00 2.169769e-01 -1.287594e+00 1.917855e-01 -6.699418e-01 -1.245429e+00 -4.195167e-01 -8.880737e-01 8.645817e-01 2.921281e-01 2.458750e-02 2.316017e-01 2.690956e-01 1.599470e+00 5.416175e-01 -3.378550e-01 -2.183896e-01 1.040106e-01 -3.374422e-01 3.160852e-01 -2.988576e-01 1.104406e-01 1.078594e-01 4.891789e-02 -1.416447e-01 -3.609301e-01 -8.228251e-02
<VARIANCE> 39
 3.102353e+01 3.002193e+01 4.201923e+01 2.730515e+01 5.240129e+01 4.538019e+01 4.003987e+01 3.374561e+01 3.119106e+01 2.186183e+01 2.565567e+01 2.415026e+01 2.587352e+01 1.345535e+00 1.008958e+00 1.687073e+00 1.016359e+00 1.307861e+00 1.302971e+00 1.426104e+00 2.004747e+00 1.740763e+00 7.605171e-01 8.301560e-01 9.757501e-01 1.286827e+00 1.097144e-01 1.310946e-01 1.659769e-01 1.103820e-01 2.279846e-01 1.511509e-01 1.686452e-01 1.617318e-01 1.236068e-01 1.150431e-01 1.093373e-01 1.267046e-01 1.215187e-01
<GCONST> 9.364831e+01
<STATE> 4
<MEAN> 39
 1.140783e+00 -5.656013e+00 1.957331e+00 -5.011357e+00 -6.724000e+00 -6.907622e+00 -6.735664e+00 4.993881e+00 2.700637e+00 -2.585986e+00 -2.651452e+00 -6.330143e-02 1.417179e+01 1.036101e+00 -1.371779e+00 -1.150571e+00 -4.356381e-01 -3.765929e-01 1.035801e+00 -7.033479e-01 6.035294e-01 6.800130e-01 3.496966e-01 -3.248291e-01 -1.202081e+00 5.555708e-01 -1.026780e-01 3.673681e-01 -9.268175e-02 1.368085e-01 5.346684e-01 2.174863e-01 3.332933e-01 -4.011313e-01 -2.082966e-01 3.318378e-02 -4.435688e-03 -1.170784e-01 -4.462581e-01
<VARIANCE> 39
 1.230119e+01 1.943786e+01 3.936272e+01 1.876185e+01 3.148763e+01 3.247935e+01 4.729144e+01 4.216241e+01 4.105843e+01 2.550755e+01 2.692384e+01 2.611642e+01 3.616330e+01 6.309134e-01 1.110224e+00 1.603935e+00 8.492565e-01 1.875030e+00 1.149134e+00 1.593092e+00 1.845623e+00 1.307720e+00 9.525343e-01 1.191775e+00 1.021218e+00 9.971666e-01 1.009053e-01 1.117624e-01 1.630219e-01 1.100034e-01 1.596670e-01 1.468995e-01 1.694088e-01 1.650705e-01 1.501680e-01 9.774782e-02 1.242499e-01 1.587996e-01 9.698467e-02
<GCONST> 9.128114e+01
<TRANSP> 5
 0.000000e+00 1.000000e+00 0.000000e+00 0.000000e+00 0.000000e+00
 0.000000e+00 7.498934e-01 2.501065e-01 0.000000e+00 0.000000e+00
 0.000000e+00 0.000000e+00 7.134719e-01 2.865281e-01 0.000000e+00
 0.000000e+00 0.000000e+00 0.000000e+00 6.457189e-01 3.542811e-01
 0.000000e+00 0.000000e+00 0.000000e+00 0.000000e+00 0.000000e+00
<ENDHMM>
~h "k"
<BEGINHMM>
<NUMSTATES> 5
<STATE> 2
<MEAN> 39
 -1.392767e+00 -1.328066e+00 -2.552590e+00 -1.721761e+00 9.536185e-01 -3.446169e+00 -7.414161e-01 -7.103314e-01 4.290718e-01 2.221179e+00 -2.288748e-01 1.638060e+00 -1.477100e+00 -4.848396e-01 -5.817901e-01 2.124875e-01 -5.637189e-01 3.630221e-01 -1.004299e-01 -1.421291e-01 8.565874e-02 1.143156e-02 2.096741e-01 -3.192759e-01 1.448955e-02 1.110598e+00 1.198265e-01 -3.865955e-02 3.025936e-01 -1.431215e-01 -2.759008e-01 1.039348e-01 -1.474244e-01 -5.730142e-02 -1.783502e-01 -1.048708e-01 -1.619449e-02 -2.729854e-01 4.351452e-01
<VARIANCE> 39
 2.692258e+01 3.994455e+01 5.494456e+01 3.344159e+01 5.783899e+01 4.831317e+01 3.412144e+01 4.276712e+01 3.476987e+01 2.983960e+01 3.624583e+01 3.145200e+01 4.119622e+01 9.432845e-01 1.063198e+00 2.363217e+00 1.007318e+00 1.874152e+00 1.348987e+00 1.135987e+00 1.433297e+00 1.434580e+00 9.739517e-01 1.142634e+00 1.256849e+00 2.049494e+00 1.273970e-01 1.357666e-01 1.714517e-01 1.221177e-01 2.335142e-01 1.792756e-01 1.315590e-01 1.588243e-01 1.522588e-01 1.266303e-01 1.713389e-01 1.300430e-01 1.751593e-01
<GCONST> 9.833599e+01
<STATE> 3
<MEAN> 39
 -8.342934e-01 -4.367192e+00 2.459045e+00 -5.605019e+00 -1.795715e+00 -2.456683e+00 -4.898779e+00 -8.337733e-01 -2.089151e+00 1.833742e+00 -9.703049e-01 -2.893730e+00 8.493564e+00 3.846214e-01 -5.398055e-01 7.605336e-01 -5.770985e-01 -1.269482e+00 1.958171e-01 -6.327955e-01 2.119788e-01 -3.301532e-01 -4.216311e-01 9.008202e-02 -1.076556e+00 1.820496e+00 1.394501e-01 1.296271e-01 -9.802279e-02 1.693933e-01 -1.651616e-01 1.920975e-02 1.098869e-01 -2.838399e-02 2.475419e-02 -1.341134e-01 6.522795e-02 2.766994e-02 -2.589628e-01
<VARIANCE> 39
 2.962827e+01 3.951478e+01 9.260284e+01 2.958984e+01 9.136669e+01 4.424442e+01 4.868338e+01 5.131320e+01 5.425222e+01 3.155899e+01 4.019785e+01 4.443157e+01 5.156119e+01 9.750780e-01 1.069165e+00 2.354916e+00 1.021027e+00 1.983782e+00 1.971733e+00 1.480436e+00 1.937048e+00 2.093382e+00 1.137879e+00 1.787506e+00 1.377724e+00 1.742926e+00 9.086324e-02 1.097905e-01 2.177828e-01 1.207870e-01 3.263420e-01 1.784943e-01 1.730709e-01 1.808162e-01 1.743806e-01 1.346215e-01 1.674667e-01 1.715577e-01 2.156580e-01
<GCONST> 1.039349e+02
<STATE> 4
<MEAN> 39
 5.193149e-01 -4.944685e+00 1.641264e+00 -5.932342e+00 -4.058017e+00 -2.166359e+00 -3.979112e+00 4.110188e-01 -1.793471e+00 5.702133e-01 -1.720054e+00 -4.184943e+00 9.459480e+00 3.206378e-01 2.839863e-02 3.840650e-01 -8.875269e-02 -7.349563e-01 1.633482e-01 -4.742641e-02 -1.860767e-01 -2.720682e-01 -3.840606e-01 1.425026e-02 -4.357430e-01 6.276905e-01 1.065292e-02 1.535704e-01 -9.626053e-02 1.912768e-01 1.056895e-01 -2.393259e-02 1.039963e-01 -8.751081e-02 2.046574e-02 2.869611e-03 3.857097e-02 1.537770e-01 -3.058240e-01
<VARIANCE> 39
 2.794542e+01 4.214187e+01 8.574776e+01 3.488399e+01 6.848788e+01 4.857823e+01 4.406393e+01 5.510902e+01 5.592651e+01 3.067452e+01 4.156528e+01 4.265635e+01 7.589805e+01 1.036503e+00 9.823712e-01 2.049085e+00 1.180658e+00 2.165115e+00 1.669859e+00 1.248089e+00 1.596895e+00 1.555091e+00 1.096702e+00 1.295352e+00 1.319407e+00 2.240600e+00 1.053139e-01 1.298668e-01 1.793423e-01 1.301820e-01 2.927854e-01 1.649823e-01 1.677616e-01 1.793773e-01 1.638925e-01 1.224759e-01 1.642638e-01 1.787740e-01 3.142855e-01
<GCONST> 1.034902e+02
<TRANSP> 5
 0.000000e+00 1.000000e+00 0.000000e+00 0.000000e+00 0.000000e+00
 0.000000e+00 7.580607e-01 2.419393e-01 0.000000e+00 0.000000e+00
 0.000000e+00 0.000000e+00 4.548289e-01 5.451711e-01 0.000000e+00
 0.000000e+00 0.000000e+00 0.000000e+00 3.048348e-01 6.951653e-01
 0.000000e+00 0.000000e+00 0.000000e+00 0.000000e+00 0.000000e+00
<ENDHMM>
~h "l"
<BEGINHMM>
<NUMSTATES> 5
<STATE> 2
<MEAN> 39
 2.525688e+00 -1.663308e+00 8.064531e+00 -3.833810e+00 -7.966209e-01 -3.580200e+00 -1.245943e+01 -4.356195e+00 -1.176084e+00 -4.268744e+00 -4.032605e+00 -2.404197e+00 7.658216e+00 1.379935e-01 -6.616047e-03 4.218544e-01 -2.536702e-01 2.382800e-01 6.217718e-02 -9.308183e-01 -1.067979e-01 1.004006e-01 -1.153816e-02 -1.725319e-01 -1.172466e-01 9.541833e-02 -3.231314e-02 -1.663660e-01 -3.485772e-01 -4.799058e-02 -2.258955e-01 3.509089e-02 4.341944e-01 2.386177e-01 1.354639e-02 1.641535e-01 1.300173e-01 -4.657042e-02 1.809037e-01
<VARIANCE> 39
 1.236675e+01 2.110927e+01 5.035654e+01 3.554492e+01 4.657520e+01 5.221708e+01 8.187887e+01 5.726486e+01 4.756580e+01 6.562634e+01 4.201853e+01 4.484686e+01 4.124112e+01 3.610861e-01 9.181208e-01 2.064139e+00 8.860329e-01 1.488862e+00 1.291287e+00 2.618610e+00 2.086524e+00 1.449802e+00 1.224156e+00 1.214100e+00 1.032856e+00 1.382974e+00 4.369248e-02 1.017783e-01 1.849495e-01 1.077910e-01 1.956327e-01 1.839315e-01 3.716705e-01 2.440161e-01 1.714135e-01 2.019114e-01 1.734487e-01 1.457212e-01 9.717141e-02
<GCONST> 9.883527e+01
<STATE> 3
<MEAN> 39
 2.785051e+00 -5.490578e+00 3.787080e+00 -6.349116e+00 -4.355299e+00 -4.052404e+00 -1.118900e+01 5.985381e-02 1.079023e+00 -2.075557e+00 -3.246108e+00 -4.772332e+00 1.265174e+01 8.850916e-02 -3.508266e-01 -8.141473e-01 3.845996e-02 -2.864881e-01 3.404334e-02 8.495000e-01 5.262648e-01 4.735897e-02 4.699651e-01 2.699743e-01 -2.638858e-01 2.265173e-01 1.967043e-02 1.138521e-01 -2.709553e-02 1.169788e-01 8.838677e-02 5.964514e-02 1.762758e-01 -1.574916e-01 -1.434093e-01 -4.283354e-04 6.507969e-02 3.224395e-02 -1.916840e-01
<VARIANCE> 39
 1.135004e+01 2.722370e+01 5.535986e+01 3.005830e+01 4.620423e+01 4.091567e+01 6.703967e+01 7.917878e+01 4.750910e+01 4.371959e+01 3.819678e+01 4.121669e+01 6.138210e+01 3.790692e-01 1.032657e+00 1.881597e+00 9.089559e-01 1.584107e+00 1.088041e+00 2.202244e+00 2.554131e+00 1.441197e+00 1.503706e+00 1.172176e+00 1.010737e+00 1.419670e+00 4.342939e-02 1.229628e-01 2.167330e-01 9.728028e-02 1.850863e-01 1.300981e-01 3.308989e-01 3.226521e-01 1.597420e-01 1.502410e-01 1.412125e-01 1.147519e-01 1.790228e-01
<GCONST> 9.860253e+01
<STATE> 4
<MEAN> 39
 3.949079e+00 -2.312316e+00 3.542146e+00 -2.575623e+00 -2.894435e+00 -3.801324e+00 -8.303757e+00 -3.699000e+00 -1.115475e+00 -3.383247e-01 -3.094627e+00 -3.280821e+00 5.713539e+00 -2.946248e-02 1.738052e-01 -5.536836e-01 2.905650e-01 7.111336e-02 1.163173e-01 8.751543e-01 7.079623e-02 -5.105957e-02 2.133343e-01 2.732079e-01 2.362921e-02 -4.937591e-01 -5.371098e-02 -2.374417e-02 -6.701215e-02 -6.624434e-02 2.902838e-03 9.832399e-04 1.032467e-01 9.210236e-02 5.900278e-03 -4.510089e-02 4.763681e-02 4.602976e-02 5.074223e-02
<VARIANCE> 39
 1.084018e+01 2.479764e+01 5.024184e+01 3.041017e+01 3.805994e+01 4.418560e+01 4.991468e+01 5.586686e+01 3.987451e+01 3.133285e+01 3.468040e+01 3.367650e+01 5.110408e+01 4.385315e-01 9.090149e-01 1.390031e+00 8.992198e-01 1.173783e+00 1.106159e+00 1.611488e+00 1.871516e+00 1.121784e+00 1.007711e+00 1.135519e+00 8.670149e-01 1.322105e+00 3.432542e-02 8.305378e-02 1.134480e-01 9.407283e-02 1.026948e-01 1.300180e-01 1.758762e-01 1.855999e-01 1.168431e-01 1.002939e-01 1.243411e-01 8.957674e-02 9.988891e-02
<GCONST> 8.975945e+01
<TRANSP> 5
 0.000000e+00 1.000000e+00 0.000000e+00 0.000000e+00 0.000000e+00
 0.000000e+00 6.991052e-01 3.008948e-01 0.000000e+00 0.000000e+00
 0.000000e+00 0.000000e+00 5.282217e-01 4.717783e-01 0.000000e+00
 0.000000e+00 0.000000e+00 0.000000e+00 5.989420e-01 4.010580e-01
 0.000000e+00 0.000000e+00 0.000000e+00 0.000000e+00 0.000000e+00
<ENDHMM>
~h "m"
<BEGINHMM>
<NUMSTATES> 5
<STATE> 2
<MEAN> 39
 5.056058e+00 1.829744e-01 2.779930e+00 2.641303e+00 -1.140320e+00 -6.408653e-01 -4.093974e+00 -7.675505e+00 -5.938073e+00 -1.743596e+00 -4.535534e-01 -5.410076e+00 3.451310e+00 3.208363e-01 2.383663e-01 6.356758e-01 6.370695e-01 -3.462436e-02 7.267968e-02 -1.878072e-01 -9.543894e-01 -8.812419e-01 -7.302622e-02 1.602598e-01 -2.666707e-01 -1.894262e-01 -1.207783e-01 -1.844268e-01 -4.527774e-02 -2.704107e-01 -8.056556e-02 -2.290036e-02 1.495146e-02 2.991551e-01 1.517801e-01 -2.874326e-02 -1.708750e-02 8.786935e-02 2.576453e-01
<VARIANCE> 39
 1.044953e+01 2.175378e+01 3.424162e+01 2.480341e+01 2.987665e+01 3.629268e+01 3.519602e+01 3.723880e+01 3.630745e+01 2.515668e+01 3.598829e+01 2.700887e+01 3.345343e+01 4.478250e-01 5.384406e-01 1.271250e+00 8.088640e-01 1.282694e+00 1.125547e+00 1.011137e+00 1.074063e+00 1.091623e+00 7.901179e-01 1.199193e+00 8.650838e-01 1.049170e+00 4.922183e-02 5.258201e-02 1.363954e-01 7.865461e-02 1.084974e-01 8.871064e-02 1.096433e-01 1.356301e-01 1.408986e-01 8.572793e-02 1.157969e-01 9.596644e-02 5.051615e-02
<GCONST> 8.296875e+01
<STATE> 3
<MEAN> 39
 5.443605e+00 -1.176245e+00 5.200732e+00 3.378815e+00 -1.280522e+00 3.952770e-01 -5.344923e+00 -9.181233e+00 -8.860387e+00 -2.763015e+00 9.630035e-01 -5.638266e+00 5.173208e+00 -3.120062e-02 -5.914155e-01 -2.749877e-01 -7.280506e-01 -1.681240e-01 1.205890e-01 -3.016385e-02 6.782426e-01 2.414861e-01 -2.100500e-01 -2.638451e-02 8.654726e-02 8.588808e-01 -1.081099e-01 -1.813688e-01 -2.525199e-01 -3.883002e-01 -9.502969e-02 1.153934e-02 9.075356e-02 5.323101e-01 3.830034e-01 1.728887e-02 -9.309246e-02 7.635304e-02 2.452751e-01
<VARIANCE> 39
 7.935278e+00 1.942238e+01 3.177049e+01 2.221267e+01 2.628766e+01 4.484670e+01 3.343226e+01 3.404761e+01 3.867270e+01 2.985276e+01 4.159298e+01 2.948850e+01 2.336303e+01 3.230799e-01 6.261646e-01 1.495103e+00 9.808561e-01 1.124808e+00 9.542012e-01 9.511924e-01 1.461650e+00 1.319559e+00 8.963971e-01 1.053586e+00 7.297710e-01 8.729377e-01 4.610142e-02 6.042243e-02 2.150315e-01 9.553184e-02 1.200232e-01 1.164112e-01 1.498185e-01 1.438309e-01 2.055429e-01 1.421869e-01 1.916074e-01 1.256616e-01 6.071356e-02
<GCONST> 8.571511e+01
<STATE> 4
<MEAN> 39
 4.561105e+00 -1.718700e+00 2.270007e+00 -6.806817e-01 -2.065961e+00 -1.042130e+00 -3.834530e+00 -4.487357e+00 -4.405773e+00 -2.607558e+00 -1.132738e+00 -4.951996e+00 6.553435e+00 -1.863130e-01 -4.853547e-01 -2.118708e-01 -8.879624e-01 -4.667046e-01 1.736419e-01 3.203771e-01 1.040727e+00 3.885700e-01 -1.556457e-01 -2.538072e-02 1.030761e-01 6.948983e-01 -3.455425e-02 8.304681e-03 2.569438e-02 -4.028865e-02 -3.450996e-02 1.563094e-02 5.262204e-02 3.829675e-02 -5.915631e-03 3.204124e-02 9.698761e-03 1.049825e-02 -1.721557e-02
<VARIANCE> 39
 9.872622e+00 2.803111e+01 3.937505e+01 2.710152e+01 3.217785e+01 4.008677e+01 3.477932e+01 4.603755e+01 3.031455e+01 2.951862e+01 3.479317e+01 2.441647e+01 2.729004e+01 3.093303e-01 6.624338e-01 1.633906e+00 9.263044e-01 1.337060e+00 8.227877e-01 1.086347e+00 1.463397e+00 1.090941e+00 9.991810e-01 9.648287e-01 7.260427e-01 6.334333e-01 2.852292e-02 5.365460e-02 9.350280e-02 6.988365e-02 9.485237e-02 8.515372e-02 8.446008e-02 1.128411e-01 9.859749e-02 8.518364e-02 9.681382e-02 6.994127e-02 3.770676e-02
<GCONST> 8.028603e+01
<TRANSP> 5
 0.000000e+00 1.000000e+00 0.000000e+00 0.000000e+00 0.000000e+00
 0.000000e+00 5.736276e-01 4.263724e-01 0.000000e+00 0.000000e+00
 0.000000e+00 0.000000e+00 5.927900e-01 4.072100e-01 0.000000e+00
 0.000000e+00 0.000000e+00 0.000000e+00 6.341968e-01 3.658032e-01
 0.000000e+00 0.000000e+00 0.000000e+00 0.000000e+00 0.000000e+00
<ENDHMM>
~h "n"
<BEGINHMM>
<NUMSTATES> 5
<STATE> 2
<MEAN> 39
 4.946065e+00 -2.285224e+00 3.486366e+00 1.318143e+00 -4.504579e+00 -1.770998e+00 -4.363225e+00 -3.112950e+00 -1.901096e+00 -1.974553e+00 -4.856387e+00 -3.998632e+00 4.801434e+00 3.162757e-01 6.282334e-01 6.791297e-01 1.040345e+00 -3.959651e-01 -1.258089e-01 2.043824e-02 -1.252554e+00 -1.212117e-01 2.481389e-01 -5.701350e-01 5.698656e-02 -8.473284e-01 -8.003798e-02 -3.295553e-02 -1.274423e-01 -1.533849e-01 8.552279e-02 4.989419e-02 5.959075e-02 8.223077e-02 6.908545e-03 7.354295e-03 7.382704e-02 2.417014e-02 1.153842e-01
<VARIANCE> 39
 1.126156e+01 2.668813e+01 3.776114e+01 3.293388e+01 3.772775e+01 3.245376e+01 4.232697e+01 7.135518e+01 3.432824e+01 3.356200e+01 3.596397e+01 2.690923e+01 4.431526e+01 3.509483e-01 6.690845e-01 1.528237e+00 8.064577e-01 1.281701e+00 8.780794e-01 9.538432e-01 1.738639e+00 9.480255e-01 1.025213e+00 9.978700e-01 6.767081e-01 8.891137e-01 3.738762e-02 6.272016e-02 1.083304e-01 9.153377e-02 1.026594e-01 8.257983e-02 9.813630e-02 1.807078e-01 9.221788e-02 9.666629e-02 9.669610e-02 7.538130e-02 6.797773e-02
<GCONST> 8.439125e+01
<STATE> 3
<MEAN> 39
 5.835272e+00 -5.666983e-01 5.055803e+00 4.680363e+00 -6.550015e+00 -2.300252e+00 -3.378911e+00 -7.607026e+00 -2.129445e+00 -1.409455e+00 -6.769138e+00 -3.932297e+00 3.150671e+00 -8.478776e-02 1.229080e-01 4.771185e-02 -1.692774e-03 1.600352e-01 -6.577497e-02 2.382698e-02 -2.586617e-02 -1.917998e-01 2.413951e-02 7.167276e-03 3.652960e-02 -7.594604e-02 -2.134788e-01 -2.346115e-01 -1.842506e-01 -5.030078e-01 1.910879e-01 6.219679e-02 -1.446920e-02 5.458075e-01 -2.172466e-02 -8.369303e-02 3.278636e-01 1.389675e-03 3.497985e-01
<VARIANCE> 39
 1.026205e+01 1.864586e+01 3.061526e+01 2.452365e+01 3.084309e+01 2.679464e+01 3.154482e+01 4.571149e+01 2.993049e+01 2.916066e+01 3.490060e+01 2.439005e+01 2.745862e+01 3.163590e-01 8.255380e-01 1.064122e+00 1.001866e+00 1.095595e+00 8.576655e-01 8.794914e-01 2.018003e+00 9.081355e-01 6.746723e-01 1.000375e+00 6.138278e-01 1.039311e+00 5.823057e-02 8.029561e-02 1.760358e-01 1.177903e-01 1.633131e-01 1.307536e-01 1.246408e-01 2.015072e-01 1.173865e-01 1.300551e-01 1.478796e-01 9.808192e-02 8.248475e-02
<GCONST> 8.498563e+01
<STATE> 4
<MEAN> 39
 4.367594e+00 5.557247e-01 2.527080e+00 1.975058e+00 -3.384168e+00 -2.069281e+00 -3.398015e+00 -4.244507e+00 -2.251226e+00 -1.044829e+00 -4.658591e+00 -2.967034e+00 1.086980e+00 -3.479079e-01 -1.410206e-01 -2.327276e-01 -5.156872e-01 3.619756e-01 7.728109e-02 1.144888e-01 5.634692e-01 -6.350806e-02 -6.146888e-02 5.452130e-01 9.696986e-02 1.244020e-01 -8.264804e-02 -1.064623e-01 -1.538098e-02 -1.516035e-01 -5.915052e-03 2.548689e-02 5.045818e-02 9.302109e-02 9.065372e-03 -3.048365e-03 9.308799e-02 9.400149e-03 1.615309e-01
<VARIANCE> 39
 1.129331e+01 2.307425e+01 3.632769e+01 2.478902e+01 3.212414e+01 3.317665e+01 3.258575e+01 4.315212e+01 3.528480e+01 2.819452e+01 3.550819e+01 2.615056e+01 3.491241e+01 3.761426e-01 6.659476e-01 1.120693e+00 9.103424e-01 1.055489e+00 8.363730e-01 7.937248e-01 1.436265e+00 9.224654e-01 7.605860e-01 9.884089e-01 6.475146e-01 8.874422e-01 4.328775e-02 6.369194e-02 8.828606e-02 7.187683e-02 9.932207e-02 1.006993e-01 9.125806e-02 1.233884e-01 9.178940e-02 8.745594e-02 9.859361e-02 7.608058e-02 7.284849e-02
<GCONST> 8.089218e+01
<TRANSP> 5
 0.000000e+00 1.000000e+00 0.000000e+00 0.000000e+00 0.000000e+00
 0.000000e+00 5.180452e-01 4.819548e-01 0.000000e+00 0.000000e+00
 0.000000e+00 0.000000e+00 5.382452e-01 4.617547e-01 0.000000e+00
 0.000000e+00 0.000000e+00 0.000000e+00 6.422597e-01 3.577403e-01
 0.000000e+00 0.000000e+00 0.000000e+00 0.000000e+00 0.000000e+00
<ENDHMM>
~h "o"
<BEGINHMM>
<NUMSTATES> 5
<STATE> 2
<MEAN> 39
 2.722854e+00 7.450216e-01 -2.811066e+00 -4.400229e+00 3.474917e+00 1.322739e+00 -1.982835e+00 -3.022237e+00 -1.590619e+00 1.189520e+00 5.717461e-01 1.194781e-01 6.305340e+00 9.404153e-01 -5.623797e-02 -7.134524e-01 -1.497280e+00 -6.508756e-01 1.032868e+00 -5.470946e-01 -6.564192e-01 -6.265938e-01 5.007180e-03 5.974820e-01 1.196519e-01 1.059992e+00 3.817156e-02 7.676441e-02 7.748856e-02 -6.714977e-02 -2.463859e-01 1.103216e-01 -3.763766e-02 -4.252112e-02 -1.022050e-01 -1.037226e-01 5.623591e-02 -8.649782e-03 -1.169910e-01
<VARIANCE> 39
 2.308921e+01 2.643797e+01 4.348822e+01 4.863266e+01 4.822879e+01 4.935368e+01 6.179443e+01 3.666285e+01 4.332115e+01 3.322819e+01 2.648784e+01 2.832053e+01 6.908974e+01 9.036281e-01 9.882278e-01 1.505436e+00 1.436382e+00 1.802315e+00 1.605395e+00 1.754184e+00 1.315882e+00 1.309468e+00 1.185094e+00 1.173721e+00 9.976749e-01 2.035536e+00 1.135893e-01 1.163916e-01 1.414475e-01 1.787739e-01 1.921511e-01 1.662277e-01 1.911590e-01 1.507877e-01 1.522817e-01 1.393347e-01 1.050357e-01 1.045827e-01 2.277588e-01
<GCONST> 9.840404e+01
<STATE> 3
<MEAN> 39
 6.401637e+00 2.474385e-01 -4.601701e+00 -1.313383e+01 -4.041525e+00 7.744463e+00 -8.269412e+00 -6.779790e+00 -5.212862e+00 -3.395481e-01 5.630760e+00 -9.677851e-01 1.171831e+01 4.045267e-01 2.348412e-02 -5.640066e-02 -5.289436e-01 -4.940622e-01 4.163677e-01 -4.124220e-01 -2.161681e-01 -3.350338e-01 -2.247552e-01 1.625767e-01 -1.069554e-01 -9.875150e-03 -2.048948e-01 4.108765e-02 1.680493e-01 4.534867e-01 2.854170e-01 -3.650061e-01 2.468358e-01 1.895818e-01 1.705738e-01 -3.741794e-02 -2.912519e-01 3.826880e-02 -3.432564e-01
<VARIANCE> 39
 1.246708e+01 2.187787e+01 2.309737e+01 3.930400e+01 3.114304e+01 5.372573e+01 5.051351e+01 3.571961e+01 3.608965e+01 4.637361e+01 3.793142e+01 3.942648e+01 3.294337e+01 5.506560e-01 6.923167e-01 9.782041e-01 2.280716e+00 1.755700e+00 2.089050e+00 2.033005e+00 1.235327e+00 1.500540e+00 1.507394e+00 1.345870e+00 1.104702e+00 1.468348e+00 7.374898e-02 9.293116e-02 1.118168e-01 1.616023e-01 1.653636e-01 1.849313e-01 2.417541e-01 1.754319e-01 1.517745e-01 2.110443e-01 1.561831e-01 1.481109e-01 1.333699e-01
<GCONST> 9.603409e+01
<STATE> 4
<MEAN> 39
 6.924994e+00 2.264086e+00 -4.283796e+00 -1.052378e+01 -1.521660e+00 4.543365e+00 -4.866619e+00 -5.517891e+00 -4.955180e+00 -1.448733e+00 1.682679e+00 9.148428e-01 4.530332e+00 -2.780848e-01 2.513315e-01 1.826211e-01 9.771850e-01 4.570856e-01 -6.869529e-01 2.572705e-01 1.342103e-01 2.987108e-01 4.397319e-02 -2.962147e-01 -2.299669e-02 -8.756025e-01 -1.177872e-01 -2.910290e-02 3.005806e-02 1.237931e-01 6.111345e-02 -8.019162e-02 2.205873e-02 1.519994e-02 7.573940e-02 6.123629e-02 2.750946e-02 -1.306524e-02 1.590324e-02
<VARIANCE> 39
 1.097710e+01 2.250794e+01 2.475879e+01 6.002253e+01 3.368103e+01 5.637696e+01 4.386271e+01 3.392496e+01 3.698182e+01 3.843767e+01 2.953554e+01 3.245412e+01 4.343643e+01 4.056417e-01 7.066046e-01 6.544648e-01 1.446742e+00 9.598836e-01 1.297888e+00 1.021476e+00 8.363213e-01 8.582322e-01 9.991382e-01 8.925842e-01 7.431396e-01 1.256073e+00 3.882633e-02 7.571120e-02 6.958957e-02 1.634852e-01 1.154748e-01 1.250189e-01 1.394710e-01 1.097403e-01 1.166406e-01 1.430669e-01 1.037837e-01 1.043151e-01 1.369828e-01
<GCONST> 8.633308e+01
<TRANSP> 5
 0.000000e+00 1.000000e+00 0.000000e+00 0.000000e+00 0.000000e+00
 0.000000e+00 6.544024e-01 3.455976e-01 0.000000e+00 0.000000e+00
 0.000000e+00 0.000000e+00 7.592090e-01 2.407910e-01 0.000000e+00
 0.000000e+00 0.000000e+00 0.000000e+00 8.200068e-01 1.799931e-01
 0.000000e+00 0.000000e+00 0.000000e+00 0.000000e+00 0.000000e+00
<ENDHMM>
~h "p"
<BEGINHMM>
<NUMSTATES> 5
<STATE> 2
<MEAN> 39
 -2.592769e-01 1.832390e-01 -3.248555e+00 -8.422568e-01 1.292725e+00 -1.346381e+00 7.712858e-01 -6.691159e-01 2.347214e+00 2.032941e+00 1.770709e+00 2.538502e-01 -3.086644e-01 1.785293e-01 -7.236380e-01 -2.578920e-01 -5.740108e-01 1.274540e-01 3.887762e-01 8.707869e-03 -9.574258e-02 -1.988273e-03 -3.750938e-02 -1.446436e-01 -3.715876e-01 1.821712e+00 1.689444e-01 -1.979775e-01 -2.317608e-02 -1.468134e-01 -1.242885e-01 9.682931e-02 -1.650680e-01 8.059199e-03 -7.443690e-02 -7.867645e-02 -1.183568e-01 -1.868019e-01 3.769613e-01
<VARIANCE> 39
 2.061117e+01 2.547577e+01 3.173783e+01 2.555783e+01 3.731691e+01 3.768479e+01 3.126368e+01 2.840307e+01 2.696713e+01 2.272010e+01 2.465437e+01 2.888450e+01 7.545191e+01 8.930840e-01 8.980355e-01 1.191107e+00 1.141376e+00 1.319341e+00 1.763984e+00 1.123639e+00 1.151651e+00 1.169215e+00 9.410390e-01 8.283322e-01 1.195075e+00 3.578078e+00 8.485800e-02 8.375688e-02 1.279025e-01 1.106779e-01 1.484851e-01 1.708490e-01 1.288283e-01 1.284349e-01 1.221460e-01 9.895450e-02 9.613714e-02 1.188972e-01 3.177348e-01
<GCONST> 9.152200e+01
<STATE> 3
<MEAN> 39
 4.099403e+00 -6.802207e+00 -7.575692e+00 -8.045749e+00 -1.283931e-01 4.839664e+00 -2.150987e+00 -2.291185e+00 1.032809e+00 1.677150e+00 8.332500e-02 -6.351029e+00 1.390200e+01 5.349149e-01 -1.123991e+00 -3.984260e-01 -4.986615e-01 -3.481062e-01 2.263344e-01 -8.144768e-01 2.599975e-01 6.588324e-02 -3.595491e-01 -5.272090e-01 -8.351467e-01 1.647866e+00 -9.058870e-02 1.952562e-01 1.924254e-01 3.292034e-01 -4.628935e-02 -3.375328e-01 -3.412570e-02 1.340946e-01 2.852313e-02 -1.043554e-01 -4.572460e-02 2.284044e-01 -5.911769e-01
<VARIANCE> 39
 2.047156e+01 2.464315e+01 3.935725e+01 4.035946e+01 3.671867e+01 6.436205e+01 3.953904e+01 3.877184e+01 3.824198e+01 3.564545e+01 3.558778e+01 3.840418e+01 7.799781e+01 7.874340e-01 9.081727e-01 1.213072e+00 1.469307e+00 1.541724e+00 2.367127e+00 1.235039e+00 1.656858e+00 1.339785e+00 1.202607e+00 1.124246e+00 1.216840e+00 2.436950e+00 8.515709e-02 1.104237e-01 1.473076e-01 1.483808e-01 1.655337e-01 2.004033e-01 1.546604e-01 1.680781e-01 1.612724e-01 1.302356e-01 1.320830e-01 1.759437e-01 2.926906e-01
<GCONST> 9.870345e+01
<STATE> 4
<MEAN> 39
 3.630163e+00 -8.463116e+00 -8.092615e+00 -6.921367e+00 2.376931e+00 3.698244e+00 -3.865925e+00 -4.725312e-01 9.605269e-01 -1.076017e+00 -3.146101e+00 -6.585019e+00 1.217358e+01 7.392526e-02 -5.633993e-02 3.498470e-01 3.978656e-01 -3.533757e-01 -7.984905e-01 -2.183197e-01 3.899992e-01 5.870419e-02 -2.210426e-01 -4.875848e-01 1.348592e-01 -1.147081e-01 -4.759698e-02 2.014329e-01 1.480330e-01 1.156598e-01 -3.998941e-02 -8.911531e-02 1.176295e-01 -2.672513e-02 -4.743685e-02 1.229143e-03 3.665653e-02 1.583890e-01 -2.076622e-01
<VARIANCE> 39
 1.744571e+01 3.045632e+01 3.558637e+01 3.164818e+01 4.338107e+01 6.855051e+01 3.804772e+01 5.446689e+01 4.602979e+01 4.387000e+01 3.749255e+01 3.292440e+01 8.906205e+01 5.387517e-01 8.514348e-01 7.459642e-01 9.113784e-01 1.020370e+00 1.386734e+00 1.087325e+00 1.165596e+00 9.329814e-01 7.320820e-01 1.023880e+00 8.625914e-01 1.912858e+00 8.199933e-02 1.014510e-01 1.118287e-01 1.190310e-01 1.378621e-01 1.743916e-01 1.362393e-01 1.532163e-01 1.182796e-01 9.848915e-02 1.365356e-01 1.336491e-01 3.373730e-01
<GCONST> 9.314511e+01
<TRANSP> 5
 0.000000e+00 1.000000e+00 0.000000e+00 0.000000e+00 0.000000e+00
 0.000000e+00 7.425513e-01 2.574487e-01 0.000000e+00 0.000000e+00
 0.000000e+00 0.000000e+00 5.720010e-01 4.279989e-01 0.000000e+00
 0.000000e+00 0.000000e+00 0.000000e+00 6.287647e-01 3.712352e-01
 0.000000e+00 0.000000e+00 0.000000e+00 0.000000e+00 0.000000e+00
<ENDHMM>
~h "r"
<BEGINHMM>
<NUMSTATES> 5
<STATE> 2
<MEAN> 39
 4.248102e+00 -6.866883e+00 -1.351996e+00 -9.057488e-01 -5.224122e+00 -4.093789e+00 -6.232448e+00 1.244894e+00 4.111921e+00 -1.412469e+00 -3.823446e+00 -2.270221e+00 1.037501e+01 3.208307e-01 -2.278112e-02 6.281980e-01 7.157658e-01 -4.180093e-01 -2.614495e-01 -5.552348e-01 -1.359601e-02 -3.147904e-01 -1.687889e-01 1.884781e-01 3.869807e-01 -5.445850e-01 -3.653387e-02 1.567207e-01 -1.132802e-02 -1.430441e-01 1.323114e-01 1.962662e-01 1.041321e-01 -1.069502e-01 -2.215603e-01 8.408127e-02 1.413746e-01 -7.110287e-02 -1.266818e-01
<VARIANCE> 39
 1.655902e+01 2.869417e+01 3.299387e+01 3.368090e+01 4.708884e+01 4.292915e+01 6.003340e+01 5.412271e+01 3.879770e+01 3.190821e+01 3.307863e+01 3.171236e+01 5.616653e+01 5.520909e-01 8.679318e-01 1.185696e+00 1.254141e+00 1.594385e+00 1.362442e+00 1.419555e+00 1.818823e+00 1.237542e+00 9.636577e-01 1.077642e+00 1.236362e+00 1.628129e+00 5.775513e-02 8.645613e-02 9.876008e-02 1.466186e-01 1.724539e-01 1.459762e-01 1.839900e-01 1.825259e-01 1.431120e-01 1.272507e-01 1.229608e-01 1.335713e-01 1.296293e-01
<GCONST> 9.422475e+01
<STATE> 3
<MEAN> 39
 5.094089e+00 -6.629893e+00 1.947534e+00 5.746400e-01 -6.234312e+00 -3.858599e+00 -8.471654e+00 8.552229e-01 2.976313e-01 -1.501393e+00 -1.929193e+00 -1.208174e+00 8.556117e+00 1.182502e-01 5.428584e-01 2.426104e-01 2.415197e-01 2.707027e-01 1.273254e-01 6.758515e-02 -3.227095e-01 -5.540917e-01 1.525997e-01 2.775616e-01 7.907866e-02 -9.112248e-01 -1.214182e-01 1.378074e-01 -2.084960e-01 -2.348861e-01 1.847118e-01 1.235232e-01 2.552604e-01 -4.550355e-02 3.592889e-02 7.439087e-02 -1.988963e-02 -1.575156e-01 -3.970658e-03
<VARIANCE> 39
 1.592358e+01 2.539391e+01 4.766062e+01 3.210139e+01 5.682109e+01 4.631623e+01 5.390768e+01 5.507897e+01 5.212189e+01 3.564163e+01 3.620404e+01 3.349945e+01 3.633920e+01 4.905154e-01 8.402141e-01 1.288388e+00 9.732057e-01 1.500181e+00 1.129759e+00 1.325838e+00 1.593736e+00 1.565125e+00 1.037450e+00 1.007638e+00 8.841078e-01 1.360354e+00 4.970561e-02 8.032133e-02 1.249838e-01 1.502711e-01 1.894521e-01 1.504725e-01 1.585420e-01 1.896601e-01 1.861092e-01 1.425980e-01 1.426660e-01 1.463347e-01 1.081568e-01
<GCONST> 9.411460e+01
<STATE> 4
<MEAN> 39
 4.461063e+00 -2.104566e+00 -1.998308e+00 1.447288e-01 -1.830259e+00 -2.984326e+00 -4.793476e+00 1.029413e-01 2.839427e+00 1.004288e+00 -1.843086e+00 -2.362401e+00 9.315565e-01 -1.758458e-01 4.491139e-01 -2.148073e-01 -7.387315e-02 3.262244e-01 2.255264e-01 3.983409e-01 -8.171369e-02 -9.186672e-02 1.557582e-01 1.549164e-01 -6.618342e-02 -6.310844e-01 -7.208880e-02 -7.791342e-02 -2.439037e-02 -1.058282e-01 -2.839209e-02 3.060006e-02 5.961055e-02 4.249452e-02 -3.564957e-03 -2.763749e-02 -1.776991e-03 -1.034284e-02 1.755812e-01
<VARIANCE> 39
 1.318367e+01 2.515731e+01 3.783162e+01 2.443640e+01 3.671370e+01 3.921455e+01 3.617269e+01 4.103877e+01 3.902747e+01 3.141957e+01 2.931286e+01 3.076453e+01 4.989630e+01 3.909629e-01 7.199265e-01 9.427437e-01 7.266218e-01 9.986284e-01 8.547409e-01 8.662341e-01 1.103938e+00 1.045955e+00 7.153120e-01 6.910805e-01 7.270425e-01 1.047211e+00 4.416806e-02 6.933256e-02 8.854340e-02 8.799749e-02 1.188022e-01 1.001523e-01 1.074395e-01 1.292979e-01 1.091141e-01 1.039592e-01 8.857932e-02 9.954411e-02 8.861970e-02
<GCONST> 8.294560e+01
<TRANSP> 5
 0.000000e+00 1.000000e+00 0.000000e+00 0.000000e+00 0.000000e+00
 0.000000e+00 4.388733e-01 5.611267e-01 0.000000e+00 0.000000e+00
 0.000000e+00 0.000000e+00 4.642766e-01 5.357234e-01 0.000000e+00
 0.000000e+00 0.000000e+00 0.000000e+00 7.108103e-01 2.891897e-01
 0.000000e+00 0.000000e+00 0.000000e+00 0.000000e+00 0.000000e+00
<ENDHMM>
~h "s"
<BEGINHMM>
<NUMSTATES> 5
<STATE> 2
<MEAN> 39
 -8.526680e+00 5.193086e+00 -2.469468e+00 -6.668584e-01 5.125111e+00 -6.753184e+00 4.856357e+00 -6.991029e-01 1.806224e+00 -4.840483e-01 5.067277e-02 2.186797e+00 5.774523e+00 -1.648779e+00 9.611458e-01 -5.628422e-01 7.934470e-02 7.004941e-01 -4.017737e-01 9.697112e-01 2.579012e-02 4.902007e-01 1.146444e-01 4.639079e-01 6.024855e-01 -4.308479e-02 1.882881e-01 -2.042895e-01 4.212708e-03 -6.178910e-02 -1.942772e-01 1.178553e-01 -1.759487e-01 -1.775319e-03 -6.559633e-02 2.910227e-03 -1.911088e-02 -1.066306e-01 1.874232e-02
<VARIANCE> 39
 5.088659e+01 4.122502e+01 5.283964e+01 3.799723e+01 4.731281e+01 4.283186e+01 4.716085e+01 4.096786e+01 3.644577e+01 2.872276e+01 3.660004e+01 2.951932e+01 5.055263e+01 1.369200e+00 1.455050e+00 1.279353e+00 9.607697e-01 1.413853e+00 1.245155e+00 1.378814e+00 1.150486e+00 1.006491e+00 7.832021e-01 9.740517e-01 8.415155e-01 1.120293e+00 2.192154e-01 1.561956e-01 1.437063e-01 1.105953e-01 1.467735e-01 1.257413e-01 1.545731e-01 1.219109e-01 1.089368e-01 9.246476e-02 1.202555e-01 9.506377e-02 8.428422e-02
<GCONST> 9.454911e+01
<STATE> 3
<MEAN> 39
 -1.265856e+01 5.802997e+00 -4.119835e+00 -5.369049e-01 6.174971e+00 -7.212515e+00 7.296350e+00 -5.434130e-01 3.151938e+00 -3.475143e-01 1.278030e+00 3.820508e+00 6.447960e+00 1.482246e+00 -1.043173e+00 4.348134e-01 -2.224939e-01 -6.580976e-01 3.438650e-01 -8.541243e-01 9.295640e-02 -1.817110e-01 -7.776555e-02 -3.890105e-01 -5.101442e-01 2.706621e-01 5.219531e-01 -2.696460e-01 1.407077e-01 -1.156634e-01 -2.638098e-01 1.199075e-01 -3.739995e-01 -3.222466e-02 -1.387359e-01 -7.931714e-03 -1.235913e-01 -2.521816e-01 1.162026e-01
<VARIANCE> 39
 3.548000e+01 3.373238e+01 4.723628e+01 3.697190e+01 3.746822e+01 3.885555e+01 3.951656e+01 3.516665e+01 3.025106e+01 2.407995e+01 3.089430e+01 2.470390e+01 2.783529e+01 1.844635e+00 1.052779e+00 1.552568e+00 8.969200e-01 1.433905e+00 1.245635e+00 1.520799e+00 1.076045e+00 9.992297e-01 7.012340e-01 9.918814e-01 9.060012e-01 1.062850e+00 2.022323e-01 1.378830e-01 1.532740e-01 9.959904e-02 1.492700e-01 1.472478e-01 1.581983e-01 1.369181e-01 1.076643e-01 9.932391e-02 1.309233e-01 9.429485e-02 6.346759e-02
<GCONST> 9.186916e+01
<STATE> 4
<MEAN> 39
 7.174596e-01 -2.879322e+00 1.067265e-01 -4.089241e+00 -2.400208e+00 -5.288447e+00 -3.534528e+00 4.820406e-01 8.370632e-02 -6.415470e-01 -1.934160e+00 -2.245275e+00 1.107219e+01 1.646307e+00 -1.164710e+00 2.766302e-01 -5.860164e-01 -1.195299e+00 5.444797e-01 -1.500389e+00 -1.077138e-01 -4.815886e-01 4.118486e-02 -1.990728e-01 -9.916458e-01 4.607500e-01 -3.804790e-01 3.020495e-01 -1.381810e-01 9.665591e-02 2.414978e-01 2.703347e-02 2.950128e-01 -1.638928e-01 3.039961e-03 -2.551034e-02 1.217640e-01 1.542110e-01 -2.037424e-01
<VARIANCE> 39
 1.960691e+01 2.864380e+01 6.131530e+01 2.858218e+01 7.866256e+01 4.933598e+01 5.390387e+01 3.867342e+01 5.480885e+01 2.884222e+01 4.190039e+01 2.951567e+01 5.811205e+01 1.277931e+00 1.372710e+00 1.931136e+00 1.093098e+00 2.064920e+00 1.919285e+00 1.852079e+00 1.694968e+00 1.348021e+00 1.067735e+00 1.472590e+00 1.246987e+00 1.159941e+00 1.010504e-01 1.178472e-01 1.496736e-01 1.278291e-01 2.301955e-01 1.414253e-01 2.135390e-01 1.545850e-01 1.629638e-01 1.004130e-01 1.591823e-01 1.212778e-01 1.499294e-01
<GCONST> 9.970148e+01
<TRANSP> 5
 0.000000e+00 1.000000e+00 0.000000e+00 0.000000e+00 0.000000e+00
 0.000000e+00 8.335764e-01 1.664235e-01 0.000000e+00 0.000000e+00
 0.000000e+00 0.000000e+00 7.912561e-01 2.087439e-01 0.000000e+00
 0.000000e+00 0.000000e+00 0.000000e+00 6.231534e-01 3.768466e-01
 0.000000e+00 0.000000e+00 0.000000e+00 0.000000e+00 0.000000e+00
<ENDHMM>
~h "t"
<BEGINHMM>
<NUMSTATES> 5
<STATE> 2
<MEAN> 39
 4.941616e-01 4.140792e-01 -3.545349e+00 -1.303778e-01 -9.219065e-01 -3.112800e+00 -7.628690e-01 -5.935246e-01 2.368488e+00 2.062546e+00 1.394633e+00 1.095585e-01 -4.397930e+00 -6.710579e-01 -2.529513e-01 3.194024e-01 -2.522761e-01 1.987901e-01 -1.712783e-01 6.326069e-01 -2.725451e-02 -4.661806e-02 -1.406828e-01 2.146137e-01 4.457621e-01 7.022485e-01 1.644303e-02 -6.622337e-02 3.098162e-01 -8.382816e-02 -5.626459e-02 -2.664445e-02 -7.835719e-02 -5.525107e-02 -1.491980e-01 -1.220957e-01 -6.799629e-02 -9.319821e-02 5.499070e-01
<VARIANCE> 39
 2.116850e+01 2.903664e+01 4.483916e+01 2.719107e+01 3.393972e+01 3.862451e+01 3.219176e+01 3.992392e+01 3.921721e+01 2.614908e+01 3.192537e+01 3.174281e+01 3.103730e+01 6.830939e-01 8.505921e-01 1.534345e+00 7.728788e-01 1.020062e+00 9.303202e-01 1.109940e+00 9.595017e-01 1.019739e+00 7.713166e-01 8.232372e-01 8.087149e-01 2.172995e+00 1.134166e-01 1.151951e-01 1.809209e-01 9.740084e-02 1.798933e-01 1.560997e-01 1.863075e-01 1.573412e-01 1.451540e-01 1.157733e-01 1.347701e-01 1.364404e-01 2.107566e-01
<GCONST> 9.147993e+01
<STATE> 3
<MEAN> 39
 -3.216657e+00 -1.917340e+00 2.232428e+00 -1.837316e+00 -1.102782e+00 -4.698109e+00 2.501246e+00 -1.318692e+00 -9.124431e-01 3.522261e-01 2.736856e+00 2.246772e+00 3.168200e+00 -9.787019e-02 -2.687697e-01 8.122457e-01 -3.318569e-01 -2.247583e-01 -1.057037e-01 -2.998208e-02 -1.099713e-01 -3.332940e-01 -3.111252e-01 -1.631824e-01 -1.791755e-01 1.563164e+00 2.366113e-01 1.995456e-02 -3.794712e-04 -3.604622e-02 -1.623736e-01 1.358551e-01 -3.141460e-01 -1.997743e-02 -3.922985e-02 -1.188712e-02 -1.443348e-01 -2.718643e-01 5.872425e-02
<VARIANCE> 39
 2.412429e+01 2.935430e+01 6.494407e+01 2.921755e+01 6.171002e+01 4.157513e+01 5.582373e+01 3.884326e+01 5.427924e+01 2.995834e+01 3.451252e+01 3.947093e+01 6.259813e+01 6.678154e-01 9.972346e-01 2.942936e+00 1.026070e+00 1.972164e+00 1.442500e+00 1.536110e+00 1.784279e+00 2.078347e+00 1.121950e+00 1.214300e+00 1.212055e+00 2.690536e+00 9.376755e-02 1.051486e-01 2.588416e-01 1.000224e-01 2.353183e-01 1.591599e-01 2.516116e-01 1.622730e-01 1.835779e-01 1.271198e-01 1.563566e-01 1.682000e-01 2.350328e-01
<GCONST> 1.014425e+02
<STATE> 4
<MEAN> 39
 -3.068816e+00 -1.645141e+00 7.812903e-01 -1.231616e+00 1.747247e+00 -4.588527e+00 3.971361e+00 -7.162356e-01 1.717180e+00 -9.618227e-01 6.742802e-01 2.257923e+00 5.722744e+00 3.969202e-01 -3.410651e-01 7.990911e-01 -5.567061e-01 -5.037484e-01 1.876210e-01 -7.818607e-01 -1.334461e-01 -4.067450e-01 -2.958812e-01 -4.524047e-01 -7.755342e-01 1.815088e+00 2.499901e-01 4.014530e-02 -3.615729e-02 -3.894580e-02 -2.485228e-01 1.535784e-01 -3.528878e-01 -3.096749e-02 -1.145179e-01 9.132589e-02 -4.598929e-02 -2.336451e-01 -1.829140e-01
<VARIANCE> 39
 2.498399e+01 2.678651e+01 3.504910e+01 2.286835e+01 4.197652e+01 3.741566e+01 5.466772e+01 3.104711e+01 3.320293e+01 2.585176e+01 3.086098e+01 2.744959e+01 4.358244e+01 7.759258e-01 1.137002e+00 2.918718e+00 1.085041e+00 1.718734e+00 1.841995e+00 1.729783e+00 2.341174e+00 2.136952e+00 1.192015e+00 1.406011e+00 1.330415e+00 2.435208e+00 6.746210e-02 9.649204e-02 1.177536e-01 8.022358e-02 1.365750e-01 1.286096e-01 1.720780e-01 1.139461e-01 1.098324e-01 9.438370e-02 1.148583e-01 9.978860e-02 1.433681e-01
<GCONST> 9.431664e+01
<TRANSP> 5
 0.000000e+00 1.000000e+00 0.000000e+00 0.000000e+00 0.000000e+00
 0.000000e+00 6.951297e-01 3.048703e-01 0.000000e+00 0.000000e+00
 0.000000e+00 0.000000e+00 3.757798e-01 6.242201e-01 0.000000e+00
 0.000000e+00 0.000000e+00 0.000000e+00 4.397768e-01 5.602232e-01
 0.000000e+00 0.000000e+00 0.000000e+00 0.000000e+00 0.000000e+00
<ENDHMM>
~h "u"
<BEGINHMM>
<NUMSTATES> 5
<STATE> 2
<MEAN> 39
 3.346741e+00 9.139744e-01 -3.526736e+00 -2.469155e+00 -6.888161e-01 -2.363829e-02 -3.392941e+00 -2.518154e+00 -1.340638e+00 9.035366e-01 9.017954e-01 3.655256e-01 7.524443e-02 2.765240e-01 3.082915e-01 -2.005059e-01 -4.330749e-01 4.933010e-02 4.708405e-01 -1.150862e-02 -3.163451e-01 -5.218500e-01 -1.206048e-01 2.385642e-01 1.345389e-01 2.840931e-02 -3.473996e-02 -2.937241e-02 1.077496e-01 -3.681220e-02 -7.502679e-04 1.326602e-02 -3.719740e-02 -6.224392e-03 -5.242572e-02 -6.421164e-02 -1.451735e-02 -4.167840e-02 1.449977e-01
<VARIANCE> 39
 2.251643e+01 2.549277e+01 3.064767e+01 3.812120e+01 4.666741e+01 4.476851e+01 5.315558e+01 4.357803e+01 4.583003e+01 3.820078e+01 3.425953e+01 3.345036e+01 6.690172e+01 8.327911e-01 6.129352e-01 8.566948e-01 1.093099e+00 1.156251e+00 1.263770e+00 1.372815e+00 1.197106e+00 1.315779e+00 9.465967e-01 9.367175e-01 7.980804e-01 1.044484e+00 7.854158e-02 7.046612e-02 9.800537e-02 1.514663e-01 1.352443e-01 1.381180e-01 1.714037e-01 1.495890e-01 1.629729e-01 1.504261e-01 1.250557e-01 1.014048e-01 1.380373e-01
<GCONST> 9.220351e+01
<STATE> 3
<MEAN> 39
 6.559370e-01 3.279285e+00 -2.215995e+00 -2.739629e+00 1.425282e+00 4.053403e-01 -1.189296e+00 -2.690226e+00 -3.119488e+00 -9.564823e-01 7.650400e-01 1.000242e+00 2.247020e+00 3.265568e-01 -6.296278e-03 1.273264e-01 -6.467695e-01 -2.399087e-01 3.939131e-01 -4.754684e-01 -4.746101e-01 -6.209575e-01 -1.638999e-01 2.207388e-01 -1.584569e-01 8.947216e-01 -1.243072e-02 -1.154708e-01 1.048017e-01 8.031560e-02 -4.890341e-02 -7.719093e-02 -1.132578e-01 1.107631e-02 7.983302e-02 6.240898e-02 1.411716e-02 -7.340291e-02 7.791566e-02
<VARIANCE> 39
 7.424686e+01 3.617479e+01 4.427447e+01 5.757948e+01 5.903996e+01 6.372505e+01 6.039054e+01 4.442639e+01 4.961132e+01 3.387247e+01 3.346502e+01 3.386161e+01 7.644904e+01 1.987627e+00 1.048769e+00 1.280212e+00 2.116008e+00 1.820390e+00 2.129186e+00 2.197948e+00 1.414404e+00 1.688903e+00 1.092341e+00 1.178841e+00 1.174890e+00 2.156079e+00 1.830429e-01 1.156799e-01 1.532415e-01 2.262564e-01 2.179612e-01 1.888281e-01 2.446444e-01 1.703544e-01 2.071893e-01 1.550198e-01 1.553341e-01 1.263170e-01 2.038761e-01
<GCONST> 1.057221e+02
<STATE> 4
<MEAN> 39
 6.411821e+00 -3.621513e-02 -1.903254e+00 -6.160988e+00 -1.586381e+00 3.697357e+00 -8.752625e+00 -6.384774e+00 -5.810092e+00 1.979195e-01 3.147789e+00 -2.032606e+00 7.461182e+00 -3.173636e-01 -1.488993e-01 4.891138e-01 6.106696e-01 3.120566e-01 -6.353382e-01 -9.733199e-02 1.702117e-01 5.770313e-01 1.121907e-01 -1.539433e-01 -1.231944e-01 6.695326e-02 -2.466236e-01 3.144911e-02 6.951286e-02 1.948242e-01 6.174132e-02 -2.355121e-01 2.961429e-01 2.004138e-01 1.964050e-01 -3.325356e-02 -1.368478e-01 1.163364e-01 -1.981948e-01
<VARIANCE> 39
 1.727058e+01 2.388086e+01 3.174185e+01 5.493243e+01 4.325191e+01 6.014938e+01 5.462787e+01 4.888783e+01 5.930057e+01 4.170698e+01 4.136308e+01 4.001139e+01 4.064999e+01 1.059379e+00 9.338885e-01 1.075107e+00 1.668722e+00 1.932944e+00 1.861338e+00 2.360785e+00 1.862614e+00 1.862868e+00 1.328943e+00 1.406083e+00 1.155495e+00 2.170341e+00 1.103295e-01 1.087167e-01 1.305454e-01 2.610179e-01 2.021989e-01 2.371986e-01 2.602630e-01 2.063011e-01 2.877838e-01 1.868115e-01 2.022016e-01 1.556323e-01 2.065377e-01
<GCONST> 1.036251e+02
<TRANSP> 5
 0.000000e+00 1.000000e+00 0.000000e+00 0.000000e+00 0.000000e+00
 0.000000e+00 5.798450e-01 4.201550e-01 0.000000e+00 0.000000e+00
 0.000000e+00 0.000000e+00 5.826926e-01 4.173075e-01 0.000000e+00
 0.000000e+00 0.000000e+00 0.000000e+00 7.708427e-01 2.291573e-01
 0.000000e+00 0.000000e+00 0.000000e+00 0.000000e+00 0.000000e+00
<ENDHMM>
~h "v"
<BEGINHMM>
<NUMSTATES> 5
<STATE> 2
<MEAN> 39
 2.285363e+00 -5.433389e-01 -5.365650e+00 -7.221929e+00 8.761466e-01 6.909796e-01 -6.351084e-01 -2.486050e+00 -1.643837e+00 1.126011e+00 1.639642e-01 -5.386912e-01 6.911128e+00 2.193046e-01 5.401824e-01 2.746211e-01 4.521590e-01 4.922372e-01 1.538458e-01 3.744926e-01 1.930839e-01 1.991105e-01 -4.080097e-01 -2.002930e-01 1.181971e-01 -4.407900e-01 1.061689e-01 -1.425924e-03 4.519891e-02 6.900327e-03 -8.183255e-02 1.953069e-03 -9.070265e-02 -3.994425e-02 1.002527e-01 -8.923108e-02 9.049889e-03 -1.214565e-01 -2.018665e-03
<VARIANCE> 39
 1.015009e+01 2.323976e+01 2.556658e+01 4.964040e+01 3.460876e+01 3.985097e+01 1.657471e+01 2.407767e+01 2.595953e+01 2.724725e+01 4.584687e+01 4.633529e+01 6.635126e+01 7.476698e-01 7.803997e-01 8.268670e-01 1.954492e+00 1.340670e+00 2.306170e+00 7.807859e-01 9.012257e-01 1.127906e+00 7.147633e-01 1.576217e+00 1.056567e+00 6.759708e-01 5.618319e-02 9.328440e-02 8.007120e-02 1.499103e-01 1.369732e-01 1.624308e-01 1.030457e-01 8.105806e-02 1.549952e-01 1.127848e-01 1.582604e-01 1.541248e-01 5.505145e-02
<GCONST> 8.762024e+01
<STATE> 3
<MEAN> 39
 6.452705e+00 3.578083e+00 -3.200592e+00 -5.897911e+00 1.025559e+00 3.297199e+00 -1.590015e+00 -4.089870e+00 -1.013992e+00 -1.549544e+00 -1.408427e+00 -1.420860e+00 4.492916e+00 8.695982e-02 2.609200e-01 4.501414e-01 6.556416e-01 2.332626e-01 -4.969374e-01 3.205167e-01 2.903176e-01 6.365539e-01 -3.641285e-01 -2.919387e-01 -1.469199e-02 -3.790028e-01 -1.797694e-01 -1.866055e-01 -1.046545e-01 -1.498242e-01 -1.241159e-01 -1.117160e-01 2.615283e-03 1.451149e-01 -1.750883e-02 3.618970e-02 1.466695e-01 5.580640e-02 1.891621e-01
<VARIANCE> 39
 1.232837e+01 1.912226e+01 3.334590e+01 1.066616e+02 6.336581e+01 2.608548e+01 1.941056e+01 1.694247e+01 2.693558e+01 2.679695e+01 2.230007e+01 1.403396e+01 4.424482e+01 6.604372e-01 5.849876e-01 5.544035e-01 8.477004e-01 1.776414e+00 9.725253e-01 6.224018e-01 7.707226e-01 7.375826e-01 7.480121e-01 1.131011e+00 8.059982e-01 1.170048e+00 4.307223e-02 4.848614e-02 5.012475e-02 1.341017e-01 2.164748e-01 9.684787e-02 5.804484e-02 9.081499e-02 1.064633e-01 7.895851e-02 9.815557e-02 7.889022e-02 5.737825e-02
<GCONST> 7.943396e+01
<STATE> 4
<MEAN> 39
 2.893442e+00 -1.591462e+00 -3.583597e+00 -3.212487e+00 4.686461e-01 -4.695407e+00 6.361138e-01 -8.174689e-01 2.542848e+00 -1.836148e+00 -2.266290e+00 -1.335552e+00 5.669746e+00 -3.275355e-01 -5.085974e-01 2.323909e-01 -1.742154e-01 -5.968048e-01 -5.208821e-01 2.470202e-01 5.879117e-01 1.658401e-02 -4.078766e-01 2.918575e-01 2.021355e-01 2.478078e-01 -1.067549e-02 4.433847e-03 3.493262e-02 -1.494293e-01 -4.196922e-03 1.794394e-01 -2.395243e-02 -8.143125e-02 -2.320537e-01 4.462468e-03 3.756956e-02 3.304678e-02 1.373326e-01
<VARIANCE> 39
 7.953526e+00 3.319920e+01 1.676481e+01 4.644252e+01 4.969918e+01 3.642647e+01 1.989568e+01 1.559797e+01 2.897482e+01 3.255106e+01 5.354121e+01 2.239107e+01 7.812993e+01 2.790033e-01 5.853752e-01 5.949315e-01 5.897732e-01 2.148153e+00 8.252066e-01 5.428345e-01 3.487931e-01 1.036668e+00 6.665200e-01 1.164137e+00 6.468934e-01 5.643325e-01 4.205608e-02 1.133297e-01 6.920680e-02 1.061989e-01 1.408168e-01 1.001361e-01 9.605945e-02 3.953761e-02 8.134478e-02 7.376438e-02 8.599045e-02 8.111486e-02 1.174043e-01
<GCONST> 7.795243e+01
<TRANSP> 5
 0.000000e+00 1.000000e+00 0.000000e+00 0.000000e+00 0.000000e+00
 0.000000e+00 5.698991e-01 4.301009e-01 0.000000e+00 0.000000e+00
 0.000000e+00 0.000000e+00 6.968920e-01 3.031079e-01 0.000000e+00
 0.000000e+00 0.000000e+00 0.000000e+00 6.614118e-01 3.385882e-01
 0.000000e+00 0.000000e+00 0.000000e+00 0.000000e+00 0.000000e+00
<ENDHMM>
~h "w"
<BEGINHMM>
<NUMSTATES> 5
<STATE> 2
<MEAN> 39
 2.771569e+00 3.223251e-01 -1.175507e+00 -5.281776e-01 7.441992e-01 -3.159915e-01 -2.337451e+00 -2.878052e+00 -1.212394e+00 -6.493469e-01 -2.153072e-01 -1.855368e+00 3.163902e+00 4.454755e-01 1.419322e-01 -2.715781e-01 -1.013680e-01 2.973023e-01 4.060468e-01 -2.146211e-01 -3.732304e-01 -1.387578e-01 7.316931e-02 2.316526e-01 -1.733280e-01 -9.959356e-02 -2.872305e-02 -1.426274e-01 1.327732e-02 -1.399029e-01 -1.340953e-01 2.170895e-02 2.024949e-02 8.076996e-02 5.967699e-03 4.885977e-03 1.396466e-02 -3.683534e-02 1.938256e-01
<VARIANCE> 39
 3.632836e+01 3.557724e+01 4.291843e+01 4.595675e+01 3.656665e+01 5.105745e+01 5.066578e+01 4.497672e+01 3.142532e+01 2.999121e+01 3.050762e+01 3.017008e+01 7.456455e+01 1.077300e+00 6.168129e-01 1.328147e+00 1.023135e+00 1.516688e+00 1.384961e+00 1.128334e+00 1.152877e+00 1.182107e+00 9.478495e-01 9.101033e-01 8.545596e-01 1.350730e+00 1.095738e-01 8.621743e-02 9.939213e-02 1.189853e-01 1.561087e-01 1.382073e-01 1.472735e-01 1.369847e-01 1.147445e-01 1.004443e-01 1.053196e-01 9.538674e-02 1.158954e-01
<GCONST> 9.268527e+01
<STATE> 3
<MEAN> 39
 5.841333e+00 -1.505712e-01 -1.679260e+00 -2.030258e+00 1.017526e+00 3.025363e+00 -4.590966e+00 -4.917842e+00 -3.155569e+00 -7.580570e-01 1.817520e+00 -2.594245e+00 4.061182e+00 1.830566e-01 -4.563556e-01 -2.876464e-01 -7.423958e-01 -2.334529e-01 2.222398e-01 -7.605456e-02 7.719173e-02 9.877664e-02 1.635975e-01 2.697240e-01 -2.340276e-01 7.995306e-01 -2.090169e-01 -1.824460e-01 3.373941e-02 -6.427619e-02 -1.809373e-01 -2.007196e-01 1.220608e-01 2.810203e-01 1.511396e-01 2.333324e-02 -1.173713e-01 -3.385739e-02 2.511912e-01
<VARIANCE> 39
 1.655318e+01 3.054404e+01 3.056397e+01 5.525274e+01 2.970169e+01 4.079882e+01 4.034592e+01 3.525647e+01 2.617474e+01 2.964615e+01 3.428868e+01 2.294172e+01 4.590015e+01 7.711174e-01 8.047359e-01 1.174361e+00 1.333975e+00 1.405966e+00 1.678993e+00 1.303313e+00 1.162941e+00 1.154501e+00 1.047146e+00 8.811516e-01 9.185314e-01 1.690111e+00 7.929511e-02 8.865308e-02 9.190045e-02 1.206001e-01 1.768862e-01 1.222474e-01 1.640532e-01 1.570199e-01 1.364048e-01 1.388209e-01 1.544655e-01 1.231535e-01 1.284534e-01
<GCONST> 9.165878e+01
<STATE> 4
<MEAN> 39
 5.678718e+00 -2.100077e+00 -4.951441e+00 -6.610316e+00 3.033328e-01 3.495281e+00 -3.153368e+00 -3.580932e+00 -1.679502e+00 8.373687e-01 1.170637e+00 -3.260907e+00 6.349265e+00 -2.154405e-01 -4.253990e-01 -5.818189e-02 -1.030343e-01 -1.403713e-01 -1.984415e-01 1.887575e-01 4.288333e-01 2.934397e-01 8.660820e-02 -1.347655e-01 -2.166094e-01 3.973814e-01 -8.402339e-02 -3.383994e-02 6.934420e-02 8.359209e-02 -1.819604e-02 -1.115626e-01 4.362564e-02 8.516177e-02 2.714017e-02 -6.421275e-02 -1.029556e-01 8.354601e-03 3.348251e-02
<VARIANCE> 39
 1.564202e+01 2.515055e+01 3.990524e+01 5.373009e+01 3.461454e+01 5.610562e+01 3.774488e+01 3.591684e+01 3.100397e+01 3.274797e+01 3.600690e+01 2.843248e+01 4.340244e+01 4.527456e-01 8.116723e-01 9.130156e-01 1.146087e+00 1.143423e+00 1.187527e+00 9.285806e-01 1.072089e+00 9.242660e-01 8.205192e-01 8.649088e-01 9.016125e-01 1.229492e+00 4.195188e-02 6.087112e-02 6.735969e-02 1.061170e-01 1.139283e-01 1.025262e-01 1.077928e-01 1.045529e-01 8.886120e-02 8.967767e-02 1.082961e-01 8.350901e-02 7.167493e-02
<GCONST> 8.473772e+01
<TRANSP> 5
 0.000000e+00 1.000000e+00 0.000000e+00 0.000000e+00 0.000000e+00
 0.000000e+00 4.173215e-01 5.826785e-01 0.000000e+00 0.000000e+00
 0.000000e+00 0.000000e+00 5.427761e-01 4.572239e-01 0.000000e+00
 0.000000e+00 0.000000e+00 0.000000e+00 6.637437e-01 3.362563e-01
 0.000000e+00 0.000000e+00 0.000000e+00 0.000000e+00 0.000000e+00
<ENDHMM>
~h "y"
<BEGINHMM>
<NUMSTATES> 5
<STATE> 2
<MEAN> 39
 5.153765e-01 -2.026909e+00 2.642663e+00 -1.482085e+00 -4.669303e+00 -3.851936e+00 -9.765829e-02 2.187325e+00 -3.559229e-01 -2.348750e-01 5.001193e-01 -5.456704e-01 4.046155e+00 -9.200116e-02 -2.301951e-02 -3.418064e-01 -7.965585e-02 2.632461e-01 1.245541e-02 2.291505e-01 1.524679e-01 3.092929e-01 -8.202920e-02 -2.042854e-01 6.395227e-02 3.845101e-03 2.098734e-02 2.465521e-02 6.690124e-02 -5.413328e-02 8.115267e-02 1.108057e-01 -7.172965e-02 -1.412670e-01 -9.169530e-02 -5.643375e-02 -7.200063e-02 -8.418954e-02 5.907469e-02
<VARIANCE> 39
 2.006649e+01 3.661599e+01 4.760590e+01 3.345403e+01 6.523386e+01 4.895667e+01 4.600580e+01 5.238923e+01 4.161115e+01 2.979160e+01 3.427630e+01 3.227054e+01 9.464172e+01 6.163917e-01 8.345756e-01 2.435593e+00 7.192665e-01 1.880263e+00 1.043603e+00 1.063366e+00 1.575046e+00 1.500365e+00 1.007084e+00 1.190225e+00 9.164686e-01 1.215330e+00 5.157529e-02 9.226170e-02 1.394120e-01 8.575881e-02 2.078498e-01 1.363870e-01 1.194620e-01 1.455545e-01 1.288833e-01 1.130834e-01 1.148410e-01 9.933982e-02 1.466572e-01
<GCONST> 9.395695e+01
<STATE> 3
<MEAN> 39
 -1.417969e+00 8.975604e-02 4.773116e+00 -7.564190e-01 -2.456541e+00 -1.388855e+00 9.761510e-01 6.766471e-01 -1.235838e+00 -2.369687e-01 9.761900e-02 -4.444668e-01 2.548617e+00 2.274961e-01 -4.175251e-02 6.014771e-01 -5.254341e-01 -3.897351e-01 -2.263822e-02 -4.076947e-01 -1.944488e-01 -4.365450e-01 -3.483820e-01 -1.259507e-01 -4.067973e-01 8.147835e-01 9.255698e-02 -2.880448e-02 3.132906e-02 -8.171492e-02 -5.494409e-02 3.263093e-02 -1.130848e-01 -5.740811e-02 -8.675956e-02 -4.533988e-02 1.448073e-02 -6.124003e-02 9.234782e-02
<VARIANCE> 39
 2.749041e+01 4.446713e+01 5.853352e+01 3.552685e+01 7.799604e+01 5.280264e+01 4.409902e+01 5.609554e+01 4.479142e+01 3.129914e+01 3.224911e+01 2.942661e+01 1.028407e+02 7.631090e-01 1.068037e+00 3.588888e+00 9.350006e-01 2.424590e+00 1.195297e+00 1.573821e+00 1.870182e+00 1.789515e+00 1.107312e+00 1.419083e+00 9.649399e-01 1.751829e+00 7.182541e-02 9.385739e-02 1.935841e-01 9.453443e-02 2.380881e-01 1.446378e-01 1.451763e-01 1.741861e-01 1.565168e-01 1.164128e-01 1.338160e-01 1.006967e-01 1.539996e-01
<GCONST> 9.977580e+01
<STATE> 4
<MEAN> 39
 3.603625e-01 -9.520693e-01 2.412545e+00 -1.586616e+00 -3.844728e+00 -2.786036e+00 6.322504e-01 1.592892e+00 -5.566341e-01 -6.650085e-01 -2.983657e-01 -2.070565e-01 1.840466e+00 9.196804e-02 -1.081461e-02 -8.178657e-02 -1.200326e-01 1.188742e-01 1.366919e-01 -3.746573e-02 -4.310605e-02 2.025287e-02 -1.342134e-01 -1.338465e-01 -1.307707e-01 9.351267e-02 2.701057e-03 -7.331750e-03 -2.634024e-02 -7.749318e-04 4.778133e-02 3.891623e-02 -3.975821e-03 -3.284554e-02 -1.349519e-02 9.025480e-03 -6.527436e-03 -9.592552e-03 1.360521e-02
<VARIANCE> 39
 1.903413e+01 4.038512e+01 6.212161e+01 3.020535e+01 4.974297e+01 3.775472e+01 3.839704e+01 6.826047e+01 3.730658e+01 2.603997e+01 3.036817e+01 2.932463e+01 8.186161e+01 3.986111e-01 5.276638e-01 1.627214e+00 6.792579e-01 1.446724e+00 7.545938e-01 8.707303e-01 9.913555e-01 9.775040e-01 7.715648e-01 8.929920e-01 6.174966e-01 9.250824e-01 3.305158e-02 4.800909e-02 9.104349e-02 5.181763e-02 1.088540e-01 6.870873e-02 8.200754e-02 1.101344e-01 9.558261e-02 7.568720e-02 8.185598e-02 6.798699e-02 5.146284e-02
<GCONST> 8.237827e+01
<TRANSP> 5
 0.000000e+00 1.000000e+00 0.000000e+00 0.000000e+00 0.000000e+00
 0.000000e+00 2.965768e-01 7.034231e-01 0.000000e+00 0.000000e+00
 0.000000e+00 0.000000e+00 4.806916e-01 5.193084e-01 0.000000e+00
 0.000000e+00 0.000000e+00 0.000000e+00 6.754407e-01 3.245593e-01
 0.000000e+00 0.000000e+00 0.000000e+00 0.000000e+00 0.000000e+00
<ENDHMM>
~h "z"
<BEGINHMM>
<NUMSTATES> 5
<STATE> 2
<MEAN> 39
 -3.937394e+00 4.062988e+00 -4.117575e+00 5.117226e+00 6.039189e+00 1.081459e+00 3.308526e+00 4.049059e-01 2.094921e+00 -2.114012e+00 -6.750196e-01 1.231877e+00 -3.277323e+00 -2.754025e-01 5.563752e-01 2.337582e-01 4.425823e-02 2.447885e-01 -2.170399e-01 4.592773e-02 -4.965813e-02 -1.026961e-01 -1.908829e-01 -2.064638e-01 1.318005e-02 1.171045e-01 1.629692e-01 -1.090060e-01 1.895408e-01 -2.889641e-01 -2.452569e-01 -2.212380e-01 -1.845375e-01 5.898731e-02 -3.635485e-02 8.138079e-02 -1.709324e-01 -8.493979e-02 3.505443e-01
<VARIANCE> 39
 3.970933e+01 1.369666e+01 2.710817e+01 2.143444e+01 1.461617e+01 3.023593e+01 3.053538e+01 2.114470e+01 1.698555e+01 3.830714e+01 3.029623e+01 3.852190e+01 9.394969e+01 5.417520e-01 6.988657e-01 3.089261e-01 4.676663e-01 4.530585e-01 5.665966e-01 6.758271e-01 3.401872e-01 2.081552e-01 2.238205e-01 7.433670e-01 5.024886e-01 2.646780e-01 7.234522e-02 2.088134e-01 4.636031e-02 1.779485e-01 1.113976e-01 6.277883e-02 8.761329e-02 2.268025e-01 8.056593e-02 1.007763e-01 1.280037e-01 6.606007e-02 1.782460e-01
<GCONST> 7.468658e+01
<STATE> 3
<MEAN> 39
 -6.394313e+00 4.966287e+00 -2.389901e+00 5.407525e+00 7.390921e+00 6.027731e-01 4.749143e+00 1.241947e+00 9.164082e-01 -2.502579e-01 1.502596e+00 3.215892e+00 -7.121700e+00 7.989336e-01 6.283089e-01 8.027689e-01 -2.040950e-01 -6.514766e-01 -7.739484e-01 -5.521577e-01 -5.992276e-01 -5.851939e-01 -3.478605e-01 -7.624608e-01 -6.836441e-01 8.931857e-01 3.233348e-01 3.047837e-02 1.290069e-01 -1.215805e-01 -3.396544e-01 -2.591501e-01 -2.455392e-01 -1.762026e-01 -2.389879e-02 -2.525629e-02 -1.085216e-01 -9.859749e-02 3.518717e-01
<VARIANCE> 39
 3.469104e+01 1.472651e+01 2.827405e+01 1.960272e+01 1.951372e+01 2.199685e+01 2.295403e+01 1.695844e+01 1.700618e+01 2.511965e+01 1.910740e+01 2.089818e+01 7.493406e+01 1.275826e+00 5.842819e-01 4.419124e-01 3.421155e-01 7.023689e-01 5.689517e-01 5.868612e-01 1.343556e+00 9.815481e-01 4.940917e-01 5.128173e-01 8.120754e-01 4.592867e-01 8.123299e-02 1.782827e-01 4.228615e-02 8.587947e-02 1.483763e-01 5.045837e-02 1.013266e-01 1.649063e-01 6.432587e-02 4.836041e-02 9.471239e-02 6.624053e-02 1.111548e-01
<GCONST> 7.502473e+01
<STATE> 4
<MEAN> 39
 -2.122782e+00 1.085941e+01 3.005269e+00 4.575731e+00 4.122194e+00 -7.615222e+00 1.999070e+00 -4.990367e+00 -1.810262e+00 -2.807320e+00 -1.692732e+00 1.859875e+00 1.211811e+00 2.572497e-01 -4.233271e-01 5.137317e-01 -7.670897e-01 -7.674839e-01 -1.031311e+00 -6.636789e-01 2.291250e-02 -1.394916e-01 -2.005245e-01 5.694595e-02 -6.889856e-02 1.829421e+00 6.554011e-02 -3.130501e-01 -5.420858e-02 -7.715333e-02 -1.964431e-01 1.549524e-01 -8.981718e-02 2.398091e-01 3.108688e-02 5.207257e-02 7.723036e-02 -4.551268e-02 3.415154e-02
<VARIANCE> 39
 4.154557e+01 4.176189e+01 4.165490e+01 4.657490e+01 4.317614e+01 5.085210e+01 3.103199e+01 4.000437e+01 3.680818e+01 2.060766e+01 1.718820e+01 2.582426e+01 8.827570e+01 2.427208e+00 3.131071e+00 8.237701e-01 9.677862e-01 2.589236e+00 9.690667e-01 1.402924e+00 2.232395e+00 1.067628e+00 4.192999e-01 6.869190e-01 7.283661e-01 1.158751e+00 2.900907e-01 1.855766e-01 1.320484e-01 8.923297e-02 3.345617e-01 1.404685e-01 1.420522e-01 1.707936e-01 1.057649e-01 4.049019e-02 7.556404e-02 1.304231e-01 1.159053e-01
<GCONST> 9.487881e+01
<TRANSP> 5
 0.000000e+00 1.000000e+00 0.000000e+00 0.000000e+00 0.000000e+00
 0.000000e+00 2.441006e-01 7.558994e-01 0.000000e+00 0.000000e+00
 0.000000e+00 0.000000e+00 5.312949e-01 4.687051e-01 0.000000e+00
 0.000000e+00 0.000000e+00 0.000000e+00 8.501613e-01 1.498387e-01
 0.000000e+00 0.000000e+00 0.000000e+00 0.000000e+00 0.000000e+00
<ENDHMM>
~h "aa"
<BEGINHMM>
<NUMSTATES> 5
<STATE> 2
<MEAN> 39
 2.347389e+00 -8.169618e+00 -7.492404e+00 -7.559131e+00 2.750312e+00 3.607363e+00 -8.528303e-01 2.007629e+00 2.754441e+00 -2.224608e+00 -5.233298e+00 -6.665245e+00 1.402477e+01 1.043195e-01 -7.274500e-01 -8.397766e-01 -5.334118e-01 4.977525e-01 7.838264e-01 1.330192e-01 1.353951e-01 7.483166e-03 -3.692983e-01 -5.095281e-01 -7.617216e-01 7.774651e-01 -2.939644e-02 1.725116e-01 2.194436e-01 1.848719e-01 -4.630688e-02 -1.799411e-01 -3.098300e-02 -9.636169e-02 -1.109799e-01 5.628838e-02 1.279394e-01 1.817098e-01 -2.760619e-01
<VARIANCE> 39
 1.783452e+01 2.181884e+01 3.479800e+01 2.789053e+01 4.154111e+01 5.534487e+01 4.097293e+01 4.563853e+01 3.719215e+01 3.887635e+01 3.653023e+01 3.688067e+01 5.571475e+01 5.816660e-01 6.507711e-01 1.029507e+00 8.933418e-01 1.396757e+00 1.274440e+00 1.176356e+00 1.312568e+00 1.093115e+00 1.041694e+00 1.145497e+00 9.528028e-01 1.116165e+00 8.164907e-02 8.447579e-02 1.299866e-01 9.874596e-02 1.496837e-01 1.417706e-01 1.438593e-01 1.561804e-01 1.156915e-01 1.080850e-01 1.345859e-01 1.362570e-01 1.138649e-01
<GCONST> 9.104488e+01
<STATE> 3
<MEAN> 39
 3.489816e+00 -1.030182e+01 -7.591014e+00 -8.329627e+00 2.948790e+00 3.663985e+00 -1.908754e+00 2.837137e+00 1.873578e+00 -2.631666e+00 -5.836947e+00 -8.293232e+00 1.439415e+01 2.452064e-01 3.854023e-01 4.942091e-01 5.102839e-01 -1.831440e-01 -6.440738e-01 -7.355734e-02 4.853359e-02 -1.037362e-01 1.507495e-01 3.617386e-02 3.442396e-01 -8.064119e-01 -6.565033e-04 2.336490e-01 1.488800e-01 1.622353e-01 -7.549997e-02 -1.156275e-01 1.391729e-03 -9.741122e-02 2.029820e-04 7.424631e-02 9.125976e-02 1.620621e-01 -2.560793e-01
<VARIANCE> 39
 1.471151e+01 2.009272e+01 3.033993e+01 2.660176e+01 3.558448e+01 6.071822e+01 3.900798e+01 4.294017e+01 3.720350e+01 5.076988e+01 3.856833e+01 3.375069e+01 4.364260e+01 3.857427e-01 7.373849e-01 7.838920e-01 6.688122e-01 1.046822e+00 1.271050e+00 9.955079e-01 1.153477e+00 7.686011e-01 8.270807e-01 8.530366e-01 8.317342e-01 1.020496e+00 5.187800e-02 7.000920e-02 1.033789e-01 7.443845e-02 1.327255e-01 1.602048e-01 1.253313e-01 1.467150e-01 1.015538e-01 1.123916e-01 1.194462e-01 1.010802e-01 8.487628e-02
<GCONST> 8.570933e+01
<STATE> 4
<MEAN> 39
 3.505520e+00 -4.144831e+00 -7.087582e+00 -3.084744e+00 3.226035e+00 1.386003e+00 6.239044e-01 1.618519e+00 2.623245e+00 -4.099212e-02 -3.698554e+00 -3.713236e+00 1.661265e+00 -6.382032e-02 4.097640e-01 1.072721e-01 3.281065e-01 -9.740841e-02 -8.721408e-02 3.497292e-02 -8.624008e-02 9.525021e-03 8.186266e-02 1.667112e-01 2.713893e-01 -6.413041e-01 -4.202893e-02 -1.267232e-02 2.128949e-02 -3.492643e-02 -5.156976e-03 1.761134e-02 8.091977e-03 -1.407176e-03 -4.634334e-03 -9.024752e-03 8.579689e-03 -4.638452e-03 6.213008e-02
<VARIANCE> 39
 1.211236e+01 2.370320e+01 2.764191e+01 2.702024e+01 3.267445e+01 4.238554e+01 3.431545e+01 3.682525e+01 3.404203e+01 3.374052e+01 2.873142e+01 2.901932e+01 6.242339e+01 2.802706e-01 5.242477e-01 6.120066e-01 5.888157e-01 7.539241e-01 7.384123e-01 7.104908e-01 7.532924e-01 6.232079e-01 6.053083e-01 6.106536e-01 6.548942e-01 7.080919e-01 3.314639e-02 4.703630e-02 5.506202e-02 5.844797e-02 7.873584e-02 7.812570e-02 7.514577e-02 8.810347e-02 7.214168e-02 7.038037e-02 7.236400e-02 7.158655e-02 4.936850e-02
<GCONST> 7.398297e+01
<TRANSP> 5
 0.000000e+00 1.000000e+00 0.000000e+00 0.000000e+00 0.000000e+00
 0.000000e+00 7.087660e-01 2.912340e-01 0.000000e+00 0.000000e+00
 0.000000e+00 0.000000e+00 7.499471e-01 2.500529e-01 0.000000e+00
 0.000000e+00 0.000000e+00 0.000000e+00 8.130550e-01 1.869449e-01
 0.000000e+00 0.000000e+00 0.000000e+00 0.000000e+00 0.000000e+00
<ENDHMM>
~h "ai"
<BEGINHMM>
<NUMSTATES> 5
<STATE> 2
<MEAN> 39
 3.148716e+00 -8.338178e+00 2.109904e+00 -4.727045e+00 -5.218529e+00 -4.966195e+00 2.456515e+00 6.870920e+00 -5.267144e-01 -2.721187e+00 -7.056546e-01 -1.705459e+00 1.158649e+01 -3.239574e-01 9.636667e-01 -3.122757e-02 9.217493e-01 6.731083e-01 -2.918424e-01 9.241554e-02 -4.647401e-01 5.672873e-01 3.103338e-01 3.432886e-01 7.062113e-01 2.060676e-02 -3.181605e-01 4.535448e-01 -1.896811e-01 2.087048e-01 2.543739e-01 1.323167e-01 2.378998e-01 -2.335998e-01 8.470754e-02 3.846257e-02 4.818392e-02 1.596797e-01 -3.240010e-01
<VARIANCE> 39
 3.766993e+00 1.011685e+01 1.722750e+01 4.041980e+01 1.015438e+01 1.140086e+01 5.306798e+01 3.979641e+01 1.965017e+01 2.913268e+01 7.846226e+00 1.666992e+01 1.487653e+01 7.680575e-01 1.742938e+00 1.073637e+00 1.374973e+00 8.510359e-01 5.378448e-01 1.062764e+00 1.680330e+00 4.589299e-01 1.052601e+00 5.235835e-01 7.484517e-01 1.088764e+00 7.207658e-02 5.692993e-02 9.115770e-02 1.425715e-01 1.186428e-01 7.226163e-02 1.388286e-01 1.383767e-01 5.473066e-02 1.720665e-01 7.673622e-02 8.912211e-02 2.964488e-02
<GCONST> 7.537477e+01
<STATE> 3
<MEAN> 39
 -7.285777e+00 8.195743e+00 -6.315335e+00 5.769183e+00 3.767437e+00 -1.275428e+00 8.891364e+00 -1.381399e+00 4.172764e+00 -1.335652e+00 2.729730e+00 3.226182e+00 4.418533e+00 -1.750549e+00 1.641762e+00 -1.092489e+00 2.948332e-01 7.090061e-01 3.163640e-01 7.401815e-01 -3.911961e-01 6.491124e-01 2.287592e-01 6.535208e-01 3.448402e-02 -7.171108e-01 2.351849e-01 -4.778626e-01 2.607134e-01 -3.459203e-01 -2.302226e-01 -1.253681e-01 -1.673084e-01 1.985035e-01 -1.663093e-01 2.768543e-02 -9.307128e-03 -1.863938e-01 1.958921e-01
<VARIANCE> 39
 6.126218e+01 3.237835e+01 4.838631e+01 1.735187e+01 3.792171e+01 4.971543e+01 3.009474e+01 2.481660e+01 2.085359e+01 2.770872e+01 2.347899e+01 1.745006e+01 8.960178e+00 1.580691e+00 1.991733e+00 1.686213e+00 1.464989e+00 1.477992e+00 1.220961e+00 7.798460e-01 8.113224e-01 8.128129e-01 6.977993e-01 5.961389e-01 7.286762e-01 5.239437e-01 2.614376e-01 1.190784e-01 2.882524e-01 1.076959e-01 1.786803e-01 1.027166e-01 8.923014e-02 6.517855e-02 7.006451e-02 1.051964e-01 6.750207e-02 5.478921e-02 4.089770e-02
<GCONST> 8.507072e+01
<STATE> 4
<MEAN> 39
 -6.910207e+00 4.108461e+00 1.581232e-01 2.430941e-01 -5.787889e-01 -5.855991e+00 2.187712e+00 4.914926e-01 -1.638030e+00 -9.011882e-01 5.295447e+00 1.733470e-01 7.576741e+00 1.000701e+00 -1.211634e+00 1.186487e+00 -1.870153e-01 -1.026139e+00 -3.355235e-01 -8.811422e-01 2.997898e-01 -8.799747e-01 -1.367841e-01 1.014927e+00 -8.929985e-01 4.212025e-02 1.123201e-01 6.368838e-02 4.268975e-03 3.316701e-02 1.026043e-01 -5.726476e-02 1.385569e-01 -8.176414e-02 4.106277e-02 -4.470788e-03 -1.607984e-01 2.012972e-02 -1.279711e-01
<VARIANCE> 39
 7.547825e+01 9.442221e+01 6.554848e+01 1.719287e+01 1.097065e+02 2.757406e+01 9.507049e+01 2.535295e+01 9.839010e+01 1.772676e+01 4.563477e+01 2.491921e+01 2.195225e+01 3.289735e+00 3.640126e+00 1.849941e+00 7.078800e-01 4.207355e+00 2.770835e-01 3.981857e+00 4.437565e-01 1.745721e+00 5.759310e-01 1.022956e+00 5.628754e-01 1.590942e+00 3.679267e-01 6.102297e-01 3.302732e-01 4.056263e-02 7.115960e-01 5.314677e-02 4.556526e-01 8.840134e-02 3.918267e-01 1.363483e-01 2.389972e-01 6.105878e-02 2.217619e-01
<GCONST> 1.034042e+02
<TRANSP> 5
 0.000000e+00 1.000000e+00 0.000000e+00 0.000000e+00 0.000000e+00
 0.000000e+00 8.400854e-01 1.599145e-01 0.000000e+00 0.000000e+00
 0.000000e+00 0.000000e+00 8.259203e-01 1.740797e-01 0.000000e+00
 0.000000e+00 0.000000e+00 0.000000e+00 6.053760e-01 3.946241e-01
 0.000000e+00 0.000000e+00 0.000000e+00 0.000000e+00 0.000000e+00
<ENDHMM>
~h "au"
<BEGINHMM>
<NUMSTATES> 5
<STATE> 2
<MEAN> 39
 3.433827e+00 -1.614815e+00 2.069799e-01 -5.369726e+00 -2.723923e+00 2.412996e-01 -3.705937e+00 1.095561e+00 -1.017513e+00 -3.023602e+00 -2.252026e+00 -1.174652e+00 9.790783e+00 -3.332175e-02 -6.797887e-02 -7.849560e-01 -7.923943e-01 3.157627e-01 5.818039e-01 2.675226e-01 3.598880e-02 3.033668e-01 3.601218e-01 2.822388e-01 1.598428e-01 5.808421e-01 -4.629609e-02 -4.477682e-02 -1.018970e-01 -1.221428e-01 -6.267600e-02 7.696733e-02 3.215312e-02 -4.422484e-02 -8.808971e-03 6.137107e-02 1.529412e-01 -1.045010e-01 1.255097e-01
<VARIANCE> 39
 2.247938e+01 2.902470e+01 3.071559e+01 7.893418e+01 5.016135e+01 8.195058e+01 1.014938e+02 3.490856e+01 4.322094e+01 4.563986e+01 3.175015e+01 4.795055e+01 5.585769e+01 6.746305e-01 8.170394e-01 1.684405e+00 1.839016e+00 1.257831e+00 1.872034e+00 3.209924e+00 9.106403e-01 1.148371e+00 1.849809e+00 1.003701e+00 1.978725e+00 3.121764e+00 6.330602e-02 8.481919e-02 9.985384e-02 2.070075e-01 1.430043e-01 2.101918e-01 2.795378e-01 9.219340e-02 1.476599e-01 1.636511e-01 1.285640e-01 2.383569e-01 2.596058e-01
<GCONST> 1.015995e+02
<STATE> 3
<MEAN> 39
 1.044625e+00 -4.848295e+00 -7.571106e+00 -1.063963e+01 -1.140767e+00 4.203360e+00 -1.904884e+00 -1.637268e+00 2.888081e-01 2.618069e+00 8.002753e-01 -4.757659e+00 1.839618e+01 1.456215e-01 -4.584801e-01 -9.788524e-01 -5.555993e-01 -6.440897e-02 8.220589e-01 2.618237e-01 -4.553296e-02 9.885524e-02 2.595589e-01 4.558394e-01 -3.656639e-01 4.846002e-01 1.712032e-01 3.931006e-02 2.397701e-01 3.195899e-01 -2.592122e-04 -1.005903e-01 -1.693500e-01 -3.158451e-03 -2.917268e-02 -2.009176e-01 -4.848420e-02 4.623909e-02 -4.319366e-01
<VARIANCE> 39
 1.210885e+01 1.241405e+01 1.791925e+01 2.318313e+01 2.217137e+01 4.254206e+01 9.929984e+01 2.759927e+01 4.140015e+01 2.514075e+01 3.704633e+01 2.836120e+01 3.754527e+01 6.274416e-01 3.947930e-01 9.884623e-01 2.307104e+00 8.243337e-01 2.463070e+00 4.039009e+00 1.094605e+00 1.240243e+00 1.496763e+00 1.520011e+00 1.441600e+00 1.786630e+00 4.679428e-02 4.082752e-02 7.486711e-02 1.322939e-01 1.017577e-01 2.214193e-01 5.157213e-01 1.555200e-01 2.031513e-01 1.759971e-01 1.308375e-01 1.376109e-01 7.727562e-02
<GCONST> 9.152215e+01
<STATE> 4
<MEAN> 39
 6.391746e+00 -5.010648e+00 -7.675489e+00 -1.243401e+01 -7.201920e-01 9.044038e+00 -3.514186e+00 -4.286651e+00 -1.015812e-01 2.569692e+00 2.809220e+00 -4.616925e+00 9.805983e+00 2.272633e-01 -1.886297e-02 -6.965172e-02 7.977337e-01 3.903792e-02 -3.556778e-01 5.276316e-02 4.292015e-02 3.591545e-02 -2.111520e-01 -1.114865e-01 1.310702e-01 -7.280386e-01 -1.031653e-01 6.572191e-02 1.647984e-01 2.421217e-01 2.331663e-03 -2.989482e-01 -4.259959e-02 8.005390e-02 8.845921e-02 -4.052074e-02 -1.415967e-01 5.431312e-02 -5.430820e-02
<VARIANCE> 39
 9.476565e+00 2.336487e+01 1.737540e+01 4.761460e+01 2.289177e+01 5.229531e+01 4.141299e+01 3.214799e+01 3.000241e+01 4.036414e+01 3.441960e+01 4.241218e+01 6.569483e+01 4.401814e-01 5.604996e-01 5.841661e-01 1.540216e+00 8.413082e-01 2.505507e+00 1.668283e+00 7.301925e-01 1.024817e+00 8.742301e-01 9.453335e-01 1.111512e+00 1.089880e+00 4.127071e-02 5.130922e-02 8.474535e-02 1.425315e-01 8.612114e-02 1.823634e-01 1.705104e-01 8.678657e-02 1.251337e-01 1.073722e-01 1.357066e-01 1.702658e-01 1.244968e-01
<GCONST> 8.700922e+01
<TRANSP> 5
 0.000000e+00 1.000000e+00 0.000000e+00 0.000000e+00 0.000000e+00
 0.000000e+00 6.604785e-01 3.395215e-01 0.000000e+00 0.000000e+00
 0.000000e+00 0.000000e+00 7.612670e-01 2.387330e-01 0.000000e+00
 0.000000e+00 0.000000e+00 0.000000e+00 8.471256e-01 1.528744e-01
 0.000000e+00 0.000000e+00 0.000000e+00 0.000000e+00 0.000000e+00
<ENDHMM>
~h "ax"
<BEGINHMM>
<NUMSTATES> 5
<STATE> 2
<MEAN> 39
 5.706378e+00 -5.411929e+00 3.466436e+00 4.620522e+00 -4.975467e+00 -7.689475e-01 -4.579221e-01 4.611458e+00 -8.638109e-01 -2.340654e+00 -6.521205e+00 3.567133e-01 7.791292e+00 2.058694e-01 2.424677e-01 3.292444e-01 7.826248e-01 -4.413044e-01 -1.075013e-01 5.404286e-01 -3.264169e-01 -5.621294e-03 -5.848969e-01 2.028178e-01 1.060219e-01 -2.846253e-01 -1.441346e-02 1.061603e-01 -3.374695e-02 3.538663e-02 5.705511e-02 -4.254546e-02 -1.450318e-01 -7.896970e-02 -3.340008e-02 -6.659648e-02 5.786075e-02 -1.756249e-01 -1.461686e-01
<VARIANCE> 39
 7.871651e+00 2.261227e+01 1.975653e+01 4.987829e+01 2.118155e+01 2.169296e+01 3.827901e+01 7.008527e+01 3.409891e+01 2.587277e+01 1.366778e+01 1.262285e+01 2.918607e+01 2.664274e-01 1.098370e+00 8.071439e-01 1.365816e+00 9.811082e-01 6.889821e-01 1.595592e+00 2.717124e+00 1.386120e+00 8.471481e-01 6.919766e-01 7.712622e-01 1.603457e+00 3.294848e-02 1.123957e-01 1.050098e-01 1.866939e-01 1.449036e-01 9.108678e-02 2.264797e-01 3.278576e-01 1.651954e-01 1.377826e-01 9.903402e-02 5.834347e-02 1.501371e-01
<GCONST> 8.574115e+01
<STATE> 3
<MEAN> 39
 5.749098e+00 1.982438e+00 7.286985e+00 7.281024e+00 -6.228380e+00 -2.694391e+00 -4.372240e+00 1.423732e+00 -3.340486e+00 -8.516255e+00 9.093648e-01 -3.064308e+00 3.097414e+00 -7.614245e-03 4.687593e-01 -4.053750e-01 5.213535e-02 5.235175e-01 -1.291521e-01 -6.872017e-01 4.457255e-02 7.619039e-02 -1.787086e-01 -3.190729e-01 -6.505249e-01 -7.122729e-01 -2.942091e-02 -3.087272e-01 -2.536432e-01 -1.963881e-01 1.311607e-01 4.567107e-03 2.390195e-01 2.175687e-01 1.433774e-01 1.796219e-01 -2.176930e-01 1.398859e-01 -4.088776e-02
<VARIANCE> 39
 1.032375e+01 2.208780e+01 1.185749e+01 2.323398e+01 2.811555e+01 2.505257e+01 5.423901e+01 3.141446e+01 2.185313e+01 1.396151e+01 5.418753e+01 1.399498e+01 2.870078e+01 1.046046e-01 1.024518e+00 6.093733e-01 2.062713e-01 1.387020e+00 6.992978e-01 2.395937e+00 9.636248e-01 7.696579e-01 3.103240e-01 2.329700e+00 5.663868e-01 5.275874e-01 1.984087e-02 9.831241e-02 7.341869e-02 3.466928e-02 1.304987e-01 9.189450e-02 3.252234e-01 1.351763e-01 9.261028e-02 5.297341e-02 2.783188e-01 6.351361e-02 4.559331e-02
<GCONST> 7.493495e+01
<STATE> 4
<MEAN> 39
 6.027214e+00 6.973717e-01 2.967941e+00 8.492744e+00 -1.911916e+00 -2.708259e+00 6.792612e-01 1.152569e+00 1.559366e+00 -7.573546e+00 -6.891575e+00 -4.827859e+00 -7.352046e-01 -4.548737e-01 -6.172032e-01 -1.475250e+00 -1.212654e+00 9.365822e-01 -4.682581e-02 4.360192e-01 8.225167e-01 2.889090e-01 7.629523e-01 -3.939972e-02 2.148009e-02 -8.556370e-01 -2.312524e-01 -2.050378e-01 1.178599e-01 -3.532688e-01 -1.713503e-01 -4.700651e-02 5.567890e-02 -9.685225e-02 -1.480336e-01 1.584731e-01 3.626097e-01 4.044834e-01 3.058514e-01
<VARIANCE> 39
 4.139971e+00 2.480977e+01 1.295127e+01 2.902607e+01 1.470963e+01 1.319440e+01 3.464231e+01 1.931246e+01 1.213048e+01 1.546890e+01 1.952120e+01 1.563539e+01 1.827265e+01 3.587266e-01 4.583865e-01 4.292750e-01 4.455103e-01 8.661620e-01 1.544885e+00 1.002641e+00 1.428864e+00 6.008008e-01 1.013849e-01 1.381786e+00 3.386337e-01 1.513268e-01 1.844319e-02 7.547946e-02 1.328554e-01 3.762326e-02 1.283709e-01 5.325526e-02 2.151637e-01 7.990821e-02 8.755817e-02 6.817405e-02 3.334857e-02 5.248218e-02 8.012563e-02
<GCONST> 6.470127e+01
<TRANSP> 5
 0.000000e+00 1.000000e+00 0.000000e+00 0.000000e+00 0.000000e+00
 0.000000e+00 8.938933e-01 1.061067e-01 0.000000e+00 0.000000e+00
 0.000000e+00 0.000000e+00 7.707794e-01 2.292206e-01 0.000000e+00
 0.000000e+00 0.000000e+00 0.000000e+00 5.416785e-01 4.583215e-01
 0.000000e+00 0.000000e+00 0.000000e+00 0.000000e+00 0.000000e+00
<ENDHMM>
~h "bh"
<BEGINHMM>
