~o
<STREAMINFO> 1 39
<VECSIZE> 39<NULLD><MFCC_D_A_Z_0><DIAGC>
~h "proto"
<BEGINHMM>
<NUMSTATES> 5
<STATE> 2
<MEAN> 39
 8.697785e-08 1.521318e-07 -7.237253e-07 -9.522517e-08 -2.966306e-08 2.414260e-07 6.406331e-08 4.225847e-07 2.971770e-07 1.889692e-08 2.312973e-07 7.169064e-08 -1.307725e-07 2.462036e-03 2.964042e-03 1.216742e-03 2.254611e-04 -2.793551e-03 -4.017594e-04 -6.822354e-04 -8.771704e-04 -1.414439e-03 3.255609e-05 -9.316968e-04 -1.221519e-03 -2.333460e-03 -5.117982e-06 2.013351e-06 -5.302790e-05 6.258571e-05 -5.880378e-05 4.551314e-05 5.048899e-05 -7.249831e-06 8.399923e-05 1.892399e-05 5.981601e-05 -1.448808e-05 9.696031e-05
<VARIANCE> 39
 3.189457e+01 4.023101e+01 5.530277e+01 4.898729e+01 5.626028e+01 4.880570e+01 4.913875e+01 4.593038e+01 4.224508e+01 3.005474e+01 3.550993e+01 4.040126e+01 1.216266e+02 6.595405e-01 7.263343e-01 1.006109e+00 8.460178e-01 1.131246e+00 9.194851e-01 9.827268e-01 1.008182e+00 8.846576e-01 6.907966e-01 7.801630e-01 7.466270e-01 1.279391e+00 6.989172e-02 7.712794e-02 9.946193e-02 9.627107e-02 1.305455e-01 1.036393e-01 1.174289e-01 1.215235e-01 1.044889e-01 8.759014e-02 9.746399e-02 9.154143e-02 1.237017e-01
<GCONST> 9.001393e+01
<STATE> 3
<MEAN> 39
 8.697785e-08 1.521318e-07 -7.237253e-07 -9.522517e-08 -2.966306e-08 2.414260e-07 6.406331e-08 4.225847e-07 2.971770e-07 1.889692e-08 2.312973e-07 7.169064e-08 -1.307725e-07 2.462036e-03 2.964042e-03 1.216742e-03 2.254611e-04 -2.793551e-03 -4.017594e-04 -6.822354e-04 -8.771704e-04 -1.414439e-03 3.255609e-05 -9.316968e-04 -1.221519e-03 -2.333460e-03 -5.117982e-06 2.013351e-06 -5.302790e-05 6.258571e-05 -5.880378e-05 4.551314e-05 5.048899e-05 -7.249831e-06 8.399923e-05 1.892399e-05 5.981601e-05 -1.448808e-05 9.696031e-05
<VARIANCE> 39
 3.189457e+01 4.023101e+01 5.530277e+01 4.898729e+01 5.626028e+01 4.880570e+01 4.913875e+01 4.593038e+01 4.224508e+01 3.005474e+01 3.550993e+01 4.040126e+01 1.216266e+02 6.595405e-01 7.263343e-01 1.006109e+00 8.460178e-01 1.131246e+00 9.194851e-01 9.827268e-01 1.008182e+00 8.846576e-01 6.907966e-01 7.801630e-01 7.466270e-01 1.279391e+00 6.989172e-02 7.712794e-02 9.946193e-02 9.627107e-02 1.305455e-01 1.036393e-01 1.174289e-01 1.215235e-01 1.044889e-01 8.759014e-02 9.746399e-02 9.154143e-02 1.237017e-01
<GCONST> 9.001393e+01
<STATE> 4
<MEAN> 39
 8.697785e-08 1.521318e-07 -7.237253e-07 -9.522517e-08 -2.966306e-08 2.414260e-07 6.406331e-08 4.225847e-07 2.971770e-07 1.889692e-08 2.312973e-07 7.169064e-08 -1.307725e-07 2.462036e-03 2.964042e-03 1.216742e-03 2.254611e-04 -2.793551e-03 -4.017594e-04 -6.822354e-04 -8.771704e-04 -1.414439e-03 3.255609e-05 -9.316968e-04 -1.221519e-03 -2.333460e-03 -5.117982e-06 2.013351e-06 -5.302790e-05 6.258571e-05 -5.880378e-05 4.551314e-05 5.048899e-05 -7.249831e-06 8.399923e-05 1.892399e-05 5.981601e-05 -1.448808e-05 9.696031e-05
<VARIANCE> 39
 3.189457e+01 4.023101e+01 5.530277e+01 4.898729e+01 5.626028e+01 4.880570e+01 4.913875e+01 4.593038e+01 4.224508e+01 3.005474e+01 3.550993e+01 4.040126e+01 1.216266e+02 6.595405e-01 7.263343e-01 1.006109e+00 8.460178e-01 1.131246e+00 9.194851e-01 9.827268e-01 1.008182e+00 8.846576e-01 6.907966e-01 7.801630e-01 7.466270e-01 1.279391e+00 6.989172e-02 7.712794e-02 9.946193e-02 9.627107e-02 1.305455e-01 1.036393e-01 1.174289e-01 1.215235e-01 1.044889e-01 8.759014e-02 9.746399e-02 9.154143e-02 1.237017e-01
<GCONST> 9.001393e+01
<TRANSP> 5
 0.000000e+00 1.000000e+00 0.000000e+00 0.000000e+00 0.000000e+00
 0.000000e+00 6.000000e-01 4.000000e-01 0.000000e+00 0.000000e+00
 0.000000e+00 0.000000e+00 6.000000e-01 4.000000e-01 0.000000e+00
 0.000000e+00 0.000000e+00 0.000000e+00 7.000000e-01 3.000000e-01
 0.000000e+00 0.000000e+00 0.000000e+00 0.000000e+00 0.000000e+00
<ENDHMM>
