~o
<STREAMINFO> 1 39
<VECSIZE> 39<NULLD><MFCC_D_A_Z_0><DIAGC>
~h "a"
<BEGINHMM>
<NUMSTATES> 5
<STATE> 2
<MEAN> 39
 4.183935e-01 -3.702873e-01 -9.172118e-02 -3.876176e-01 -2.805032e-01 -4.530123e-01 -3.996576e-01 6.338280e-03 -3.103196e-02 -2.694682e-02 -1.645298e-01 -3.147695e-01 8.422236e-01 3.775642e-03 5.219482e-03 3.811193e-03 -6.001300e-04 -6.116399e-03 1.163165e-04 -9.816131e-04 -3.212200e-03 -3.909020e-03 2.381477e-03 1.325666e-03 -1.411345e-03 -2.696994e-03 -2.058179e-04 1.940915e-04 -2.776264e-05 1.675162e-04 1.057207e-04 2.484844e-04 1.423536e-04 -1.352838e-04 4.040573e-05 3.495724e-05 -1.904371e-05 9.129682e-05 -3.210961e-05
<VARIANCE> 39
 3.291332e+01 4.059476e+01 5.633954e+01 4.765263e+01 5.699753e+01 4.968009e+01 5.160327e+01 4.754605e+01 4.357039e+01 3.137190e+01 3.642028e+01 4.099018e+01 1.171813e+02 7.090449e-01 7.932577e-01 1.053837e+00 8.972871e-01 1.202999e+00 9.767869e-01 1.056576e+00 1.085230e+00 9.427088e-01 7.401492e-01 8.207173e-01 7.877056e-01 1.417593e+00 7.530619e-02 8.486649e-02 1.045522e-01 1.027882e-01 1.383439e-01 1.108045e-01 1.261046e-01 1.316478e-01 1.109443e-01 9.352665e-02 1.023348e-01 9.725105e-02 1.387475e-01
<GCONST> 9.202046e+01
<STATE> 3
<MEAN> 39
 4.302374e-01 -3.489139e-01 -8.000718e-02 -3.872764e-01 -2.994208e-01 -4.492034e-01 -4.015859e-01 -5.996438e-03 -4.402693e-02 -1.834819e-02 -1.608990e-01 -3.180133e-01 8.314147e-01 2.992993e-03 5.764916e-03 3.459342e-03 7.237242e-06 -5.709118e-03 8.857924e-04 -5.856405e-04 -3.629513e-03 -3.694903e-03 2.441333e-03 1.244276e-03 -1.104613e-03 -2.759573e-03 -2.275305e-04 1.307719e-04 -1.066006e-04 1.894045e-04 1.370175e-04 2.169322e-04 1.149511e-04 -8.208289e-05 8.996785e-05 8.441561e-06 -3.164210e-05 9.810641e-05 -5.428999e-05
<VARIANCE> 39
 3.280086e+01 4.058766e+01 5.639782e+01 4.758915e+01 5.685954e+01 4.965607e+01 5.156934e+01 4.752491e+01 4.357396e+01 3.135700e+01 3.645898e+01 4.091547e+01 1.173008e+02 7.087682e-01 7.910453e-01 1.053943e+00 8.970933e-01 1.203695e+00 9.766926e-01 1.055854e+00 1.085245e+00 9.433140e-01 7.405055e-01 8.221148e-01 7.875552e-01 1.419236e+00 7.530375e-02 8.468952e-02 1.045543e-01 1.027812e-01 1.383441e-01 1.107869e-01 1.261175e-01 1.316257e-01 1.109487e-01 9.355383e-02 1.025137e-01 9.730732e-02 1.388054e-01
<GCONST> 9.201338e+01
<STATE> 4
<MEAN> 39
 4.772528e-01 -3.681076e-01 -5.511517e-02 -4.759319e-01 -3.707952e-01 -4.959209e-01 -4.158278e-01 -1.378906e-02 -6.840549e-02 -2.813774e-02 -2.093275e-01 -3.774025e-01 9.858427e-01 1.617841e-03 6.739947e-03 1.828881e-03 1.545374e-03 -3.915279e-03 2.303219e-03 3.497317e-04 -3.516884e-03 -2.536980e-03 2.128419e-03 8.068430e-04 -2.422968e-04 -4.658829e-03 -2.241036e-04 9.354154e-05 -1.385476e-04 1.658945e-04 1.561296e-04 1.485946e-04 1.054311e-04 -1.747054e-05 1.390998e-04 -2.725968e-05 -5.134278e-05 5.643876e-05 -1.689733e-04
<VARIANCE> 39
 3.219242e+01 4.041549e+01 5.533342e+01 4.715717e+01 5.589204e+01 4.915328e+01 5.079866e+01 4.686423e+01 4.273136e+01 3.105985e+01 3.619245e+01 4.042759e+01 1.192685e+02 6.860598e-01 7.656634e-01 1.028369e+00 8.692135e-01 1.177830e+00 9.514571e-01 1.030016e+00 1.057572e+00 9.182633e-01 7.236804e-01 8.053676e-01 7.699879e-01 1.378050e+00 7.280972e-02 8.195285e-02 1.019862e-01 9.951524e-02 1.350558e-01 1.080564e-01 1.230421e-01 1.282592e-01 1.081557e-01 9.136070e-02 1.004256e-01 9.512284e-02 1.341961e-01
<GCONST> 9.118224e+01
<TRANSP> 5
 0.000000e+00 1.000000e+00 0.000000e+00 0.000000e+00 0.000000e+00
 0.000000e+00 7.177320e-01 2.822680e-01 0.000000e+00 0.000000e+00
 0.000000e+00 0.000000e+00 7.177298e-01 2.822702e-01 0.000000e+00
 0.000000e+00 0.000000e+00 0.000000e+00 8.451761e-01 1.548239e-01
 0.000000e+00 0.000000e+00 0.000000e+00 0.000000e+00 0.000000e+00
<ENDHMM>
~h "b"
<BEGINHMM>
<NUMSTATES> 5
<STATE> 2
<MEAN> 39
 5.969498e-01 -2.112745e-01 -3.142990e-01 -2.888745e-01 3.227961e-01 2.456868e-02 -4.201273e-01 4.172678e-02 3.868154e-02 -2.867293e-01 -2.932614e-01 -1.260715e-01 8.274506e-01 1.718936e-02 -3.961263e-03 -1.936445e-04 -2.548258e-02 -1.518866e-02 -1.167747e-02 -1.740713e-02 -1.053844e-02 -3.845438e-03 -2.544257e-03 -3.155324e-03 -1.090372e-02 3.080699e-02 -7.887166e-05 2.838245e-04 -3.383099e-04 9.633441e-04 2.647390e-04 3.010379e-04 -1.794133e-05 -1.663589e-04 -4.891590e-05 1.051756e-04 -1.799058e-04 -1.018785e-04 -6.026691e-04
<VARIANCE> 39
 3.537611e+01 4.075169e+01 5.304263e+01 5.294558e+01 5.802886e+01 5.127659e+01 5.217786e+01 5.279014e+01 4.617730e+01 3.070058e+01 3.683255e+01 4.137006e+01 1.140759e+02 7.600264e-01 8.947100e-01 1.076254e+00 1.043983e+00 1.276916e+00 1.109778e+00 1.141135e+00 1.183949e+00 9.904929e-01 7.503390e-01 8.628688e-01 8.350886e-01 1.553624e+00 8.030209e-02 9.716368e-02 1.085011e-01 1.160308e-01 1.484629e-01 1.226574e-01 1.367846e-01 1.455400e-01 1.185176e-01 9.705444e-02 1.074466e-01 1.025546e-01 1.544469e-01
<GCONST> 9.433746e+01
<STATE> 3
<MEAN> 39
 6.541792e-01 -2.215744e-01 -3.180682e-01 -3.662601e-01 2.760471e-01 -8.852529e-03 -4.769242e-01 6.854873e-03 2.452680e-02 -2.933404e-01 -3.043529e-01 -1.636152e-01 9.219700e-01 1.685631e-02 -3.036255e-03 -1.063000e-03 -2.287566e-02 -1.482406e-02 -1.076711e-02 -1.751799e-02 -1.103011e-02 -4.216909e-03 -2.343205e-03 -3.886164e-03 -1.149148e-02 2.910243e-02 -1.331809e-04 3.197733e-04 -2.321273e-04 7.936774e-04 6.563991e-05 2.841385e-04 -3.486781e-05 -1.567125e-04 -8.250200e-05 7.967624e-05 -2.385922e-04 -1.508816e-04 -5.851738e-04
<VARIANCE> 39
 3.522563e+01 4.080659e+01 5.304386e+01 5.285538e+01 5.802696e+01 5.144262e+01 5.220102e+01 5.302095e+01 4.628833e+01 3.070720e+01 3.695163e+01 4.127055e+01 1.137453e+02 7.654507e-01 9.002264e-01 1.076783e+00 1.049799e+00 1.288849e+00 1.115486e+00 1.146344e+00 1.191068e+00 9.950486e-01 7.550303e-01 8.665453e-01 8.384239e-01 1.565524e+00 8.087569e-02 9.782848e-02 1.085020e-01 1.169371e-01 1.496550e-01 1.232186e-01 1.373383e-01 1.464689e-01 1.188124e-01 9.772259e-02 1.080022e-01 1.031831e-01 1.557319e-01
<GCONST> 9.448596e+01
<STATE> 4
<MEAN> 39
 7.402889e-01 -2.454671e-01 -3.265885e-01 -5.055175e-01 1.863214e-01 -6.652983e-02 -5.507585e-01 -6.212809e-02 -1.309266e-02 -2.925193e-01 -3.472260e-01 -2.418412e-01 1.070099e+00 1.595508e-02 -1.739120e-03 -2.660647e-03 -1.948977e-02 -1.370737e-02 -7.939444e-03 -1.658771e-02 -1.057171e-02 -4.157071e-03 -1.561039e-03 -4.158037e-03 -1.122843e-02 2.435858e-02 -1.402950e-04 3.008754e-04 -2.591887e-04 4.706576e-04 -3.267302e-05 2.250247e-04 -3.960960e-05 -1.235901e-04 2.758354e-05 1.052097e-04 -1.528843e-04 -7.123627e-05 -5.116662e-04
<VARIANCE> 39
 3.465128e+01 4.077463e+01 5.251751e+01 5.241071e+01 5.777608e+01 5.136746e+01 5.165499e+01 5.296270e+01 4.604489e+01 3.048453e+01 3.702571e+01 4.084014e+01 1.142312e+02 7.551882e-01 8.876154e-01 1.066516e+00 1.039963e+00 1.290796e+00 1.101315e+00 1.132675e+00 1.183092e+00 9.919226e-01 7.538296e-01 8.635107e-01 8.299718e-01 1.542601e+00 7.960675e-02 9.655100e-02 1.075421e-01 1.163758e-01 1.496077e-01 1.220685e-01 1.358245e-01 1.450267e-01 1.180220e-01 9.760106e-02 1.076130e-01 1.022489e-01 1.535186e-01
<GCONST> 9.419814e+01
<TRANSP> 5
 0.000000e+00 1.000000e+00 0.000000e+00 0.000000e+00 0.000000e+00
 0.000000e+00 7.082554e-01 2.917445e-01 0.000000e+00 0.000000e+00
 0.000000e+00 0.000000e+00 7.082441e-01 2.917559e-01 0.000000e+00
 0.000000e+00 0.000000e+00 0.000000e+00 8.305295e-01 1.694705e-01
 0.000000e+00 0.000000e+00 0.000000e+00 0.000000e+00 0.000000e+00
<ENDHMM>
~h "c"
<BEGINHMM>
<NUMSTATES> 5
<STATE> 2
<MEAN> 39
 2.440867e-01 -6.673344e-01 -8.850682e-01 -1.102011e+00 -5.120227e-03 -2.733623e-02 3.740759e-01 3.075262e-01 1.963984e-01 -3.050104e-02 -3.873347e-01 -4.529408e-01 1.213762e+00 -7.846020e-04 1.095953e-03 -8.909992e-03 1.215205e-02 8.028630e-03 1.984865e-02 8.635898e-03 9.365673e-03 9.393927e-03 4.376919e-03 -8.770508e-04 6.039307e-03 -3.036457e-02 -4.672403e-04 5.077966e-04 7.185030e-04 8.059275e-04 2.812582e-04 -4.775452e-05 2.533286e-04 -1.583236e-05 7.800522e-05 3.774250e-04 3.098244e-05 3.036461e-04 -1.076828e-03
<VARIANCE> 39
 3.408320e+01 3.968086e+01 6.108939e+01 4.716652e+01 5.428954e+01 5.191021e+01 4.971551e+01 4.650181e+01 4.347931e+01 2.994399e+01 3.602222e+01 3.917287e+01 1.048204e+02 8.020918e-01 8.068172e-01 1.016478e+00 9.167076e-01 1.173282e+00 1.020289e+00 1.013453e+00 1.017580e+00 9.052646e-01 6.917298e-01 8.235685e-01 8.188704e-01 1.362818e+00 8.901480e-02 8.382013e-02 1.054488e-01 1.038770e-01 1.361123e-01 1.098107e-01 1.218032e-01 1.200908e-01 1.083401e-01 8.818268e-02 1.016237e-01 1.002835e-01 1.321134e-01
<GCONST> 9.166954e+01
<STATE> 3
<MEAN> 39
 2.317318e-01 -6.515564e-01 -9.093713e-01 -1.052566e+00 2.622304e-02 4.395737e-02 4.082751e-01 3.378252e-01 2.320110e-01 -9.270651e-03 -3.861781e-01 -4.243492e-01 1.091992e+00 -2.823713e-03 3.077386e-03 -6.131124e-03 1.369847e-02 8.921574e-03 1.950680e-02 9.930896e-03 9.049254e-03 9.761347e-03 5.158492e-03 -4.217980e-04 7.161621e-03 -3.309191e-02 -6.891777e-04 5.902459e-04 8.392952e-04 3.912008e-04 2.155406e-04 -2.304740e-04 4.532936e-04 -9.151465e-05 7.888189e-05 1.595444e-04 1.580583e-04 4.127824e-04 -7.657068e-04
<VARIANCE> 39
 3.369129e+01 3.953919e+01 6.066669e+01 4.708880e+01 5.367583e+01 5.153165e+01 4.948154e+01 4.644869e+01 4.348659e+01 2.971981e+01 3.587273e+01 3.922331e+01 1.052350e+02 7.927889e-01 7.931604e-01 1.007795e+00 9.094906e-01 1.156946e+00 1.016462e+00 1.004247e+00 1.010415e+00 8.968004e-01 6.850955e-01 8.167931e-01 8.119007e-01 1.348954e+00 8.795565e-02 8.247550e-02 1.046122e-01 1.033268e-01 1.342384e-01 1.095108e-01 1.208174e-01 1.195142e-01 1.072962e-01 8.729126e-02 1.007234e-01 9.951783e-02 1.306105e-01
<GCONST> 9.137093e+01
<STATE> 4
<MEAN> 39
 1.413237e-01 -4.249724e-01 -8.869274e-01 -7.161022e-01 2.000564e-01 2.679884e-01 5.494946e-01 4.203663e-01 3.251696e-01 9.991659e-02 -2.896725e-01 -2.160309e-01 4.231920e-01 -6.612251e-03 6.678489e-03 -1.511465e-03 1.511178e-02 8.905709e-03 1.876351e-02 1.122747e-02 7.303280e-03 9.187320e-03 5.658855e-03 1.359034e-03 9.737501e-03 -3.565743e-02 -5.434809e-04 3.605565e-04 8.266133e-04 2.631049e-04 -4.450335e-05 -3.171602e-04 3.207965e-04 -1.236301e-04 -1.404510e-04 -9.249876e-05 1.491276e-04 4.119143e-04 -3.305745e-04
<VARIANCE> 39
 3.165982e+01 3.771595e+01 5.597224e+01 4.573528e+01 5.053404e+01 4.886719e+01 4.735699e+01 4.441565e+01 4.122770e+01 2.845597e+01 3.425413e+01 3.773856e+01 1.036468e+02 7.240707e-01 7.221662e-01 9.308951e-01 8.497124e-01 1.069602e+00 9.547074e-01 9.395375e-01 9.505860e-01 8.388380e-01 6.449990e-01 7.667327e-01 7.579632e-01 1.233055e+00 8.011549e-02 7.526345e-02 9.654627e-02 9.682274e-02 1.242069e-01 1.035096e-01 1.135537e-01 1.133587e-01 1.011874e-01 8.254369e-02 9.500429e-02 9.349719e-02 1.189917e-01
<GCONST> 8.889584e+01
<TRANSP> 5
 0.000000e+00 1.000000e+00 0.000000e+00 0.000000e+00 0.000000e+00
 0.000000e+00 7.156498e-01 2.843501e-01 0.000000e+00 0.000000e+00
 0.000000e+00 0.000000e+00 7.156432e-01 2.843568e-01 0.000000e+00
 0.000000e+00 0.000000e+00 0.000000e+00 8.431860e-01 1.568139e-01
 0.000000e+00 0.000000e+00 0.000000e+00 0.000000e+00 0.000000e+00
<ENDHMM>
~h "d"
<BEGINHMM>
<NUMSTATES> 5
<STATE> 2
<MEAN> 39
 4.517645e-01 -6.263149e-01 1.097792e+00 -1.081898e+00 -1.583515e+00 -1.278104e+00 -1.119513e+00 -6.638207e-01 -6.402268e-01 -2.258255e-01 -3.228785e-02 -9.484853e-01 2.293960e+00 7.702068e-03 2.957842e-03 -8.478450e-03 -1.772552e-03 -5.619382e-03 3.000648e-03 6.011199e-03 -1.548886e-03 -4.908513e-03 2.099236e-03 -2.389577e-03 -5.912153e-03 -1.572458e-03 -1.663799e-04 2.636074e-06 -1.345101e-04 1.114516e-04 2.479956e-04 4.464832e-04 3.429021e-04 -4.343354e-05 8.014048e-05 2.098610e-04 2.037176e-04 1.863201e-04 -9.997592e-05
<VARIANCE> 39
 3.473706e+01 4.094162e+01 6.614938e+01 4.757413e+01 6.315031e+01 5.338725e+01 5.076965e+01 5.063839e+01 4.692698e+01 3.170236e+01 3.828820e+01 4.135324e+01 1.165598e+02 8.130438e-01 8.471826e-01 1.206189e+00 9.874493e-01 1.351287e+00 1.042136e+00 1.133729e+00 1.151925e+00 1.013653e+00 7.566276e-01 9.046775e-01 8.468406e-01 1.605763e+00 8.548157e-02 9.178279e-02 1.211925e-01 1.104983e-01 1.568891e-01 1.188851e-01 1.379449e-01 1.368067e-01 1.183391e-01 9.527517e-02 1.126417e-01 1.039303e-01 1.580576e-01
<GCONST> 9.485993e+01
<STATE> 3
<MEAN> 39
 4.809763e-01 -6.154110e-01 1.065818e+00 -1.088750e+00 -1.603725e+00 -1.263345e+00 -1.094699e+00 -6.686399e-01 -6.560991e-01 -2.148563e-01 -3.894679e-02 -9.669331e-01 2.284952e+00 6.956059e-03 2.950341e-03 -9.110746e-03 -1.401032e-03 -4.501131e-03 4.581804e-03 7.479601e-03 -1.463479e-03 -4.318694e-03 2.553960e-03 -1.592257e-03 -4.862658e-03 -1.903462e-03 -1.806930e-04 -4.874706e-05 -1.347534e-04 2.304022e-05 2.840235e-04 3.778530e-04 3.348179e-04 -1.554844e-05 1.382500e-04 7.580661e-05 2.046487e-04 2.307651e-04 1.487917e-05
<VARIANCE> 39
 3.453980e+01 4.107338e+01 6.593249e+01 4.767007e+01 6.294246e+01 5.362526e+01 5.069580e+01 5.058281e+01 4.686877e+01 3.173134e+01 3.835973e+01 4.137241e+01 1.166951e+02 8.056889e-01 8.455066e-01 1.204162e+00 9.849341e-01 1.348518e+00 1.046589e+00 1.130880e+00 1.147816e+00 1.013315e+00 7.559654e-01 9.041710e-01 8.462330e-01 1.602299e+00 8.504082e-02 9.144086e-02 1.208769e-01 1.103277e-01 1.566086e-01 1.192812e-01 1.376386e-01 1.363637e-01 1.186194e-01 9.507794e-02 1.124840e-01 1.038864e-01 1.576098e-01
<GCONST> 9.481277e+01
<STATE> 4
<MEAN> 39
 6.823021e-01 -8.140017e-01 9.312371e-01 -1.315132e+00 -1.723797e+00 -1.338090e+00 -1.118480e+00 -6.361165e-01 -6.720766e-01 -2.724038e-01 -1.762705e-01 -1.138926e+00 2.727356e+00 5.381567e-03 3.968380e-03 -9.979961e-03 -4.022361e-04 -1.881180e-03 7.519733e-03 9.499319e-03 -1.147830e-03 -2.542388e-03 3.890849e-03 9.364603e-04 -2.068223e-03 -6.135218e-03 -2.142878e-04 -5.406069e-05 -1.124114e-04 -1.927305e-05 3.998632e-04 3.494252e-04 1.792551e-04 -5.292763e-05 1.498620e-04 2.470421e-05 2.328401e-04 1.752612e-04 -1.519142e-05
<VARIANCE> 39
 3.414236e+01 4.190274e+01 6.439464e+01 4.810576e+01 6.228865e+01 5.380092e+01 5.035192e+01 5.038178e+01 4.631544e+01 3.187375e+01 3.879878e+01 4.156800e+01 1.187897e+02 7.744837e-01 8.232973e-01 1.177562e+00 9.593711e-01 1.328265e+00 1.033967e+00 1.105469e+00 1.127740e+00 9.958305e-01 7.432536e-01 8.921381e-01 8.363008e-01 1.551308e+00 8.211237e-02 8.866189e-02 1.178355e-01 1.074967e-01 1.541064e-01 1.176993e-01 1.346998e-01 1.337805e-01 1.169030e-01 9.287348e-02 1.104263e-01 1.024839e-01 1.522999e-01
<GCONST> 9.424900e+01
<TRANSP> 5
 0.000000e+00 1.000000e+00 0.000000e+00 0.000000e+00 0.000000e+00
 0.000000e+00 7.215291e-01 2.784710e-01 0.000000e+00 0.000000e+00
 0.000000e+00 0.000000e+00 7.215227e-01 2.784773e-01 0.000000e+00
 0.000000e+00 0.000000e+00 0.000000e+00 8.503935e-01 1.496064e-01
 0.000000e+00 0.000000e+00 0.000000e+00 0.000000e+00 0.000000e+00
<ENDHMM>
~h "e"
<BEGINHMM>
<NUMSTATES> 5
<STATE> 2
<MEAN> 39
 2.241905e-01 -8.135692e-01 3.027984e-01 -7.252842e-01 -7.392753e-01 -4.247105e-01 -2.418109e-01 6.694826e-02 -3.465735e-01 1.019857e-01 1.230379e-01 -2.348295e-01 1.054734e+00 8.212524e-03 4.396364e-03 -1.597539e-02 -7.889051e-03 4.751121e-03 2.056669e-03 -4.065803e-03 -2.430477e-03 1.775950e-02 7.993571e-03 -3.291674e-03 -1.624365e-02 -1.369269e-02 1.684491e-04 1.667197e-03 1.294535e-03 2.956321e-04 -9.905959e-04 4.478384e-04 -7.383905e-04 -3.731792e-04 -6.819288e-04 3.070092e-04 -3.102887e-04 -1.113686e-03 -7.501827e-04
<VARIANCE> 39
 3.441366e+01 3.959837e+01 6.514880e+01 5.039769e+01 7.233502e+01 5.341642e+01 5.127028e+01 5.033532e+01 4.731136e+01 3.129345e+01 3.894147e+01 4.462179e+01 1.142273e+02 7.725443e-01 8.072158e-01 1.190540e+00 9.937019e-01 1.286760e+00 1.002895e+00 1.021276e+00 1.096798e+00 9.838364e-01 7.342701e-01 8.911337e-01 8.564596e-01 1.520266e+00 8.250699e-02 8.756977e-02 1.166055e-01 1.136669e-01 1.470751e-01 1.131267e-01 1.215975e-01 1.321427e-01 1.159534e-01 9.122049e-02 1.123869e-01 1.000130e-01 1.477315e-01
<GCONST> 9.406252e+01
<STATE> 3
<MEAN> 39
 2.499719e-01 -7.850499e-01 2.570404e-01 -7.430747e-01 -7.218509e-01 -4.166245e-01 -2.609042e-01 5.990880e-02 -2.852709e-01 1.276436e-01 1.116949e-01 -2.923238e-01 9.960540e-01 8.168299e-03 9.800711e-03 -1.026538e-02 -6.861000e-03 9.843222e-04 2.350607e-03 -6.639614e-03 -4.130144e-03 1.453427e-02 8.931312e-03 -3.641561e-03 -1.912115e-02 -1.519953e-02 -2.568639e-04 1.347283e-03 1.900789e-03 2.046013e-04 -1.259837e-03 1.256754e-04 -3.939726e-04 -8.819117e-04 -1.187426e-03 4.716287e-04 2.912895e-04 -6.266905e-04 -7.475421e-06
<VARIANCE> 39
 3.404605e+01 3.960107e+01 6.545709e+01 5.014349e+01 7.167745e+01 5.324952e+01 5.109159e+01 5.019596e+01 4.710801e+01 3.145606e+01 3.886090e+01 4.437888e+01 1.138727e+02 7.795100e-01 8.071567e-01 1.193648e+00 9.959018e-01 1.287805e+00 1.006320e+00 1.018981e+00 1.103434e+00 9.866143e-01 7.383510e-01 8.957105e-01 8.658491e-01 1.530133e+00 8.294832e-02 8.745451e-02 1.171292e-01 1.140913e-01 1.473858e-01 1.138038e-01 1.213126e-01 1.329506e-01 1.160663e-01 9.168640e-02 1.133116e-01 1.011700e-01 1.489088e-01
<GCONST> 9.413354e+01
<STATE> 4
<MEAN> 39
 3.557502e-01 -8.022764e-01 2.338503e-01 -8.806455e-01 -8.630179e-01 -5.208377e-01 -3.629605e-01 7.584138e-03 -2.412404e-01 1.453059e-01 2.102623e-02 -4.948068e-01 1.158758e+00 4.877146e-03 1.443100e-02 -7.299037e-04 -3.618353e-03 -3.179156e-03 -2.916989e-04 -8.339404e-03 -5.608990e-03 1.008892e-02 9.934803e-03 3.968296e-05 -1.795170e-02 -1.527386e-02 -6.930243e-04 4.057732e-04 1.958239e-03 2.648749e-04 -1.124125e-03 -4.240058e-04 -2.344282e-05 -7.662121e-04 -1.265606e-03 4.284688e-04 1.053499e-03 1.058866e-04 9.089171e-04
<VARIANCE> 39
 3.370933e+01 3.984906e+01 6.579283e+01 4.979128e+01 6.999606e+01 5.296670e+01 5.128116e+01 5.048411e+01 4.746461e+01 3.212499e+01 3.905719e+01 4.391095e+01 1.139874e+02 7.947683e-01 8.061509e-01 1.201278e+00 9.992739e-01 1.296441e+00 1.016308e+00 1.029598e+00 1.117547e+00 9.973609e-01 7.510396e-01 9.186417e-01 8.836375e-01 1.538818e+00 8.391822e-02 8.708214e-02 1.179604e-01 1.147665e-01 1.479293e-01 1.151233e-01 1.220526e-01 1.344249e-01 1.168031e-01 9.279185e-02 1.163435e-01 1.033059e-01 1.500056e-01
<GCONST> 9.440459e+01
<TRANSP> 5
 0.000000e+00 1.000000e+00 0.000000e+00 0.000000e+00 0.000000e+00
 0.000000e+00 7.139685e-01 2.860315e-01 0.000000e+00 0.000000e+00
 0.000000e+00 0.000000e+00 7.139711e-01 2.860289e-01 0.000000e+00
 0.000000e+00 0.000000e+00 0.000000e+00 8.353361e-01 1.646638e-01
 0.000000e+00 0.000000e+00 0.000000e+00 0.000000e+00 0.000000e+00
<ENDHMM>
~h "g"
<BEGINHMM>
<NUMSTATES> 5
<STATE> 2
<MEAN> 39
 3.467883e-01 2.018587e-01 -6.251400e-01 -3.085836e-01 3.280379e-01 4.720999e-02 -4.819548e-01 -6.277220e-01 9.166645e-02 3.331491e-01 -7.081055e-02 -4.468649e-01 -4.769364e-02 -2.756210e-03 1.100598e-02 7.459051e-03 1.194694e-02 7.671724e-03 8.618368e-03 5.633345e-03 -8.251587e-03 -4.730281e-03 1.009344e-03 2.370435e-03 7.855866e-03 -1.641177e-02 -2.961360e-04 7.012584e-05 3.563133e-04 3.968170e-04 -3.651213e-04 -2.634491e-04 -1.040965e-04 2.934975e-04 -2.103019e-04 -3.769152e-04 9.051159e-05 4.628861e-04 1.154830e-05
<VARIANCE> 39
 3.165618e+01 4.081054e+01 5.482804e+01 4.990950e+01 4.928022e+01 4.781179e+01 5.094857e+01 4.450419e+01 4.182064e+01 3.191561e+01 3.426399e+01 4.183718e+01 1.298987e+02 6.489950e-01 7.153956e-01 9.191252e-01 8.167105e-01 1.023393e+00 9.115065e-01 9.655817e-01 9.726877e-01 8.692033e-01 7.247313e-01 7.635945e-01 7.151852e-01 1.285205e+00 7.142233e-02 7.629779e-02 9.324338e-02 9.468761e-02 1.197528e-01 1.051253e-01 1.143609e-01 1.206883e-01 1.050546e-01 8.889764e-02 9.559771e-02 8.827934e-02 1.253814e-01
<GCONST> 8.945073e+01
<STATE> 3
<MEAN> 39
 3.301580e-01 2.419406e-01 -5.952430e-01 -2.611402e-01 3.539897e-01 7.844707e-02 -4.566092e-01 -6.541318e-01 7.388725e-02 3.351352e-01 -6.229927e-02 -4.118365e-01 -1.125432e-01 -3.835920e-03 1.118419e-02 8.957352e-03 1.348440e-02 5.930523e-03 7.329719e-03 5.797005e-03 -6.964802e-03 -5.360635e-03 -4.801467e-04 2.173791e-03 9.654503e-03 -1.636069e-02 -3.076341e-04 9.498142e-05 4.506227e-04 3.905718e-04 -5.622646e-04 -3.243001e-04 -1.394903e-05 3.340599e-04 -2.199945e-04 -3.873829e-04 -8.641515e-06 4.625256e-04 -7.053091e-05
<VARIANCE> 39
 3.165454e+01 4.072654e+01 5.471889e+01 5.007437e+01 4.918315e+01 4.774792e+01 5.040665e+01 4.437782e+01 4.175078e+01 3.164546e+01 3.411951e+01 4.168109e+01 1.297890e+02 6.542814e-01 7.081301e-01 9.146301e-01 8.141376e-01 1.018839e+00 9.118516e-01 9.562332e-01 9.673969e-01 8.675731e-01 7.192892e-01 7.603411e-01 7.124280e-01 1.277349e+00 7.196464e-02 7.557610e-02 9.284198e-02 9.462158e-02 1.191941e-01 1.052647e-01 1.135883e-01 1.197397e-01 1.049171e-01 8.821766e-02 9.533428e-02 8.795722e-02 1.247386e-01
<GCONST> 8.931550e+01
<STATE> 4
<MEAN> 39
 3.450096e-01 2.586789e-01 -5.389661e-01 -3.037848e-01 3.127894e-01 4.984314e-02 -5.055079e-01 -7.543128e-01 9.425974e-03 2.988380e-01 -1.011083e-01 -4.232485e-01 1.988349e-02 -6.727214e-03 1.176642e-02 1.117607e-02 1.548510e-02 3.359508e-03 5.639999e-03 8.080704e-03 -4.386294e-03 -5.191136e-03 -1.283857e-03 1.783542e-03 1.260146e-02 -1.781665e-02 -2.705104e-04 2.155327e-04 4.932932e-04 3.050106e-04 -6.303568e-04 -3.107339e-04 2.302061e-05 2.260439e-04 -1.960044e-04 -2.455655e-04 2.171139e-05 3.024694e-04 -5.194192e-05
<VARIANCE> 39
 3.167729e+01 4.058189e+01 5.451472e+01 5.008183e+01 4.866821e+01 4.749413e+01 4.930886e+01 4.478228e+01 4.155021e+01 3.125996e+01 3.377549e+01 4.144352e+01 1.311280e+02 6.616846e-01 6.893173e-01 8.992953e-01 8.053424e-01 1.010293e+00 9.094743e-01 9.336261e-01 9.586940e-01 8.537281e-01 7.063647e-01 7.505002e-01 7.037045e-01 1.252544e+00 7.255859e-02 7.362185e-02 9.140144e-02 9.406927e-02 1.178043e-01 1.052401e-01 1.111394e-01 1.179400e-01 1.034296e-01 8.654319e-02 9.431006e-02 8.669024e-02 1.224060e-01
<GCONST> 8.892498e+01
<TRANSP> 5
 0.000000e+00 1.000000e+00 0.000000e+00 0.000000e+00 0.000000e+00
 0.000000e+00 7.232730e-01 2.767269e-01 0.000000e+00 0.000000e+00
 0.000000e+00 0.000000e+00 7.232864e-01 2.767136e-01 0.000000e+00
 0.000000e+00 0.000000e+00 0.000000e+00 8.490173e-01 1.509827e-01
 0.000000e+00 0.000000e+00 0.000000e+00 0.000000e+00 0.000000e+00
<ENDHMM>
~h "h"
<BEGINHMM>
<NUMSTATES> 5
<STATE> 2
<MEAN> 39
 -6.022091e-01 1.040233e+00 9.366765e-02 1.513109e+00 7.643805e-01 1.023642e+00 8.735147e-01 3.708602e-01 2.839733e-01 1.429650e-01 4.030330e-01 1.140166e+00 -2.754117e+00 1.499480e-03 4.879559e-03 6.331144e-03 1.596607e-03 -1.893817e-03 1.825276e-03 -2.583106e-03 -5.201722e-03 -5.982246e-03 -3.381870e-03 -2.349143e-03 -6.296824e-03 6.594821e-03 -2.537724e-06 3.764944e-05 -1.977006e-04 6.946654e-05 5.798893e-05 -2.016783e-04 -9.486888e-05 1.511688e-04 7.204533e-06 3.979502e-05 -3.600212e-04 -2.814496e-04 1.164339e-04
<VARIANCE> 39
 2.676732e+01 3.720739e+01 4.660473e+01 4.617719e+01 4.979966e+01 4.329810e+01 4.664018e+01 4.181846e+01 3.735182e+01 2.814498e+01 3.334186e+01 3.714955e+01 1.268201e+02 4.683897e-01 5.886939e-01 8.677589e-01 6.999066e-01 9.965218e-01 7.643944e-01 8.691351e-01 8.887607e-01 7.689919e-01 6.203974e-01 6.728942e-01 6.307300e-01 1.040597e+00 5.055988e-02 6.178321e-02 8.358285e-02 8.070034e-02 1.139883e-01 8.684721e-02 1.036484e-01 1.080450e-01 9.140576e-02 8.017741e-02 8.491693e-02 7.920051e-02 9.669202e-02
<GCONST> 8.442577e+01
<STATE> 3
<MEAN> 39
 -5.941347e-01 1.054709e+00 1.079293e-01 1.514060e+00 7.595026e-01 1.027586e+00 8.614928e-01 3.501752e-01 2.648538e-01 1.299652e-01 3.892500e-01 1.111821e+00 -2.721636e+00 1.405721e-03 5.152241e-03 5.555241e-03 1.936142e-03 -1.849495e-03 1.165529e-03 -2.650353e-03 -4.585186e-03 -5.860079e-03 -3.128858e-03 -3.682832e-03 -7.010090e-03 6.378058e-03 -3.086688e-05 1.389472e-04 -2.141563e-04 6.267588e-05 7.150105e-06 -1.278068e-04 -1.222631e-05 2.479689e-04 5.507403e-05 1.498216e-04 -3.305235e-04 -2.088239e-04 -1.003643e-04
<VARIANCE> 39
 2.668678e+01 3.724582e+01 4.691884e+01 4.626062e+01 5.006083e+01 4.338288e+01 4.691113e+01 4.193641e+01 3.742490e+01 2.824533e+01 3.344870e+01 3.715519e+01 1.278467e+02 4.673549e-01 5.907089e-01 8.718500e-01 6.976050e-01 1.006394e+00 7.619750e-01 8.762141e-01 8.915280e-01 7.712124e-01 6.217614e-01 6.760684e-01 6.313831e-01 1.042264e+00 5.045394e-02 6.200971e-02 8.388960e-02 8.031628e-02 1.151003e-01 8.648375e-02 1.042766e-01 1.083242e-01 9.167775e-02 8.041834e-02 8.527269e-02 7.908934e-02 9.710723e-02
<GCONST> 8.452560e+01
<STATE> 4
<MEAN> 39
 -5.703946e-01 1.104308e+00 1.095436e-01 1.515245e+00 7.585618e-01 1.019760e+00 7.867553e-01 2.616175e-01 2.507352e-01 1.249282e-01 3.565353e-01 1.060730e+00 -2.672189e+00 1.315332e-03 4.906783e-03 2.087772e-03 1.502732e-03 -9.266431e-04 5.626610e-04 -1.919520e-03 -4.105863e-03 -4.159243e-03 -2.466154e-03 -4.957786e-03 -7.003296e-03 4.563421e-03 -1.007874e-04 1.911530e-04 -1.909876e-04 5.756757e-05 1.665984e-05 -2.762232e-05 1.241071e-04 1.798938e-04 1.253896e-04 1.703013e-04 -1.274918e-04 4.575832e-06 -4.121292e-04
<VARIANCE> 39
 2.536934e+01 3.591465e+01 4.401836e+01 4.460497e+01 4.763137e+01 4.167915e+01 4.487465e+01 3.979707e+01 3.550065e+01 2.748829e+01 3.243194e+01 3.561637e+01 1.255279e+02 4.292878e-01 5.516312e-01 8.142071e-01 6.470259e-01 9.499623e-01 7.107977e-01 8.294351e-01 8.336427e-01 7.262878e-01 5.897667e-01 6.423419e-01 5.984392e-01 9.559114e-01 4.631995e-02 5.795494e-02 7.863529e-02 7.454590e-02 1.088364e-01 8.127740e-02 9.893119e-02 1.017166e-01 8.712339e-02 7.669020e-02 8.120452e-02 7.494199e-02 8.942635e-02
<GCONST> 8.232039e+01
<TRANSP> 5
 0.000000e+00 1.000000e+00 0.000000e+00 0.000000e+00 0.000000e+00
 0.000000e+00 7.196949e-01 2.803051e-01 0.000000e+00 0.000000e+00
 0.000000e+00 0.000000e+00 7.196956e-01 2.803044e-01 0.000000e+00
 0.000000e+00 0.000000e+00 0.000000e+00 8.539627e-01 1.460373e-01
 0.000000e+00 0.000000e+00 0.000000e+00 0.000000e+00 0.000000e+00
<ENDHMM>
~h "i"
<BEGINHMM>
<NUMSTATES> 5
<STATE> 2
<MEAN> 39
 7.821406e-02 -1.805348e-01 3.414164e-01 -1.221675e-01 -2.862697e-01 -1.077163e-01 1.120815e-01 -1.413892e-01 -3.350795e-01 -2.105015e-01 -1.508363e-01 -1.202960e-01 4.381526e-01 4.746602e-03 7.662008e-03 -1.138632e-03 7.245441e-04 -2.831270e-03 3.562483e-04 -1.307179e-03 -7.162361e-03 -7.116044e-03 -1.709675e-03 -4.259175e-03 -8.900634e-04 7.908331e-03 -6.754009e-06 2.140239e-04 -9.825948e-05 4.938759e-05 -1.999140e-04 -1.353086e-04 2.298864e-04 -1.293040e-04 2.992726e-05 6.164992e-05 -1.781881e-05 1.330446e-04 -2.510063e-05
<VARIANCE> 39
 3.166566e+01 4.061255e+01 5.972988e+01 4.856961e+01 6.003931e+01 4.996374e+01 4.975158e+01 4.877417e+01 4.421779e+01 2.952723e+01 3.563966e+01 4.041901e+01 1.157318e+02 6.573447e-01 7.662204e-01 1.061914e+00 8.985274e-01 1.200915e+00 9.517859e-01 9.983141e-01 1.025258e+00 9.173855e-01 6.787233e-01 8.003094e-01 7.719176e-01 1.356775e+00 7.210469e-02 8.110748e-02 1.043615e-01 1.004525e-01 1.403361e-01 1.065121e-01 1.196505e-01 1.218594e-01 1.081218e-01 8.629211e-02 9.902684e-02 9.437746e-02 1.308638e-01
<GCONST> 9.107045e+01
<STATE> 3
<MEAN> 39
 9.342596e-02 -1.498521e-01 3.356968e-01 -1.188901e-01 -2.967904e-01 -1.039271e-01 1.118494e-01 -1.690078e-01 -3.600057e-01 -2.134654e-01 -1.631147e-01 -1.215176e-01 4.632671e-01 4.690216e-03 8.349077e-03 -1.658315e-03 6.290368e-04 -3.729934e-03 5.089955e-06 -2.849532e-04 -7.652536e-03 -6.748092e-03 -1.296767e-03 -4.220558e-03 -6.895026e-04 7.676547e-03 -1.213267e-05 1.497653e-04 -1.553402e-04 -8.913512e-05 -2.863965e-04 -1.241800e-04 2.510007e-04 -1.073038e-04 9.293581e-05 7.562411e-05 6.775541e-06 3.733243e-05 -4.186436e-05
<VARIANCE> 39
 3.161949e+01 4.071549e+01 5.966453e+01 4.850628e+01 6.000854e+01 5.020693e+01 4.969454e+01 4.870993e+01 4.426545e+01 2.958206e+01 3.565233e+01 4.031041e+01 1.160802e+02 6.604865e-01 7.671006e-01 1.059556e+00 8.976898e-01 1.205782e+00 9.557110e-01 9.985237e-01 1.025943e+00 9.175161e-01 6.781594e-01 8.028520e-01 7.723437e-01 1.362636e+00 7.252136e-02 8.128124e-02 1.041369e-01 1.002435e-01 1.408913e-01 1.069013e-01 1.199184e-01 1.219935e-01 1.079698e-01 8.619480e-02 9.931298e-02 9.442446e-02 1.315090e-01
<GCONST> 9.111410e+01
<STATE> 4
<MEAN> 39
 1.155448e-01 -8.104596e-02 3.045181e-01 -8.510945e-02 -3.097390e-01 -8.845380e-02 1.079590e-01 -2.214409e-01 -3.865927e-01 -2.017167e-01 -1.648980e-01 -1.176080e-01 4.616308e-01 3.430600e-03 9.004584e-03 -1.751333e-03 -2.652241e-04 -5.430203e-03 -5.000810e-04 8.744298e-04 -8.227083e-03 -5.468132e-03 -3.133911e-04 -3.231043e-03 -1.394756e-03 7.868104e-03 -8.761116e-05 1.259395e-05 -4.895465e-05 -2.041644e-04 -2.725891e-04 -2.013074e-04 7.595212e-05 2.571467e-05 2.045950e-04 1.952115e-05 2.996678e-05 -1.367303e-04 4.846166e-05
<VARIANCE> 39
 3.109039e+01 4.018805e+01 5.794910e+01 4.785383e+01 5.913253e+01 4.996328e+01 4.913293e+01 4.782678e+01 4.352343e+01 2.934928e+01 3.515386e+01 3.965070e+01 1.164028e+02 6.459210e-01 7.414370e-01 1.030007e+00 8.715358e-01 1.188302e+00 9.388450e-01 9.807248e-01 1.006154e+00 9.001562e-01 6.646242e-01 7.901404e-01 7.536228e-01 1.322344e+00 7.066642e-02 7.860921e-02 1.013735e-01 9.708879e-02 1.388106e-01 1.050835e-01 1.183895e-01 1.197810e-01 1.057230e-01 8.460580e-02 9.771330e-02 9.226977e-02 1.278051e-01
<GCONST> 9.035690e+01
<TRANSP> 5
 0.000000e+00 1.000000e+00 0.000000e+00 0.000000e+00 0.000000e+00
 0.000000e+00 7.195579e-01 2.804421e-01 0.000000e+00 0.000000e+00
 0.000000e+00 0.000000e+00 7.195445e-01 2.804555e-01 0.000000e+00
 0.000000e+00 0.000000e+00 0.000000e+00 8.448911e-01 1.551089e-01
 0.000000e+00 0.000000e+00 0.000000e+00 0.000000e+00 0.000000e+00
<ENDHMM>
~h "j"
<BEGINHMM>
<NUMSTATES> 5
<STATE> 2
<MEAN> 39
 3.133782e-01 5.120209e-02 2.774431e-02 -3.008970e-01 6.643712e-02 -7.315135e-02 -4.678810e-01 -2.729670e-01 -1.968849e-01 -2.917141e-01 -4.152568e-01 -2.926478e-01 1.019326e+00 1.111674e-02 -4.543947e-03 2.390571e-03 -1.808540e-02 -1.446875e-02 -7.961821e-03 -1.318284e-02 -3.476539e-03 -6.315152e-03 -7.819006e-03 -7.837214e-03 -1.376081e-02 3.152922e-02 -3.443196e-05 -3.271861e-04 -3.631121e-04 -4.471747e-04 8.056335e-05 1.216196e-04 9.023487e-05 7.906606e-04 4.549591e-04 2.949703e-04 2.159995e-04 2.907933e-04 -2.803117e-04
<VARIANCE> 39
 3.142480e+01 4.195870e+01 5.818955e+01 5.110863e+01 5.863143e+01 5.245289e+01 5.051388e+01 5.313750e+01 4.516732e+01 3.097439e+01 3.786333e+01 4.088433e+01 1.225361e+02 7.330377e-01 8.739130e-01 1.200825e+00 9.980640e-01 1.357094e+00 1.086573e+00 1.101586e+00 1.179535e+00 9.724956e-01 7.391219e-01 8.512014e-01 8.358455e-01 1.570364e+00 8.349892e-02 9.454943e-02 1.170062e-01 1.091296e-01 1.590590e-01 1.215820e-01 1.348715e-01 1.401950e-01 1.146356e-01 9.526134e-02 1.042411e-01 1.004552e-01 1.582042e-01
<GCONST> 9.431262e+01
<STATE> 3
<MEAN> 39
 3.497332e-01 3.450236e-02 3.299649e-02 -3.587771e-01 2.082159e-02 -9.505267e-02 -5.078185e-01 -2.791787e-01 -2.135348e-01 -3.173484e-01 -4.376193e-01 -3.341814e-01 1.117365e+00 1.109084e-02 -4.932204e-03 1.297301e-03 -1.937958e-02 -1.474502e-02 -7.779404e-03 -1.352254e-02 -2.575594e-03 -5.055957e-03 -6.973169e-03 -6.408853e-03 -1.266406e-02 3.045867e-02 -9.734731e-05 -7.610859e-05 -3.561351e-04 -3.487947e-04 -5.889387e-05 -3.068181e-05 -1.525409e-04 2.545809e-04 4.619466e-04 2.920515e-04 4.826780e-04 3.396158e-04 -3.913061e-04
<VARIANCE> 39
 3.147233e+01 4.190908e+01 5.827140e+01 5.124590e+01 5.857733e+01 5.240395e+01 5.051667e+01 5.301679e+01 4.519659e+01 3.112437e+01 3.785097e+01 4.072122e+01 1.219899e+02 7.417763e-01 8.777113e-01 1.205082e+00 1.001588e+00 1.364345e+00 1.094387e+00 1.109409e+00 1.181834e+00 9.797574e-01 7.432332e-01 8.523626e-01 8.418252e-01 1.578157e+00 8.446620e-02 9.493443e-02 1.176667e-01 1.097448e-01 1.597836e-01 1.226172e-01 1.360450e-01 1.407561e-01 1.153238e-01 9.577062e-02 1.043479e-01 1.013945e-01 1.589912e-01
<GCONST> 9.446001e+01
<STATE> 4
<MEAN> 39
 3.722655e-01 -1.156698e-01 -4.998186e-02 -5.370634e-01 8.233499e-03 6.085812e-03 -5.908442e-01 -3.050439e-01 -2.336670e-01 -2.936509e-01 -3.476997e-01 -4.394661e-01 1.346600e+00 9.800624e-03 -4.197959e-03 9.126033e-04 -1.653320e-02 -1.541649e-02 -7.129425e-03 -1.225269e-02 -2.301764e-03 -3.215522e-03 -5.375928e-03 -2.551835e-03 -9.508680e-03 2.427722e-02 -2.379933e-04 8.020762e-05 -2.237420e-04 -1.265881e-04 -1.163654e-04 -1.678068e-04 -2.760853e-04 3.796153e-05 4.696850e-04 3.397110e-04 5.407817e-04 3.927725e-04 -5.800845e-04
<VARIANCE> 39
 3.112131e+01 4.192863e+01 5.740730e+01 5.122799e+01 5.686757e+01 5.117556e+01 4.903684e+01 5.142532e+01 4.337593e+01 3.055180e+01 3.683492e+01 4.006499e+01 1.250416e+02 7.195984e-01 8.452579e-01 1.169429e+00 9.630103e-01 1.314432e+00 1.072033e+00 1.075650e+00 1.141963e+00 9.461371e-01 7.204782e-01 8.178558e-01 8.193087e-01 1.526798e+00 8.200321e-02 9.111549e-02 1.154532e-01 1.060428e-01 1.541758e-01 1.214420e-01 1.321155e-01 1.363542e-01 1.120395e-01 9.285643e-02 1.005611e-01 9.994849e-02 1.522575e-01
<GCONST> 9.342916e+01
<TRANSP> 5
 0.000000e+00 1.000000e+00 0.000000e+00 0.000000e+00 0.000000e+00
 0.000000e+00 7.108619e-01 2.891381e-01 0.000000e+00 0.000000e+00
 0.000000e+00 0.000000e+00 7.108651e-01 2.891349e-01 0.000000e+00
 0.000000e+00 0.000000e+00 0.000000e+00 8.406866e-01 1.593134e-01
 0.000000e+00 0.000000e+00 0.000000e+00 0.000000e+00 0.000000e+00
<ENDHMM>
~h "k"
<BEGINHMM>
<NUMSTATES> 5
<STATE> 2
<MEAN> 39
 4.051202e-01 -7.687724e-01 -2.320550e-01 -1.237402e+00 -5.868299e-01 -3.583103e-01 -6.001413e-01 -2.624474e-01 -2.760796e-01 -9.221268e-02 -3.066766e-01 -7.730175e-01 1.793255e+00 6.503450e-03 -3.533438e-03 -1.072916e-02 6.414564e-04 4.298579e-04 1.683956e-03 3.158381e-03 7.781790e-03 4.790664e-03 3.211278e-03 -1.736489e-03 -1.171735e-03 -3.961898e-03 5.678434e-05 2.168179e-04 3.321046e-04 3.370906e-04 -1.271912e-05 2.377280e-04 3.288238e-04 2.861306e-04 5.668199e-05 1.000777e-04 2.343245e-04 1.567471e-04 -6.797065e-04
<VARIANCE> 39
 3.361166e+01 4.251475e+01 6.520383e+01 4.910711e+01 5.982925e+01 5.184162e+01 4.950457e+01 4.870505e+01 4.634566e+01 3.185455e+01 3.776909e+01 4.148783e+01 1.088813e+02 7.789173e-01 8.456590e-01 1.163296e+00 9.711726e-01 1.292828e+00 1.075274e+00 1.063859e+00 1.112838e+00 1.009633e+00 7.800553e-01 8.840046e-01 8.718000e-01 1.553551e+00 8.336552e-02 9.018032e-02 1.163650e-01 1.105632e-01 1.514263e-01 1.204348e-01 1.290597e-01 1.333672e-01 1.184076e-01 9.819727e-02 1.106626e-01 1.063868e-01 1.509925e-01
<GCONST> 9.423249e+01
<STATE> 3
<MEAN> 39
 4.286647e-01 -7.770705e-01 -2.655745e-01 -1.230163e+00 -5.842463e-01 -3.485526e-01 -5.865918e-01 -2.336104e-01 -2.590839e-01 -8.128811e-02 -3.116473e-01 -7.750213e-01 1.771209e+00 6.674199e-03 -2.625147e-03 -9.644182e-03 1.818481e-03 2.626425e-04 2.576177e-03 3.954891e-03 7.960564e-03 4.615405e-03 3.393063e-03 -1.126142e-03 -8.363808e-04 -6.076516e-03 4.637410e-05 2.353444e-04 3.006620e-04 3.439586e-04 -3.657195e-05 2.556567e-04 2.436815e-04 6.826811e-05 -4.762441e-05 3.269641e-05 1.911040e-04 8.513620e-05 -6.259526e-04
<VARIANCE> 39
 3.342634e+01 4.257955e+01 6.510903e+01 4.901800e+01 5.958884e+01 5.182024e+01 4.960786e+01 4.859123e+01 4.634263e+01 3.183230e+01 3.773797e+01 4.148310e+01 1.091095e+02 7.729865e-01 8.419488e-01 1.159137e+00 9.688345e-01 1.289827e+00 1.072560e+00 1.062287e+00 1.110361e+00 1.010249e+00 7.777921e-01 8.817426e-01 8.706314e-01 1.546237e+00 8.280400e-02 8.977846e-02 1.160069e-01 1.103593e-01 1.510949e-01 1.201511e-01 1.287655e-01 1.330909e-01 1.182975e-01 9.794673e-02 1.104245e-01 1.062716e-01 1.503220e-01
<GCONST> 9.414717e+01
<STATE> 4
<MEAN> 39
 4.749976e-01 -7.569615e-01 -2.641698e-01 -1.164326e+00 -5.953948e-01 -3.685067e-01 -5.322003e-01 -1.417536e-01 -2.226201e-01 -8.089437e-02 -2.988188e-01 -7.411382e-01 1.667009e+00 6.314418e-03 -8.004722e-04 -7.370669e-03 3.895688e-03 3.016218e-04 3.935400e-03 4.584943e-03 6.657480e-03 3.996969e-03 3.414752e-03 -6.689184e-04 -4.168967e-04 -8.616599e-03 -1.854132e-05 1.495116e-04 3.174674e-04 2.426110e-04 -7.938858e-05 1.475079e-04 1.574650e-04 -1.057844e-04 -7.742967e-05 3.570341e-05 1.241129e-04 7.677521e-06 -3.806844e-04
<VARIANCE> 39
 3.248615e+01 4.246034e+01 6.310144e+01 4.880029e+01 5.849694e+01 5.115334e+01 4.931622e+01 4.762297e+01 4.528999e+01 3.142548e+01 3.707600e+01 4.134880e+01 1.116975e+02 7.324083e-01 8.092687e-01 1.119899e+00 9.357225e-01 1.248013e+00 1.037501e+00 1.034341e+00 1.084549e+00 9.826679e-01 7.557470e-01 8.543510e-01 8.447750e-01 1.487434e+00 7.850148e-02 8.627526e-02 1.119597e-01 1.065110e-01 1.460727e-01 1.163935e-01 1.251004e-01 1.301001e-01 1.149560e-01 9.529659e-02 1.071697e-01 1.032460e-01 1.443416e-01
<GCONST> 9.311641e+01
<TRANSP> 5
 0.000000e+00 1.000000e+00 0.000000e+00 0.000000e+00 0.000000e+00
 0.000000e+00 7.162195e-01 2.837804e-01 0.000000e+00 0.000000e+00
 0.000000e+00 0.000000e+00 7.162184e-01 2.837816e-01 0.000000e+00
 0.000000e+00 0.000000e+00 0.000000e+00 8.417867e-01 1.582133e-01
 0.000000e+00 0.000000e+00 0.000000e+00 0.000000e+00 0.000000e+00
<ENDHMM>
~h "l"
<BEGINHMM>
<NUMSTATES> 5
<STATE> 2
<MEAN> 39
 5.459379e-01 -6.963121e-01 4.476404e-01 -9.931247e-01 -6.723804e-01 -9.942298e-01 -9.430228e-01 -5.189077e-02 -1.304784e-01 -1.840724e-01 -2.752727e-01 -7.547014e-01 1.935379e+00 1.101713e-02 2.752833e-03 -9.253668e-03 4.521107e-03 3.747820e-03 1.696673e-03 -1.990292e-03 7.047405e-03 6.643315e-03 8.361915e-03 7.207976e-03 1.411103e-03 -2.282149e-02 -2.077386e-04 5.813010e-04 -5.344452e-04 1.339455e-04 5.933478e-04 7.172566e-04 5.735109e-04 -3.373140e-04 -1.499870e-04 4.100663e-04 1.361607e-04 1.287200e-04 -4.469220e-04
<VARIANCE> 39
 3.357765e+01 4.131642e+01 6.045848e+01 4.692679e+01 5.826873e+01 4.941220e+01 5.592693e+01 4.782071e+01 4.331690e+01 3.406892e+01 3.741596e+01 4.059481e+01 1.138574e+02 7.260121e-01 8.538426e-01 1.110217e+00 9.035794e-01 1.237660e+00 9.488164e-01 1.195299e+00 1.116731e+00 9.335012e-01 7.831611e-01 8.522788e-01 7.944191e-01 1.367508e+00 7.396246e-02 9.191422e-02 1.107347e-01 1.019407e-01 1.453483e-01 1.079013e-01 1.372041e-01 1.356679e-01 1.115415e-01 9.723650e-02 1.050964e-01 9.530890e-02 1.350809e-01
<GCONST> 9.291807e+01
<STATE> 3
<MEAN> 39
 5.830056e-01 -6.807035e-01 4.066145e-01 -9.751819e-01 -6.500360e-01 -9.797093e-01 -9.451901e-01 -2.881957e-02 -1.060660e-01 -1.486189e-01 -2.475406e-01 -7.486475e-01 1.847383e+00 1.004144e-02 4.470938e-03 -1.127097e-02 4.946686e-03 5.679046e-03 4.194524e-03 9.390586e-05 6.186685e-03 6.445999e-03 9.615273e-03 7.162109e-03 1.837304e-03 -2.422314e-02 -2.784828e-04 5.026032e-04 -5.419685e-04 1.218047e-04 5.148097e-04 6.834884e-04 5.744876e-04 -2.292553e-04 -3.136846e-05 3.280433e-04 -4.619511e-05 9.654609e-05 -4.031936e-04
<VARIANCE> 39
 3.340902e+01 4.139439e+01 5.990771e+01 4.694615e+01 5.776031e+01 4.944381e+01 5.575380e+01 4.769919e+01 4.316542e+01 3.379342e+01 3.728184e+01 4.053315e+01 1.138581e+02 7.171522e-01 8.462727e-01 1.094118e+00 9.037514e-01 1.216529e+00 9.471586e-01 1.184344e+00 1.107333e+00 9.308103e-01 7.795009e-01 8.501155e-01 7.905567e-01 1.368094e+00 7.317877e-02 9.115789e-02 1.095119e-01 1.021317e-01 1.430641e-01 1.076770e-01 1.362098e-01 1.347114e-01 1.113042e-01 9.691045e-02 1.048724e-01 9.501219e-02 1.349758e-01
<GCONST> 9.271690e+01
<STATE> 4
<MEAN> 39
 6.276854e-01 -5.933270e-01 3.216286e-01 -9.457487e-01 -5.716480e-01 -9.446816e-01 -9.363101e-01 -4.160856e-02 -7.819104e-02 -9.093364e-02 -2.340770e-01 -7.375707e-01 1.702948e+00 7.047960e-03 6.871965e-03 -1.416187e-02 6.425008e-03 8.015600e-03 7.563218e-03 3.021781e-03 4.506337e-03 6.316009e-03 9.996623e-03 6.519900e-03 2.992986e-03 -2.557342e-02 -3.349618e-04 3.630000e-04 -3.785491e-04 1.830537e-04 2.602589e-04 5.137291e-04 4.560738e-04 -1.681440e-04 -3.367433e-05 4.387775e-05 -1.683638e-04 1.157350e-04 -2.735950e-04
<VARIANCE> 39
 3.279835e+01 4.112569e+01 5.787626e+01 4.691669e+01 5.557127e+01 4.895260e+01 5.470747e+01 4.688135e+01 4.212519e+01 3.294981e+01 3.657850e+01 4.028712e+01 1.153394e+02 6.888531e-01 8.111075e-01 1.045529e+00 8.775755e-01 1.149234e+00 9.201921e-01 1.139238e+00 1.066898e+00 9.035953e-01 7.541236e-01 8.243119e-01 7.683839e-01 1.323613e+00 7.007259e-02 8.717510e-02 1.051689e-01 9.941741e-02 1.352546e-01 1.045867e-01 1.315408e-01 1.303364e-01 1.082029e-01 9.393284e-02 1.021848e-01 9.262606e-02 1.299690e-01
<GCONST> 9.157844e+01
<TRANSP> 5
 0.000000e+00 1.000000e+00 0.000000e+00 0.000000e+00 0.000000e+00
 0.000000e+00 7.255786e-01 2.744214e-01 0.000000e+00 0.000000e+00
 0.000000e+00 0.000000e+00 7.255791e-01 2.744209e-01 0.000000e+00
 0.000000e+00 0.000000e+00 0.000000e+00 8.535293e-01 1.464707e-01
 0.000000e+00 0.000000e+00 0.000000e+00 0.000000e+00 0.000000e+00
<ENDHMM>
~h "m"
<BEGINHMM>
<NUMSTATES> 5
<STATE> 2
<MEAN> 39
 2.699482e-01 -3.807724e-01 8.099998e-02 -3.921686e-01 -3.143075e-01 -9.748656e-02 1.364420e-01 1.455124e-01 -2.191431e-01 -7.868875e-02 -1.238327e-01 -2.950488e-01 6.783779e-01 -1.118540e-02 1.183477e-02 8.174782e-03 9.110815e-03 -2.727355e-03 1.602104e-03 5.510128e-03 -1.884032e-03 -2.595154e-05 3.423946e-03 6.554523e-03 6.843597e-03 -1.958451e-02 -7.344181e-05 -9.149622e-05 -3.861849e-05 3.620396e-04 -1.543701e-05 -2.381426e-05 -1.914078e-05 3.727463e-04 6.541000e-04 -2.333176e-04 9.021990e-05 2.999770e-04 -1.497776e-04
<VARIANCE> 39
 3.445918e+01 3.932162e+01 5.406397e+01 4.543189e+01 5.649372e+01 4.852768e+01 4.971596e+01 4.735802e+01 4.233300e+01 3.088233e+01 3.580095e+01 3.951905e+01 1.161104e+02 7.199597e-01 7.257152e-01 1.032711e+00 8.687046e-01 1.120291e+00 9.040496e-01 9.774055e-01 1.054312e+00 8.846515e-01 7.023970e-01 7.867660e-01 7.297940e-01 1.189012e+00 7.273714e-02 7.741390e-02 1.036365e-01 9.906485e-02 1.285876e-01 1.012994e-01 1.163124e-01 1.282077e-01 1.049894e-01 8.841796e-02 9.814084e-02 9.033954e-02 1.173093e-01
<GCONST> 9.013523e+01
<STATE> 3
<MEAN> 39
 2.282079e-01 -3.368909e-01 1.140749e-01 -3.514048e-01 -3.244699e-01 -9.312556e-02 1.568996e-01 1.453282e-01 -2.148272e-01 -6.808339e-02 -9.910499e-02 -2.658938e-01 6.004031e-01 -1.106211e-02 1.161958e-02 8.380653e-03 1.082086e-02 -2.781851e-03 1.438227e-03 5.452681e-03 -7.580767e-04 1.441013e-03 2.530762e-03 6.449662e-03 7.615088e-03 -2.004733e-02 3.601383e-05 -6.317624e-05 9.392914e-05 5.309496e-04 -3.879673e-05 -5.358324e-05 -1.160308e-05 3.394152e-04 3.977623e-04 -2.659893e-04 -4.965890e-05 1.911207e-04 -1.430152e-04
<VARIANCE> 39
 3.441276e+01 3.932280e+01 5.403750e+01 4.542479e+01 5.616955e+01 4.839095e+01 4.929058e+01 4.727063e+01 4.224495e+01 3.077728e+01 3.568475e+01 3.947316e+01 1.164472e+02 7.171628e-01 7.229125e-01 1.029860e+00 8.640174e-01 1.115318e+00 9.010917e-01 9.696944e-01 1.052111e+00 8.816025e-01 7.016762e-01 7.832825e-01 7.285417e-01 1.183228e+00 7.243926e-02 7.696351e-02 1.032603e-01 9.853646e-02 1.279864e-01 1.009738e-01 1.155317e-01 1.277319e-01 1.047667e-01 8.830434e-02 9.777050e-02 9.010804e-02 1.164701e-01
<GCONST> 9.000384e+01
<STATE> 4
<MEAN> 39
 1.993610e-01 -3.143662e-01 2.002609e-01 -3.641024e-01 -3.982618e-01 -1.193377e-01 1.353355e-01 1.025990e-01 -2.332735e-01 -4.242680e-02 -9.588598e-02 -3.042499e-01 6.326268e-01 -9.510853e-03 1.201477e-02 9.157916e-03 1.391768e-02 -2.983737e-03 5.639723e-04 4.699577e-03 1.102440e-03 1.634767e-03 1.777903e-03 5.679526e-03 7.643680e-03 -2.219581e-02 2.056199e-04 5.854149e-05 3.406481e-05 4.943917e-04 -5.056133e-07 -8.746021e-05 -1.353444e-04 1.207675e-04 1.026110e-04 -1.752013e-04 -1.088681e-04 -5.075925e-05 -2.190815e-04
<VARIANCE> 39
 3.389365e+01 3.919265e+01 5.349762e+01 4.536383e+01 5.497264e+01 4.787827e+01 4.815803e+01 4.657475e+01 4.174524e+01 3.023745e+01 3.500283e+01 3.939109e+01 1.180253e+02 6.978131e-01 7.067074e-01 1.006758e+00 8.374915e-01 1.087179e+00 8.861856e-01 9.417868e-01 1.034374e+00 8.583828e-01 6.893653e-01 7.611251e-01 7.174882e-01 1.149354e+00 7.021220e-02 7.482775e-02 1.007363e-01 9.543034e-02 1.247635e-01 9.942120e-02 1.125285e-01 1.254132e-01 1.021921e-01 8.673358e-02 9.520194e-02 8.817974e-02 1.123641e-01
<GCONST> 8.922765e+01
<TRANSP> 5
 0.000000e+00 1.000000e+00 0.000000e+00 0.000000e+00 0.000000e+00
 0.000000e+00 7.214732e-01 2.785268e-01 0.000000e+00 0.000000e+00
 0.000000e+00 0.000000e+00 7.214661e-01 2.785339e-01 0.000000e+00
 0.000000e+00 0.000000e+00 0.000000e+00 8.481959e-01 1.518041e-01
 0.000000e+00 0.000000e+00 0.000000e+00 0.000000e+00 0.000000e+00
<ENDHMM>
~h "n"
<BEGINHMM>
<NUMSTATES> 5
<STATE> 2
<MEAN> 39
 2.357598e-01 3.114362e-02 2.623746e-01 1.147915e-01 -3.169983e-01 -4.991808e-02 -4.818025e-04 -6.540120e-03 -1.854238e-01 -1.396641e-01 -2.370654e-01 -1.098762e-01 1.754447e-01 1.758191e-03 1.101141e-02 1.209105e-03 6.523140e-04 -7.905380e-03 -1.344878e-03 -2.242382e-03 -8.587989e-03 -2.564580e-03 -2.333471e-03 -1.032115e-03 -2.704339e-03 -1.126044e-03 1.038443e-05 -3.441274e-04 -4.629376e-04 -1.556579e-04 4.854594e-04 1.704359e-04 -2.618805e-04 -1.036015e-04 3.596523e-04 1.143901e-04 2.435179e-04 -1.017526e-04 4.333819e-05
<VARIANCE> 39
 3.076893e+01 3.942461e+01 5.406860e+01 4.685025e+01 5.814584e+01 4.815142e+01 4.882419e+01 4.900307e+01 4.183775e+01 3.071394e+01 3.673032e+01 4.030613e+01 1.176684e+02 6.565452e-01 7.278484e-01 1.034109e+00 8.927561e-01 1.150420e+00 9.198503e-01 9.952283e-01 1.091520e+00 8.615038e-01 7.035264e-01 8.143005e-01 7.404903e-01 1.273028e+00 6.933350e-02 7.742670e-02 1.017814e-01 1.004202e-01 1.306579e-01 1.028676e-01 1.184408e-01 1.310332e-01 1.022799e-01 8.851697e-02 1.009906e-01 8.962208e-02 1.236128e-01
<GCONST> 9.032928e+01
<STATE> 3
<MEAN> 39
 2.392170e-01 7.042284e-02 2.636772e-01 1.210505e-01 -3.371008e-01 -5.111459e-02 -6.918999e-03 -3.441691e-02 -1.902754e-01 -1.451114e-01 -2.384786e-01 -1.167453e-01 1.614497e-01 1.701599e-03 9.651208e-03 -4.812773e-04 2.737535e-04 -6.077481e-03 -6.726690e-04 -2.936236e-03 -8.683858e-03 -1.333988e-03 -1.882535e-03 -3.376588e-04 -2.937135e-03 -1.105594e-03 -1.437436e-05 -4.206164e-04 -4.397870e-04 -1.693059e-04 5.507212e-04 2.061916e-04 -2.844058e-04 -3.782610e-05 2.549373e-04 1.480504e-04 1.855270e-04 -6.232362e-05 6.342920e-05
<VARIANCE> 39
 3.067812e+01 3.939236e+01 5.403351e+01 4.687054e+01 5.796235e+01 4.822014e+01 4.878972e+01 4.884600e+01 4.180043e+01 3.077577e+01 3.668819e+01 4.018131e+01 1.176654e+02 6.595527e-01 7.270219e-01 1.034874e+00 8.903868e-01 1.152619e+00 9.237342e-01 9.967524e-01 1.091944e+00 8.618201e-01 7.043760e-01 8.151802e-01 7.418730e-01 1.272079e+00 6.959739e-02 7.749795e-02 1.018936e-01 1.002015e-01 1.309459e-01 1.033173e-01 1.187303e-01 1.312977e-01 1.023506e-01 8.853047e-02 1.011341e-01 8.976327e-02 1.237913e-01
<GCONST> 9.034976e+01
<STATE> 4
<MEAN> 39
 2.351168e-01 9.240233e-02 2.957214e-01 9.442327e-02 -3.895975e-01 -5.807270e-02 -3.357590e-02 -7.507712e-02 -1.952514e-01 -1.175816e-01 -2.360754e-01 -1.543412e-01 1.557579e-01 1.815094e-04 8.525489e-03 -2.564106e-03 2.208742e-03 -1.390286e-03 1.233747e-03 -2.046044e-03 -6.788545e-03 5.948361e-04 -4.597951e-04 7.057167e-04 -1.040015e-03 -5.618488e-03 -7.109496e-05 -3.415038e-04 -3.302289e-04 -8.345623e-05 4.839805e-04 1.551773e-04 -1.949177e-04 6.145338e-05 8.147080e-05 1.614669e-04 1.102474e-04 2.736847e-05 -3.058237e-05
<VARIANCE> 39
 2.964336e+01 3.875905e+01 5.269781e+01 4.630066e+01 5.658950e+01 4.711406e+01 4.781967e+01 4.739592e+01 4.086127e+01 3.039855e+01 3.582672e+01 3.955521e+01 1.176719e+02 6.279481e-01 6.909375e-01 1.001048e+00 8.498330e-01 1.109709e+00 8.963720e-01 9.639243e-01 1.056047e+00 8.367038e-01 6.834852e-01 7.876591e-01 7.206439e-01 1.200647e+00 6.602246e-02 7.357253e-02 9.844008e-02 9.576473e-02 1.262133e-01 1.004460e-01 1.150221e-01 1.271735e-01 9.953643e-02 8.604548e-02 9.787472e-02 8.728223e-02 1.168491e-01
<GCONST> 8.910651e+01
<TRANSP> 5
 0.000000e+00 1.000000e+00 0.000000e+00 0.000000e+00 0.000000e+00
 0.000000e+00 7.214479e-01 2.785520e-01 0.000000e+00 0.000000e+00
 0.000000e+00 0.000000e+00 7.214507e-01 2.785493e-01 0.000000e+00
 0.000000e+00 0.000000e+00 0.000000e+00 8.504057e-01 1.495943e-01
 0.000000e+00 0.000000e+00 0.000000e+00 0.000000e+00 0.000000e+00
<ENDHMM>
~h "o"
<BEGINHMM>
<NUMSTATES> 5
<STATE> 2
<MEAN> 39
 -7.970489e-02 4.966552e-01 4.270436e-01 -3.945729e-01 -1.654001e-01 -6.401733e-02 -5.908436e-01 -7.416747e-01 -3.755025e-01 1.336003e-01 3.970625e-01 3.495389e-01 -8.860133e-02 7.784682e-03 7.815356e-04 8.703007e-03 -1.432648e-02 -1.044360e-02 -1.774821e-03 -9.515845e-03 -9.135917e-03 -7.658552e-03 -8.472656e-04 -2.801668e-03 -8.086245e-03 9.838000e-03 3.627043e-04 -7.799180e-05 -2.067960e-04 -2.741624e-04 -1.894352e-04 6.441803e-04 -2.285658e-05 -4.102650e-04 -3.948197e-04 -1.055339e-05 5.855577e-04 -1.104481e-05 5.314969e-04
<VARIANCE> 39
 3.350345e+01 3.665266e+01 6.064413e+01 5.661563e+01 6.140416e+01 5.151547e+01 5.382159e+01 4.999237e+01 4.637694e+01 3.122751e+01 3.610175e+01 3.998068e+01 1.164653e+02 7.243767e-01 7.418514e-01 1.110631e+00 1.025684e+00 1.277676e+00 1.070359e+00 1.114254e+00 1.071945e+00 1.000891e+00 7.746003e-01 8.645885e-01 8.289602e-01 1.496408e+00 7.638787e-02 8.017790e-02 1.093894e-01 1.150440e-01 1.483878e-01 1.194964e-01 1.346975e-01 1.282168e-01 1.182473e-01 9.962064e-02 1.077197e-01 1.022301e-01 1.488178e-01
<GCONST> 9.359736e+01
<STATE> 3
<MEAN> 39
 -5.123383e-02 5.019084e-01 4.538776e-01 -4.393112e-01 -2.007679e-01 -6.362460e-02 -6.210794e-01 -7.749455e-01 -4.054419e-01 1.301081e-01 3.925836e-01 3.232424e-01 -5.706105e-02 8.784468e-03 8.965739e-04 7.239027e-03 -1.430955e-02 -1.065771e-02 2.990625e-04 -9.471118e-03 -1.002400e-02 -9.136642e-03 -1.127123e-03 -1.049165e-03 -8.106097e-03 1.113383e-02 3.283359e-04 6.772177e-05 -4.627443e-04 7.757910e-05 -5.891315e-05 5.307053e-04 3.830691e-06 -2.625175e-04 -4.320942e-04 -1.223693e-04 5.169935e-04 4.772809e-06 3.784253e-04
<VARIANCE> 39
 3.350838e+01 3.674072e+01 6.114069e+01 5.663074e+01 6.099081e+01 5.138691e+01 5.387175e+01 5.023759e+01 4.634395e+01 3.114468e+01 3.614597e+01 3.996154e+01 1.160720e+02 7.269269e-01 7.435694e-01 1.115665e+00 1.031214e+00 1.275815e+00 1.074402e+00 1.115430e+00 1.072150e+00 1.006672e+00 7.768093e-01 8.698682e-01 8.329038e-01 1.504456e+00 7.666935e-02 8.041985e-02 1.096649e-01 1.156766e-01 1.482537e-01 1.198722e-01 1.347026e-01 1.283986e-01 1.189259e-01 1.000870e-01 1.084205e-01 1.024686e-01 1.493268e-01
<GCONST> 9.368398e+01
<STATE> 4
<MEAN> 39
 5.805537e-02 4.551333e-01 4.912349e-01 -5.072063e-01 -3.397633e-01 -1.122920e-01 -6.429529e-01 -7.663430e-01 -4.505960e-01 1.177668e-01 3.605207e-01 2.130164e-01 8.150926e-02 8.256846e-03 2.834176e-03 4.286513e-03 -9.256855e-03 -8.914678e-03 2.662300e-03 -8.344275e-03 -1.028367e-02 -1.027431e-02 -1.434401e-03 2.946079e-04 -7.619179e-03 8.690038e-03 1.731776e-04 1.698115e-04 -5.058265e-04 4.471684e-04 -3.190205e-06 1.992640e-04 -1.050983e-04 -2.127866e-04 -3.553483e-04 -1.729474e-04 1.885493e-04 -1.148867e-04 2.205067e-04
<VARIANCE> 39
 3.258752e+01 3.672608e+01 6.036267e+01 5.550168e+01 5.960061e+01 5.050843e+01 5.285500e+01 4.962697e+01 4.525834e+01 3.084590e+01 3.558529e+01 3.938238e+01 1.150845e+02 7.006009e-01 7.238299e-01 1.089243e+00 1.001371e+00 1.237358e+00 1.044488e+00 1.082445e+00 1.051511e+00 9.811003e-01 7.626622e-01 8.550118e-01 8.166702e-01 1.454825e+00 7.423952e-02 7.808717e-02 1.068029e-01 1.125871e-01 1.435826e-01 1.165484e-01 1.303064e-01 1.261186e-01 1.161170e-01 9.831680e-02 1.069400e-01 1.003646e-01 1.437613e-01
<GCONST> 9.279848e+01
<TRANSP> 5
 0.000000e+00 1.000000e+00 0.000000e+00 0.000000e+00 0.000000e+00
 0.000000e+00 7.122677e-01 2.877323e-01 0.000000e+00 0.000000e+00
 0.000000e+00 0.000000e+00 7.122646e-01 2.877354e-01 0.000000e+00
 0.000000e+00 0.000000e+00 0.000000e+00 8.379201e-01 1.620800e-01
 0.000000e+00 0.000000e+00 0.000000e+00 0.000000e+00 0.000000e+00
<ENDHMM>
~h "p"
<BEGINHMM>
<NUMSTATES> 5
<STATE> 2
<MEAN> 39
 8.948779e-01 -1.384605e+00 -6.284910e-01 -1.258011e+00 -4.699602e-01 -4.638745e-01 -6.236352e-01 -4.022161e-02 -1.733190e-01 -9.489734e-02 -5.419381e-01 -1.089129e+00 2.444758e+00 5.851819e-03 -2.013314e-03 1.133960e-02 -4.215162e-03 -6.730102e-03 -4.874242e-03 -2.634203e-03 2.022094e-03 -5.145134e-03 6.113818e-04 -1.692839e-03 1.495304e-03 1.163885e-04 -1.943743e-04 1.491204e-04 6.343213e-04 3.077097e-04 -4.547313e-04 -1.530953e-04 1.674797e-04 4.861598e-04 -1.143717e-04 7.671020e-05 -1.558253e-04 2.269645e-05 -2.349690e-04
<VARIANCE> 39
 3.354103e+01 4.122393e+01 6.022310e+01 4.717652e+01 5.878948e+01 5.161361e+01 4.914630e+01 4.773469e+01 4.438377e+01 3.262217e+01 3.733214e+01 4.110985e+01 1.058203e+02 7.444491e-01 8.169919e-01 1.062454e+00 9.844503e-01 1.225577e+00 1.056556e+00 1.028677e+00 1.080171e+00 9.391200e-01 7.566074e-01 8.423151e-01 8.173420e-01 1.566325e+00 7.983338e-02 8.682934e-02 1.050593e-01 1.125195e-01 1.383587e-01 1.196946e-01 1.207624e-01 1.298859e-01 1.125888e-01 9.470876e-02 1.042617e-01 1.013324e-01 1.534173e-01
<GCONST> 9.292909e+01
<STATE> 3
<MEAN> 39
 9.180925e-01 -1.393095e+00 -5.865485e-01 -1.276031e+00 -5.011064e-01 -4.811436e-01 -6.300939e-01 -3.280365e-02 -1.947616e-01 -9.445447e-02 -5.554895e-01 -1.088310e+00 2.454845e+00 5.300001e-03 -1.052890e-03 1.295145e-02 -2.808756e-03 -8.022546e-03 -4.639931e-03 -1.415063e-03 3.151719e-03 -5.067705e-03 7.891736e-04 -2.278945e-03 8.091384e-04 -6.316589e-04 -1.835812e-04 2.511887e-04 4.059616e-04 4.068733e-04 -3.083190e-04 1.639707e-04 3.636305e-04 2.571641e-04 8.196749e-05 1.765143e-05 -1.538569e-04 -2.055860e-04 -2.389343e-04
<VARIANCE> 39
 3.345651e+01 4.115892e+01 6.007404e+01 4.688846e+01 5.886432e+01 5.151688e+01 4.912969e+01 4.788734e+01 4.439774e+01 3.253013e+01 3.726751e+01 4.110210e+01 1.057272e+02 7.461901e-01 8.165485e-01 1.068082e+00 9.867213e-01 1.228258e+00 1.053509e+00 1.026048e+00 1.083814e+00 9.421548e-01 7.559618e-01 8.458739e-01 8.169018e-01 1.571167e+00 7.982433e-02 8.691162e-02 1.055973e-01 1.126965e-01 1.387508e-01 1.192431e-01 1.204845e-01 1.302565e-01 1.127839e-01 9.458996e-02 1.046398e-01 1.013271e-01 1.540957e-01
<GCONST> 9.294751e+01
<STATE> 4
<MEAN> 39
 9.424647e-01 -1.438812e+00 -4.907326e-01 -1.353577e+00 -6.216328e-01 -5.714488e-01 -6.336553e-01 -7.854153e-02 -3.075134e-01 -1.689130e-01 -6.137748e-01 -1.096950e+00 2.648875e+00 6.049052e-03 1.041525e-03 1.276230e-02 -2.380288e-03 -1.201480e-02 -4.459091e-03 -2.224593e-04 -9.687911e-04 -6.753406e-03 -6.185759e-04 -2.961142e-03 -2.831060e-03 3.470634e-03 -1.869246e-04 3.679782e-04 2.255703e-04 4.633703e-04 -1.667735e-04 2.322654e-04 2.579571e-04 -1.384895e-04 1.315137e-04 1.109791e-05 1.095700e-04 -8.487268e-05 -3.404139e-04
<VARIANCE> 39
 3.278146e+01 4.089482e+01 5.811256e+01 4.646088e+01 5.785070e+01 5.071861e+01 4.804470e+01 4.708436e+01 4.356384e+01 3.188565e+01 3.632068e+01 4.011629e+01 1.092794e+02 7.191221e-01 7.805766e-01 1.068762e+00 9.635295e-01 1.188504e+00 1.030081e+00 9.904143e-01 1.057668e+00 9.209522e-01 7.317347e-01 8.311182e-01 7.921352e-01 1.546920e+00 7.664882e-02 8.235225e-02 1.059551e-01 1.087200e-01 1.350949e-01 1.166551e-01 1.163603e-01 1.266283e-01 1.101016e-01 9.132262e-02 1.028557e-01 9.795816e-02 1.497770e-01
<GCONST> 9.203319e+01
<TRANSP> 5
 0.000000e+00 1.000000e+00 0.000000e+00 0.000000e+00 0.000000e+00
 0.000000e+00 7.245076e-01 2.754924e-01 0.000000e+00 0.000000e+00
 0.000000e+00 0.000000e+00 7.245046e-01 2.754955e-01 0.000000e+00
 0.000000e+00 0.000000e+00 0.000000e+00 8.577370e-01 1.422630e-01
 0.000000e+00 0.000000e+00 0.000000e+00 0.000000e+00 0.000000e+00
<ENDHMM>
~h "r"
<BEGINHMM>
<NUMSTATES> 5
<STATE> 2
<MEAN> 39
 6.100889e-01 -5.326279e-01 -2.228931e-01 -4.319364e-01 -4.581969e-01 -4.122284e-01 -4.040950e-01 4.171888e-02 5.665034e-02 -6.564417e-02 -2.473946e-01 -4.025061e-01 9.742687e-01 1.656228e-03 5.427417e-03 8.171557e-03 3.093410e-03 -9.896366e-03 -2.183805e-03 1.129963e-03 -4.291544e-03 -4.264196e-03 2.009277e-04 2.348972e-03 -1.534246e-03 -5.731587e-03 -3.381118e-04 2.757486e-04 1.406773e-04 1.576632e-04 1.930870e-04 2.615619e-04 2.053926e-04 -6.124984e-05 2.077790e-04 -3.226324e-05 1.055586e-04 2.357729e-04 -4.404664e-04
<VARIANCE> 39
 3.134568e+01 4.085147e+01 5.692680e+01 4.676657e+01 5.727528e+01 5.044830e+01 5.084470e+01 4.712147e+01 4.542582e+01 3.066338e+01 3.648392e+01 3.993068e+01 1.133287e+02 6.703414e-01 7.705057e-01 1.100775e+00 9.164405e-01 1.236211e+00 1.000739e+00 1.044810e+00 1.086614e+00 1.011542e+00 7.376021e-01 8.335662e-01 8.138919e-01 1.371496e+00 7.084086e-02 8.220112e-02 1.093615e-01 1.051631e-01 1.422960e-01 1.123263e-01 1.247602e-01 1.301131e-01 1.171862e-01 9.473927e-02 1.042024e-01 1.002358e-01 1.317823e-01
<GCONST> 9.208875e+01
<STATE> 3
<MEAN> 39
 6.143292e-01 -5.121906e-01 -1.941636e-01 -4.226290e-01 -4.932032e-01 -4.206317e-01 -3.998171e-01 2.551345e-02 4.383096e-02 -6.670806e-02 -2.396805e-01 -4.076869e-01 9.546183e-01 4.418836e-04 6.534139e-03 8.420018e-03 3.688436e-03 -8.842285e-03 -1.297930e-03 1.894807e-03 -4.639267e-03 -3.687454e-03 1.668961e-04 2.542515e-03 -5.322463e-04 -7.731230e-03 -3.347172e-04 3.241397e-04 6.773496e-05 1.617926e-04 2.791850e-04 2.363176e-04 2.611604e-04 -1.425961e-04 1.361233e-04 -3.662604e-05 2.064376e-05 2.710609e-04 -5.249195e-04
<VARIANCE> 39
 3.121577e+01 4.082518e+01 5.709801e+01 4.669287e+01 5.725804e+01 5.046495e+01 5.081421e+01 4.715522e+01 4.539484e+01 3.063619e+01 3.645913e+01 3.986757e+01 1.136662e+02 6.670362e-01 7.673006e-01 1.102508e+00 9.142349e-01 1.234463e+00 9.984345e-01 1.044245e+00 1.085708e+00 1.009057e+00 7.364012e-01 8.318512e-01 8.111798e-01 1.361697e+00 7.055606e-02 8.184466e-02 1.093532e-01 1.048458e-01 1.421429e-01 1.120396e-01 1.247140e-01 1.299660e-01 1.167772e-01 9.454631e-02 1.040286e-01 9.989315e-02 1.310365e-01
<GCONST> 9.202007e+01
<STATE> 4
<MEAN> 39
 6.268499e-01 -5.325773e-01 -1.427488e-01 -5.271944e-01 -6.323014e-01 -5.233496e-01 -4.081938e-01 -3.329199e-02 -6.030933e-03 -1.035294e-01 -2.795611e-01 -4.829500e-01 1.136833e+00 -7.711071e-04 8.669402e-03 7.830401e-03 4.624489e-03 -7.172261e-03 -3.663957e-04 3.402597e-03 -4.359095e-03 -3.039303e-03 -4.812985e-06 2.030430e-03 9.035348e-04 -1.150003e-02 -2.658406e-04 3.755471e-04 -1.794658e-05 2.099853e-04 2.557645e-04 2.538795e-04 3.206728e-04 -4.915733e-05 2.831049e-05 7.600198e-06 -2.190686e-05 2.683218e-04 -6.599877e-04
<VARIANCE> 39
 3.067428e+01 4.090053e+01 5.593308e+01 4.695552e+01 5.656625e+01 5.011750e+01 5.000681e+01 4.656984e+01 4.447530e+01 3.041550e+01 3.599435e+01 3.960883e+01 1.178321e+02 6.399418e-01 7.386679e-01 1.079276e+00 8.820976e-01 1.192719e+00 9.682858e-01 1.011520e+00 1.056982e+00 9.712018e-01 7.161308e-01 8.097165e-01 7.843106e-01 1.305315e+00 6.783725e-02 7.861142e-02 1.068179e-01 1.005392e-01 1.372466e-01 1.086610e-01 1.208598e-01 1.263744e-01 1.128023e-01 9.177501e-02 1.013311e-01 9.654549e-02 1.251558e-01
<GCONST> 9.106066e+01
<TRANSP> 5
 0.000000e+00 1.000000e+00 0.000000e+00 0.000000e+00 0.000000e+00
 0.000000e+00 7.159683e-01 2.840317e-01 0.000000e+00 0.000000e+00
 0.000000e+00 0.000000e+00 7.159737e-01 2.840262e-01 0.000000e+00
 0.000000e+00 0.000000e+00 0.000000e+00 8.453215e-01 1.546784e-01
 0.000000e+00 0.000000e+00 0.000000e+00 0.000000e+00 0.000000e+00
<ENDHMM>
~h "s"
<BEGINHMM>
<NUMSTATES> 5
<STATE> 2
<MEAN> 39
 -3.434727e-01 -5.138288e-01 -3.256748e-01 -9.249316e-01 1.416952e-01 -9.165797e-01 -3.070457e-01 -1.581897e-01 -1.658960e-01 -4.573510e-01 -3.818598e-01 -3.549080e-01 2.373078e+00 1.200917e-02 -6.553270e-03 -8.412219e-03 -2.342273e-02 -1.540979e-02 -1.833120e-02 -1.778597e-02 -6.396991e-03 -3.082032e-03 1.110117e-03 -1.167235e-02 -1.579214e-02 3.334336e-02 1.370049e-04 3.165954e-04 4.218266e-04 4.827565e-04 -6.638328e-04 1.853953e-04 -1.805909e-04 1.855478e-04 1.629372e-04 1.959147e-04 5.897278e-04 1.036382e-04 -7.328384e-04
<VARIANCE> 39
 4.165374e+01 4.498890e+01 6.312537e+01 5.152382e+01 6.355807e+01 5.455507e+01 5.642471e+01 4.975536e+01 4.687717e+01 3.283638e+01 3.949281e+01 4.451985e+01 1.149342e+02 1.007248e+00 9.820591e-01 1.240212e+00 9.853469e-01 1.439690e+00 1.092661e+00 1.291372e+00 1.175734e+00 1.048236e+00 7.653085e-01 9.002550e-01 8.896061e-01 1.505132e+00 1.016472e-01 1.009733e-01 1.203672e-01 1.117707e-01 1.625981e-01 1.202351e-01 1.486938e-01 1.403941e-01 1.208590e-01 9.618402e-02 1.115556e-01 1.053362e-01 1.425296e-01
<GCONST> 9.643534e+01
<STATE> 3
<MEAN> 39
 -3.017026e-01 -5.310447e-01 -3.504661e-01 -9.982203e-01 8.232519e-02 -9.773998e-01 -3.680966e-01 -1.814717e-01 -1.761099e-01 -4.529408e-01 -4.167786e-01 -4.103238e-01 2.480318e+00 1.189612e-02 -5.456657e-03 -7.037765e-03 -2.119694e-02 -1.665590e-02 -1.746066e-02 -1.796291e-02 -5.710020e-03 -2.686733e-03 1.241160e-03 -9.709274e-03 -1.521555e-02 3.058039e-02 -7.802493e-05 3.717920e-04 3.888256e-04 6.483041e-04 -3.055899e-04 2.451500e-04 -1.498620e-05 1.533153e-04 5.595822e-05 1.882308e-05 5.688554e-04 1.562492e-04 -7.235794e-04
<VARIANCE> 39
 4.189233e+01 4.516653e+01 6.313837e+01 5.126558e+01 6.352163e+01 5.436720e+01 5.691611e+01 5.004683e+01 4.682211e+01 3.311901e+01 3.957501e+01 4.452391e+01 1.140200e+02 1.018192e+00 9.866961e-01 1.242599e+00 9.931915e-01 1.447785e+00 1.099636e+00 1.303254e+00 1.182948e+00 1.053377e+00 7.728820e-01 9.029569e-01 8.942159e-01 1.514019e+00 1.025161e-01 1.015596e-01 1.208025e-01 1.127150e-01 1.634057e-01 1.210064e-01 1.497208e-01 1.413032e-01 1.214246e-01 9.704911e-02 1.118839e-01 1.058357e-01 1.437770e-01
<GCONST> 9.661467e+01
<STATE> 4
<MEAN> 39
 -1.293854e-01 -6.459615e-01 -3.434716e-01 -1.232856e+00 -1.685489e-01 -1.149951e+00 -4.625058e-01 -1.939656e-01 -2.107648e-01 -4.492668e-01 -5.255225e-01 -6.270704e-01 2.839085e+00 1.029391e-02 -2.499380e-03 -4.575530e-03 -1.491750e-02 -1.565785e-02 -1.378649e-02 -1.594997e-02 -5.076068e-03 -1.711774e-03 1.688562e-03 -5.382844e-03 -1.306135e-02 2.108567e-02 -1.305055e-04 2.551471e-04 2.917608e-04 5.279682e-04 4.563940e-05 2.439581e-04 4.585686e-05 1.122131e-04 1.028944e-04 1.099797e-04 5.292977e-04 1.205679e-04 -7.389474e-04
<VARIANCE> 39
 4.137610e+01 4.489174e+01 6.139914e+01 4.960408e+01 6.213945e+01 5.309012e+01 5.647748e+01 4.954693e+01 4.556013e+01 3.300982e+01 3.899487e+01 4.362993e+01 1.123314e+02 9.938575e-01 9.535098e-01 1.211080e+00 9.629660e-01 1.411662e+00 1.070789e+00 1.283582e+00 1.159039e+00 1.027972e+00 7.631713e-01 8.826416e-01 8.745697e-01 1.470203e+00 9.956207e-02 9.816070e-02 1.181969e-01 1.092780e-01 1.591765e-01 1.178117e-01 1.470875e-01 1.388977e-01 1.189281e-01 9.569958e-02 1.094469e-01 1.032595e-01 1.395951e-01
<GCONST> 9.576234e+01
<TRANSP> 5
 0.000000e+00 1.000000e+00 0.000000e+00 0.000000e+00 0.000000e+00
 0.000000e+00 7.161098e-01 2.838902e-01 0.000000e+00 0.000000e+00
 0.000000e+00 0.000000e+00 7.161145e-01 2.838855e-01 0.000000e+00
 0.000000e+00 0.000000e+00 0.000000e+00 8.455504e-01 1.544497e-01
 0.000000e+00 0.000000e+00 0.000000e+00 0.000000e+00 0.000000e+00
<ENDHMM>
~h "t"
<BEGINHMM>
<NUMSTATES> 5
<STATE> 2
<MEAN> 39
 1.053892e-01 1.201953e-01 7.395750e-01 -3.570180e-01 -7.839098e-01 -4.095700e-01 -3.991652e-01 -6.010779e-01 -4.216841e-01 2.499949e-01 2.890722e-01 -2.239016e-01 2.489523e-01 -4.470906e-03 1.467009e-03 -1.982836e-03 4.337355e-03 3.917952e-03 -6.261143e-05 1.194078e-02 1.064790e-02 8.257268e-03 -1.472916e-03 -6.129823e-03 5.664465e-03 -1.399621e-02 -3.365964e-04 1.070654e-06 -3.762106e-04 1.541336e-04 3.504626e-04 2.126265e-04 3.403403e-04 2.645480e-04 3.238865e-04 2.626145e-05 -1.046553e-04 3.851145e-05 -4.658478e-04
<VARIANCE> 39
 3.095832e+01 3.749439e+01 6.666702e+01 4.823261e+01 5.847239e+01 4.890415e+01 4.957711e+01 4.824710e+01 4.608344e+01 3.085351e+01 3.683264e+01 4.146872e+01 1.105992e+02 7.123556e-01 7.841260e-01 1.166736e+00 9.224749e-01 1.250553e+00 1.015446e+00 1.109113e+00 1.079021e+00 1.027017e+00 7.614122e-01 8.589823e-01 8.833607e-01 1.588429e+00 7.896116e-02 8.567862e-02 1.160234e-01 1.066336e-01 1.474549e-01 1.152205e-01 1.373032e-01 1.307651e-01 1.197034e-01 9.726331e-02 1.077983e-01 1.101510e-01 1.588458e-01
<GCONST> 9.348586e+01
<STATE> 3
<MEAN> 39
 8.831591e-02 1.243650e-01 7.312311e-01 -3.399500e-01 -7.703040e-01 -4.078843e-01 -3.576974e-01 -5.644605e-01 -3.923048e-01 2.456529e-01 2.695167e-01 -2.040670e-01 1.974817e-01 -5.811079e-03 1.831738e-03 -3.091742e-03 4.913158e-03 4.964179e-03 6.880095e-04 1.309355e-02 1.102689e-02 9.239364e-03 -1.078112e-03 -5.797750e-03 5.873095e-03 -1.552488e-02 -3.602450e-04 9.119276e-05 -3.247927e-04 1.452987e-04 2.984053e-04 3.152745e-04 3.026148e-04 6.754576e-05 2.471384e-04 1.269158e-04 9.476616e-05 2.186691e-05 -3.814750e-04
<VARIANCE> 39
 3.087907e+01 3.758943e+01 6.663822e+01 4.826836e+01 5.837877e+01 4.878632e+01 4.948059e+01 4.812821e+01 4.605853e+01 3.080622e+01 3.680845e+01 4.143714e+01 1.109676e+02 7.081352e-01 7.799784e-01 1.160076e+00 9.170712e-01 1.241772e+00 1.010456e+00 1.101699e+00 1.072656e+00 1.019280e+00 7.606991e-01 8.570213e-01 8.811205e-01 1.579531e+00 7.853867e-02 8.515588e-02 1.155022e-01 1.058988e-01 1.465303e-01 1.145890e-01 1.364358e-01 1.300465e-01 1.188591e-01 9.707484e-02 1.074939e-01 1.098931e-01 1.577488e-01
<GCONST> 9.334351e+01
<STATE> 4
<MEAN> 39
 3.333082e-02 1.899578e-01 6.503000e-01 -2.125187e-01 -6.460810e-01 -2.781030e-01 -2.652351e-01 -4.780792e-01 -3.063383e-01 2.549828e-01 2.728397e-01 -1.244056e-01 -4.442640e-02 -7.080541e-03 2.906146e-03 -2.611661e-03 6.241314e-03 5.541957e-03 2.070501e-03 1.334137e-02 1.000215e-02 8.960422e-03 -3.509910e-04 -4.121234e-03 6.264782e-03 -1.701001e-02 -2.612614e-04 1.654943e-04 -4.290472e-05 1.655959e-04 2.236546e-04 3.863613e-04 1.709341e-04 -8.812463e-05 3.582995e-05 1.294210e-04 1.777809e-04 2.152129e-05 -2.587547e-04
<VARIANCE> 39
 3.016105e+01 3.698119e+01 6.398083e+01 4.777496e+01 5.702718e+01 4.774944e+01 4.825235e+01 4.661138e+01 4.480317e+01 3.010600e+01 3.589525e+01 4.059138e+01 1.109521e+02 6.739885e-01 7.425277e-01 1.104699e+00 8.756829e-01 1.182054e+00 9.680178e-01 1.055695e+00 1.032702e+00 9.763204e-01 7.377213e-01 8.256025e-01 8.469311e-01 1.495288e+00 7.465865e-02 8.098984e-02 1.102885e-01 1.011172e-01 1.396375e-01 1.100710e-01 1.310650e-01 1.257372e-01 1.143461e-01 9.417839e-02 1.039317e-01 1.059214e-01 1.491183e-01
<GCONST> 9.193087e+01
<TRANSP> 5
 0.000000e+00 1.000000e+00 0.000000e+00 0.000000e+00 0.000000e+00
 0.000000e+00 7.085651e-01 2.914349e-01 0.000000e+00 0.000000e+00
 0.000000e+00 0.000000e+00 7.085661e-01 2.914340e-01 0.000000e+00
 0.000000e+00 0.000000e+00 0.000000e+00 8.329933e-01 1.670067e-01
 0.000000e+00 0.000000e+00 0.000000e+00 0.000000e+00 0.000000e+00
<ENDHMM>
~h "u"
<BEGINHMM>
<NUMSTATES> 5
<STATE> 2
<MEAN> 39
 -2.049751e-01 1.061178e-01 -1.388374e-01 -7.110389e-02 2.215681e-01 -9.261367e-02 -4.794457e-01 -1.795591e-01 -1.216101e-01 -1.449757e-01 5.325548e-01 4.025658e-01 -1.405090e-01 -3.355974e-04 -2.035100e-03 7.709017e-03 -5.062703e-03 -8.267459e-03 -3.609937e-03 -2.242993e-03 -1.447829e-03 -7.460294e-03 -5.275497e-03 -4.365469e-03 -5.320397e-03 3.452055e-03 3.330224e-04 3.771266e-04 3.901070e-04 -3.464589e-04 -2.805399e-04 1.766763e-04 -4.906439e-04 -5.521626e-04 -2.901132e-05 2.254938e-04 -8.093920e-04 2.548466e-04 5.324389e-05
<VARIANCE> 39
 3.578848e+01 3.809815e+01 5.511406e+01 5.336646e+01 5.943521e+01 5.124204e+01 5.590873e+01 4.992264e+01 4.697249e+01 3.234848e+01 3.627628e+01 4.165051e+01 1.205416e+02 7.753555e-01 7.066682e-01 1.050896e+00 9.358689e-01 1.190461e+00 1.015846e+00 1.084884e+00 1.071246e+00 1.016925e+00 7.586446e-01 8.218740e-01 8.001699e-01 1.324526e+00 7.841934e-02 7.525581e-02 1.048718e-01 1.090354e-01 1.353234e-01 1.133463e-01 1.291740e-01 1.273064e-01 1.184836e-01 9.664031e-02 1.051471e-01 9.780531e-02 1.268760e-01
<GCONST> 9.260022e+01
<STATE> 3
<MEAN> 39
 -2.020041e-01 1.015174e-01 -1.118020e-01 -9.501494e-02 1.912245e-01 -1.019581e-01 -4.940222e-01 -1.899015e-01 -1.475386e-01 -1.629960e-01 5.113714e-01 3.847881e-01 -1.226933e-01 1.174989e-03 -8.465314e-04 7.958010e-03 -6.752694e-03 -9.202755e-03 -2.399533e-03 -4.073846e-03 -3.487724e-03 -7.392153e-03 -4.387618e-03 -6.618100e-03 -4.328778e-03 3.629612e-03 4.363873e-04 3.918476e-04 -1.023125e-05 -4.561701e-04 -1.358316e-04 3.768445e-04 -5.321563e-04 -6.458243e-04 5.384331e-06 2.739115e-04 -6.107952e-04 2.825963e-04 -5.250275e-05
<VARIANCE> 39
 3.585003e+01 3.816681e+01 5.550384e+01 5.330948e+01 5.958661e+01 5.129986e+01 5.574778e+01 4.999157e+01 4.710201e+01 3.244425e+01 3.634095e+01 4.167361e+01 1.203671e+02 7.800615e-01 7.094807e-01 1.057134e+00 9.421604e-01 1.194597e+00 1.018260e+00 1.093301e+00 1.073832e+00 1.019740e+00 7.597507e-01 8.239240e-01 8.009611e-01 1.327720e+00 7.873427e-02 7.548472e-02 1.053252e-01 1.096671e-01 1.356760e-01 1.136298e-01 1.300182e-01 1.272255e-01 1.187725e-01 9.673611e-02 1.053407e-01 9.776766e-02 1.274401e-01
<GCONST> 9.270462e+01
<STATE> 4
<MEAN> 39
 -6.737792e-02 -2.138074e-02 -6.370162e-02 -3.209667e-01 3.603025e-03 -2.003186e-01 -6.469619e-01 -2.364660e-01 -2.502352e-01 -2.242744e-01 4.067303e-01 2.249256e-01 2.830420e-01 2.394084e-03 2.288482e-03 6.654958e-03 -9.071785e-03 -1.007295e-02 -1.005304e-03 -5.120189e-03 -5.735477e-03 -7.216460e-03 -3.125765e-03 -7.724750e-03 -3.045441e-03 5.132393e-03 1.789916e-04 5.634079e-04 -6.137766e-05 -9.401171e-05 -5.701739e-05 3.379321e-04 -2.956200e-05 -4.420163e-04 -1.151677e-04 2.837163e-04 -1.920794e-04 2.999885e-04 -2.988121e-04
<VARIANCE> 39
 3.536037e+01 3.846111e+01 5.525858e+01 5.313252e+01 5.922485e+01 5.150733e+01 5.520822e+01 4.989077e+01 4.686645e+01 3.259684e+01 3.634447e+01 4.133439e+01 1.221903e+02 7.649637e-01 7.076446e-01 1.048844e+00 9.444195e-01 1.184643e+00 1.014046e+00 1.092838e+00 1.068527e+00 1.007211e+00 7.560800e-01 8.188950e-01 7.951518e-01 1.334729e+00 7.713234e-02 7.486965e-02 1.044606e-01 1.097531e-01 1.344612e-01 1.130805e-01 1.298336e-01 1.260321e-01 1.179238e-01 9.586067e-02 1.043004e-01 9.683180e-02 1.280910e-01
<GCONST> 9.252120e+01
<TRANSP> 5
 0.000000e+00 1.000000e+00 0.000000e+00 0.000000e+00 0.000000e+00
 0.000000e+00 7.137855e-01 2.862145e-01 0.000000e+00 0.000000e+00
 0.000000e+00 0.000000e+00 7.137735e-01 2.862265e-01 0.000000e+00
 0.000000e+00 0.000000e+00 0.000000e+00 8.401565e-01 1.598435e-01
 0.000000e+00 0.000000e+00 0.000000e+00 0.000000e+00 0.000000e+00
<ENDHMM>
~h "v"
<BEGINHMM>
<NUMSTATES> 5
<STATE> 2
<MEAN> 39
 -8.523773e-01 4.547002e-01 -1.246071e+00 -6.573291e-01 1.071966e+00 1.225261e-01 -1.519378e-01 -3.393272e-01 2.400968e-01 1.071221e+00 2.813470e-01 2.300580e-01 3.282844e-01 4.382033e-02 -7.238465e-03 -8.998433e-03 4.846338e-03 -3.127630e-02 -2.438141e-03 -2.436393e-02 8.124096e-03 1.332373e-02 1.385988e-02 -2.878438e-02 -3.324249e-02 2.381881e-03 -9.800583e-04 -1.826041e-04 4.867215e-04 7.728253e-04 6.010468e-04 2.256454e-06 9.457769e-04 1.683520e-03 8.298023e-04 5.969928e-04 6.681822e-04 1.203994e-03 -3.718896e-03
<VARIANCE> 39
 3.766938e+01 3.481225e+01 4.654793e+01 4.677764e+01 4.731606e+01 4.573792e+01 4.304634e+01 4.637509e+01 3.968228e+01 2.542130e+01 3.503267e+01 3.726550e+01 1.283133e+02 8.642593e-01 6.602505e-01 1.043489e+00 8.840820e-01 1.070511e+00 8.699649e-01 7.693046e-01 9.650359e-01 1.054801e+00 6.281856e-01 8.324924e-01 7.579122e-01 1.235921e+00 8.269557e-02 6.920189e-02 1.050815e-01 1.059127e-01 1.176149e-01 9.784283e-02 9.769607e-02 1.134497e-01 1.223829e-01 8.080477e-02 1.091959e-01 9.749897e-02 1.173535e-01
<GCONST> 8.916517e+01
<STATE> 3
<MEAN> 39
 -7.256814e-01 4.341839e-01 -1.260079e+00 -6.205755e-01 9.873479e-01 1.253230e-01 -2.161542e-01 -3.026997e-01 2.830926e-01 1.120426e+00 1.950264e-01 1.357764e-01 2.987085e-01 3.998981e-02 -7.786398e-03 -5.638168e-03 7.833018e-03 -2.880843e-02 -3.061982e-03 -2.013407e-02 1.374807e-02 1.445518e-02 1.419217e-02 -2.622785e-02 -2.857338e-02 -8.658702e-03 -1.434813e-03 -9.361214e-05 1.203064e-03 9.099173e-04 8.962355e-04 -2.827235e-04 1.373411e-03 1.823811e-03 3.187091e-04 -1.184755e-04 8.705725e-04 1.633338e-03 -3.374599e-03
<VARIANCE> 39
 3.646426e+01 3.465640e+01 4.602221e+01 4.727259e+01 4.703894e+01 4.522321e+01 4.280844e+01 4.598449e+01 3.941182e+01 2.532483e+01 3.540751e+01 3.773967e+01 1.283919e+02 8.292115e-01 6.599255e-01 1.036368e+00 8.903554e-01 1.071718e+00 8.685851e-01 7.676907e-01 9.608117e-01 1.050649e+00 6.176971e-01 8.194274e-01 7.559327e-01 1.214313e+00 8.069503e-02 6.959695e-02 1.046866e-01 1.069263e-01 1.172500e-01 9.887801e-02 9.862549e-02 1.133429e-01 1.221580e-01 7.968035e-02 1.075980e-01 9.738006e-02 1.162888e-01
<GCONST> 8.896593e+01
<STATE> 4
<MEAN> 39
 -7.175409e-01 6.134772e-01 -1.142884e+00 -2.370676e-01 8.849523e-01 1.074860e-01 -2.133132e-01 -1.690871e-01 3.771216e-01 1.135083e+00 2.429413e-01 2.189065e-01 -3.729711e-01 2.797471e-02 -5.868413e-03 2.969179e-03 1.534630e-02 -1.908783e-02 -1.295035e-03 -7.976634e-03 1.783138e-02 1.004953e-02 1.024822e-02 -1.828368e-02 -1.883828e-02 -2.157956e-02 -1.312304e-03 -2.728233e-05 1.218755e-03 8.384594e-04 8.018570e-04 -4.348798e-04 1.559197e-03 1.403014e-03 -2.494626e-04 -8.072316e-04 9.424217e-04 1.198528e-03 -2.156553e-03
<VARIANCE> 39
 3.358883e+01 3.400217e+01 4.411464e+01 4.723707e+01 4.578779e+01 4.383108e+01 4.270880e+01 4.330357e+01 3.909734e+01 2.464679e+01 3.494246e+01 3.761467e+01 1.300451e+02 7.413689e-01 6.259950e-01 9.857350e-01 8.589787e-01 1.046293e+00 8.442074e-01 7.526964e-01 9.177371e-01 1.029162e+00 5.887336e-01 7.785791e-01 7.177462e-01 1.145282e+00 7.413842e-02 6.755858e-02 1.017544e-01 1.050804e-01 1.143611e-01 9.824213e-02 9.832781e-02 1.096145e-01 1.209418e-01 7.698170e-02 1.024605e-01 9.350240e-02 1.120858e-01
<GCONST> 8.766414e+01
<TRANSP> 5
 0.000000e+00 1.000000e+00 0.000000e+00 0.000000e+00 0.000000e+00
 0.000000e+00 7.253929e-01 2.746070e-01 0.000000e+00 0.000000e+00
 0.000000e+00 0.000000e+00 7.253928e-01 2.746073e-01 0.000000e+00
 0.000000e+00 0.000000e+00 0.000000e+00 8.493187e-01 1.506812e-01
 0.000000e+00 0.000000e+00 0.000000e+00 0.000000e+00 0.000000e+00
<ENDHMM>
~h "w"
<BEGINHMM>
<NUMSTATES> 5
<STATE> 2
<MEAN> 39
 -2.789427e-02 1.510833e-01 -2.396324e-01 3.293797e-01 2.733464e-01 4.771791e-02 -2.997944e-02 -6.735834e-02 2.190476e-01 -3.189150e-02 -6.473575e-02 1.471953e-02 -3.444630e-02 1.301385e-02 -4.668706e-03 9.653164e-04 -6.584289e-03 -1.501376e-02 -3.826184e-03 -8.062016e-03 -1.732543e-03 -8.524639e-03 -3.943957e-04 5.662435e-03 -1.089939e-02 1.704925e-02 6.927258e-05 -7.324797e-06 -4.959783e-04 -5.382986e-04 5.569592e-04 5.996074e-04 7.316472e-05 -1.095541e-04 -1.317254e-04 1.928785e-04 6.696078e-05 -4.828557e-04 -3.071656e-04
<VARIANCE> 39
 3.446938e+01 4.179674e+01 5.350182e+01 4.939997e+01 5.563306e+01 4.931523e+01 4.941926e+01 4.591014e+01 4.091241e+01 2.897540e+01 3.447876e+01 4.093247e+01 1.217021e+02 6.997052e-01 7.409970e-01 9.746812e-01 8.389236e-01 1.076742e+00 9.199446e-01 9.868296e-01 1.012273e+00 8.638703e-01 6.707590e-01 7.857919e-01 7.470021e-01 1.268893e+00 7.237387e-02 7.719239e-02 9.588423e-02 9.394379e-02 1.253837e-01 1.046488e-01 1.179157e-01 1.230103e-01 1.025477e-01 8.499260e-02 9.947377e-02 9.111387e-02 1.184806e-01
<GCONST> 8.985355e+01
<STATE> 3
<MEAN> 39
 1.808180e-02 1.397199e-01 -2.390114e-01 3.047878e-01 2.213133e-01 3.637262e-02 -5.642581e-02 -7.513837e-02 1.876642e-01 -3.107667e-02 -4.268159e-02 -2.706999e-02 1.891264e-02 1.337058e-02 -3.928900e-03 -1.610964e-03 -8.265709e-03 -1.252886e-02 -1.714043e-03 -7.493824e-03 -2.108755e-03 -8.378478e-03 4.937015e-04 5.730444e-03 -1.215627e-02 1.518453e-02 1.533537e-04 1.862636e-04 -7.239509e-04 -4.572902e-04 7.037375e-04 6.472472e-04 1.606897e-04 -1.213701e-04 1.635641e-05 2.433673e-04 -4.930681e-05 -2.914913e-04 -5.080843e-04
<VARIANCE> 39
 3.422395e+01 4.179366e+01 5.358662e+01 4.933771e+01 5.553908e+01 4.934897e+01 4.941245e+01 4.597480e+01 4.098196e+01 2.905352e+01 3.452208e+01 4.088467e+01 1.213051e+02 6.966820e-01 7.436097e-01 9.782821e-01 8.418636e-01 1.075538e+00 9.205538e-01 9.891074e-01 1.015517e+00 8.643368e-01 6.740956e-01 7.882487e-01 7.471030e-01 1.277664e+00 7.228819e-02 7.743873e-02 9.611221e-02 9.388871e-02 1.255390e-01 1.046914e-01 1.181541e-01 1.232240e-01 1.025642e-01 8.539899e-02 9.973416e-02 9.116838e-02 1.191609e-01
<GCONST> 8.989829e+01
<STATE> 4
<MEAN> 39
 1.530488e-01 8.268808e-02 -2.495346e-01 1.911037e-01 9.365908e-02 2.000578e-02 -7.902315e-02 -7.508168e-02 8.433794e-02 -5.482879e-02 -8.803897e-03 -1.161038e-01 1.618326e-01 1.183275e-02 -1.321235e-03 -4.496203e-03 -8.264641e-03 -8.804978e-03 -4.133326e-05 -5.216874e-03 -2.272813e-03 -7.031708e-03 2.278519e-03 5.719969e-03 -1.098263e-02 9.580654e-03 4.074342e-05 4.650826e-05 -6.154523e-04 -4.037399e-04 6.443150e-04 4.784338e-04 1.761425e-04 -2.108568e-04 4.856513e-05 2.181627e-04 -1.163306e-04 -3.091036e-05 -2.496096e-04
<VARIANCE> 39
 3.293154e+01 4.204872e+01 5.286142e+01 4.907844e+01 5.504023e+01 4.901131e+01 4.889024e+01 4.588363e+01 4.039514e+01 2.883875e+01 3.403955e+01 4.030060e+01 1.240921e+02 6.532925e-01 7.194241e-01 9.609067e-01 8.206144e-01 1.043883e+00 9.033447e-01 9.578419e-01 9.970579e-01 8.379713e-01 6.640221e-01 7.679498e-01 7.237226e-01 1.245390e+00 6.811856e-02 7.477951e-02 9.475915e-02 9.067299e-02 1.219042e-01 1.027962e-01 1.143401e-01 1.203929e-01 1.002403e-01 8.426010e-02 9.714163e-02 8.867805e-02 1.148812e-01
<GCONST> 8.904726e+01
<TRANSP> 5
 0.000000e+00 1.000000e+00 0.000000e+00 0.000000e+00 0.000000e+00
 0.000000e+00 7.189333e-01 2.810667e-01 0.000000e+00 0.000000e+00
 0.000000e+00 0.000000e+00 7.189325e-01 2.810675e-01 0.000000e+00
 0.000000e+00 0.000000e+00 0.000000e+00 8.467015e-01 1.532985e-01
 0.000000e+00 0.000000e+00 0.000000e+00 0.000000e+00 0.000000e+00
<ENDHMM>
~h "y"
<BEGINHMM>
<NUMSTATES> 5
<STATE> 2
<MEAN> 39
 -5.311714e-01 3.799048e-01 1.709811e-01 4.834525e-01 2.726551e-01 2.240955e-01 4.086168e-01 2.872871e-01 2.077959e-01 -1.105024e-01 1.794799e-01 6.341715e-01 -1.153104e+00 2.733267e-03 -1.036769e-02 2.258992e-02 -3.459261e-03 -9.808904e-03 -5.615645e-03 1.424358e-03 5.060522e-03 -7.974461e-03 -6.182051e-03 1.035884e-03 -2.960502e-03 1.598853e-02 3.136607e-04 -5.162933e-04 4.588457e-04 -2.234149e-04 -2.742778e-04 7.275988e-04 8.510763e-05 4.218023e-04 -9.135211e-05 3.523054e-05 3.398598e-04 -2.379857e-04 8.008582e-04
<VARIANCE> 39
 3.027103e+01 3.764759e+01 5.304857e+01 4.804885e+01 5.496694e+01 4.796619e+01 4.774362e+01 4.355518e+01 4.115458e+01 2.876061e+01 3.464096e+01 3.875962e+01 1.230690e+02 5.591490e-01 6.558602e-01 1.017462e+00 7.584865e-01 1.063516e+00 8.591108e-01 9.251064e-01 9.579553e-01 8.384920e-01 6.451032e-01 7.469535e-01 6.738966e-01 1.141391e+00 6.009502e-02 6.887298e-02 9.755828e-02 8.485494e-02 1.238360e-01 9.761384e-02 1.128486e-01 1.155818e-01 1.004226e-01 8.174694e-02 9.343148e-02 8.374224e-02 1.073267e-01
<GCONST> 8.760430e+01
<STATE> 3
<MEAN> 39
 -5.173409e-01 3.429071e-01 2.551195e-01 4.645160e-01 2.366424e-01 2.084213e-01 4.092567e-01 3.052464e-01 1.768043e-01 -1.344190e-01 1.827044e-01 6.225314e-01 -1.079801e+00 3.581709e-03 -9.744270e-03 2.322932e-02 -4.180666e-03 -1.068310e-02 -3.328175e-03 -5.427398e-05 3.966660e-03 -8.800917e-03 -6.761895e-03 1.380190e-03 -4.216346e-03 1.876568e-02 2.767007e-04 3.003176e-04 4.136584e-05 -7.107101e-05 -6.969910e-05 5.875511e-04 -4.471082e-04 -4.084975e-04 -1.820946e-04 -1.347610e-04 1.421669e-04 -3.140873e-04 5.664146e-04
<VARIANCE> 39
 3.031967e+01 3.798421e+01 5.356985e+01 4.825477e+01 5.519584e+01 4.788060e+01 4.772155e+01 4.359077e+01 4.126057e+01 2.888083e+01 3.491107e+01 3.892568e+01 1.237547e+02 5.589634e-01 6.652050e-01 1.034615e+00 7.622951e-01 1.080451e+00 8.586174e-01 9.309278e-01 9.668238e-01 8.434994e-01 6.504457e-01 7.548827e-01 6.768175e-01 1.152914e+00 6.005307e-02 6.938545e-02 9.840412e-02 8.506908e-02 1.253839e-01 9.762678e-02 1.132563e-01 1.167514e-01 1.007584e-01 8.232769e-02 9.423269e-02 8.395524e-02 1.077452e-01
<GCONST> 8.783080e+01
<STATE> 4
<MEAN> 39
 -4.212407e-01 1.956627e-01 4.371931e-01 3.015473e-01 1.085042e-01 6.214076e-02 2.692847e-01 2.427667e-01 1.630100e-02 -2.158262e-01 1.319745e-01 4.662307e-01 -5.444741e-01 6.118369e-03 -6.022172e-03 1.992908e-02 -6.290045e-03 -1.017382e-02 -1.062034e-03 -5.514630e-03 -2.289022e-04 -8.842673e-03 -8.394183e-03 -2.170545e-03 -8.448601e-03 2.713573e-02 2.432383e-04 6.277410e-04 -3.278993e-04 1.332699e-04 1.760546e-04 4.892053e-04 -6.686929e-04 -6.439963e-04 -7.151327e-06 -1.600969e-04 -1.090713e-04 -5.011215e-04 4.740763e-04
<VARIANCE> 39
 2.964177e+01 3.850708e+01 5.423233e+01 4.837257e+01 5.604836e+01 4.777253e+01 4.708993e+01 4.307488e+01 4.078460e+01 2.894426e+01 3.530605e+01 3.873852e+01 1.303310e+02 5.361795e-01 6.590047e-01 1.050001e+00 7.431920e-01 1.108025e+00 8.369402e-01 9.279512e-01 9.619613e-01 8.287240e-01 6.469496e-01 7.481209e-01 6.669013e-01 1.158287e+00 5.757773e-02 6.802930e-02 9.813277e-02 8.236331e-02 1.269520e-01 9.541289e-02 1.115791e-01 1.164866e-01 9.837536e-02 8.174881e-02 9.280705e-02 8.234724e-02 1.054729e-01
<GCONST> 8.754935e+01
<TRANSP> 5
 0.000000e+00 1.000000e+00 0.000000e+00 0.000000e+00 0.000000e+00
 0.000000e+00 7.223364e-01 2.776636e-01 0.000000e+00 0.000000e+00
 0.000000e+00 0.000000e+00 7.223338e-01 2.776662e-01 0.000000e+00
 0.000000e+00 0.000000e+00 0.000000e+00 8.538150e-01 1.461850e-01
 0.000000e+00 0.000000e+00 0.000000e+00 0.000000e+00 0.000000e+00
<ENDHMM>
~h "z"
<BEGINHMM>
<NUMSTATES> 5
<STATE> 2
<MEAN> 39
 -2.309105e+00 6.272506e-01 -8.706635e-01 2.450077e+00 3.820607e+00 1.060184e+00 1.558663e+00 9.396955e-01 1.004737e+00 3.416233e-02 1.353163e+00 2.515709e+00 -3.969693e+00 3.454666e-02 -1.235781e-02 9.158487e-02 7.501257e-03 -5.001742e-02 -8.239976e-02 -2.161443e-02 2.868965e-02 -2.377228e-02 6.353511e-04 -2.545577e-02 4.657314e-02 1.912048e-02 4.303236e-04 3.889643e-03 8.301375e-03 -9.933083e-04 -3.379805e-03 -1.102487e-02 -4.704215e-03 -4.049718e-03 -7.058449e-03 -1.143958e-03 -3.848199e-03 -6.562990e-03 9.473413e-03
<VARIANCE> 39
 1.971008e+01 3.267029e+01 3.683831e+01 4.590105e+01 4.222414e+01 3.465820e+01 4.020217e+01 3.783420e+01 3.520360e+01 2.518628e+01 3.035969e+01 3.854786e+01 1.118871e+02 3.104390e-01 4.915541e-01 6.513292e-01 4.817628e-01 6.436082e-01 6.707200e-01 6.533920e-01 7.538021e-01 7.771646e-01 5.710393e-01 6.195298e-01 5.136932e-01 8.396099e-01 3.979279e-02 5.123921e-02 6.828308e-02 6.543394e-02 7.751288e-02 8.298305e-02 8.618233e-02 9.103861e-02 9.294380e-02 7.079737e-02 8.508725e-02 6.835341e-02 7.669702e-02
<GCONST> 7.780498e+01
<STATE> 3
<MEAN> 39
 -2.174343e+00 6.398022e-01 -4.612451e-01 2.471125e+00 3.601236e+00 6.257875e-01 1.422245e+00 9.890870e-01 7.849782e-01 -1.309242e-02 1.205668e+00 2.583392e+00 -3.745085e+00 3.610831e-02 8.412212e-03 1.036369e-01 3.751845e-03 -5.335971e-02 -1.141959e-01 -3.236250e-02 4.443326e-03 -6.580349e-02 -1.626240e-02 -4.501367e-02 1.147802e-02 6.731874e-02 6.710297e-04 6.494346e-03 2.404823e-03 -9.790640e-04 -8.359840e-04 -8.072277e-03 -2.785855e-03 -6.552074e-03 -1.183312e-02 -4.830800e-03 -5.530498e-03 -9.803419e-03 1.295038e-02
<VARIANCE> 39
 2.034979e+01 3.550803e+01 3.740882e+01 4.537654e+01 4.153663e+01 3.571324e+01 4.004994e+01 4.034882e+01 3.748548e+01 2.510710e+01 3.083272e+01 3.914055e+01 1.123124e+02 3.582269e-01 5.580283e-01 6.759908e-01 5.069270e-01 6.866349e-01 7.091914e-01 6.808616e-01 8.375084e-01 8.172650e-01 5.718613e-01 6.342428e-01 5.300905e-01 9.275694e-01 4.606398e-02 5.896123e-02 6.939281e-02 6.626080e-02 8.530898e-02 8.663413e-02 9.007918e-02 9.987772e-02 9.422133e-02 6.993604e-02 8.456598e-02 6.883310e-02 8.016996e-02
<GCONST> 7.956147e+01
<STATE> 4
<MEAN> 39
 -1.942893e+00 8.704624e-01 2.516846e-01 2.367165e+00 3.076526e+00 -3.758577e-01 1.054074e+00 7.696102e-01 2.147309e-02 -2.164653e-01 8.934681e-01 2.274693e+00 -2.544003e+00 3.852045e-02 3.218142e-02 1.091373e-01 -9.669459e-03 -8.438838e-02 -1.414024e-01 -4.706433e-02 -3.222498e-02 -1.088551e-01 -3.665563e-02 -6.449138e-02 -4.224779e-02 1.613677e-01 -1.594552e-04 3.687919e-03 -7.787923e-04 -2.042027e-03 -3.735697e-03 -2.138059e-03 -1.660213e-03 -4.408848e-03 -5.219815e-03 -2.140005e-03 -2.347161e-03 -6.791092e-03 1.213630e-02
<VARIANCE> 39
 2.234975e+01 4.133657e+01 4.057737e+01 4.280451e+01 4.489719e+01 3.997466e+01 3.868512e+01 4.587812e+01 3.973911e+01 2.510339e+01 3.189760e+01 3.829301e+01 1.139451e+02 4.782056e-01 7.228293e-01 7.139795e-01 5.561139e-01 8.234978e-01 7.966738e-01 7.339364e-01 9.647536e-01 8.286641e-01 5.762214e-01 6.711699e-01 5.411643e-01 1.129719e+00 5.997766e-02 7.775963e-02 7.433899e-02 6.861326e-02 1.071421e-01 9.085193e-02 9.874083e-02 1.146489e-01 9.282495e-02 6.974337e-02 8.643557e-02 6.733643e-02 8.931098e-02
<GCONST> 8.294428e+01
<TRANSP> 5
 0.000000e+00 1.000000e+00 0.000000e+00 0.000000e+00 0.000000e+00
 0.000000e+00 7.281530e-01 2.718471e-01 0.000000e+00 0.000000e+00
 0.000000e+00 0.000000e+00 7.281530e-01 2.718470e-01 0.000000e+00
 0.000000e+00 0.000000e+00 0.000000e+00 8.527968e-01 1.472032e-01
 0.000000e+00 0.000000e+00 0.000000e+00 0.000000e+00 0.000000e+00
<ENDHMM>
~h "aa"
<BEGINHMM>
<NUMSTATES> 5
<STATE> 2
<MEAN> 39
 2.548172e-01 -5.754547e-01 -7.699887e-01 -4.706556e-01 4.369912e-01 4.438320e-01 1.381661e-01 3.423559e-01 3.915351e-01 -4.701115e-02 -6.146960e-01 -5.493933e-01 5.634577e-01 1.973686e-03 3.777107e-03 5.242537e-03 4.407523e-03 -2.892364e-03 1.523125e-03 -1.408614e-03 2.867950e-03 1.556979e-03 -1.710695e-03 -2.220334e-03 -1.243718e-03 -5.102450e-03 -2.633398e-05 1.387822e-04 1.930575e-04 1.222074e-04 -1.539347e-04 -2.000000e-04 -7.490171e-05 4.863984e-05 -1.415085e-04 4.168008e-05 2.810366e-04 1.318566e-04 -1.817712e-04
<VARIANCE> 39
 3.158530e+01 4.271365e+01 5.824545e+01 4.941351e+01 5.418486e+01 4.857101e+01 4.752170e+01 4.604395e+01 4.210600e+01 3.039410e+01 3.723090e+01 4.187973e+01 1.221588e+02 6.647770e-01 7.547259e-01 1.061504e+00 8.646290e-01 1.122479e+00 9.584217e-01 9.711284e-01 1.033448e+00 8.712857e-01 6.928455e-01 8.079208e-01 7.667156e-01 1.314430e+00 7.158256e-02 7.909461e-02 1.050763e-01 9.812187e-02 1.294823e-01 1.079070e-01 1.168734e-01 1.241740e-01 1.027927e-01 8.726177e-02 9.985241e-02 9.410265e-02 1.255159e-01
<GCONST> 9.060944e+01
<STATE> 3
<MEAN> 39
 2.609088e-01 -5.595081e-01 -7.496856e-01 -4.546596e-01 4.249306e-01 4.475086e-01 1.342530e-01 3.522467e-01 3.956222e-01 -5.257956e-02 -6.189414e-01 -5.532261e-01 5.433000e-01 1.936147e-03 4.318842e-03 5.851447e-03 4.754687e-03 -3.378626e-03 8.957505e-04 -1.497261e-03 3.036223e-03 1.064462e-03 -1.422188e-03 -1.017125e-03 -5.879113e-04 -5.971674e-03 -1.268570e-05 1.247059e-04 1.804927e-04 1.211105e-04 -2.304965e-04 -2.504167e-04 1.261255e-05 1.112589e-04 -1.299070e-04 1.278592e-04 3.502784e-04 2.151801e-04 -2.208951e-04
<VARIANCE> 39
 3.156745e+01 4.278212e+01 5.818610e+01 4.945776e+01 5.408741e+01 4.858429e+01 4.752077e+01 4.606298e+01 4.199363e+01 3.041890e+01 3.718744e+01 4.182178e+01 1.224779e+02 6.640559e-01 7.540377e-01 1.062557e+00 8.639159e-01 1.123152e+00 9.561263e-01 9.711935e-01 1.034404e+00 8.700292e-01 6.926981e-01 8.067703e-01 7.662662e-01 1.310357e+00 7.137988e-02 7.903652e-02 1.051045e-01 9.800295e-02 1.295487e-01 1.076161e-01 1.167414e-01 1.242407e-01 1.026624e-01 8.725385e-02 9.975475e-02 9.408421e-02 1.251124e-01
<GCONST> 9.058498e+01
<STATE> 4
<MEAN> 39
 2.266387e-01 -4.595022e-01 -6.464953e-01 -3.813824e-01 3.840509e-01 4.543228e-01 1.091732e-01 2.936682e-01 3.314056e-01 -3.298543e-02 -5.147512e-01 -5.049539e-01 4.290470e-01 1.378972e-03 5.210679e-03 5.877660e-03 5.255069e-03 -4.012307e-03 -1.889898e-04 -5.550829e-04 2.955117e-03 6.197194e-04 -3.591308e-04 1.209172e-03 6.538412e-04 -7.535920e-03 -6.783158e-05 1.240993e-04 3.789469e-05 2.120886e-04 -1.574939e-04 -2.673412e-04 1.341842e-04 1.058230e-04 1.880865e-05 2.292234e-04 3.006597e-04 2.477741e-04 -3.249440e-04
<VARIANCE> 39
 3.040602e+01 4.192422e+01 5.520526e+01 4.889620e+01 5.204957e+01 4.702858e+01 4.579444e+01 4.448232e+01 4.012514e+01 2.955622e+01 3.579197e+01 4.071066e+01 1.236576e+02 6.224006e-01 7.054058e-01 1.011225e+00 8.151530e-01 1.062841e+00 9.081959e-01 9.211345e-01 9.870307e-01 8.246890e-01 6.602182e-01 7.667302e-01 7.300442e-01 1.229335e+00 6.669842e-02 7.376146e-02 1.002703e-01 9.216128e-02 1.230481e-01 1.027686e-01 1.108114e-01 1.186331e-01 9.799098e-02 8.344303e-02 9.524330e-02 8.986990e-02 1.166565e-01
<GCONST> 8.878563e+01
<TRANSP> 5
 0.000000e+00 1.000000e+00 0.000000e+00 0.000000e+00 0.000000e+00
 0.000000e+00 7.208145e-01 2.791855e-01 0.000000e+00 0.000000e+00
 0.000000e+00 0.000000e+00 7.208180e-01 2.791820e-01 0.000000e+00
 0.000000e+00 0.000000e+00 0.000000e+00 8.540524e-01 1.459477e-01
 0.000000e+00 0.000000e+00 0.000000e+00 0.000000e+00 0.000000e+00
<ENDHMM>
~h "ai"
<BEGINHMM>
<NUMSTATES> 5
<STATE> 2
<MEAN> 39
 -9.050301e-01 -1.124985e+00 5.510418e-01 9.999806e-01 1.332313e-01 -2.708811e-01 -5.664930e-01 2.706678e-01 -3.228684e-01 1.986463e-01 1.736050e-01 -4.319765e-01 3.116303e+00 -1.456816e-03 -2.496671e-03 1.282954e-02 -4.672601e-03 -9.229827e-03 -3.772595e-02 8.314864e-02 2.400389e-02 -4.162989e-02 -1.467353e-02 6.276416e-02 3.646800e-03 5.021590e-02 -1.945813e-03 8.661104e-04 -1.554098e-03 -2.796873e-03 3.222177e-03 -3.213829e-03 1.751827e-03 2.984651e-04 8.378546e-05 -2.999520e-04 -7.853557e-04 1.103610e-03 2.341748e-03
<VARIANCE> 39
 4.419160e+01 4.941582e+01 4.996421e+01 4.862762e+01 7.073945e+01 3.375000e+01 4.788463e+01 3.950338e+01 4.685109e+01 2.890731e+01 3.678805e+01 3.089556e+01 7.163791e+01 1.549499e+00 1.451889e+00 1.767997e+00 1.013561e+00 1.396728e+00 6.436179e-01 1.244519e+00 9.546293e-01 9.731227e-01 7.021509e-01 9.038947e-01 7.117462e-01 1.091100e+00 1.421164e-01 1.379093e-01 1.652500e-01 1.062336e-01 1.509247e-01 7.508901e-02 1.344242e-01 1.012340e-01 1.047615e-01 9.151800e-02 9.808394e-02 7.555506e-02 1.060527e-01
<GCONST> 9.318060e+01
<STATE> 3
<MEAN> 39
 -9.205614e-01 -1.127945e+00 5.819795e-01 9.701338e-01 1.227906e-01 -4.052449e-01 -2.994093e-01 3.465189e-01 -4.509814e-01 1.516441e-01 3.629264e-01 -4.143808e-01 3.284512e+00 -7.261083e-03 2.051304e-04 7.946408e-03 -1.299892e-02 4.745793e-04 -4.721709e-02 8.661363e-02 2.476078e-02 -4.038862e-02 -1.555174e-02 6.013601e-02 6.863270e-03 5.675407e-02 -1.767957e-03 8.755752e-04 -1.552945e-03 -2.601571e-03 3.013679e-03 -2.901774e-03 6.145964e-04 1.777412e-04 5.720915e-04 -2.553332e-04 -8.938420e-04 9.498339e-04 1.891340e-03
<VARIANCE> 39
 4.505963e+01 5.024448e+01 5.029850e+01 4.725312e+01 7.048769e+01 3.514567e+01 4.790200e+01 3.838581e+01 4.842058e+01 2.855317e+01 3.594181e+01 3.069111e+01 6.994252e+01 1.598591e+00 1.477961e+00 1.792627e+00 9.962700e-01 1.435794e+00 6.742193e-01 1.266107e+00 9.345771e-01 1.031119e+00 6.996589e-01 9.181017e-01 7.210717e-01 1.119181e+00 1.454428e-01 1.397575e-01 1.673282e-01 1.063813e-01 1.534184e-01 7.752120e-02 1.372061e-01 1.008208e-01 1.107485e-01 9.210422e-02 1.002944e-01 7.533969e-02 1.073110e-01
<GCONST> 9.360221e+01
<STATE> 4
<MEAN> 39
 -9.672040e-01 -1.118521e+00 5.993341e-01 8.928693e-01 1.534098e-01 -6.247015e-01 5.720638e-02 4.486255e-01 -6.086349e-01 8.614977e-02 5.986500e-01 -3.772524e-01 3.532649e+00 -1.362258e-02 3.848702e-03 1.824297e-03 -2.284879e-02 1.173159e-02 -5.770824e-02 8.549236e-02 2.490072e-02 -3.686368e-02 -1.630432e-02 5.618032e-02 1.006339e-02 6.269390e-02 -1.329963e-03 8.644791e-04 -1.408392e-03 -2.281915e-03 2.522128e-03 -2.262004e-03 -9.591681e-04 -8.233480e-05 9.826489e-04 -1.317750e-04 -1.026146e-03 6.069635e-04 1.086900e-03
<VARIANCE> 39
 4.653659e+01 5.149100e+01 5.082655e+01 4.540487e+01 7.035355e+01 3.720371e+01 4.781450e+01 3.714920e+01 5.065890e+01 2.816197e+01 3.505100e+01 3.037765e+01 6.750803e+01 1.685089e+00 1.519004e+00 1.822544e+00 9.708320e-01 1.492368e+00 7.243157e-01 1.302190e+00 9.091811e-01 1.118274e+00 6.986648e-01 9.433164e-01 7.372386e-01 1.159184e+00 1.517494e-01 1.431701e-01 1.697844e-01 1.061956e-01 1.568940e-01 8.177663e-02 1.415949e-01 1.003880e-01 1.198020e-01 9.274916e-02 1.038785e-01 7.556774e-02 1.093095e-01
<GCONST> 9.428088e+01
<TRANSP> 5
 0.000000e+00 1.000000e+00 0.000000e+00 0.000000e+00 0.000000e+00
 0.000000e+00 6.763371e-01 3.236629e-01 0.000000e+00 0.000000e+00
 0.000000e+00 0.000000e+00 6.763372e-01 3.236627e-01 0.000000e+00
 0.000000e+00 0.000000e+00 0.000000e+00 7.883938e-01 2.116062e-01
 0.000000e+00 0.000000e+00 0.000000e+00 0.000000e+00 0.000000e+00
<ENDHMM>
~h "au"
<BEGINHMM>
<NUMSTATES> 5
<STATE> 2
<MEAN> 39
 -7.458345e-02 -3.415246e-01 -2.930376e-01 -3.348531e-01 -2.888788e-01 -8.955394e-01 9.999627e-01 6.037185e-01 3.217404e-01 -2.946891e-01 5.936359e-01 8.326589e-02 6.031573e-01 2.364018e-02 -1.022029e-02 -2.681115e-02 -8.309535e-03 -1.207549e-02 -1.624071e-02 2.869592e-03 2.349493e-02 6.075010e-03 1.942060e-02 -2.385514e-02 -2.182755e-02 2.341489e-02 5.373610e-04 7.282373e-04 -1.984743e-03 1.112433e-03 3.288164e-03 2.932064e-03 -1.362567e-03 -7.357623e-04 1.117040e-03 1.267415e-03 5.074954e-04 7.975117e-04 -3.762368e-03
<VARIANCE> 39
 2.679218e+01 4.147943e+01 4.537304e+01 4.779654e+01 4.872311e+01 4.486253e+01 5.268543e+01 4.384280e+01 3.882134e+01 3.279716e+01 3.390998e+01 4.331714e+01 1.206358e+02 6.538075e-01 8.491502e-01 1.102781e+00 8.625547e-01 1.166684e+00 1.073878e+00 1.173645e+00 1.017664e+00 8.855086e-01 7.549487e-01 7.709887e-01 8.039295e-01 1.523027e+00 7.290544e-02 8.367937e-02 1.072589e-01 9.643662e-02 1.314323e-01 1.225577e-01 1.422915e-01 1.192336e-01 1.083973e-01 8.917428e-02 9.345555e-02 9.331574e-02 1.322402e-01
<GCONST> 9.106570e+01
<STATE> 3
<MEAN> 39
 -6.088782e-03 -3.649544e-01 -3.937541e-01 -3.418011e-01 -2.962443e-01 -9.233663e-01 1.010959e+00 6.861285e-01 3.547072e-01 -2.216052e-01 5.281433e-01 2.727089e-02 6.246240e-01 2.531625e-02 -9.546511e-03 -3.238739e-02 -5.061333e-03 -1.631494e-03 -5.774609e-03 -2.470631e-03 2.087537e-02 9.365749e-03 2.284287e-02 -2.168246e-02 -1.908520e-02 1.172971e-02 5.044728e-04 -6.073083e-05 -1.872784e-03 7.363766e-04 3.310613e-03 3.247399e-03 -1.974561e-03 -7.349541e-04 1.162798e-03 8.178953e-04 7.824900e-04 7.335040e-04 -3.389199e-03
<VARIANCE> 39
 2.618163e+01 4.185224e+01 4.524475e+01 4.737751e+01 4.774663e+01 4.492484e+01 5.210856e+01 4.346712e+01 3.860772e+01 3.279184e+01 3.453258e+01 4.273008e+01 1.205095e+02 6.427631e-01 8.471586e-01 1.082699e+00 8.642001e-01 1.145759e+00 1.077998e+00 1.166094e+00 9.992988e-01 8.845889e-01 7.599956e-01 7.714006e-01 8.039094e-01 1.501049e+00 7.185069e-02 8.350889e-02 1.055209e-01 9.692014e-02 1.295778e-01 1.215274e-01 1.413965e-01 1.161214e-01 1.089753e-01 8.994231e-02 9.305234e-02 9.368256e-02 1.313933e-01
<GCONST> 9.083981e+01
<STATE> 4
<MEAN> 39
 1.884619e-01 -3.919119e-01 -6.849620e-01 -4.300939e-01 -2.037932e-01 -8.631319e-01 9.537945e-01 7.658092e-01 5.175676e-01 -1.587625e-02 4.426460e-01 -4.717159e-02 4.966724e-01 2.148538e-02 -8.957640e-03 -3.527225e-02 3.157820e-03 1.165759e-02 1.048393e-02 -7.012544e-03 1.937122e-02 1.349191e-02 2.356902e-02 -1.497497e-02 -1.075036e-02 -1.275159e-02 3.024278e-04 -7.434036e-04 -1.255664e-03 4.114118e-04 2.327085e-03 2.925914e-03 -2.157249e-03 -5.142771e-04 9.001138e-04 2.119986e-04 7.274962e-04 6.778469e-04 -2.766510e-03
<VARIANCE> 39
 2.493792e+01 4.176444e+01 4.420617e+01 4.710172e+01 4.443517e+01 4.410296e+01 4.994905e+01 4.260157e+01 3.815485e+01 3.200405e+01 3.439467e+01 4.144350e+01 1.201356e+02 5.876412e-01 8.019851e-01 1.008535e+00 8.389884e-01 1.065447e+00 1.046241e+00 1.112730e+00 9.540229e-01 8.497525e-01 7.341769e-01 7.364668e-01 7.746979e-01 1.393449e+00 6.574382e-02 7.918879e-02 9.847234e-02 9.501277e-02 1.228788e-01 1.166771e-01 1.350128e-01 1.100954e-01 1.057024e-01 8.765984e-02 8.893272e-02 9.073289e-02 1.230301e-01
<GCONST> 8.923664e+01
<TRANSP> 5
 0.000000e+00 1.000000e+00 0.000000e+00 0.000000e+00 0.000000e+00
 0.000000e+00 7.123094e-01 2.876906e-01 0.000000e+00 0.000000e+00
 0.000000e+00 0.000000e+00 7.123091e-01 2.876909e-01 0.000000e+00
 0.000000e+00 0.000000e+00 0.000000e+00 8.358659e-01 1.641341e-01
 0.000000e+00 0.000000e+00 0.000000e+00 0.000000e+00 0.000000e+00
<ENDHMM>
~h "ax"
<BEGINHMM>
<NUMSTATES> 5
<STATE> 2
<MEAN> 39
 2.643226e+00 -1.162396e+00 1.865718e+00 1.165236e-01 -2.746870e+00 -8.663898e-01 1.475661e+00 2.344471e+00 -2.611561e+00 -1.994292e+00 -2.168343e-01 -1.414736e-01 2.429027e+00 -5.605995e-03 4.163136e-02 -5.425752e-02 8.391722e-02 4.250226e-02 -2.595552e-02 7.993189e-02 4.574636e-02 2.167881e-02 1.617131e-02 6.400029e-02 4.834554e-02 -1.621066e-01 -1.487881e-03 4.733025e-03 -9.133808e-04 -3.804045e-03 4.666265e-04 3.220256e-03 -3.555029e-03 -6.107670e-03 8.274177e-04 3.228602e-03 -4.106155e-04 7.415722e-04 -1.076929e-03
<VARIANCE> 39
 1.498969e+01 3.159360e+01 3.863802e+01 4.814250e+01 4.307304e+01 3.988678e+01 4.800816e+01 5.594820e+01 4.132867e+01 2.862736e+01 4.273149e+01 3.234190e+01 9.612051e+01 4.277919e-01 7.508859e-01 1.087784e+00 1.084980e+00 1.733211e+00 1.320063e+00 9.515992e-01 1.428644e+00 1.055715e+00 8.077710e-01 8.246006e-01 7.868594e-01 1.151180e+00 4.665213e-02 7.262985e-02 1.072706e-01 1.012900e-01 2.031217e-01 1.327267e-01 1.259758e-01 1.653600e-01 1.231587e-01 9.978852e-02 9.774218e-02 9.807720e-02 1.031684e-01
<GCONST> 9.028522e+01
<STATE> 3
<MEAN> 39
 2.619751e+00 -1.003795e+00 1.677135e+00 3.897501e-01 -2.601036e+00 -9.437128e-01 1.735039e+00 2.478669e+00 -2.537166e+00 -1.927882e+00 5.734339e-04 2.559140e-02 1.872238e+00 -1.091241e-02 5.749252e-02 -5.703546e-02 7.040450e-02 4.407903e-02 -1.489580e-02 6.762953e-02 2.493785e-02 2.516459e-02 2.721366e-02 6.202032e-02 5.080333e-02 -1.648498e-01 -1.693563e-03 4.335977e-03 -4.609603e-04 -4.203144e-03 4.306777e-04 3.155055e-03 -3.562000e-03 -5.881399e-03 1.414564e-03 3.210773e-03 -8.681792e-04 5.918640e-04 -1.837063e-04
<VARIANCE> 39
 1.449196e+01 3.142620e+01 3.768511e+01 4.801815e+01 4.345304e+01 3.910917e+01 4.593251e+01 5.419219e+01 4.080823e+01 2.867649e+01 4.127455e+01 3.161382e+01 1.005150e+02 3.996639e-01 6.984347e-01 1.043479e+00 1.067894e+00 1.727571e+00 1.306688e+00 8.778455e-01 1.356875e+00 1.042246e+00 8.060749e-01 8.105071e-01 7.791069e-01 1.102463e+00 4.239091e-02 6.824833e-02 1.027236e-01 9.847813e-02 2.016636e-01 1.316515e-01 1.160024e-01 1.568121e-01 1.207523e-01 9.946667e-02 9.729680e-02 9.844762e-02 9.904198e-02
<GCONST> 8.923409e+01
<STATE> 4
<MEAN> 39
 2.571268e+00 -7.634376e-01 1.452049e+00 6.489283e-01 -2.427648e+00 -9.895887e-01 1.984422e+00 2.553440e+00 -2.434789e+00 -1.809713e+00 2.386580e-01 2.262898e-01 1.228496e+00 -1.766704e-02 7.379702e-02 -5.828402e-02 5.390773e-02 4.575425e-02 -2.830091e-03 5.405736e-02 2.520820e-03 3.134568e-02 3.951526e-02 5.821595e-02 5.293214e-02 -1.647046e-01 -1.840192e-03 3.651120e-03 2.602926e-04 -4.327617e-03 3.621185e-04 2.840867e-03 -3.218862e-03 -5.231844e-03 1.862168e-03 3.019476e-03 -1.197885e-03 3.292533e-04 7.614180e-04
<VARIANCE> 39
 1.423887e+01 3.128413e+01 3.682655e+01 4.805882e+01 4.374783e+01 3.853534e+01 4.367340e+01 5.237884e+01 4.048264e+01 2.883946e+01 3.940746e+01 3.086504e+01 1.053460e+02 3.727454e-01 6.375284e-01 9.937893e-01 1.050576e+00 1.714348e+00 1.292600e+00 8.006962e-01 1.276848e+00 1.032417e+00 8.095583e-01 7.975827e-01 7.713815e-01 1.046689e+00 3.819863e-02 6.316219e-02 9.704056e-02 9.555919e-02 1.991661e-01 1.302260e-01 1.054022e-01 1.472023e-01 1.184495e-01 9.983166e-02 9.742477e-02 9.879250e-02 9.444439e-02
<GCONST> 8.808173e+01
<TRANSP> 5
 0.000000e+00 1.000000e+00 0.000000e+00 0.000000e+00 0.000000e+00
 0.000000e+00 7.061040e-01 2.938960e-01 0.000000e+00 0.000000e+00
 0.000000e+00 0.000000e+00 7.061040e-01 2.938960e-01 0.000000e+00
 0.000000e+00 0.000000e+00 0.000000e+00 8.229533e-01 1.770467e-01
 0.000000e+00 0.000000e+00 0.000000e+00 0.000000e+00 0.000000e+00
<ENDHMM>
~h "bh"
<BEGINHMM>
<NUMSTATES> 5
<STATE> 2
<MEAN> 39
 7.347654e-01 -3.113796e-01 -8.674420e-01 -8.883382e-01 3.198726e-01 -2.506328e-01 -8.322389e-01 -7.371441e-01 -3.846785e-02 2.321374e-01 -1.330820e-01 -8.612052e-01 1.476275e+00 -6.050339e-03 3.006855e-03 -1.069557e-03 -4.062013e-03 1.134671e-02 9.722079e-03 1.268909e-02 -2.518127e-03 -5.268077e-03 4.118648e-03 3.088698e-03 5.009916e-04 -8.567610e-03 -5.496850e-04 -7.898865e-04 6.044311e-04 -5.228667e-04 -6.832737e-04 -1.947912e-04 6.581113e-04 9.826093e-04 1.919948e-04 7.135981e-05 -4.235709e-04 -2.044806e-04 1.449070e-03
<VARIANCE> 39
 3.477164e+01 3.781863e+01 5.724256e+01 4.736794e+01 5.175692e+01 4.786246e+01 4.965345e+01 4.834905e+01 4.325862e+01 3.319096e+01 3.513697e+01 4.068745e+01 1.136223e+02 7.358848e-01 7.760167e-01 9.652162e-01 9.260732e-01 1.099200e+00 9.727009e-01 1.043997e+00 1.034747e+00 9.000934e-01 7.607111e-01 8.067874e-01 7.631123e-01 1.470258e+00 8.037999e-02 8.401963e-02 9.661012e-02 1.068640e-01 1.258789e-01 1.114739e-01 1.239882e-01 1.264492e-01 1.089137e-01 9.306441e-02 1.010725e-01 9.375541e-02 1.467017e-01
<GCONST> 9.146043e+01
<STATE> 3
